468 64
462 0.027265202 0.07553927 0.5219423 -0.16512781 0.063092835 -0.52400357 0.14200234 0.15243576 0.089558095 -0.0822868 0.14981195 0.5270419 0.0895434 -0.1585784 0.33703792 -0.29235163 -0.0077805286 0.07589711 -0.22185054 0.19189669 0.20737422 -0.1026959 -0.23328508 0.18475084 0.079701304 -0.35941222 -0.4445857 0.5015676 0.8618626 -0.09039914 -0.08322878 0.29364452 -0.11194358 0.051741697 -0.32276514 0.174324 -0.33634794 0.28828123 0.30002898 0.24436952 0.48413384 0.60275686 -0.30683708 0.08208206 -0.014431401 -0.2353132 0.08450023 -0.3642993 -0.16124211 -0.09732781 0.06264241 0.19619317 0.024721222 0.16635686 -0.028120805 -0.16358279 -0.1089192 -0.00575568 -0.3320122 -0.51023203 0.17182542 -0.26084894 0.018735465 0.49985504
467 -0.3635304 0.3456029 -0.40826792 -0.4118905 0.359915 -0.16998176 0.39867538 -0.603423 0.1979119 -0.0077299983 -0.08000235 -0.0028876453 -0.06416489 -0.060943626 0.58987033 0.07650422 0.10489146 0.062874556 0.23283881 0.37718958 -0.084485486 -0.19228786 -0.1564311 0.021646783 0.46565232 -0.50302553 -0.2080755 0.2886689 0.54338944 0.30188107 0.12070226 0.116053134 -0.051200897 0.16758768 0.6113858 0.07908396 -0.83132786 0.05885181 -0.030251993 0.30639234 -0.14728312 0.1780723 0.11660094 -0.09078922 -0.58189136 -0.7385344 0.98423445 0.066622 -0.41186753 0.3005634 0.09245621 -0.08133666 0.39245102 0.27827016 -0.1417864 0.5674994 -0.13209254 -0.1155469 -0.00095998024 0.3235134 0.06379226 -0.40430707 0.15972775 -0.7480518
465 -0.38107187 0.26148602 -0.13868958 -0.44925556 0.025927039 -0.27262834 0.49266854 -0.03682121 0.3670153 0.035532765 0.65130264 0.48092207 0.06755857 0.14760436 0.30573866 0.12143027 -0.1676917 0.2578021 0.283348 0.17917414 -0.11460847 -0.071551666 0.46936685 -0.69206965 -0.11574339 -0.05536351 -0.24558878 -0.06550478 1.206278 0.26463032 0.3056995 0.1327159 -0.14930893 -0.26066005 0.18016475 -0.6063061 0.21884574 0.49054706 0.16122667 0.21530369 0.43224943 0.33320698 -0.30605268 -0.842347 0.033309437 0.13500981 -0.19503877 -0.14266399 -0.062290937 -0.19310783 0.78477633 -0.5649834 -0.27388945 0.15127055 -0.34860286 0.6864253 -0.08378866 -0.07014856 0.42529973 -0.008081346 -0.41783363 0.21330327 -0.4417382 -0.4093097
247 -0.24646136 -0.2609809 -0.061267424 0.15056132 0.16969977 -0.72143996 -0.27630386 0.118470475 0.05851312 0.32982245 -0.03682445 0.56368196 0.19476922 -0.45820737 0.82544094 -0.13416412 0.043163113 0.5314958 0.3711226 -0.24552071 0.11472745 0.23010951 0.32105365 0.23667163 0.52429074 0.28923106 -0.60497975 0.36160362 0.5991729 -0.581407 0.37615517 0.3228613 0.17826922 -0.5374504 0.7318959 0.119313724 0.26473445 0.49737436 0.054795075 -0.14354482 0.28819618 -0.12248998 -1.1753378 -0.86716086 -0.4229518 0.015428612 -0.061491635 0.27378172 -0.16552325 0.6267055 -0.2775418 0.48224378 0.54483414 0.22039923 0.2790932 0.28069654 -0.13448441 0.116835184 0.059358846 0.7789974 -0.39165533 -0.055219114 0.15758283 -0.21308017
216 -0.53932756 0.4257989 0.4030564 -0.6076511 -0.25482634 -0.018357357 0.10922607 -0.04743735 -0.32420173 0.5491054 0.12644267 -0.20246805 0.2752413 0.28754416 0.77397937 -0.17448469 0.31502426 0.6097017 0.038457904 0.27750906 -0.089117594 0.30641744 -0.33407712 0.03909431 -0.090300344 -0.25995898 -0.231425 0.957213 0.4332674 -0.63355947 0.35868037 0.07237457 -0.11979541 0.21221972 -0.46256807 0.8649496 0.30950484 0.52898175 0.15037516 0.37260675 0.6441586 0.5968449 0.39848116 -0.751012 -0.98878676 0.5338049 0.49623153 -0.3291369 0.004217779 -0.1536832 -0.27691782 -0.23577164 0.3024688 -0.16002451 0.10983051 -0.0016386037 0.3218171 0.16409 0.029928941 -0.101250246 0.28155687 -0.14827359 -0.5924792 0.2856443
436 -0.5242322 0.42710587 0.3148746 0.56316495 -0.2800406 0.27053756 -0.28974608 -0.1394956 -0.4454737 -0.52328795 0.04331589 0.76033103 -0.015475869 -0.7642589 0.20800957 0.06026614 0.39232424 0.47004572 0.37758297 0.054446306 -0.39380732 -0.41392326 -0.13672528 0.2548557 0.007271818 0.08591254 -0.32872385 -0.13322547 0.5772788 -0.16929254 0.054515608 0.8480883 -0.06759664 -0.12687363 -0.087791696 0.035043117 -0.16117623 0.36524191 -0.05243631 0.20073587 0.6355574 0.7113238 0.026688144 0.06285781 0.18554188 -0.2562504 -0.4143683 0.050676614 0.36267266 0.29650274 0.32912505 -0.7496158 0.45082906 -0.26198024 0.028921353 0.055921398 -0.07288577 0.31313363 -0.16005258 -0.053895377 0.31214136 -0.69705373 0.5337359 0.107555225
431 -0.37805152 0.10815077 -0.04428517 0.17235553 -0.80736715 -0.4563103 -0.050748553 -0.53244436 -0.63615954 -0.3853773 -0.21957408 0.20189725 -0.5477384 -0.7543464 0.35348162 -0.2508665 -0.1238598 0.6305258 0.1480867 0.6480496 -0.16052112 0.07578517 -0.6083557 0.32295159 -0.17671175 -0.052056562 -0.8951395 -0.08716313 0.071906604 -0.25552127 -0.1385602 0.12934689 0.52546436 -0.8306476 0.5854603 0.005678303 0.069084816 0.60802823 -0.17037654 0.006588712 0.31312326 0.37505308 0.53565526 -0.31159344 0.117665954 -0.4462629 -0.26973775 -0.058992196 -0.009791811 0.3778995 0.6850653 -0.38143647 0.22626773 0.32122383 -0.17534794 0.46661216 0.24112913 -0.18972881 -0.46204045 0.26281276 -0.23599051 -0.16970836 -0.3704202 0.7470737
428 -0.9862393 -0.29669 -0.0029371511 0.6471797 0.110205896 -0.8385869 0.1122622 -0.974545 -0.4315933 -0.5300421 -0.640142 -0.114576675 -0.54742193 -0.64485514 0.033791274 -0.49291638 -0.8249419 0.91785145 0.45747915 1.408278 -0.45235056 -0.12751213 -0.45578334 0.32436284 0.0026394192 0.521161 -0.8133279 0.26664904 0.78062904 -0.07003248 0.29661435 -0.1313683 0.36544353 -0.60431594 0.5703695 -0.025185611 0.16727458 0.123296805 0.11088645 0.676712 0.45621747 0.4603626 0.5996491 -0.34605163 0.6173686 -0.031498943 -0.6609429 0.015870165 -0.32840937 0.583258 0.3710198 0.0358761 0.44110125 0.024682902 0.4543698 0.18081233 -0.18431595 -0.7616045 0.020322034 0.100541614 -0.09708074 0.15720196 -0.5293085 0.09650767
460 -0.1800592 0.28951877 0.52143705 0.27891052 0.08842431 0.15496509 -0.39563417 -0.5736795 -0.2707558 0.08064693 0.18088658 0.82238346 0.5074624 -0.13048883 0.34535143 -0.59528667 -0.034228213 0.069412775 0.093025744 0.45507815 0.5125356 -0.5244431 0.062396802 0.3586717 0.018364767 0.19852866 -0.7374666 -0.058005612 0.42606112 -0.60293204 0.15417428 0.3918844 -0.82901174 0.066226736 -0.055961963 0.088919096 -0.17109123 0.055329707 0.18956792 0.17233926 0.4403334 0.3393741 -0.09822582 0.3502154 0.3131727 -0.050545074 -0.057705957 -0.99888784 -0.33990622 0.29844528 0.60173833 -0.15066689 0.40140274 0.12052964 -0.19630833 -0.39955425 -0.08682422 0.18715796 0.24310383 0.20608726 -0.11130981 -0.5408386 0.4483526 0.5839176
234 -1.6840712 0.064751364 0.0827152 -0.11132001 0.42844945 -0.79830134 1.1060412 -0.8063975 -1.0873104 -0.30202797 0.17064498 0.27855378 -0.3535729 0.72133166 1.1015483 0.0014158796 -0.6002426 -0.8144023 1.4968822 0.44115344 0.6699661 -0.27180323 -0.6052334 -1.1307718 0.47496566 0.83155465 -0.2629612 0.81913316 0.24108839 -0.21695809 0.6213004 -0.16070484 0.250591 0.63633406 1.2488054 0.2644594 0.592832 0.5849297 -0.7056569 -1.3723665 0.25481644 0.95400065 -0.7881259 -0.3679453 -0.18841435 -0.6238462 1.087365 -0.4821608 0.21681914 0.6294602 0.94134915 -0.9735259 -0.5112636 -0.57962507 1.2385037 -0.13665296 -0.5778291 0.2885484 0.16222215 0.4044265 -0.4393147 -1.226176 -0.023745652 -0.46400407
454 -0.37761092 0.47278726 1.1478686 -0.4410046 -0.4094838 -0.16070387 0.8502385 -0.9828744 -0.45295328 0.0816184 0.27200827 -0.039610762 -1.5466578 0.7315024 0.24657398 0.47897944 -1.0578489 -0.58623147 0.98551095 -0.19630884 -0.21203876 -0.37885034 -0.87353045 -1.1767414 -0.3633696 -0.076937206 -0.61824626 1.0732583 0.25105184 -1.2159595 0.00056133483 -0.21837932 0.5327942 0.67933357 0.63242346 -0.3146055 0.19801772 0.29202223 -0.63977754 -0.14823976 0.88816434 0.008954653 -0.380492 -1.2715412 -0.07703764 -0.01816851 1.0432314 -0.50619256 -0.0076142033 0.71629965 0.42675188 -0.9955527 0.7832194 -1.1267208 1.9559786 0.07115078 0.75908107 0.6038781 -0.03432526 0.36589774 -1.1556361 -0.43709892 0.43451214 0.23694552
240 0.07109512 0.2837448 0.32732135 -0.4183362 -0.10075196 -0.6336058 0.15697768 -0.1255408 -0.6396819 0.26147273 0.0069160755 0.08986663 0.36180294 0.22036766 0.90000033 -0.54126364 0.7365704 -0.008475351 -0.018083455 0.22756615 0.07337821 0.2882095 -0.24418877 -0.14135157 0.25260878 -0.500324 -0.86508346 0.7043104 0.49872512 -0.7742894 -0.30739573 0.031396754 0.40156427 0.18575671 -0.8077131 0.22551756 -0.17836812 -0.043802883 0.44329235 0.18916188 0.5949734 0.3895271 0.05629467 -0.5774222 -0.24482296 0.2977258 0.33097216 0.20827127 -0.52529263 -0.6195316 0.3770106 -0.3064957 -0.32314965 -0.5988505 0.4950471 -0.16334134 0.07822074 -0.3731036 -0.18284681 -0.26909474 -0.06957157 -0.098928094 0.4081906 0.14097086
211 -1.2222103 1.0560591 -0.15417038 0.21543352 0.23751613 -0.45794633 0.1669687 -0.055367112 0.34842277 0.3059221 -0.22327286 -0.15940136 -0.59763086 -0.0086767245 0.35503408 -0.9153024 0.24553479 0.6160167 0.43833217 -0.25778455 0.070208676 -0.1744151 -0.6014258 0.32485837 0.20420398 -0.45743147 -0.7485794 1.6389691 0.49709088 -1.2856671 0.8357584 0.35294184 -0.63012093 0.53857416 0.73783934 -0.037640557 1.2594298 0.22410926 0.6715692 0.23667397 -0.20771617 0.5927779 0.97794664 -0.28684652 -0.5632099 1.2803949 0.7438551 -0.65157336 -0.4427186 0.4416063 0.52072257 -0.0042902585 0.08525065 -0.14055388 -0.1058477 0.13911639 0.029682387 -0.14155504 0.45330513 -0.5342857 0.6431773 -0.56279355 -0.16498947 0.23947479
466 -0.31064177 0.89785004 -0.5269726 0.18346798 -0.044817172 -0.21460776 0.23648469 -0.82254446 -0.24371053 -0.08489964 -0.2114116 -0.08703729 -0.3343944 -0.28255475 0.3711271 -0.49451095 -0.13451664 -0.05667289 -0.23284544 -0.7386874 -0.56717384 -0.45837492 -0.6724353 0.10855546 0.04858162 -0.7164891 -0.14966288 1.0747952 0.18859254 0.6148244 -0.050909817 0.05408677 0.094100565 1.2344469 0.29957813 0.07475595 -1.0360588 0.10357721 -0.35933298 0.4761422 0.092174105 0.70064545 -0.5445874 -1.0476927 -0.81592846 -0.70968246 0.6010703 -0.028486283 -0.0052179955 0.27738544 0.42408976 -0.12778673 0.67307574 0.8892445 -0.663303 0.73348105 0.20487359 -0.516009 0.31825316 0.5043267 -0.16329402 0.36824945 0.23579997 -0.37857434
242 -0.23996837 0.007700839 0.68781006 -0.3702478 0.115475245 -0.6201055 0.18183057 0.32364786 -0.5890802 0.16515768 -0.17057852 0.40409368 -0.3233322 -0.72936404 0.03863853 -1.0032587 -0.3837571 -0.2290559 -0.7798746 0.36337835 0.491466 -0.2005375 0.46120802 -0.096905045 -0.18558833 0.71332246 -0.31112015 0.5969593 0.70250255 -0.015912062 -0.14525178 0.035988685 0.2294935 0.05263359 0.09046783 0.6915787 -0.07343968 0.6351851 -0.09202098 -0.025600897 1.0262977 0.6809139 -0.6768397 -0.030718593 -0.22207072 -0.5519294 0.9134926 -0.4493602 -0.21998392 -0.25482726 0.22935987 -0.17341815 -0.5356336 0.24503514 -0.08876073 -0.24080503 -0.61701083 -0.7483314 -0.6065398 -0.36186227 0.2460419 -0.48218003 0.2998779 -0.08248561
434 -0.23204195 0.4813681 -0.045983594 0.3108249 -0.3376003 0.5320084 -0.0859959 -0.5264432 -0.98212755 -0.59671575 -0.6507084 0.6609936 -0.4192726 -1.0039357 0.5704186 0.058528893 -0.14737499 0.50744176 0.30471835 -0.002194745 -0.22644281 -0.059309363 -0.7460175 0.2910397 0.30436286 -0.17594048 -0.71151954 -0.5681853 0.2208122 -0.48607123 0.05546156 0.5167996 0.16188206 -0.68133974 -0.1206502 0.057048216 0.12131039 0.5272315 0.6868504 -0.043927807 0.6592307 0.416685 -0.08252434 -0.3572767 0.18455474 -0.4459654 -0.25298998 -0.19236322 0.38619387 0.21769074 0.3824816 -0.49951723 0.09365959 -0.04479587 -0.49448025 0.16743468 0.06770211 -0.23309761 -0.8404416 -0.050277162 0.07737948 0.005706604 -0.08613491 -0.041705433
317 -0.5049184 0.46196342 0.026975447 -0.023715686 -0.8433297 -0.5579234 0.24008498 -0.5335426 -0.6099175 -0.16583282 -0.19296728 0.4015395 -0.40217283 -0.59396255 -0.058716845 -0.30815387 -0.41628677 0.35426375 0.2368036 1.1070982 0.36668718 0.019964939 -0.33181012 0.6380466 0.08416753 0.23688322 -0.60717833 -0.22685768 0.03316943 -0.4486572 0.19398166 0.35092202 0.70286316 -0.61402154 0.90902936 -0.08829983 -0.08706859 0.5964277 -0.10920663 -0.3805519 0.8118897 0.16752815 0.6449764 -0.45557734 -0.42119712 -0.4235102 0.16005109 0.5772229 0.42469957 0.48249224 1.2521572 0.08891925 0.20088509 -0.16221336 0.114963084 0.234351 0.91651773 0.13910106 -0.8190929 0.4736803 -0.28197205 0.06897132 -0.3952989 0.8970013
419 -0.85536426 -0.13232845 -0.12054896 -0.0070791384 -0.102020614 -0.37886846 0.92449826 -0.32059896 0.5809142 0.28837654 0.34873465 0.64971566 -0.29827347 0.59801096 -0.017356278 0.24667701 -0.76687795 0.050073776 -0.05093104 0.7231458 0.23640864 -0.19373825 0.43120858 -0.7484663 0.226206 0.21447897 -0.081546485 -0.44331792 1.1984785 -0.45922357 -0.19277476 0.45949426 0.1607144 -0.03567198 0.0742729 -0.72621244 0.71746725 0.49765375 0.8632417 0.08957216 0.8501177 -0.016452642 -0.42551634 -1.0062946 0.13862541 0.35991055 0.42892414 0.024371007 -0.3460006 0.15448347 0.62675244 -0.49627122 0.084183864 0.50006706 0.06320807 0.66787887 0.17857246 -0.14713812 0.6054334 0.032524206 -0.284902 0.34800652 -0.17403759 -0.04866073
421 -0.7147935 0.57141143 0.3093479 0.10533747 -0.92819256 -0.15112434 -0.4072456 -0.16394834 -0.12384183 -0.55089504 -0.20505305 -0.376652 -0.75709593 -0.14558946 0.3207141 -0.36303663 -0.48347113 1.7036719 0.08255865 0.7657034 -0.024373546 -0.029616477 0.09993965 0.44126207 -0.61393714 -0.27449566 -1.2577908 -0.6467223 0.062041737 -0.3864648 -0.7708766 0.3872853 0.7558898 -0.33841595 0.3597992 0.23212934 -0.14791824 0.5826086 -0.30961874 0.087786846 -0.011807475 0.77150047 0.17024559 -0.6405728 -0.114895634 -0.24645603 -0.31088144 -0.5346372 -0.27011663 0.16823359 0.5379168 -0.45229614 0.59426194 -0.24509248 0.27550372 0.44830048 0.9007743 -0.05391506 -0.8085098 0.3293651 -0.5320873 -0.44598338 -0.311014 0.08884796
214 -0.7344996 0.86003584 0.444028 -0.063237615 -0.002359468 0.0029687958 0.09122699 0.0053074127 -0.29044825 0.3934955 -0.024165077 -0.4822967 -0.31242436 -0.20711093 0.6668083 -0.64826566 0.20581323 0.24709804 0.2651961 0.17870474 -0.40575978 0.57707685 -0.09944502 0.21579154 0.030681603 -0.17010617 -0.8444743 0.8646824 0.35055384 -1.1577035 0.3495996 0.09707511 -0.8343335 0.54328763 0.46698904 0.2615582 0.5794409 0.002686662 0.63092095 0.6024178 0.3353032 0.37715057 0.6285092 -0.61100006 -0.8712772 0.93404037 0.5204288 -0.8706003 -0.5296655 -0.07121862 -0.010347533 0.020960592 -0.13193801 -0.2519305 -0.21412805 0.4534176 -0.0270398 0.09297667 0.11820196 -0.25318438 0.4510336 -0.38536385 -0.3946476 0.3957707
435 -0.7268777 0.74110603 0.5491035 0.018739732 -0.42783374 0.6003301 0.30181706 -0.3088635 -0.7635402 -0.6651556 0.4362794 0.2854433 0.36985424 -0.5429429 -0.03406574 -0.27528363 -0.094309404 0.543828 0.7101714 0.05930249 -0.5474435 0.047151398 0.04995387 -0.095462665 -0.34655043 0.5017679 -0.51882 0.15646729 0.41472656 -0.24855778 -0.4389904 1.1371554 -0.34136158 -0.31929293 0.2795689 -0.16808099 -0.563394 0.46449187 -0.47861692 0.26196477 1.103269 1.0017402 -0.02315974 -0.2589826 0.20874903 0.0167571 -0.62879 0.07124568 0.18915223 0.6861819 0.3442565 -0.35694033 0.80252635 -0.643276 -0.016361184 -0.761861 -0.42246854 0.057628833 0.015968526 0.38771617 0.39310628 -0.80120873 0.91213685 0.10728943
432 -0.48425224 0.16740704 0.13663617 0.558066 -1.0492731 -0.021108441 -0.1656215 -0.4964309 -0.5119563 -0.2479722 -0.7638203 0.26564506 -0.34262127 -1.2251916 0.010246694 0.5754705 -0.12038571 0.2433897 0.76731527 -0.037242983 -0.347143 -0.6720988 -0.24212529 -0.30956632 0.2096631 -0.31445137 -0.48853248 0.2867006 0.47664976 -0.031979136 -0.04033738 0.99626607 -0.63709056 0.23659737 -0.1714324 -0.04331836 -0.728214 1.3690872 -0.3465126 0.13468562 0.36852023 0.4945873 -0.44488248 0.34063107 -0.43804273 -0.015784737 -0.32100588 -0.24097507 -0.049891952 0.33577248 0.50731343 -0.9839737 0.5505083 -0.3528826 0.3151614 -0.12092461 -0.31063914 0.61736274 -0.0057871807 -0.035937715 -0.078091085 -0.588265 0.41645926 0.7492349
370 0.7129698 -0.03488053 0.8343487 -0.5810081 -0.2524158 -0.54994625 -0.022915443 -0.10275281 0.18752287 -0.03742258 -0.17166054 -0.043722056 0.20024735 -0.28017572 0.4945898 -0.6705159 -0.20887361 -0.29123375 0.615112 0.4246379 -0.057613924 -0.2595938 -0.11408398 -0.23235345 -0.33481055 0.043595944 -0.6551799 0.83410424 1.1678174 -0.81067175 0.6957341 0.43548977 -0.11053065 -0.0060410616 -0.41948628 -0.18720278 -1.38458 -0.11682719 0.33045906 0.6083934 0.5218246 0.029527169 -0.029736616 -0.06350181 -0.018384436 -0.09490389 0.08063293 -0.28345492 -0.019612541 0.21412829 0.039040163 -0.3722997 -0.026837703 -0.16707946 -0.39418638 -0.21741705 0.50235033 -0.620624 -0.52705127 -0.7281276 -0.5496499 -0.35063723 0.34586048 0.8193277
215 -1.5664412 0.6538334 0.6252593 -0.29296952 0.009757467 -0.4100275 -0.023946408 -0.46747378 -0.6611666 0.55197245 0.38647112 -0.06959553 0.48933432 0.18820038 0.48892128 -0.40887654 0.16570649 0.3979098 -0.43306726 0.516068 0.015222439 0.8313715 -0.2660683 -0.13052268 -0.021897981 0.28694427 -0.16854653 1.2646116 0.6103994 -0.08757507 0.50471604 0.1657018 -0.4092812 0.73993826 -0.6623772 0.96842337 0.59261996 0.10661817 0.040129796 -0.1766308 0.5867238 0.38819385 0.7114268 -1.0568571 -0.6810755 -0.28921217 0.52380055 -0.21314257 0.23642254 -0.20878907 -0.8711832 -0.47179794 0.50417566 -0.5141128 0.11846652 0.5869828 -0.015099252 0.51867294 -0.2711725 -0.18496831 -0.15538014 -0.27480245 -0.7698778 0.40749052
445 0.08416602 0.2761594 -0.1794346 0.56750923 0.48382923 0.013620465 0.82384276 -0.68252236 0.042906716 -0.07795854 -0.19058944 -0.05966987 0.16672803 0.13626912 0.7916864 0.06185694 0.119487405 0.053937543 1.0141796 0.69766265 0.5389949 -0.09177344 -0.5398661 -0.04050618 0.39527 -0.77414405 0.25463948 0.76745045 0.48338035 0.2864833 0.3762191 0.021137178 0.33964437 0.039835036 0.55481786 -0.42597494 -0.2474462 -0.07253535 -0.25598717 -0.057146765 -0.46182007 0.368432 -0.10941457 -0.36956123 -0.7388705 -0.4679408 1.3624228 0.16141813 -0.6039352 0.35523903 0.49077535 -0.33283085 0.5176245 0.3889094 -0.6092216 0.49420232 0.03318531 -0.090518184 -0.6411749 0.16319145 -0.5358651 -0.81408054 -0.06940244 -0.7145466
109 -0.5383968 -0.115422785 0.84035087 0.12423075 0.32036403 -0.43313324 0.28313074 -0.7597652 -0.5228356 -0.09821335 0.42642254 -0.56662744 -1.2090772 -0.5540869 -0.8539176 0.45692593 -1.7146391 -0.5952658 0.1767302 0.5450173 0.68778884 -0.57885486 0.09617033 -0.5057106 0.6769104 1.2614353 -0.114787996 -0.05753694 0.9678275 -0.10642959 0.18203758 0.579822 0.088222966 -0.08399346 0.04625395 0.12360322 0.3424193 1.0438638 -0.24430496 -0.5839247 1.3710285 -0.62210387 -0.4517626 -0.12766501 -1.8494837 1.0289531 1.3099452 -1.0324234 0.19782543 0.6523477 0.5551146 -1.109645 0.8615586 -0.24075377 1.0960473 0.3648036 -0.6502186 -0.70532876 -0.6548834 -0.08607624 0.22536822 -0.69258344 0.2195963 -0.5686177
338 -0.5310182 -0.24272947 0.7861651 0.24489908 0.24626605 -0.5812893 0.37761027 -0.7703071 -0.41539085 -0.09717845 0.06680362 -0.780297 -0.8268108 -0.45222476 -0.68678904 0.3858446 -1.6559665 -0.7921633 0.28424725 0.7929341 0.7869223 -0.4402083 -0.027737547 -0.320379 0.74076444 1.3182153 -0.024556007 -0.11766865 1.0023844 -0.13688898 0.2723924 0.5752572 -0.03520418 -0.11179646 0.17215447 0.25714427 0.42442912 1.1781503 -0.37939093 -0.52127266 1.5338292 -0.5088385 -0.5014881 -0.13317838 -1.6212457 0.95958513 1.4832526 -1.0048778 0.18329602 0.78589964 0.6808419 -1.1286697 0.5690643 -0.31959155 1.1564913 0.4047964 -0.7718954 -0.77910376 -0.58903384 -0.030642515 0.16827023 -0.9041019 0.064765066 -0.71768785
225 -0.56717575 -0.13591973 -0.2441984 0.3838604 -0.24085449 -0.54110634 -0.39938858 0.11448768 0.12510487 0.21250072 0.19935572 0.44759774 -0.01739919 -0.33575013 0.75910664 0.36151302 -0.12216869 0.28962868 -0.06685151 -0.6611157 0.240846 0.40344468 0.5562591 0.7669858 0.75371057 0.5810343 -0.20323962 0.7959382 1.097076 0.16790558 0.5737615 -0.019425647 -0.08265242 -0.56027085 0.46603987 -0.14659615 0.11886758 0.4867058 -0.5851498 -0.45333737 0.4616211 -0.07573283 -1.1364199 -1.2018994 -0.36790693 0.38111556 0.031743728 0.038508132 -0.11827082 1.119052 0.41770193 0.653519 0.27284268 0.22508089 0.68621504 0.30485734 0.19363873 -0.098392144 0.016936718 0.5770466 -0.1282421 -0.0311663 0.39555764 0.48121023
151 -0.50355035 -0.200151 0.9504381 0.17194337 0.2818941 -0.5533101 0.33965045 -0.7990317 -0.48773462 -0.21004693 0.34061947 -0.61504465 -1.1205859 -0.56275874 -0.8868403 0.42498162 -1.6646057 -0.75262713 0.23926064 0.70915544 0.75355524 -0.43982065 0.16535157 -0.4137106 0.7684519 1.2243592 -0.16897117 -0.05114126 0.9443526 -0.19365488 0.20588376 0.6666074 0.055158097 -0.18174708 -0.004417786 0.17562176 0.29542083 1.1344777 -0.30347723 -0.5268323 1.5316784 -0.68248576 -0.30846134 -0.04694919 -1.7683392 1.0500172 1.5341645 -0.9295515 0.18689397 0.8179858 0.5960514 -1.0254412 0.73740226 -0.17637947 1.1455891 0.41126454 -0.77402276 -0.67738175 -0.61357903 -0.009834782 0.22654568 -0.8564667 0.0873789 -0.70087457
396 -0.8813197 -0.08929066 0.15902805 0.8249034 0.38790363 -0.8343258 -0.14946769 -0.7843341 -0.56543154 -0.7089049 -0.57728666 -0.13593438 -0.85813993 -0.6016005 -0.17242464 -0.59341186 -1.1256385 0.6036978 0.27037475 1.3286251 -0.3811716 -0.15207013 -0.41827488 0.20679468 -0.00753642 0.5301528 -0.7851917 0.60355204 0.56731635 0.085985735 0.23951739 -0.43909946 0.3618961 -0.65442234 0.43312162 -0.3437666 0.02627893 0.3008314 0.13002323 0.6140754 0.5034452 0.4881534 0.6511552 -0.036202446 0.3243636 0.15573382 -0.71920526 -0.026100978 -0.35140875 0.6860183 0.3045261 -0.16437839 0.8965365 0.0649018 0.4629739 0.2965486 -0.14936979 -0.8523711 0.20531851 0.1110217 -0.19188966 -0.06534283 -0.35087478 -0.072645895
405 -0.42463133 -0.019994522 0.16033106 0.63336945 -1.3047706 -0.22504562 -0.14561953 -0.49755624 -0.5582747 0.12373731 -0.92404443 0.20457837 -0.36292788 -1.5546656 0.06227387 0.59301674 -0.10160097 0.107491136 0.8776123 0.079568826 -0.35640445 -0.70272744 -0.22892314 -0.526464 0.315065 -0.52231336 -0.5443221 0.25391692 0.3362487 -0.17902815 -0.094437346 0.9943853 -0.7239627 0.39115742 -0.1600863 -0.18966089 -0.8002512 1.440037 -0.31407213 0.28062376 0.4529964 0.44990733 -0.31343988 0.2608931 -0.41722584 -0.0034227774 -0.12323937 -0.12275882 -0.1814271 0.33959842 0.4971503 -1.096416 0.84978145 -0.5969212 0.47346017 -0.19427685 -0.14518732 0.7035501 0.13248643 0.017676955 -0.26090443 -0.4989735 0.47061676 0.7640369
334 -0.22020693 0.5411156 -0.25037676 -0.3787904 0.16438264 -0.27089104 0.9594493 -0.6792108 0.089441516 0.20283489 0.24651729 0.011816694 -0.096863724 -0.30184287 0.6540339 0.21411078 0.0820213 -0.1953472 -0.07269571 0.24195163 -0.3078528 -0.35810912 0.095512964 -0.17598048 0.7099692 -0.49998057 -0.32156026 0.49483076 0.17533182 0.39944544 0.33510447 -0.3096913 0.16705179 0.20276445 0.630697 0.2796727 -0.6897195 -0.043693576 0.03227021 0.3020044 -0.17315955 0.2291054 0.12251393 -0.05901805 -1.1463891 -1.1126798 0.41620174 -0.1168746 -0.51543266 0.25597224 0.49889567 -0.19549136 0.16777635 0.082905546 -0.12723628 0.6130872 -0.359127 -0.41462395 -0.051358245 0.3090549 0.080136225 -1.0248353 0.022948889 -0.79956657
314 -0.3371041 0.12264275 -0.03811151 -0.11914982 -0.44373733 -0.3008104 0.046818737 -0.17155026 -0.7824243 -0.4240945 -0.52773654 0.3103983 -1.0385458 -1.0406071 0.49391758 -0.55448586 0.06671063 0.5576169 0.21742073 0.86411136 -0.08265685 0.15730777 -0.36374766 0.042762306 -0.3435644 -0.3108398 -0.7914925 -0.055755343 -0.04253756 -0.4579587 -0.4932545 -0.13959408 0.68031275 -0.7299251 0.78775275 0.12497557 0.12709272 1.015973 -0.3060948 -0.117730014 0.6614693 0.4502664 0.6941328 -0.15711635 0.18613724 -0.6561688 0.056297634 0.090821005 -0.04706797 0.36947784 0.57952714 -0.44964507 0.14820097 0.29783738 -0.025766868 0.6320663 0.01903288 0.17600471 -0.31444952 0.33791235 -0.6185826 0.35150325 -0.035689317 0.8170895
281 0.16471042 0.27813122 -0.4381083 -0.59145254 0.07756754 -0.05037184 0.55066204 0.04125341 0.26582053 -0.2777349 0.8579072 0.32485914 -0.1623995 0.029327424 0.3356383 0.29927883 -0.12737527 0.28323296 0.089183204 -0.043512635 -0.11475438 -0.34695274 0.06360699 -1.1269219 0.054139346 0.21420819 -0.43547067 -0.133923 1.3952175 0.5523424 0.72500044 -0.010863976 -0.013470256 -0.1612963 -0.06396619 0.049972463 0.4940009 0.3429791 0.7902151 -0.0047871573 0.27480072 0.65870297 -0.22170308 -0.8518654 -0.6060703 -0.24677707 -0.38637915 -0.30344135 0.17700514 -0.05124164 1.0814236 -0.864984 -0.14995243 0.11366387 0.24097812 0.33574554 -0.16857538 -0.493142 0.6619647 -0.077725135 -0.4794675 0.28528395 -0.2583335 -0.41740188
444 -0.17190567 0.33624363 -0.4386333 0.12190326 0.37635565 0.017623587 0.5542234 -0.8210555 0.48826212 0.40246376 -0.20264913 0.03484942 0.59693414 0.0017734723 0.9229303 0.28259656 -0.56372523 0.068507895 0.18698494 0.17074516 -0.74689305 -0.5358135 -0.2241739 -0.25440362 0.42214224 -0.21139038 -0.1069578 0.43129253 0.59998786 -0.030839115 -0.28485882 0.062333968 0.43600887 0.06374701 0.5464225 0.010900308 -0.33006293 -0.08294053 0.15185837 0.49424958 -0.20528208 0.23312645 0.06428397 -0.2792921 -0.34148294 -1.2192266 1.3092309 -0.20205417 -0.6128812 0.44376075 0.33075368 -0.12317379 0.51109004 0.44124866 0.10217941 0.40920535 0.2572873 0.32194903 -0.016186805 0.17157698 0.16089891 -0.28729397 0.20270912 -0.5575304
337 -0.3785318 0.8103808 -1.1444042 -0.31404278 0.6618474 0.09704751 0.55068827 -0.13579485 -0.049977463 -0.0908287 -0.760944 0.74515367 0.27734393 0.40213263 1.2264464 0.37230706 -0.5337057 0.13506337 -0.5725805 1.2213168 -0.3765204 -0.22089006 -0.07130757 0.03648793 0.5989375 -0.14703405 -0.73300165 0.21559909 0.54905754 -0.18920334 -0.2974936 0.38730344 -0.5300324 0.3432937 0.46950835 -0.2574394 -0.59377694 0.18393119 -0.73269373 0.612318 -0.9284302 0.86922723 -0.2502533 -0.5173115 -1.1061752 -1.1890512 0.7331213 0.33259907 0.16924949 -0.0012342341 -0.121297374 -0.28980866 0.60555077 0.3953874 -0.018274441 1.7330377 0.17885162 0.3341209 0.101809114 -0.034227878 0.42372468 -0.8642924 0.40052503 -0.49406973
224 -0.15378565 0.12743151 0.012276223 -0.09778062 0.25737503 -0.7271292 -0.53124076 -0.08943563 -0.12429779 0.27760378 0.37655452 0.80147135 0.30256876 -0.4553467 1.0129583 0.28702757 -0.30549172 0.128239 0.50309175 -0.298029 0.35833627 0.6315555 -0.24661514 0.43361568 0.785306 0.88644934 -0.51076686 0.54965913 0.64144164 -0.18560764 0.23519456 0.18417315 0.21438012 -0.20957583 0.5964937 0.13790809 0.517489 0.42410392 0.35587978 -0.18681423 0.24676548 -0.18492423 -0.95685244 -0.83225095 -0.12323553 0.25868785 -0.08038499 0.25061727 -0.052335273 0.7257298 -0.108459674 0.612406 0.22600818 0.1123226 0.109973095 0.43374416 0.025419464 0.15297014 -0.15547006 1.1294421 -0.67217165 -0.90754884 0.3780446 -0.05979331
243 -0.6802122 0.64013493 -0.26701868 -0.15696606 0.009590633 -0.25591087 0.6411038 -0.033383362 0.072714925 -0.3894141 0.5214645 1.0189636 -0.2435238 0.554475 0.0046726693 0.10120578 -0.5287884 0.32923704 0.15262878 0.28458175 -0.032858517 0.66119456 0.38127187 -0.4617757 0.056918558 -0.1685699 0.059392918 0.26060787 1.1152924 0.46415925 0.6754366 0.20067275 -0.25199625 -0.5437007 0.7898464 -0.67868155 0.109088555 0.66932297 0.5730803 0.31321725 0.51547426 -0.03260448 -0.33579952 -0.7094575 0.097288795 -0.08015362 -0.21259278 -0.24259804 0.32599658 -0.36317766 1.0309627 -0.43290114 -0.35503143 -0.44139352 -0.5031413 0.41224158 -0.11653884 0.066514745 0.5299587 0.32582626 -0.6194979 0.20481719 -0.004513626 -0.45291018
312 -0.006400002 0.22874737 0.41741094 -0.5088264 -0.32624328 -0.974242 0.2062111 -0.028089328 -0.12470148 0.22681813 -0.14588146 -0.117731944 -0.07861597 -0.32299563 0.47372586 -0.5713747 -0.17294793 0.28052536 -0.17852123 0.30120555 0.030805996 -0.064647436 0.104727626 -0.30609196 -0.12070386 -0.26664728 -0.6328763 0.4739273 1.2672495 -0.85587263 -0.36198902 0.51659423 -0.65560687 -0.4254165 -0.7464181 -0.28556257 -0.8542859 -0.14323193 0.22954278 -0.32562968 -0.040480874 0.656107 -0.45225695 0.5331331 -0.25066882 -0.4560108 0.23910074 -0.5010409 0.24598053 0.4675077 0.27260426 0.45095327 -0.24339476 -0.10250998 -0.23342466 -0.6529458 0.023271313 -0.015742788 0.34805486 0.017156556 0.16842414 0.008805354 -0.45333043 0.44196853
393 -0.011061731 -0.4324209 0.65586483 -0.21492578 -0.1007267 -0.5268405 0.5578257 0.013668822 0.33729312 0.5134572 -0.33281645 0.9728673 -0.3766942 -0.50478524 0.511181 -0.22618698 -0.13205694 0.33353576 -0.071166985 0.027200766 0.5873959 -0.073588334 -0.29129794 -0.29071197 0.19250342 -0.7061417 -0.06372597 0.7175918 0.8739439 -0.6727517 -0.20870073 0.40264338 -0.0049890894 0.2638567 -0.44639754 -0.19082968 -0.6944468 0.27373672 0.22728431 0.42338684 0.30710626 0.5233817 0.08009793 -0.1404438 0.0026084045 -0.28861654 0.18103448 -0.39384913 -0.28420508 -0.36341295 0.12416831 -0.013584357 -0.18933026 0.12028675 0.40726483 -0.66513073 0.038876355 0.46116295 -0.4007313 0.1460863 0.15916564 0.09750671 0.033747435 0.5526623
442 -0.22894831 0.74266607 -1.2125936 -0.08457733 0.42527267 -0.17677502 0.3894596 -0.46502075 -0.05204762 -0.20202684 -0.23027559 0.41339436 0.27400848 0.33663768 0.7673863 0.06178249 -0.26889613 -0.0037020198 -0.2798156 0.84653294 -0.060201466 -0.20990373 -0.0017859852 -0.0891013 0.6005146 -0.26922715 -0.46571636 0.23649746 0.6285462 -0.14351726 -0.13348457 0.06646312 -0.32434934 0.33276117 0.49130103 -0.0676603 -0.7653567 0.45729056 -0.5182069 0.40836468 -0.7089299 0.61374974 0.1797606 -0.4815245 -0.89218354 -0.91804653 0.7152299 0.29423675 -0.035509083 -0.00964128 -0.13621308 -0.15429811 0.5264179 0.22565511 -0.1530488 1.3673923 0.1602893 0.17248107 -0.14353488 0.20294093 0.34435716 -0.6179366 0.41803488 -0.560519
417 -0.4188027 -0.12944488 0.1461952 -0.31387335 0.3678697 -0.25907215 0.5911841 0.5713824 0.0038542363 -0.10993343 0.2799374 0.6805262 0.14999582 0.59806544 0.2188857 -0.30274513 -0.16664681 0.033488452 0.5166625 0.18104751 0.102845676 -0.06767679 0.22066726 -0.32003513 -0.039990753 -0.10752989 -0.04072172 -0.19654898 0.900939 0.20424257 -0.11997707 0.3435622 -0.13903812 0.1192426 0.25488865 -0.46475953 0.044258155 0.9857029 0.29838932 0.04084364 0.530578 0.3115671 -0.5067332 -0.77663994 0.073422305 0.05786761 -0.38071552 -0.41924432 0.11011759 0.22733657 1.3890507 -0.60301167 0.11493532 0.426704 -0.60965097 0.5801805 -0.1544388 -0.1581036 0.87672055 0.15910523 -0.6435682 0.14789627 -1.0321816 -0.64426225
456 -0.2613332 0.15035799 0.50652057 -0.42737985 -0.2711945 -0.39922512 1.0119835 0.024646245 0.38833955 0.026056314 0.3195353 0.12665775 0.41550043 0.2536143 0.15053089 0.122634746 -0.0617462 0.043164812 0.57203454 0.066214114 -0.3110173 -0.24719578 0.26730385 -0.93020076 -0.0183517 0.014279592 -0.93713635 -0.24265671 1.4488734 0.14189644 0.4875419 0.62755734 -0.34454933 -0.12534411 0.4492394 -0.33102098 -0.010094036 0.62084913 0.15355778 0.2969321 0.5310278 0.13400109 -0.35298607 -0.6118134 0.13070947 0.03188123 -0.35564202 -0.19526234 0.659129 -0.3417288 0.6101903 -0.49783522 -0.51823616 0.5025335 -0.55707604 0.52118546 0.39236054 0.083118886 0.32295004 0.31565943 -0.45771882 0.39401937 -0.3277367 -0.6538088
67 -0.4988728 -0.16826962 0.74943477 0.13271382 0.43761888 -0.38972628 0.21398097 -0.7962413 -0.5375427 -0.16592109 0.54353666 -0.5127081 -1.2779248 -0.70902646 -0.73261184 0.49883348 -1.7494832 -0.5967702 0.1165644 0.5906432 0.63029164 -0.5759314 0.120904595 -0.4772182 0.64853674 1.1071149 -0.25873294 -0.07149396 0.9523491 0.046637636 0.04787827 0.60166484 0.06895247 -0.1432313 0.014487587 0.0923796 0.2454164 0.88321596 -0.1565942 -0.5457291 1.3433738 -0.6924119 -0.39502484 -0.22955263 -1.7759726 1.0899018 1.2949952 -0.9869109 0.15800737 0.45642063 0.48888746 -1.0652164 0.72147185 -0.03363093 1.0845865 0.31550643 -0.58342916 -0.6265136 -0.64596564 0.03406822 0.28416348 -0.7431487 0.11136626 -0.4812479
277 -0.30582556 0.84750515 -0.3943159 0.28480017 -0.021086756 -0.14470924 0.3211755 -0.7317884 -0.20685901 -0.09816305 -0.33230647 0.051678937 -0.3799444 -0.1507461 0.5957754 -0.61107594 -0.16593619 -0.18242103 -0.1310267 -0.6494793 -0.6840609 -0.5349906 -0.8244435 0.21302857 -0.09963907 -0.8690888 -0.20108987 0.84573436 0.046189602 0.67461383 -0.1513055 0.10027218 0.0071652583 1.292511 0.27695256 0.08431262 -1.0529488 0.11916862 -0.3049921 0.32499614 0.159906 0.73250884 -0.7168587 -1.1079524 -0.80554056 -0.6400289 0.44802424 -0.11117853 0.11574583 0.30480894 0.28625667 -0.12528168 0.49698055 0.8912034 -0.717993 0.7043646 0.21910924 -0.62328243 0.37474048 0.61609715 -0.0014193393 0.37923914 0.016952442 -0.25590196
103 -0.51311916 -0.15470544 0.81662214 0.112888806 0.45442182 -0.38242915 0.22454157 -0.83529544 -0.5046554 -0.23506777 0.533734 -0.5341684 -1.2705921 -0.6779377 -0.7356565 0.49272403 -1.6863523 -0.6007485 0.18944514 0.5928213 0.59401727 -0.6015268 0.064793095 -0.4503495 0.5853758 1.0730699 -0.23319319 -0.061479114 0.9652666 0.09822553 0.13072695 0.64202565 0.13015658 -0.18426946 0.0009737035 0.11811642 0.26351824 0.90386504 -0.059138585 -0.63862365 1.3671149 -0.753064 -0.36803892 -0.15480144 -1.740216 1.1231899 1.3406187 -0.96746606 0.12429183 0.54572964 0.5488321 -0.978535 0.7551347 -0.060220562 1.1593668 0.31358 -0.61026365 -0.68203723 -0.62932444 -0.025944684 0.27952257 -0.67420727 0.12838987 -0.45913947
148 -0.91447973 -0.09422162 0.22069626 0.9507362 0.4152127 -0.85909384 -0.15414782 -0.67063993 -0.6445726 -0.6928079 -0.6700357 -0.21930768 -0.75648177 -0.25614318 -0.026094927 -0.45894924 -1.1127938 0.60036486 0.25285354 1.363522 -0.046171833 -0.18512686 -0.39453712 0.21779063 -0.024550164 0.7036704 -0.67555666 0.63927096 0.50121844 -0.047387846 0.19234009 -0.5487411 0.40060866 -0.49103445 0.66417557 -0.3015767 -0.07797934 0.47585368 0.23960191 0.51207304 0.58590055 0.57841456 0.5063057 0.029897537 0.2616776 0.013596307 -0.84037566 -0.15042636 -0.29922554 0.82817847 0.4270309 -0.3168623 0.8537103 0.07838023 0.48086715 0.22265626 -0.17437449 -0.94002795 0.21842565 0.029537605 -0.03338836 0.0999415 -0.45337874 -0.17117955
447 -0.3611401 0.48937955 0.9941544 -0.42340386 -0.4529834 -0.09335783 0.81894964 -0.9495971 -0.47685534 0.066626444 0.24201554 -0.0030893118 -1.3715552 0.8660515 0.36617184 0.57032305 -0.8748176 -0.59264725 1.0319909 -0.15722029 -0.228629 -0.40536302 -0.86464775 -1.115201 -0.36020756 -0.14514437 -0.77599335 0.9227862 0.21826607 -1.1351982 0.11863254 -0.293484 0.49938586 0.6487136 0.7917832 -0.28382933 0.22467373 0.2891953 -0.81665206 -0.22084455 0.79071426 0.105023764 -0.46428823 -1.3113893 0.022417506 -0.11651914 0.90410507 -0.6918217 -0.13189076 0.68021965 0.4254543 -0.8819135 0.58540076 -1.1370474 1.933364 0.13043849 0.6841238 0.51966786 -0.197738 0.17525043 -1.0447835 -0.5296492 0.3970215 0.2979795
74 -0.21217059 0.13968654 0.7679192 -0.22269589 0.23064993 -0.71746945 0.103315234 0.21627726 -0.53726864 0.29250932 -0.123589136 0.37227505 -0.429359 -0.7701168 -0.019917468 -0.933599 -0.45614496 -0.3044423 -0.816026 0.18657787 0.64142793 -0.14123853 0.38372517 -0.109686546 -0.23285802 0.91693294 -0.37314 0.7458073 0.72600615 0.062534794 -0.239486 0.0045632673 0.35828876 -0.020939825 -0.05483433 0.78854233 -0.118635036 0.87754345 -0.049574066 0.10046907 1.101294 0.6311632 -0.49442562 0.10525928 -0.2581788 -0.5349131 0.837177 -0.077317156 -0.48721436 -0.29698688 0.19103362 -0.29001132 -0.6155314 0.48405024 -0.05879041 -0.0932097 -0.6229258 -0.6542323 -0.70457596 -0.28733313 0.19837405 -0.3982571 0.32324708 -0.36753657
100 0.108150244 0.3452626 -0.7845682 -0.93103075 0.22828677 -0.09804285 0.514207 0.071127094 0.266137 -0.21908304 0.7499206 0.26941383 -0.20372356 0.110495344 0.40316924 0.2928786 -0.10120547 0.48779088 0.28108868 -0.045012906 -0.017760145 -0.48435053 0.07625823 -1.2046958 -0.16258748 0.21594776 -0.5666464 -0.21899202 1.4807695 0.7251474 0.8055491 0.21610413 0.14859523 -0.3356323 -0.13514477 0.3165219 0.6115251 0.30510786 0.99806476 -0.16603109 0.29164273 0.9158115 -0.18704699 -0.95294416 -0.7295224 -0.2067105 -0.32159165 -0.16961324 0.15450315 0.0117360875 1.0550358 -0.9937524 -0.20921117 0.07895489 0.29199377 0.028086688 -0.28582343 -0.7229232 0.6118278 -0.21919568 -0.4226023 0.64878845 0.09883216 -0.3842116
411 -0.38510936 0.50311387 1.2100246 -0.28062668 -0.4623673 -0.121820875 0.8503335 -0.93513715 -0.43988615 -0.00094357884 0.42549387 0.035288904 -1.5402405 0.8267794 0.26346743 0.55059993 -0.9357324 -0.6874508 0.9877635 -0.1310357 -0.22102505 -0.3435183 -0.76965845 -1.116846 -0.3625212 -0.09159227 -0.81473345 1.0150384 0.11239896 -1.1408067 0.16035138 -0.19691633 0.7135158 0.5614904 0.66093314 -0.26066062 0.10785725 0.34074217 -0.67690736 -0.11425734 0.7619222 0.13961408 -0.2862306 -1.200949 -0.234202 -0.09160011 0.9335996 -0.5435298 -0.13566932 0.6996389 0.45168695 -0.7553887 0.67012846 -1.1903844 2.0311325 0.13137326 0.6623179 0.63469285 0.054939628 0.31953955 -1.1908106 -0.44794747 0.4911161 0.14840396
187 -1.5865049 0.021637773 0.15498494 -0.08138313 0.39118597 -0.67973965 1.1181589 -0.7905468 -1.0043596 -0.32074484 0.26916504 0.27121735 -0.51654893 0.73159915 1.0855637 0.054901768 -0.52296567 -0.9083861 1.4551206 0.4780589 0.5941953 -0.21155871 -0.66725457 -0.9689127 0.57046217 0.8041685 -0.39334947 0.78814554 0.24410981 -0.27200824 0.61335385 -0.19806781 0.33847657 0.501288 1.1513553 0.3052219 0.52635133 0.6112527 -0.6890569 -1.3373157 0.17654574 0.9381714 -0.69136524 -0.21721324 -0.29588482 -0.63001037 1.0278741 -0.44917393 0.17114733 0.61598015 0.966493 -0.7275335 -0.4753658 -0.7028544 1.3223296 0.060129076 -0.615515 0.34421152 0.370849 0.35871696 -0.4320776 -1.2455788 0.061338454 -0.5421569
352 -0.3920189 0.38642734 1.1957483 -0.3189928 -0.37906235 -0.29157612 0.7716337 -1.0346757 -0.47915536 0.051047325 0.40925035 0.058598347 -1.4705156 0.77058786 0.26624796 0.67073494 -0.89021176 -0.7137172 1.0616769 -0.2450252 -0.2111692 -0.52869153 -0.71717745 -1.0656109 -0.28974938 -0.25041872 -0.69801605 0.9898663 0.19979945 -1.1689913 0.14314735 -0.22828189 0.53240895 0.5388184 0.74533874 -0.2822768 0.1535475 0.31381372 -0.7104604 -0.20597453 0.86229914 0.12871425 -0.24257712 -1.187002 -0.088631295 -0.114440694 0.9517143 -0.57155365 0.010105171 0.59361076 0.39796653 -0.8642945 0.759211 -1.2011732 1.9300969 0.021998348 0.7956929 0.52889615 -0.0018975603 0.21478945 -1.0900861 -0.36652726 0.37085864 0.08168442
207 -1.5360141 -0.031657517 0.16836558 -0.23466909 0.47175583 -0.850714 1.0189811 -0.83773226 -1.1128258 -0.3348597 0.33344427 0.32149056 -0.44908673 0.7474451 1.1243637 0.146774 -0.49597338 -0.90829885 1.4800116 0.4138672 0.65370363 -0.3286129 -0.5237735 -0.93466765 0.63159835 0.68050563 -0.33739716 0.8089052 0.25799018 -0.3555813 0.55480975 -0.2018869 0.13934648 0.4132873 1.2724628 0.2337203 0.4699257 0.6402446 -0.87117165 -1.4953002 0.2466851 0.9783248 -0.65876997 -0.2129369 -0.25051716 -0.63432115 1.1360368 -0.5061467 0.31866252 0.51736253 0.985773 -0.7701708 -0.3519085 -0.7560961 1.3262429 0.03390095 -0.50452286 0.33294827 0.30751485 0.28375578 -0.34270164 -1.2288355 -0.054714873 -0.58715016
177 -1.5192719 0.024018474 0.14607102 -0.13238667 0.46970478 -0.74256855 1.0517017 -0.8449267 -1.0380131 -0.32694656 0.28502455 0.33370402 -0.45916522 0.7304215 1.1213157 0.077191584 -0.53744245 -0.83612484 1.4733539 0.41568026 0.6374429 -0.24588141 -0.62659895 -0.9704079 0.53495115 0.7336985 -0.3732499 0.8461314 0.28250295 -0.25650698 0.6021172 -0.22111054 0.2578501 0.43859085 1.2765541 0.29280174 0.4859038 0.5740334 -0.73685277 -1.4114344 0.18824144 0.96181804 -0.69724566 -0.24487254 -0.23725308 -0.6441402 1.1230351 -0.44143704 0.245447 0.5356155 0.97158164 -0.7213053 -0.41601327 -0.73757416 1.3289309 0.0035336122 -0.5381236 0.32604954 0.30715284 0.34034577 -0.39863274 -1.2335687 -0.014143598 -0.57635117
284 0.029764168 0.35775906 -0.21972209 0.82907254 0.40590703 0.1252813 0.74803483 -0.7590238 -0.01407091 -0.14670476 0.05544919 -0.079430096 0.23830698 0.19339429 0.77413744 0.040942423 0.17845693 -0.09366947 1.043314 0.8181988 0.52696633 0.29685566 -0.6857763 -0.109903604 0.48613217 -1.0072654 0.12222457 0.78223 0.39765397 0.30209413 0.5068826 -0.0657747 0.3491211 -0.17509304 0.6234623 -0.65558374 -0.24728043 -0.070725955 -0.21759161 -0.070864335 -0.5266688 0.48848522 -0.2086735 -0.33141774 -0.627676 -0.32858157 1.599387 0.23059145 -0.65725994 0.28257212 0.2672507 -0.45510906 0.41028002 0.57761395 -0.6349233 0.5039813 -0.08638912 -0.21254444 -0.6753454 0.08306631 -0.6920112 -0.9379033 -0.036262643 -0.6458703
135 -1.8171347 0.85942274 0.50581145 -0.22437191 0.08094899 -0.41935953 -0.2071074 -0.6363284 -0.6605135 0.78175277 0.6071445 0.10652076 0.6064606 0.3021084 0.5696705 -0.4120817 0.29179138 0.40728778 -0.6041051 0.6943265 -0.0616212 0.87704736 -0.14139768 -0.20152986 -0.012775253 0.11585447 -0.3457823 1.1895059 0.686694 0.043648377 0.50911987 0.114367686 -0.27245215 0.95260066 -0.7566849 0.86790633 0.516941 0.014053885 -0.0360285 -0.23408249 0.7213879 0.2929793 0.6676853 -1.042615 -0.6584361 -0.3599049 0.32790986 -0.15464589 0.17059788 -0.020578105 -1.0310129 -0.45494598 0.7025218 -0.4458367 0.266174 0.61023456 -0.13151643 0.60640085 -0.4816598 -0.45886704 -0.290111 -0.12807971 -0.8186007 0.48918223
10 -0.40948105 -0.17548916 0.94494176 0.21917823 0.1798451 -0.5621831 0.2974245 -0.84190637 -0.18975091 -0.190502 0.069963165 -0.6863583 -0.86054116 -0.45907176 -0.87266177 0.40754643 -1.5848399 -0.71021265 0.22862785 0.8303965 0.8214093 -0.31599522 0.09999338 -0.2350567 0.6772796 1.1863098 -0.07764029 -0.15881766 0.9749416 -0.1561978 0.41604695 0.56052464 0.050536405 -0.20773172 0.043853924 0.2927415 0.28839356 1.1450223 -0.4055864 -0.4259805 1.6619262 -0.49960884 -0.346105 -0.051209975 -1.5769821 0.875891 1.5441515 -0.8693174 0.18103743 0.93623656 0.64885265 -1.0322307 0.55290556 -0.20817101 1.2454468 0.49142778 -0.9450496 -0.7109122 -0.5746357 -0.06912797 0.18414012 -0.85212785 -0.06494097 -0.8496078
137 -1.5648718 0.0041920412 0.14814097 -0.19570452 0.46247998 -0.7310953 1.0918052 -0.80007535 -1.0630443 -0.33049834 0.24629505 0.3174635 -0.50561094 0.6856107 1.0592173 0.038298454 -0.5239111 -0.9134438 1.483298 0.49049237 0.6342875 -0.21953009 -0.6155467 -0.97897494 0.5193498 0.73413 -0.42513087 0.81993407 0.2358692 -0.20700622 0.6470068 -0.20494078 0.25928712 0.48922715 1.237295 0.33835676 0.5056214 0.623535 -0.76440495 -1.3825523 0.18597755 0.9542271 -0.68693197 -0.21871115 -0.2671922 -0.6119059 1.1330441 -0.4236449 0.23447484 0.5352719 0.9905819 -0.67775226 -0.46830624 -0.6990806 1.3141551 0.10331278 -0.5648029 0.34525546 0.34805042 0.3461643 -0.42849594 -1.156892 -0.03939949 -0.56315917
40 -0.11045762 0.0665548 0.75244427 -0.26190552 0.15829438 -0.7742979 0.048415937 0.1947418 -0.5142168 0.100467615 -0.07290698 0.34554172 -0.4757395 -0.73068 -0.045118812 -0.9171131 -0.48158854 -0.25256264 -0.8678802 0.26609352 0.45117652 -0.16297962 0.43048576 -0.037666563 -0.36013713 0.7983179 -0.44383252 0.6628637 0.65378016 0.08040923 -0.2571635 0.14417398 0.18735743 -0.100935124 0.059568387 0.763815 -0.12171851 0.6625028 0.17111133 -0.16849229 1.0979334 0.6004354 -0.65429837 -0.20206632 -0.1960769 -0.4942566 1.1065965 -0.23763843 -0.33813533 -0.4279208 0.24585691 -0.040517934 -0.65094185 0.3439094 -0.022506539 -0.21903129 -0.838535 -0.53778076 -0.5835825 -0.40010086 0.21200815 -0.58847326 0.27597043 -0.31768873
332 -0.27682695 0.3326454 -0.13105789 -0.5426805 0.14348203 -0.42829865 0.9178901 -0.7947497 -0.17491814 0.5253249 0.23396423 0.06278484 -0.13486911 -0.23146534 0.6566588 0.04085731 0.19373311 -0.2679869 -0.31927896 0.106090546 -0.8610629 -0.25401217 0.31913388 -0.31794494 0.78204846 -0.6765263 -0.4954061 0.41231367 0.07306104 0.46752658 0.3752806 -0.36721516 0.42263332 0.18108572 0.78424954 0.085567966 -0.60653085 -0.23217905 0.049818482 0.43470323 -0.30745423 0.30303615 0.09270045 -0.1868912 -1.2441431 -1.1219993 0.48156235 -0.38914675 -0.49851274 0.32150817 0.6588344 -0.4646324 0.20707183 0.04248168 -0.2111623 0.55355656 -0.60239375 -0.47899154 -0.25018966 0.39879736 0.26490754 -1.0751926 0.1370068 -0.74079585
404 -0.6188589 0.28125072 0.2804342 0.56539255 -0.9891703 -0.2089232 -0.3187248 -0.32743543 -0.638409 -0.035018004 -0.6499939 0.21986543 -0.47414112 -1.4414108 -0.017494492 0.7160246 -0.17320977 0.18743378 0.86836404 0.12056793 -0.38291416 -0.68627113 -0.19452105 -0.2854645 0.12338252 -0.39735916 -0.41941038 0.26792789 0.40212598 0.068876915 0.07890989 1.1908423 -0.60465306 0.28640017 -0.20024592 -0.212828 -0.94656616 1.3174088 -0.17168947 0.17875126 0.4900983 0.38732272 -0.36019918 0.29157543 -0.3653155 0.09418416 -0.17208904 -0.23205279 -0.07688396 0.16524197 0.45744392 -0.8214582 0.7286399 -0.33974716 0.25157765 -0.20395021 -0.34857735 0.7750434 0.1259208 -0.15879235 -0.23740482 -0.6474501 0.6630507 0.6862166
104 -0.7111084 -0.05068402 -0.12542577 0.28408626 -0.33475247 -0.48925415 -0.48393565 0.27451465 0.16864656 0.1924015 0.25607705 0.42312104 -0.14852127 -0.3629243 0.64483905 0.37410995 -0.3340511 0.26782006 -0.08135218 -0.5794454 0.19232582 0.4137887 0.6243858 0.94499356 0.6820103 0.4466528 -0.21843559 0.94368684 1.152331 0.17998637 0.56957096 0.2779093 -0.032362934 -0.70877093 0.28185606 -0.14738786 0.07213226 0.43123066 -0.6327613 -0.5943727 0.5123802 -0.46161482 -0.9949427 -1.1495792 -0.4804849 0.40377524 0.028888687 0.046938162 -0.09626541 1.1013569 0.4156005 0.68138707 0.31946346 0.328745 0.7713757 0.43213448 0.018296545 -0.07787342 0.028278919 0.6077975 -0.050773326 0.12706706 0.53849477 0.2767126
288 -0.5912651 0.6619298 0.5044056 0.21566159 -0.41667345 0.5925826 0.43214715 -0.4267248 -0.6867577 -0.59957224 0.39350992 0.32323706 0.2076634 -0.4581561 -0.15387961 -0.24866077 -0.049511023 0.46870348 0.5416415 -0.09043602 -0.66677 0.32546937 0.15050392 -0.12672658 -0.29737067 0.46405715 -0.49857625 0.2370745 0.42103732 -0.20710005 -0.42956924 1.1933558 -0.4840841 -0.5218417 0.2207754 -0.13317741 -0.66277754 0.46586758 -0.34951216 0.25493047 1.1846163 1.1583383 0.07763584 -0.22813226 0.3319276 0.20141788 -0.5002481 0.20070072 0.34599733 0.86787087 0.3131989 -0.47380143 1.1156194 -0.7217876 -0.014867356 -0.7157128 -0.32882518 -0.017930746 -0.034191284 0.4075863 0.37053782 -0.88448733 0.97652054 -0.029131826
179 -0.51837516 0.27780077 0.08699271 0.08952002 -0.771844 -0.49964947 0.23963307 -0.49802262 -0.568244 -0.10995411 -0.15793261 0.52910143 -0.49281213 -0.81985754 -0.06121848 -0.17528142 -0.3722474 0.20735006 0.21522805 1.1066601 0.28080356 -0.074182965 -0.280237 0.7053909 -0.100007206 0.10598882 -0.56820273 -0.3867635 0.13253543 -0.38255537 0.39316067 0.48387262 0.6125785 -0.8024275 0.75695735 -0.17585424 -0.018706035 0.4868337 -0.15220796 -0.2714766 0.75244 0.13422945 0.628802 -0.39792717 -0.4473048 -0.37109938 0.4426685 0.7093373 0.4529967 0.34640542 1.3507625 0.25990492 0.21551326 -0.2437817 0.17316416 0.35111955 0.9097612 0.101004854 -0.7243665 0.6178943 -0.34456396 0.122862056 -0.30128795 0.8909889
376 -0.32274693 0.43409374 1.221917 -0.3456719 -0.39798334 -0.15577455 0.87971675 -0.9891953 -0.43607643 -0.020876275 0.41428253 0.08910092 -1.4952044 0.777353 0.28223833 0.5317482 -0.8913784 -0.6692763 0.95808214 -0.14766209 -0.21616976 -0.40500104 -0.85976994 -1.0531465 -0.24437898 -0.14264381 -0.7499962 0.9719431 0.20278732 -1.1891325 0.15342425 -0.24608757 0.60489553 0.5810712 0.6119239 -0.24008493 0.13082278 0.22178309 -0.7207446 -0.17256135 0.8122045 0.111866675 -0.29776746 -1.173926 -0.17553194 -0.084819175 0.86933416 -0.5895823 -0.011752655 0.6744178 0.45573795 -0.8608309 0.70763147 -1.1642234 1.9752876 0.16932057 0.6780987 0.5368028 -0.007947333 0.29188687 -1.1590211 -0.4323515 0.49124828 0.23216389
69 0.009967433 0.2842458 -0.07592011 0.0029939169 0.3972799 -0.7483712 -0.65347105 -0.08368932 -0.197821 0.23905486 0.4020311 0.9544442 0.22734939 -0.47294945 1.3454943 0.5113166 -0.3575893 0.07324776 0.6695118 -0.19958796 0.38317302 0.9577417 -0.23773652 0.51996315 0.6674049 0.96025544 -0.7165254 0.54018426 0.5884489 -0.07041429 0.35090342 0.22794385 0.263245 -0.09122067 0.34755072 0.070697576 0.5746047 0.31316707 0.4960339 -0.15768865 0.23993687 -0.31503215 -0.9199662 -0.9155953 0.07167425 0.40948638 -0.08245669 0.27920693 -0.21972132 0.801888 -0.13643822 0.55362123 0.088850185 0.34615165 -0.043346293 0.4532785 0.06383494 0.1698259 -0.25544378 1.0999918 -0.75701445 -1.2414728 0.4393639 -0.056219116
147 -1.5862621 -0.015835889 0.13993973 -0.1503907 0.4568946 -0.7807999 1.0465585 -0.8350409 -1.071352 -0.38904324 0.22416909 0.28638217 -0.49348745 0.6937761 1.0574484 0.11189924 -0.56744796 -0.8845312 1.4985538 0.48368987 0.58102185 -0.27405435 -0.644132 -1.0455073 0.59428334 0.71331114 -0.3798717 0.83260614 0.24763097 -0.22339588 0.59252286 -0.19154064 0.3026061 0.45120075 1.2043316 0.2684434 0.49002326 0.6421915 -0.73259175 -1.4160024 0.20676917 0.93411976 -0.69229054 -0.22805236 -0.22570838 -0.6332564 1.0858662 -0.38423377 0.2262067 0.55142033 0.8974115 -0.7494385 -0.425222 -0.6717489 1.34016 0.13868795 -0.6176606 0.3773419 0.33779165 0.36210385 -0.44651276 -1.2224245 -0.02517905 -0.5571292
123 -1.5057806 0.011652877 0.11018258 -0.1688051 0.46276978 -0.67403597 1.107942 -0.7178029 -1.0420069 -0.28794825 0.269026 0.28333545 -0.46178886 0.6917397 1.099185 0.0824895 -0.5208592 -0.8817565 1.4384722 0.44868267 0.60213655 -0.20419407 -0.60967517 -1.024442 0.5519773 0.77654386 -0.38305035 0.7950067 0.25590605 -0.26829734 0.58327514 -0.1903363 0.2603798 0.45214924 1.1930108 0.30893314 0.5026891 0.60691 -0.73158085 -1.3438977 0.15222435 1.0212675 -0.6841001 -0.22932118 -0.33151054 -0.6628478 1.0346143 -0.4458359 0.2574086 0.58651 0.92759055 -0.7123324 -0.3989472 -0.7082796 1.2564292 0.046180896 -0.59413403 0.33510417 0.359644 0.34770113 -0.39817157 -1.220775 -0.008556226 -0.49695477
323 -0.33381057 0.4983562 1.1923062 -0.25009748 -0.435897 -0.16080993 0.7906372 -0.98458177 -0.48655364 -0.067856915 0.39342788 -0.023848904 -1.5317909 0.79948574 0.2945741 0.59564394 -0.88501877 -0.718099 0.94704026 -0.17606121 -0.21030104 -0.46970275 -0.77223057 -1.0814196 -0.26970258 -0.18840316 -0.8060281 1.0493548 0.2093412 -1.2089454 0.13081528 -0.19040275 0.7045649 0.5056513 0.5765656 -0.22271353 0.14101973 0.31875208 -0.65709263 -0.3074381 0.83468336 0.086752474 -0.26136395 -1.2235454 -0.11522368 -0.14714468 0.9545554 -0.57023424 -0.10132175 0.74329436 0.41686797 -0.8396755 0.69936615 -1.1494105 2.1097927 0.17411119 0.6971955 0.49136245 -0.0028493921 0.19871187 -1.181638 -0.47987497 0.42791712 0.22141859
56 -0.8302154 -0.20987394 -0.08921962 -0.03287044 -0.2358769 -0.25221455 0.8894394 -0.4230737 0.6261859 0.44566765 0.41214746 0.8055073 -0.5590414 0.680329 -0.21159312 0.27994546 -0.7316037 -0.07234095 -0.016940998 0.7243016 0.2299279 -0.28810456 0.31523645 -0.5531837 0.2466389 0.38173378 -0.11489395 -0.41828617 1.2219743 -0.48453268 -0.3233004 0.46394393 0.15596132 -0.24114567 -0.13871278 -0.7567867 0.60035634 0.43621063 0.8622035 0.10435457 0.69451314 0.03994256 -0.3038568 -1.1413943 -0.01780195 0.3808983 0.38370612 0.0012796912 -0.3683989 0.24749288 0.5846046 -0.527094 0.124868356 0.6410597 0.056663916 0.7310091 0.14523172 -0.06515711 0.5728095 -0.033101827 -0.2986633 0.34318838 -0.035974786 -0.15680937
210 -1.7486129 0.9297321 0.5801451 -0.16803305 0.0548301 -0.38807315 -0.13583569 -0.52308494 -0.48691452 0.6838514 0.5088072 0.00939824 0.5143836 0.19752294 0.51785123 -0.61616975 0.18993784 0.4505593 -0.40396932 0.69629997 0.040881634 0.9135676 -0.3087146 -0.21429574 0.021426948 0.16971114 -0.404683 0.9969355 0.64430124 -0.056056194 0.69044137 0.12139227 -0.42680734 0.9588531 -0.71874076 0.9225149 0.62057436 -0.097306356 -0.12693687 -0.18989412 0.5888925 0.28602898 0.789894 -1.1429117 -0.76127416 -0.3086778 0.33808896 -0.19844933 0.16514803 -0.14206667 -1.136958 -0.554385 0.64538586 -0.37231532 0.2529566 0.8067296 -0.20949817 0.5430544 -0.45512745 -0.37079656 -0.1760204 -0.280855 -0.8405854 0.47052237
174 -0.40843734 0.30243134 0.054821286 -0.35513875 0.18814507 -0.2084285 0.5170054 0.09759425 0.25522444 0.07867555 0.662421 0.47356334 -0.017976342 0.018984394 0.2478014 0.12557025 -0.12948416 0.15814213 0.36222693 0.14670536 -0.08253424 -0.058034465 0.5577864 -0.7667263 -0.12069277 -0.28100362 -0.29622757 -0.16378067 1.2076093 0.2755077 0.2163386 0.16382527 -0.24504535 -0.26351902 0.25131658 -0.5206148 0.06679758 0.45108995 0.32032174 0.16202836 0.43421325 0.3296865 -0.15631448 -0.7721755 -0.0042832983 0.17627595 -0.12971109 -0.09765449 0.09738135 -0.2226478 0.6973075 -0.4862424 -0.20160615 0.18296823 -0.30626145 0.75180435 -0.03721894 -0.09363529 0.5325626 0.04685231 -0.4552177 0.30567864 -0.2833751 -0.3527815
363 -0.3162437 0.30069977 -0.013875144 -0.4161623 -0.06459385 -0.28123316 0.44029078 0.0023069412 0.4035388 0.032114983 0.6223661 0.46271133 -0.010569214 0.1572797 0.30244893 0.15451002 -0.29851508 0.28271464 0.24769117 0.20272239 -0.1982874 0.05665705 0.52998185 -0.59544945 -0.019144045 -0.115071006 -0.20846385 0.04878602 1.1186253 0.221268 0.2105345 0.41614214 -0.14180808 -0.23799488 0.18595012 -0.552079 0.2828064 0.3339499 0.16085617 0.2931186 0.45713708 0.26813424 -0.18116486 -0.769193 0.11643706 0.21149074 -0.07144608 -0.049779285 0.08942961 -0.29757607 0.8584926 -0.4937225 -0.2023191 0.34630126 -0.2707786 0.65988976 -0.18365902 -0.08012445 0.50630695 0.012040144 -0.44349933 0.23064536 -0.3409278 -0.49797526
66 -0.896784 0.6785542 -0.40788803 0.075451486 -0.07519121 -0.20936078 0.51741666 -0.22934449 0.033664033 -0.82422477 0.49898764 1.3080343 -0.33632788 0.7287827 -0.02294436 0.20464806 -0.5884555 0.012277782 0.29883662 0.32984373 -0.0702475 1.137334 0.42061326 -0.4014595 -0.018041776 -0.3402857 -0.3138503 0.3411944 1.1136549 0.40523744 0.92113 -0.008226001 -0.1691263 -0.67609537 0.6871873 -0.7711366 0.122813284 0.8073284 0.7440969 0.56418246 0.51908094 -0.18098095 -0.53190994 -0.59007865 -0.12851226 -0.1859507 -0.30118623 -0.3511433 0.11676017 -0.5299658 0.97888154 -0.29846013 -0.30916372 -0.407242 -0.6079117 0.38911036 -0.25149944 0.31847382 0.52682334 0.1807821 -0.6932343 0.39393422 0.10663505 -0.7105931
375 -0.5325974 0.42220774 0.33756894 0.4678542 -0.31039193 0.32046866 -0.41423082 -0.2620961 -0.36147133 -0.7321912 0.046686415 0.9800269 -0.028924303 -0.8978245 0.08408933 0.07266331 0.3164344 0.43219805 0.33343667 0.06574573 -0.52498806 -0.53852195 -0.11356012 0.15461624 0.018523311 -0.025963243 -0.3150047 0.039346054 0.58023024 -0.36115187 -0.07732978 0.89075965 -0.12274866 -0.11935833 -0.15113258 0.0132327685 -0.18222216 0.29770955 -0.0589571 0.061141554 0.74388963 0.7167519 0.06327333 0.10928869 0.14835638 -0.102542445 -0.43027 0.10508406 0.17048822 0.2798996 0.34493825 -0.6870691 0.55340636 -0.22092183 0.08021486 0.1630326 -0.20851974 0.4760372 -0.15243931 0.06360485 0.21750982 -0.7297407 0.42838463 0.10782637
364 -0.598527 0.7161599 0.71372724 0.1431325 -0.31758946 0.58503807 0.30780366 -0.3349825 -0.72068137 -0.62355477 0.38720676 0.3729174 0.2640164 -0.55215794 -0.10482168 -0.23873596 -0.07187648 0.5273574 0.57359993 -0.13099124 -0.69713295 0.31795114 0.13611579 -0.14517425 -0.20872906 0.46204716 -0.5593439 0.2398332 0.3603468 -0.18411699 -0.612112 1.1593449 -0.41215864 -0.37993184 0.23953098 -0.1960123 -0.65373135 0.6995324 -0.36233807 0.28329262 1.1391772 1.0216713 0.15616973 -0.2822663 0.40078098 0.20272097 -0.41747975 0.122480325 0.28686392 0.8386017 0.26325378 -0.4295025 1.0331007 -0.7401373 0.09207788 -0.7107337 -0.4093206 -0.009455222 0.03322138 0.27465197 0.19791736 -0.8676608 0.8662778 -0.06903636
180 -0.49610054 0.47839215 0.101977974 -0.019617418 -0.78063124 -0.49647903 0.2299109 -0.6251758 -0.45713884 -0.07434216 -0.03644004 0.5408215 -0.47820452 -0.78462195 -0.22640657 -0.11941898 -0.32272044 0.122784734 0.36409757 1.0459114 0.29282978 0.035349004 -0.23420615 0.80691636 0.019604517 0.14505532 -0.68894786 -0.4174669 0.08108405 -0.29805207 0.24046822 0.5160859 0.7036272 -0.6760724 0.84137076 -0.16333729 -0.06166926 0.47538707 0.033127904 -0.3560317 0.81184834 0.17992014 0.6551591 -0.4116012 -0.5346128 -0.26563418 0.29457572 0.6636016 0.3043431 0.35078248 1.3097343 0.33309484 0.24611914 -0.36836088 0.16013458 0.29231468 1.0594811 0.04118171 -0.7886617 0.5304771 -0.43225265 0.09018737 -0.2764316 0.89787
333 0.034265164 0.31046763 -0.3041622 0.6852252 0.45780355 0.16737671 0.5572612 -0.61321974 -0.053573046 -0.29769245 0.07994544 -0.0067834645 0.21981548 0.08600508 0.84886116 0.030741561 0.22523274 -0.038297128 0.93691957 0.87344754 0.44064036 0.01830458 -0.6294718 -0.17398779 0.352728 -1.0136042 0.1496215 0.7908421 0.5038295 0.31045136 0.6889278 -0.1669495 0.35469487 -0.1664343 0.64906645 -0.7665813 -0.26765433 -0.05302437 -0.37201467 -0.14010444 -0.44511566 0.32522872 -0.11393006 -0.38610652 -0.6465363 -0.3733929 1.5945134 0.07050467 -0.6155407 0.30427015 0.33522022 -0.33117068 0.34259188 0.6042782 -0.50598985 0.5036814 -0.06595037 -0.1658653 -0.8162668 0.1138906 -0.5750587 -0.9249725 -0.036715597 -0.64936405
150 -1.2740321 1.1386901 -0.26059812 0.30800173 0.18335964 -0.37886006 0.14479841 -0.050403714 0.3561889 0.10194835 -0.2703197 0.016225602 -0.5888484 -0.048955645 0.31660238 -1.016863 0.26970953 0.46402115 0.5531646 -0.26445624 0.030862626 -0.08118497 -0.4929194 0.4590621 0.09211261 -0.63753384 -0.8795308 1.6245058 0.4390145 -1.290682 0.86247766 0.14082174 -0.7464278 0.50477046 0.8488785 -0.105099894 1.2699804 0.25638023 0.6815169 0.22413585 -0.20292869 0.5236795 0.89715725 -0.35217068 -0.5191 1.1348636 0.5889504 -0.58740056 -0.62560797 0.17652014 0.49752572 0.011595966 0.13362505 -0.22051895 0.016476365 0.046398886 0.06725928 -0.09840139 0.36025357 -0.61397046 0.5866076 -0.5363638 -0.2366151 0.11574983
36 -0.20183182 0.07265929 0.9187576 -0.18969807 0.24348417 -0.69967717 0.1521756 0.39156455 -0.69649243 0.31828716 -0.035266493 0.4836813 -0.40465197 -0.82960504 -0.083368234 -0.96902335 -0.4586715 -0.2378463 -0.92002517 0.22982249 0.5662807 -0.29963553 0.45768744 -0.092111796 -0.21895556 0.7588793 -0.34986356 0.58260995 0.77802974 0.027819397 -0.2720831 0.13546844 0.19191913 -0.14255853 0.027041975 0.7463905 -0.23155962 0.7282869 0.0025710033 -0.18507521 0.85515505 0.71537393 -0.4456623 -0.12667309 -0.34425324 -0.40643835 1.0082272 -0.2193209 -0.38621113 -0.19921774 0.15380423 -0.1448579 -0.58618504 0.23256567 -0.026362257 -0.009893929 -0.66468376 -0.7619021 -0.43648922 -0.40765634 0.32113126 -0.45901948 0.22705767 -0.15543681
403 -0.33353162 0.21854074 0.19219054 0.6180235 -1.0569766 -0.035029165 -0.31837037 -0.3169126 -0.59106135 -0.15985629 -0.6873287 0.21450481 -0.49997365 -1.4639488 0.011704679 0.73105824 -0.16283911 0.24331412 0.7768831 0.16117726 -0.3022071 -0.71539277 -0.3655238 -0.29945463 0.26569977 -0.3523162 -0.38835153 0.2641235 0.45470616 -0.028781136 -0.008480596 0.96268314 -0.63157994 0.23336297 -0.17894262 -0.16751258 -0.9504785 1.2908809 -0.14211544 0.08322711 0.41075063 0.49631408 -0.2543774 0.15707801 -0.4431151 0.054937553 -0.2605824 -0.18591319 -0.0273119 0.23811248 0.48339856 -0.84331393 0.6539873 -0.4333099 0.28091568 -0.124297954 -0.3998983 0.6968634 0.18351153 -0.10568233 -0.17408814 -0.6279622 0.6215825 0.7148313
93 -1.5648447 -0.026032249 0.13162279 -0.10480053 0.43880746 -0.7535731 1.0587136 -0.82108736 -1.0772078 -0.33984718 0.28179255 0.286955 -0.50438315 0.6954301 1.0769691 0.13960387 -0.5565923 -0.8738456 1.3894361 0.47452247 0.6550243 -0.23388766 -0.62230396 -0.9948845 0.58312243 0.7579844 -0.3511986 0.80901366 0.26977095 -0.20573546 0.56992275 -0.20515564 0.31321257 0.4147582 1.1733066 0.298656 0.49347627 0.62737995 -0.7309639 -1.414709 0.17091289 0.9708992 -0.6745014 -0.23221005 -0.29939142 -0.6698668 1.0833298 -0.39786747 0.26140955 0.54102 0.93366945 -0.75090253 -0.4468548 -0.66127014 1.3262156 0.06400624 -0.6022959 0.3840476 0.33751917 0.3921856 -0.45248342 -1.1930716 -0.048448358 -0.5930706
297 -0.3853666 -0.19847277 0.95332396 0.19874999 0.1269826 -0.6360211 0.29088444 -0.7648986 -0.21010084 -0.23763527 0.038119387 -0.6811953 -0.9110809 -0.5005655 -0.9055595 0.46147302 -1.5743837 -0.7180489 0.16939324 0.78559285 0.84706783 -0.36960882 0.09410233 -0.21983543 0.7409438 1.145009 -0.10990783 -0.14509676 0.9408773 -0.21053039 0.4314992 0.551806 0.08997713 -0.17864837 0.04182579 0.3234734 0.32763052 1.1516802 -0.41493526 -0.40986994 1.5841889 -0.4470653 -0.34294033 -0.015157995 -1.6332601 0.89961433 1.4864246 -0.85695374 0.22061908 0.8987526 0.63082564 -1.0387715 0.5545108 -0.17203017 1.2487882 0.55700344 -0.9093839 -0.70071423 -0.54029596 -0.0415344 0.17531426 -0.8626126 -0.04683684 -0.87224525
55 -0.23275925 0.28702927 -0.029689342 -0.44848865 0.0367369 -0.29659304 0.37685895 0.028091671 0.26052666 0.04613903 0.60730505 0.51507765 -0.17286868 0.15571499 0.19746295 0.12801746 -0.18129046 0.29658216 0.3058601 0.16602318 -0.085519485 0.027651919 0.4087906 -0.82852757 -0.110366814 -0.14545293 -0.3634871 -0.04000844 1.2070036 0.28150654 0.3046449 0.15482321 -0.122590005 -0.29541174 0.1282079 -0.5299159 0.22635242 0.41563657 0.1943636 0.25115898 0.37629437 0.2273566 -0.26161394 -0.7791958 -0.020095978 0.12013943 -0.1278409 -0.08361138 -0.016491452 -0.2526775 0.7323976 -0.43942 -0.19566065 0.19956498 -0.2948883 0.6500109 -0.082504906 -0.06764991 0.56345856 0.12989454 -0.34491694 0.23941444 -0.39547417 -0.4708415
227 -1.5908862 -0.0011456461 0.14429337 -0.12898317 0.43670195 -0.7014339 1.0500611 -0.7933238 -1.0530596 -0.33184963 0.28430822 0.2587037 -0.5157062 0.68251234 1.0790336 0.11581672 -0.5398644 -0.8611439 1.424308 0.42201194 0.59729576 -0.26264548 -0.62739974 -0.9768208 0.56835353 0.7257917 -0.3246009 0.7988707 0.29344887 -0.25752607 0.62524635 -0.2027884 0.27125937 0.41935876 1.2925127 0.34295273 0.4812892 0.5566694 -0.7347187 -1.42013 0.19408461 1.013267 -0.70414823 -0.27334067 -0.24201816 -0.70356834 1.1060022 -0.41960642 0.25509652 0.5922074 0.8571166 -0.7801979 -0.44307628 -0.7011026 1.3075627 0.07252495 -0.58219093 0.31238356 0.31075302 0.40125898 -0.38582104 -1.2307488 0.004648413 -0.46566957
120 -0.9325154 -0.13105936 0.041230038 -0.11919244 -0.19020067 -0.33773848 0.9084746 -0.31606823 0.65697575 0.46875516 0.44146082 0.71415627 -0.3040491 0.506548 -0.31419522 0.32564908 -0.6577021 -0.0048005907 -0.04730943 0.7215356 0.32731533 -0.3135289 0.22829202 -0.5657022 0.1774328 0.32009554 -0.09254911 -0.42956877 1.2717466 -0.47585788 -0.31526458 0.3692035 0.09041763 -0.12793541 0.13630186 -0.7315934 0.5901011 0.45124117 0.97085637 0.17659912 0.8848141 -0.021004528 -0.29413942 -1.0656075 -0.015442257 0.48718652 0.42796975 0.096538074 -0.4171177 0.19937547 0.5042422 -0.50948304 -0.034793098 0.6236181 0.110396214 0.77690053 0.24244115 -0.24738652 0.70594496 0.0423569 -0.3182992 0.40300396 -0.010705181 -0.19133371
107 -0.4948474 -0.19308273 0.25490227 -0.5691517 0.39135122 -0.10826714 0.63614416 0.8110696 -0.18679416 -0.13853689 0.045668457 0.8141014 0.024733022 0.59212863 0.4240041 -0.4810185 -0.16645198 -0.11663618 0.7819642 0.10078772 0.00017603039 -0.12735376 0.08891517 -0.12764496 -0.20501754 -0.22992289 -0.07012201 -0.3925084 0.83154184 0.39380062 -0.21049818 0.32211578 -0.30685428 0.29179946 0.12712735 -0.5467681 0.04824075 0.9460209 0.43463233 0.049702212 0.59706736 0.38812396 -0.8194236 -0.90443957 0.25617057 0.14636065 -0.37246206 -0.40994242 0.3413626 0.38862064 1.5167798 -0.39160955 0.22443813 0.58792764 -0.49551195 1.0359665 -0.123662256 -0.20132478 0.8928649 0.08789333 -0.6584725 -0.040006883 -1.3803803 -0.67296857
163 -0.13783596 -0.29318064 -0.049979202 0.124754824 0.07128575 -0.73857576 -0.17591406 -0.105799414 0.024426455 0.34834066 9.594768e-05 0.5057755 0.10362432 -0.6364415 0.7124018 -0.1826824 -0.0036819302 0.5848161 0.30638838 -0.2833103 0.21854065 0.14184222 0.30658525 0.253577 0.43934128 0.19133325 -0.59781444 0.275357 0.73741776 -0.5150079 0.2868999 0.15806489 0.10801798 -0.60741144 0.72513604 0.13676274 0.35122773 0.32034528 0.066458605 -0.06689733 0.19728188 -0.19559686 -1.273867 -0.87514347 -0.43609825 0.13986976 0.025708627 0.24981582 -0.1868091 0.46759036 -0.3168141 0.44074714 0.58561486 0.07580462 0.24286628 0.4014528 -0.04277138 0.05377871 0.094231315 0.7520304 -0.41986844 -0.18341827 0.21879835 -0.213162
407 -0.13830438 0.2162212 0.66967994 0.52684456 0.15804566 0.24282892 -0.41823485 -0.5252106 -0.4076557 0.119881146 0.32635438 0.8869073 0.35157335 -0.19955933 0.1992771 -0.50902545 -0.08805334 0.36564177 0.1496543 0.39973953 0.5354533 -0.39921734 0.029028166 0.34848404 0.08006632 0.1946622 -0.90097964 -0.0076331384 0.51796764 -0.5905987 0.04351046 0.44605497 -0.9418731 0.1459177 -0.17992425 0.0265524 -0.33117613 0.016244683 0.23767088 0.12734593 0.4211884 0.39054227 -0.003577449 0.42227098 0.25697353 0.02249007 0.13278429 -0.80565923 -0.3087034 0.26096988 0.5440434 -0.10259997 0.54484457 0.13233304 -0.26074997 -0.3548904 -0.06832325 0.25263697 0.37586266 0.19443372 -0.24768901 -0.48627645 0.6054736 0.52987915
42 -0.21567474 0.018548723 0.77937746 -0.37096655 0.20613284 -0.52780867 0.23058417 0.20743968 -0.60801667 0.11436822 -0.043973368 0.30809155 -0.5374592 -0.85118693 -0.13942674 -1.0978918 -0.43624938 -0.38103193 -0.81378484 0.27552214 0.5291766 -0.13522778 0.40160945 0.07153486 -0.16190323 0.7867668 -0.29454297 0.65767056 0.6990961 0.072364785 -0.21432272 -0.005795348 0.18626286 -0.13026296 -0.019976176 0.65004617 -0.17907992 0.742862 -0.034492876 -0.07925003 1.0325438 0.671429 -0.63867044 -0.04708735 -0.31945848 -0.47671548 0.79318 -0.099704675 -0.49894947 -0.25198162 0.24663009 -0.101696834 -0.6134941 0.24667591 -0.07977477 -0.11451166 -0.6255189 -0.6468205 -0.55084836 -0.42645708 0.15589519 -0.5243401 0.21144238 -0.27854964
409 -0.075746976 0.26848808 0.5086007 0.48980904 0.06687677 0.17788811 -0.27585238 -0.6719914 -0.23401946 0.035887763 0.4515314 0.7779633 0.29435953 -0.2075501 0.28007233 -0.50744045 0.07326062 0.3099625 0.082626395 0.44895944 0.46589178 -0.32823753 0.10908205 0.3818056 -0.030401716 0.28317872 -0.7578485 -0.014869392 0.5136004 -0.80287886 -0.03250473 0.4139978 -0.97531 0.08958706 -0.09827278 0.30699074 -0.26156345 -0.081648745 0.16938768 0.10696868 0.45498094 0.30070582 -0.10781381 0.29124233 0.36182913 -0.05950592 0.02137742 -0.9907542 -0.046988096 0.2589172 0.76296043 -0.029590072 0.6013273 0.1366456 -0.28576228 -0.32282498 -0.18346699 0.16145012 0.4114305 0.089657485 -0.07107286 -0.5415728 0.5683519 0.53529644
401 -0.3950227 0.45127437 1.2255945 -0.3067672 -0.3975876 -0.1476706 0.829664 -0.99365056 -0.41494256 -0.0607186 0.36491975 0.01997206 -1.5063503 0.7918358 0.27943298 0.5380548 -0.92369264 -0.6687502 0.96651673 -0.17500629 -0.22564952 -0.3814603 -0.755658 -1.0428926 -0.30684936 -0.14221342 -0.8034262 1.0153506 0.19851701 -1.1949046 0.085184194 -0.17933413 0.6132595 0.5709462 0.6604158 -0.27899128 0.17219974 0.27728355 -0.71269375 -0.21474317 0.77713156 0.12075327 -0.3650744 -1.1877694 -0.121745385 -0.09147622 0.9266001 -0.5875567 -0.03274701 0.6686086 0.43488902 -0.8693932 0.6872197 -1.1743107 1.9820935 0.17246617 0.6816684 0.54917914 -0.04992463 0.24313061 -1.1465466 -0.46557418 0.45572594 0.25333402
87 -0.39359537 -0.02578959 0.018357676 0.5343109 -1.4150505 -0.30747285 -0.17805822 -0.4914321 -0.55043995 0.33020768 -0.7889759 0.061318822 -0.34282503 -1.6515086 0.13119256 0.528238 -0.09538094 -0.08108871 1.1741253 0.12795897 -0.3263043 -0.81048423 -0.11185113 -0.6456893 0.20914476 -0.49422285 -0.8173576 0.18573126 0.27078548 -0.24828392 -0.04182652 1.0487343 -0.95535237 0.42176157 -0.13388208 -0.054120123 -0.9094392 1.3790884 -0.27011397 0.28701156 0.41094428 0.4123271 -0.2814867 0.1788528 -0.3451454 -0.17970471 -0.113302395 -0.12325656 -0.19224995 0.47690162 0.5378013 -1.1019953 0.92194074 -0.6267304 0.4474259 -0.34261367 -0.031292837 0.5906612 0.057336196 -0.0017190004 -0.28434613 -0.49377877 0.36531505 0.8650299
340 -0.2579598 0.26709247 -0.37797016 -0.35079953 0.2425542 -0.15618803 0.2536516 -0.7646235 0.27930096 -0.24253649 -0.026165921 -0.015070507 0.09277562 -0.1287169 0.67097557 0.05530017 0.07541916 0.026150089 0.1494697 0.34078166 -0.1437328 -0.1998653 -0.24888438 -0.1272945 0.41031808 -0.36372164 -0.1472209 0.29772982 0.5161678 0.3566167 0.04935511 0.018170191 0.017852312 0.3305851 0.70153946 -0.05213027 -0.7602495 0.13316815 -0.04199383 0.30190647 -0.13995272 0.21907431 0.043368436 -0.21095003 -0.70679355 -0.7692314 0.84162736 -0.08043467 -0.3137077 0.38540775 0.14667757 0.0046933396 0.368046 0.23089212 -0.16951299 0.50379074 -0.09238926 -0.0042125983 -0.046261825 0.21876198 0.21820956 -0.411769 0.13792333 -0.74256283
81 -0.20231313 -0.6601076 0.34825352 -0.37282312 -0.07174511 -0.4950938 0.45462975 -0.1243811 0.42188537 0.49543267 -0.38826796 1.3933557 -0.5930046 -0.71498597 0.4334942 -0.08120638 -0.061285254 0.42443165 0.027654583 -0.19292437 0.60591197 -0.027576076 -0.42101362 -0.42954427 0.3394848 -0.69051623 -0.17191386 0.95464146 0.85316545 -0.5900954 -0.2761082 0.57070947 0.09166231 0.48091424 -0.5911995 -0.28454337 -1.0863938 0.24986292 -0.14063212 0.43142545 0.1449913 0.5605253 0.13507342 -0.16407546 0.038677357 0.080883324 0.23913512 -0.5373745 -0.20896335 -0.4780478 0.17646481 0.07188303 -0.4226635 0.33915678 0.5454955 -0.5653917 -0.01784745 0.49973905 -0.47116324 0.08986567 0.20524415 0.0016804674 -0.16843803 0.773227
280 -0.35067177 0.47756448 1.1880224 -0.32026008 -0.36310714 -0.1302423 0.8559244 -1.0277368 -0.45776874 -0.035287805 0.39789352 -0.0065077273 -1.5484841 0.85633206 0.24990363 0.63661 -0.8907741 -0.6622016 0.9949974 -0.21000147 -0.17629007 -0.45207614 -0.83068484 -1.0284324 -0.2976619 -0.18225922 -0.72710973 1.0372651 0.26250577 -1.1837901 0.06117563 -0.19456644 0.6209397 0.5679768 0.65961426 -0.27986526 0.17714109 0.22840469 -0.62580335 -0.2384067 0.8314888 0.12715288 -0.3426465 -1.2006284 -0.05400619 -0.12878126 0.94666135 -0.6642436 -0.07472871 0.75482243 0.4522874 -0.8322298 0.70471156 -1.1710353 1.953855 0.13093248 0.709283 0.53952956 -0.021063985 0.24721617 -1.1532435 -0.4945575 0.3733024 0.23286988
22 -0.78792363 -0.12860747 -0.16285321 0.06561184 -0.17739429 -0.39424434 0.95950156 -0.49385825 0.5991846 0.35016364 0.53025526 0.628068 -0.4158575 0.514843 -0.25053298 0.32001525 -0.73036546 -0.09947707 0.14092922 0.7626579 0.25613585 -0.24957645 0.30562475 -0.5631095 0.15202892 0.3377501 -0.05510469 -0.3419084 1.3172295 -0.4482921 -0.48941904 0.37453336 0.04336123 -0.20916906 -0.12301177 -0.70372987 0.547593 0.49584788 0.99409014 0.08103137 0.73704505 0.05571789 -0.318355 -1.0879345 -0.028716382 0.5547001 0.43782654 0.083770424 -0.22279808 0.04511278 0.5575528 -0.29910946 0.017211711 0.54690224 -0.0764523 0.7252413 0.12719588 -0.0525605 0.56914514 0.052621834 -0.4728386 0.24388234 -0.010911545 -0.116662174
182 -0.41935423 0.09255746 -0.08474256 -0.15120505 -0.36474615 -0.27140963 -0.046382006 -0.08833889 -0.83178556 -0.29098794 -0.51969314 0.14795987 -1.1279374 -1.2500193 0.7043171 -0.66385794 0.16706386 0.4175147 0.050791863 0.88146013 -0.20828454 0.25862497 -0.16907786 -0.20269388 -0.47116157 -0.34488687 -0.9781176 -0.003783107 0.014037491 -0.3594537 -0.60733974 -0.22011414 1.0458363 -0.54546356 1.0431356 0.19897918 0.31601742 1.0672688 -0.33943525 -0.18744561 0.75716233 0.5659598 0.70333827 -0.070775524 0.10931455 -0.722445 0.13223706 0.13681826 0.0025181086 0.5276545 0.6472537 -0.5097431 0.18143831 0.28662473 -0.17295411 0.49716294 -0.05749002 0.107434474 -0.27716497 0.25678778 -0.705529 0.58295035 0.2058125 0.9046887
440 -0.32733467 0.3280018 0.03318321 -0.46691298 0.08105725 -0.30127627 0.4537662 -0.0461046 0.33379582 0.05626955 0.5195782 0.45200655 -0.07744922 0.21368219 0.19133465 0.07942778 -0.21006627 0.2955688 0.4268722 0.16623177 -0.01691836 0.013077995 0.43830374 -0.62087035 -0.07304905 -0.13188225 -0.121164285 -0.14179854 1.0505401 0.22146326 0.31378952 0.444614 -0.13326977 -0.21590604 0.23987268 -0.5068407 0.15574288 0.45085204 0.20293695 0.19182085 0.5825669 0.31975958 -0.20183353 -0.71031255 0.012359419 0.0565515 -0.169304 -0.12865502 -0.03547978 -0.2603579 0.7500784 -0.36728445 -0.25641653 0.11499148 -0.40718964 0.799095 -0.21287641 -0.067841135 0.62047297 0.11214964 -0.37638614 0.29592043 -0.46029827 -0.43287367
379 -0.12444113 0.13490787 0.082494885 0.1290883 -0.72335935 -0.4376564 0.055629585 -0.5220263 -0.47352389 -0.57350665 -0.14501718 0.118129954 -0.66270673 -0.7727426 0.22532777 -0.19511357 -0.17198953 0.78246105 0.23096539 0.7648329 -0.1848527 0.1542296 -0.44499436 0.42965937 0.005353214 -0.070543714 -0.9547592 0.02390549 -0.017474573 -0.20491318 -0.12930909 0.33502612 0.54439825 -0.6940706 0.54264635 0.17847076 0.041375782 0.69028103 0.01989276 -0.080599464 0.4391404 0.43075663 0.6399296 -0.31082967 0.14283693 -0.47373828 -0.22433409 -0.02127274 -0.059104353 0.291007 0.71307266 -0.091840945 0.23858567 0.358494 -0.11639314 0.49388412 0.2612242 -0.19489205 -0.23262303 0.4040936 -0.25964504 -0.06598742 -0.33706757 0.74159604
15 -0.6796459 0.5091176 0.39074308 0.14326121 -0.9477578 -0.21939732 -0.5277305 -0.15963483 -0.10417458 -0.60591066 -0.07665858 -0.43054032 -0.83499813 -0.14525717 0.13731144 -0.31709942 -0.53190887 1.639851 0.037516136 0.71088004 0.046974804 -0.007898251 0.19149895 0.48413384 -0.69441354 -0.29004335 -1.5425763 -0.49947008 0.020072253 -0.2729514 -0.86097765 0.4279663 0.6763317 -0.49191785 0.13022666 0.22995803 -0.19225067 0.48845568 -0.36737847 0.14293198 -0.07969582 0.9140432 0.32923287 -0.64904547 -0.14323269 -0.134337 -0.119544946 -0.38115436 -0.20116374 0.09775052 0.38946727 -0.49421522 0.9006133 -0.2149079 0.2514787 0.55146986 0.8797975 0.03822236 -0.6866237 0.27185264 -0.782025 -0.3788798 -0.3477048 -0.070753396
366 -0.3982068 0.47720227 1.1654115 -0.3917662 -0.39221242 -0.18687476 0.72230196 -0.9469543 -0.48844433 0.0024118503 0.36031106 0.017328637 -1.5465443 0.7120999 0.30644947 0.53196853 -0.9032738 -0.7155026 0.99963343 -0.19539057 -0.22056071 -0.3687531 -0.8464457 -1.0292505 -0.32315794 -0.13193557 -0.72098297 1.0184296 0.22338042 -1.1076397 0.0757126 -0.28077075 0.5756867 0.60642624 0.70866156 -0.27646068 0.17627 0.31894472 -0.68825483 -0.1701279 0.77828455 0.007112058 -0.29875007 -1.1451943 -0.090443455 -0.15982877 0.93655896 -0.60763603 -0.055588853 0.64236623 0.42735595 -0.8543352 0.7221525 -1.1505662 1.9484903 0.17013688 0.6643752 0.606624 -0.05092811 0.22988044 -1.1763663 -0.43872067 0.39171702 0.16509911
68 -0.06759034 -0.22470948 -0.03857538 0.14327638 0.16543147 -0.6878881 -0.34813756 -0.095270045 0.06327672 0.27442554 -0.023149684 0.48345062 0.22572106 -0.6039028 0.7567567 -0.12895252 -0.033942703 0.4862483 0.14720806 -0.22520934 0.034214605 0.24696264 0.25018775 0.26476172 0.52246594 0.24223723 -0.53951323 0.31868318 0.69902474 -0.5185388 0.35924613 0.1585196 0.09477979 -0.5560912 0.5989386 0.12237055 0.33356345 0.44047323 0.06186367 -0.20093638 0.2674932 -0.06963871 -1.1568402 -0.80302316 -0.48996416 0.19504535 -0.00543152 0.3045884 -0.0021633625 0.6128128 -0.26094195 0.46239194 0.46774846 0.12223413 0.2781993 0.33588687 -0.12787274 0.103050105 0.14729176 0.73373365 -0.5089099 -0.18627213 0.24520002 -0.20869216
299 -0.3023938 0.35180655 -0.8109415 0.31159756 0.392824 0.13284005 0.48221913 -0.9241611 0.5555608 0.69841576 -0.07829271 0.19761407 0.7682404 -0.050206847 0.9934498 -0.009049343 -0.6422309 -0.12882692 0.11627325 0.1609337 -0.94114107 -0.61242586 -0.35533836 -0.45480308 0.24125943 -0.37062976 -0.44649047 0.21135785 0.61108327 0.018157898 -0.23269774 0.4965657 0.5497677 0.0488705 0.5610619 -0.094242066 -0.19288345 -0.27758986 0.11271252 0.61529857 -0.23369217 0.15314652 0.2310015 -0.24247809 -0.35987008 -1.2440606 1.3973149 -0.3159456 -0.58729446 0.41173604 0.34881288 0.24537097 0.6261475 0.6831044 0.38126475 0.5799697 0.036225043 0.44022226 0.054110028 -0.050859764 -0.089357786 -0.48332143 0.28770074 -0.5812242
231 -0.86766016 -0.120069444 -0.044521373 -0.15131527 -0.124594085 -0.22957714 0.9299717 -0.38824022 0.6600262 0.31810898 0.51606536 0.65214384 -0.40692908 0.47945464 -0.13833979 0.40042397 -0.58523107 -0.07422728 0.08578108 0.7993063 0.22948793 -0.20094527 0.40773872 -0.5071438 0.24453332 0.34384412 -0.058960702 -0.41187784 1.2557093 -0.36387235 -0.38535532 0.2409417 0.09005185 -0.13228872 -0.09710321 -0.7318124 0.6385515 0.47452217 0.94192255 0.1431327 0.84936064 -0.04222353 -0.3106645 -0.9926195 0.13396181 0.44336727 0.46304235 0.0845709 -0.46901935 0.20409158 0.54539233 -0.37423804 0.09355239 0.50206655 -0.027689135 0.87473977 0.1694305 -0.078012176 0.5608322 -0.017014083 -0.36946043 0.25006464 -0.11598176 -0.12887482
58 -0.4154188 0.34593529 0.4256672 -0.6043717 -0.32425654 -0.018000131 0.023347398 -0.11049694 -0.49798185 0.47997382 0.14489765 -0.1967762 0.19622298 0.27667284 0.5678591 -0.20630988 0.3769681 0.5778801 -0.20033176 0.22976117 -0.13585164 0.41087463 -0.26069176 -0.010497024 -0.171691 -0.25947714 -0.2449483 1.0961038 0.48988852 -0.51506233 0.41897154 0.10029713 -0.1135511 0.15324117 -0.4486059 0.67986375 0.2930295 0.45706248 0.2741149 0.37570274 0.6490924 0.6273332 0.41509646 -0.77740926 -0.93545943 0.51299006 0.5801557 -0.15140146 0.033138737 -0.12792312 -0.3279544 -0.24050842 0.47837284 -0.1260267 0.2314778 0.116806515 0.3799332 0.20371032 0.0628928 -0.1643869 0.24895976 -0.23623079 -0.5599123 0.17254516
175 -0.8588942 -0.3568403 0.17239569 0.7371384 0.15484972 -0.7789732 0.19504826 -1.0561019 -0.46858025 -0.48912406 -0.63600236 -0.06600842 -0.5328907 -0.5798473 -0.06589832 -0.4243 -0.7660596 0.87760985 0.24143301 1.3882048 -0.41709223 -0.23855482 -0.40638664 0.36113936 0.08796635 0.42859626 -0.8062015 0.2546436 0.8690293 -0.05956684 0.2942739 0.029166711 0.34141493 -0.73060733 0.52338004 0.088080496 -0.03908452 0.23548445 0.09513039 0.5012999 0.3500084 0.371355 0.72990006 -0.34348717 0.57009876 0.14594904 -0.72258854 0.036966275 -0.26282597 0.56950325 0.3218925 0.10746889 0.31468397 0.107390806 0.5374529 0.35302186 -0.18716216 -0.78621423 0.069264665 0.1277172 -0.08463973 0.1987201 -0.39425674 -0.0756999
296 0.15292133 0.31140304 -0.19598499 0.74869245 0.542262 0.12585919 0.6123357 -0.65030897 0.033422694 -0.18295589 0.07366256 0.08545268 0.25610486 0.29465967 0.8938865 0.034687694 0.15243804 -0.10717273 1.0843288 0.7867637 0.38202557 0.023070281 -0.70355636 -0.124912664 0.30239895 -0.9520044 0.009476289 0.91805035 0.2986273 0.371973 0.58432066 0.050121624 0.44413412 -0.18618044 0.53481245 -0.62583953 -0.18628305 0.0053937826 -0.22843613 -0.110822424 -0.5546449 0.3598943 -0.007878554 -0.37438637 -0.63423383 -0.33892325 1.5088776 0.085044995 -0.72344095 0.37256798 0.27626893 -0.3845228 0.40975434 0.612973 -0.5504655 0.4847108 -0.112298675 -0.18816265 -0.6831518 0.14146383 -0.67097366 -0.9976213 -0.07722215 -0.7288645
88 -0.60436493 0.28098273 0.033437107 0.08198674 -0.89032555 -0.5865019 0.13437524 -0.6094088 -0.5210483 -0.17200725 -0.064331055 0.4545923 -0.40971628 -0.7031624 -0.16423261 -0.15475538 -0.3735246 0.1701357 0.24145383 1.0845793 0.3119248 0.023897415 -0.27665552 0.78040546 -0.008128055 0.0522659 -0.54477465 -0.37550667 0.06929628 -0.2564549 0.22789742 0.37229165 0.6734532 -0.79056853 0.855368 -0.050458863 -0.11236135 0.5514223 0.02639118 -0.28845498 0.82373184 0.16596267 0.61327827 -0.43666443 -0.6216324 -0.26719344 0.42570615 0.5796559 0.4736472 0.4476962 1.3159783 0.3172774 0.29824668 -0.41113153 0.27235678 0.3867779 1.0220261 -0.080130294 -0.6321805 0.6349736 -0.47649485 0.10927956 -0.3738889 0.96515965
162 -0.124409154 -0.26607758 -0.065881535 0.3643705 0.079467535 -0.6928416 -0.29712668 -0.05422999 0.044570893 0.42455256 0.07412379 0.5896736 0.09086923 -0.4321157 0.6495223 -0.20045143 0.12782827 0.4452903 0.36219642 -0.22715817 0.1310453 0.117307834 0.25162092 0.26684606 0.43091938 0.321958 -0.6242677 0.26436704 0.68393034 -0.5056674 0.28850678 0.36619252 0.11984356 -0.5872145 0.71443385 -0.056920756 0.23382679 0.45065492 -0.041987415 -0.05953282 0.2395275 -0.05819095 -1.1012633 -0.9241881 -0.44731703 0.19740018 0.03956188 0.30216706 -0.12247955 0.5795274 -0.43269005 0.49121112 0.5738195 0.15446526 0.23854613 0.38170636 -0.11207676 0.0152252205 0.024661016 0.64621764 -0.45283788 -0.065392554 0.10399762 -0.28914654
181 -0.5606067 0.26270425 0.06532001 0.10251592 -0.88365597 -0.7372244 0.08201506 -0.58033466 -0.48659405 -0.10200271 0.020316767 0.5112302 -0.56588376 -0.6787875 -0.10016118 -0.26502407 -0.33235884 0.034029007 0.32998964 1.164208 0.08914975 0.17049018 -0.31432682 0.8263437 -0.08334755 0.20208324 -0.58747655 -0.34509626 0.05488864 -0.26561353 0.21336651 0.51616985 0.7088093 -0.7233734 0.73448825 -0.14637987 0.007519719 0.5486431 0.02577412 -0.33930677 0.65130675 0.20823783 0.59721684 -0.34234083 -0.6906339 -0.38018382 0.434366 0.53893733 0.38889325 0.44839677 1.2885934 0.23218912 0.383703 -0.31360853 0.16721651 0.40219912 1.0255393 0.003969631 -0.63548815 0.57577467 -0.46537825 0.183188 -0.34286192 1.0056189
78 -0.4335009 0.2769142 0.42526945 -0.639935 -0.21967065 0.06843933 0.00507056 -0.10423269 -0.6165649 0.4740414 0.27375868 -0.1189051 0.06573324 0.33018345 0.62534744 -0.2303921 0.33824968 0.5697686 -0.07651271 0.23901296 -0.13175008 0.29474196 -0.27293533 0.093762174 -0.10967255 -0.31340915 -0.30244157 1.0141675 0.48565996 -0.5719303 0.30277458 0.14614247 -0.20616065 0.21612948 -0.33761686 0.846024 0.24180642 0.56275517 0.3042827 0.36347136 0.5862212 0.5697023 0.49484572 -0.8027087 -0.9321341 0.6706967 0.6654733 -0.17537975 -0.027751353 -0.08817534 -0.3303224 -0.17989337 0.46542206 -0.27774018 0.12650901 0.123301245 0.3416278 0.15825625 0.052385297 -0.24391252 0.20074506 -0.20167677 -0.67753893 0.265171
362 -0.3211919 0.2851343 -0.3828489 -0.4076702 0.29208472 -0.018318152 0.1419182 -0.6642635 0.33342662 -0.19879058 0.067232594 -0.03706538 0.060126953 -0.10871717 0.5377132 -0.08391976 0.027807977 0.115032576 0.22218256 0.39729512 -0.10182271 -0.07548021 -0.33986688 0.0041080588 0.530988 -0.4560947 -0.10562862 0.3309516 0.553654 0.33265355 0.101817355 0.11001125 0.08941772 0.2566533 0.703543 0.0720599 -0.8618306 0.025649425 -0.12523557 0.28887597 -0.073978715 0.20710902 -0.06378345 -0.09491334 -0.6666161 -0.72740346 0.9618338 -0.03231178 -0.41418597 0.39264834 0.20290661 -0.12547578 0.26875484 0.21993281 -0.18699428 0.51959133 0.025690364 -0.03485062 0.11936501 0.2567002 0.14965989 -0.34950635 0.14758664 -0.6689546
222 -0.055199347 -0.16335484 -0.11806469 0.31210184 0.07931681 -0.56685454 -0.36454296 0.040311895 0.08131056 0.35112068 0.09096266 0.52516586 0.11574116 -0.5736 0.67930275 -0.20362443 0.16125251 0.42439353 0.19248876 -0.11571122 0.03205474 0.15304561 0.3113103 0.14784332 0.48715258 0.23531923 -0.5813171 0.4041683 0.7673853 -0.47824153 0.20777526 0.17256087 0.18933569 -0.5872291 0.6703438 0.025205111 0.1483711 0.4622256 0.16026159 -0.21667422 0.28675273 -0.111965254 -1.1480596 -0.90817463 -0.51436126 0.20215562 -0.030945765 0.2595498 -0.041615408 0.71411693 -0.4087865 0.50993836 0.38861758 0.07987623 0.326138 0.3358848 -0.10659236 0.07712107 0.069604166 0.7390964 -0.4419918 -0.14086588 0.040772256 -0.29299936
170 -1.2530652 1.1451502 -0.22924526 0.19335781 0.2840978 -0.37822193 0.10019799 -0.077435724 0.3145835 0.10958442 -0.14669459 -0.07312982 -0.68604684 0.004758323 0.39147332 -0.878601 0.25530612 0.44647595 0.4903825 -0.23682092 -0.016081592 -0.046281457 -0.4707812 0.4962926 0.105391055 -0.578252 -0.8259697 1.8316635 0.4782134 -1.2322243 0.8792216 0.2366541 -0.6297902 0.5670035 0.8409681 -0.073937625 1.2880303 0.280048 0.67115104 0.25380412 -0.2520248 0.6149708 0.9111009 -0.26737535 -0.51800245 1.1860234 0.5791915 -0.7180437 -0.59785604 0.35568744 0.46270162 -0.0015458665 0.15151171 -0.20752065 -0.11667683 0.055747006 -0.032833107 -0.21125312 0.4301577 -0.5410724 0.6150245 -0.5020955 -0.21523333 0.3320038
367 -0.5932104 0.67917347 0.526861 0.16729216 -0.32027957 0.655524 0.24871777 -0.36606082 -0.57085305 -0.712468 0.41945046 0.30833876 0.24973273 -0.56428206 -0.08536312 -0.17213428 -0.118144535 0.50375795 0.51434356 -0.088381685 -0.6141148 0.2313698 0.10126351 -0.10003042 -0.2805371 0.42494142 -0.5611062 0.28358692 0.4905023 -0.06103365 -0.5511793 1.091599 -0.43380278 -0.36898345 0.34583753 -0.09031343 -0.6170189 0.62932456 -0.31993967 0.14379229 1.1957139 1.0708426 0.154347 -0.24466638 0.30844578 0.27502283 -0.5557481 0.22143851 0.25334045 0.7574154 0.3698982 -0.43215716 1.0620824 -0.75320125 0.095418625 -0.78688127 -0.40972105 -0.0006842847 0.07032789 0.2884132 0.23283151 -0.8741246 0.96779203 0.10866234
4 -0.24970911 0.3085482 -0.088523656 -0.44045967 0.090413995 -0.3734264 0.4910599 -0.077545166 0.25404567 -0.050209958 0.661554 0.5057874 -0.08860727 0.187789 0.13266645 0.17962797 -0.23670593 0.19388846 0.3179559 0.17334959 -0.098436676 0.051479995 0.53430074 -0.59435076 -0.010838844 -0.29691732 -0.3087648 -0.0913858 1.1476507 0.32473958 0.33100867 0.2862103 -0.17232174 -0.14152226 0.1624445 -0.50335747 0.2345513 0.42499062 0.23150852 0.14426641 0.40252748 0.32684568 -0.24226847 -0.841887 -0.00032184855 0.11904901 -0.17686479 0.018533073 -0.008721742 -0.25306413 0.7255402 -0.4826581 -0.20786056 0.14849558 -0.3951959 0.53560245 -0.11606768 -0.08636135 0.5736591 0.15118285 -0.42909825 0.21721993 -0.39946237 -0.46287808
86 -0.57173026 0.5477797 0.33552682 0.1544419 -0.9975802 -0.29127496 -0.41608322 -0.103584945 -0.1774907 -0.5491466 -0.03506809 -0.30381313 -0.8277217 -0.14675516 0.17470032 -0.28123388 -0.5528785 1.6672764 -0.0016357219 0.54738885 0.050280325 -0.11217944 0.16266693 0.47260273 -0.6395539 -0.32197213 -1.3823686 -0.5118115 0.08747082 -0.38692075 -0.794882 0.38865492 0.76037794 -0.4084522 0.2595856 0.3251125 -0.11364976 0.47719505 -0.2553399 0.15865962 -0.08012393 0.7656055 0.4451185 -0.6935088 -0.082669236 -0.2057959 -0.16204186 -0.36773622 -0.18201265 0.11000488 0.49907014 -0.5256966 0.84439445 -0.17095965 0.2327552 0.4951115 0.9750648 0.04833569 -0.60714585 0.29548216 -0.6126259 -0.4969386 -0.28612852 -0.07091959
106 -0.62676936 1.037355 0.4744391 0.048353102 0.047251835 -0.06879748 0.073731855 0.18538468 -0.19137557 0.49252534 0.03891526 -0.5097304 -0.44303927 -0.3088799 0.6659062 -0.56052697 0.026171314 0.2670066 0.32054758 0.15646169 -0.28593904 0.5839514 -0.1085877 0.34241262 0.16277726 -0.31596562 -0.8033408 0.89161974 0.26130787 -1.1701611 0.3256855 0.037019886 -0.8544468 0.4355472 0.25339007 0.31070092 0.5550184 0.03586652 0.43292886 0.7292144 0.4958872 0.32196358 0.83135897 -0.5459155 -0.95386744 1.0346224 0.60066754 -0.90332764 -0.3997629 -0.046670977 0.029550964 -0.018940032 0.10847727 -0.29860803 -0.37389565 0.63833356 -0.05636705 -0.0028120347 0.25054172 -0.1864121 0.27860144 -0.2546043 -0.17700498 0.3056242
410 0.04320733 0.12555152 0.52296567 0.40184128 0.003979436 0.06617949 -0.39402398 -0.5547003 -0.31297815 -0.051852778 0.47011408 0.9530794 0.40666988 -0.10002162 0.13923627 -0.5040042 -0.16154651 0.20509288 0.05939027 0.34863886 0.5238952 -0.47401476 -0.027731739 0.38785934 0.029217446 0.15266584 -0.8084384 0.11340135 0.49091738 -0.69558674 0.10963682 0.5263701 -0.86894304 0.22000717 -0.060749017 0.29663467 -0.16801234 -0.058240477 0.32231814 0.22347833 0.3300589 0.32115743 0.048548706 0.3400052 0.30048916 -0.03528955 0.16950105 -0.88999337 -0.13337143 0.21106853 0.60096794 -0.12555732 0.5625419 0.089332245 -0.18042578 -0.3507074 -0.16913155 0.28478155 0.41874373 0.19983387 -0.10320422 -0.54138535 0.37565583 0.4035293
29 -0.116325095 -0.24752079 -0.06956671 0.14679196 0.10040685 -0.70110726 -0.25413725 0.06375456 -0.0757228 0.33480978 0.02337435 0.61312944 0.22051999 -0.595565 0.6849635 -0.122729555 -0.10226142 0.42554307 0.27058735 -0.25849783 0.10140927 0.14090806 0.3598565 0.2585361 0.5743019 0.15046112 -0.63906074 0.27345443 0.6197231 -0.38518 0.21670243 0.0420466 0.086309016 -0.66016054 0.73762715 0.07944543 0.24512504 0.380729 0.115391746 -0.07644706 0.29091498 -0.060556896 -1.1025913 -0.91100913 -0.4380018 0.25575823 0.0647623 0.22196418 -0.13122496 0.6683603 -0.38018653 0.41713753 0.5311423 0.10292052 0.26856104 0.39800963 0.011298808 0.17211008 0.22243252 0.6251081 -0.4123375 -0.15665597 0.10165843 -0.24971192
50 0.1285185 0.2908187 0.39746913 -0.42303398 -0.09564929 -0.642457 0.34626004 -0.14460126 -0.5387813 0.4027366 -0.13033143 -0.040773686 0.36856917 0.26330233 0.91951865 -0.66479063 0.685214 -0.031596195 0.08404973 0.2145247 0.28297383 0.42896485 -0.2515546 0.038739957 0.30288747 -0.6346838 -0.8107039 0.64119524 0.53183657 -0.9011181 -0.28283817 -0.050164834 0.26858482 0.2583468 -0.80275524 0.3088965 -0.14401689 0.114391044 0.38450602 0.17565657 0.7780312 0.41990498 0.21286118 -0.60516185 -0.21486342 0.22639261 0.25815195 0.2613039 -0.5975767 -0.49140486 0.18338397 -0.48660108 -0.38556078 -0.62188166 0.5918154 -0.15145396 0.2828959 -0.25518292 -0.058360167 -0.2681846 -0.118946 -0.04473221 0.46234185 0.015814872
201 -0.94217557 -0.24915074 0.17679554 0.69225997 0.1685927 -0.7757668 0.15625528 -1.0037363 -0.40151343 -0.35361576 -0.6238312 -0.095317475 -0.4984343 -0.6902477 -0.0016826148 -0.43611088 -0.8481597 0.8943036 0.34924236 1.2527913 -0.36732396 -0.13140725 -0.40360025 0.44430867 0.13824515 0.4503958 -0.8448811 0.21228997 0.9414815 0.06884509 0.30235106 -0.09912743 0.3559858 -0.79215604 0.50703394 0.0043061636 0.099960156 0.19367076 0.022059541 0.5484814 0.3335485 0.2758139 0.7168509 -0.36124828 0.68072724 0.09201541 -0.65352404 0.05904207 -0.45344266 0.5527931 0.33007038 -0.09383908 0.427702 0.014072163 0.4308263 0.2878126 -0.19882841 -0.7026755 0.025710303 0.08842399 0.035334073 0.12562965 -0.41630292 0.03645479
83 -0.96011204 -0.34810367 0.17679322 0.6567122 0.2175415 -0.72304416 0.042621575 -0.9278753 -0.37666675 -0.53624517 -0.67402947 -0.045791868 -0.5828106 -0.70829666 0.03662076 -0.47491175 -0.86477995 0.86617893 0.33395553 1.3453729 -0.45092922 -0.18160051 -0.41653693 0.29369536 0.05658103 0.46174237 -0.7603919 0.20030397 0.9720431 0.015296033 0.30110183 -0.06511447 0.35204107 -0.75146127 0.55677843 0.015227158 0.06749488 0.23025168 -0.046421353 0.59839803 0.38476396 0.48702773 0.78255785 -0.35645768 0.64976895 0.18919891 -0.5249073 0.03369843 -0.28990707 0.5110283 0.25826636 0.06319004 0.36519507 0.115541086 0.5947605 0.2807122 -0.22798145 -0.7453587 0.016996333 0.08126322 -0.1389609 0.22599323 -0.346081 0.06338307
80 0.031647615 0.1320443 0.15966196 -0.7837737 -0.27962047 -1.224992 0.17605871 -0.2156412 -0.27432388 0.111124754 -0.23512216 -0.008678621 -0.31560266 -0.34222338 0.35025018 -0.39226004 -0.007858458 0.3938006 -0.37929454 0.11061647 -0.04843349 0.019198447 0.06942617 -0.4332185 -0.20091872 -0.35645506 -1.0108509 0.45778045 1.6526263 -0.70663434 -0.42809743 0.39730018 -0.783563 -0.42481825 -0.8445799 -0.4446109 -0.8545841 -0.26952818 0.07678681 -0.39331135 -0.018303234 0.8000952 -0.5471611 0.61330026 -0.20012794 -0.33455884 0.36667007 -0.54344577 0.22880328 0.9389348 0.2420368 0.5435968 -0.38814673 0.011391683 -0.4373986 -0.8354331 0.25444454 0.09325331 0.3509387 -0.17923197 0.22847179 -0.12884927 -0.7912973 0.6928306
133 -0.3861331 0.19463953 -0.119008556 -0.37843558 -0.014686515 -0.2556795 0.49294716 0.0788974 0.29836324 0.044873297 0.63054603 0.40770823 -0.1541859 0.15523675 0.25258946 0.06959637 -0.16056274 0.2757722 0.28175512 0.11143813 0.02962273 -0.03700907 0.41071507 -0.68124807 -0.11720608 -0.14226045 -0.26318294 -0.0029463186 1.1249523 0.35168108 0.22263356 0.1419013 -0.15802109 -0.2732172 0.17669518 -0.66699106 0.17869806 0.43738133 0.2674723 0.22394997 0.5669432 0.32835317 -0.21879493 -0.7126523 -0.11796857 0.18055998 -0.20305055 0.06552699 0.076695435 -0.28818285 0.8060373 -0.5167992 -0.09516407 0.16066737 -0.41265956 0.6237219 -0.047161814 -0.068785205 0.5831377 0.084230736 -0.55257523 0.020300588 -0.50134206 -0.4748748
26 -0.39107072 0.2557935 -0.0025438813 -0.35686478 0.07432329 -0.23159869 0.48176837 -0.009894849 0.35749996 -0.028421715 0.6560271 0.62872064 -0.08587637 0.14564638 0.1715537 0.13068947 -0.26022625 0.18274146 0.28986344 0.15244755 -0.089313425 -0.0428363 0.46208727 -0.7102599 -0.034271732 -0.17080745 -0.30450854 -0.049851887 1.1312342 0.26188034 0.28359428 0.22895916 -0.16045558 -0.2878888 0.18203771 -0.4867865 0.15812306 0.39214352 0.19140774 0.24899606 0.42554364 0.2748963 -0.1365147 -0.81993866 -0.016367335 0.20996101 -0.14421201 -0.0401778 0.009648024 -0.20977399 0.66242623 -0.46940744 -0.256712 0.09304497 -0.44297242 0.7644911 -0.08581978 -0.15897937 0.5482155 0.08613137 -0.46042302 0.19836798 -0.35781854 -0.43405914
203 0.8219596 0.053917434 0.9609337 -0.74782556 -0.098000914 -0.6417832 -0.077731796 -0.11970755 0.073942326 -0.18751793 0.1264969 -0.021905264 0.15051904 -0.31952426 0.31796265 -0.48282397 -0.2544031 -0.24693699 0.5170652 0.40099376 -0.28393713 -0.29393995 -0.12475644 -0.23234342 -0.3675998 -0.08327361 -0.7685013 0.95509005 1.0443453 -0.8852876 0.631152 0.38912517 -0.24580769 -0.022263171 -0.49073094 -0.2629711 -1.4708966 -0.058274623 0.36670145 0.6327397 0.5750277 0.04333139 -0.054047715 -0.12788187 0.026259786 -0.0039051345 0.23666146 -0.10647815 -0.041600488 0.17585047 0.08822188 -0.29621476 0.26182178 -0.23326683 -0.49142912 -0.20288101 0.4223402 -0.46097943 -0.5914009 -0.7566515 -0.6344848 -0.3625538 0.3641053 0.7648692
47 -0.3492406 -0.09285982 0.6748033 -0.5472413 -0.35813022 -0.39144936 1.3854322 0.16429292 0.25282443 -0.035067063 0.25534979 0.069760464 0.40585387 0.05637002 0.08909976 0.37791544 0.19466212 0.07268389 0.7435498 -0.10468852 -0.42817342 -0.20902838 0.11136881 -0.86067873 0.15821923 0.114887595 -1.2266687 -0.24489625 1.3453826 0.30822483 0.42830852 0.7622497 -0.42752013 -0.102758005 0.56224364 -0.36787507 -0.020748148 0.68107116 0.23985384 0.13431264 0.5387926 0.3796897 -0.64010996 -0.68469906 0.29567772 0.0153273335 -0.33162042 -0.3713424 0.9233802 -0.6097017 0.62264705 -0.27264866 -0.35682255 0.6985925 -0.70195657 0.7380989 0.7512277 0.22068991 0.54636174 -0.01373657 -0.5810777 0.3343723 -0.31724253 -0.84332556
9 -0.28729433 0.30088672 -0.07034984 -0.4058591 0.030210637 -0.31094778 0.50044245 0.006658683 0.3196333 0.053442553 0.5936545 0.5419172 -0.071398295 0.1260721 0.2751222 0.018204844 -0.17355715 0.25715297 0.2566145 0.12586837 0.034034066 -0.01712636 0.5063808 -0.6998361 -0.05524604 -0.09254749 -0.3430021 0.029876353 1.1309499 0.32513827 0.29902062 0.2210432 -0.056008164 -0.23133387 0.13049671 -0.57846564 0.17911977 0.39055774 0.22426648 0.19246581 0.43764666 0.2635525 -0.06633395 -0.68373245 0.016461538 0.24882242 -0.16322105 -0.09691662 0.13909681 -0.22712758 0.793605 -0.47256663 -0.18627255 0.25561967 -0.3409812 0.729585 -0.13959755 0.045385 0.5092452 0.037433412 -0.50850284 0.18972704 -0.3462607 -0.5515877
355 -0.36222124 0.27707577 -0.09277239 -0.4040807 0.073377185 -0.23496972 0.4122682 0.08517849 0.30224267 -0.0011245362 0.5935686 0.42927384 -0.08735478 0.16281326 0.16929226 0.1113941 -0.1224594 0.24388337 0.34494638 0.22067247 0.029245557 -0.08271041 0.5726712 -0.7186358 -0.052529503 -0.19558509 -0.1896517 0.046568114 1.1615965 0.2232265 0.32029194 0.26111415 -0.07883185 -0.28278026 0.22878133 -0.58995783 0.16667168 0.4897905 0.20981082 0.16117379 0.507278 0.34012073 -0.09263987 -0.83195543 0.013052069 0.0957312 -0.16317144 -0.18689229 0.11898381 -0.24615237 0.7799424 -0.32025528 -0.1341675 0.12638369 -0.33229327 0.6907774 -0.11443919 -0.08988279 0.52172 -0.0018858641 -0.41128063 0.32068312 -0.28764513 -0.5021761
46 -0.18799502 -0.18937568 -0.020461563 0.09290095 0.1949734 -0.6748944 -0.34155935 -0.07870545 0.0013264419 0.34137884 -0.0575587 0.64836836 0.19076805 -0.50011694 0.6843143 -0.14296539 -0.048025742 0.6068268 0.27571076 -0.30878186 0.032246258 0.122955084 0.3416029 0.1756505 0.60103023 0.17132287 -0.6058077 0.2824236 0.5763548 -0.4950327 0.25165898 0.17900293 0.24052513 -0.55327076 0.6673297 0.08199922 0.23476784 0.39199835 0.047574926 -0.1674359 0.26321012 -0.06726137 -1.1604315 -0.79729205 -0.51953036 0.28672758 -0.029084187 0.24101193 -0.19713198 0.534798 -0.3589452 0.47503832 0.47870776 0.13146313 0.24592954 0.40661567 -0.20989642 0.08436938 -0.0012090217 0.70868313 -0.4723902 -0.086178295 0.08798686 -0.11514531
313 -0.12211746 0.27312315 0.017332928 0.06914028 -0.67382777 -0.40987816 0.05734235 -0.35537454 -0.5593134 -0.44971818 -0.21478824 0.23821852 -0.6168379 -0.7571871 0.15815005 -0.21244638 -0.13664557 0.6199205 0.16485511 0.7242978 -0.17173052 0.05135375 -0.3422547 0.31308573 0.036287483 -0.15468417 -0.9286585 0.018828658 -0.10254206 -0.23632534 -0.13166177 0.25506923 0.6481488 -0.8049761 0.5902116 0.08477259 0.07247399 0.6187927 -0.09260699 -0.0754798 0.4895122 0.46209285 0.75110537 -0.19469838 0.106292 -0.43615142 -0.19767308 -0.0366832 -0.059447333 0.3308864 0.70582885 -0.07432183 0.29959598 0.30070964 -0.03312908 0.6143312 0.2757532 -0.062683344 -0.2683444 0.41883105 -0.3459251 -0.1647881 -0.39251786 0.684036
226 -0.11036344 -0.23532066 -0.07149635 0.21196966 0.21155077 -0.6513206 -0.3459376 -0.058022134 -0.040968377 0.3185058 -0.058373746 0.5636752 0.1066067 -0.51026005 0.5920008 -0.13948113 0.050078407 0.57468563 0.21396531 -0.25787643 0.05030931 0.14882258 0.31768546 0.19455154 0.569064 0.20966351 -0.5722168 0.32015848 0.7181917 -0.5709144 0.22944108 0.19968353 0.14515169 -0.5431459 0.760778 0.017707862 0.21073735 0.5216951 -0.0057005086 -0.11180746 0.15811086 -0.084354565 -1.1279658 -0.91758645 -0.48844805 0.21537843 -0.020983374 0.19020122 -0.1499302 0.5849192 -0.3622716 0.55441123 0.5215942 0.093977846 0.25948274 0.37327924 -0.01598535 0.07677524 0.09056089 0.6082893 -0.4962644 -0.061350293 0.07454204 -0.24066894
378 -0.23466182 0.14463617 0.0750176 0.1505494 -0.7279119 -0.39312997 0.03775988 -0.36135557 -0.46986085 -0.43068257 -0.19628352 0.1658144 -0.6006023 -0.8535026 0.16758561 -0.2576471 -0.20314233 0.49962246 0.33291236 0.7276043 -0.15100476 0.20295711 -0.48779276 0.45478418 0.038212776 -0.13399006 -0.90552694 -0.035655316 0.03185518 -0.22857444 -0.20169936 0.2413279 0.5009578 -0.75825983 0.58964306 0.14260489 0.03504651 0.67844284 0.008488846 -0.16439961 0.45095977 0.43462983 0.7747156 -0.3433221 0.15412386 -0.43574202 -0.21775334 0.07689181 -0.02445344 0.2999993 0.6925269 -0.2500104 0.31438217 0.35377958 -0.07550917 0.41919106 0.20097527 -0.0963227 -0.3000784 0.45332572 -0.23839593 -0.0428661 -0.37515023 0.5874068
263 -0.38345066 0.29382354 -0.34769508 -0.32978547 0.3968177 -0.049632862 0.22644982 -0.6131908 0.19557707 -0.11610912 -0.006751912 -0.13254453 -0.025262803 -0.10959874 0.56185853 0.015841933 0.10123371 -0.12466793 0.24827887 0.35271174 -0.08682857 -0.19150482 -0.14210884 0.020776484 0.4261515 -0.51532865 -0.14510185 0.26928872 0.5997037 0.39161378 0.118395776 0.12235653 -0.0012575075 0.20063472 0.62069964 -0.026155464 -0.7673579 0.09478068 -0.14434336 0.372043 -0.13642706 0.21629438 0.036456257 -0.23994555 -0.60578233 -0.73795646 0.9380629 -0.03218485 -0.4014122 0.29695892 0.220702 -0.061491434 0.305102 0.24584909 -0.17298172 0.46114096 -0.109236285 -0.04676641 0.04811045 0.23858547 0.07139434 -0.40374005 0.09178162 -0.68497926
223 -0.119015485 -0.21289803 -0.048129637 0.29715982 0.2916742 -0.66863906 -0.3359932 0.0020339978 -0.0032998077 0.27436063 0.11625889 0.59992915 0.07716604 -0.639915 0.7937729 -0.102431335 0.024046265 0.64139384 0.21348722 -0.17477581 0.16631159 0.20553742 0.1425349 0.20547819 0.530643 0.27096117 -0.5602451 0.2906889 0.68616676 -0.51193994 0.18094608 0.16067795 0.1415928 -0.5385231 0.69683677 0.1153084 0.26641923 0.41272324 0.10365387 -0.16025119 0.23252632 -0.12057533 -1.1977106 -0.8392074 -0.38498503 0.21720354 0.08750588 0.33531624 -0.07220381 0.45797318 -0.32619572 0.4173872 0.48133805 0.09124222 0.30816987 0.37719926 -0.022691783 0.059654083 0.1011243 0.779998 -0.4461235 -0.18609549 0.045253485 -0.27587688
