468 64
462 0.02951635 -0.46735173 0.59409744 -0.086008 -0.49443632 -0.5984621 0.038271952 -0.17796604 -0.08617852 -0.13071387 0.25579172 -0.13417712 0.15576507 -0.11480096 -0.10423484 0.17415522 -0.029730853 0.13244493 -0.41886717 -0.080675334 0.6246318 -0.0036007634 -0.045930024 -0.20235746 0.17503476 0.35440093 -0.36471653 -0.3438049 -0.04946929 -0.19888945 -0.23004258 0.060780395 0.063024856 -0.1530955 0.020803226 0.35756606 0.09419798 -0.20045242 -0.2515354 -0.022724349 -0.15039602 -0.033859927 0.09447552 -0.14580135 0.11721398 -0.51849663 -0.10425188 -0.36544716 0.24646269 0.23508415 -0.14151663 -0.29102838 -0.30511454 -0.00554234 0.17436707 0.20482801 0.038438443 -0.24418876 -0.25450578 0.30391783 -0.10434383 -0.14666739 -0.03163127 -0.04307046
467 0.57704073 -0.058686037 0.37002343 -0.43778092 0.14823966 -0.115592554 -0.35443097 0.5479075 0.6283587 0.23092666 -0.29472613 0.017007012 0.3601896 0.6980113 -0.122366406 -0.3680706 0.088694036 0.33303356 -0.021310847 0.40110582 0.19735749 -0.076621875 -0.32415786 -0.26005352 -0.490062 -0.18689343 -0.30841863 -0.30932832 0.43383926 0.13382159 -0.1968361 0.52438617 -0.3015463 0.29170418 0.17462367 0.112372376 -0.08819372 -0.025636375 -0.58230656 0.480429 0.16886501 -0.26389167 0.24571554 0.25565127 -0.17394368 -0.25435328 -0.30189115 -0.3139773 -0.054579258 0.7066696 0.32886994 0.086737774 -0.13242353 0.10278758 -0.3060403 0.1106445 0.39019582 0.18887067 0.14099029 -0.41732782 0.26214185 -0.05550994 0.075576946 -0.27181408
465 0.3544967 0.17122614 0.5227786 -0.3085385 0.6650883 0.04983022 -0.33895212 -0.18829481 0.25519046 0.186133 0.6361598 -0.19003539 0.4723597 0.99302477 -0.29357243 0.05379713 -0.5478692 -0.31986818 0.020437831 0.06552216 -0.18473627 0.10212727 0.0740551 -0.5131475 -0.4594372 -0.024770338 -0.17651908 -0.17414105 0.5388441 0.07695928 0.13909827 -0.016593916 0.14599456 0.111302786 -0.33602205 0.275654 -0.08978693 -0.23919986 -0.3362912 0.062701724 0.378483 0.1690214 0.17238985 -0.08508291 0.015354737 0.17261396 -0.12258348 -0.7100639 0.03294755 0.17467734 0.17764612 -0.2712052 -1.1113034 -0.011901175 0.05058453 -0.35909113 0.3705453 -0.5642505 -0.100793734 -0.57713294 -0.07988952 0.45708284 -0.49850658 -0.009911819
247 0.35853308 -0.5474454 0.03886629 -0.58440655 0.31033227 0.32080066 -0.5511586 -0.72239274 -0.3130878 0.07345023 0.11084422 -0.3004905 0.3267747 0.9100789 -0.07502722 0.25104386 -0.27348346 0.0028147 -0.34132102 0.08493829 0.3893716 0.029206898 0.04935186 -0.267443 0.28113964 -0.28959444 -0.7501687 -0.77332884 0.6842994 0.18189536 -0.28110266 0.08782702 0.22089487 -0.25411063 0.8835942 -0.00045408885 -0.50988233 -0.0042720223 0.56403536 -0.0042515285 0.07416466 -0.36797762 -0.4573277 -0.78813875 0.10703035 -0.19222923 0.20785229 -0.15511881 -0.092258796 0.23245674 -0.27303734 0.31061125 -0.21137635 -0.22798403 0.007609003 0.042334106 0.51719344 0.64735997 0.37717557 -0.10743591 -0.59278536 -0.5252775 -0.7721979 -0.5174541
436 0.05114028 -0.5829159 0.6178773 -0.4488409 -0.39766124 -0.17903537 -0.006342891 0.23483574 -0.0005271254 -0.3168023 -0.022379387 0.2969735 0.08641914 -0.20977648 0.17455775 0.29688102 -0.40980795 -0.023430517 -0.040576108 0.13558689 0.800761 -0.5106008 0.5104047 -0.41626236 -0.2206953 -0.13090062 -0.3160374 -0.6210701 0.08768823 -0.040767867 -0.40856856 0.01405795 0.25409457 -0.070725076 -0.055702385 -0.13030207 0.6605731 0.048175845 0.001791114 0.09596237 0.37113264 -0.02557673 0.6809876 -0.1264446 0.32380733 -0.14788349 0.1319251 -0.30788442 0.105653636 -0.30165502 -0.28197983 0.16132687 -0.7101807 0.47623724 0.20320553 0.3516056 -0.41102582 0.3763298 0.35758835 0.31813008 -0.19326445 -0.06585005 0.103856884 0.0014425316
428 1.1734014 -0.25693578 0.5685496 -0.113239124 0.47414032 -0.09167477 -0.7755297 0.10002445 0.6052322 -0.9440371 -0.13676251 0.11845407 1.2166251 -0.13714166 0.6399853 0.41581708 0.29456726 -0.38730526 -0.18562885 -0.3424157 0.08528205 -0.24517626 -0.52624935 0.48546025 -0.3427379 0.05144728 -0.25053963 -1.1724912 0.37037307 -0.16829109 0.023869285 0.5962633 -0.2878561 -0.08106001 -0.07218486 0.0053915074 -0.24077754 0.3459673 -0.34524328 -0.1650378 0.7863584 0.09820634 0.9352238 -0.5335293 0.26084262 -0.6141773 -0.00835828 0.14871576 0.5910641 -0.8674981 -0.0069951136 -0.655027 -0.59296024 -0.30311862 -0.19111507 -0.28311434 -0.7073721 0.872138 -0.6192772 0.19885176 -0.46974117 0.36373103 -0.8728864 -0.98141736
216 1.0360273 -1.353927 0.58215624 -0.10808836 -0.22161248 -0.24807364 -0.22837067 0.27275628 -0.16903825 0.31471705 0.76510406 0.19672096 0.12855086 0.12560064 -0.869502 0.8115094 -0.29065362 0.14076982 -0.49458677 -0.443964 0.7295064 0.27442575 -0.21917401 -0.7096801 -0.28998482 0.87650335 -0.3476192 -0.39763778 -0.57970023 0.112585485 -0.16836096 -0.332633 0.8617503 0.5587686 0.6939436 -0.21695788 -0.35419813 -0.5593504 -0.38703796 0.13655065 -0.6670556 -0.43355682 0.7291878 0.35081348 -0.44445756 -0.095269464 0.1598051 -0.36600956 -0.0015847151 -0.35958192 0.286474 -0.13296801 -0.055933345 -0.2902485 -0.48539704 -0.43946978 -0.30585814 0.36135316 -0.3704968 0.32039508 0.5223194 0.11425762 -0.32402414 -0.0266393
431 1.1068684 -0.112004034 0.4811894 -0.6279704 0.1837341 -0.16932636 -0.32772073 -0.5580166 0.03961442 -0.3631932 -0.22115637 0.45425048 0.5810786 -0.53280497 0.24652955 -0.13574721 0.26626307 -0.49133694 0.4009147 -0.22485124 0.028535005 0.012494433 -0.17531888 -0.15850668 -0.33704278 -0.26479444 -0.13438767 -0.9232996 0.25953475 0.3645781 -0.15675572 0.116094045 -0.3175159 0.36672303 0.09563209 -0.22801515 0.6703217 0.06914753 -0.03783473 0.5082949 0.77699006 -0.1576206 1.0825126 -0.2874791 0.84352493 -0.73331267 0.117979035 -0.24465743 0.52272195 -0.38702765 -0.34881103 -0.38164183 -0.51861954 -0.18754002 0.01802868 0.026628131 -0.62854165 0.4454768 -0.29604977 0.27637228 0.19813542 -0.3621657 -0.6048032 -0.48780096
421 0.75987184 -0.57491285 0.5325412 -0.72869086 -0.102919556 0.15348034 -0.09719116 -0.5040137 -0.357595 0.14900361 0.07864885 0.25529718 0.3787642 -0.10145005 0.34497783 -0.046077747 -0.12811983 -1.0683247 0.6318527 -0.55368537 0.50713265 0.3874778 -0.29632798 0.48826227 0.06529236 -0.7701117 -0.0455255 -0.88790417 0.34416658 0.37453073 0.005757517 0.375806 -0.8893402 0.5825632 0.45836204 -0.11413002 0.7241569 0.8493863 -0.54978174 0.43386146 1.2791405 0.2035666 1.0352862 -0.103187494 1.1153548 -1.0426705 0.35679293 -1.3264503 0.63019013 -0.1382056 -0.34737578 -0.07701276 -0.103071 -0.293282 -0.18745236 0.23371191 -0.5422786 0.32941854 -0.57434684 0.3034133 0.5564064 0.22600535 -1.4063243 -0.37985033
460 0.74728775 -0.87889576 0.023212869 -0.12541926 0.01922291 -0.60873604 -0.34248132 -0.5139261 -0.9091676 0.2857504 -0.16330363 0.4090882 0.053490534 -0.007848348 0.43785188 -0.12577823 -0.6089011 0.081517234 -0.6257448 -0.05880937 0.77077556 -0.036443572 -0.5665844 -0.9177595 -0.45763507 0.25361365 -0.87454003 -0.518087 -0.25731963 -0.72335804 0.13441302 -0.059166674 -0.02740652 0.41446993 -0.062937014 0.1630821 0.2843253 -0.2548347 -0.70950156 -0.052218203 0.01835693 0.5396325 -0.19152422 -0.23862888 -0.41141015 -0.58210355 0.063176595 -0.114072986 0.44790956 0.44025967 -0.060629465 0.21242249 -0.7437934 0.194502 0.16012377 0.06739849 0.03527862 -0.57437027 -0.73077554 1.1534257 -0.13644224 -0.6291883 0.3690633 -0.12023977
234 0.92339283 -0.8595624 -0.041276578 -0.92856723 0.5951844 -0.18791758 -0.17534202 -0.45233405 0.02888671 0.062160403 -0.24885821 -0.77976733 0.13195848 0.7073509 0.11878589 0.094883025 -0.17406562 -0.8212786 -0.44770667 0.44533122 0.5965359 0.25235793 -0.27041256 -0.33419117 0.5936782 -0.4338705 -0.5339778 -0.47315556 0.09124551 0.7140779 -0.7835809 0.83422446 0.3828078 -0.26743108 0.94578475 -0.31419 -0.37420684 -0.30771625 0.26530814 -0.4101328 -0.17556123 -0.25575742 -0.49054128 -1.1620376 0.20453425 -0.060742855 0.40129852 -0.10024475 -0.16350818 -0.2923852 0.5519744 1.0212116 -0.23995623 -0.8007101 0.08221127 0.20400167 0.88084245 -0.19343889 0.25467208 -0.19225214 -0.23770352 -0.5256567 -0.8442268 -0.68430644
454 1.0577573 -0.67765313 0.022883862 -0.57435197 -0.24003553 -0.12628381 -0.49412766 0.67706233 0.4962981 0.08443535 -0.0348983 -0.017974418 0.9543234 0.36541831 -1.2839693 -0.71581596 0.22328767 0.5973939 -0.5045983 0.26126862 0.19051823 -0.080246165 -0.3795121 0.13475709 -0.5058875 -0.82544965 -0.66640955 0.35111582 0.62034476 -0.27210155 -0.78058153 0.5853592 -0.2690088 0.49138305 -0.1630341 0.055367224 0.1530304 0.65345204 -0.50095296 0.7380468 -0.26728916 -0.37919614 0.31404114 -0.6102162 -0.16518341 0.41964856 -0.7438677 -0.082619555 0.34717765 0.41658366 0.6592254 0.46547022 -0.3046951 0.011474899 -0.13715547 -0.51554054 -0.2714551 0.058853816 0.24353193 -0.14532556 -0.14221558 0.005445185 -0.34192792 0.40994564
466 0.48585668 0.45859066 0.7270675 -0.12649275 -0.044036053 -0.08778544 -0.5390987 1.1129291 0.630054 0.01540923 0.4768321 -0.13892633 0.21918224 0.39971817 -0.30334893 -0.40165195 -0.5186052 0.22731137 -0.13557097 0.038313754 -0.2764189 -0.04416409 -0.23271407 -0.7020237 -0.8167017 -0.63839597 -0.15762533 -0.3399707 0.037358172 -0.20386909 0.16091861 0.1483396 -0.4295488 0.39248708 0.5288064 0.16040199 -0.13400939 0.014664185 0.28453827 -0.00037576995 0.4584005 0.16119944 0.107080705 -0.23973788 -0.358738 -0.1653452 -0.4293462 -0.34307677 0.12330851 0.21496668 0.2662537 0.24609552 -0.51144916 -0.34014457 0.49324822 -0.1632781 0.33996403 -0.7001235 0.1861189 -0.40932536 -0.05168318 0.21141222 -0.3724179 -0.2833531
434 0.46198958 -0.58542556 0.70872647 -0.42896312 -0.043443266 0.150823 -0.46761358 -0.13969128 0.02536935 -0.49018365 -0.17131813 0.8083793 -0.23852293 -0.5262238 -0.014026915 0.29742327 -0.08584994 -0.18421508 0.45523378 -0.06696243 0.27167264 -0.101455346 0.60404664 -0.19272198 -0.4828865 0.14410453 -0.35926682 -0.63235366 0.35813114 0.72220343 0.07581848 0.5652147 0.3351964 -0.1596211 0.290382 -0.16375536 0.35809076 0.17619686 -0.31587064 0.4976901 0.60869735 -0.054363493 1.1971617 -0.50663006 0.74259675 -0.6603402 0.049358126 0.025979273 0.26898655 -0.29808792 -0.26214597 -0.49045298 -0.55243146 -0.098469414 0.46534574 -0.26965517 -0.48254508 0.45502698 -0.15087482 -0.09982999 -0.09548396 -0.5810794 0.12342273 -0.07095557
404 -0.22269006 -0.15638746 0.7656712 -0.22549252 -0.27650282 0.16218646 -0.32063913 0.1010116 0.04031485 -0.33144557 -0.6528067 0.87739575 0.42136276 -0.046011493 -0.2982207 -0.37796715 -1.1950113 -0.34095857 0.2806764 0.1493149 0.96268815 0.2458927 0.86727023 -0.2501184 -0.04970106 0.5250693 -0.39448923 -0.101451315 0.08715511 -0.0045680422 -0.61282134 0.21249726 0.45523813 0.2535447 0.5271295 0.1191203 0.8842679 -0.3335806 -0.40233237 -0.19818431 -0.046165295 0.24045509 0.45207202 -0.35710597 0.12720917 -0.26633796 0.4565144 -0.041399542 0.55441296 0.14381129 -0.47786137 0.31140158 -1.1533036 0.25773987 0.15782623 1.0758759 -1.128965 0.57053506 0.6590599 0.07317219 -0.23887905 0.28577098 -0.2850384 -0.350731
240 0.4782187 0.29926634 0.84340453 -0.70448476 -0.6015524 -0.7354339 0.104104266 -0.73591226 -0.26462293 -0.28632718 0.7139357 0.23698995 -0.70066166 -0.44375882 -0.18838945 -0.062021155 -0.3251644 0.92267287 -0.13007176 -0.49839824 0.62871534 0.09963982 -0.031142391 -0.025676392 0.111173436 0.5891431 -0.677492 -0.13581587 0.3078942 -0.17092374 -0.06483213 0.38192195 0.2020371 0.472804 0.037688784 0.66528237 -0.25134012 -0.00085338135 -0.2388817 0.12902986 -0.0019264258 -0.52859205 0.88616955 0.08265522 0.16823757 -0.35284653 0.40701017 -0.028678758 -0.11049841 -0.23876241 -0.08654115 0.9757891 -0.60825485 0.3032123 -0.08355193 0.6213484 0.4968396 -0.41223967 -0.64750063 0.5089846 -0.56616116 0.14007653 -0.3687499 -0.3456963
338 1.041954 -0.21214828 0.73769045 -1.1574755 0.08828169 -1.2160043 0.4863767 0.700705 0.6240111 -0.65364933 0.10315194 1.8880569 1.0457301 0.72471243 0.19798474 -0.283545 -0.471771 0.7245421 -0.57391715 -1.479871 0.43945304 0.24340476 -0.15549533 -0.90180165 1.204731 -0.51114124 0.28950197 -0.5212871 0.7302969 0.8866501 -0.63836575 1.2808509 -0.062463287 1.0986134 0.68162435 0.3824458 0.08070692 0.29556587 -0.029069709 -1.3052485 0.020633107 0.5662489 0.2142997 0.23329997 -0.87477905 -0.37124488 0.9085243 -0.3949523 1.1182851 -0.5744735 1.9656086 1.220803 -0.52737147 -1.3370781 0.61250645 -0.7506054 -0.8152918 0.8534648 -0.65115327 -1.0431043 -0.7841028 -0.057623345 -1.6729767 -0.95527524
417 0.73862207 0.6769987 0.90292716 -0.36268947 0.14778078 -0.24343961 -0.8246499 0.7336755 0.3311991 -0.6232708 0.31005025 0.10793022 -0.020348275 0.6514908 -0.34158853 -0.7398783 -0.51139665 0.56296825 -0.023734827 -0.3027121 0.16124035 -0.29991084 -0.68757194 -0.5104913 -1.182405 -0.9478293 0.12610058 -0.3366011 0.3324398 -0.72926795 0.25199842 0.34846982 -0.24515261 0.18932949 0.39184108 0.09500858 -0.13945459 -0.046174064 0.096318364 0.03683245 0.35803393 0.115708 -0.45787227 -0.11523336 -0.66662675 -0.27774563 -0.26872858 -0.63129413 -0.09113589 0.1260336 0.9267847 0.19668968 -0.5944732 -0.38450825 0.8272818 -0.1313784 -0.4264278 -0.76696414 -0.049560055 -0.9215779 -0.024424892 -0.21467046 -0.5835508 -0.20852391
432 0.2687578 -0.2981528 0.6140526 -0.7332116 -0.62021357 -0.46099228 0.0038790808 0.3866698 -0.19822545 0.0061906627 -0.13945743 0.44946277 0.19362783 -0.10606686 -0.014595781 1.1392838 -0.546759 0.12511584 -0.24211477 0.3766366 0.9491746 -0.47357598 0.27287883 0.2611136 0.047370333 0.016940724 -0.7415117 -0.89426374 0.10342533 -0.011570831 0.24301709 0.62567 0.12662621 0.33300892 -0.52793586 0.06865072 1.0095694 -0.37518755 -0.17145002 -0.5189616 0.6349459 0.03780279 0.75799084 -0.07649325 -0.1135995 0.33358815 -0.08397014 -0.65320575 0.652301 -0.3733231 -0.7998296 0.45069003 -0.5328764 -0.4775786 0.91821414 0.70149523 -0.24746595 0.86079204 0.8014406 -0.1079252 -0.070170715 0.09086332 -0.063208915 -0.18475634
214 1.3003973 -1.3573523 0.9171915 -0.080791555 -0.025534902 -0.18495499 -0.4364868 -0.017400993 0.23968074 0.13750604 0.8232652 0.18504876 -0.05006229 0.32287723 -0.77754015 0.74012995 -0.25451687 0.651683 -0.4175527 0.09479475 0.9411267 0.24353881 -0.7758487 -0.9930494 0.13756965 1.0735558 -0.4501849 -0.1610157 -0.66651696 -0.67459744 0.24755907 -0.6403972 0.18342216 0.58097124 0.75275815 -0.20342092 -0.47710162 -0.38987663 -0.28767726 -0.3294656 -0.3016076 -0.3490333 1.0354118 -0.023406912 -0.8595417 0.014919813 0.9211108 -0.72263634 -0.3557086 -0.8304139 1.0052669 -0.02377044 -0.37082577 -0.5288987 -0.59413385 -0.5060747 -0.40856805 0.8334181 -0.3146015 0.30624175 0.6495532 0.08101693 -0.30945215 0.1428213
317 -0.22115886 -0.35978794 0.7751406 0.2022823 0.13191952 -1.3440992 -0.62281525 -0.5091552 0.5276692 -0.6082588 0.40958607 -0.10260976 0.15802713 -0.3469032 -0.048049808 0.22353606 -0.37821358 0.29493192 -0.6604623 0.47313088 0.6263792 0.008757452 -0.13706909 -0.5661748 0.994792 -0.25897723 -0.17310594 -0.5964327 -0.26965553 -0.43199924 0.17923713 0.4539912 0.02515675 -0.1216281 0.79065096 0.4186486 0.20139237 -0.2525786 -0.870492 -0.48683903 -0.42140076 0.13704056 0.03603047 0.117757514 0.10688254 -0.033966374 0.43794718 -0.39595193 0.9824938 0.3185476 0.003816011 -0.07525992 -0.40742135 0.26219553 -0.0629263 0.0024803577 0.24819206 -0.09937169 -0.29421872 0.15039526 -0.60445887 0.061805394 0.14690414 0.3701493
405 -0.18818648 -0.9870359 1.3943343 -0.542714 0.15290056 0.07884331 0.14032052 0.055143114 0.1675278 -0.35440856 -0.63942224 -0.012566248 0.71205217 -0.79461145 -0.73381054 0.3732082 -0.2859351 0.2915152 -0.20218205 0.40114123 1.4160327 -0.22008602 0.23212156 -0.5887542 -0.35955438 -0.1950651 -0.7256191 -0.91358143 -0.1331284 0.15041208 0.11023157 0.19737794 0.29650027 0.30894387 -0.80263394 0.19065501 0.46845213 0.53842723 0.6035345 0.07146869 0.5388536 -0.35404274 0.09403564 0.2414032 0.55377007 0.051138543 0.6688685 0.20100155 -0.077865966 -0.34471974 -0.30291885 0.06602098 -0.64530236 0.17398456 0.53121674 0.6344196 -0.48726475 -0.21584272 0.60040164 0.105386965 -0.21454225 -0.49551466 -0.29774994 0.0033834635
109 0.8476121 -0.30853465 0.38770333 -1.140354 -0.1690398 -1.182801 0.34187385 0.72902924 0.26967135 -0.5571424 -0.05211252 1.603542 0.78299195 0.60092115 0.121228985 -0.19984289 -0.37628385 0.4011918 -0.5097446 -1.3611633 0.6085371 0.22602876 -0.24638754 -0.8904859 1.2344671 -0.548248 0.074969746 -0.2962068 0.7498947 0.587115 -0.67872137 1.4797453 0.035168726 0.963235 0.75769424 0.6920786 0.06250755 0.3214113 0.14513867 -0.912152 0.079699785 0.5477163 0.45188457 0.74320793 -0.871493 -0.1332198 0.61628443 -0.6565214 0.58833855 -0.8437933 1.7105985 0.97984374 -0.4696057 -1.2491766 0.403741 -0.69393915 -0.7917297 0.41310596 -0.70240015 -1.3056879 -0.5360026 -0.32114664 -1.3284632 -0.96908396
403 -0.15308578 -0.37458074 0.6298506 -0.14929378 -0.4294147 -0.39408597 -0.15290403 -0.2475387 -0.6013285 0.10136616 0.7201182 0.17184089 -0.27369508 0.05113643 0.15142229 -0.14233115 0.53415346 0.64114106 -0.38673988 0.06518408 0.5684569 -0.186292 0.08872044 -0.660572 0.6878719 0.4290119 -0.26095593 -0.28221986 -0.90969837 -0.3228891 -0.16276465 0.6676728 -0.26909626 0.23471057 -0.010479358 0.372635 0.5973041 0.04851252 -0.5321735 0.3849459 0.45413664 -0.26363656 -0.045164626 0.07265742 0.29869252 -1.0319564 0.14311503 -0.34741578 0.2638072 -0.06229888 -0.047147803 0.030660203 -0.6253228 -0.8783465 0.21312673 -0.4495178 -0.17410533 -0.34753174 0.050727792 0.087239005 -0.16138513 0.14290781 -0.2284681 -0.7566754
445 0.7308549 0.08018149 0.37970194 0.21960337 0.45828447 -0.23029217 0.34221 0.61562973 0.34143776 0.3572536 0.0650001 0.2634343 0.2165289 0.99334025 0.09315495 -0.4664704 0.074901275 0.74245644 0.33422738 0.7680928 0.5619282 0.37183824 -0.9191432 -0.22437604 -0.5637559 -0.46143952 -0.478017 -0.40315753 0.5330731 0.029589202 -0.07587748 0.40616685 -0.4025672 0.39412394 -0.014031735 0.47051573 -0.22220963 -0.01439606 -0.17077428 0.25102714 0.12210211 -0.17401937 0.79101837 0.43700567 0.21991123 -0.5360524 -0.27516952 -0.30510455 -0.11693598 0.52617 0.698177 0.9214225 -0.5138582 -0.29644215 -0.005985195 0.23395942 -0.3663425 0.39353102 0.22448803 -0.43764043 0.31722838 -0.21833228 0.06311704 -0.31512192
242 0.84341496 -0.38801426 0.5129661 -0.13581812 -0.9766354 -0.09168617 -0.07206733 -0.24679555 0.08463824 0.061408367 0.27073252 0.10428001 0.34396428 -0.02056449 -0.14931166 0.545686 -0.43350056 0.21100903 -0.58323616 -0.7842377 0.82799023 -0.0959556 0.16884737 -0.11531874 -0.18497658 0.2511779 -0.2305816 -0.24206378 -0.52434546 0.1334287 -0.22983348 -0.23453142 0.50960475 -0.0492803 0.2405353 0.026773429 0.057214327 -0.39137533 -0.36129236 -0.018898608 -0.41065055 -0.6747585 0.3102917 0.44938025 0.05777619 -0.43909732 0.04767089 -0.12731439 0.15186466 -0.18079223 -0.011800864 -0.03839748 -0.33964935 -0.20485397 -0.7409729 -0.20896712 0.2313403 -0.26950252 -0.45499405 0.17089741 0.33550772 -0.14423038 -0.30485153 0.17697738
456 0.4725923 0.50901437 0.03237563 -0.32920456 0.76617354 0.1804579 -0.1256978 -0.20608255 0.51210624 -0.2727622 0.60171676 -0.2642026 0.33589086 1.0304027 -0.99786776 0.22111161 -0.17650893 -0.9421678 -0.7258866 -0.016818672 0.19336613 0.5413366 0.4054878 -0.89631265 -0.8054622 0.08301385 -0.29021674 0.17346063 0.11204346 0.41549122 -0.38292313 0.047288433 -0.2236375 -0.40099576 -0.27291292 0.04482175 0.16919838 0.26342717 -0.00049396243 0.762258 0.2991119 0.50059223 0.81193084 0.7437073 -0.29177794 0.27151635 0.39072067 -1.2326045 0.024534648 0.19998142 0.18955542 -0.43697387 -0.8063044 -0.26891214 0.2467996 0.1883086 0.21447325 -0.31098446 -0.41081566 -0.45109278 -0.60302603 0.26666957 -0.7938925 -0.08406754
151 1.085071 -0.2586481 0.55066234 -1.2006007 0.008012376 -1.2733185 0.35202062 0.7709168 0.51062864 -0.7240246 0.1730702 1.6440867 0.85816866 0.6682111 0.07990491 -0.1880915 -0.23412676 0.52628964 -0.39950374 -1.4371415 0.53806865 0.29715297 -0.089502506 -0.96772206 1.3025981 -0.55075014 0.20016997 -0.19990724 0.73603904 0.7648032 -0.78000844 1.3604184 0.13407177 1.1040949 0.66619414 0.49107406 0.10373641 0.40985984 0.05474907 -1.070786 0.033999287 0.56965333 0.3105888 0.40534416 -0.82554215 -0.22939879 0.7863071 -0.43585768 0.8906944 -0.67231774 1.844511 1.0997432 -0.5926721 -1.139765 0.50182706 -0.5809738 -0.91137546 0.6143752 -0.6160346 -1.3113371 -0.49460834 -0.32860544 -1.4314095 -1.0416129
211 1.57752 -1.2926314 1.1270268 -0.14877988 0.051251955 -0.2906812 -0.3431169 -0.08337359 0.26779503 -0.049229182 0.70990705 -0.27922562 -0.049588773 0.19691713 -0.61286455 0.7118119 -0.10883589 0.8075252 -0.34145942 0.40748158 0.7965387 0.3926176 -0.82365006 -1.1067762 0.22478452 0.9815934 -0.3647102 -0.1845079 -0.51984376 -0.7903593 0.32066458 -0.51615787 -0.042354707 0.71595407 0.8832994 -0.16921133 -0.5249259 -0.3160678 -0.4694227 -0.27004352 -0.4180981 -0.48030066 1.0079311 -0.24485423 -1.1250314 -0.058220003 1.0312219 -0.8433662 -0.3896 -0.9889786 1.4152367 -0.11884202 -0.4388905 -0.4536409 -0.72881067 -0.5990104 -0.65607935 0.92981553 -0.24769235 0.55821943 0.225638 0.09921399 -0.28619552 0.2899563
441 0.43277252 -0.25181797 0.28829092 -0.50318825 0.6613048 -0.31931698 -0.48689547 1.1425039 0.39809066 -0.24907017 -0.19127983 0.5594288 0.7637468 0.6122401 0.36146897 -0.21595421 -0.013212946 0.4191632 0.4165004 -0.086588494 -0.041930594 0.2540969 0.07250837 -0.73090327 -0.15256956 -0.16388133 -0.77989036 -0.34793308 0.6620574 0.051950574 -0.021660434 0.6625388 -0.3077348 0.31781024 0.2757639 0.20265701 -0.030139152 -0.039891567 -0.7553986 0.3946554 -0.25077814 -0.35078195 -0.03215082 0.39130372 0.09154905 -0.6209026 -0.27236417 -0.18513295 -0.14788558 0.6879443 0.07959888 0.12169961 0.23127659 -0.013796945 0.07518109 0.31845668 0.67736983 0.36482728 -0.03930342 -0.89121634 0.15888454 0.17338745 -0.051372245 0.4716213
225 0.24025515 -0.7284799 -0.2430918 -0.6442904 0.48612866 0.3422562 -0.6579085 -0.9261185 -0.16088848 -0.44203287 -0.057006758 0.01639248 0.3405075 1.1361395 -0.15048186 0.40876576 -0.48703614 -0.08809338 -0.21736766 -0.3152364 0.50920516 0.31295457 0.11797991 -0.6841368 0.59213734 -0.6578164 -0.7600535 -0.7592264 0.98070186 0.13115902 -0.62828344 0.005577432 0.10464506 0.013436076 1.058913 0.49885777 -0.15706028 -0.2635613 0.79394454 -0.54090333 0.36890352 -0.34205732 -0.34943652 -0.48964855 -0.078251876 -0.4962678 -0.10300622 0.02841518 0.028214552 0.37429354 -0.43153095 0.2758572 0.09123328 -0.20541982 -0.117889404 -0.15466285 0.42611027 0.5632895 -0.011604126 -0.5252774 -0.7313801 -0.58244574 -0.26493204 -0.527874
415 -0.4056255 -0.040234737 -0.038284816 -0.06524652 -0.2689067 -0.6098731 -0.081529 -0.20545523 0.05047356 -0.1806838 -0.2456423 -0.30642483 0.36797947 -0.5187622 0.15838559 0.826266 -0.4335713 0.0659809 -0.7945958 0.18953685 0.9777929 -0.11740526 0.027670423 -0.37529802 -0.06402008 0.74808717 0.03429603 -0.5396776 -0.22209485 0.0032622453 -0.30334187 0.69185305 0.2006353 0.53481483 0.07703458 0.2888106 -0.4008233 -0.67610186 -0.4315887 0.303627 -0.16444913 0.29632193 0.19568889 -0.4964357 0.072290085 -0.657058 -0.1602553 -0.6865205 0.5317271 0.12398931 -0.12120045 0.55606514 -0.4249813 -0.02636171 0.0934347 -0.28336677 -0.027352495 -0.111476466 -0.47136328 0.2233783 -0.33754972 -0.11866478 -0.041547116 -0.08231334
337 0.64966744 -0.16424 0.2230914 -0.9816285 0.8486518 0.20826548 0.052353337 0.9664239 0.09618899 -0.22662137 0.5839122 -0.1362183 1.115656 0.59282255 -1.617575 0.4045374 0.08600196 -0.19810428 0.61704934 0.56195444 1.0814252 -1.0353793 -0.1585343 0.6207726 -0.60717577 -0.18012431 -0.70501673 -0.46561542 0.49777395 -0.18016505 -0.054754984 1.0923406 -0.95761275 -0.2160256 -0.2124018 -0.22380929 -0.10380767 -0.12254012 -1.0133079 0.008627216 0.55193615 -0.25253516 -0.69086224 0.26439068 0.47088984 -0.57645416 -0.2653684 0.39670625 0.057969257 1.0471603 1.0256858 0.644813 -0.43905464 -0.648378 -0.2771427 0.49257413 0.41053033 0.12927356 -0.05335254 -0.23225391 0.5644989 0.08911142 0.4487925 0.029019898
370 -0.14504401 -0.27222914 0.5448521 -0.66778284 -0.49724975 -0.33123416 0.05382748 0.3421308 -0.31200948 -0.9741747 0.2248816 0.15273315 0.10764049 -0.09432635 -0.22920804 0.08955567 -0.635948 0.5589448 -0.08765689 0.08801678 0.7085679 0.6930942 0.064612724 -0.56276745 0.9019473 -0.012036358 -0.6828455 -0.19672672 -0.24237032 -0.05070317 -0.042451516 0.119179 -0.053514566 -0.014582443 -0.116155304 0.14126831 0.09458914 -0.29569426 -0.34367865 -0.43130153 -0.5816465 0.039640874 -0.047299903 -0.23328607 0.38789725 -0.66538143 -0.36674923 -0.80852026 0.55791193 0.14502198 -0.39623418 -0.2959505 -0.07716374 0.19404016 -0.2887923 -0.3196944 -0.09088753 -0.34216267 -0.29223913 0.22267722 -0.3424641 -0.061552826 -0.16495082 -0.06880911
224 0.71158135 -0.49841523 0.049830634 -0.54942876 -0.0320459 0.24396127 -0.99639636 -0.92610675 -0.3128689 -0.04448323 -0.04634827 -0.52762544 0.5794889 1.0040331 0.20514385 0.2657812 -0.6441312 0.010369815 0.008151887 0.40428028 0.60227674 -0.18058136 -0.021926867 0.021238111 0.5796349 -0.32303825 -1.3332189 -0.299765 0.46965533 0.062017146 -0.4885057 0.108984016 0.18292652 -0.13249917 0.72203666 -0.040477466 -0.77776986 0.43455425 0.2543335 -0.2351329 0.14119789 -0.031488344 -0.37002164 -0.7134305 0.22389089 0.34207335 0.1421295 -0.17918736 -0.2810934 0.29885775 -0.32172474 0.025480209 -0.13077518 -0.7880903 0.34176153 0.6489624 0.49560827 0.27267206 0.37137184 -0.37372604 0.091084085 -1.2160814 -0.92438954 -0.5530798
402 -0.043806057 -0.44396454 0.67529076 0.19866623 0.070432566 -0.5847006 -0.39387307 -0.2536456 0.28922006 -0.14518145 0.33540958 -0.031630866 0.23345663 -0.39803728 0.26194996 0.4752417 -0.5975417 -0.034599997 -0.5512133 -0.31064555 0.71184295 0.20625734 -0.20499323 -0.21297817 0.24727155 0.096148945 -0.08273651 -0.99361974 0.033912726 -0.2829899 -0.598607 0.54593045 0.2754725 0.21595895 -0.1542108 0.058991056 0.6658974 0.20951231 -0.22553444 -0.07647409 -0.7626717 0.06126044 -0.12322461 -0.47730067 0.34885415 -0.33688357 -0.13253702 -0.87568814 -0.49537018 0.28363517 -0.14006351 0.37042856 0.0057151625 -0.24666709 0.12612015 -0.26902953 -0.046513975 -0.81706285 -0.57229143 0.6162614 0.12542413 0.31120023 0.47716877 -0.74156517
444 0.7232616 0.18475665 0.50535816 -0.36638442 0.49597746 -0.23229551 -0.5855985 0.5018922 0.34856513 0.37117413 -0.5092395 0.26778358 0.6214082 0.5447272 -0.46852323 -0.41639993 0.09190829 0.8416669 0.23591483 0.35730094 0.12884797 -0.10183838 -0.11204342 -0.3483077 -0.2512859 -0.038652092 0.013653787 -0.49250123 0.4236077 -0.34021485 -0.37977132 -0.0029048985 -0.22389296 -0.105842225 -0.12272215 -0.1807176 -0.5450026 -0.14016342 -1.2058698 0.9954159 0.80276436 -0.5994852 -0.34529027 0.13419017 -0.30382663 -0.23087162 -0.22687566 -0.9946302 -0.45769036 0.2317472 0.28072342 0.33139426 0.12640503 -0.46782216 -0.33535773 0.32036906 0.038108576 -0.018371578 0.18922554 -0.3859718 0.044375587 -0.80306053 -0.013250465 -0.21775137
443 0.7455137 -0.12771854 0.16156864 -0.69601065 0.5746817 0.16354342 -0.1463061 1.0587863 0.11979426 -0.0022874125 0.4415283 -0.062182322 0.91778576 0.57473785 -1.0417607 0.15811196 0.076632604 0.014904263 0.32525524 0.42038423 0.79599553 -0.6222635 -0.045899276 0.36443654 -0.39980045 -0.1456864 -0.4130087 -0.37754256 0.617386 -0.29547787 -0.12407464 1.0292978 -0.8121476 -0.23342048 -0.0057555623 -0.041412674 -0.13222103 -0.25497043 -0.5793629 0.30203384 0.447556 0.017577438 -0.3048053 0.26580375 0.25389692 -0.48815626 -0.31390816 0.19189543 0.21764736 1.0104517 0.6894486 0.481907 -0.37807983 -0.16257541 -0.36062428 0.5143126 0.5337652 0.11425405 -0.022005485 -0.20351915 0.50818443 0.17525658 0.2925985 -0.0848644
10 1.1709546 -0.3725692 0.6824663 -1.1800537 0.07032681 -1.3826824 0.4831045 0.7869787 0.63809115 -0.7161927 0.23189114 1.5449212 0.9514374 0.68403965 0.08690693 -0.21545747 -0.30435523 0.7083702 -0.44470295 -1.4582433 0.40999892 0.3743207 -0.024616133 -0.9215393 1.3138882 -0.5608852 0.33270147 -0.45034683 0.8472025 0.83493346 -0.6462283 1.2217767 0.0072285766 1.2709244 0.667012 0.34528244 0.16114858 0.49199057 -0.014807724 -1.3009375 0.17073125 0.5336909 0.10242163 0.09968969 -0.9261908 -0.26607457 0.9721893 -0.39627212 1.2795203 -0.5069719 1.8102274 1.1250788 -0.58772135 -0.9421551 0.64615643 -0.6016242 -0.8330854 0.7395167 -0.6249394 -1.111806 -0.52745324 -0.1322532 -1.4124509 -1.0831058
103 0.83566386 -0.18918598 0.37005392 -1.1552424 -0.18819308 -1.2176758 0.34446988 0.68702793 0.44353986 -0.5292491 0.07258228 1.6104848 0.5996255 0.6525662 0.022076853 -0.17004713 -0.16906533 0.43101802 -0.37960654 -1.3193744 0.5852793 0.34341964 -0.24767186 -1.0682554 1.1663637 -0.50804716 0.06374774 -0.19949585 0.6024947 0.7324277 -0.87958765 1.3569608 0.17272812 0.8985627 0.8127603 0.63787943 0.08152658 0.30974272 0.10075172 -0.762709 0.10009548 0.70746654 0.46183202 0.65865767 -0.92842376 -0.21774074 0.6276001 -0.5503825 0.51493263 -0.79458016 1.5840061 0.9578482 -0.420979 -1.1300116 0.37724894 -0.6117546 -0.9378923 0.46919188 -0.58328396 -1.3519913 -0.4629876 -0.40243137 -1.3817238 -0.91227573
332 1.1660887 -0.35079247 0.7543391 -1.2108841 -0.094975926 -1.3273594 0.51724553 0.57821167 0.7784912 -0.7292543 0.17239672 1.7476817 0.889228 0.6539467 0.15300071 -0.22816782 -0.49447992 0.7808197 -0.44306844 -1.5650129 0.3405171 0.5159688 -0.18265857 -0.8422995 1.1942348 -0.84510535 0.23826751 -0.55952066 0.8342564 0.912692 -0.56160736 1.3297769 0.19267128 1.3075306 0.7424091 0.28608927 -0.025265913 0.38938236 -0.18793476 -1.2853054 0.13152659 0.6803835 -0.08366921 0.028061446 -0.8544373 -0.25682816 0.9548287 -0.32174248 1.0897233 -0.5002679 1.8710145 1.0630203 -0.6779683 -1.1241305 0.66319096 -0.5394318 -0.9843643 0.8979168 -0.59389013 -1.1589622 -0.6582429 0.011154337 -1.3824799 -1.126833
297 1.0642716 -0.36224854 0.79123294 -1.0534462 0.0574985 -1.2924876 0.4463076 0.7495545 0.7131204 -0.6431994 0.2073698 1.698591 0.85682636 0.7328852 0.051407207 -0.27079216 -0.3936153 0.8217632 -0.37075657 -1.5699476 0.51153487 0.32062253 -0.09155464 -0.92862105 1.2994503 -0.6679106 0.40551564 -0.5220375 0.8374218 0.82263637 -0.5276661 1.381484 0.16009577 1.100969 0.60611826 0.07735117 -0.18119909 0.31543142 -0.10410199 -1.2806461 0.13977842 0.6366658 0.1361443 0.16150932 -0.8037143 -0.31024483 0.8912124 -0.4326759 1.0158541 -0.47823438 1.8484323 0.96899796 -0.53003293 -0.9602163 0.65709096 -0.472353 -0.8595822 0.93079036 -0.68449384 -1.0529495 -0.48859242 -0.16726346 -1.6131823 -1.0209578
67 0.88658166 -0.18325906 0.43521184 -1.0688236 -0.20921397 -1.2215017 0.50812054 0.5904867 0.44572267 -0.56198186 0.05738212 1.604718 0.63624436 0.6530717 0.017374603 -0.2434472 -0.26727083 0.42414266 -0.38274363 -1.2768502 0.6534616 0.3286549 -0.120527424 -1.0310059 1.1552391 -0.59685993 0.13251543 -0.3191082 0.72459555 0.72628117 -0.7730435 1.3958704 0.21781531 0.90013766 0.76940393 0.49668464 0.1022525 0.3106557 0.16653527 -0.6881721 0.09074314 0.48043767 0.46158537 0.63675743 -0.8387326 -0.23120347 0.61861825 -0.5203061 0.5736117 -0.6929706 1.751433 0.91110855 -0.38105026 -1.2157661 0.34798008 -0.7028009 -0.88234097 0.50814307 -0.52378577 -1.2225295 -0.5737454 -0.33659112 -1.2744378 -0.8921073
28 0.9118888 0.59524417 0.8776132 -0.38467196 0.122986145 -0.24452358 -0.7599095 0.8039901 0.38358676 -0.63547987 0.35765782 0.30234304 -0.07934672 0.6226588 -0.10420385 -0.75642896 -0.4807914 0.609903 -0.17406684 -0.10045094 0.23059404 -0.53494084 -0.5650474 -0.56202376 -1.1838193 -1.2266227 0.20387517 -0.49250832 0.2755721 -0.73769706 0.4291594 0.37824926 -0.18127507 -0.020080008 0.24719952 0.056233797 -0.17333573 -0.017751947 0.13336456 0.1188466 0.25399628 0.183875 -0.55291003 -0.1975439 -0.7929321 -0.41200694 -0.32830417 -0.60952145 0.033465732 0.20761728 1.1797839 0.20887497 -0.4305538 -0.36844596 0.76486564 -0.18479447 -0.504653 -0.8080853 -0.022960665 -0.8528489 -0.11479738 -0.14994454 -0.771223 -0.23898569
336 0.5369824 0.11363877 0.64288515 -0.18833373 0.46039212 0.060588665 -0.32159078 -0.25007084 0.27165338 0.11510557 0.7256319 -0.16828482 0.5476442 0.9910198 -0.22240674 0.17539446 -0.4173764 -0.42976013 0.0020753976 0.077935725 -0.15183756 0.23121543 0.14412262 -0.68870294 -0.30703488 -0.098906755 -0.07329704 -0.15599044 0.40205422 0.22306608 0.18674412 0.153546 0.018679323 0.22437239 -0.42282856 0.21432061 -0.18948898 -0.24789366 -0.18902153 0.10591888 0.40375528 0.26604193 0.10712871 -0.063781634 0.031995755 0.29723215 -0.26765162 -0.6972904 -0.08588522 0.22399552 0.18583836 -0.30938047 -1.0646322 0.1589242 0.17605925 -0.216326 0.31450224 -0.47562748 0.030186133 -0.35789284 -0.07300942 0.4610739 -0.4825488 -0.10337646
43 -0.15428655 -0.35782373 0.79195845 0.0928908 0.11911484 -1.2960321 -0.67875206 -0.63842255 0.9029106 -0.5801912 0.4361793 -0.26286834 0.02935185 -0.21451415 -0.034339335 0.31159553 -0.4653263 0.495285 -0.65649354 0.5500831 0.47750464 0.07476616 0.04133082 -0.581003 1.1189257 -0.21614413 -0.32335642 -0.5282394 -0.53409004 -0.5427476 0.2647009 0.48363742 -0.05797153 -0.25316772 0.90044844 0.4647439 0.25680777 -0.11691784 -0.7978838 -0.4530126 -0.3422076 0.42220896 0.06720958 0.18732019 0.21203667 -0.17263895 0.5923427 -0.39666507 1.1593502 0.43572527 0.06527005 -0.035540815 -0.5438084 0.4715053 -0.24577257 -0.18648644 0.2542796 -0.05023694 -0.259392 0.17724654 -0.5638675 0.019175198 0.08810519 0.35287198
107 0.42609096 -0.5647851 0.1993843 -0.4783367 0.8391655 -0.45781502 -0.5384083 1.3729628 0.4887539 -0.3925398 -0.14080706 0.7820094 0.78592473 0.7480595 0.7594833 -0.18698587 0.031179996 0.42336053 0.47732955 -0.22784044 -0.20465986 0.37778875 0.17928492 -0.71291935 -0.1265169 -0.07944401 -0.9142189 -0.3769731 0.9133572 0.17832871 -0.1633172 0.48645765 -0.21781456 0.41094488 0.024196263 0.043269496 -0.09476359 -0.03334746 -0.8094402 0.6488405 -0.30427364 -0.44502422 0.085094154 0.36897913 -0.010022893 -0.83677906 -0.17800869 0.11736606 -0.13271807 0.83617884 -0.13816842 0.18960954 0.032346465 -0.16332902 0.27362758 0.35518497 0.976276 0.45026213 -0.18001126 -0.9396745 0.12391341 0.16728468 0.0039954823 0.8390178
54 0.42968082 -0.89172316 -0.38525158 -0.63319844 0.69712895 0.40941444 -0.7341113 -0.9815402 0.031329043 -0.533849 -0.12094471 0.25879934 -0.0056480407 1.3581147 -0.2901716 0.48566136 -0.55702156 0.013954217 -0.28738442 -0.46770385 0.5767727 0.39874044 0.22646992 -0.60500157 0.58163834 -0.8057114 -0.76113564 -0.96089536 1.1758814 0.2619244 -0.76887906 -0.16039592 0.033502247 0.08002762 1.0375694 0.80460495 -0.17873938 -0.43472373 0.8762024 -0.73346305 0.68261355 -0.4669887 -0.24933308 -0.53076774 -0.3612927 -0.7635574 -0.2561669 0.3512559 0.15371627 0.35024315 -0.789557 0.29568523 -0.016079206 -0.2978917 -0.14868085 -0.32605162 0.6861547 0.42126572 -0.12360144 -0.36309096 -0.60596335 -0.65329164 -0.025470246 -0.3339794
184 -0.23250128 -0.12564889 0.7120652 -0.29154202 -0.29129672 0.1424269 -0.39954677 0.002308302 0.30573693 -0.30703905 -0.55053914 0.679856 0.5074177 -0.042356428 -0.27222025 -0.44210273 -1.1558453 -0.25111675 0.34059465 0.0888019 0.8444492 0.32049713 0.94718444 -0.30073923 -0.21392968 0.6118043 -0.44332978 -0.021148095 0.17855844 0.13459319 -0.69775933 0.22632517 0.5104309 0.45884588 0.55218613 0.07352921 1.0316197 -0.3060463 -0.3114676 -0.17737487 0.04356168 0.40239543 0.42307714 -0.2441136 0.092438534 -0.45131865 0.42582154 0.0255334 0.5146095 -0.0031376989 -0.45426503 0.42286807 -1.1677223 0.27660665 -0.097518414 1.2614925 -1.2928765 0.53915817 0.734833 0.14039876 -0.29433015 0.22452438 -0.36954862 -0.26150805
36 -0.2043254 -0.22427812 0.606687 -0.7510636 -0.6936903 -0.29063177 0.0964897 0.45164627 -0.23377056 -1.327574 0.43525672 0.039479155 0.08489841 0.04514601 -0.46869996 -0.26241478 -0.7604033 0.85184854 0.0035918276 0.2680119 0.768743 0.8485595 -0.030192329 -0.71516484 1.1192025 -0.1359879 -0.67715406 -0.22350831 -0.19725691 0.10169627 -0.018125163 0.18366449 -0.04178533 -0.057370473 -0.17741492 -0.086717315 -0.081199996 -0.39087304 -0.24917287 -0.5565222 -0.586598 0.26338637 0.19662198 -0.52768123 0.30335137 -0.47676444 -0.295142 -0.80962706 0.8331734 0.1028589 -0.68063986 -0.40613484 0.099887714 0.31836298 -0.5244555 -0.49204677 0.09544681 -0.42625365 -0.21121638 0.3950461 -0.41665012 -0.08209011 -0.14954677 -0.11162732
144 0.2990474 -0.5769747 -0.04366534 -0.5645516 0.34228763 0.19670622 -0.66506106 -0.685338 -0.2554199 0.04436564 0.15183315 -0.41057834 0.19982256 0.8201673 -0.05738056 0.17524664 -0.18732512 -0.035518598 -0.3345436 -0.07021248 0.42271733 0.11904514 -0.04716153 -0.23449373 0.31154573 -0.285829 -0.8212403 -0.61597604 0.798906 0.12702115 -0.30131403 -0.036866836 0.35643393 -0.07550855 0.7334968 -0.034582183 -0.4958391 0.013794465 0.47558975 -0.006619746 0.2538277 -0.43907297 -0.47266257 -0.67976093 0.155162 -0.09651597 0.25470242 -0.13384826 0.021340095 0.1933911 -0.31149504 0.24170423 -0.28714433 -0.38219345 -0.15285613 0.06588783 0.46873236 0.545034 0.43490165 -0.3037269 -0.5888626 -0.48455262 -0.63120145 -0.5712327
437 0.49310005 0.40329498 0.74201834 0.0036590237 -0.05067215 -0.050001364 -0.5522576 0.963729 0.8567541 -0.055157036 0.6910633 -0.04175122 0.07792164 0.5135359 -0.31111053 -0.3197149 -0.3111957 0.11470693 -0.243047 -0.08307476 -0.23284616 0.06387173 -0.39851162 -0.74672526 -0.984813 -0.56823784 -0.18485987 -0.14034861 -0.04916105 -0.14390485 0.049958188 0.4079561 -0.307721 0.39178243 0.6644541 0.28098232 -0.036557186 0.088654555 0.3615727 0.042401865 0.6291042 0.3502286 -0.034061253 -0.08083416 -0.10235607 -0.14062813 -0.6026726 -0.3670374 0.123399444 0.1479158 0.30232558 0.22762653 -0.42915756 -0.29859844 0.19744246 -0.08780393 0.13073853 -0.77549 0.37130827 -0.5076374 -0.105655245 0.104985245 -0.3289761 -0.1867515
373 0.47742343 0.07992302 0.4431065 -0.4727647 0.26144177 -0.18909863 -0.31314233 0.6309783 0.5917374 0.22679646 -0.30717382 -0.026318833 0.36722162 0.82300556 -0.16929865 -0.25252852 0.118117906 0.32843608 0.005535771 0.16143627 0.33777222 -0.10937623 -0.24798322 -0.32395917 -0.5359178 -0.29018244 -0.42506164 -0.33009672 0.41968936 0.09449187 -0.055008665 0.44645146 -0.24286224 0.3333096 0.18781848 0.14799243 -0.2095291 0.111571655 -0.6039582 0.52202857 0.19372441 -0.1476936 0.16928405 0.14890192 -0.069492035 -0.2242174 -0.19005571 -0.17701279 0.015282104 0.5861451 0.23253769 -0.00043918498 0.11115057 -0.088967375 -0.45057324 0.18186976 0.26866773 0.16101246 0.2069188 -0.30238512 0.21858776 -0.022842402 0.10193488 -0.22710101
132 0.99597794 -0.69362885 0.061798297 -0.85191387 0.6099217 -0.19239677 -0.07446688 -0.47444156 0.21148877 -0.014111592 -0.33838734 -0.7299468 -0.062014677 0.74635035 0.012974757 0.03928532 -0.101098396 -0.9535295 -0.61275715 0.4643534 0.7110506 0.24543707 -0.2625619 -0.43123567 0.45596817 -0.24672814 -0.5000991 -0.33970854 0.18724747 0.72203815 -0.6302583 0.84833115 0.60004276 -0.3622063 0.8047126 -0.26762742 -0.24428305 -0.03366739 0.28148505 -0.45796058 -0.11916503 -0.2638554 -0.6400089 -1.3148549 0.22623406 -0.3409885 0.31156558 -0.038318127 -0.20419905 -0.3430238 0.41796845 1.13008 -0.20766596 -0.87315077 -0.029710827 0.17591749 0.88994926 -0.023249459 0.34761462 -0.3553202 -0.088283576 -0.45533705 -0.9792558 -0.5448136
170 1.4350264 -1.3408816 1.0795689 -0.025056632 -0.083455235 -0.1033515 -0.42945942 -0.12069724 0.536711 0.008522703 0.9926395 -0.12394778 -0.057518262 0.37396136 -0.7163152 0.8918136 -0.24369298 0.8261612 -0.1582174 0.3337483 0.84382373 0.6175329 -0.8367444 -0.95765597 0.13165496 1.2579136 -0.45473245 -0.043290354 -0.65033484 -0.44984484 0.1863384 -0.49364525 -0.038054932 0.43132338 0.8418677 -0.24230714 -0.32365716 -0.24904507 -0.1405886 -0.39809373 -0.28948694 -0.30964437 1.0430698 -0.122533016 -1.0872954 -0.11148525 1.0227637 -0.66119224 -0.21629636 -0.7859721 1.128104 -0.11293981 -0.35196885 -0.34033588 -0.7842219 -0.61370414 -0.47127786 0.8195713 -0.19101475 0.48027503 0.47412968 0.09247587 -0.25999784 0.11481065
147 0.9918638 -0.8493255 -0.120041616 -0.865274 0.6756068 -0.31102896 -0.02491889 -0.49403596 0.16984482 0.10549285 -0.28277534 -0.6617349 -0.015041545 0.71938425 -0.08219179 0.074823275 -0.033462785 -0.97827595 -0.56879526 0.49264607 0.68798995 0.29160947 -0.32065272 -0.2601124 0.4526561 -0.23541512 -0.55507845 -0.36309716 0.1006851 0.6124961 -0.62903464 0.8208087 0.60971487 -0.19276087 1.0151925 -0.22894587 -0.21028535 -0.20229198 0.32705483 -0.42638418 -0.03788642 -0.08698081 -0.66249436 -1.2102226 0.20858717 -0.23734955 0.31561303 -0.004937825 -0.17700441 -0.34209916 0.46918172 0.98835343 -0.23276772 -0.77643025 -0.1216317 0.30673936 0.92866266 -0.21325895 0.36118358 -0.35531822 -0.12876663 -0.5109241 -1.0945703 -0.57343125
313 0.29254025 -0.36423305 0.30074984 -0.8927246 -0.5981552 -0.37533373 0.05983 0.25380364 -0.1517938 -0.019517375 -0.06844122 0.5215933 0.24886897 -0.0872814 -0.07546462 1.3902031 -0.49613684 0.32578266 -0.29474387 0.48245418 1.0051694 -0.509648 0.12370804 0.3307789 -0.04959552 0.118818335 -0.7600762 -0.9900842 0.101290405 0.09594812 0.18239002 0.6044472 0.2724136 0.6596829 -0.60940486 0.0010088788 1.0740025 -0.4526008 -0.15599127 -0.45306072 0.8215755 0.26139075 0.5645718 -0.04413836 -0.17691943 0.37838596 -0.16970965 -0.61497205 0.87971526 -0.34015822 -0.9775758 0.5289525 -0.61150676 -0.32451552 0.8453653 0.6356861 -0.21876684 0.9572036 0.709612 -0.26856515 -0.0051323622 0.13102184 -0.06470643 -0.07378355
105 0.42165637 -0.6378574 0.03772557 -0.4607007 0.40602008 0.27027592 -0.5587899 -0.71538717 -0.20139658 0.047501177 0.15781598 -0.3442377 0.22955164 0.8310429 -0.21048784 0.27833366 -0.14519598 0.0401038 -0.2520983 -0.09130051 0.42737597 -0.017383633 0.009951957 -0.2675146 0.31461954 -0.3089566 -0.72424114 -0.65751886 0.7797467 0.29636636 -0.39532644 0.07318831 0.1336319 -0.1894978 0.8940474 -0.06859131 -0.4821922 0.032828476 0.6657748 0.004006843 0.02687133 -0.31185004 -0.56250584 -0.79851437 0.13971604 -0.014872111 0.14994355 -0.20115128 -0.009591975 0.3189092 -0.3520566 0.22027121 -0.35206562 -0.28500384 -0.048090745 0.259148 0.38434926 0.4886858 0.40759635 -0.18659554 -0.48234928 -0.5730312 -0.67794466 -0.49217185
284 0.7865879 0.09761887 0.38451853 0.3311243 0.46359792 -0.17438604 0.34793165 0.5245888 0.6123916 0.19702604 0.26332223 0.45104825 0.08663764 1.0469787 0.15165912 -0.30990326 0.2946539 0.75546587 0.3680163 0.74472857 0.58667856 0.47842184 -1.2256402 -0.40768054 -0.62459046 -0.4383968 -0.63142926 -0.19291872 0.49060845 0.25292832 0.042027075 0.45525828 -0.2580364 0.25388935 0.12170325 0.5639393 -0.031972095 -0.014240839 -0.15118647 0.34024003 0.3399186 -0.18311027 0.75013715 0.41729137 0.31381446 -0.54848295 -0.36964127 -0.32658237 -0.1328299 0.5941113 0.6929848 0.9808382 -0.5235423 -0.29098597 -0.1968113 0.40129945 -0.5895487 0.25824833 0.33010256 -0.5310456 0.34101892 -0.21490483 0.09602297 -0.4148503
262 0.2028912 -0.23908915 0.35975364 -0.8595837 -0.80747235 -0.40887818 -0.08762598 0.29328758 -0.16498418 0.029280817 0.010752618 0.47151935 0.3069731 -0.22210081 0.07779484 1.3787735 -0.3771357 0.3575241 -0.13239317 0.3610572 1.1173753 -0.4528428 0.18238752 0.33559346 -0.1414047 0.21697102 -0.95647734 -0.90905404 0.39016023 0.116235785 0.17733864 0.66989213 0.28488916 0.3726783 -0.58496225 -0.011300737 1.0966388 -0.4064493 -0.21290407 -0.39315397 0.64928836 0.32268074 0.62619895 0.06859879 -0.3154999 0.52034694 0.017868416 -0.6773584 0.98805743 -0.40649512 -0.9061713 0.52092224 -0.7033381 -0.33715817 0.8663801 0.70748603 -0.18561493 0.8815316 0.88508594 -0.2613599 0.05122275 0.031541448 -0.08642101 -0.17500798
1 -0.01244145 -0.39495707 0.5049092 -0.045140717 -0.43747437 -0.5086951 0.032544255 -0.07555508 -0.097184636 -0.11775069 0.28505436 -0.20138569 0.055079356 -0.10926695 -0.033373334 0.1669876 -0.039411884 0.13383836 -0.38731214 -0.046469 0.6470484 0.061212655 -0.19387606 -0.23665455 0.27293622 0.3904265 -0.33574265 -0.46098998 -0.13081768 -0.21218506 -0.25348464 0.08102248 0.2691676 -0.09949672 -0.0836743 0.23619235 0.07207153 -0.14955372 -0.3070581 -0.049947266 -0.03920794 -0.0506858 0.18796787 -0.21943036 0.12437441 -0.5457427 -0.030648874 -0.36209565 0.20731571 0.3823511 -0.32834128 -0.15672104 -0.32692823 -0.05345837 0.07760961 0.14090459 -0.045465946 -0.28478396 -0.2999033 0.12426181 -0.13784996 -0.18820183 -0.02798598 -0.09674191
207 0.48004818 0.30692267 0.76984316 -0.60753137 -0.5747626 -0.8980317 0.16097069 -0.7689343 -0.13433376 -0.40682167 0.63096875 0.24644996 -0.9265785 -0.28450897 -0.44059512 -0.14315473 -0.4058458 0.9239125 -0.104002625 -0.66694343 0.48953617 0.089080155 -0.088836536 -0.03314061 -0.044738308 0.57284975 -0.7755515 -0.21109001 0.35453594 -0.12322373 -0.09886166 0.34294653 0.2939105 0.40838462 0.017179698 0.72377723 -0.20698828 0.031109368 -0.07043129 0.21581781 -0.12867616 -0.44457492 0.93481165 0.0677774 0.33641753 -0.3401729 0.45110798 -0.18183969 -0.13508315 -0.13624525 -0.12551987 1.0670224 -0.43014184 0.18718193 -0.22744748 0.7111285 0.37836486 -0.42429444 -0.8229909 0.45673335 -0.5248721 0.20235968 -0.37316495 -0.48193955
185 -0.103388876 -0.43556812 0.46718204 -0.104941756 -0.4451534 -0.37115937 -0.21100283 -0.259773 -0.41803807 -0.075682655 0.91813165 0.22403201 -0.35091367 0.14209089 0.064989835 -0.11885005 0.6386114 0.6535982 -0.3865753 0.05756271 0.6571486 -0.059845895 0.046710838 -0.81966794 0.58146006 0.58948934 -0.3073957 -0.05767793 -1.0327189 -0.20077862 -0.09072319 0.74381745 -0.25675762 0.14140406 -0.20830704 0.48759744 0.67906106 0.153904 -0.3602275 0.5344788 0.5406423 -0.0967496 -0.051859763 0.044740397 0.44192925 -1.0949905 0.0977365 -0.31670552 0.38118044 -0.031153131 -0.19014755 0.16965911 -0.52365804 -0.97046256 0.0022145042 -0.37987646 -0.37547594 -0.3681933 0.10362653 -0.075185284 -0.19689201 0.11855185 -0.26698932 -0.83990955
180 0.58716244 -0.6974997 0.4308686 -0.77193 -0.023285734 0.014424658 -0.17439036 -0.4395937 -0.29213148 -0.000869986 0.04332761 0.1163778 0.31626073 -0.009675078 0.18403587 -0.1508359 -0.02489004 -0.9289249 0.68758446 -0.40295848 0.6152927 0.47219127 -0.41918147 0.5394929 0.02618746 -0.7378864 -0.09070355 -0.83827865 0.23856206 0.38765576 0.09233484 0.36374322 -0.9015167 0.4496274 0.59583056 -0.25986755 0.73054016 0.9404937 -0.5204017 0.3894973 1.5117583 0.27693298 1.130181 -0.14856188 0.9613327 -0.85821193 0.38079634 -1.4579561 0.59997576 -0.10697653 -0.45227098 -0.074474655 -0.10912255 -0.19262306 -0.09847557 0.17540978 -0.40328583 0.36229965 -0.76615584 0.31313726 0.5301639 0.40711677 -1.412778 -0.37090003
95 -0.51029795 -0.15907808 -0.19502123 0.044178814 -0.47094697 -0.6656028 -0.15700635 -0.2874837 0.09951628 -0.26894006 -0.25926873 -0.22361597 0.49121058 -0.4872849 0.18343672 1.1764123 -0.47952792 0.16001783 -0.7764157 0.37442255 1.0365695 -0.11493308 -0.061336175 -0.20805843 -0.3146114 1.0601472 0.17239094 -0.3928166 0.065076545 0.0020939312 -0.2100185 0.7773535 0.3828731 0.61627513 -0.047938578 0.107359745 -0.40337044 -0.92579883 -0.410742 0.6114151 -0.09055708 0.48915887 0.10239456 -0.37675554 -0.027760005 -0.67012113 -0.0917215 -0.59150654 0.95789945 0.2901545 -0.26036105 0.84790796 -0.50695175 -0.079369776 0.06717293 -0.45919457 0.080872536 -0.08597872 -0.54192275 0.101437755 -0.205111 -0.12113449 -0.13921842 -0.2126716
123 1.0611042 -0.8023372 -0.021351956 -0.8357696 0.6590335 -0.21969078 0.042830516 -0.45024115 0.18076591 0.0943034 -0.28712437 -0.7488357 -0.16289854 0.79367095 -0.0134451715 -0.06722273 -0.01752408 -0.91247565 -0.48119012 0.4359717 0.7021311 0.1848716 -0.15263313 -0.25518572 0.5272201 -0.26840624 -0.57960224 -0.5524892 0.053468063 0.7352246 -0.7530182 0.85176593 0.587042 -0.27051508 0.9996675 -0.2500724 -0.2705834 -0.18909769 0.24312776 -0.45582065 -0.09070689 -0.22770351 -0.65112615 -1.2124366 0.33213422 -0.10962473 0.3634008 0.058463503 -0.09197357 -0.43184015 0.55028015 0.8899217 -0.32617494 -0.8690662 -0.050639443 0.16865565 0.8782114 -0.19520377 0.2871648 -0.39176166 -0.18995123 -0.4477314 -0.8681902 -0.68072397
152 1.2790555 -0.30305946 0.42277756 -0.03590953 0.3855275 -0.12227981 -0.6752873 0.13176608 0.6825848 -0.9269239 -0.28016013 0.167892 1.2308167 -0.079629816 0.510351 0.6548464 0.355713 -0.22160456 -0.1129974 -0.28629097 0.053395253 -0.22270957 -0.5899166 0.5542328 -0.37989137 0.17403041 -0.2343239 -1.2122763 0.4110332 -0.25200328 -0.15110914 0.5497423 -0.23285569 -0.11002957 -0.013910245 -0.050486594 -0.25704464 0.202662 -0.34833577 -0.11466423 0.9367617 0.28604472 0.78519183 -0.590602 0.15955907 -0.4775803 -0.0062844916 0.20122987 0.65366817 -0.8657294 -0.13465883 -0.6403699 -0.7030381 -0.36038783 -0.09388564 -0.32039744 -0.61889 0.71818876 -0.7044177 0.020322371 -0.43160817 0.367616 -0.69744897 -1.0260751
426 -0.01333282 -0.4195011 0.38481084 -0.095041335 -0.55548316 -0.53953254 -0.042936392 -0.20152085 0.032882262 -0.24331112 0.27965486 -0.16934074 0.046524227 -0.17424172 -0.13621812 0.21697812 -0.020179724 0.05469717 -0.2779294 -0.16396788 0.652324 0.10965787 -0.17218098 -0.3294107 0.22566888 0.38978887 -0.4545296 -0.29620597 -0.11951665 -0.1794252 -0.21348885 0.036161132 0.32533213 -0.18903822 -0.08479866 0.3236479 0.12749551 0.029335707 -0.5486971 0.019992074 -0.116721064 0.038026452 0.024219908 -0.24743901 0.23359017 -0.5956139 0.047211163 -0.33289194 0.18435629 0.46627703 -0.20703058 -0.14142111 -0.4526098 -0.010777612 0.074035466 0.009794423 -0.029225586 -0.26933002 -0.21227235 0.13756612 -0.116882876 -0.1310865 -0.05669952 -0.15100291
388 0.4857549 0.0042318786 0.28701818 -0.4908004 0.043497507 -0.10676952 -0.22988349 0.56823844 0.5847772 0.18051183 -0.2427884 -0.07517226 0.30477872 0.77685755 -0.12539406 -0.33019453 -0.0038829898 0.24668784 0.072008446 0.33572036 0.22853261 0.05302032 -0.30002788 -0.25487554 -0.5719369 -0.19065736 -0.43732148 -0.4735447 0.38550618 0.046762165 -0.091910556 0.52844024 -0.18816498 0.22465844 0.055156264 0.27865088 -0.063865304 0.10789496 -0.69068515 0.57104105 0.19115065 -0.17724411 0.2350746 0.11499002 -0.056326345 -0.26639855 -0.18924055 -0.20137532 -0.0979182 0.6175902 0.24059671 0.08434875 0.100413695 -0.031379174 -0.43746096 0.055859488 0.29827613 0.14664927 0.27595308 -0.4376511 0.28857812 -0.006543816 0.060521137 -0.2481182
280 0.598322 -0.91451377 -0.030127954 -0.05442983 -0.08965925 -0.68433887 -0.13420872 -0.52522254 -0.80387664 0.1851398 -0.06820548 0.21527828 0.01936141 0.03653255 0.43372136 -0.30180332 -0.49180663 -0.15220861 -0.59415895 -0.15340896 0.727105 -0.04636832 -0.5699211 -1.1266043 -0.54855436 0.2145288 -1.2051991 -0.6627717 -0.21573326 -0.68546814 0.26930204 -0.07420353 -0.043145135 0.5203369 -0.16168228 0.00021257455 0.18686733 -0.1676333 -0.69966877 0.02165015 0.1462758 0.71037364 -0.35663658 -0.17190205 -0.5579914 -0.5923531 0.068876825 -0.17339167 0.5437106 0.48464745 -0.14756918 0.26709533 -0.69168115 0.3103942 0.10719387 -0.07672836 0.03339111 -0.43665877 -0.61319286 1.1296191 -0.07054312 -0.653247 0.4610698 -0.14507872
204 -0.20870462 -0.4533058 0.7890501 0.3409774 0.029418122 -1.2671119 -0.65983075 -0.6311846 0.9086295 -0.7344928 0.5492854 -0.37438804 -0.00017245005 -0.079501405 0.0047157337 0.20126003 -0.4117903 0.45402166 -0.6577634 0.58540547 0.5815583 0.044104774 -0.099093884 -0.52019006 0.9483374 -0.15738103 -0.17864542 -0.6888552 -0.37712863 -0.3232119 0.21187313 0.49903414 -0.07803427 -0.22093348 0.7605024 0.46755207 0.34868798 -0.20157546 -0.878637 -0.6178326 -0.30590776 0.3272102 0.025389384 0.106167726 0.020853523 -0.049893398 0.65781736 -0.43735096 1.1786594 0.23288955 0.023882724 0.018523194 -0.26740557 0.42910033 -0.16598314 -0.03968486 0.17760447 0.03917979 -0.2918677 0.1228814 -0.55843794 -0.014684584 0.07494948 0.50297797
149 1.8479273 -1.3829669 1.1820017 -0.15836369 -0.045821615 -0.34324473 -0.12143466 -0.28847694 0.3300917 -0.07077749 0.598576 -0.2214226 -0.053655658 0.21394166 -0.5407598 0.637752 -0.13036394 1.0064808 -0.2181895 0.53333443 0.73065263 0.4254442 -0.98211974 -0.9387858 0.25533843 0.9439689 -0.31496778 -0.18080074 -0.3732397 -0.74147046 0.5201433 -0.63988733 -0.20617136 0.57368547 0.7192944 -0.15953153 -0.4248083 -0.29363894 -0.4617653 -0.2609487 -0.4489913 -0.5794163 0.8086358 -0.3464795 -1.2616763 0.049632132 1.183721 -0.9490359 -0.36595312 -1.0403706 1.5277063 -0.14826082 -0.66573983 -0.5163932 -0.6083926 -0.5622837 -0.8056112 0.84422374 -0.27565068 0.5190839 0.16680047 -0.059486266 -0.1708432 0.21012619
190 0.42058975 0.20812905 0.59416395 -0.15836617 0.65741706 -0.1274864 -0.27076653 -0.20716318 0.1798394 0.09266443 0.64772373 -0.24943183 0.47072595 0.99258196 -0.41919836 0.08312009 -0.45574355 -0.38762134 0.15028454 -0.023068612 -0.090195164 0.2085987 0.19801521 -0.64266986 -0.5415475 -0.08442193 -0.19525576 -0.1450786 0.48619512 0.19069026 0.07731688 0.060855277 0.043102168 -0.0013095085 -0.43351054 0.3147192 -0.061606977 -0.26981887 -0.19746773 0.07117235 0.3999728 0.28625745 0.07309309 -0.1113404 -0.053061564 0.18122695 -0.11884628 -0.8334644 0.067071766 0.15828773 0.14426784 -0.29886332 -0.99767935 -0.038134657 0.09748211 -0.3704458 0.4326212 -0.35483083 -0.018793352 -0.4844136 -0.11065157 0.6174224 -0.5365832 -0.08269814
140 1.0774937 -0.2890159 0.44276953 -0.18129057 0.47409388 -0.06887415 -0.64526826 0.16375957 0.68554735 -0.86482763 -0.12895396 0.22815312 1.1658472 -0.07758557 0.6549118 0.49754485 0.44986534 -0.34678355 -0.041333195 -0.30314946 0.15197931 -0.16638789 -0.62351584 0.4900162 -0.44630587 0.11289727 -0.18062979 -1.2029041 0.45256472 -0.22882381 -0.1250867 0.5282124 -0.28593424 0.05598452 -0.04788449 0.049342833 -0.28123343 0.14363195 -0.39937496 -0.086431816 0.8872587 0.19078444 0.73999745 -0.5848077 0.061378285 -0.56406456 0.026390132 0.20907204 0.7200464 -0.78335136 -0.18562633 -0.64639765 -0.6695409 -0.3518627 -0.11650954 -0.34313017 -0.6541645 0.8395116 -0.66474706 0.1794564 -0.3762062 0.46520004 -0.99446267 -1.1117725
150 1.3614771 -1.3775326 0.8689598 0.023052847 -0.17567687 -0.28521413 -0.36171687 -0.19061291 0.5788955 0.11551349 0.9692612 -0.07230275 0.016985467 0.38238317 -0.78773886 0.88586724 -0.23376358 0.85186756 -0.17575464 0.28238103 0.88450766 0.38546973 -0.74029464 -1.0545733 0.09915877 1.1215794 -0.55298406 0.095299944 -0.68216866 -0.54187936 0.12691565 -0.575763 0.12876196 0.63693535 0.9395179 -0.23883906 -0.2174887 -0.21002595 -0.15765503 -0.40443486 -0.1490289 -0.30921003 1.0266992 -0.06571389 -0.97805554 0.07026671 1.0177269 -0.6976712 -0.2118831 -0.875947 0.912442 -0.29376855 -0.26911283 -0.38728324 -0.8583317 -0.6115375 -0.35735193 0.8159134 -0.20970625 0.45358512 0.5246561 0.09411008 -0.48251864 0.15069546
172 0.9593419 -1.3061196 0.43015665 0.036821924 -0.28116912 -0.24068834 -0.14091231 0.32050812 -0.08501581 0.21586259 0.8819355 0.20098557 0.13735606 0.24021566 -0.92366946 0.6866539 -0.30834675 0.12008791 -0.54222625 -0.5546837 0.70693517 0.11165983 -0.22453885 -0.80763507 -0.28571653 0.8823304 -0.42804694 -0.30255887 -0.5871557 0.24113084 -0.23090874 -0.28659156 0.7644204 0.66385216 0.60931605 -0.14972511 -0.39870536 -0.6008718 -0.32082593 0.2557981 -0.42096388 -0.3429093 0.7010764 0.31463 -0.5089769 -0.18158878 0.16140574 -0.2075241 0.030098518 -0.40991738 0.24621542 -0.14913288 -0.05261565 -0.23366475 -0.54889613 -0.3570491 -0.3406295 0.3348565 -0.24958678 0.27979848 0.6956989 -0.026955202 -0.33431914 -0.021467118
188 0.3550597 0.18285097 0.55847454 -0.31779742 0.6719467 -0.100261204 -0.2706618 -0.33273184 0.38890684 0.0625259 0.703862 -0.19188844 0.6138698 1.0746688 -0.35347632 0.016277744 -0.43238983 -0.29276973 0.1512792 -0.011759406 -0.13699618 0.09776364 0.09530234 -0.6108427 -0.47812888 -0.15549839 -0.21374656 -0.11346504 0.37832984 0.27335683 0.1794728 0.10750847 0.060580023 0.07045919 -0.45740625 0.15310541 -0.11714315 -0.27714455 -0.24284501 0.18685406 0.3522082 0.0680583 0.04987281 -0.0033449326 -0.1064557 0.23448849 -0.20980161 -0.875697 -0.041001234 0.1630634 0.22331834 -0.35877296 -1.1097093 0.069027 0.2130314 -0.24284904 0.33260974 -0.38767004 -0.15548855 -0.34953794 -0.090050116 0.53352565 -0.5366724 -0.061362132
137 1.0831677 -0.82588476 -0.07077536 -0.7830649 0.67772186 -0.22581357 0.04719259 -0.5271369 0.11444192 -0.03279945 -0.3092602 -0.66364783 -0.07286825 0.7705823 -0.033825453 -0.07514876 -0.105139986 -0.98773247 -0.51224244 0.41071653 0.78680587 0.15414779 -0.29399693 -0.30651605 0.59417444 -0.34648505 -0.4703496 -0.52792776 0.12179894 0.75193137 -0.70122534 0.8138699 0.57340354 -0.33199742 0.9648078 -0.1712234 -0.26897755 -0.0700229 0.22007285 -0.36940998 -0.21166015 -0.22083448 -0.6747302 -1.1905044 0.25770298 -0.17786811 0.26665398 -0.068250924 -0.066696376 -0.3506896 0.45574507 0.98248273 -0.25089616 -0.8449786 -0.1243078 0.26022586 0.87253547 -0.14462103 0.2782356 -0.30453593 -0.14799526 -0.5609806 -0.8748913 -0.55907905
61 -0.0007476951 -0.296977 0.56805646 0.56897205 -0.043409895 -0.72450465 -0.43898356 -0.30818805 0.5991975 -0.13772686 0.5284278 -0.15793797 0.1045987 -0.12236735 0.1792699 0.5240323 -0.78006256 -0.22057866 -0.40010974 -0.55174565 0.93681306 0.36023906 -0.34769443 -0.2407679 0.32805595 0.08773142 -0.048425365 -1.3496288 0.17175244 -0.097471796 -0.4087713 0.7450341 0.15043883 0.33993527 -0.41298154 0.082848646 0.8089433 0.36734557 -0.13460518 0.16395012 -1.0205387 0.040014256 -0.2905904 -0.6813674 0.2697773 -0.4776639 -0.036050566 -1.0550423 -0.6663745 0.299982 -0.29495588 0.44489217 0.2261576 -0.11579233 0.20759997 -0.39448553 -0.12247431 -0.55827105 -0.4024036 0.9131655 0.23473383 0.3983915 0.5219043 -0.7317533
171 1.1236447 -0.24286444 0.4340934 -0.1569567 0.37581423 0.03954572 -0.6373489 0.13373302 0.56426114 -1.011961 -0.18277168 0.21195334 1.1734173 -0.026395004 0.62746793 0.55662036 0.40956482 -0.26679954 -0.08992204 -0.21856852 0.1539614 -0.20638132 -0.70813334 0.4926692 -0.48299015 0.030319726 -0.14220555 -1.1495609 0.37105185 -0.05447408 -0.17260116 0.44402686 -0.21788064 -0.031880286 -0.0790501 -0.10297485 -0.28693342 0.12848343 -0.47028565 -0.15608029 0.88308793 0.16634779 0.7728382 -0.54930913 0.036087807 -0.5980177 -0.061993998 0.137698 0.7187751 -0.8177479 -0.12837854 -0.67997086 -0.8100564 -0.33166286 -0.09389522 -0.45684287 -0.6869367 0.7507963 -0.6443027 0.18478552 -0.43720686 0.357895 -0.91758597 -1.0250949
435 0.044070497 -0.3437981 0.7814187 -0.44076154 -0.44771513 -0.31645048 -0.12992214 0.1759912 -0.09295577 -0.47340155 -0.14576109 0.32730505 0.025279392 -0.2620924 -0.009836619 0.3919931 -0.2796338 -0.03713855 0.07148199 0.026800599 0.8576652 -0.36033288 0.22359863 -0.5410753 -0.20649485 -0.056488905 -0.2964629 -0.68198323 0.06537082 -0.14044425 -0.3706435 0.019829204 0.4447204 -0.24967964 -0.16983968 0.006078558 0.7174193 0.2705048 0.05716371 0.16733798 0.35427147 0.1240356 0.5941376 -0.1886574 0.17334703 -0.10289157 0.09081867 -0.23043458 0.13388577 -0.27420044 -0.51024127 0.34569594 -0.7617972 0.43481654 -0.06446611 0.3335778 -0.3862631 0.5021445 0.42918172 0.09439538 -0.14367104 0.009983721 0.04657788 0.018889077
449 0.55386627 0.07446117 0.3446689 -0.4053253 0.13878265 -0.20699002 -0.5009693 0.58918905 0.5162381 0.2455111 -0.34284353 0.07670048 0.3943633 0.69529283 -0.20005444 -0.28596202 0.11193981 0.1874233 -0.060924295 0.2642665 0.27583307 -0.06390447 -0.31205022 -0.28395972 -0.46326816 -0.27726066 -0.4847808 -0.3033189 0.44264913 0.12626776 -0.11581364 0.4933406 -0.25747535 0.32270503 0.12658352 0.20644525 -0.11470349 0.08582289 -0.6714603 0.53658336 0.07915272 -0.14710493 0.17394085 0.060233522 -0.20590802 -0.19329694 -0.20955943 -0.1907557 -0.063345626 0.5932149 0.25560102 0.034194876 -0.027120745 -0.024551356 -0.37321067 0.13204817 0.29734012 0.16413833 0.24120466 -0.32392338 0.29221213 0.056249678 0.103213854 -0.1810819
68 0.36917797 -0.57952243 -0.017626282 -0.54034895 0.35799402 0.26000628 -0.579742 -0.711078 -0.14034641 0.09726329 0.1680188 -0.53038377 0.25528693 0.74802935 -0.06598125 0.30442944 -0.2305689 -0.024795055 -0.19983855 -0.009957299 0.3252328 0.020550825 -0.09215117 -0.244928 0.3116997 -0.33063412 -0.7533921 -0.59056014 0.7039395 0.23260753 -0.39065436 0.041480824 0.2672732 -0.1688057 0.8113054 -0.055182956 -0.54589504 -0.054849148 0.4423598 0.04088402 0.08865512 -0.38041833 -0.54322743 -0.6860228 0.057241652 -0.18920968 0.24227011 -0.14008707 0.006696335 0.20912254 -0.23135106 0.36788285 -0.298976 -0.31689373 -0.06971146 0.10671358 0.39954197 0.58163756 0.38155112 -0.23138909 -0.67334646 -0.5382635 -0.62899214 -0.5267343
345 0.5215597 0.021318039 0.4034818 -0.382035 0.15768969 -0.104309954 -0.37427276 0.4677226 0.4720514 0.16059813 -0.35823828 0.0073778066 0.40646702 0.79152036 -0.21312876 -0.38705432 0.06327237 0.35026145 0.05414425 0.30935562 0.29425794 -0.007243399 -0.32343966 -0.37427652 -0.43486246 -0.26536235 -0.28002658 -0.37415248 0.38388026 0.12968029 -0.11949007 0.6155628 -0.16051279 0.3527583 0.036526106 0.011206297 -0.17550363 0.004822303 -0.5648202 0.43035513 0.17106794 -0.102687255 0.32766092 0.12508768 -0.18634085 -0.18357673 -0.11601168 -0.1793715 0.013162135 0.61438054 0.24366193 0.020340536 0.11454197 -0.04789349 -0.43604305 0.15352435 0.29109558 0.025590701 0.2630221 -0.33560094 0.25006655 -0.0025896262 0.16174342 -0.32265264
355 0.5032658 0.43732473 0.81792164 0.011093631 -0.008924785 -0.16883314 -0.5664103 0.99684185 0.7238361 -0.17028897 0.6407508 -0.06843564 0.130902 0.37715065 -0.43156683 -0.43422845 -0.5294654 0.09909996 -0.21308987 -0.04858608 -0.37547684 0.022352427 -0.40089303 -0.7630339 -0.98744136 -0.6069848 -0.2823856 -0.16656743 -0.06615453 -0.09641028 -0.0227275 0.34625003 -0.45101714 0.43226495 0.42100075 0.041075334 -0.10147782 0.016501024 0.31548336 0.06781883 0.5397713 0.15109281 -0.10825718 0.020647677 -0.3742494 -0.276847 -0.5923676 -0.32718936 0.1953259 0.17795266 0.20849602 0.33043244 -0.41921365 -0.3822762 0.1740372 -0.013903609 0.120403536 -0.66048515 0.48450035 -0.58107066 -0.104118556 0.19663022 -0.4264844 -0.23214334
330 0.6905079 -0.0054719704 0.3525526 -0.45793346 0.1635344 -0.15310885 -0.2252357 0.5408872 0.49782962 0.1374218 -0.1558614 -0.09307984 0.43578818 0.60087854 -0.17872061 -0.31938353 0.061781455 0.40139946 0.02169078 0.33745605 0.10879731 0.04562621 -0.24227929 -0.265931 -0.51588655 -0.2636829 -0.21906535 -0.3706955 0.42728606 0.17162602 -0.09509283 0.47441953 -0.11856484 0.24254604 0.09387254 0.2442951 -0.03036731 0.0950968 -0.74001527 0.5053246 0.1386957 -0.15403087 0.20484476 0.08814424 -0.21689428 -0.30964458 -0.18488856 -0.23569812 -0.057869133 0.7707402 0.27047732 0.13636261 0.02444541 -0.07955102 -0.40675062 0.12154322 0.22476292 0.23155674 0.28332448 -0.40426603 0.30028197 0.010239061 0.030663025 -0.20469755
74 -0.015042905 -0.18724647 0.45282567 -0.08128648 -0.49823695 -0.41131914 -0.03442307 -0.21834315 -0.10164018 -0.0707257 0.30771905 -0.1083244 0.2020237 -0.07802855 -0.123371676 0.16810359 0.12059265 0.14459799 -0.36711353 0.014002524 0.6271393 0.16140072 -0.09714688 -0.30212614 0.26248953 0.4276427 -0.33292648 -0.603636 -0.13233945 -0.25869334 -0.31226012 0.103129126 0.3103307 -0.07531681 -0.028885158 0.27725673 0.22450484 0.18264735 -0.31593153 -0.065428935 -0.09080788 -0.10276534 0.09344656 -0.3003291 0.029233558 -0.53102225 -0.08584742 -0.28163204 0.2615958 0.271725 -0.1987601 -0.12655616 -0.41697413 -0.0016699862 0.20577772 0.26233926 0.06669833 -0.33072278 -0.30505314 0.24424955 -0.0011551263 -0.038552675 0.061984684 0.01425
308 0.042114127 -0.38949686 0.41407 -0.12212292 -0.47461486 -0.6443095 0.050941415 -0.34235257 0.05971865 -0.11135652 0.36213616 -0.05459725 0.06688413 -0.18123719 -0.17618296 0.3107564 -0.122834824 0.21946622 -0.37699664 0.06343415 0.5650695 0.15802206 -0.0881654 -0.26474428 0.1533976 0.38820544 -0.42018163 -0.35388505 -0.08464706 -0.36778814 -0.21476611 0.004606791 0.0803052 -0.018149592 -0.042719226 0.24687162 0.19455062 -0.06355468 -0.2902925 0.0034932722 -0.12527758 -0.016727192 0.0008393585 -0.24200365 0.19329436 -0.67391324 -0.045851897 -0.27131402 0.24170433 0.36491045 -0.23341456 -0.19752695 -0.25305495 0.027366254 -0.06040382 0.10886453 -0.0071235136 -0.32727662 -0.30162644 0.09557636 -0.078507535 -0.097483665 -0.1082693 -0.21469338
376 1.0509579 -0.5801646 0.06794302 -0.7672686 -0.13445169 -0.12474487 -0.44322428 0.8155047 0.61200964 0.015238838 0.06965772 0.10276905 0.78568715 0.3072264 -1.3130782 -0.50360346 0.21093938 0.5203885 -0.54483026 0.23518972 0.11510652 -0.09809151 -0.66466135 0.04249371 -0.41538283 -0.73092574 -0.89116824 0.52717036 0.6174338 -0.20975062 -0.8223486 0.66598886 -0.28968623 0.44815996 -0.053495754 0.068144836 0.30629054 0.7132829 -0.5733944 0.9752514 -0.3657973 -0.5594673 0.29608887 -0.6332905 -0.12937942 0.57975316 -0.6527418 -0.06290378 0.29343906 0.38178346 0.612889 0.49009418 -0.41109392 -0.01445205 -0.24216022 -0.37526715 -0.3470026 0.04101461 0.26364252 -0.3029218 -0.2550344 0.023419315 -0.3694012 0.4017529
194 1.1814663 -0.19466433 0.48219833 -0.10661389 0.46079877 -0.005469671 -0.8380378 0.1760445 0.6309478 -0.9739871 -0.17165872 0.09489053 1.3047731 -0.048709292 0.7078571 0.70203173 0.42241603 -0.34156808 -0.05723687 -0.2818879 0.12669814 -0.2424516 -0.6028566 0.48640764 -0.5470581 0.19355215 -0.06907936 -1.1234125 0.3198554 -0.14859244 -0.21900412 0.46257177 -0.2461371 0.038837496 0.071266964 -0.117412046 -0.2837514 0.25684646 -0.43938246 -0.0424767 0.73062444 0.13380964 0.80735886 -0.5075825 0.12958328 -0.52159435 -0.039663844 0.20054786 0.7542554 -0.860463 -0.021759497 -0.6451033 -0.78637284 -0.2903995 -0.06781568 -0.35911456 -0.6835241 0.6456417 -0.6317329 0.08337832 -0.48226023 0.27462095 -0.79887575 -1.0303147
181 1.1729891 -0.31688765 0.49214002 -0.050065573 0.44390726 -0.0037076809 -0.713368 0.109697774 0.63931024 -0.9220873 -0.18805902 0.15397474 1.3091688 -0.084030166 0.55220145 0.54562753 0.41454342 -0.25412095 -0.12050267 -0.18143095 0.16033031 -0.12349626 -0.52205867 0.58314675 -0.4315294 0.14447376 -0.06535181 -1.1526787 0.45316127 -0.16242114 -0.122192234 0.5442397 -0.29359087 0.037275665 -0.060984585 -0.0608661 -0.22828919 0.16514862 -0.4682584 -0.13334261 0.8449227 0.31429046 0.77981114 -0.5500226 0.14857528 -0.50632656 -0.019257002 0.16965373 0.74478734 -0.884152 -0.09395713 -0.63160557 -0.74999857 -0.23432547 -0.16793837 -0.4027946 -0.6571267 0.7569615 -0.7115515 0.08095842 -0.42878526 0.36726797 -0.8408163 -1.1219327
129 -0.05744212 -0.37042078 0.42330524 -0.0350124 -0.38770977 -0.5492339 0.0576744 -0.33555174 0.027102837 -0.12526429 0.2992088 -0.24847724 -0.03428972 -0.15967382 -0.077381566 0.17583658 -0.10865904 0.2769965 -0.24805252 0.061454937 0.7680114 0.11425865 -0.08399585 -0.19364274 0.021768413 0.24833521 -0.41223672 -0.411334 -0.11678906 -0.2300321 -0.35196972 0.012130625 0.16331285 -0.09210668 0.0010193723 0.20119266 0.19063842 -0.060087852 -0.30158907 -0.12704459 -0.21066317 -0.114643805 -0.0124281095 -0.067537084 -0.03824366 -0.54942393 -0.16670266 -0.21844576 0.26984173 0.24858463 -0.29040387 -0.14300327 -0.5783972 -0.12802352 -0.06448441 0.060032994 0.03194119 -0.22485246 -0.42614764 0.17270839 0.035389833 -0.08237906 -0.15712179 -0.089485504
302 -0.033494428 -0.40149876 0.42826924 0.04201996 -0.50074935 -0.68999976 0.07202428 -0.24969614 -0.124051094 -0.23376352 0.35385892 -0.2621224 0.04303487 -0.22200215 -0.12099158 0.3402823 -0.100880034 0.18663102 -0.36612728 -0.05328838 0.55908644 0.21187754 -0.090403296 -0.103909336 0.14201276 0.31209165 -0.423329 -0.4141623 -0.09040091 -0.17048359 -0.19280079 0.03751823 0.29339898 0.03590359 -0.010496384 0.07775539 0.10400321 -0.13942747 -0.3294758 0.109836824 -0.091590315 -0.17400722 0.11085199 -0.2004819 0.0104897525 -0.6901215 -0.1013917 -0.2651652 0.20690186 0.43166426 0.03104998 -0.13896717 -0.45899177 -0.10089313 0.034819897 0.26661012 0.024002848 -0.2803234 -0.26737657 0.1413874 -0.092900425 -0.09581904 -0.10637441 -0.14753294
16 1.0998845 -0.0043626544 0.47637698 -0.5803484 0.22621511 -0.22265287 -0.436453 -0.563045 0.0386569 -0.30952853 -0.007612627 0.47869518 0.5245001 -0.6289922 0.22894451 0.007261601 0.34007758 -0.6046685 0.4563432 -0.29944238 0.12855685 0.0748872 -0.38241705 -0.30555016 -0.4931408 -0.22863008 -0.26761436 -0.75829905 0.17651129 0.45761475 -0.29738033 0.102520026 -0.2732913 0.38070408 0.0977757 -0.24895218 0.72175133 0.18139865 0.110137336 0.596632 0.8954053 -0.025532888 1.0122902 -0.40210772 0.8597226 -0.9810115 -0.08532584 -0.10751507 0.5472138 -0.4864486 -0.29382098 -0.32025588 -0.41206008 -0.3923428 -0.22080149 0.12052913 -0.6651691 0.5106326 -0.23554248 0.14288847 0.23373194 -0.29039934 -0.7632365 -0.48977736
315 -0.07702065 -0.642856 0.7422569 -0.57964855 -0.27579445 -0.26095018 -0.105045736 0.20469007 -0.07745133 -0.39200985 -0.105992384 0.20094666 -0.004855076 -0.26919618 0.13093701 0.42492527 -0.48953554 -0.040158615 0.06610499 0.08668479 0.72092026 -0.4982682 0.330676 -0.5199093 -0.21108864 -0.01919386 -0.33900356 -0.6439139 0.024675073 -0.21757294 -0.4862834 0.0074970503 0.36592433 -0.28632087 -0.1760642 0.08548751 0.6781779 0.18986462 0.017379716 0.298949 0.3210145 0.18176621 0.67064077 -0.06193387 0.1507292 -0.10687414 0.32519186 -0.26885852 0.35544607 -0.15434147 -0.46825466 0.4652954 -0.64477456 0.5216171 -0.0023482102 0.3422043 -0.48783892 0.32382458 0.4122917 0.12587817 -0.25968614 0.06925057 0.04982097 -0.039430086
208 1.2062733 -0.20994127 0.582845 -0.0991451 0.39782348 -0.106092714 -0.6484533 0.22002284 0.6464265 -0.7794609 -0.031119531 0.1141813 1.2761729 -0.022285406 0.667326 0.6021408 0.3872011 -0.365453 -0.04751972 -0.29300207 0.120115675 -0.24037363 -0.39578778 0.4902057 -0.39746615 0.26956195 -0.09283883 -1.1013911 0.43797123 -0.089152515 -0.09454363 0.66586703 -0.1607958 0.012974463 0.06644577 -0.0074875117 -0.32382208 0.24295819 -0.36384627 -0.1746463 0.94710046 0.19324835 0.73506856 -0.5534279 0.17874676 -0.55069435 -0.08498505 0.26029608 0.70543534 -0.82308614 -0.038819008 -0.57474864 -0.7115702 -0.22115639 -0.073725775 -0.2964625 -0.7062986 0.8500527 -0.7096327 0.23458464 -0.5763147 0.3010883 -0.79819655 -1.0595362
333 0.8583118 0.07310526 0.35287333 0.40632913 0.43801466 -0.19453627 0.32104826 0.4697177 0.4664137 0.2518448 0.07428477 0.34094682 0.14796886 0.9600806 0.09900398 -0.29191133 0.1064822 0.7239118 0.3433601 0.82236975 0.529848 0.49369228 -1.1520557 -0.3612958 -0.55139256 -0.46299377 -0.60531956 -0.20598653 0.4644177 0.20391482 -0.070240945 0.46800977 -0.20394178 0.29503107 0.06388174 0.5425463 -0.08081334 -0.08451535 -0.07282484 0.4590849 0.26944548 -0.31961137 0.8485347 0.6333881 0.20387857 -0.56295776 -0.36919188 -0.16510095 -0.022573307 0.6507958 0.79055756 0.9830745 -0.36250764 -0.33125222 -0.17099786 0.4893856 -0.5371453 0.3198861 0.27700496 -0.47035417 0.39233404 -0.16191792 -0.04596545 -0.49375182
287 0.75692683 -0.9357178 0.016663158 -0.027459292 -0.11024086 -0.60633844 -0.16053395 -0.59110814 -0.7029194 0.31144547 -0.10987934 0.24653623 0.07235707 -0.008354174 0.44760743 -0.18772899 -0.49165478 -0.076616265 -0.5272334 -0.33213454 0.67964494 -0.007081226 -0.62752444 -1.265583 -0.4333837 0.21525034 -1.0819573 -0.5436757 -0.24100246 -0.75567114 0.31844944 0.07095463 -0.12316498 0.28156617 -0.17112704 0.07409974 0.25419414 -0.3828819 -0.5566212 0.010997337 0.036322996 0.6486901 -0.26331097 -0.19024338 -0.60299 -0.53905416 0.03247471 -0.15740746 0.52560896 0.62358546 -0.0067908457 0.2523634 -0.5685823 0.38991806 0.15929788 0.07747177 -0.00649023 -0.41368178 -0.62749624 1.174792 -0.08546471 -0.50296456 0.39606336 -0.18589333
158 0.7414012 0.5226881 1.0189914 -0.39648455 0.029211428 -0.31271794 -1.08983 0.68772084 0.36012906 -0.6252319 0.24914974 0.16067956 0.0045538554 0.6452458 -0.20999046 -0.7705677 -0.55723 0.5293445 -0.094716355 -0.3676024 0.19263223 -0.23533584 -0.6547359 -0.450289 -1.187948 -0.95851934 0.2731569 -0.3754442 0.2330936 -0.8399108 0.35216957 0.4470941 -0.056112677 0.07456957 0.48840573 0.1173517 -0.024548924 -0.0353359 0.20566349 0.2415409 0.30109262 0.2779544 -0.5807967 -0.20642844 -0.676783 -0.23789851 -0.37731636 -0.48563993 -0.03675544 0.19620506 1.166043 0.26223472 -0.44410712 -0.4699425 0.9980547 -0.26695842 -0.38123906 -0.73443377 -0.031846475 -0.84370327 -0.0492998 0.0026788702 -0.7993026 -0.09826631
327 -0.028335592 -0.33417082 0.51580375 0.014482031 -0.5214511 -0.37642083 0.14389955 -0.41430953 -0.016992155 -0.16731676 0.25074285 -0.122712836 0.084819764 -0.16119637 -0.123216905 0.18327837 -0.026745537 0.1636672 -0.49699113 0.1448976 0.5773761 0.2658584 -0.09018443 -0.27672377 0.19197309 0.16607752 -0.4020918 -0.6339562 -0.094633885 -0.3068879 -0.3116546 0.31385773 0.22836998 -0.12565017 -0.0010027284 0.3708518 0.081066184 -0.104214974 -0.35552585 0.031800997 -0.09589689 -0.11508908 0.09363898 -0.17133525 -0.09991978 -0.53752726 -0.03890257 -0.14861757 0.173242 0.27264142 -0.15752174 -0.13841411 -0.38241133 -0.06863254 0.2162435 0.14978476 0.025106207 -0.21812129 -0.2956172 0.31960207 -0.0042404765 0.08802642 -0.018447038 0.020790009
176 1.0397185 -0.3093768 0.46189192 -0.16471542 0.41749486 -0.00012472998 -0.6933084 0.1987261 0.67955595 -0.8627168 -0.19432892 0.18779075 1.2751018 -0.08081095 0.5818279 0.549207 0.30401945 -0.39223555 -0.17571123 -0.22667283 0.0809799 -0.23751228 -0.69713604 0.54053706 -0.39709327 0.012398975 -0.14441247 -1.0799441 0.39398476 -0.06699773 -0.069066554 0.44004023 -0.19425194 -0.029442236 -0.06913872 -0.04014804 -0.3492106 0.18217488 -0.4131496 -0.0813267 0.90661925 0.19745359 0.8613368 -0.6523832 0.10007362 -0.65786284 0.009126673 0.098032676 0.7153693 -0.7935932 -0.040338762 -0.5803891 -0.7239628 -0.3579105 -0.16448182 -0.4213402 -0.6541073 0.82704544 -0.7647391 0.14442517 -0.5425808 0.48572776 -0.8352089 -1.0614395
420 0.28739107 0.095629066 0.50161445 -0.29920945 0.491649 -0.07536518 -0.40259534 -0.2753253 0.3369227 0.06325421 0.6734172 -0.28554437 0.5140947 1.0393131 -0.22300148 -0.027738456 -0.5485653 -0.4298536 0.17033036 -0.077071324 -0.110930726 0.14287868 0.09630252 -0.55754024 -0.39197743 -0.11810353 -0.111222856 -0.16849753 0.5260173 0.12576488 0.3062082 0.07467217 0.073412545 -0.022651386 -0.5056808 0.20345496 -0.17284372 -0.39845213 -0.18797797 0.2168904 0.29330063 0.1178538 0.19026726 0.02787541 -0.0581074 0.25986797 -0.0758355 -0.75231504 0.068117455 0.21166945 0.24120979 -0.39943525 -1.0856915 -0.06489925 0.06065206 -0.35454917 0.33058357 -0.47155657 0.009651297 -0.30612853 -0.12770319 0.51154494 -0.50359005 -0.043849494
143 0.30487448 -0.501629 0.076576196 -0.65893155 0.29023203 0.1623623 -0.6774234 -0.71875614 -0.20430948 0.062189605 0.12238264 -0.38263577 0.25656882 0.8084042 -0.1438948 0.33234838 -0.19164905 -0.12703699 -0.2943365 0.068093956 0.4051308 0.06923758 -0.07501307 -0.26415873 0.37862968 -0.28529683 -0.7777531 -0.5828715 0.8211311 0.25099987 -0.34096575 0.022568585 0.31736916 -0.18001595 0.83332455 -0.002908301 -0.46880338 -0.05755779 0.5410819 0.09393241 0.116149314 -0.408439 -0.6177793 -0.6447084 0.06742761 -0.23008516 0.25021157 -0.083980195 -0.03525012 0.10704283 -0.23428765 0.28834805 -0.19108303 -0.2772788 -0.044043053 0.05496632 0.37254384 0.55834746 0.42169714 -0.12660126 -0.49591348 -0.40558514 -0.71095175 -0.5321698
361 1.0934355 -0.6503661 0.13268137 -0.61564744 -0.081241734 -0.02870189 -0.44199798 0.65686023 0.6818823 0.06745953 0.09549456 0.0015740381 0.7201684 0.41757438 -1.3323461 -0.6454906 0.25161272 0.4604536 -0.44045678 0.30426696 0.107727446 -0.18328513 -0.39237982 0.111398466 -0.43316057 -0.74665076 -0.90114576 0.46026587 0.4993839 -0.20117122 -0.9122352 0.62668526 -0.3202578 0.49313065 -0.23455223 0.011602862 0.17172071 0.6705449 -0.47206464 0.8047115 -0.36127356 -0.42533618 0.29547867 -0.55122095 -0.3426993 0.4100354 -0.8251257 -0.03492562 0.42786697 0.44315425 0.55941206 0.4866055 -0.20164116 -0.10367618 -0.14380854 -0.41831183 -0.3730541 -0.08331571 0.1978354 -0.20062166 -0.19794828 0.12278745 -0.3897519 0.259082
291 0.60224915 -0.95843446 0.02040008 -0.046474043 0.04868799 -0.60622853 -0.12641607 -0.5503922 -0.77767575 0.32757604 -0.15259276 0.32341442 0.002049112 0.008545932 0.35374472 -0.08749563 -0.545499 -0.037960645 -0.6585695 -0.31843022 0.7058372 -0.03716164 -0.7156346 -1.1637012 -0.52199954 0.1682622 -1.1766444 -0.68968296 -0.36612192 -0.73276407 0.30656323 -0.033907067 -0.19608141 0.2544561 -0.06911836 0.1119354 0.33345383 -0.466057 -0.69841146 0.121806264 0.0032775146 0.46569806 -0.1886441 -0.38303167 -0.472643 -0.58512384 -0.080237806 -0.25499052 0.57861835 0.47278112 -0.01766177 0.2390603 -0.4735949 0.23455195 0.33484003 0.06796107 0.1002668 -0.52098835 -0.53050876 1.1922998 -0.00915435 -0.34920198 0.45008573 -0.21225052
57 0.35917786 0.5232857 0.91780925 -0.68789417 -0.5488515 -0.765899 0.1414731 -0.8973993 -0.17156462 -0.28725484 0.68011576 0.18621245 -0.78773147 -0.32526603 -0.39595005 0.017278973 -0.29636446 0.6650304 0.09115674 -0.5657594 0.7857219 0.17795484 -0.10478494 -0.06303376 0.0606304 0.57966727 -0.8740644 -0.10174917 0.25662592 -0.22659793 0.003309312 0.35584587 0.11371188 0.39754757 -0.00017868716 0.69555515 -0.26458722 -0.05059968 -0.194968 0.34327364 0.00663845 -0.46053454 0.9603902 0.0064796535 0.070744455 -0.43111378 0.1946835 0.15053028 0.04199319 -0.32284892 -0.004711152 1.1828287 -0.33598882 0.19685856 -0.15565948 0.60225636 0.29612476 -0.4657833 -0.5057718 0.4627402 -0.71379024 0.30126953 -0.43299136 -0.2763588
179 0.6919208 -0.661051 0.51038873 -0.7591825 -0.090289906 0.16397226 -0.12556952 -0.46681467 -0.3194098 0.024641868 0.044509176 0.107059404 0.48179126 -0.111863844 0.25903192 -0.08526656 -0.15746063 -0.9535612 0.5942209 -0.6395508 0.5906006 0.67740023 -0.21795155 0.52026457 0.0020142642 -0.782413 -0.019133074 -0.8746066 0.21517761 0.47699007 0.16437785 0.35925403 -1.0011296 0.41882288 0.6124839 -0.20217565 0.76520973 1.0149769 -0.49077463 0.45055336 1.2417372 0.37201485 1.1740333 -0.15634625 0.9759184 -0.86951315 0.26736212 -1.389309 0.61605877 -0.005794312 -0.3500114 -0.07647559 -0.0532018 -0.2167246 -0.2609288 0.21301693 -0.46586692 0.2681367 -0.65996313 0.27339023 0.489692 0.30446476 -1.4019201 -0.4869891
400 1.1709613 -0.015563801 0.35566252 -0.5297733 0.19129454 -0.029995881 -0.36071786 -0.6667763 0.08872667 -0.45171157 -0.114553176 0.45163608 0.43333808 -0.59904575 0.206416 -0.14797296 0.2663813 -0.5674746 0.44505748 -0.32700545 0.30082342 0.11372424 -0.26286727 -0.18516633 -0.5167988 -0.25005454 -0.25012118 -0.86110896 0.1425956 0.30749175 -0.34482008 0.16399479 -0.22251612 0.40236878 0.08578271 -0.2580223 0.65724564 0.20305473 -0.035560746 0.54382515 0.7356385 0.028892413 0.97822386 -0.2841674 0.92564195 -0.9127111 -0.07717006 -0.25261888 0.5171876 -0.4587107 -0.29708418 -0.36986935 -0.43709093 -0.19541514 -0.14429706 -0.024247633 -0.6906014 0.5298624 -0.1808378 0.018662877 0.18025985 -0.32248834 -0.6274831 -0.5542723
121 0.30923408 0.1459461 0.48172942 -0.22364718 0.58820873 0.05900358 -0.22028899 -0.31974903 0.29547676 0.17018963 0.60622543 -0.2959409 0.52525556 1.0539999 -0.3887724 0.21820784 -0.45071256 -0.29417562 0.26349902 -0.10643495 -0.10509211 0.23001994 0.1220841 -0.73627764 -0.42324203 -0.14175704 -0.15369889 -0.29164454 0.41086316 0.11457769 0.072300225 0.10958394 -0.1076829 -0.08502492 -0.43195665 0.29765943 -0.075634226 -0.3698282 -0.31395113 0.2223133 0.26708746 0.22017162 0.26879376 -0.106350124 -0.10947008 0.2945063 -0.2196324 -0.81715935 -0.0243546 0.23084053 0.34437856 -0.3185784 -1.1252605 0.09005607 0.18201967 -0.425357 0.36683708 -0.45599562 -0.063001774 -0.36586097 -0.186875 0.5381834 -0.582649 -0.08587817
76 -0.015037189 -0.33897868 0.51693314 -0.009102565 -0.46888965 -0.4631969 -0.21298772 -0.31670606 -0.52619 -0.011315453 0.97312975 0.30905506 -0.2729517 0.05744499 0.15474315 -0.15174702 0.687733 0.5493519 -0.5697289 0.017844463 0.6571104 0.017195709 0.10892715 -0.7673257 0.6819874 0.56929296 -0.24274386 -0.3055802 -0.9909053 -0.22260949 -0.019708963 0.5941868 -0.16616438 0.22569199 0.06201074 0.48868018 0.821968 0.27172452 -0.5213691 0.7125007 0.59280306 -0.23197924 -0.12256762 0.22498165 0.20444453 -1.0542407 0.03441424 -0.16403691 0.34618476 -0.10665278 0.035228007 0.20179631 -0.67802685 -0.8710377 0.009812571 -0.38384 -0.20795657 -0.44455013 0.23706305 -0.20029339 -0.086635284 0.08392352 -0.22715181 -0.7676345
329 0.557164 0.009897945 0.4324767 -0.4761287 0.090361625 -0.10870945 -0.37984636 0.3833323 0.5679827 0.18416667 -0.25932187 -0.04912967 0.35288686 0.62275994 -0.18395625 -0.23871033 0.09691212 0.33120885 -0.037019093 0.28013685 0.24201256 0.015947849 -0.20027746 -0.30658054 -0.517271 -0.30866325 -0.35346773 -0.31329322 0.44914618 0.029799212 -0.21755762 0.53981036 -0.2956552 0.30115733 0.0749663 0.14322418 -0.07494228 0.13444047 -0.61681867 0.5816419 0.13831715 -0.078396976 0.2130671 0.15065612 -0.1833266 -0.28784788 -0.3272824 -0.11773534 -0.039056256 0.6092663 0.37351355 0.1496232 0.09529542 -0.022025343 -0.39469185 0.10451436 0.36887354 0.25525904 0.17733105 -0.39569002 0.1945158 0.043232977 0.11654685 -0.16119815
175 1.1765277 -0.30243433 0.51469415 -0.0917452 0.4592865 -0.0850961 -0.71172583 0.15837556 0.6298397 -0.85733384 -0.17443724 0.2667265 1.1942533 -0.09866013 0.56220543 0.5993863 0.36889678 -0.2537529 -0.13862762 -0.19897686 0.046704642 -0.08976726 -0.53383476 0.5178184 -0.3685859 0.15900065 -0.10154408 -1.1347768 0.43408516 -0.23482431 -0.06472767 0.5781126 -0.21227007 -0.018243235 -0.12588339 -0.02104488 -0.24221112 0.12966336 -0.32833448 -0.108644985 0.845083 0.24982369 0.7661382 -0.598586 0.060096633 -0.56671 -0.09930492 0.1364989 0.7377722 -0.84582686 -0.11663096 -0.57719547 -0.59170794 -0.2567388 -0.085725725 -0.2323237 -0.5637296 0.83883095 -0.6928174 0.11124391 -0.32817373 0.44822112 -0.916857 -0.9991901
65 0.49163085 -0.5967481 0.04224353 -0.48716405 0.34469 0.26538378 -0.53386545 -0.668962 -0.13072537 0.1225252 0.15991725 -0.41860557 0.20924851 0.78009534 -0.11175456 0.26921704 -0.22766614 -0.038850557 -0.29759145 0.092799194 0.2423038 0.11919211 0.04962397 -0.27470058 0.2368784 -0.35549048 -0.72217256 -0.63837904 0.7556423 0.21743993 -0.31908897 0.17514886 0.31320986 -0.23392108 0.7683958 -0.055261184 -0.49912605 -0.0950338 0.5862035 0.044274632 0.09382623 -0.36459872 -0.5610693 -0.7408609 0.059222452 -0.158073 0.33817518 -0.18418463 0.06863948 0.21794787 -0.4013007 0.42044902 -0.2744324 -0.30375 -0.19208813 0.08495665 0.4424712 0.47219706 0.39056775 -0.23068179 -0.59311914 -0.53402185 -0.73407716 -0.4961437
133 0.48738503 0.11845198 0.5455707 -0.20774864 0.55291647 -0.10379996 -0.20294864 -0.15661971 0.3957125 0.2037012 0.5951777 -0.22136037 0.47310352 0.9448149 -0.21926078 0.11505296 -0.46054655 -0.32503304 0.14521126 0.056691796 -0.16958973 0.19360997 0.22142822 -0.5360714 -0.43305978 -0.13624044 -0.14085901 -0.090426326 0.4170644 0.14801922 0.18140507 0.09664463 0.03478269 -0.06360794 -0.32465702 0.35997367 -0.16396222 -0.31167248 -0.037418168 0.24785751 0.2944243 0.15779747 0.18031982 -0.08512322 -0.050215267 0.1523774 -0.23740923 -0.8040587 0.1751653 0.21753295 0.11996127 -0.23635902 -1.0401938 0.12568972 0.02024238 -0.34914264 0.26256683 -0.5027859 -0.07245564 -0.43774328 0.015880791 0.5078795 -0.5835467 0.0055420524
299 0.4995029 0.24304055 0.5407213 -0.18140967 0.68915105 -0.058496624 -0.48360848 0.29472756 0.3768269 0.28633347 -0.4576717 0.3269321 0.6554653 0.29298183 -0.6951399 -0.28051823 0.13490485 0.7434132 0.22581784 0.35359836 0.057417978 0.05563429 -0.21919908 -0.5542136 0.041773506 -0.09574321 -0.10947322 -0.7034803 0.2964607 -0.2325473 -0.5412991 -0.3524318 0.04678701 0.06922431 -0.2921703 -0.2899904 -0.81753194 -0.10578855 -1.6194837 1.1288012 1.182243 -0.5536907 -0.49386212 0.057648387 -0.391794 -0.41746852 -0.46934727 -1.1082219 -0.54961634 0.11724428 0.37212485 0.60222274 0.31836787 -0.45002002 -0.46547583 0.49988884 0.024705995 0.05723132 0.4537158 -0.62948775 -0.042431198 -0.85635966 0.064068444 -0.22156964
222 1.0256479 0.7225124 0.9775686 -0.40683183 0.102397196 -0.1318234 -0.90872127 0.76252466 0.32520804 -0.71851283 0.2496967 0.075937726 -0.016547427 0.92674047 -0.061961416 -0.75583196 -0.53808045 0.6302278 -0.27198446 -0.42723578 0.18891512 -0.26039132 -0.5493545 -0.55206144 -1.2216866 -0.99815214 0.42478785 -0.42709538 0.24646024 -0.8478595 0.38550708 0.41648468 -0.11382675 0.076814085 0.30608472 0.1720594 -0.15417895 0.024519764 0.09685001 0.02889764 0.33620286 0.019904489 -0.27913246 -0.19782098 -0.61520064 -0.3656325 -0.4550523 -0.5673369 0.057746258 0.3117823 1.002332 0.40008935 -0.32574424 -0.37688932 0.96417105 -0.29413515 -0.601955 -0.79841006 -0.00159241 -0.96589124 -0.0843251 -0.22766177 -0.6498351 -0.016235707
21 0.35649526 -0.5514682 0.050454557 -0.6353027 0.33745658 0.37992182 -0.52165645 -0.73811555 -0.17408583 0.056348138 0.11709107 -0.44861504 0.1246747 0.89019 0.041168526 0.35670593 -0.3151328 -0.03847083 -0.21344645 0.03785918 0.38906854 -0.019210491 -0.04634234 -0.28617495 0.3492661 -0.37710568 -0.9390453 -0.574357 0.6006385 0.0566694 -0.27191377 0.18553461 0.28815576 -0.04005824 0.82327485 -0.12782027 -0.6224734 0.006784459 0.5516538 0.09846222 0.04905517 -0.34128797 -0.5107453 -0.62472624 0.3115507 -0.109478526 0.21655795 -0.012925489 -0.0072237137 0.2923452 -0.2626981 0.1722994 -0.29289094 -0.26986295 -0.059528295 0.06730652 0.35119408 0.4546569 0.3625527 -0.26641276 -0.6537015 -0.49379253 -0.67582333 -0.5411807
362 0.46841985 0.10369792 0.42380124 -0.30629298 0.18901017 -0.09508271 -0.31625384 0.47169375 0.52750903 0.17661329 -0.17055976 0.018144036 0.42092416 0.78532755 -0.19711925 -0.38199973 0.12740758 0.2577474 0.103789315 0.29538676 0.3605986 -0.11495346 -0.33966994 -0.33992106 -0.39240265 -0.33607322 -0.31079608 -0.39174306 0.534398 0.01554411 -0.042581853 0.4886869 -0.0908798 0.40847677 0.14654367 0.033102322 -0.19165072 0.051566947 -0.5899721 0.5893314 0.15592954 -0.20023327 0.2700814 0.15097255 -0.12860791 -0.0664908 -0.09624948 -0.20189509 0.083591074 0.7128797 0.28047842 0.0369756 0.04573217 -0.08848443 -0.43075806 0.19918126 0.30409777 0.18474771 0.15056348 -0.40645665 0.26847222 0.04894517 0.13287118 -0.23824549
282 0.42819488 -0.11001351 0.36437985 -0.4053558 0.2673264 -0.051405445 -0.2819711 0.50138724 0.5835302 0.15115875 -0.207706 -0.070378944 0.29935333 0.74456054 -0.15983629 -0.2439356 0.030641226 0.23847847 0.063047655 0.19728853 0.31170505 -0.19271286 -0.3257168 -0.35108227 -0.4542685 -0.31705576 -0.2619469 -0.28986213 0.39175135 -0.00027540905 -0.080651425 0.5309679 -0.31948233 0.29680577 0.22827479 0.17290409 -0.1416531 0.07175903 -0.60139346 0.53110003 0.17747003 -0.16557479 0.31013158 0.053157263 -0.12526298 -0.16784431 -0.20016886 -0.074092984 -0.03500375 0.66960955 0.2406977 0.062334716 0.04539305 -0.020088632 -0.37350047 0.1836815 0.40223464 -0.015858924 0.070036225 -0.43995312 0.3018287 -0.003788298 0.077395 -0.26595393
84 1.1043109 -0.28502524 0.51019925 -0.13474604 0.29856956 0.022982914 -0.6076044 0.058314566 0.66004694 -0.981356 -0.20936692 0.0035236448 1.285175 -0.093807414 0.60319126 0.5434566 0.39417875 -0.23832369 -0.10362748 -0.36041528 0.1898468 -0.34476277 -0.64243937 0.50840497 -0.53236955 0.048795562 -0.11291736 -1.082572 0.4559081 -0.10799085 -0.015374862 0.5654226 -0.27835986 0.004608686 0.013062948 -0.056718536 -0.21284062 0.14542308 -0.40046918 -0.14717741 0.80401194 0.24511158 0.7976519 -0.57262945 0.17735735 -0.5653491 -0.015931506 0.18484506 0.6817822 -0.73516446 -0.032250654 -0.62246746 -0.60993797 -0.28199893 -0.19492382 -0.45166892 -0.6955178 0.7783966 -0.7573343 0.039125063 -0.45445177 0.48169938 -0.84975606 -1.1363002
51 0.36156517 0.20944239 0.58131725 -0.2530531 0.5647178 -0.16407742 -0.34164008 -0.25648326 0.22895361 0.061819583 0.6161412 -0.26922533 0.65945613 1.0073191 -0.2555393 0.07252164 -0.6041469 -0.42029476 0.09493521 0.08555925 -0.1817916 0.020140113 0.04902612 -0.62394357 -0.44936228 -0.10709247 -0.16302596 -0.10782408 0.29525778 0.16027959 0.06728115 0.06799409 0.032228734 0.12632231 -0.4206303 0.2653053 -0.22289832 -0.35181257 -0.123114064 0.26913163 0.33857384 0.09540942 0.1643696 -0.08627423 0.030794667 0.24906945 -0.123010665 -0.7695891 0.13982296 0.26880822 0.19245872 -0.32626024 -1.07302 0.030472025 0.13004693 -0.32195836 0.34260407 -0.43874326 -0.10385111 -0.36070538 -0.07009034 0.60188925 -0.44155964 -0.0061809462
87 0.093547046 -0.38630864 0.40693808 -0.10701611 -0.48073763 -0.6170347 0.10672413 -0.3195675 0.09817058 -0.17054331 0.2502178 -0.11233703 -0.051619977 -0.1347708 -0.052989002 0.2919033 -0.028321344 0.10235356 -0.28752336 -0.12788825 0.7618847 0.22795439 -0.050531715 -0.18681787 0.16401288 0.33669084 -0.5425237 -0.35079584 -0.17435338 -0.24010514 -0.19047105 0.11397874 0.15638529 -0.089565255 -0.012939136 0.24587718 0.05421714 -0.071796454 -0.26603538 0.10795862 -0.122954465 -0.07504565 0.034629095 -0.13193165 0.11528166 -0.59153306 -0.19539179 -0.2956944 0.16190118 0.32133296 -0.09317301 -0.2575993 -0.50046283 0.037038967 0.08344354 0.16270666 -0.03292552 -0.18511628 -0.17834714 0.36076 -0.19006169 -0.03659021 -0.037354622 -0.10267592
101 0.34058303 -0.5264689 -0.050528154 -0.580359 0.42661026 0.2568661 -0.5421804 -0.73736876 -0.19269489 0.06125386 0.17904507 -0.4391343 0.21054259 0.84301686 -0.13884553 0.23890987 -0.33677316 -0.013322657 -0.36369273 0.098992206 0.43629357 0.037671443 0.06520965 -0.2790435 0.34821096 -0.362496 -0.7472207 -0.6387609 0.705489 0.16845906 -0.35149208 0.11189892 0.2856912 -0.09712316 0.82020926 -0.06403356 -0.5108117 0.042857345 0.5709432 -0.028350718 0.06429023 -0.38813582 -0.48904693 -0.6760238 0.0818872 -0.2393876 0.20228598 -0.060852904 0.037599817 0.26148468 -0.26660135 0.27361017 -0.20193046 -0.24781676 0.026585564 0.09668918 0.4162078 0.6389559 0.3602488 -0.15779966 -0.5783579 -0.45838228 -0.67124814 -0.6097671
312 0.043174006 -0.4045574 0.4408695 0.03800193 -0.66799736 -0.30198655 -0.0052817776 -0.25839087 0.12105239 -0.17178401 0.30795762 -0.1955612 -0.036600348 -0.17200965 -0.03961827 0.31903097 0.08550266 0.07510576 -0.2730209 -0.0155261 0.68313265 0.13972668 -0.051360734 -0.34784523 0.22961678 0.28814012 -0.322663 -0.4042636 -0.064022824 -0.2504194 -0.27754983 0.11505456 0.19445087 -0.06405696 0.0011457179 0.26291505 0.1804721 -0.10435254 -0.38471705 0.053188816 -0.26010874 -0.02590659 0.03543291 -0.115338385 0.024922442 -0.57706296 -0.1304034 -0.3588869 0.28561494 0.24537466 -0.036312822 -0.2233403 -0.46659166 -0.08479095 -0.015043 0.25307003 0.09027155 -0.19601253 -0.33536124 0.17797172 -0.26179823 -0.081174195 -0.026963254 -0.033674467
160 0.2069362 -0.63236916 -0.09497028 -0.5874784 0.44790643 0.20095414 -0.63983005 -0.6611633 -0.25844494 0.088161476 0.19303893 -0.3629349 0.16223815 0.78114 -0.028024998 0.2381216 -0.3082928 0.009312912 -0.23465842 0.005764193 0.47638142 -0.006645223 0.043466613 -0.20228432 0.34079412 -0.41615826 -0.74655014 -0.6666128 0.7686156 0.15472317 -0.34994537 -0.017799797 0.22483796 -0.0784788 0.89000475 -0.061753638 -0.5293643 -0.12903312 0.5685283 0.16472931 0.12259413 -0.49847168 -0.43795457 -0.64238036 0.09141664 -0.26539174 0.18430664 -0.14279528 -0.0031101995 0.12038456 -0.25598148 0.24315813 -0.25258383 -0.16443495 0.015282887 0.03304564 0.4889967 0.4758018 0.5180119 -0.22849347 -0.5813396 -0.3628249 -0.66866505 -0.638377
221 0.32052493 0.09403007 0.5825161 -0.20332563 0.6101004 0.087047204 -0.25599772 -0.23370719 0.24514036 -0.023589864 0.7366454 -0.16853005 0.49278057 0.94935334 -0.24354462 0.040595878 -0.46353722 -0.4613876 0.041028686 -0.0014955567 -0.14240064 0.18537818 0.08102409 -0.6333629 -0.3533844 -0.09481409 -0.19338223 -0.26147476 0.4137932 0.27220723 0.23459664 0.14833345 0.015867868 0.06358671 -0.36719185 0.15991627 -0.18815915 -0.4440416 -0.30826756 0.19133995 0.29359797 0.13051277 0.04748176 -0.092142805 0.06839669 0.2810684 -0.25761813 -0.77995354 -0.114687055 0.21651162 0.2649272 -0.3169056 -1.0418607 0.0236729 0.10281081 -0.27822992 0.35423964 -0.40933865 -0.11138928 -0.38438532 -0.13357219 0.58533037 -0.53922933 -0.07593502
387 0.6630575 0.045645934 0.3218029 -0.4279616 0.19742717 -0.1399525 -0.26746067 0.5279339 0.5918782 0.3743749 -0.1996394 0.067642294 0.46155342 0.6605666 -0.11562707 -0.20155062 0.03028845 0.4129956 0.094503775 0.44763064 0.18205033 0.04158113 -0.2565181 -0.15805891 -0.53094393 -0.34181547 -0.38550526 -0.26821434 0.3737901 0.19876134 -0.27946857 0.5261623 -0.1723846 0.2610825 0.19853118 0.27058876 -0.1305049 0.043649934 -0.587233 0.5573496 0.15390745 -0.21776614 0.23999035 0.20336887 -0.14959826 -0.32551113 -0.21290211 -0.17489287 0.025287354 0.5006647 0.38808978 0.053684343 0.0023912569 0.08864188 -0.26059327 0.09692918 0.3672269 0.13457683 0.17551933 -0.25771397 0.13242738 0.14727461 0.11336476 -0.2522137
401 1.051179 -0.5968642 0.09673944 -0.5696704 -0.15325493 -0.1390985 -0.44794533 0.5634252 0.5836999 0.007327023 0.037618883 0.08522227 0.7497853 0.3902622 -1.1983459 -0.6907085 0.27988046 0.49441007 -0.5029281 0.32818976 0.07413463 -0.008503029 -0.45166937 0.08775274 -0.41064844 -0.7154864 -0.8104481 0.44636935 0.71511376 -0.35255104 -0.82888776 0.578336 -0.17029099 0.4937955 -0.21054737 -0.13632601 0.3034748 0.596025 -0.48906934 0.9541305 -0.3777656 -0.49271262 0.30687806 -0.4513337 -0.25612628 0.4576328 -0.7295312 -0.08110946 0.4442671 0.4449586 0.67207474 0.504682 -0.2643995 -0.08761083 -0.36149165 -0.37525138 -0.34056184 0.07996739 0.30090228 -0.1220884 -0.24504197 0.014548586 -0.32503572 0.23480447
182 1.0314956 -0.24618119 0.46702224 -0.07711556 0.46315932 -0.03186697 -0.695775 0.10560974 0.6444223 -0.8721878 -0.10865615 0.22722661 1.2462245 -0.08859324 0.6631846 0.44976965 0.2848263 -0.38166583 -0.12371849 -0.39475858 0.12807454 -0.12739912 -0.6790742 0.53067607 -0.41982257 0.2184299 -0.076886825 -1.0628382 0.47431132 -0.13810904 -0.13364409 0.5547404 -0.3551926 -0.0012519925 -0.10938912 -0.11317043 -0.28625196 0.22353867 -0.3178522 -0.04520427 0.82878804 0.24858603 0.7348327 -0.56650054 0.07996821 -0.60227233 0.054324705 0.14089075 0.7440101 -0.7610664 -0.04348818 -0.5468178 -0.7122376 -0.356147 -0.22051914 -0.3172699 -0.58251476 0.8908305 -0.6519731 0.19191028 -0.44721138 0.38603827 -0.9379056 -1.0138837
88 0.7040716 -0.6288881 0.49685597 -0.714315 -0.07198544 0.08295518 0.043669958 -0.42224428 -0.47128123 0.020136924 -0.08741056 0.06389053 0.3411808 0.0024037764 0.2591668 -0.20900218 -0.16322167 -0.96466213 0.6203183 -0.44490647 0.63135093 0.55911404 -0.19386415 0.5520295 0.044773534 -0.6168506 -0.021831185 -0.8810769 0.24934012 0.3891018 0.114265755 0.31512403 -0.91588205 0.3920116 0.74776405 -0.21789666 0.68685967 0.95327854 -0.471901 0.56431925 1.4695935 0.2817833 1.1630294 -0.069723904 0.94862396 -0.8911296 0.26182267 -1.5002553 0.6634827 -0.05359043 -0.40465948 -0.042894684 -0.13096216 -0.13027394 -0.211028 0.19245812 -0.5363953 0.32870698 -0.6618582 0.20807917 0.45526662 0.34365037 -1.3817633 -0.34349993
293 0.5110474 0.07385586 0.39208838 -0.42451537 0.2665688 -0.14626513 -0.23687193 0.64386576 0.49709842 0.22634311 -0.20256583 -0.019325338 0.3033781 0.6532519 -0.22304183 -0.31644586 0.01177844 0.32012483 0.10370981 0.29609862 0.30513373 -0.017599033 -0.37327296 -0.2782924 -0.50046235 -0.21903689 -0.30332395 -0.2872583 0.38379493 0.07001754 -0.074638516 0.5171362 -0.30670223 0.18403673 0.11030325 0.055116706 -0.1880108 0.08390842 -0.5240373 0.5246482 0.09428856 -0.21849379 0.21185744 0.17494948 -0.14541367 -0.28385514 -0.19476159 -0.21507563 0.0755842 0.58730334 0.3037858 0.06202626 -0.06506398 0.11904664 -0.37822694 0.029451037 0.37970522 0.13232543 0.17268135 -0.3714701 0.21667281 -0.14006394 0.09349249 -0.40117303
177 0.9685158 -0.88322055 -0.011669685 -0.79276043 0.70214176 -0.2189173 0.039975777 -0.4376588 0.18033956 0.06390195 -0.22540002 -0.57644516 0.07447134 0.6744236 0.09381891 -0.10299493 -0.15672441 -0.97414786 -0.63915414 0.55765474 0.78242254 0.22172497 -0.2707961 -0.33192465 0.62187266 -0.17566627 -0.52257264 -0.43656525 0.17374137 0.7450771 -0.68080235 0.9071164 0.54302657 -0.23541473 1.0462614 -0.30488238 -0.30434775 -0.18903615 0.3464921 -0.2744415 -0.13447995 -0.37615585 -0.5597563 -1.2478555 0.2553836 -0.14206317 0.2174024 0.003897691 -0.19137757 -0.3716092 0.5286268 1.0284833 -0.30594814 -0.91846573 -0.066514224 0.21344496 0.97278386 -0.16874456 0.35725257 -0.2832665 -0.18162887 -0.41841644 -0.96990186 -0.48849276
108 0.6296845 -0.2589762 0.20984766 -1.194802 0.76587415 0.34407833 -0.012815779 1.0600612 -0.09502167 -0.021299798 0.8678523 0.10812048 1.3392881 0.6047411 -1.6520917 0.6747111 0.022314532 -0.2549019 0.66954476 0.56443775 1.1934035 -1.0885096 -0.2662008 0.81914777 -0.4492666 -0.0863993 -0.49449208 -0.55732775 0.5313481 -0.32200903 -0.033348564 0.9430723 -1.1206745 -0.3890872 -0.23224965 -0.5784421 -0.13101225 -0.22099236 -0.87165475 0.23421942 0.57447207 -0.19755433 -0.6491371 0.3699918 0.3524109 -0.6896115 -0.34924597 0.6861251 0.36983252 1.1073545 1.0756667 0.7453654 -0.5697355 -0.703016 -0.38726592 0.54590493 0.5647992 0.070596375 -0.07491472 -0.12995556 0.49524745 0.12795666 0.53959185 0.082254834
381 0.60051405 -0.016676903 0.35828584 -0.5722438 0.074365824 -0.16452815 -0.37117776 0.5987201 0.56157905 0.27654645 -0.22224663 -0.001447655 0.3589629 0.60251075 -0.14684385 -0.3442936 0.09422872 0.26080978 0.13614465 0.33694732 0.28136697 -0.006616552 -0.2960316 -0.24730404 -0.5207909 -0.3077952 -0.32997835 -0.26743504 0.47299185 -0.0010968606 -0.14553964 0.55568147 -0.19462922 0.28575104 0.1305293 0.123300776 -0.22388203 0.07452556 -0.59498507 0.6037192 0.099150166 -0.20610663 0.16726202 0.21193576 -0.2849874 -0.25027078 -0.24468054 -0.22597414 -0.030137416 0.5778631 0.23309474 0.09695536 -0.04044243 -0.027082326 -0.40099627 0.18104675 0.34039032 0.1087446 0.2049268 -0.42167595 0.112985656 0.07688162 0.05102749 -0.29487127
314 0.11384651 -0.31987903 0.36738953 -0.8546372 -0.67813665 -0.22625339 -0.06951758 0.4378422 -0.19591434 0.054408427 -0.060686145 0.4989644 0.13507219 -0.19159701 0.09281226 1.3959342 -0.6751119 0.28990728 -0.14592601 0.38579687 0.9759934 -0.23997588 0.108364515 0.31690034 -0.068040244 0.011960813 -0.8221826 -0.97678703 0.24039216 -0.099539034 0.07246887 0.73257196 0.3168264 0.3248972 -0.62483186 -0.1304486 1.0193102 -0.4862394 -0.019109976 -0.31318596 0.828692 0.1822845 0.70687413 0.0464714 -0.3159372 0.27927113 -0.1611331 -0.6472284 0.97214645 -0.35589832 -0.89709634 0.6348017 -0.5285227 -0.40117592 0.7281704 0.6836041 -0.19928151 0.96181965 0.6790599 -0.16910882 0.045873206 0.16083254 -0.19026107 -0.16584146
347 0.55168545 0.049719073 0.3359804 -0.32476237 0.2292266 -0.16932403 -0.35387787 0.62117183 0.48255607 0.30203223 -0.2655698 0.06873334 0.33865505 0.7178444 -0.18121082 -0.3603102 -0.00924568 0.29548863 0.07118799 0.3464406 0.386408 -0.04618095 -0.2734713 -0.27562556 -0.49912626 -0.17291486 -0.30435914 -0.3555102 0.5097247 0.07097853 -0.15003523 0.5176644 -0.23697695 0.25888872 0.06946358 0.20511927 -0.08540476 0.07829738 -0.5506617 0.4515779 0.054452043 -0.10907258 0.29996115 0.1477513 -0.1875894 -0.368938 -0.13523832 -0.24040288 -0.0192355 0.58505714 0.16447623 0.09360795 -0.07273893 -0.112521216 -0.617937 0.15519132 0.43502668 0.15253884 0.2377046 -0.4220999 0.30342054 -0.09670591 0.13796988 -0.1545702
69 0.90806997 -0.5768062 -0.051942803 -0.54507303 -0.15778707 0.18614487 -0.89989054 -1.0729052 -0.115334354 0.17249024 -0.15872763 -0.714731 0.7829165 0.8600492 0.24834421 0.019803848 -1.041625 0.097326666 0.47135177 0.64019054 0.62467396 0.28512436 0.11497876 -0.054085042 0.58372384 -0.15505444 -1.3969842 -0.33687204 0.2695661 -0.046157617 -0.79088444 0.26572585 0.18904527 -0.24687211 1.007434 -0.044269145 -0.9221052 0.42012706 0.2883248 0.04376809 0.36964986 0.25270447 -0.35077718 -0.74421066 0.27930796 0.40761593 0.29741955 -0.009416881 -0.12838066 0.33878854 -0.3046164 -0.22580835 0.053315517 -0.67929006 0.5788404 0.6805369 0.6902248 0.1845198 0.38167462 -0.30628327 0.11337104 -1.0736327 -1.0611641 -0.5408413
