468 64
462 -0.052502286 0.08030357 0.43802777 0.13581936 0.0611539 -0.2713038 0.18224554 0.42484638 -0.19154385 -0.22839761 0.37393266 0.286495 -0.22566366 -0.22879857 -0.53394514 0.115003884 0.04541916 -0.25701302 0.20211971 0.27193147 0.14481363 0.32425672 0.07048262 -0.14175114 -0.06793238 0.11183913 -0.4932856 0.37463847 -0.30700436 0.35596943 -0.038975738 0.17784515 0.20757146 0.31124058 0.36081648 0.15966281 0.26077536 0.165971 -0.27669176 0.17727631 -0.23946999 0.1308365 0.13998419 0.47643864 -0.051958334 -0.12681513 0.14245807 0.31894675 -0.29250228 0.14657184 -0.007698747 0.23893066 -0.18059838 -0.1305041 0.19909452 0.21349528 0.20233877 -0.14587168 0.025801962 -0.067625515 0.31953207 -0.37319946 -0.09911005 -0.21353738
467 0.3381077 -0.13245556 -0.062663294 0.100380115 0.37728828 -0.17551397 -0.009441599 -0.004851348 -0.34627554 0.22783759 0.040587347 -0.34957018 0.025622655 -0.62116814 0.07823036 0.27770206 0.7183171 0.15716502 0.0066425977 0.3950452 -0.16506785 0.23894443 0.31982124 -0.18833531 0.21307325 0.1713167 0.05055956 -0.4746907 0.3935408 0.41422045 0.60157096 0.20761022 -0.18507612 0.3273575 -0.20605934 -0.21311843 0.33774948 -0.3963076 0.3607961 0.40451112 0.3052162 0.023431754 0.20414391 0.46247748 -0.43781918 -0.57671916 0.3036819 -0.30493227 0.033684738 0.34873095 -0.019525379 0.12911251 0.39557207 0.1919643 -0.26100856 0.5299974 0.25304654 -0.24614583 0.120950066 -0.17835614 0.48548335 0.17126425 0.33611673 0.7253551
465 -0.0620101 0.42542103 0.26716912 0.55966944 0.20219828 0.20122965 0.2098507 0.17781228 0.14366013 0.3259218 0.33937958 -0.2687152 0.21618496 -0.56748736 0.07131936 0.4613978 0.2089728 0.64097947 -0.25849617 -0.06851998 0.9488597 0.20339435 0.39804113 -0.09264755 0.74801207 0.15207204 0.3928533 -0.21786943 0.15105315 0.33042243 0.41707307 0.522723 -0.1033171 0.42624176 -0.02840873 -0.19412078 0.43473503 -0.08238129 0.78469473 -0.04175703 -0.08141858 0.21895438 0.010720622 0.17015675 -0.0035740044 -0.89246726 -0.21796305 -0.20803526 -0.30436617 0.2478558 0.39816025 -0.021925874 -0.18141426 -0.2652434 -0.044292882 -0.5994305 0.57135105 0.20625736 -0.063185915 -0.107936226 0.22444808 -0.49941775 0.23692141 0.376422
247 0.1620962 -0.41101095 0.09112695 -0.3430676 0.35258645 0.17983621 -0.35804248 -0.25796655 -0.26427636 -0.08631543 0.15835236 -0.18470679 0.47724083 0.54004395 0.5995195 0.5845811 0.21698932 -0.47462052 0.37353426 -0.13928899 0.73525697 0.6941762 0.029593155 -0.42002916 0.82217324 0.1555087 -0.3012941 -0.044033643 -0.65259594 0.54100394 0.7800618 -0.21908605 -0.16241063 -0.38021868 0.22604749 0.05145101 -0.30690995 -0.26742062 0.50133604 0.074543975 -0.6579948 0.41758135 -0.14165099 -0.07184425 0.018790336 -0.6131816 0.36529922 0.045621224 -0.6291121 0.5639678 -0.54586464 0.74286205 -0.2887725 -0.04058425 -0.4526388 0.20875941 0.011504951 0.05625759 0.26843646 -0.31612104 0.33360383 -0.45582733 0.20519137 -0.029204378
431 -0.39724877 -0.37524927 0.19756643 -0.21246722 0.2879055 0.2838755 0.9155468 -0.36878046 -0.23575588 0.23546016 0.1513532 0.3661007 -0.4094634 0.2619311 0.37012917 1.3117809 0.13839981 -0.9015144 0.039938867 0.37892884 1.0170909 0.3479034 -0.47813734 0.108028494 0.5345308 -0.66043496 -0.15594095 -0.34613332 0.003536258 0.25800785 0.33436713 0.28371614 0.064481884 0.2760591 -0.02308531 -0.3318812 0.3914294 -0.4359638 0.61498344 -0.31228817 0.04956827 0.24517459 1.0450476 0.41435528 -0.8118659 0.047856744 -0.27584708 1.1060294 0.008511418 -0.18438272 0.2475944 -0.42882413 0.3021913 -0.4850783 0.2001253 0.6879781 0.20068923 -0.25203007 -0.15161993 0.046143543 0.58649033 0.021734348 0.2774465 -0.20091556
428 -0.9896685 -0.7688628 0.49578938 0.021043656 -0.30967623 0.083815046 0.4670053 -0.373578 0.12421031 0.023909088 0.18396467 0.22128916 -1.1556102 -0.20153126 0.61849576 0.69419086 0.62232095 -0.77349854 -0.2639378 0.34128597 0.5190122 0.07600308 0.39630175 0.84082836 0.30761135 -0.5179186 0.6039403 -0.95891905 -0.50574064 1.1329719 0.07218052 0.21937567 0.3127716 -0.0700839 0.07716396 0.24053754 0.19451009 0.018879075 1.0214583 -0.31762338 0.49864656 0.48609143 1.1783079 0.46186018 -0.1962398 -0.6317464 0.06731195 1.2253565 -0.47410327 0.022166636 -0.2825563 -0.46102825 0.5941529 -0.23608685 -0.056680016 0.8953561 0.47818583 0.0046940213 -0.32428896 -0.29279882 0.3723976 -0.6379463 0.4564399 -0.43330756
436 -0.5393096 0.11930076 0.60614794 0.026606662 0.033439137 -0.19103377 0.4606725 0.517141 0.082587995 0.6362902 -0.19306028 0.2887773 -0.18467513 0.11864022 -0.2733083 0.25254303 0.28417796 -0.12099459 0.92869043 0.06643319 0.57161355 0.5115016 0.26329935 -0.26632157 0.2793487 0.12121529 -0.110505976 -0.3416389 -0.17635135 0.23063213 0.05312875 -0.03802543 0.22314364 0.5993203 0.6033682 0.1959198 0.22790843 -0.41815016 -0.5415391 0.06674571 -0.6892046 0.79301834 0.6619797 0.39291966 -0.4028812 0.1274108 -0.060539406 0.41540414 0.26091388 -0.54736346 0.25596955 -0.0152784465 -0.36217582 -0.4197812 -0.75152415 0.5717745 0.16338828 -0.34686992 -0.3849977 0.21721116 -0.16236258 0.33189955 0.12560941 -0.37154195
216 0.10178648 0.40509948 1.0599054 0.14053254 0.35212705 0.26269555 0.3865191 -0.19365628 -0.6835214 -0.06803425 0.19540726 -0.0114775635 -0.6388494 -0.82781583 0.05451196 -0.08684457 -0.12056546 0.13193813 1.0401086 0.5856788 0.013269275 0.10277013 0.2534238 0.02627442 -0.16824774 0.13956417 -0.5203 0.75629646 -0.91316116 0.40290838 0.66840494 0.053584218 -0.15312366 0.6576842 -0.06771593 0.14382339 -0.31608313 -0.5219101 -0.27610663 0.34350377 -0.2985091 -0.084715806 1.1991348 -0.13192022 0.6505697 -0.27798718 -0.09258973 0.26186752 -0.68200547 -0.3364659 0.7061025 -0.38748842 -0.08357489 0.27370018 -0.034232143 0.21713087 -0.54143924 0.6909441 -0.1397531 0.18390375 0.41727355 -0.88831556 0.2498165 0.32432538
466 0.053500984 0.1303047 -0.8722688 0.10902231 0.064826615 -0.030190844 -0.03343984 -0.090114236 -0.14547092 -0.34599507 0.34299895 -0.60339797 -0.4140088 -0.5236728 -0.05256373 0.07409028 0.96249473 -0.21794702 -0.013175417 -0.07096702 0.37770915 0.39466023 0.70325375 -0.50662833 0.64426976 0.3124799 0.05407003 -0.2926709 0.30337512 0.1790735 0.41971946 0.39010143 1.0252306 0.46297887 -0.3473604 -0.2079419 -0.18771543 -0.47525528 0.5899038 0.27700457 0.19412479 0.11839174 -0.24224125 0.4711518 -0.2770283 -1.1593182 -0.4389517 -0.4618917 0.15588886 0.12388071 0.67577827 -0.16255274 0.19425972 -0.16798717 -0.5643954 -0.14040935 0.39821315 -0.11478279 -0.20563665 -0.09014933 0.6425009 -0.33403274 0.062294565 0.44078568
434 -0.35683742 -0.15684871 0.33518505 0.051653937 0.5267855 -0.89159423 0.74353665 -0.09849595 0.265221 -0.104680024 -0.5368582 0.008569583 -0.16323902 0.3560157 -0.35096604 0.7306867 -0.28452414 -0.5878028 0.45598102 0.21511154 0.69799644 0.8031672 0.2118339 0.1615214 1.0226797 -0.21733242 -0.063278615 -0.14578846 -0.07531676 0.6103048 0.35412824 0.14168437 0.34874737 0.30645314 0.3035071 0.35876888 -0.14630364 -0.54285824 -0.119576655 -0.18863754 -0.03320811 -0.14209272 0.8844084 0.28256685 -0.8076599 0.59599763 -0.33013833 0.48720363 -0.31935465 -0.7417196 0.27405137 -0.28658023 -0.19425444 -0.17786765 -0.22955841 0.4089236 0.20534697 -0.14118958 -0.21600975 0.18551318 0.1296377 0.27994257 0.19007178 -0.15088578
454 0.22231656 0.013812253 0.03893989 0.47441712 -0.13058431 0.34516287 -0.0071925437 -0.40566733 -0.5053521 0.65206426 -0.42388135 -0.24338302 0.3931856 -0.4132129 -0.00079341896 0.040377885 0.3116877 -0.073390834 -0.1981731 0.528986 -0.3773271 0.09365932 0.4788899 -0.44771507 0.10524084 0.6443194 -0.4236039 -0.61570644 0.45239148 0.4618178 0.74930847 0.5486622 -0.32386395 0.35754067 -0.07314545 -0.11144935 0.36121738 -0.31117767 0.41433156 0.81226605 1.0509634 0.47334144 0.87967247 0.44106674 -0.4703659 -0.08864697 0.13177326 0.004738314 -0.38756198 -0.027147178 0.53857136 0.5570874 0.53331023 0.13823134 -0.3147925 0.7566048 0.13391574 0.2652414 1.0100313 -0.6209619 0.5662241 0.40212938 0.44864216 0.27418518
317 -0.2862499 0.16164224 -0.13186355 -0.21593577 0.08608852 -0.30287367 0.055285342 0.17402661 -0.47091097 -0.016524674 0.07559876 0.040794574 -0.62956136 -0.74752665 -0.024259154 -0.15359308 -0.25329086 0.0506978 0.11990058 0.18060376 0.3095895 0.17718717 -0.19284311 0.025018536 0.6076155 0.59283954 -0.7333562 0.2799348 -0.13503382 0.5466329 0.109195985 -0.0903302 0.081704065 0.33162025 -0.32959098 -0.07954512 0.18784894 0.2928084 0.046566606 1.1973779 -0.56295377 -0.082119696 1.3602431 0.9266334 0.6007341 0.07105735 -0.2289054 0.07012155 -0.29921857 -0.28416583 -0.10042895 0.35807893 -0.28662047 -0.2144161 0.4900692 0.37861326 -0.15519594 -1.0293998 0.21597847 -0.19451758 -0.061732728 -0.65568864 0.37924773 -0.73303556
234 0.0088058505 -0.29450265 0.08194854 -0.24591097 0.19162303 0.7878201 0.26336288 -0.51376456 0.066685304 0.13828675 0.17721428 -0.71752673 0.58111155 0.87544054 -0.20589092 0.43953934 -0.19087213 0.20655498 0.5042999 0.40880182 0.73778176 0.42572 0.40293044 -0.13690281 0.8985893 0.16086115 -0.85572624 -0.43102333 -0.48485842 0.26009455 0.95574856 0.07810911 -0.29908454 -0.26700315 -0.41907683 -0.27274525 -0.40139905 -0.02669355 0.9331128 0.09957053 -0.4154456 -0.15630643 0.28449774 0.16991426 0.31054914 -0.08899878 0.71554154 0.41166708 -0.5798076 0.648118 0.18070926 1.4571735 -0.30467126 0.08828448 -1.3833375 0.16671182 -0.49381465 0.14411637 -0.22237167 -0.30211487 0.19001544 -0.7424054 -0.1699259 -0.20803724
214 0.14472505 0.2819239 1.1697726 0.8203881 0.34114262 0.1177907 0.17029534 -0.5435408 -0.38123173 -0.050154734 0.5737855 -0.5892528 0.042465866 -0.5036984 -0.21942349 0.542168 0.1580854 0.22912568 1.2715911 0.8444699 0.18496357 0.28165 0.34208474 -0.5289343 0.11813691 -0.019246424 -0.7581557 0.7362364 -1.1145791 0.3503896 0.78671914 0.2984665 -0.1884584 0.8612575 -0.5342036 -0.1038489 -0.11972996 -0.16180153 -0.54221267 0.13146578 -0.4101915 0.14428917 1.3049031 -0.03607988 0.67732483 -0.9192806 -0.0039938004 0.62071127 -0.36097795 -1.113079 0.98643774 -0.08413272 -0.036461692 0.7958145 0.44579142 0.31355706 -0.86027795 1.1973151 -0.6667152 0.11671365 -0.1603186 -0.37807053 0.6343088 0.14599046
370 -0.8629967 1.073789 0.6829804 -0.13846593 -0.2470732 -0.06360619 0.46198326 0.4587754 0.22217816 -0.4457904 0.4807141 0.25447276 -0.22346272 -0.519224 -0.24887985 0.45892692 0.31266397 -0.57221377 0.4480486 0.72347885 0.45186666 0.1934138 0.3420946 -0.20276113 0.46115637 0.3649811 -0.28182536 0.6422351 0.3566675 -0.32655078 0.31200364 0.9424399 0.1610373 0.31658736 0.1379377 0.5841828 -0.26297855 -0.07514676 -0.02686507 0.15817188 -0.43035397 -0.0064326883 0.054105166 0.2836488 0.12861875 0.11494365 0.6330784 0.3146773 -0.14917862 0.24809693 0.08005998 1.1869081 0.019002244 0.27597398 0.21155268 0.71081376 -0.063651994 0.22726952 0.0029950403 -0.066513315 -0.39426255 0.0832134 0.3484741 -0.34182143
242 -0.32758048 0.52706385 0.44622922 0.32072255 0.107300416 0.046207037 0.3609165 0.09619302 -0.81180376 -0.26584595 -0.036535818 0.20979944 -0.3691933 -0.55638504 -0.63993675 0.35816798 0.2680098 -0.19194047 0.6506956 0.2847985 0.022926753 0.25686455 0.23935717 -0.12065674 -0.5320203 -0.14687578 -0.07609698 0.733006 -0.52875084 0.13108774 0.43300998 0.0016137917 -0.40797728 0.49140114 0.24800193 -0.107750945 -0.44243085 -0.36061573 -0.44229954 0.026182542 -0.2100106 0.19656476 0.8445997 0.27732688 0.10025596 -0.0803663 -0.31772214 0.21364728 -0.3932395 0.115764864 -0.03569475 0.21574385 -0.12732211 0.22772211 0.08713324 0.139139 0.04820827 0.21060635 0.1259032 0.06975482 -0.38581318 -0.817706 0.39957324 0.036359567
240 -0.021649875 -0.2516754 -0.11003056 -0.28382865 0.49070984 -0.9159614 0.19359104 -0.32568866 -0.6070234 -0.6082919 0.6704269 0.27193817 -0.2682957 -0.18933906 -0.22333986 0.098958805 0.1747048 0.52991015 0.38235652 0.087009296 0.064142376 0.26431885 -0.4195675 -0.5850884 0.21486858 0.013826872 0.13567188 0.0011510892 -0.21421546 -0.15398094 0.0880817 0.8243604 -0.22075598 1.0735189 0.584694 0.22497082 0.18910772 0.63769436 -0.092779435 0.19119051 -0.64924115 0.28833115 0.60080814 0.8623415 0.672005 0.39437544 1.0787513 0.36181328 -0.4660477 -0.03388833 -0.051540527 -0.27707866 -0.37328225 -0.07016363 0.13583015 0.41832694 0.06887666 0.2293089 0.3896339 0.34755298 0.5490771 -0.58479136 0.2486829 -0.28993088
338 0.29998726 -0.11754839 -0.38740388 1.2678374 -0.59439915 -0.8051438 -0.26988232 0.09968677 -0.42815444 -0.5817039 -0.0051612156 0.5313396 0.09237408 -0.21849218 0.4436327 -0.8812393 -0.182485 0.038199358 -0.012870285 -0.31811935 1.1387172 -0.83830106 0.96741974 0.5211809 0.9136948 -0.14136387 0.15156345 -0.23303804 -0.62133825 -0.43647212 1.5871962 0.7136659 1.2937205 0.44684684 0.57484645 -0.9466468 0.09817147 0.17666212 1.6773533 1.0451654 0.23408279 0.33219555 2.3331466 -0.25577596 -0.6282271 0.1606308 0.35028562 1.4918371 0.021263106 0.5057717 -0.08198769 1.3427321 0.66633886 0.1722804 -0.26720116 1.1954364 -0.3091197 1.4197894 1.7831798 -0.4478567 0.071139246 -1.4510444 0.27727428 0.095436275
421 0.00466655 -0.6382099 0.10233521 -0.093600035 0.41574934 -0.022134913 1.2673706 -0.9941166 -0.19353083 0.40488473 0.6016053 0.45917937 -0.14628766 0.5487793 0.49889413 1.7331101 -0.21370143 -0.4307793 0.013425745 0.7011944 1.1122313 0.9834863 -0.8370047 0.30560267 0.34569162 -1.1960402 -0.3337991 -0.52428985 0.21681646 0.16396506 0.33184996 0.66745347 0.3876576 0.54630667 0.21772009 -0.48299637 0.22168237 -0.3372828 0.4768793 0.03593661 -0.08654695 0.2975821 0.9724965 -0.16450408 -0.8361574 -0.1271615 -0.33567572 0.9416193 -0.14739023 -0.33467406 -0.05298579 -0.44264072 0.5236536 -0.9759311 0.69507474 0.97236115 0.09394376 -0.3591155 -0.2545575 -0.65421367 0.6427211 -0.23839554 0.17817289 0.26055416
460 -0.01496149 -0.28216827 0.8687115 0.32947177 0.39982656 -0.5639845 0.30062145 -0.07703642 -0.84999686 -0.116868556 0.4713866 0.96892285 0.3557394 -0.16842924 -0.15870619 0.02269041 0.5441675 -0.056745738 -0.352498 0.5940303 0.24111773 0.36695153 0.30249372 -0.21652874 0.30239677 0.382064 -0.71065503 0.3133729 -0.18474393 0.18829422 0.16079421 0.41977194 0.6964907 0.118582524 0.23003156 -0.20013015 0.16568364 -0.19525364 -0.41472134 -0.6591739 -0.41745964 0.41979307 0.7115071 0.64804953 0.6198154 0.34151205 -0.2536946 0.53700554 -0.5551229 0.17324589 0.12428304 0.6167631 0.1614395 0.026048377 0.3631678 0.45120868 -0.68633205 -0.4459844 0.37406978 -0.46090505 0.20827188 0.1310603 -0.27550042 -0.042143255
419 -0.5617687 1.0442652 -0.040476874 1.2238092 0.051059786 -0.31026244 0.19533178 0.108928606 0.6921785 0.41704398 0.2604282 0.06690468 -0.29470786 -0.31556395 0.30973893 0.5958463 0.5567029 0.8356194 -0.41741085 -0.46633062 0.6557332 0.45377263 0.13093057 0.13909161 0.70600605 -0.4893432 0.011629504 -0.38383183 -0.6679452 0.79974365 0.33443472 0.70744115 -0.6445495 0.21119945 -0.13387114 0.13099289 0.4044719 -0.5446022 1.3775483 0.41759673 -0.2083232 0.3757657 0.38027373 -0.012163585 0.5054844 -0.640151 -0.45205086 -0.29578817 -0.088649645 1.1330873 0.2734809 0.6628707 -0.4174728 -0.23300147 0.12108833 -0.6040627 0.62411976 0.5948284 0.07129255 -0.33680633 0.78076506 0.16056082 0.56455624 0.62352157
109 0.10854444 -0.07324649 -0.21956344 1.2778362 -0.36483964 -0.7770558 -0.23440976 0.29843432 -0.6309932 -0.3507344 -0.07123505 0.56297034 -0.11345393 0.1345199 0.17291811 -1.001202 -0.32200518 -0.07332763 0.18903176 -0.7335753 0.9321 -0.81952596 0.7390988 0.6615089 0.7983534 -0.12336151 -0.0035922632 -0.3483956 -0.8245238 -0.21432988 1.6168681 0.5728106 1.6403798 0.41809 0.70403653 -1.089559 0.5733922 0.29142413 1.6790016 0.62890416 0.3734737 0.21128218 2.0555952 0.03081589 -0.833279 -0.18864286 0.068892546 1.3235404 -0.059514817 0.4296422 -0.41462567 1.1745818 0.7186516 -0.082164705 -0.12519422 0.9858699 -0.1487029 1.5292373 1.4540249 -0.5943778 0.18775079 -1.7043937 0.16627564 -0.049914997
405 -0.8520677 -0.23429261 0.5513134 -0.33522844 0.8055925 -0.71683973 0.8207589 0.21854043 0.2146899 0.23066588 -0.84508944 -0.07108451 0.17594238 0.5423885 -0.0076939417 0.6873917 -0.10058175 -0.76954794 0.6857869 0.25530118 0.6596486 0.9420765 0.35143924 0.17126496 0.9380046 -0.101574264 0.1710058 0.46923095 0.3994474 0.9832451 0.5669218 0.10351531 0.63596547 0.5552227 0.2280209 0.80616087 0.35451144 -0.3625618 0.18681808 -0.35118416 0.09412728 -0.27465317 1.2592574 0.44326115 -0.5658974 0.44563 -0.74788624 0.9388657 -0.32678038 -0.7284447 0.43188435 0.012674631 -0.40448812 -0.01569463 -0.49675813 0.6881653 -0.15609317 0.063820474 -0.10952537 0.011676569 -0.24462466 0.5699301 0.028063767 -0.009976623
432 -0.077994846 -0.4889359 0.7043018 0.04113603 0.56239897 -0.8235406 0.16345794 0.05461856 -1.0619342 -0.23494549 0.6539811 0.55720365 0.37113917 -0.13759372 0.10580308 0.5272657 0.59743387 0.25331795 -0.5769038 0.69396055 0.46247354 0.65400386 0.15786098 -0.007491313 0.35052902 0.479324 -0.6312615 0.2749946 -0.22459471 -0.1589448 -0.06978734 0.6574716 0.88215786 -0.043652073 0.5733968 0.010619763 0.41457456 -0.43581128 -0.56612206 -0.85342944 -0.39369914 0.6987126 1.0520067 0.85153985 1.0325931 0.5061332 -0.5936841 0.7009371 -0.71223086 0.14523393 0.2356187 0.6838434 0.056973536 0.18040721 0.2687277 0.38905802 -1.287727 -0.5776486 0.35264796 -0.49459964 0.17676555 0.4244299 0.183706 0.41824973
444 0.5715871 -0.23011573 -0.12152641 0.45661527 0.44016203 -0.6690358 0.13515167 0.21317072 -0.79349154 0.30532417 -0.14091688 -0.78247446 0.2625236 -0.7708457 0.24095084 0.12822334 0.54542804 0.31267166 0.19056498 0.5998001 0.6631495 0.053503495 0.36318165 -0.23367684 -0.66353506 0.010658159 -0.17244859 -0.6588224 0.53000355 0.22064981 1.0209451 0.5723059 -0.32388666 0.5122415 -0.74962115 -0.18055256 0.21804473 -0.36589986 0.4084939 0.44621295 0.30938813 0.5756208 0.4657085 0.107307054 -0.3011188 -0.54518265 0.65031874 -0.18405417 -0.30596843 0.7372853 0.28676665 0.05370545 0.5212355 -0.19779976 -0.5740172 0.4787105 0.20009054 -0.14986116 0.4142546 -0.103480615 0.17964461 0.41422477 -0.29194003 0.19925939
404 -0.24950959 -0.13976887 0.7011931 0.31646785 -0.072956294 -0.36279893 0.37280387 1.103105 -0.90758306 0.0962788 0.4847315 -0.33945936 -0.27930653 -0.21371913 -0.88963306 -0.0732032 0.19146368 -0.00433494 0.28007185 0.46468425 0.012484643 0.35514635 0.22798319 -0.40229553 0.061498422 -0.1834755 -0.5161575 0.582231 -0.16032462 0.22889139 0.15928087 0.20466076 0.15177014 -0.18494269 -0.26165584 -0.09876137 0.49135247 -0.174212 0.4345054 0.023743926 -0.113950096 0.14863652 0.5346717 0.21609244 -0.19776276 0.39333716 0.56104225 0.20276895 -0.5875657 0.016645791 -0.27971816 0.5044221 -0.029391257 -0.27521023 0.62706375 0.15295503 0.043233473 0.3362571 0.18952063 -0.10386468 -0.040433336 -0.38979098 -0.8143792 -0.452462
456 -0.09890659 0.124050036 -0.5809737 0.7788645 -0.40651336 0.29208195 0.6430389 0.7341267 0.10680603 0.6180368 -0.23527087 -0.45600697 -0.034843493 -1.0021485 -0.022472328 0.5729076 0.5389081 0.71553016 -0.34776908 0.1865243 1.4076777 0.614237 0.1708301 0.27473542 0.6297579 0.37049776 0.069339894 -0.18664376 0.15480393 0.34552455 0.2764195 0.10954882 -0.13878156 -0.012533481 0.30616882 -0.38024068 0.6659581 -0.13330047 0.7448667 0.0654221 -0.08206011 0.040143643 0.47846 0.13547279 -0.05983785 -0.61106175 0.6374848 -0.15898246 -0.8702827 0.12522535 1.3020236 0.070964314 -0.575007 0.016752947 0.009582813 -0.5192493 0.26271704 1.0101792 0.72927886 -0.13422252 0.096780725 -0.35651258 0.13446184 0.16733669
151 0.2572584 -0.24021251 -0.3533629 1.2123127 -0.5092966 -0.8127567 -0.2715859 0.28225607 -0.4929295 -0.52659136 -0.056009106 0.6651304 -0.11547029 -0.06098512 0.3046754 -0.9225718 -0.30476478 -0.00398676 0.06198781 -0.53981864 1.1287026 -0.7558392 0.93336433 0.53608173 0.7202099 0.025840832 0.12639299 -0.38041866 -0.71379185 -0.3792974 1.5615691 0.60457504 1.55852 0.5343953 0.63910246 -0.90109366 0.31245223 0.19710693 1.8640271 0.7168647 0.4045494 0.37973532 2.2592778 -0.15699317 -0.8008567 0.12206171 0.21739936 1.4180691 -0.013191866 0.45390797 -0.29054198 1.4391173 0.74045366 0.1726158 -0.20226443 1.0515999 -0.09973481 1.5182434 1.5500574 -0.38755867 0.13435303 -1.7463636 0.42204338 -0.019689132
337 -0.2191722 -0.39516887 0.69473314 0.18784091 -0.18208915 0.17270033 -0.013153156 -0.5096225 -0.38876215 -0.23441987 0.24023518 -0.36466503 0.39561814 -0.63097215 0.45448753 -0.51487917 0.8223909 -0.21570821 0.6213077 0.26425028 0.17122744 1.0263108 0.37147436 -0.11184451 0.04591646 -0.36126462 0.29198268 -0.62093776 0.42299652 -0.4489567 0.5840244 0.14080882 -0.6348809 1.4673153 -0.47347128 0.51183486 -0.049486537 -0.1651012 1.0431402 0.0278893 0.53368324 0.33705422 0.57221407 1.1570891 -0.5245268 -0.87013054 1.1561737 0.022744 0.23307298 0.70013636 -0.13056321 -0.24044588 0.09260317 0.13863401 -0.33532456 0.20561641 0.09709526 -0.7069532 0.19276564 -1.4015912 0.26245925 0.18742605 -0.8931909 1.4597971
246 0.34376562 -0.122369625 -0.21341784 -0.9888803 0.16948207 0.15657097 -0.1432601 -0.7440443 -0.037717324 0.063083194 -0.04805109 -0.5081384 0.68734074 0.17706788 0.4338511 0.2367722 0.15609065 -0.4553302 0.81735706 0.040283285 0.72435737 0.8683454 0.4219846 -0.23789395 0.5439963 0.08099909 -0.12875235 -0.16619393 -0.7594868 0.2962524 0.6387282 0.09682457 -0.15063915 0.16473062 0.32610664 -0.0073634796 -0.3638973 0.032247365 0.7040938 -0.04120053 -0.8929587 0.54074615 0.17053561 -0.13714619 -0.18535657 -0.36871403 0.7486005 0.071153015 -0.6012171 0.6140979 -0.5369453 0.74388576 -0.57456386 -0.2921844 -0.21180001 0.11984042 -0.48428786 0.08875257 0.86175954 0.14479837 0.40821323 -0.36816275 0.37216586 -0.18235528
235 0.334884 0.36931697 0.6028145 0.42057213 0.5106308 -0.76320446 0.030397026 0.45207584 0.30283105 -0.008712724 0.5142493 0.21958147 -0.61928344 0.13041513 -0.21212359 0.17827646 0.2259158 -0.20736858 -0.08822145 0.49788913 -0.17859843 -0.07350964 0.22781254 -0.17683773 0.10943566 -0.119665734 -0.6794762 0.4490399 -0.5856786 -0.33522332 0.5780711 0.38372052 0.2161919 -0.04851702 0.7504791 0.094685175 0.35988373 0.21893969 -0.50207347 0.32562518 -0.08406671 -0.08324984 0.7427393 0.48932597 0.2528078 -0.17171644 0.010946517 0.22065537 -0.62184525 0.45366082 0.20536196 -0.065975934 -0.18616211 -0.67856747 0.004055629 0.44476134 0.72131956 -0.29094332 0.5578794 -0.37389287 0.18189497 -0.1297428 -0.11950785 -0.45346034
447 0.49941736 -0.17421865 -0.12753768 0.6706931 0.20726608 -0.30774972 0.49568158 0.028511528 -0.18819591 0.20022224 0.040891856 -0.7326559 -0.30620262 -0.3297406 -0.0418789 -0.05979273 0.8036903 -0.05652075 -0.40650785 0.5252804 -0.43511727 -0.11560161 -0.014454048 -0.45068648 0.7379881 0.44023016 0.036710177 -0.4807247 0.15690717 0.6186765 0.76414245 0.31127876 -0.5488612 0.3662678 0.30667248 0.068731636 0.2845982 0.22458239 0.4404369 0.41367197 0.44742286 0.47379908 0.79972863 -0.46600288 -0.31819877 -0.67223203 0.35592923 0.2612817 0.23756245 0.60402095 -0.035610568 0.3180539 0.6213542 0.0146792885 -0.30546385 0.3358376 0.2099425 -0.5591362 0.23467843 -0.33869871 0.34387648 0.5359043 0.24877398 0.8961769
211 -0.25351667 0.3181344 1.4165136 0.90132153 0.3119133 0.2976979 0.10973378 -0.32452708 -0.31621304 -0.03177617 0.31317034 -0.6730174 0.13153173 -0.2990634 -0.23271714 0.6857053 0.13382635 0.36677808 1.2462393 1.0053179 0.3527628 0.32644677 0.3638806 -0.34004858 0.10870313 -0.20475435 -0.8174847 0.87452066 -0.93157524 0.28968227 1.1352875 0.13738331 0.013607171 0.83734304 -0.9055203 0.13554816 -0.15393797 0.0841921 -0.45143446 0.19734111 -0.13662781 0.20105854 1.2611703 -0.0041166586 0.81884784 -0.8368224 0.23315828 0.7289069 -0.49893835 -1.1539469 0.78421414 -0.030210229 0.13953944 0.9069443 0.44702074 0.35508224 -0.8846035 1.3866255 -0.61096704 -0.12048757 -0.37115327 -0.30195376 0.8889641 0.46895796
162 0.2304916 -0.8457336 0.11107332 0.007980031 0.35083255 0.2260229 0.23394473 0.114764795 -0.055837736 0.47966948 -0.049611174 0.1486808 0.13184845 0.26646516 0.9583045 0.6679979 0.0794182 -0.4009999 0.091467425 -0.6686615 0.2997279 0.4708604 0.26384023 -0.51345015 1.0449922 0.12852418 -0.57726973 0.43013328 -1.03549 0.43545392 0.98374426 -0.03738983 -0.027606612 -0.2950667 -0.14856938 0.15376931 -0.5667963 -0.38466343 0.3335826 0.2259979 -0.40307945 0.67045116 -0.3068896 -0.29416654 -0.1724095 -0.7270483 0.17812704 -0.05653099 -0.756845 0.39780772 -0.52276266 0.7118773 -0.31632122 -0.2109656 -0.8835313 0.47348762 -0.2337347 0.32171592 0.5916643 -0.18867633 0.65894616 -0.63400584 0.013785542 -0.18389957
224 0.19389091 -0.22530615 -0.0218277 -0.14148365 0.34431118 0.11121487 -0.1972608 -0.16218558 -0.32415307 0.056450114 0.51973283 -0.13320415 0.44078365 0.6816245 0.51600564 0.19146696 -0.14683162 -0.63712084 0.51699847 -0.07017701 0.7481238 0.23143615 -0.07505612 -0.42004955 0.75703204 0.7695049 -0.59298027 0.29184616 -0.43053427 0.6374036 0.7052586 -0.7842824 -0.19582154 -0.6904268 0.54614234 -0.32648572 0.032422047 -0.4790117 0.8372245 0.086199775 -0.5777626 0.72094697 -0.02931712 0.104769684 -0.223983 -0.761365 0.7498031 0.06261213 -0.80103177 1.0358157 -0.5095029 0.58097935 0.09318755 -0.7271604 -0.61015224 0.5919183 -0.1950863 0.5956803 0.10312531 -0.18491122 0.052636854 -0.18400161 0.38603714 0.36193037
402 -0.38786665 -0.079280846 0.5548956 -0.09923978 -0.013453587 -0.04495602 0.33037242 0.1653962 -0.79339147 -0.44695342 0.25268024 0.47030625 -0.12600257 0.1482105 -0.5402752 0.05347224 -0.00636202 -0.14480732 -0.25832385 0.4664838 0.48133108 0.32679257 0.062891014 -0.1362197 -0.013829945 -0.06874552 -0.2510182 0.6254284 -0.16240646 0.24145298 0.46647406 0.32692072 0.046316866 0.16611664 0.11906042 0.44628328 0.21315809 0.49682182 -0.73487777 0.9202474 -0.70277 0.47224933 0.5979772 0.71781075 -0.6796028 -0.0046547004 -0.34824377 0.11027728 -0.040640872 0.25725263 0.04010754 0.43299732 -0.38974836 -0.34452438 0.3204347 -0.004616755 0.47710907 0.26288012 0.02594313 -0.1142642 0.060465805 -0.40784153 -0.6153561 0.4873781
227 -0.08233997 -0.60032076 0.0075849746 -0.02090495 0.53792644 0.43984547 -0.3178413 -0.58155894 -0.6368909 0.71303874 -0.06456958 0.00783747 0.6434305 0.56577575 0.19481887 0.43649265 0.06271598 -0.4028275 0.08194771 0.31618145 0.86774373 0.7396033 -0.08249078 -0.4228437 0.53504115 0.07965099 0.38425747 0.5130692 -0.4008466 0.5193737 1.2031646 -0.23294438 0.19496447 -0.31678945 0.6614583 0.10424249 -1.0413874 0.18611231 0.2851286 0.51475453 -0.95231646 0.26101074 0.20173801 0.17307737 -0.18221407 -0.5316308 0.24371627 -0.06498895 -0.385053 0.9993749 -0.8295437 0.87916994 -0.39591476 0.037018746 -0.47006622 -0.28080395 0.1586447 0.50380725 -0.1260132 -0.7931335 0.4538718 -0.14742626 0.079896554 -0.0012118458
403 -0.11371082 0.019316291 0.9316668 0.3109698 -0.37803885 -0.25442448 0.0788388 0.63355905 -0.14038363 -0.2253345 0.6763069 0.7229449 -0.22051875 0.21636146 0.30823052 -0.21472886 -0.059107006 -0.36947873 0.30788553 0.641387 -0.11142638 0.25118005 0.31286317 -0.55794245 0.25028223 -0.20016636 -0.5479194 0.17209712 -0.11812302 0.81485945 0.4966167 0.635484 0.21871676 -0.13934965 0.34483057 -0.11374963 0.013736259 0.032875605 -0.24885929 0.047060892 0.0048300014 0.15967147 0.3483367 1.050362 -0.005893513 -0.09022378 0.5807004 0.29356 0.040492043 -0.22627613 -0.059336077 0.23964682 -0.5473534 0.4569222 0.5162876 -0.013602526 0.12589249 -0.074433394 0.031708002 -0.32378912 0.08427878 -0.43573 -0.5183929 -0.074722506
225 0.57665217 -0.4678699 0.050985344 -0.45329309 0.6192603 -0.12060625 -0.2481841 0.07829943 0.041395906 0.090192646 0.30142036 -0.47285315 0.5841682 0.63796234 1.3676487 0.19967487 0.118942596 -0.69786996 0.9040428 -0.06056687 1.0761206 0.5559189 0.2860034 -0.3117912 0.5300198 -0.02219429 0.10086559 0.021503357 -0.63453364 0.877834 0.75021434 0.33516672 -0.5550292 -0.016765151 0.16413434 -0.61868566 -0.67564976 -0.29015857 0.249061 0.09109521 -0.52062917 0.83578837 -0.10385748 -0.013927845 0.4077384 -0.43295586 0.6895227 0.0947893 -0.0903686 0.2598361 -0.5764553 0.61550176 -0.35462916 -0.21034442 -0.11437014 -0.049230605 0.1777027 0.013923098 0.35285795 -0.2983399 0.5751035 -0.7849797 0.013231811 0.4525131
443 -0.11690575 -0.1735731 0.41691414 -0.073776476 0.04422627 -0.01660754 0.04891048 -0.29135063 -0.38553327 0.14699651 0.04846511 -0.4467252 0.35668555 -0.4744713 0.28452343 -0.27198824 0.6415152 -0.015861144 0.41683412 0.46374014 0.1285906 0.74882257 0.4061967 -0.12153163 0.08141068 -0.27574554 0.3384581 -0.57115066 0.4702704 -0.19153719 0.7030951 0.11797415 -0.35056803 1.2367264 -0.36154762 0.12123002 0.057002865 -0.1340491 0.6654363 0.1306572 0.5185766 0.12545632 0.435575 0.9502781 -0.29556113 -0.82388777 1.0662283 -0.022857156 0.21980122 0.5970395 -0.27959242 -0.047160544 0.26788783 -0.05859797 -0.27694273 0.36393905 0.048409287 -0.6514255 0.26487643 -0.7985644 0.23719262 0.042792473 -0.48081186 1.4371617
439 -0.38621715 -0.3308408 0.24103339 0.6685655 0.08767543 0.30461898 0.015700642 0.40527403 -0.24182002 -0.43721345 0.6248981 0.12651922 0.00479345 -0.2911119 -0.52956456 -0.66022336 0.13330375 0.20172495 0.4193811 0.059956018 0.7402402 0.20007102 0.10378557 -0.21140017 0.0871707 -0.1259371 -0.4669036 0.65118784 -0.5035442 0.7427325 0.44177255 0.24912462 0.16640043 0.21985088 0.78824234 0.63112825 0.05919367 -0.13652438 -0.32835427 0.26951268 -0.41084555 0.21179113 0.16249368 0.4289879 0.17738497 0.44311026 0.3387751 0.26896062 -0.058499012 -0.29587647 0.06997244 0.007534427 0.4522256 -0.2592572 0.50117815 0.43825543 0.80551726 -0.45412287 0.21027347 -0.3082618 0.29955688 -0.2405308 -0.20805937 -0.13861166
316 0.3571586 0.8470992 0.29164004 -0.09807306 0.017476888 -0.030604897 0.38852528 0.52084875 -0.45616564 -0.30892324 -0.04281306 0.24816798 0.11969156 -0.36502722 -0.08646364 0.7847986 -0.029330702 0.060615964 0.32433662 0.4279024 -0.15708697 0.53578895 0.21079986 0.2289191 -0.23350108 0.33983117 -0.87824243 0.63917893 -0.42899373 0.37228575 -0.17192735 0.6676198 -0.042984623 0.28767374 0.68099505 -0.27835187 -0.19963829 0.4990657 0.29000354 0.038156047 -0.2069093 0.25424284 0.311073 0.6370449 0.20001 -0.019999992 -0.06848877 0.681323 -0.12382567 0.010528108 -0.34412995 0.013454413 0.005478436 -0.49582192 -0.039539818 0.49054334 0.5672626 -0.42243442 -0.16052425 0.41996607 0.42686838 -0.4304812 -1.1630747 -0.009748306
455 -0.19921005 0.21750954 0.4236048 0.27266243 0.24184059 -0.5362076 0.36895937 0.61648357 -0.8613709 -0.5453765 0.43769434 0.31451812 0.100388974 0.36632004 0.11566625 0.27380133 0.35857034 0.215234 0.03602427 0.24911827 -0.053607855 0.3329426 -0.11969393 0.24563827 0.24731895 0.29972392 -0.2063417 0.21396613 -0.08315248 -0.09052334 0.23211916 0.5781439 0.23987964 0.018664645 1.1589261 0.40267214 0.15027034 0.37795213 -0.40789127 0.3441756 0.20381638 0.021851575 0.40504372 0.25792164 0.48486736 -0.13986458 0.38830873 -0.1953146 -0.5225902 0.09801311 0.005991516 0.061925765 0.12778293 -0.333219 0.44564468 0.48847142 0.10765321 -0.097124666 -0.81884414 -0.017527254 0.7593459 -0.8595125 0.18412317 -0.504044
445 0.7817979 0.0945636 -0.16718103 0.16148461 -0.02237357 0.072275005 0.6154174 -0.15924384 -0.45903817 -0.23300606 -0.026314747 -0.3458115 0.49904105 -0.7882816 0.37917942 0.6253686 0.58266914 0.15395737 0.63731223 1.1092205 -0.04469167 -0.36144227 0.5231818 -0.21359262 -0.036896512 -0.046136804 0.09344835 -0.5839349 0.014036071 0.3236021 0.59449035 0.3754957 -0.32232487 0.28842926 0.23140356 -0.07957592 0.6258204 0.12221291 0.88291234 0.6239163 0.6069628 -0.27923995 0.20176622 0.45581216 -0.052132297 -0.22358282 -0.054175794 -0.15692912 -0.45108193 0.17039523 -0.24907687 0.42838413 0.48633432 0.15107854 -0.86192966 0.043323193 0.3472824 -0.78797626 -0.16881132 0.23849916 0.7615448 0.20367332 0.079206154 0.9768845
441 0.08267912 0.2071642 -0.28724933 -0.09450135 -0.03344713 -0.11454188 0.255808 0.32833344 -0.352511 0.31893632 0.42714608 -0.29803127 -0.008950311 -0.38232833 0.101345174 0.26898256 0.7234733 -0.2865998 0.07763394 0.46664894 0.10793936 0.5962543 -0.040294647 -0.22407532 0.085731015 0.7908929 0.26989773 -0.5199405 -0.00830594 0.15686497 0.9591288 0.3934636 -0.67864144 0.47352523 -0.5443723 -0.13396706 0.35211667 -0.7163499 0.06963446 0.35827798 0.8766606 0.047850933 0.1522668 0.5059826 0.10497383 -0.7609052 -0.26166883 0.11784139 -0.2986176 0.26523682 -0.60840696 0.35344929 0.2749835 0.3157853 -0.0924735 0.69519097 0.6290456 -0.07395054 0.11141233 0.078537114 0.672464 0.91599786 0.48488155 1.1172007
366 0.32021093 0.04416147 0.033771127 0.4494107 -0.22390133 0.2199287 -0.20727037 -0.47899678 -0.39357147 0.8128597 -0.37744945 -0.19589017 0.4299232 -0.4284337 -0.008570092 0.049670193 0.18513377 -0.107371725 -0.3300245 0.5018978 -0.4797403 0.23276368 0.6308768 -0.6576797 0.10152429 0.6485811 -0.35664797 -0.605218 0.38994378 0.37101594 0.73047775 0.5378804 -0.3117548 0.42157996 -0.139106 -0.034278344 0.263811 -0.41344637 0.48869875 0.6035238 1.0059772 0.40544835 1.0844916 0.49422625 -0.55514 0.054694653 0.17597644 0.004454053 -0.2954998 0.075244054 0.6250595 0.5264622 0.6007236 0.1350373 -0.22681074 0.7667659 0.13156241 0.13242078 0.8596751 -0.59085387 0.6203039 0.29009563 0.43105912 0.22950652
101 0.33550158 -0.012026169 -0.07879292 -1.1104504 0.17831413 -0.09414777 0.0015829423 -0.8403032 -0.1911271 0.17773166 0.05003458 -0.62407 0.6583562 -0.020417325 0.565948 0.26522654 0.16792262 -0.4162882 0.84789866 -0.20306002 0.8363155 0.5990037 0.28196502 -0.1959068 0.3271177 -0.048143826 -0.053806398 -0.28188986 -0.8653845 0.38739958 0.9174382 0.24963295 -0.04053979 0.2891833 0.3482146 -0.06595856 -0.4605093 0.05268704 0.67712384 -0.08674308 -0.8630025 0.4177448 0.21348754 -0.19273618 0.07266355 -0.38849378 1.0215136 0.12054836 -0.52511674 0.603346 -0.6699618 0.8157688 -0.65736675 -0.819506 -0.35644156 0.039894857 -0.58408225 -0.11774665 0.9872233 0.42511183 0.35905412 -0.41086107 0.110270515 -0.013634343
323 0.35733238 0.04892767 -0.1248604 0.4951412 -0.16081423 0.13602392 -0.14256991 -0.21032803 -0.4296649 0.62452096 -0.4889571 -0.2645757 0.3705416 -0.27646455 0.0655396 0.19818367 0.25276324 -0.06418265 -0.3102134 0.50087744 -0.42907694 0.15357806 0.6316751 -0.59900826 0.11680999 0.70659274 -0.30950838 -0.60802245 0.40601778 0.4607946 0.7908798 0.43886665 -0.44929773 0.34224024 -0.1386818 -0.044826034 0.10666293 -0.49146953 0.4123333 0.65373415 1.0370867 0.52182263 0.9050764 0.721445 -0.4927141 0.09585659 0.1690904 0.11141384 -0.282271 -0.11958086 0.71978086 0.5897459 0.7515079 0.06831154 -0.19997936 0.64801174 0.13990268 0.23281363 0.9025201 -0.7096194 0.7060519 0.3477932 0.5995488 0.28394514
10 0.47702327 -0.10080054 -0.28966618 1.2538245 -0.5092816 -0.74304706 -0.2597934 0.03799019 -0.21233897 -0.5440575 0.31362715 0.580921 -0.032099046 -0.29288557 0.6011759 -0.90874135 -0.17715022 0.0077870805 -0.25777808 -0.3257194 1.1028746 -0.819978 0.82909286 0.58349097 0.920606 -0.11148031 0.12000627 -0.1795648 -0.81302124 -0.29827547 1.5254294 0.6519469 1.2328715 0.47884455 0.6309802 -0.7276649 0.15011667 0.16089976 1.58277 1.0096345 0.2354104 0.2730259 2.3233454 -0.26575524 -0.77515435 0.23238796 0.42970443 1.3055832 0.109811224 0.43208432 0.035620186 1.4428779 0.57661706 0.3121344 -0.43256235 1.187318 -0.31910536 1.405 1.641565 -0.4715098 0.03356582 -1.4231067 0.13671346 0.14621042
61 -0.28467435 0.25324056 -0.17957655 -0.2648546 0.10505533 -0.36651757 -0.0477279 0.08075798 -0.4957076 -0.019416906 -0.06371353 -0.08977089 -0.64622205 -0.72791064 -0.14172277 -0.23471491 -0.17367716 0.19398963 0.06891776 0.33854628 0.4804747 0.10763675 -0.26297918 0.04065665 0.5639787 0.64470255 -0.76506615 0.33458704 -0.11427057 0.55794674 -0.016626293 -0.12585387 0.13656649 0.3545244 -0.35251367 -0.07160189 0.2636694 0.24933393 -0.083731405 0.9807855 -0.54211116 0.051916968 1.4756225 1.1752497 0.6199686 0.06223983 -0.2944434 0.13146704 -0.33224726 -0.3664287 -0.13729602 0.43807372 -0.12387194 -0.10875502 0.38543284 0.27490225 -0.27100593 -0.9668057 0.1794007 -0.33809972 0.07755523 -0.6843236 0.57786214 -0.8206887
297 0.45110354 -0.24407826 -0.40510195 1.1880788 -0.50686294 -0.7600695 -0.25974053 0.09452774 -0.28390363 -0.6413074 0.3107105 0.5806377 -0.058835387 -0.2861897 0.5667047 -0.8808686 -0.14126587 0.03869528 -0.28713277 -0.21338132 1.2425314 -0.7358747 0.8671952 0.49803668 0.7799466 0.009632133 0.089186594 -0.26685905 -0.8203036 -0.4247206 1.5011047 0.6113905 1.2671434 0.5244272 0.58715177 -0.7133224 0.13188738 0.13653725 1.630893 0.90267587 0.1810084 0.35901043 2.4286544 -0.3190332 -0.77770066 0.21481822 0.33291724 1.3938318 0.1501758 0.40141332 -0.027234368 1.4874666 0.8032177 0.39584053 -0.38403758 1.0051663 -0.287471 1.4223241 1.6653692 -0.3271375 -0.030625219 -1.4626086 0.29371032 0.053383213
67 0.24559358 -0.027968585 -0.315117 1.161806 -0.44623545 -0.89128023 -0.34138173 0.32058084 -0.6176324 -0.37421298 -0.18190768 0.5916713 -0.17835633 0.2700929 0.044458047 -1.0228916 -0.31397676 -0.035947833 0.24553211 -0.75460386 1.0228224 -0.61549884 0.8787309 0.60593647 0.62004524 0.015005429 0.067496955 -0.33369333 -0.86388886 -0.35573977 1.4902583 0.56871104 1.5892636 0.3967298 0.68911767 -1.0342658 0.6522842 0.093947396 1.8320814 0.5548605 0.46594384 0.3963635 1.8774463 0.016418578 -0.9849044 -0.092777655 -0.1827331 1.3063627 -0.120615765 0.3362369 -0.51212835 1.2019658 0.73021305 -0.087635465 0.034278102 1.1965436 0.08796289 1.41731 1.2714036 -0.48986986 0.29134977 -1.8038684 0.5097682 -0.09353268
376 0.38566986 0.0918637 -0.095565684 0.41375303 -0.21378668 0.21598704 -0.042384043 -0.53237736 -0.39065003 0.70784456 -0.7160507 -0.1607524 0.4780425 -0.30610645 -0.049392033 0.10019969 0.3363374 -0.021749198 -0.16679059 0.5486602 -0.42927364 0.20576344 0.5342389 -0.5513609 0.019407302 0.7466516 -0.39718372 -0.55589813 0.5527989 0.38475698 0.6392041 0.49495646 -0.3972751 0.35685602 -0.1563627 -0.09914743 0.23767278 -0.51840067 0.5509814 0.57079804 0.87950873 0.55320793 0.9764809 0.51803666 -0.41196266 -0.0014012947 0.091538765 0.047946043 -0.34919384 0.0061887354 0.693085 0.6089975 0.7349554 0.2611233 -0.022603525 0.8164933 0.2549902 0.28637892 0.8925277 -0.7668215 0.80790186 0.22021618 0.45185634 0.3312498
361 0.5947614 -0.07204477 -0.11340161 0.6573517 0.28488833 -0.55190504 0.49410713 0.20145656 -0.17375779 0.030954853 0.030448202 -0.9246057 -0.4453859 -0.43759224 -0.16378596 0.032407224 0.7210252 -0.2148568 -0.66950953 0.5079317 -0.5947623 -0.1356246 -0.19442326 -0.40219894 0.86366487 0.39179933 0.20771392 -0.61752176 -0.004712433 0.57593477 0.9017558 0.33181113 -0.63308597 0.18996963 0.46749467 0.12982668 0.10026516 0.34693012 0.45010763 0.34562466 0.3028059 0.45081273 1.175118 -0.72308517 -0.068267986 -0.7022054 0.50980556 0.37914574 0.392748 0.62887996 0.09010155 0.40586054 0.5925779 -0.1433677 -0.31253934 0.19178118 0.26297382 -0.7658658 0.21070638 -0.2396137 0.46465504 0.5517132 0.2966094 1.0636865
50 0.5169789 0.3900946 0.7663266 0.44929993 0.7603824 -0.84453386 -0.014969674 0.50780976 0.42437476 -0.015118832 0.52606785 0.17106076 -0.8306928 0.324927 -0.11013972 0.2868599 0.25782797 -0.20422782 -0.23202164 0.5496828 -0.35201237 -0.00563294 0.26305783 0.022268686 0.23595445 -0.14759274 -0.665046 0.22944959 -0.7201592 -0.7112551 0.783707 0.52202076 0.30445996 -0.32818505 0.91890925 0.1501635 0.3732796 0.29072228 -0.53962374 0.2742724 -0.29447103 -0.31469935 1.0723935 0.6103879 0.49950346 -0.23151024 0.12591968 0.12627183 -0.673154 0.38848114 0.21487948 -0.07213143 -0.19736741 -0.93794036 0.009651831 0.45314515 0.8775815 -0.37442735 0.6668639 -0.41018426 0.23569255 -0.06953384 -0.11752181 -0.32022935
425 0.20848061 -0.33627215 1.111941 0.26956892 0.51436454 -0.5871188 0.35614252 -0.36217898 -0.6699446 -0.29673982 0.59377134 1.1735631 0.5340621 -0.3432551 -0.4213112 -0.10055713 0.7458308 -0.19943067 -0.6154761 0.54359347 0.37347996 0.3965726 0.5363004 -0.25499073 0.32776454 0.44328934 -0.646078 0.2821806 -0.19994226 0.2580028 0.21210627 0.42196637 0.5151115 0.11560892 0.12823245 -0.18905066 0.23216897 -0.38868257 -0.4436206 -0.62586266 -0.65445215 0.3606629 0.7712898 0.605393 0.6025159 0.37615192 -0.41984162 0.50655663 -0.52687263 0.122535504 -0.020960517 0.57426953 0.32870632 0.06776328 0.5007887 0.32939878 -0.96705943 -0.35088897 0.29394 -0.6147683 0.3803229 0.19333188 -0.34710082 -0.15061693
332 0.4302534 -0.18063055 -0.34948945 1.2098501 -0.4465766 -0.8676455 -0.14715594 0.080664456 -0.1193466 -0.5854053 0.17152825 0.55183405 0.0402615 -0.22626637 0.46013293 -0.87780625 -0.10252522 0.053170525 -0.25336498 -0.2447993 1.155868 -0.73597026 0.86735475 0.5507961 0.86380166 0.008417409 0.12562501 -0.18315053 -0.73306525 -0.38288835 1.5060444 0.60644585 1.1857046 0.48701358 0.6165145 -0.75768775 0.12559794 0.12975082 1.6070756 0.8691002 0.17197576 0.37618962 2.360802 -0.3906104 -0.7811816 0.12350352 0.25971583 1.461008 0.09607069 0.45696688 -0.0158929 1.3772893 0.6645125 0.3502986 -0.32985508 1.1701528 -0.2632043 1.4650258 1.7021047 -0.4483091 0.02108846 -1.407815 0.2216498 0.056997426
352 0.3292585 -0.08150729 -0.019716568 0.24266857 -0.12483916 0.24281827 -0.1843616 -0.4945509 -0.34790125 1.000521 -0.49844798 -0.2422535 0.42172527 -0.2946951 -0.13190578 -0.015384669 0.29376173 -0.0005381746 -0.18569124 0.5367263 -0.47245374 0.2099954 0.54036623 -0.46294498 0.040214997 0.7303523 -0.46011728 -0.51932853 0.38643736 0.26477388 0.60731304 0.49952653 -0.25900877 0.48058933 -0.065383814 0.14275554 0.2776689 -0.48662278 0.4810121 0.6154255 1.0199094 0.5590886 1.0306269 0.5449447 -0.6539514 -0.010747229 0.27227405 0.016924579 -0.21731314 -0.07445386 0.5685494 0.6623254 0.70519054 0.25631753 -0.07061316 0.57712 0.2716598 0.26494536 0.7917261 -0.70831 0.6089889 0.2269447 0.45732746 0.21584928
401 0.4617037 -0.021674631 0.040264875 0.39798588 -0.18524672 0.32205027 -0.2926169 -0.5484849 -0.3246522 0.8022608 -0.62240493 -0.15022624 0.49296027 -0.31486106 -0.15964887 0.0064744474 0.37039515 -0.117337145 -0.15553197 0.7013679 -0.44336727 0.17217335 0.55127645 -0.47490495 0.06762372 0.821357 -0.36022097 -0.40528044 0.40474677 0.3736496 0.59066737 0.447589 -0.49502054 0.38648218 -0.16612092 -0.02115586 0.30547673 -0.36120638 0.5832842 0.7557606 0.9596794 0.6167276 0.9843478 0.597445 -0.53644454 0.13621019 0.124468476 0.051935345 -0.3596104 -0.066250496 0.6319928 0.57896835 0.73885554 0.10562156 -0.1873044 0.7242119 0.33641875 0.26604098 0.87887096 -0.6441182 0.7107706 0.27233106 0.55854356 0.42702413
299 0.6040778 -0.17432651 -0.14406049 0.16563547 0.5859094 -0.9058016 0.10637331 0.42682838 -0.54029566 0.34298337 -0.23230241 -0.763221 0.3531426 -0.7992227 0.28568345 -0.1271177 0.6490156 0.44064042 0.29275152 0.7937376 0.55758387 0.273082 0.14989555 -0.13890515 -0.9015292 -0.033765778 -0.31242466 -0.6842242 0.5918782 -0.0025046326 0.87975764 0.60214835 -0.3193321 0.263377 -0.945841 -0.15645085 0.28083566 -0.32911274 0.52903914 0.3583722 0.24508466 0.71324885 0.5749607 -0.013859036 -0.47563705 -0.5648434 0.728821 -0.1311434 -0.46268624 0.7604373 0.32326448 0.15543815 0.5175077 0.031691477 -0.5873136 0.3686594 0.35640773 0.0146532 0.31882957 -0.14869907 0.31231818 0.3575694 -0.037066843 0.14727557
120 -0.49941906 1.2821212 -0.059215724 1.271518 0.1391605 -0.4184383 0.040343672 -0.120947696 0.60810536 0.26870438 0.37014955 0.18148531 -0.35672334 -0.46772406 0.27357706 0.47169822 0.73228544 0.88997406 -0.23217364 -0.6708636 0.5550025 0.48849124 0.03194318 0.20869084 0.6233821 -0.52849793 -0.20588605 -0.538022 -0.75518763 0.9058037 0.24871269 0.61577517 -0.64802945 0.21219358 -0.10842349 0.23892513 0.4962223 -0.6376237 1.5242568 0.16632545 -0.33074278 0.4479213 0.29324943 0.096063435 0.26071993 -0.5209693 -0.48698702 -0.380254 -0.20028844 1.1643119 0.3675971 0.65571636 -0.6087335 -0.18189862 0.17966874 -0.4835693 0.5432997 0.77558964 -0.106624976 -0.6136243 0.7242595 0.28493902 0.4961043 0.62770224
147 0.039822277 -0.29032138 -0.07251334 -0.31105083 0.20506437 0.7312743 0.07988043 -0.3414957 0.11059013 0.24061279 0.14027359 -0.7161518 0.6427393 0.9188416 -0.520551 0.34356478 -0.22579576 0.24292396 0.44304565 0.5218936 0.8630329 0.6695941 0.48919138 -0.13377883 0.69325817 0.06605242 -1.0059339 -0.5337004 -0.42363986 0.26628175 0.9026311 0.025410239 -0.40304247 -0.29333952 -0.4261559 -0.11315688 -0.32210025 0.108347006 1.0984052 -0.06113369 -0.42385492 -0.12311269 0.4295825 0.056674927 0.3253253 -0.070594005 0.5605666 0.33610287 -0.5004927 0.62078726 0.3088261 1.3823332 -0.22030623 0.23487167 -1.2727611 0.21576247 -0.5057998 0.10947531 -0.09050524 -0.2433713 0.19891264 -0.852847 -0.00035185774 -0.24062563
138 0.122229695 0.20858042 0.8889186 0.15745209 0.33875507 0.32887998 0.209385 -0.43431556 -0.6686668 -0.12918653 0.08779688 0.16621223 -0.64279497 -0.80809164 -0.23412132 -0.1535203 -0.17670909 0.17175929 1.141014 0.8429574 0.22798425 0.083765656 0.27829868 0.08161728 -0.12696105 0.3093413 -0.5657231 0.55841196 -0.8520658 0.2873532 0.57671905 -0.073412515 -0.20985137 0.7488126 -0.21858473 0.28325766 -0.45337752 -0.39772454 -0.38567805 0.19379745 -0.22717991 -0.012561662 1.3787018 -0.1289206 0.70020014 -0.3274547 -0.11141237 0.36751363 -0.78320813 -0.4494981 0.6803084 -0.37533888 -0.20488521 0.3469843 -0.0324794 0.33622122 -0.5820994 0.8632394 -0.22577313 0.2237634 0.517784 -0.96541053 0.26032367 0.538361
106 -0.25989142 -0.033484507 -0.19185153 -0.17712782 0.1343769 -0.38314968 0.12081597 0.16365756 -0.40366018 -0.01446184 -0.081864536 0.18275888 -0.642843 -0.7492524 -0.11499835 -0.27010775 -0.19358157 0.13537376 0.21510744 0.2853177 0.39125216 0.25004825 -0.19702786 0.0841913 0.6451479 0.7240325 -0.78520125 0.15801632 -0.145168 0.5242409 0.018786874 -0.21416594 0.06410485 0.33247608 -0.32658625 -0.0854109 0.13631625 0.30304706 0.08477961 1.0906254 -0.5971152 0.07668585 1.4292566 1.0627884 0.5510828 0.077054046 -0.31671903 0.038584903 -0.33460373 -0.31734183 0.0015520528 0.43011323 -0.06607593 -0.0077480297 0.58530766 0.09811392 -0.24483556 -1.0443319 0.21428077 -0.0011483607 -0.05512803 -0.85335875 0.36455452 -0.7658861
377 -0.41336766 -0.48263124 0.12288647 -0.20600183 0.40402696 0.31181014 0.88144153 -0.21975663 -0.07808111 0.26428735 -0.008692486 0.287585 -0.28994888 0.42375752 0.4502619 1.2171744 0.14353473 -0.92118347 -0.057061344 0.45794958 0.9972093 0.3545336 -0.43270886 0.22528139 0.40997404 -0.60519475 -0.30639037 -0.21049462 0.07307355 0.27950835 0.38065678 0.25941533 0.15750404 0.3159418 0.052872475 -0.14956543 0.29761505 -0.47726387 0.75089777 -0.41223058 0.18633458 0.3789539 1.0849112 0.22442724 -0.92935044 -0.09060706 -0.21278179 1.0322381 0.111170575 -0.17880385 0.26297694 -0.4129073 0.20494053 -0.34013513 0.5066349 0.58902425 0.14236958 -0.4342021 -0.171964 0.067049704 0.76606005 -0.09913157 0.31373903 -0.2692939
54 0.21794677 -1.0347457 -0.06782344 0.057177193 0.31311172 0.23616005 0.38174888 0.2715613 0.012188395 0.6105951 -0.19977601 0.16334802 -0.19238743 0.15194261 1.0730598 0.8367374 0.19411819 -0.4168178 -0.04941787 -0.6608212 0.41505337 0.5076297 0.3248572 -0.32526758 1.3395287 0.25155258 -0.51737034 0.60158664 -1.2736894 0.25859377 0.97749394 -0.054391745 0.09659468 -0.17232126 -0.25317746 0.32703403 -0.4652053 -0.5626589 0.18803206 0.1785344 -0.4831694 0.613131 -0.60565776 -0.37474665 -0.17960033 -0.81057644 0.28807598 -0.25232887 -1.0780799 0.2714953 -0.6126456 0.66840523 -0.44219443 0.0020396882 -1.0040718 0.7159466 -0.38632298 0.43854353 0.6425509 -0.14269234 0.7929341 -0.7508902 -0.21153392 0.021086043
194 -0.9147637 -0.7209531 0.41673407 -0.0728629 -0.27784574 0.058029536 0.42554283 -0.29659283 0.097813554 0.05704689 0.044362217 0.28740183 -1.0227128 -0.16161868 0.51159227 0.6634024 0.6446297 -0.8178078 -0.20338206 0.3645282 0.53621745 0.032259453 0.46895674 0.8647396 0.3010357 -0.5072894 0.51041466 -1.0600988 -0.52158475 0.96053946 -0.005949156 0.29750896 0.34579587 -0.13557054 0.030005073 0.13921192 0.11798717 0.11746489 0.925562 -0.30132836 0.38428488 0.5921881 1.0886072 0.49733827 -0.30614167 -0.48880625 -0.11467235 1.0929143 -0.6374271 0.047524996 -0.36487663 -0.57061744 0.65579253 -0.15190849 -0.0006302346 0.83891356 0.6032537 0.11645517 -0.2630929 -0.31466845 0.27089193 -0.7848186 0.64809173 -0.20337677
208 -0.9323019 -0.76101923 0.61803776 -0.01270032 -0.30738103 0.0060791182 0.39376882 -0.31601474 0.14626743 -0.039399628 -0.012872739 0.26489866 -1.0736377 -0.0075177928 0.42298084 0.71395016 0.6857385 -0.7301082 -0.21789958 0.38070965 0.51672065 -0.052319963 0.59124625 0.68238044 0.31214887 -0.6317005 0.42548764 -1.0860982 -0.36382163 0.969267 0.009490641 0.2324983 0.23463951 0.03540429 0.14639074 0.079137534 0.11597633 0.18225612 1.020355 -0.2770337 0.5492829 0.57189804 1.0730606 0.53676736 -0.33399898 -0.55568635 -0.058291573 1.1013706 -0.5546788 0.09584944 -0.43942958 -0.5753137 0.5882559 -0.048585277 0.0030078378 0.86684924 0.39632538 0.049784802 -0.36472118 -0.28847986 0.30584383 -0.78030074 0.5917906 -0.49037734
103 0.239217 -0.06083614 -0.31767502 1.247321 -0.36125118 -0.8345062 -0.27322984 0.23179065 -0.60685 -0.45765164 -0.24657261 0.60746515 -0.1278203 0.32043216 -0.009876314 -1.0042202 -0.31651267 -0.031415176 0.24798991 -0.71778685 0.849547 -0.6632911 0.8140519 0.596604 0.6444495 0.033522237 0.021082424 -0.34918934 -0.792592 -0.3036622 1.5030936 0.56698745 1.6739188 0.44559273 0.68642104 -1.0149379 0.62818784 0.14226718 1.7949774 0.49391302 0.4548909 0.3552887 1.855918 0.07457061 -0.92942685 -0.19210796 -0.05993809 1.3306295 -0.04645409 0.32773963 -0.47695878 1.1454291 0.7402145 -0.05817369 0.012300529 1.05823 0.08014168 1.4242958 1.169269 -0.46298942 0.23240887 -1.7447435 0.4717635 -0.13785951
294 -0.042115077 0.071796685 0.3353382 -0.030160176 -0.06382859 -0.24280465 0.3176861 0.32065898 -0.18294097 -0.15531832 0.29812938 0.24381353 -0.28510708 -0.15567799 -0.38019782 0.17225622 0.13074115 -0.04423149 0.24783109 0.2436352 0.13834237 0.34767088 0.101180896 -0.22801007 0.06377549 0.040020544 -0.40595332 0.46114072 -0.43589437 0.23109464 -0.041062955 0.15883535 0.21290186 0.183536 0.3811443 0.2309411 0.46191016 0.17600416 -0.3650489 0.1769055 -0.1502553 0.17685321 0.29752225 0.47596368 -0.002407754 -0.13520955 0.21828103 0.30611658 -0.27860934 0.14411409 -0.04478011 0.26715013 -0.043219164 -0.029012164 0.2364388 0.17807378 0.2238314 -0.2174322 -0.08910352 -0.050121162 0.31787387 -0.34817278 -0.23358595 -0.14409867
301 0.39503977 -0.12042077 -0.09750747 0.11288236 0.29675132 -0.05550966 -0.07276727 0.019986859 -0.230619 0.041956216 0.02569146 -0.38229015 0.013888258 -0.5082183 0.009131296 0.17798115 0.63057554 0.02607392 0.07434618 0.5051752 -0.22232619 0.3696698 0.2766141 -0.15479825 0.29964793 0.17577435 -0.059451707 -0.6271717 0.43342832 0.36274198 0.5341665 0.20759521 -0.2980831 0.5088054 -0.07830694 -0.19045918 0.3809268 -0.23588927 0.34232053 0.42807028 0.24762727 0.11982276 0.2049072 0.3847366 -0.5086423 -0.4739678 0.15951413 -0.26319203 -0.078741275 0.32837588 0.119507544 0.13163339 0.42788443 0.23073985 -0.15316439 0.44336683 0.119964376 -0.2327755 0.14485334 -0.13021354 0.5063368 0.2509153 0.43472913 0.7445282
91 -0.22926135 -0.14724727 0.6182853 0.18101299 -0.14674598 -0.22626853 0.2101384 1.2399784 -1.0279667 0.255742 0.28690135 -0.45585197 -0.16550313 -0.23740739 -1.0084094 -0.32463533 0.35170823 -0.0071290624 0.46234584 0.505746 -0.06434791 0.54732686 0.23665257 -0.30508462 -0.04943564 -0.17882578 -0.5453056 0.5865102 -0.1788077 0.1379604 0.06847465 0.36344653 0.1292582 -0.2467736 -0.48203638 -0.18776385 0.5354192 -0.11963905 0.66262144 -0.00086951413 -0.3374119 0.28764284 0.6712174 0.20655166 -0.43299648 0.5722831 0.49637896 0.20380259 -0.75542426 -0.03270901 -0.24552979 0.5052158 -0.07820253 -0.2367827 0.7966808 0.08464158 -0.05308219 0.32591304 0.042303335 -0.07232282 0.0069535216 -0.40154696 -0.5890549 -0.507937
84 -0.8939456 -0.75663555 0.54425675 -0.10471577 -0.16331933 0.11743373 0.49947196 -0.28078744 0.14193347 0.055935673 0.053116914 0.2544685 -1.0742948 0.069910154 0.5348303 0.68307483 0.6037105 -0.8069465 -0.14016043 0.2682128 0.43353826 0.016328674 0.47031477 0.8061993 0.25399578 -0.5365641 0.40468952 -1.0573429 -0.31883585 1.0982411 0.04576005 0.2600005 0.24077192 -0.03190699 0.031701963 0.14150509 0.16441266 0.15421627 0.99741393 -0.40079486 0.5041462 0.5768259 1.0990072 0.46972346 -0.33168793 -0.6432417 -0.06968336 1.062097 -0.58190703 0.069341846 -0.29908964 -0.53876436 0.64595634 -0.043369506 0.122204185 0.8197739 0.40309283 0.07915438 -0.24028745 -0.40067637 0.29509 -0.858516 0.6244185 -0.4294575
142 -0.18159977 0.27257708 -0.68800527 0.65205497 -0.35889056 0.24391177 0.5627254 0.6910193 0.11878528 0.58272177 -0.34661424 -0.5581439 -0.09465191 -0.97566557 -0.110258095 0.48318788 0.48480132 0.5830572 -0.33967766 0.26716793 1.59409 0.82907367 0.19120696 0.30618104 0.34159496 0.5856062 -0.055029687 -0.30858842 0.14562126 0.346573 0.051083498 0.25326055 -0.42983645 -0.188889 0.42594835 -0.32589716 0.7873404 -0.02174628 0.91023153 -0.01813489 -0.2731693 0.08411714 0.5903121 -0.004522112 -0.22236215 -0.6595933 0.6391441 -0.117073774 -1.1206204 -0.04211922 1.3169938 0.046046764 -0.6000732 0.26578334 0.12817252 -0.5931665 0.1179058 1.0474913 0.7911601 -0.11930887 -0.02362987 -0.38451618 0.2157703 0.16047035
56 0.026406694 0.3450904 0.17549239 0.52825147 0.22840916 0.20504917 0.16422588 0.122859776 0.27558324 0.46497995 0.13526215 -0.14258899 0.21735123 -0.61457306 0.006693315 0.34007448 0.2424244 0.5913058 -0.19918798 0.0214763 1.0044805 0.19548331 0.4457698 0.028149623 0.68491566 0.16274457 0.40632495 -0.22443591 0.1182883 0.2524393 0.23429033 0.43420917 -0.07447755 0.38916346 0.06420426 -0.17851628 0.29646763 -0.07760329 0.8037912 -0.043780215 -0.012911942 0.2543395 0.05609462 0.18465205 -0.09219714 -0.88778836 -0.15385802 -0.22333205 -0.27863148 0.25573006 0.46878073 0.17146118 -0.26862204 -0.19199325 0.13234316 -0.512514 0.58399343 0.2960251 -0.050258357 -0.1384268 0.29948097 -0.4369135 0.41520518 0.35893604
69 0.3210643 -0.09269045 -0.028979536 -0.38966888 0.40264827 0.13346916 -0.23439616 -0.100337945 -0.318081 0.056372385 0.665837 0.030029502 0.41946813 0.84594345 0.6726937 0.061052985 -0.12039907 -0.9170551 0.528433 0.107840344 0.6829086 0.073193476 -0.17355146 -0.22308654 0.8045328 0.97461075 -0.72802657 0.38465136 -0.22003523 0.93970364 0.69403124 -1.0635364 -0.16162473 -0.73244923 0.39665624 -0.35368094 0.17932615 -0.6853452 0.933386 0.083258376 -0.79024947 0.8061176 0.042772755 0.30750865 -0.22812779 -0.9659188 0.9436367 -0.096777506 -0.79036134 1.355254 -0.20726916 0.50177085 0.1929802 -0.8591834 -0.7408458 0.71786195 -0.30421692 0.7734462 -0.07608516 0.02954002 -0.1958288 -0.24365316 0.5858118 0.5388611
427 0.10874315 -0.46882194 0.9453649 0.4567186 0.52367 -0.51304066 0.29234612 -0.34300876 -0.74646306 -0.3294894 0.40886015 1.297266 0.4743359 -0.4459039 -0.27477717 -0.00029481383 0.7577228 -0.046702355 -0.6061148 0.6499236 0.43366265 0.5118236 0.3245496 -0.22454782 0.26008612 0.41308615 -0.9224112 0.37125897 -0.18140444 0.18215925 0.0037058827 0.43190223 0.62580615 0.10985524 0.10804567 -0.37082723 0.13689677 -0.16899882 -0.3480712 -0.65101033 -0.6124053 0.40669036 0.772918 0.42330888 0.5282076 0.28660083 -0.23296279 0.4634839 -0.39372057 0.19725214 0.040372226 0.6021174 0.110852726 0.13187414 0.43003878 0.5400962 -0.7264353 -0.33104512 0.33665577 -0.27315757 0.23523876 0.17814863 -0.3826005 -0.02536075
96 -0.0032510133 -0.10040378 0.95037556 0.309346 -0.38755673 -0.29408142 -0.07877434 0.6139616 0.071314245 -0.29784408 1.0460044 0.7112494 -0.27243888 0.24666296 0.4535689 -0.30181876 0.006081566 -0.35532683 0.5134063 0.48503432 -0.05699589 0.2648243 0.30055475 -0.58704555 0.24283022 -0.25713125 -0.6868643 0.07989302 -0.026324341 1.1186421 0.51872003 0.74174285 0.10554124 -0.2834825 0.47984755 -0.2029487 0.026709206 -0.043785084 -0.31858137 -0.018635638 -0.12348831 0.31787765 0.45255727 1.1052479 -0.16348754 -0.11724268 0.5547178 0.19929852 0.11192703 -0.3252845 0.022735484 0.070918575 -0.7090392 1.0444343 0.6185462 -0.1447164 0.28556964 -0.04211957 0.06985229 -0.2975482 0.16506201 -0.4237836 -0.8034341 -0.07471974
140 -0.9040088 -0.7285675 0.49144787 -0.0068772687 -0.19964348 0.0430572 0.38511473 -0.20199344 0.10921748 -0.053313486 -0.00460459 0.28513923 -1.0128741 -0.09520056 0.5150384 0.7491958 0.6782295 -0.7817918 -0.13615493 0.28647056 0.44263673 0.027187059 0.5099794 0.88531524 0.30114865 -0.58823335 0.41200843 -1.0024955 -0.31266102 0.9716396 -0.08738347 0.30329862 0.21086268 -0.12582654 -0.1257789 0.1698255 0.14056961 0.1317217 0.98668176 -0.3796027 0.3617697 0.5287479 1.1195469 0.43149674 -0.3436538 -0.60757023 -0.13450558 1.1161581 -0.5744673 0.17352389 -0.44119015 -0.5628918 0.66707987 -0.11230004 -0.030143807 0.8498651 0.46502438 0.1416576 -0.28253224 -0.2919184 0.3048781 -0.8591084 0.5657133 -0.42699707
95 -0.06273558 -0.22745876 0.43312868 0.20994699 0.014825213 -0.32798204 0.4061427 1.1044992 -0.8765274 0.15846089 0.30049923 -0.33471766 -0.21676438 -0.115421005 -1.1434984 -0.28534052 0.20718709 0.014868941 0.43248183 0.6918265 0.15633677 0.56314224 0.41127217 -0.46957183 0.012496965 -0.2566398 -0.35504574 0.50171375 -0.23273079 0.18128611 0.054813933 0.34787038 0.2366149 -0.42010403 -0.37101898 -0.048272748 0.5512964 -0.17542563 0.52120155 0.109865904 -0.119110994 0.47396183 0.66557974 0.3114172 -0.1143206 0.3707197 0.76679665 0.06978288 -0.67616415 -0.18590869 -0.2126488 0.5811383 0.07780635 -0.08798285 0.88140285 0.12178981 -0.055799108 0.45557988 0.1550989 -0.001990729 -0.0041787224 -0.42340976 -0.87459403 -0.58338106
90 -0.7479354 -0.39795914 0.5073583 -0.5599695 0.9192224 -0.7678047 0.8164371 0.4108982 0.4323498 0.11784514 -1.0277456 -0.073105946 0.32564548 0.36676958 -0.20681259 0.6065672 0.026012 -0.73861825 0.72494465 0.28224057 0.6371273 0.99928707 0.44209895 0.16562611 0.929818 0.039482426 0.14342879 0.5278196 0.4551721 0.92029244 0.56557417 0.109425895 0.58115786 0.579162 0.22475067 0.78315586 0.2291408 -0.3047958 0.30849352 -0.34928477 0.20823482 -0.1703396 1.3372573 0.49846593 -0.5298767 0.47378656 -0.8558419 0.8864769 -0.3621675 -0.69112736 0.58372355 -0.029273523 -0.45863172 0.029436203 -0.3942463 0.7561807 -0.23864304 0.08006247 -0.03942318 0.20725173 -0.3418767 0.5169037 0.099976346 -0.13635859
78 -0.83200693 1.1654807 0.6263276 -0.2513545 -0.18043676 -0.0015337506 0.5786635 0.41124824 0.45568463 -0.33162796 0.33771452 0.17269568 -0.33068606 -0.41515747 -0.32609478 0.30333796 0.39145795 -0.6127654 0.4976041 0.81765956 0.5583712 0.39302245 0.437727 -0.19064331 0.4154164 0.31812108 -0.40308848 0.70378035 0.44256005 -0.4647997 0.3063711 1.1378502 0.123418555 0.3726225 0.10714981 0.52331674 -0.103068985 0.033280123 -0.008330517 0.13673566 -0.4748298 0.10724621 0.03602198 0.29689655 0.082035474 0.0932486 0.5443188 0.11962992 -0.20050512 0.2604008 -0.14647801 1.1032321 0.070468314 0.4480673 0.34387562 0.62696254 -0.3020612 0.39076415 0.114261866 -0.1933358 -0.19948128 0.10379092 0.55199265 -0.5251616
182 -0.88384664 -0.6879835 0.5209851 -0.04337561 -0.17395762 -0.06617599 0.39254084 -0.3215906 0.15158053 0.033999357 0.049841978 0.17042968 -1.0190852 -0.07784427 0.42424905 0.6714449 0.6424524 -0.8644089 -0.21558568 0.2953171 0.5435923 -0.05648966 0.4560769 0.86149114 0.28022024 -0.48861468 0.46121985 -0.9623494 -0.49801102 1.0810899 -0.09935957 0.3075426 0.22413373 -0.14875337 0.07938364 0.105200306 0.1530087 0.06324003 0.90912986 -0.3618007 0.6292091 0.5774979 1.0700846 0.5606248 -0.19947703 -0.5609853 -0.09005712 1.0993158 -0.51462984 0.09780971 -0.39911628 -0.5402709 0.6486568 -0.002717261 -0.11747801 0.84883595 0.37421942 0.17819074 -0.313714 -0.333266 0.2712503 -0.84852356 0.5635622 -0.39579144
226 0.021065045 -0.47029278 0.011144841 -0.36740747 0.47965673 0.13428484 -0.27710485 -0.12596932 -0.06452991 -0.097798556 -0.010490975 -0.12402202 0.5365798 0.43853155 0.4726316 0.45315647 0.21405846 -0.45103717 0.42189685 -0.22263625 0.7068301 0.7349554 0.15884264 -0.41613948 0.6409849 0.29543677 -0.40770066 -0.063939445 -0.63272697 0.4787674 0.6797499 -0.1672855 -0.17781916 -0.45981073 0.16380134 -0.046742007 -0.3730424 -0.121568754 0.6357678 0.025647929 -0.607519 0.43665093 -0.1600533 -0.06999529 -0.05284373 -0.54159415 0.39824492 0.10065979 -0.5500223 0.6358647 -0.48090866 0.76794046 -0.25445038 -0.07889994 -0.18736425 0.2404324 -0.0019966734 0.09962141 0.107798435 -0.21591961 0.34900144 -0.46898887 0.3211055 0.058547284
149 -0.433967 0.32804322 1.3400115 0.9801928 0.28940997 0.2250577 0.0977764 -0.3455498 -0.1318966 -0.10553994 0.31301486 -0.88063055 0.087924026 -0.6182404 -0.16356936 1.0129128 0.27239648 0.21532957 1.0681771 0.9926165 0.4962853 0.24886174 0.37541768 -0.2769851 0.10250374 -0.2421164 -0.8916409 0.9572239 -0.96761835 0.22478785 1.0619109 0.05802722 -0.020637888 0.81367344 -0.87193877 0.37342575 -0.23517768 -0.08841817 -0.6159904 0.21154289 0.0170693 0.39713168 1.2168461 0.16882737 0.84425914 -0.8202812 0.29901126 0.7486774 -0.51424956 -1.1812208 0.82747805 0.12589242 -0.037481263 0.8442216 0.406387 0.5285671 -0.9260466 1.6518573 -0.63079345 -0.08329091 -0.548165 -0.25136963 1.0468352 0.627634
135 0.051128533 0.28217 0.9121226 0.28464592 0.40972972 0.22695273 0.30063576 -0.25661454 -0.6609704 -0.118126385 -0.05423308 0.040793356 -0.67861044 -0.81959903 -0.08415174 -0.20742868 -0.121681 0.14432083 1.2061427 0.79241097 0.1483359 0.09506752 0.4371358 -0.122950085 -0.0723439 0.23466657 -0.5640919 0.69141185 -1.0079114 0.31331962 0.42506647 0.11705943 -0.25723258 0.6284993 -0.12429042 0.07429808 -0.5642517 -0.3821156 -0.39511326 0.16110922 -0.196817 0.05954451 1.2631588 -0.13457526 0.6116072 -0.24866037 -0.13398258 0.32683563 -0.6406754 -0.3726877 0.6867388 -0.36140165 -0.09038477 0.29129535 -0.0794007 0.23497842 -0.5672541 0.7474034 -0.11413387 0.10204586 0.49395555 -0.92088574 0.34083667 0.474815
309 0.02078551 0.06000608 0.3891052 -0.022790318 -0.027193042 -0.35698086 0.32721484 0.49095953 -0.03291032 -0.25871927 0.2950178 0.34949678 -0.26588967 -0.071340136 -0.44762367 0.08452805 0.1348241 -0.029444873 0.22361356 0.2842396 0.19888787 0.35047016 0.15248893 -0.13401262 0.12927674 0.005249429 -0.5266986 0.4386025 -0.38356614 0.2736724 -0.017159302 0.16504759 0.15841736 0.25196582 0.3407637 0.004477548 0.39187762 0.15484291 -0.38674396 0.2728262 -0.18032248 0.0817013 0.16098903 0.63080233 -0.021419365 -0.20091997 0.25150993 0.36421126 -0.2167585 0.26546732 -0.1303907 0.1436107 -0.021995988 -0.04571889 0.19629994 0.056649394 0.11190797 -0.0036698445 -0.09848941 -0.17864758 0.2295879 -0.38142645 -0.05546689 -0.20826988
196 0.0042065657 0.31161314 0.21754429 0.58973926 0.28860548 0.19378749 0.22616337 0.16755491 0.17857707 0.23657477 0.14293574 -0.12774503 0.21705678 -0.5459123 0.037519146 0.47493348 0.2009656 0.66946244 -0.15174894 0.0400365 0.9275721 0.13172644 0.35555366 -0.1425179 0.52570564 0.33921522 0.3609381 -0.22404549 0.14382626 0.31939995 0.36170152 0.44602942 -0.11415531 0.20386948 0.049937528 -0.11606304 0.34077486 -0.050173257 0.880197 0.011488109 -0.07245721 0.3432975 -0.11964773 0.24122882 -0.006729413 -0.8621362 -0.17562066 -0.10712635 -0.2079887 0.25018322 0.43974555 -0.09403953 -0.24627405 -0.20408988 0.12880573 -0.5801524 0.58980703 0.25016555 -0.107804395 -0.15331729 0.24263042 -0.5338403 0.39328516 0.36271474
177 0.14415933 -0.3676243 0.004634284 -0.1817658 0.116109714 0.59459406 0.011790478 -0.3377881 0.04454455 0.15234245 0.2843028 -0.81424487 0.5988753 0.89073926 -0.35070494 0.41371173 -0.20508116 0.16063996 0.40817896 0.50552386 0.80359215 0.49569628 0.5020877 -0.1545704 0.58362246 0.14824072 -0.97122383 -0.55728847 -0.28962445 0.20268446 0.8578559 0.12325431 -0.4214886 -0.2856914 -0.4147013 -0.23260893 -0.49745125 -0.049762394 1.0564101 -0.09172136 -0.55066633 -0.028694214 0.36806616 0.17574868 0.1568993 0.034169894 0.5205523 0.3072061 -0.61050653 0.48526287 0.22178426 1.2801876 -0.4645669 0.24434616 -1.2589239 0.3534827 -0.48312187 0.22405362 -0.20273389 -0.2965383 0.20430158 -0.97233456 -0.023403332 -0.27922067
137 0.15991631 -0.36552867 0.15301023 -0.2353699 0.11315354 0.5383703 0.18683094 -0.43633538 0.13932963 0.29538175 0.17948171 -0.82434994 0.58627325 0.9293666 -0.5493446 0.20604861 -0.26714215 0.11114602 0.43585536 0.66298515 0.91775453 0.5654153 0.53048974 -0.119871125 0.7317483 0.11451472 -1.0461016 -0.481153 -0.42254484 0.25137317 0.83801025 0.108484976 -0.39580333 -0.36057684 -0.41407958 -0.15953931 -0.51671505 -0.10329746 1.1637126 0.08834263 -0.43466893 -0.12931742 0.32660615 0.22811204 0.15041377 0.02458106 0.56357455 0.3744712 -0.49371907 0.49033314 0.21678667 1.3828276 -0.4042985 0.21231756 -1.4529489 0.18312426 -0.53248566 0.1285599 -0.10958178 -0.17899717 0.2559893 -0.8532541 -0.01988062 -0.22754307
68 0.11575591 -0.4715932 0.046672147 -0.31732512 0.3649366 0.1776025 -0.28186616 -0.23876785 -0.2510501 0.024111556 -0.019463716 -0.15120271 0.53188694 0.39096123 0.5408405 0.4782675 0.17943884 -0.47016767 0.5145419 -0.17997806 0.72043824 0.64325243 0.06253455 -0.3898779 0.6637695 0.35410574 -0.26418397 0.01834951 -0.56679636 0.446633 0.6549543 -0.16346924 -0.21574378 -0.39322057 0.22106001 0.14574768 -0.34090117 -0.23517576 0.46238658 -0.015398958 -0.63085526 0.4501182 -0.13145775 -0.056389265 -0.072205566 -0.5566856 0.3023685 0.08519628 -0.6066192 0.67893213 -0.48439512 0.83085567 -0.21525128 -0.012811723 -0.2937752 0.13946499 0.047778197 0.10516858 0.1266465 -0.26537713 0.42825186 -0.5358556 0.20180374 0.030577978
108 -0.0077685816 -0.33634722 0.7039102 0.1857421 -0.25926572 0.016627138 0.10299243 -0.59769446 -0.26594964 -0.2713752 0.39894915 -0.46405897 0.47442207 -0.786918 0.58334583 -0.50982875 0.87604 -0.40108806 0.7258783 0.18260592 0.1740484 1.0479867 0.29761288 0.02505329 0.022469455 -0.47908133 0.4393318 -0.5924354 0.12311616 -0.58441913 0.40614063 0.2377016 -0.77773565 1.5079039 -0.41650605 0.47302288 -0.11423684 -0.14252837 1.0395327 -0.017389419 0.6203213 0.5037314 0.7249516 1.0277992 -0.5017473 -0.7315249 1.2310824 -0.11248557 0.19464593 0.69405127 -0.0012982463 -0.11386384 0.019676944 -0.07788411 -0.47380015 0.14083156 0.110989854 -0.85072744 0.1616469 -1.368028 0.13785411 0.023278147 -0.9546718 1.5503595
213 0.06843331 0.38732356 0.9307476 0.039620224 0.27057534 0.1650362 0.42400402 -0.21922716 -0.6789196 -0.00032531304 0.21216513 0.07482268 -0.64345807 -0.72645015 -0.10339662 -0.09857491 -0.0808006 0.1610857 1.0834951 0.62094194 0.0136081055 0.12288486 0.38550967 -0.11639902 -0.27624702 0.32799184 -0.5467083 0.5991959 -0.8099486 0.3193721 0.5389899 -0.089244895 -0.23459849 0.6930006 0.0031011363 0.24037425 -0.41320115 -0.50332594 -0.18104127 0.23415487 -0.19735563 -0.046712525 1.232413 -0.1642872 0.58540845 -0.33949444 -0.18785761 0.23273179 -0.7565134 -0.4981946 0.77219045 -0.40149763 -0.020895759 0.19674648 0.05381587 0.2466466 -0.53865075 0.82915276 -0.19306494 0.111630455 0.3938234 -0.9307375 0.37462157 0.38474166
5 0.087830454 0.3355614 0.22749625 0.62850076 0.07211075 0.29686376 0.25901103 0.052083 0.27578983 0.31054467 0.16475503 -0.20863466 0.15190028 -0.52003694 -0.09414254 0.36403552 0.16905604 0.7812242 -0.11717269 0.016040646 0.88827443 0.24556033 0.25641456 -0.16124727 0.65337205 0.24962732 0.48732945 -0.28179482 0.15098055 0.35576063 0.31138796 0.563847 -0.14418238 0.30563262 0.05278466 -0.15715756 0.44133407 -0.13141817 0.7936503 -0.20620418 -0.049827475 0.29663306 0.03751259 0.2293118 -0.11984578 -0.8899088 -0.17704122 -0.15944345 -0.43758908 0.30668172 0.43594784 0.13540244 -0.20035516 -0.26160496 0.17480029 -0.48305857 0.47908786 0.30407083 -0.13736916 -0.02479685 0.20565824 -0.4806923 0.33486837 0.33907214
426 -0.09089143 0.071337715 0.47363865 0.058697216 -0.04738256 -0.3701562 0.2708945 0.36506706 -0.15134653 -0.3070966 0.32882753 0.3118642 -0.29607496 -0.20067444 -0.39370206 0.05020792 0.094247565 -0.06408971 0.11035886 0.166676 0.16231014 0.43198767 0.12878446 -0.009944202 -0.17239651 0.028178116 -0.2863779 0.50651455 -0.2856286 0.35616943 0.12223441 0.06250709 0.29121414 0.31530595 0.19894126 -0.041009918 0.3247517 0.16754732 -0.399702 0.1452103 -0.28021276 0.24286602 0.27635026 0.48089144 -0.14757948 -0.03274394 0.2783156 0.29452756 -0.379295 0.14095122 -0.072925426 0.34486315 -0.057679087 -0.08705357 0.12009365 0.021698367 0.17100577 -0.15725154 -0.14575426 -0.13898008 0.51048803 -0.2722709 0.03138827 -0.19209693
41 0.02378227 0.04586842 0.33432248 -0.13743734 -0.034306876 -0.30743918 0.39815336 0.2779436 -0.18277207 -0.19308029 0.323098 0.33460897 -0.2772384 -0.1423119 -0.502776 0.10169094 0.24294111 -0.069683276 0.15033783 0.20471656 0.15645772 0.28351018 -0.014570782 -0.120112844 0.075919114 0.08464456 -0.5632598 0.5301829 -0.191915 0.2874917 0.0731487 0.30921945 0.25653085 0.40793306 0.34729648 0.21117973 0.44283688 0.2583186 -0.3154855 0.034609385 -0.26455975 0.17264642 0.3123371 0.39582655 -0.037015945 -0.19047767 0.3128357 0.25111958 -0.13165906 0.36092806 -0.15556721 0.14178807 -0.03377004 0.07519716 0.1873401 0.115510955 0.2772227 -0.025902204 -0.1569284 -0.16292089 0.22626096 -0.3648836 0.014236065 -0.25775945
36 -0.33176067 0.49148095 0.37320876 0.24879073 0.19901347 0.18449236 0.49306983 0.003057374 -0.68215144 -0.13648404 -0.14498822 0.14106695 -0.42343724 -0.5412825 -0.6749919 0.3715824 0.21467279 -0.31540126 0.80983686 0.2863931 -0.15756737 0.38919815 0.35241145 -0.09516671 -0.7508669 0.046163335 -0.15310468 0.6577095 -0.557111 0.05121439 0.5217329 0.21748713 -0.32484543 0.47301897 0.29931298 -0.07374423 -0.37950563 -0.14861241 -0.2786243 -0.012434881 -0.32027167 0.42063177 0.88514084 0.27820858 0.1352301 -0.048678465 -0.40402374 0.04463296 -0.48729166 0.1679421 0.06253477 0.25898218 -0.02168477 0.48389465 0.2617302 0.029846376 -0.048495203 0.21742597 0.2024033 0.09381171 -0.43741173 -0.83341646 0.54620224 -0.02902794
77 -0.11642307 -0.13338053 0.5906238 -0.18556751 0.13561386 0.046704557 0.5779095 -0.011011631 -0.6310334 -0.79488176 0.17085269 0.2728875 -0.090038866 -0.032411143 -0.57949084 -0.26001886 0.104646064 -0.28361982 -0.6623219 0.4070234 0.54604834 0.44188783 0.17133671 -0.19734937 0.21029326 -0.20190118 -0.3284139 0.5016695 -0.21180926 0.3500672 0.54282707 0.47498056 -0.084709376 0.12238155 0.09038494 0.4935789 0.38773245 0.47471133 -1.0763073 1.0263042 -1.0607352 0.60266095 0.69204086 0.8757794 -1.0152514 0.15262063 -0.5322292 0.10330956 -0.11349147 0.26507053 0.045297317 0.5778191 -0.45587116 -0.36687627 0.6086052 0.028953884 0.4403281 0.45391455 -0.12660845 -0.087054655 -0.06658011 -0.4766611 -0.82034606 0.67392683
132 0.06927523 -0.6624991 -0.010997192 -0.17285141 0.85687923 0.45873067 -0.30447087 -0.6499278 -0.4873149 0.7798919 0.15323544 0.19440283 1.0335385 0.06611228 0.07345853 0.3488992 0.04773227 -0.5213199 -0.20380719 0.25848398 1.0553637 0.9097285 2.479511e-05 -0.57072353 0.6916532 -0.0035995306 0.50656855 0.3992008 -0.42104998 0.45426697 1.2379173 -0.35081995 0.06925378 -0.371755 0.8732007 0.031344764 -1.1996589 0.16659272 0.17270431 0.661573 -1.0310417 0.20077845 0.3368194 0.24859165 -0.44708332 -0.5141953 0.11593723 -0.15050814 -0.44925106 1.1680763 -0.86684495 0.96138406 -0.27473786 0.109966785 -0.39343056 -0.28525153 -0.043715756 0.81224895 -0.42657962 -0.84545773 0.45989704 -0.1083355 -0.18943286 -0.116699494
167 -0.05146444 -0.11230037 0.49552575 0.12080281 0.022077981 -0.22722699 0.086804815 0.31004632 -0.14249724 -0.19083145 0.27840954 0.31723 -0.33999163 -0.27666607 -0.45339242 0.11606764 0.29348528 -0.37052706 0.29729253 0.12354097 0.14521046 0.40760225 0.19786792 -0.123077445 -0.005827143 -0.02778312 -0.53802425 0.50653404 -0.39122537 0.30509555 0.0621731 0.29876336 0.20268643 0.24713154 0.2679569 -0.05139072 0.43745968 0.18458182 -0.3563352 0.24020836 -0.2015558 0.114810854 0.26669303 0.58478993 0.0016820927 0.06739774 0.2563004 0.24961914 -0.20645434 0.2359962 -0.060067747 0.20525977 -0.13224472 -0.077464774 0.07479017 -0.08771275 0.25904825 -0.13978352 -0.20799068 0.03257508 0.21595657 -0.180274 0.0057610273 -0.16184075
411 -0.14619507 -0.58152914 0.17268193 0.63946265 -0.009341443 0.42522627 -0.12171738 0.33590096 0.017391158 -0.49318388 1.0259695 0.011131123 -0.032208726 -0.30862695 -0.64985317 -0.7034266 0.3167836 0.27370405 0.59245384 -0.12043648 0.743269 0.08837954 0.2146361 -0.08094364 0.04455689 -0.08025034 -0.5403972 0.80386686 -0.49568895 0.95040643 0.58089346 0.42843804 0.103470445 0.09034537 0.98034304 0.7746542 0.038112465 -0.40647975 -0.30726552 0.06486961 -0.7630156 0.317614 0.25625837 0.5042784 -0.048247896 0.66181374 0.31960967 0.30323705 -0.027489796 -0.539779 0.13480666 -0.081848614 0.4574154 0.082593516 0.742342 0.38190562 0.9608618 -0.5362834 0.21842165 -0.48992488 0.60523874 -0.21125773 -0.36416852 -0.139881
130 0.0743156 -0.40737987 0.06010552 -0.393716 0.4726822 0.13346885 -0.4007031 -0.234691 -0.26315942 0.051709205 0.04638085 -0.07380801 0.4960378 0.5542301 0.5601969 0.44561926 0.11663851 -0.45828035 0.5279364 -0.1654141 0.6416798 0.7778366 0.20019804 -0.45622328 0.6845042 0.22349802 -0.31636593 -0.07285862 -0.58150405 0.37220895 0.663979 -0.18042174 -0.1644374 -0.4773525 0.112909764 -0.03717076 -0.29946563 -0.14248854 0.5887584 -0.042714037 -0.59381163 0.47350863 -0.15063286 0.06483195 0.030905014 -0.65225077 0.33446082 0.14410788 -0.4854152 0.5879547 -0.5240144 0.7404506 -0.3071652 -0.0025591475 -0.20615233 0.122076645 0.15759635 0.07111793 0.18323886 -0.1537762 0.45208985 -0.43847406 0.36316893 0.04048536
424 -0.52712613 0.035406042 0.6545366 -0.07870095 -0.0011849484 -0.2507629 0.466645 0.6598101 0.04538151 0.37362075 -0.36941049 0.08325653 -0.27109474 0.26162663 -0.4754846 0.25626156 0.057783823 -0.0754979 0.97287774 0.30581942 0.72310317 0.6384803 0.111963645 -0.3034911 0.25627175 0.126736 -0.10297872 -0.42915097 -0.114261866 0.17790355 -0.063594036 -0.17198664 0.17266503 0.6479177 0.61454237 0.028588196 0.19208315 -0.45152682 -0.40175053 -0.0991049 -0.7778281 0.8311493 0.7732943 0.39634016 -0.36226815 0.0635445 -0.17475468 0.15350147 0.054381195 -0.5084755 0.22068581 0.0033716867 -0.3254654 -0.24806833 -0.63376373 0.5474187 0.24842304 -0.35300428 -0.3280449 0.20965248 -0.06752404 0.43053982 0.101092726 -0.35540923
154 0.051705007 0.4286826 0.21252725 0.5105558 0.2409924 0.27218425 0.300531 0.23171695 0.2589184 0.17609072 0.19471611 -0.12829684 0.19562668 -0.4527726 0.07852907 0.37286335 0.21638177 0.60040146 -0.15320547 -0.07731605 0.9151177 0.20445177 0.5120154 -0.014171118 0.59958476 0.28869614 0.48298588 -0.26679465 0.18354411 0.34600392 0.28797054 0.4577726 -0.12367021 0.35226607 -0.011781605 -0.2169321 0.35744616 -0.041129783 0.8222318 -0.124254026 -0.102966316 0.33359998 0.019707335 0.17728406 -0.030101536 -0.7790318 -0.18249771 -0.15314355 -0.3025256 0.25250554 0.38913968 0.02414893 -0.19360055 -0.23667072 0.23680148 -0.5288778 0.5599207 0.29017502 -0.106192164 -0.12903114 0.29685387 -0.40756452 0.4446191 0.46928936
210 0.1966902 0.25227118 0.91077447 0.041956346 0.17292987 0.16617894 0.20046571 -0.26700863 -0.7456862 0.0371455 0.33049855 -0.021307118 -0.69044733 -0.6635295 0.03583225 -0.12592134 0.13218956 0.05407854 1.1229403 0.77398366 0.15262504 0.08838286 0.3806789 0.08098128 -0.27998883 0.2523622 -0.5234403 0.66273236 -0.94939476 0.336042 0.57953256 0.059913885 -0.17855786 0.6186841 -0.19665411 0.19676198 -0.4711495 -0.45169088 -0.27505016 0.27320823 -0.27909938 0.01632733 1.4505979 -0.14414677 0.5536403 -0.1456925 -0.2731618 0.09921904 -0.7222058 -0.41521037 0.7673332 -0.36499894 -0.103139244 0.44469622 0.101872146 0.24253882 -0.48213232 0.80712694 -0.28972718 0.28566888 0.40693638 -0.89576 0.32856783 0.39680222
461 0.030389613 0.017111897 0.4056184 0.0992139 0.10118912 -0.30946693 0.35368252 0.24525285 -0.20972736 -0.23417561 0.30049744 0.23707207 -0.10339972 -0.14817578 -0.30448157 0.14603512 0.15058841 -0.15750529 0.21894918 0.2629125 -0.053548783 0.2502398 0.17109536 -0.04940155 -0.017386157 0.059447803 -0.46733034 0.556001 -0.33232367 0.16885813 -0.018972492 0.2841059 0.32258123 0.23597483 0.30010563 0.07944278 0.41287112 0.0082126 -0.39782014 0.14496891 -0.33848426 0.27855477 0.2804477 0.47689337 0.0024156505 -0.07405661 0.30892682 0.2906073 -0.20642039 0.25681162 0.0054288316 0.073243745 -0.061004646 0.06419309 0.18505122 0.18687648 0.28343076 -0.09584366 -0.06909283 -0.1994625 0.24319234 -0.4651859 -0.06817181 -0.18078625
43 -0.25229335 0.14412874 -0.27194148 -0.35251215 0.11656423 -0.42631212 -0.045947053 0.15388657 -0.23629843 -0.031062732 -0.050070126 0.1335724 -0.66766036 -0.6934469 -0.105793886 -0.32731128 -0.09672501 0.051690154 0.14911048 0.32253063 0.19035295 0.19427426 0.12112018 0.046607148 0.63826144 0.631943 -0.81032336 0.23847786 -0.09454805 0.50922763 0.08192828 -0.06823542 -0.100710854 0.29872364 -0.29126903 -0.3050442 0.11805914 0.32817373 0.094016716 1.0834721 -0.6314086 0.1647256 1.4279722 1.0789684 0.50630057 0.13457602 -0.36818817 0.18318948 -0.36873606 -0.22938672 -0.06304885 0.28801206 -0.17406666 -0.2180601 0.53735024 0.29624587 -0.33526114 -1.0261706 0.11674348 -0.20272623 -0.007917981 -0.7801976 0.49308464 -0.8122829
319 -0.1071191 -0.06673914 0.45819214 0.10420302 0.1242922 -0.38684577 0.30754977 0.32303646 -0.1164154 -0.18562207 0.2892142 0.16069838 -0.29062185 -0.079072334 -0.5113884 0.0844899 0.060458384 -0.1282106 0.1739485 0.19823968 0.17648157 0.31211346 0.09098739 -0.0012779487 -0.1158642 0.024819195 -0.47494757 0.47529125 -0.28086233 0.31757063 -0.13040061 0.27930626 0.27800924 0.31010008 0.34842274 -0.05413626 0.45491567 0.091497675 -0.2721105 0.20259213 -0.30054286 0.208542 0.18566035 0.4430618 0.0032126089 -0.15852924 0.20307903 0.26747835 -0.1308065 0.1777503 -0.055967987 0.25209165 -0.0036872106 0.0030904172 0.15278041 0.1508304 0.2103562 -0.06818226 -0.0804309 -0.10440932 0.3776671 -0.36103845 -0.0788259 -0.1200613
57 -0.122544624 -0.37369007 -0.32382318 -0.46311948 0.4312331 -0.8897921 0.326493 -0.3709864 -0.502726 -0.44231796 0.65492314 0.22484477 -0.18868968 -0.327345 -0.26282254 0.056829326 0.2513134 0.703636 0.55470204 0.108206294 0.096051216 0.19577618 -0.3518255 -0.55720097 0.22502674 0.22260906 -0.1664642 -0.052843764 -0.26268613 -0.21768619 -0.058584824 1.081586 -0.39387724 1.0321214 0.41569152 0.22904551 0.22120525 0.733269 -0.13392055 0.03554461 -0.59397876 0.17439306 0.77251154 0.8836427 0.53311694 0.4439422 0.9300797 0.24153922 -0.49080497 0.045171753 -0.26767838 -0.24690945 -0.42707962 0.062654205 0.19317654 0.42870566 0.09406721 0.26834542 0.5269868 0.23537919 0.5162672 -0.5697389 0.46952888 -0.46833852
310 0.08098035 0.0013359815 0.41396436 -0.036972515 -0.073056564 -0.38475007 0.07413756 0.41611335 -0.1553322 -0.17443603 0.25630692 0.21990366 -0.29357138 -0.05846982 -0.490223 0.0737096 0.113803945 -0.2334019 0.24065903 0.18621592 0.29606965 0.24634299 0.11475416 -0.07513678 -0.0024259256 0.029491583 -0.45671248 0.4259732 -0.39247292 0.30997318 0.098624036 0.329082 0.23872556 0.38725436 0.33564237 0.0802666 0.34299123 0.23461948 -0.32820642 0.020376835 -0.2563137 0.22637859 0.25853446 0.4944366 -0.07404766 -0.16703792 0.078291655 0.19736739 -0.39475715 0.19593297 -0.029040402 0.18626112 -0.21778277 -0.055879064 0.29236183 0.15656927 0.28527403 -0.23368718 -0.11024953 -0.15835609 0.26467344 -0.07195431 -0.18478963 -0.14340873
104 0.56502014 -0.6366311 -0.030689118 -0.36909062 0.83050627 -0.07945705 -0.37371162 0.096255295 0.40901223 0.07894021 0.7312066 -0.38868937 0.7459731 0.45426363 1.5471723 0.188871 0.4420189 -0.6820144 1.1335139 -0.14462532 1.0548383 0.570598 0.2715932 -0.37100396 0.50454926 0.1503723 0.06510135 0.110468656 -0.6195339 1.1601388 0.5596099 0.35510427 -0.5889614 -0.13358144 0.1398883 -0.60039115 -0.8793734 -0.2161156 0.10740942 0.15648039 -0.47775152 0.8895133 -0.039940756 -0.12059298 0.28857455 -0.2101167 0.72554654 0.1497862 -0.0802367 0.16529214 -0.42350146 0.5159466 -0.418147 -0.05399934 0.01309124 -0.13208911 0.39445716 0.17418239 0.5602602 -0.33769682 0.75777453 -0.84919244 -0.05817774 0.5878575
181 0.18793598 -0.8256028 -0.0281414 0.022492591 0.34593552 -0.18678257 1.2693516 -1.3247318 -0.040760443 0.48806927 0.8013319 0.49663752 -0.13766323 0.3945926 0.55671245 1.7210941 -0.073646955 -0.40733036 -0.045185417 0.70923066 1.1014057 1.0888463 -0.86557746 0.08626976 0.18751717 -1.2709008 -0.4675624 -0.4105706 0.35553718 0.31331342 0.21518213 0.75162923 0.40968168 0.4190132 0.24293123 -0.58997697 0.1321977 -0.24915327 0.50256044 0.014325623 -0.24417147 0.24587624 0.89493954 -0.18602301 -1.0119818 -0.2707494 -0.33222127 1.0132654 -0.1565245 -0.44574556 -0.05408638 -0.49201408 0.46438867 -1.0289131 0.90105665 0.9916201 0.18752943 -0.08004885 -0.36878377 -0.79100025 0.60454285 -0.2412904 0.25824538 0.35489994
284 0.6668395 -0.30297294 -0.09912309 0.30961254 0.5193773 -0.70145494 -0.049522217 0.26279554 -0.5725184 0.43970627 -0.29429895 -0.85082996 0.43886706 -0.82794327 0.14535996 -0.0635762 0.671213 0.48096994 0.39434266 0.6998505 0.53725564 0.32989702 0.23419043 -0.21653526 -0.82094294 -0.103905395 -0.24228792 -0.5376647 0.7654428 0.16021489 0.79819447 0.78227925 -0.29133675 0.3234069 -0.908544 -0.03550481 0.21734186 -0.4180049 0.48861375 0.40184167 0.3395233 0.7956642 0.60331553 -0.092881896 -0.49528757 -0.5147407 0.6762629 -0.026355805 -0.46164265 0.9188028 0.2018436 0.20073722 0.53376323 -0.04310754 -0.5825278 0.44440803 0.25316983 -0.15605912 0.37970483 -0.07621033 0.28756455 0.36841094 -0.059338264 0.14458434
442 0.3269504 -0.11374921 -0.1772989 0.06382054 0.37967768 -0.19861004 -0.08749513 -0.15434006 -0.23975354 0.24542984 0.034372468 -0.48037624 -0.05112123 -0.5344482 -0.0018573852 0.14118515 0.6944774 0.017754836 0.08645425 0.54683125 -0.10295621 0.2067841 0.35828066 -0.14916235 0.33578652 0.183079 -0.04046579 -0.39287195 0.27623662 0.43951452 0.4122389 0.13809417 -0.27474898 0.51074475 -0.013522276 -0.22172487 0.32035196 -0.19216238 0.38409442 0.31526878 0.2511304 -0.030741774 0.1907011 0.4001522 -0.5254168 -0.5533381 0.33969608 -0.28096685 -0.055706296 0.29066914 0.053388633 0.108941585 0.34972945 0.2766777 -0.13136819 0.422335 0.23099044 -0.2738239 0.13528468 -0.22822064 0.41210362 0.305385 0.3961349 0.774401
430 -0.46600723 0.13032873 0.6260575 -0.094390415 -0.03125654 -0.077908814 0.32104847 0.57378036 -0.01350911 0.4279349 -0.32824796 0.26942876 -0.31732857 0.23215455 -0.25078437 0.29985827 0.1729814 0.011833221 1.0533456 0.33343372 0.5522853 0.70217574 0.3249855 -0.27783602 0.35701063 0.033919238 -0.15746816 -0.29957086 -0.103912905 0.19267899 -0.11066922 -0.2308588 0.29299855 0.6895855 0.4483924 0.16885409 0.24463087 -0.31723574 -0.47762373 0.0658978 -0.7680245 0.88878524 0.7877992 0.39457595 -0.53617024 0.15156744 -0.28402722 0.34687614 0.14005426 -0.57935184 0.15440865 0.04248016 -0.2914324 -0.32505015 -0.76659375 0.41895196 0.24094436 -0.3014902 -0.18435429 0.36980888 -0.019762874 0.4371262 0.11604508 -0.30957308
396 -0.3647776 -0.30423218 0.091915004 -0.1732372 0.23779848 0.27497837 1.0009711 -0.33666515 -0.11057002 0.2911611 0.06520896 0.42208347 -0.34147114 0.34480602 0.4109605 1.2312446 0.20038587 -0.9088221 0.048134733 0.5404992 0.8925593 0.25618452 -0.37186557 0.14992198 0.4575778 -0.6528469 -0.2871918 -0.29835847 0.02073964 0.17433378 0.33881772 0.21581125 0.09791773 0.23529688 -0.06835242 -0.20448905 0.3774067 -0.37441212 0.7377649 -0.26812878 0.15831254 0.43654355 0.92787015 0.3425269 -0.8971294 -0.0539483 -0.3366188 1.0327343 -0.12620464 -0.23497078 0.18288483 -0.4917242 0.13358222 -0.3206102 0.35202253 0.7199476 0.20236051 -0.35492122 -0.26162672 0.06094435 0.82790804 -0.047343682 0.36436167 -0.29965493
363 -0.05526362 0.30782083 0.20588247 0.68262804 0.23238918 0.29673225 0.25837082 0.06506112 0.26281613 0.35772038 0.24413794 -0.2800934 0.24666591 -0.50214565 -0.038831737 0.4423238 0.25280532 0.67272097 -0.08604842 -0.07130017 0.9043005 0.11943681 0.37977982 -0.014895401 0.60618705 0.31725562 0.33729962 -0.18759719 0.21040252 0.26191774 0.19978268 0.64040637 -0.20346397 0.09020601 -0.06480707 -0.13396782 0.37196037 -0.00032616197 0.7349335 -0.109294236 -0.17057233 0.22947595 0.034007613 0.26655373 -0.14516632 -0.85170513 -0.24656036 -0.17485367 -0.3450954 0.28477752 0.28532568 -0.061069116 -0.26442635 -0.3026405 0.020852363 -0.47059304 0.59385395 0.2578729 -0.13354452 -0.18692896 0.31136277 -0.5641528 0.40271947 0.45965278
168 0.09110916 0.4218025 0.112367235 0.63683003 0.13310508 0.262931 0.27088627 0.08475316 0.20315546 0.37407398 0.29252562 -0.2690248 0.1800741 -0.5565828 -0.02689653 0.3784733 0.2050278 0.6710624 -0.13437778 -0.05371433 0.84531826 0.30788413 0.34987807 0.017209878 0.55834943 0.19972816 0.35039186 -0.29640272 0.22044922 0.32634464 0.33929068 0.49562493 0.051972616 0.26802891 0.047764983 -0.1584436 0.3915499 -0.19837706 0.81057537 -0.06482182 -0.03554688 0.31882873 0.120017014 0.28411722 0.00013312466 -0.84777915 -0.16575111 -0.20949484 -0.27826008 0.21720867 0.37701833 0.12665926 -0.30704927 -0.31798232 0.0829109 -0.5903992 0.4975945 0.2797555 -0.12566076 -0.16713203 0.16422872 -0.55612624 0.4781436 0.36484677
172 0.146645 0.33739534 0.81369746 0.24738815 0.30091542 0.19095908 0.2444853 -0.27189347 -0.8801089 0.06398926 0.1591574 0.020276876 -0.5372546 -0.77789927 -0.041168507 -0.08229829 -0.12295953 0.13001913 1.0769615 0.6885872 0.08171202 0.14757435 0.42003506 -0.050368223 -0.074956626 0.27021912 -0.57363194 0.7051505 -0.9387634 0.29342604 0.4973283 0.08253181 -0.16832925 0.6711503 -0.26705953 0.16323048 -0.30786252 -0.43815783 -0.26067275 0.1520781 -0.34089237 -0.026092239 1.2478609 -0.15135273 0.55769527 -0.16322972 -0.17033859 0.26483336 -0.56975645 -0.31963804 0.7383312 -0.34910816 -0.11749901 0.5219637 0.08985315 0.17005774 -0.5104658 0.6456505 -0.25609323 0.21979538 0.48582208 -0.92322636 0.26169536 0.41194624
412 0.0056502833 0.33412445 0.12575516 0.5933267 0.19941886 0.24657613 0.14519541 0.2719882 0.32255167 0.26821268 0.18196107 -0.2566391 0.09931236 -0.5402172 -0.043534126 0.3620087 0.23934214 0.6155443 -0.13636085 0.007490405 0.89970887 0.32142782 0.37413433 -0.08960495 0.63430625 0.064698264 0.48300648 -0.18356563 0.12297232 0.33161995 0.3066054 0.416236 -0.1816855 0.2726369 -0.076728396 -0.15556838 0.34304348 -0.07562529 0.84820664 -0.05285455 0.009499469 0.2389316 -0.027655408 0.22528695 -0.043941498 -0.8483893 -0.19239466 -0.14965585 -0.30299 0.23076145 0.41611126 0.10923349 -0.23908496 -0.28855574 0.040500455 -0.4846102 0.48659012 0.27185833 -0.080488175 -0.0401261 0.37466228 -0.41649166 0.30841234 0.26385155
26 0.07996693 0.34400994 0.12963744 0.5204395 0.21090479 0.24375714 0.34960926 0.15216957 0.28314728 0.36513406 0.11499201 -0.075440496 0.15599656 -0.45970392 0.0794795 0.2839107 0.39120123 0.59736097 -0.13703853 0.0172519 0.89479685 0.18988048 0.46440944 -0.04341237 0.731033 0.28429702 0.49676678 -0.28723925 0.18335801 0.25479898 0.42798638 0.44425175 -0.08835181 0.27940091 -0.023789579 -0.2394074 0.32828844 -0.0917895 0.7850258 -0.06540827 -0.0034382513 0.29033327 -0.035623867 0.2459293 0.03068022 -0.7868033 -0.13749158 -0.12612379 -0.38691854 0.21889646 0.47784266 0.14505526 -0.248951 -0.1835108 0.20368834 -0.58080274 0.62423456 0.2660689 -0.11069081 -0.14217955 0.29654562 -0.47361428 0.34295553 0.3662962
269 0.027475253 0.018333552 0.43109682 0.0604841 -0.02939647 -0.26535276 0.29514802 0.38676542 -0.14177504 -0.31855723 0.25476694 0.28567386 -0.20975791 -0.17264137 -0.42157272 0.25650173 0.15819481 -0.25642806 0.17183669 0.2238614 0.14484043 0.21880288 0.12231809 -0.27796906 0.055788565 0.115294226 -0.45550606 0.47328192 -0.3495476 0.21977954 -0.044966985 0.46178174 0.18056227 0.40502456 0.37126467 0.022361364 0.3163291 0.07344261 -0.32926872 0.26231846 -0.18167526 0.11368502 0.24837396 0.44012457 0.05007595 -0.066715725 0.19631615 0.18081525 -0.267725 0.34782648 -0.15910052 0.13554157 -0.079369046 -0.08180654 0.27326545 0.13889372 0.15217228 -0.12690678 -0.124225356 -0.13199092 0.17981915 -0.35335273 -0.10609241 -0.21426126
187 0.2220476 0.33138472 0.903644 0.10156489 0.5038102 0.20383684 0.31972733 -0.19840679 -0.743398 -0.13858958 0.095821716 0.044653777 -0.70506084 -0.67879456 -0.06527598 -0.22479159 -0.112995975 0.077148534 1.0945532 0.7283886 0.26177785 0.10864934 0.34808496 0.028266381 -0.11283434 0.24025477 -0.4605967 0.7375532 -1.0127534 0.332239 0.33013278 0.0332772 -0.25414163 0.74112695 -0.19944845 0.2763427 -0.4244638 -0.65310615 -0.17374508 0.28298467 -0.20821169 0.057390004 1.2097054 -0.21917368 0.5721336 -0.25342116 -0.24858607 0.2583472 -0.6423059 -0.4297213 0.8315216 -0.24060379 -0.1387045 0.46450213 0.031427164 0.28406113 -0.52184457 0.80292064 -0.2175211 0.043000843 0.37230566 -0.9078492 0.28562015 0.39801395
83 -0.9438644 -0.8255308 0.5042653 0.033761688 -0.18915688 0.11493667 0.44175196 -0.14843366 0.12257799 -0.19253257 -0.07646039 0.27483794 -1.0528781 -0.10187439 0.46946678 0.66164476 0.63395077 -0.7289334 -0.15020768 0.28763795 0.43220806 0.09104805 0.5373258 0.8086194 0.2731823 -0.6462323 0.4365379 -1.056449 -0.33269468 1.0885695 -0.0045632115 0.2607417 0.2665664 -0.08638191 0.0031976292 0.21885116 0.04455954 0.19319731 0.9258725 -0.23692457 0.37125936 0.6556796 1.1350261 0.3378021 -0.26122078 -0.48670498 -0.10400219 1.0664704 -0.60227054 0.124235265 -0.29745248 -0.6065371 0.7391966 0.012636242 0.06766864 0.77059716 0.48867282 0.09208441 -0.32911834 -0.3492177 0.35933843 -0.6813721 0.6139361 -0.49900246
114 -0.015005832 0.37318 0.19250815 0.53064734 0.21975538 0.1837462 0.26949343 0.1608743 0.27774954 0.36903018 0.16104475 -0.08986338 0.18093537 -0.40854967 -0.03658511 0.30800366 0.19134802 0.672166 -0.19722569 0.10694865 0.91138494 0.21668763 0.5623396 0.000875849 0.53537303 0.18416229 0.36495587 -0.3032181 0.20455134 0.3885305 0.47960567 0.47186434 -0.09347749 0.45055205 0.11054807 -0.17489174 0.29080588 -0.073591545 0.9571285 -0.09203033 -0.086345464 0.34232634 -0.076684386 0.10197415 -0.016973846 -0.87789476 -0.21071799 -0.28114486 -0.3110643 0.23337898 0.42976597 -0.0057065007 -0.29461527 -0.29723838 0.17958316 -0.5196105 0.6211108 0.23626266 -0.15772174 -0.030394671 0.27134734 -0.37617174 0.48329034 0.31983718
30 0.17318307 -0.44367403 0.09000417 -0.40664327 0.42061186 0.17098372 -0.20377466 -0.2629411 -0.17629375 -0.13438313 0.026122555 -0.15225393 0.51675457 0.4705725 0.6120021 0.3165973 0.23769203 -0.43115488 0.4994112 -0.14854878 0.6520229 0.582358 0.2410675 -0.46496832 0.6446932 0.24127617 -0.40361047 -0.04463221 -0.6360805 0.4783993 0.7500562 -0.25149786 -0.21571092 -0.43676588 0.24562317 0.17354657 -0.2745459 -0.14003094 0.59443885 -0.013589137 -0.5580511 0.5456584 -0.20588095 0.031394675 -0.0759644 -0.6111721 0.2773551 0.03003494 -0.62081224 0.5977832 -0.5015458 0.7091489 -0.302381 -0.11442697 -0.23488334 0.30553925 -0.018459294 0.09895896 0.1868579 -0.14797366 0.35099936 -0.40168375 0.3058374 -0.08310191
333 0.7988757 0.15417753 -0.26171866 0.31991273 0.1475469 0.13014907 0.7853974 -0.15042521 -0.4328167 -0.31058165 -0.38290128 -0.25283867 0.7930184 -0.6233853 0.49232858 0.5286866 0.82251704 0.30143988 0.7864258 1.3247491 0.025473272 -0.50720805 0.61060977 -0.22135891 -0.28462395 0.12537919 -0.060572613 -0.5152147 -0.0028451171 0.18005884 0.45666787 0.16271698 -0.3219668 0.3304997 0.3145719 0.032675732 0.5909468 0.3470757 1.1078526 0.7177887 0.85222536 -0.12673464 0.201304 0.34159783 -0.23865184 -0.11408104 -0.043130897 -0.15966953 -0.578602 0.066041484 -0.37924498 0.33744308 0.21241342 0.1744159 -0.57976836 0.08648376 0.5667356 -0.91565466 -0.46096307 0.24462071 1.0197463 0.1349883 0.26371485 0.8470508
93 0.11119293 -0.3087761 0.12711748 -0.26546538 0.2605546 0.6356731 0.014086754 -0.48670405 0.1815389 0.32991013 0.1495063 -0.8635606 0.5989656 0.9124454 -0.28953668 0.24043928 -0.12664567 0.21708518 0.4636742 0.61855686 0.93382907 0.553731 0.48648608 -0.2122726 0.76961887 0.24365711 -0.99999624 -0.4084248 -0.32849038 0.19211684 0.7995895 0.0004246475 -0.49232742 -0.20073734 -0.4918384 -0.16421731 -0.3343995 0.031692892 0.9591496 -0.04484852 -0.32939327 -0.16792938 0.4280246 0.13141215 0.21329726 0.011644699 0.51536417 0.5072881 -0.4752756 0.64945596 0.14333683 1.2988726 -0.36801052 0.24638894 -1.3324767 0.24585001 -0.45792553 0.18540072 -0.10835931 -0.22634737 0.22727945 -0.86831754 -0.033766452 -0.3171094
97 -0.010763283 0.025980905 0.39081517 0.10003274 -0.0609888 -0.3951923 0.30714178 0.44118872 -0.23451339 -0.34257224 0.25568476 0.3415636 -0.27692446 -0.1065518 -0.43396664 0.06770707 0.13068287 -0.17972155 0.2911775 0.22239582 0.20648824 0.2921034 0.15146473 -0.12467129 0.03150659 0.0106689995 -0.4000581 0.43403533 -0.3729675 0.24176505 0.039643187 0.26938507 0.12077575 0.25979236 0.3465047 0.041166577 0.2605674 0.21164663 -0.36814383 0.15258746 -0.17144492 0.15068828 0.23297115 0.51350194 0.055819154 -0.18961369 0.21735725 0.25310037 -0.3672261 0.18831035 0.00817619 0.34637555 -0.050249256 -0.043506507 0.33568394 0.26244077 0.20911813 -0.11049093 -0.124923125 -0.21671334 0.20880961 -0.27745488 -0.10945867 -0.27844703
262 -0.45485836 -0.44319504 0.20889483 -0.09972422 0.3822156 0.28545678 1.0362781 -0.27219173 -0.09427208 0.28072074 0.1002165 0.4752626 -0.3189847 0.48060548 0.36530688 1.1592762 0.16709247 -0.8993972 -0.026861796 0.5004081 0.941181 0.14102696 -0.5027319 0.12684253 0.4213928 -0.51380175 -0.25142503 -0.22421129 0.11745195 0.22194189 0.35595545 0.07561348 0.053962164 0.37145925 -0.1530498 -0.1805083 0.4586239 -0.4162658 0.8238263 -0.26593503 0.124489486 0.46341586 0.94353324 0.2510355 -0.9531384 -0.03355447 -0.26096982 0.96657413 -0.06866074 -0.15162924 0.17203707 -0.49790984 0.25985616 -0.37088293 0.35805225 0.6450183 0.15491979 -0.35397708 -0.2777562 0.1874104 0.8173175 -0.103032224 0.42942366 -0.23620412
204 0.37210998 1.0738153 0.14313568 -0.01890379 0.20770535 0.022368107 0.53555715 0.32577255 -0.32775834 -0.36079195 -0.36549643 0.12272417 0.39779902 -0.27209866 0.06122039 0.6003561 0.058666393 0.1276848 0.44159645 0.73925525 -0.06864642 0.5361422 0.3617974 0.5585771 -0.38454196 0.5759861 -1.2372029 0.68998194 -0.414089 0.3329294 -0.29615518 0.56877667 0.038272683 0.29299277 0.6970771 -0.19989735 -0.27931803 0.6549703 0.4593323 -0.010037583 -0.056702524 0.6996195 0.2884937 0.6316508 -0.053331982 -0.04191419 -0.083103776 0.69568247 -0.14321797 -0.002618718 -0.61989003 -0.14425007 -0.10380259 -0.27415246 0.21106939 0.5591855 0.66083276 -0.39186752 -0.26810685 0.5820534 0.6788088 -0.37610257 -1.1486644 -0.15415855
260 0.42106065 -0.23244818 -0.15065934 0.1349304 0.2838608 -0.095322326 0.12751666 -0.09820662 -0.25261426 0.18943587 -0.018188879 -0.43468344 0.002610653 -0.49145624 -0.013495211 0.10245122 0.74263686 0.02096835 0.098411515 0.50026107 -0.12144963 0.14669397 0.3689182 -0.15229136 0.28826764 0.18396115 0.03470156 -0.48813057 0.37997827 0.36513448 0.60620636 0.29515588 -0.32528627 0.42136905 -0.20741808 -0.025535706 0.42844707 -0.40314394 0.37347892 0.30149147 0.23829776 0.09915867 0.29749963 0.4193155 -0.44762582 -0.5503405 0.2287565 -0.31301016 0.02948213 0.32756135 0.025707018 0.1787582 0.31782258 0.21359907 -0.06166406 0.41627178 0.12786788 -0.31469727 0.16115107 -0.2015063 0.46999815 0.31648242 0.38014328 0.76568645
113 0.0682752 -0.45114693 0.10002444 -0.3285097 0.46921155 0.109330006 -0.26058 -0.16434442 -0.25243723 -0.084412165 0.028951507 -0.07406596 0.534482 0.5436616 0.58628505 0.40083504 0.1378215 -0.39649695 0.46363267 -0.13961859 0.65831023 0.61557096 0.15862104 -0.52870494 0.69242173 0.33723027 -0.4205363 -0.03973983 -0.49874914 0.43892854 0.6971851 -0.16956897 -0.14381109 -0.39644012 0.16323991 0.063705325 -0.27413362 -0.18387951 0.58006114 0.025950821 -0.63250005 0.4460736 -0.27266237 -0.14959438 -0.044250973 -0.6471055 0.35684425 0.19576553 -0.6155686 0.6480018 -0.57661206 0.67899173 -0.34646595 0.07724314 -0.2377798 0.18750249 0.0830753 0.0355171 0.11302786 -0.27896369 0.4944584 -0.41328698 0.35272434 -0.0032791623
80 0.091759846 0.15644036 0.44254777 -0.042366095 0.020880288 -0.2791055 0.2928926 0.35310534 -0.17926653 -0.309027 0.23759195 0.3705249 -0.17598352 -0.16762187 -0.44519284 0.031986877 0.13624573 -0.3051839 0.16330542 0.33097753 0.16850613 0.22223906 0.14893831 -0.18751189 0.07034391 -0.08957944 -0.37998375 0.5019271 -0.3704734 0.2128413 -0.064594895 0.18681943 0.23378819 0.24613324 0.2717872 -0.07629864 0.39493406 0.048624802 -0.26455888 0.15497668 -0.1801552 0.25886565 0.2350071 0.44538012 0.11988382 -0.08758232 0.3155307 0.29609686 -0.36846945 0.144044 -0.10206373 0.24616912 -0.20715737 0.031890992 0.14791605 0.27655187 0.38068312 -0.027642246 -0.20902713 -0.14596057 0.30062065 -0.26915082 -0.09442405 -0.21073867
180 0.30672908 -0.8422599 0.21657099 0.044139467 0.29819772 -0.059975006 1.3149189 -1.1137621 -0.21326326 0.38158607 0.8455547 0.53348947 0.020160927 0.5973026 0.5818784 1.6371479 -0.0025476199 -0.3573624 0.09418757 0.63987195 1.070077 1.021238 -0.56575286 0.23364918 0.24640134 -1.3185387 -0.46104017 -0.39234638 0.24705635 0.32126132 0.09909965 0.58218145 0.24012366 0.40540212 0.255837 -0.5549633 0.26789337 -0.16627055 0.6165826 0.050093286 -0.31204432 0.24062681 0.98862296 -0.27361128 -0.99152225 -0.20694236 -0.43777472 0.82157874 -0.09939809 -0.5940606 0.015373504 -0.41437075 0.28862962 -1.1280005 1.0145732 1.0614237 0.02927752 -0.31137058 -0.40799168 -0.7241714 0.6361526 -0.074984446 0.29280612 0.37533495
378 -0.45530912 -0.4226827 0.081391364 -0.262899 0.54295975 0.2578528 0.9863689 -0.26839417 -0.02980627 0.26047808 0.1404889 0.31262454 -0.19971952 0.3157742 0.38608453 1.1971556 0.21782781 -0.8640609 0.010433404 0.5322527 1.0178006 0.32994786 -0.3580633 0.22334394 0.36731973 -0.6257429 -0.15934691 -0.12762904 -0.00332768 0.29410675 0.24212307 0.24299495 0.08285602 0.20964555 -0.06423618 -0.27615702 0.30429524 -0.4444977 0.6216994 -0.24662912 0.08000093 0.4650775 0.9808703 0.3543286 -0.98737 -0.025651783 -0.3464751 0.97929114 -0.0024017121 -0.2004559 0.19585489 -0.51079535 0.17857988 -0.4083566 0.3981874 0.7071976 0.15826021 -0.30551165 -0.07421686 0.113688104 0.6832539 -0.12214999 0.3566317 -0.3260479
173 -0.010634282 0.43560705 0.19816549 0.53555626 0.17260592 0.32502532 0.25813487 0.17762695 0.26549295 0.2784709 0.24301533 -0.19094633 0.23484582 -0.5191996 0.10976484 0.3296806 0.24635673 0.64280427 -0.15186022 -0.036698617 0.8645346 0.32630885 0.58474225 -0.1507431 0.6266586 0.26773894 0.46841744 -0.25888938 0.22009945 0.31982395 0.40323633 0.5074622 -0.121701725 0.24665673 0.10118949 -0.15141933 0.34435433 -0.008464951 0.8001765 -0.1143682 -0.008001181 0.29679948 -0.0027601214 0.20313497 -0.04866166 -0.8756015 -0.17734362 -0.12960342 -0.38788736 0.1898193 0.47813243 0.04014434 -0.17199905 -0.33334264 0.10765082 -0.47774038 0.53012145 0.22408591 -0.19429243 -0.0643589 0.33021393 -0.38645658 0.43939713 0.39139473
76 -0.23413862 0.18962377 -0.2634981 -0.19192345 -0.011558691 -0.46531683 -0.0014629571 0.065723 -0.26056638 0.08096426 -0.07456334 0.2086029 -0.66718215 -0.66600835 -0.013057706 -0.28739524 -0.37357417 0.0035500396 0.17641133 0.33682987 0.5435426 0.29887387 -0.014783712 -0.04192465 0.45249376 0.6518114 -0.7828454 0.3224599 -0.13901776 0.57698333 0.027267603 -0.016900007 0.030557636 0.4021303 -0.3994974 -0.18985265 0.0765081 0.38881403 -0.073977776 0.97750866 -0.5527812 -0.032966994 1.3943334 1.0508063 0.34995472 0.048234116 -0.30661613 0.026298488 -0.38989145 -0.23225889 -0.21696718 0.33281454 -0.1855128 -0.22656506 0.59730744 0.25249246 -0.33763903 -0.9977675 0.11337931 -0.36092722 0.09125248 -0.5824586 0.5973039 -0.75363034
