468 64
462 -0.019605678 0.5117321 0.0717719 0.36760518 -0.114944935 -0.08467572 0.035200868 0.14845376 -0.15393433 -0.29552504 0.15000057 -0.23804872 -0.3166663 -0.19518374 -0.22037508 0.15940915 -0.31719694 -0.32963133 -0.08450259 -0.14304066 -0.15090473 -0.059773207 0.464161 0.096935324 -0.16102138 0.06995054 -0.0034488 -0.4110163 -0.2846844 -0.19260943 -0.40295553 -0.17026973 0.22470771 0.04638229 -0.4566891 -0.12743041 -0.041952264 -0.22084019 -0.6307395 0.38099962 -0.45571214 0.32401133 -0.4740077 -0.5625273 0.036549248 -0.3415242 -0.17481476 0.19578776 -0.24768266 -0.030477008 0.07008177 0.17098826 0.012402401 -0.19173127 -0.035980657 -0.32518744 0.18448831 -0.29270762 0.051123347 -0.029783258 -0.537414 0.072723866 0.087904684 -0.06321821
467 -0.17643021 0.07215567 -0.27446994 0.3725254 -0.07084053 -0.23824033 0.8329875 -0.48296252 -0.10512891 -0.421868 -0.29785544 0.20792949 -0.5681461 -0.062373027 0.43019325 0.43990505 -0.2392943 -0.310923 0.5067562 0.49019358 0.031551808 0.06844576 0.2726057 0.20857523 0.027135115 0.7846688 -0.55762994 -0.19843294 -0.06499406 0.2621779 0.105602786 -0.24419361 -0.13569431 0.45641497 -0.21737403 0.021850226 0.36127412 0.29989997 -0.15736993 -0.18712014 0.04029716 0.42132065 0.4424115 -0.375599 0.00013721557 -0.2547613 0.15114133 0.1756046 -0.06272011 -0.3316686 0.19417623 0.1053218 0.22976257 0.453764 0.25358662 0.07855818 0.49650785 0.1885391 -0.46816754 -0.74899995 -0.43674353 -0.8293979 -0.17612687 -0.039280225
465 0.6102791 -0.07265061 -0.41940096 -0.37747103 -0.2528578 0.4623505 0.12002109 0.17024386 0.78381664 -0.029020522 -0.1347751 0.2212356 -0.32802165 0.093967356 0.14818034 -0.13735607 -0.40538076 -0.20672806 -0.09289705 0.3207944 0.068426065 -0.31552035 -0.32055557 0.21629624 -0.52181417 0.8669548 0.04788768 -0.46625185 -0.3261763 0.7102613 -0.7232661 0.28196874 0.21740094 0.64140415 -0.41430095 -0.63265073 0.47123516 0.04982793 0.19739263 -0.6429734 -0.3659764 0.20825708 -0.26599628 0.046269484 0.06783615 -0.2818218 -0.36025536 -0.15520918 -0.804983 -0.41895232 0.28102288 -0.42988604 -0.26561782 -0.31339082 0.013765033 0.346155 0.8222936 -0.1845768 0.04078478 0.08003764 0.083390124 -0.011422913 0.3902843 0.06478913
247 0.93864244 -0.097026266 -0.24333791 0.32357717 0.27078888 0.8259002 -0.21710664 0.050984047 -0.12733856 -0.23973916 -0.4093546 -0.45175996 0.050267495 0.7439153 0.49766046 0.66266596 -0.6239513 -0.19028123 -0.23519734 0.6865602 0.492819 -0.038197692 0.07893582 -0.13531658 -0.0500813 0.5273242 0.1858742 -0.50430465 -0.37771305 -0.0051222574 -0.48587853 -1.1099846 0.37888435 -0.033459064 -0.53990614 0.032159116 -0.15027438 0.11345816 0.24243838 -0.22248401 -0.3840913 -0.3818042 -0.1488446 0.19465092 -0.30220276 -0.15767421 -0.30533755 0.120145574 -0.10058592 -0.24366516 -0.11298834 -0.3898821 -0.08390597 0.5989652 0.1434494 0.38355425 -0.21917407 -0.34900522 0.3550215 -0.36390904 -0.5133306 -0.03079288 -0.26316887 0.111643106
436 0.44629276 0.16716444 -0.9447905 0.41816756 -0.30921724 -0.6709246 -0.26522595 0.29516995 -0.5945697 -0.20249571 0.9008514 -0.057491627 -0.48066482 0.026539017 -0.027721144 0.5288255 0.42699176 -0.207396 -0.09906059 0.9328821 0.3798239 -0.18051505 0.08439572 0.18172774 -0.28863114 -0.0090858005 -0.11140154 -0.15668464 -0.22824588 -0.030829405 -0.4735886 0.24659246 0.49158284 -0.53489006 -0.34380645 -0.28709581 0.921375 -0.5712247 -0.103398435 -0.0925006 -0.515898 0.4418987 0.49639362 -0.6706417 -0.3482585 -0.072528295 -0.6079583 -0.10180432 -0.08574177 -0.10524263 -0.066023044 0.29928112 0.37903097 0.2079556 0.05244945 -0.18609188 0.6864474 -0.2310289 0.36671177 0.110512145 -0.021098854 0.5404401 -0.19900367 0.23983686
428 0.9386725 -0.9773072 -0.92665094 0.13407089 -0.9146616 0.58948016 0.46496376 0.3518188 -0.6014045 -0.021566477 0.25671685 0.014000512 -0.49620995 -0.6365394 0.23997062 0.07923727 0.2570837 -0.40685928 -0.3509768 1.5986584 -0.26985595 0.79751647 0.036378093 0.5151628 0.111604415 0.18876633 -0.02431409 0.08581165 -0.23527634 0.8885048 -0.29837194 -0.16836244 0.21398596 -0.222207 -0.87149125 -0.5200435 0.22686704 -0.6445201 0.015071476 0.34997758 -0.78129566 0.7392199 0.3138009 -0.039590705 0.5996451 0.39649066 -0.84895945 0.6525883 0.12958129 0.09068014 0.14197624 0.04431125 0.13871539 -0.0014804506 0.2533787 -0.5772742 -0.33384332 0.45861003 -0.13383584 -0.3374253 -0.49154553 0.3061017 0.95897573 0.31864104
216 0.21229833 0.42433137 0.18668738 0.45323703 -0.8497197 -0.3852495 0.3265041 0.27741113 0.105840735 -0.417386 0.29371294 -1.4904932 0.86142117 -0.46063688 -0.36223036 -0.40503272 -0.18913704 -0.4351076 0.106757194 0.23649803 -0.035465423 0.30565825 1.0363572 0.12020911 0.44996718 0.7897568 -0.36550742 -0.46123657 -0.20368214 0.33832437 -0.3034429 -0.021648342 0.093651876 0.0066088317 -0.63573503 -0.3869514 -0.35202834 -0.40444404 0.3492871 -0.5799827 -0.9964966 0.14045048 -0.60497344 -0.5515803 -0.2785049 -0.023898069 -0.010554801 -0.10857459 0.008293892 -0.13901246 -0.24669987 0.027298195 0.59813035 0.029397506 -0.3184333 -0.571749 0.3862095 -0.7823342 0.25364918 -0.5254535 0.12958965 -0.35345116 -0.20105757 -0.55994636
431 0.92172396 -0.5161715 -0.952966 -0.025560364 -0.2428863 -0.40495822 0.3751852 0.10936276 -0.3273078 -0.64213187 0.71324027 -0.13000512 -0.60149664 -0.2681567 0.5868847 0.36617714 0.22512756 -0.026719596 -0.67646223 0.9619269 0.01926536 0.7215173 -0.33824033 0.4412072 -0.42132732 -0.21524736 0.030817417 0.15567078 -0.27980754 0.21765524 -0.49604973 -0.1799062 -0.0035012027 -0.10570473 -0.52312446 -0.60351783 0.63400453 -0.7714317 -0.074956596 0.19224371 -1.0067173 0.4046631 0.36422786 0.18467341 -0.23621117 0.60582304 -0.76296294 0.1261004 0.024323467 -0.19996507 0.569391 0.52001065 0.10343479 0.048053637 0.10438214 -0.83077776 0.105266474 -0.56710374 -0.2003939 -0.24631926 -0.49145758 -0.27650583 0.06657128 0.32215783
460 0.02635037 0.47416744 -0.3132167 0.5124808 0.2739224 -0.34440672 -0.36887887 0.13877665 -0.08919776 -0.07535503 0.6751595 -0.39669672 -0.83445114 0.080238156 0.51248777 -0.018185787 -0.27495438 -0.0829101 0.0375681 0.5414846 -0.08342887 -0.20219581 0.38009474 0.7954373 0.27858996 -0.31759018 -0.030698704 -0.23947461 -0.3465949 0.27331007 -0.46694484 0.3628726 0.011685035 -0.3231167 -0.609222 -0.26894403 0.34649143 -0.46088296 0.17598553 0.051581517 -0.30661288 0.8571083 -0.18947995 -0.9230746 -0.0094466265 -0.4252069 -0.5617686 -0.23141888 0.38390768 0.25195292 0.13200471 0.46880957 -0.0317482 -0.38406402 0.10592744 0.4686087 0.083663724 -0.6110905 -0.06368646 0.42055106 -0.33904913 0.031054279 -0.32758382 0.15164885
466 -0.0060410392 0.06261229 -0.015781036 0.10980534 -0.3898726 0.08495038 1.2439976 -0.52023846 0.095996365 0.58041096 -0.32426232 0.26750058 -0.36184648 -0.38026866 0.5183807 0.8943062 -0.27340603 -0.4111216 0.5639816 0.72724813 0.2298058 -0.34314588 0.66545355 -0.11619572 -0.17576207 0.53854203 -0.2272163 -0.24451183 -0.07628814 -0.17785296 -0.46531746 -0.14926696 0.4764191 0.79834574 -0.8534952 0.08651768 -0.04383935 0.19492757 0.34422493 -0.22260702 0.2613078 0.6113574 0.70425946 -0.67250156 0.16565467 0.5724578 0.3420605 0.08285975 0.0019810486 -0.20131761 0.44961584 0.14747766 0.47259143 0.66040367 -0.03230428 -0.8428842 0.019442301 0.17630067 -0.45364958 -0.5155437 -0.40653253 -1.1200373 -0.39250004 -0.6279742
419 1.1674093 -0.29032812 -0.72182107 -0.5589931 -0.42844078 -0.23228186 -0.1161631 0.3993683 0.7895605 0.040185045 -0.2674402 0.4425639 -0.17743738 0.21307974 0.19057333 -0.71618557 -0.5355482 -0.16438112 -0.40689832 0.3077529 0.007090811 -0.34291703 -0.19031781 -0.110721186 -0.4264471 0.7450315 0.56782556 -0.56574637 -0.6611316 1.1831095 -0.75223184 0.27898014 0.23903245 0.39829734 -0.2767416 -0.2878343 0.77791095 0.5654626 0.5290377 -0.29876122 0.48325738 -0.12854889 -0.42388225 -0.19084206 0.18318081 -0.18545337 -0.35804534 0.4471903 -0.52022463 -0.5309016 0.088226296 0.18209387 -0.025629502 -0.41756907 0.044258773 0.39740586 1.1403922 -0.23622124 0.41247606 0.19950475 -0.91851735 -0.60477465 0.30687603 -0.34959778
432 0.02595768 0.98408663 -0.7932477 -0.05669218 -0.13507475 -0.12659843 -0.23750888 0.041516077 -0.37183854 -0.40068153 0.39056614 -0.8479004 -1.2560121 0.13185425 0.8234035 -0.20571236 -0.59372395 0.14274842 0.45594925 0.16855517 0.025637418 0.20802906 0.8371396 0.43757972 0.61353207 -0.7799607 0.20084906 -0.29843903 -0.67876714 0.7755258 -1.0115585 0.41363344 -0.08072058 -0.71278113 -0.97097874 -0.69152343 0.27964252 -0.4539009 0.47551775 -0.17991771 -0.1342512 0.6925198 0.4867446 -0.8873906 0.4144363 -0.49836025 -0.7298699 0.01657459 0.01153437 0.031198155 0.062184196 0.16118115 0.2163041 -0.6864613 0.33698657 0.2582005 -0.01243008 -0.25809753 0.011548707 0.748014 0.023033563 -0.20363988 -0.7726191 0.080348134
456 1.001785 0.20870708 -0.54023945 -0.15554956 0.20907144 0.42902797 0.20225662 0.50360274 1.0644133 0.5628381 0.20860045 0.061842117 -0.47678792 0.092520215 0.3189302 -0.3779549 -0.06618509 -0.8488306 0.09585779 0.4638822 -0.46851745 0.33700842 -0.23721644 0.06963341 -0.32959148 0.45525062 -0.071363896 -0.09048269 -0.40486395 1.0886087 -0.42390376 0.14589976 0.0068079843 0.8869152 -0.40398943 -1.0970601 0.6128503 0.26227215 0.22132696 -0.62223166 -0.059541676 0.07798307 0.055230062 0.062847085 0.26173165 -0.88958067 -0.56313056 -0.23895945 -0.44044653 -1.1465122 -0.16667037 -0.6905084 -0.87452686 0.005781973 0.23765175 0.07418371 0.7216157 -0.28333074 -0.37609833 0.37707114 -0.6359311 -0.12725398 0.07180762 0.3139582
417 0.679406 0.86478764 -1.0509648 -0.08530927 -0.06807159 0.56863 -0.08291236 0.42230278 0.5554252 0.04672191 0.119826436 0.47436973 -0.06037234 -0.018871894 0.021271087 -0.24690126 0.06330479 -0.39950556 -0.64598954 0.451665 -0.108779125 -0.020382753 -0.40033382 -0.10683666 -0.28140324 0.79718906 -0.048995577 -0.5082846 -0.38321203 1.1012368 -0.5790955 -0.16305847 0.31083128 1.1400974 -0.17771034 -1.0640426 0.005969157 -0.30760044 0.24868827 -0.5356966 0.2273094 0.40497297 -0.51369494 -0.2466722 -0.641872 -0.23364653 -0.10252538 0.14600429 -0.5373545 -0.66135055 0.68668795 -0.44209585 0.31163713 -0.45903853 0.72923535 0.561768 0.89521605 0.039417792 -0.27736333 0.15376835 0.40299907 -0.3109937 0.75925803 -0.32097992
421 1.0535781 -0.714642 -1.1278002 -0.3435605 0.09098795 -0.42053923 0.37978306 0.0024529865 0.16481815 -0.5227533 0.6392637 0.31746885 -0.39363405 -0.91255224 1.0381224 0.5168965 -0.08729421 0.76640683 -0.6083776 1.354019 0.14063275 0.8446735 -0.4215111 0.43115675 -0.50682145 -0.19784074 0.041133203 0.14981544 -0.1436322 0.5239895 -0.47250038 -0.53524363 0.60188556 0.5235948 -0.80699307 -0.3719121 0.71725917 -0.47462752 -0.20534302 0.102824815 -1.4049375 -0.2273613 0.25755727 -0.54879826 -0.01314912 0.55738676 -0.06459358 -0.1104133 0.31271368 0.17482543 0.42520866 0.7024435 0.32817551 -0.1244098 0.35894552 -1.3225497 0.06724272 -0.43890762 -0.17437197 -0.021840135 -0.6083027 -0.020417219 -0.13646837 -0.21232778
454 0.14988196 0.0025598023 -0.2994216 0.1831841 0.0052457587 -0.13967311 0.5107349 -0.539363 0.0072946125 0.108225 0.08978634 -0.52042085 0.042465176 -0.43235376 0.18144357 0.8385893 -0.7394709 -0.05048182 0.83791566 0.8230539 0.08353791 0.23362769 -0.072933845 -0.1509057 -0.37360856 0.87791276 0.16604692 -0.11738866 0.034636203 0.09258113 0.2880773 -0.313613 -0.12094967 0.60476094 -0.70127326 0.329604 0.2975303 0.61053926 -0.037964035 0.07917092 0.23443216 0.5488129 0.38882798 -0.47783485 -0.08471028 -0.5354952 0.39179853 1.1065888 -0.23838015 0.16843045 0.6259297 0.04706835 0.53101057 0.021936953 0.87404275 0.24953435 0.9907807 0.48138213 -0.87170315 -0.2666197 -0.23574585 -1.0872841 0.21622396 0.2661243
240 0.11550373 -0.09243371 -0.32115397 0.9648095 -0.09742369 0.57342 -0.10282783 -0.08791961 0.24668783 0.051970676 0.79837644 -0.23759581 0.30512124 -0.46290475 -0.67553324 0.49256843 -0.39867812 0.12851962 0.006140019 0.2811634 -0.090105034 0.033166274 0.52642995 -0.312239 -0.11600286 -0.48711663 -0.30688453 -1.308938 -0.48312965 -0.12988578 -0.9163432 -0.011320341 0.2214346 0.28574088 -0.43995517 0.13329257 0.06679136 0.3607211 -0.20783855 0.39008212 -0.045915786 -0.18229061 -0.6873925 -0.5708153 0.14273615 -0.137261 -0.2445537 -0.29166204 -0.056276195 0.1894916 0.6640693 0.75859773 0.29633313 -0.59231263 -0.030351445 -0.64267474 0.9050185 -0.058894955 -0.3883663 -0.40456423 -0.6758839 0.52501583 0.00022504931 0.13050474
234 0.79166025 0.08850365 -0.57474816 0.27750555 0.06409776 0.91107666 -0.4774006 -0.06570657 0.20282197 -0.6053815 -0.18125829 -0.029436244 0.14663811 0.7644607 -0.03104934 0.5199075 -0.41492212 -0.67607737 -0.3177788 1.3084341 0.098279774 -0.1868429 0.093949266 -0.17073497 -0.6670744 0.42377055 0.112444445 -0.47412443 -0.09222705 0.1681373 -0.4939371 -1.076111 -0.26807836 0.45057154 -1.4369061 1.017798 -0.6130193 -0.34263176 0.3398757 -0.40364516 -0.22726293 -0.40293783 -0.24847029 0.76536965 -0.1971179 -0.3483581 -0.15711385 -0.33345202 0.67665315 -0.5686175 -0.49563932 -0.12864998 0.44915235 0.33738506 0.2904078 0.5380432 0.07760355 -0.37614125 0.05871747 -0.26729134 -0.98042685 0.4263597 -0.1991756 0.32442924
109 0.75353277 1.1769931 -1.0057315 0.90320337 -0.34007686 -0.4541598 -0.31144488 1.0177817 0.53428966 -0.29047945 0.6016638 -0.018258424 1.1066946 0.092083775 -0.04393469 0.13909197 -0.7997066 -1.1774952 0.16694227 0.5334702 -0.07959848 -0.47976586 -0.72773975 0.3341275 0.6772181 -0.36370388 1.3736235 -0.52458113 0.2977812 1.1070434 -0.60321176 -0.46986446 0.95868385 0.4649195 -0.059402097 -0.50240076 0.045488656 0.4257765 1.1113927 -1.7354116 -0.5265917 -0.28213456 0.7681821 0.16153786 -0.41197443 0.59536046 -0.65850616 1.1195302 -0.66953367 -1.6928649 0.086539306 0.56986105 0.9673987 0.060605302 0.48851746 -1.361066 1.0299248 -0.5459652 -0.8199312 -0.621007 -1.2796339 -0.6025636 -1.7359964 -1.2895489
338 0.7432747 0.7084408 -0.3554825 0.8149751 -0.36806902 -0.48147482 -0.4664513 0.9677809 0.3203257 -0.3859157 0.6007541 0.04529687 1.088262 0.1797607 0.06483526 0.35015193 -0.8705005 -1.3752606 0.31575403 0.7030194 0.010642101 -0.60307735 -0.5238489 0.5006325 0.8729606 -0.54500926 1.4489374 -0.20352557 0.19204508 1.2044581 -0.30283552 -0.387052 0.9548719 0.5975184 -0.16760619 -0.5308646 0.29196423 0.35359925 1.1229295 -1.8658266 -0.38732323 -0.06814309 0.70922244 0.056127034 -0.60305035 0.16077904 -0.5617297 0.8811962 -0.44459346 -1.7642425 0.26700044 0.39826432 0.9396703 -0.12046602 0.3205029 -1.2757434 0.81919813 -0.5779052 -0.9163294 -0.56116027 -1.4266279 -0.4429609 -1.2299104 -1.3629627
445 -0.051683605 0.29110238 -0.2961841 0.35269555 0.18731987 -0.4250439 0.3592733 -0.043169618 0.15413839 -0.308163 -0.7912817 0.09145424 -0.75739527 -0.1353487 0.55780506 0.6483933 -0.6948695 -0.17869452 0.57554203 0.70517623 -0.40471146 0.040495068 0.5702984 0.20368531 0.43507048 0.5820446 -0.10200164 0.027297549 0.2796783 0.7629766 -0.02814161 -0.29039797 -0.22782825 0.28360844 -0.058936097 -0.21316196 0.7015729 0.7894712 0.31086597 -0.17541018 -0.12103742 0.61155707 0.8121599 -0.22149362 0.3565708 -0.22154121 0.101010606 0.3751576 -0.4295168 -0.7839796 0.28730357 0.19512586 0.6166624 0.71018976 0.6010834 -0.191186 0.62062806 0.039293077 -0.4945972 -0.41566825 -0.62255687 -0.6160943 -0.27301556 -0.13919523
227 0.87216926 0.12628898 -0.30406436 0.2525943 0.28521013 0.8252656 -0.44158664 0.35223794 -0.174923 0.01816532 -0.43606177 -0.49180436 0.061152816 0.50656825 0.52868783 1.1588591 -0.205317 -0.2543748 -0.5344178 0.34874085 0.40920484 0.19926223 -0.008793883 0.31279635 0.5930028 0.2018459 0.49214965 -0.6332265 -0.4098754 0.2029749 -0.4765837 -1.1042955 0.18060693 0.154637 -0.5737893 -0.24488364 0.24810049 0.19282539 0.45410717 -0.3437301 -0.3959988 -0.23384182 -0.051215485 0.38255572 -0.18955168 -0.5439103 -0.17861493 0.5771727 0.009282621 -0.9134146 -0.3108557 -0.47072327 0.0061613442 0.5281406 0.64766735 0.29919437 -0.50390637 -0.38648143 0.3944575 -0.42061552 -0.7016418 -0.009381443 -0.48182073 -0.12980227
214 0.21209517 0.86821157 0.092737645 0.28750584 -1.0708804 -0.042571776 -0.02636701 0.27496716 0.15184818 -0.57743746 0.44556257 -1.6076437 0.88091093 -0.4324795 -0.5617605 -0.25344992 -0.21511784 -0.74540514 0.29041794 0.042162754 0.08509758 0.5864351 0.59282273 0.45509925 0.7193114 0.81037575 -0.0038514882 -0.4990424 -0.36357483 0.8387266 -0.17545484 -0.11418956 0.0073153414 -0.21678998 -0.54104626 -0.43866056 -0.19511952 -0.37474242 0.2488233 -0.68064284 -0.98628896 -0.1219113 -0.19959201 -0.67297953 -0.4640633 0.16608526 -0.24000835 0.04562357 0.052854754 -0.25104064 -0.16583626 0.055436842 0.8136074 -0.008457158 -0.102095425 -0.73975354 0.35134682 -0.53017515 0.11306745 -0.13799118 0.1764535 -0.6845112 -0.13616602 -0.6024228
317 0.11307129 0.46834505 0.2715263 0.6014118 -0.11477123 0.2740814 0.108968265 -0.27555135 -0.40524748 -0.10618214 0.43162042 -0.49122065 0.13369973 0.052238602 0.3203999 0.24737278 -0.21373105 -0.6294287 0.50680375 -0.08972348 0.0827652 -0.10656798 -0.0039874464 -0.08366305 -0.123877205 -0.41816658 0.41950902 -0.24738085 -0.04835648 0.30312413 0.06835965 -0.14523819 0.48889765 0.25874317 -0.67079574 -0.31318405 0.10402199 -0.62605083 -0.65433043 0.09770043 -0.551655 0.2768895 -0.34402347 -0.62177706 0.21734293 -0.5099957 -0.095734924 0.8409398 -0.46702477 -0.12373717 0.2831356 0.8025303 0.09951955 -0.5304884 0.17276296 -0.5450274 0.26292872 -0.13629815 0.19234692 -0.11107983 -0.40123233 -0.08288109 -0.017014338 -0.8531477
434 0.62756264 0.039623618 -0.61847275 0.8597912 -0.15828015 -0.9494965 -0.13572024 0.66218466 -0.38780186 -0.105414875 0.8720617 -0.47748053 -0.7557781 -0.22348794 -0.068142116 0.8830815 0.025399316 -0.58773506 0.38613558 1.0900764 0.3741978 0.26011837 0.010195012 0.032696106 -0.5418281 -0.3028793 0.08959526 0.02753342 -0.25386268 0.03249481 -0.57166016 -0.115925334 0.39071196 -0.6308029 -0.009996038 -0.40795326 1.3564448 -0.6513695 0.087340966 -0.71397066 -0.29000017 0.37365726 0.34025627 -0.89736575 -0.019260092 0.34798145 -0.535813 -0.3430514 -0.12808119 -0.3897056 -0.11838019 0.65297073 0.28887296 0.3302498 -0.07453438 -0.42876247 0.7886125 -0.08516278 0.5925605 0.10942553 -0.28583148 0.6495498 -0.08440217 -0.31901732
447 -0.27265823 0.17023477 0.1662889 -0.11366032 0.19535986 0.37554896 0.47681475 -0.60379535 -0.35016143 -0.69672656 0.094490446 0.18241018 -0.5525068 -0.45879567 0.28395343 0.6542489 -0.24541187 -0.87191707 0.85830367 0.524019 0.1996901 0.2860994 -0.005098585 0.16149819 0.17576565 0.43334147 -0.21122839 -0.33932287 0.07067 0.44155884 0.12802127 -0.43718606 0.38266423 0.5654642 -0.3305755 0.027510958 0.70942867 0.18219782 0.034998734 -0.17523664 0.11380939 0.21476714 0.20265713 -0.5720998 0.61469126 0.09886987 -0.09118258 0.33515754 0.40271297 -0.5720045 0.25387123 0.23698817 0.8936775 0.68721265 0.5339576 0.08012632 0.72848 -0.25630748 -0.33537972 -0.49165183 0.169471 -1.2800014 -0.115486585 -0.24408512
225 0.62859744 0.051595002 -0.45295545 0.6223439 0.5165336 0.546139 -0.6243857 0.053585235 -0.077374965 0.20988797 -0.61295736 -0.17468956 0.16708171 0.27299985 0.6137749 0.56929845 -0.78392214 -0.7077617 -0.64617664 1.1146592 0.66703635 0.072474755 -0.28898436 -0.26334363 -0.2548123 0.47479996 -0.38077167 -0.5884536 -0.30005538 0.16346014 -0.3105874 -0.8030101 -0.072822124 0.010230241 -1.1273025 0.24889149 -0.7377488 -0.036277648 0.13164261 0.18906923 0.08472796 -0.6929705 -0.11990247 -0.0034929405 -0.42620102 0.21543443 -1.0612503 -0.05126499 -0.15246025 -0.9653055 -0.42411393 -0.32842743 0.26854885 0.43167073 0.48483676 0.30217642 -0.59187233 -0.41217542 0.07925483 -0.62366706 -0.6735483 -0.04636835 -0.32477763 -0.20824213
242 -0.13259543 0.22395657 0.077885896 0.32475102 -0.080536574 -0.1478079 0.3901808 0.18972683 0.121274084 -0.5191305 0.03598058 -0.9632926 0.4263481 -0.23868369 -0.18589528 0.16757855 -0.036561612 -0.24332424 -0.041819025 0.10301173 -0.40777788 0.044875503 0.798245 0.26971874 0.42022988 0.3509792 0.4504659 -0.55094177 0.020156734 0.24109192 -0.6288382 0.42896935 0.22199701 -0.12947828 -0.49074626 -0.19681758 -0.54143476 -0.21791339 -0.30972517 0.1510809 -0.5740055 -0.012057054 -0.5388289 -0.87053645 -0.6482417 -0.009675632 -0.21100831 0.36695164 -0.2335334 -0.68209296 0.025356788 0.40294364 -0.03315487 0.4618363 -0.508915 -0.27685687 0.3340696 -0.70763105 0.06345431 -0.25470865 0.02670849 -0.019967034 0.15630516 -0.3989538
151 0.7310431 0.88266623 -0.6519263 0.8816546 -0.3607801 -0.4632547 -0.3920375 0.98977774 0.38393053 -0.30944127 0.5854193 0.05677699 1.0473096 0.12081327 -0.025485193 0.20469047 -0.8574575 -1.2759004 0.17021598 0.60697323 -0.007255819 -0.5170753 -0.6479779 0.4387522 0.8199835 -0.4670413 1.3398594 -0.33845493 0.23025094 1.15711 -0.42408383 -0.38920105 0.9594506 0.4930904 -0.08822229 -0.5357413 0.20426035 0.36472115 1.1377978 -1.782217 -0.44109726 -0.16694248 0.7161378 0.117346376 -0.5205345 0.42554653 -0.66264904 1.0146908 -0.53659165 -1.7336526 0.18570538 0.4999799 0.917914 0.0071270983 0.37059805 -1.3204174 0.8656602 -0.6048493 -0.8562243 -0.6768562 -1.3571428 -0.5024414 -1.4429085 -1.3272097
162 0.84098136 0.014971974 -0.07335598 0.61890465 0.19314808 0.663682 -0.47789356 0.104360394 -0.17528105 -0.063337535 -0.33502495 -0.5119404 -0.10537409 0.8242 0.6756526 0.49985445 -0.91858304 -0.12567139 0.19675276 0.7414351 0.0985995 0.33551237 0.10584232 -0.3874026 -0.52783406 0.38534966 0.30822566 -0.038138673 0.085829996 0.074206956 -0.9081045 -1.4564599 0.42568156 -0.37614375 -0.63356054 0.11629271 0.077413425 0.45025745 0.39015266 -0.606135 -0.3586567 -0.47536132 -0.28058034 0.18704635 -0.115998246 -0.014644235 -0.27032652 0.025929416 -0.2919379 -0.21210526 -0.14723708 -0.0012322968 -0.1607706 0.616321 0.41974893 0.24453504 0.06327674 -0.09193493 0.5707823 0.07955605 -0.62574935 -0.20267878 -0.051706214 -0.4537151
450 -0.14637768 0.7480871 -0.31689665 0.5011604 0.16660957 -0.39819336 0.93804246 -0.40704677 -0.4851898 -0.5281668 -0.5250915 -0.13552417 -0.02013936 0.2685355 0.29825658 0.37521458 -0.25114825 -0.5499267 0.42388988 0.6582607 0.122140974 0.11981093 0.22476175 -0.63378614 0.29076245 0.7554481 -0.5180039 -0.3376141 0.29503036 0.7348202 -0.018367961 0.0021363935 -0.28644556 0.8616355 -0.09906503 -0.23800479 0.6623897 0.063135214 -0.32185164 -0.10928891 -0.37588206 0.3918683 0.8813112 -0.14140116 0.088227294 -0.039988823 0.06011864 0.14632013 -0.13143651 0.122224376 0.4610325 -0.09055686 0.4496122 -0.11972739 0.47928724 0.2160867 0.51340854 0.2412667 -0.5678454 -0.51481134 -0.73333895 -1.2871774 0.1558039 -0.26058885
435 0.47495675 0.110343635 -0.76424146 0.2104902 -0.26346686 -0.94360316 -0.3682356 0.14869617 -0.671568 -0.3910683 0.9434875 -0.11940498 -0.005009399 0.35926476 -0.015464777 0.80653626 0.83666396 -0.34799594 0.006632444 0.81699896 0.43519026 0.16716781 -0.1842776 0.33394125 -0.00813708 -0.4241606 -0.18362619 -0.34239015 -0.42023948 0.26746932 -0.19054222 -0.08042543 0.66523033 -0.55293995 -0.80707204 -0.3968606 0.67939556 -0.8043388 -0.10165893 -0.060157698 -0.44397876 0.58658844 0.93312 -0.4251494 -0.4371999 -0.38510075 -0.8946201 -0.022429138 -0.5111337 0.2615727 -0.13977496 0.20225614 0.37812334 -0.09251906 -0.011914492 0.026095055 1.3555309 -0.30254883 0.2413664 0.3851219 -0.07172938 0.08684927 0.050389092 -0.1973733
389 0.17431256 -0.79411364 -0.54369915 0.3347584 0.19968434 -0.25372896 0.14832161 -0.5857691 0.008774076 -0.42200598 -0.18663539 -0.24670838 -0.55293715 -0.29086834 0.13194239 0.5738145 -0.11232822 -0.087534055 0.12903349 0.48691005 0.15750568 0.03900367 0.3845416 -0.16157743 0.36334488 0.88716495 -0.71937776 -0.29769406 0.07635181 0.21163271 0.5783933 -0.12277114 0.2853538 0.34438157 -0.7925999 -0.07014419 0.4797004 0.7794048 -0.53999305 -0.4124217 0.2751916 0.6852061 0.63205737 -0.5183855 0.0621871 0.14951594 0.02196244 -0.38306937 -0.0730288 -0.067967 0.20390776 0.053023614 0.6789359 -0.0031248971 0.06688927 0.47139552 0.9634378 -0.044283766 -0.93623036 -0.5370378 -0.6848745 -0.91223884 -0.16750428 -0.33664823
404 -0.62335575 0.5116894 -0.43134937 0.38948733 -0.21858218 -0.091778435 -0.4506614 -0.24977791 -0.34157884 -0.12977126 -0.0875234 -0.29256848 -0.027453117 -0.44073457 -0.1780374 -0.16525109 0.0032803155 -0.02020318 0.40011236 0.17132854 -0.36078024 -0.1996996 0.21187733 -0.5260598 0.57630354 0.34664902 -0.12615588 -0.48472816 -1.0205619 0.22280435 -0.12656656 -0.07914201 0.4114153 0.5218846 -1.3258487 0.45775446 0.32042435 -0.1761934 -0.39870948 0.30673227 0.13986084 -0.11993101 -0.6619795 -0.45178437 -0.08530527 -0.021387849 -0.8096329 0.17167874 -0.7215756 0.13118404 -0.3232453 0.7243097 -0.41614783 0.21926033 -0.33504644 -0.3679608 0.34613132 -0.6325221 -0.41277733 0.16620749 -0.7051114 0.3807826 0.43730134 -0.023783404
444 -0.4835166 0.28880724 -0.028552275 -0.28447488 0.43104348 0.34875113 0.43867815 -0.54302675 0.20351756 -0.59631425 -0.139158 0.19533235 -0.2709972 0.012204906 0.40477023 0.79809195 0.33292088 -0.32311162 0.4570843 0.65718603 0.21773505 0.089457035 0.37430444 -0.029669156 0.5238554 0.98665154 -0.09336156 -0.18150632 -0.30695346 0.66944265 -0.45322195 -0.29097039 -0.3378961 0.23128031 0.1058248 -0.13987263 0.36150253 0.30333763 -0.3864119 -0.38431415 0.05106742 0.6013467 0.6452628 -0.8182187 0.37599307 -0.8363031 -0.29548892 0.35137293 -0.105084226 -0.2541482 0.3839792 -0.03851294 0.7614824 0.40463167 0.31169218 -0.0071327384 0.35622934 0.6569373 -0.036387216 -0.6625977 -0.37589607 -1.2044979 0.22824161 -0.28864232
235 -0.06649515 -0.08804714 0.041482 0.47095546 -0.17425929 0.57769823 0.14430687 0.54277474 0.354507 0.37257656 0.19720584 -0.43858632 -0.39183015 -0.10438912 -0.0051767216 -0.12913102 -0.38751033 -0.48370442 0.5190034 -0.19818228 -0.24370892 -0.009409386 0.34678513 -0.21482125 0.09405591 -0.3648763 -0.2751429 -0.9154616 -0.31896374 -0.3380296 -0.86409706 -0.14803812 0.35052192 0.6775466 -0.24001764 0.17276888 -0.073210046 -0.34564224 -0.75491583 0.44311944 -0.9301451 0.5329943 -0.41055676 -0.48315373 -0.061073273 0.21614666 -0.41917166 0.76389366 0.2718895 0.3833955 -0.12896265 0.276156 0.72005343 -0.027315348 -0.30577213 0.10084889 0.74815047 -0.34955072 0.09392294 0.15461092 -0.62330395 0.3348596 -0.15003039 -0.2729158
223 1.1514921 0.3513986 -0.36709505 0.26687455 0.6925888 0.7804866 -0.36838806 -0.007889684 -0.31648353 -0.40623382 -0.09477304 -0.49015844 0.48914865 1.0750023 0.793204 0.8847963 -0.5004454 -0.44977796 -0.50073147 0.35921258 0.6374547 0.55258286 0.061097533 -0.016345885 0.299653 0.049852815 0.33468813 -0.7876804 -0.559125 -0.0096609285 -0.97145194 -0.8477941 0.22280774 0.30407146 -0.50838834 0.03604483 -0.16163123 0.2835274 0.2228217 -0.32871073 -0.24537167 -0.35192525 -0.2970414 0.16913848 -0.27422008 -0.08951694 -0.2412975 0.17694266 -0.24787827 -0.49740413 0.23581582 -0.326358 0.0060561346 0.22969764 0.14444447 0.2888082 -0.15191148 0.1518811 0.42973536 -0.44833568 -0.35014874 -0.36650702 -0.1397709 0.3565473
281 0.33050668 -0.26139992 -0.34514275 -0.095993534 -0.39276126 0.20519857 0.71741235 -0.07287231 0.767312 0.25292823 0.37836686 0.18774553 0.034972697 0.14848052 0.50228715 0.20357852 -0.6015969 -0.40354496 0.024973767 0.04848693 0.24977636 -0.0053674905 -0.61203057 0.17572284 -0.75772 0.14635248 0.09642877 -0.56650877 -0.6140831 0.4103279 -1.0700802 -0.057113603 0.5427968 1.0142841 -0.2340133 -0.65284854 0.85163134 0.5312584 0.36514184 -1.0368901 -0.17646998 0.27444005 -0.7311907 -0.004714824 0.1880842 -0.22896734 -0.7258913 -0.62156713 -0.6603854 -0.5082657 0.206487 -0.16974206 -0.4094688 -0.42370817 0.38001195 0.3398147 0.60274196 0.073976055 0.096801445 -0.24660301 0.07284768 0.1863809 0.60479957 -0.035782382
211 0.6018709 0.65404636 -0.11156933 0.42240936 -0.5689842 -1.0134529 -0.15897919 -0.2041137 0.31568408 -0.51661277 -0.1773782 -0.87333816 1.1535518 -0.6411811 -0.16752161 -0.45907173 -0.2762329 -0.75191456 0.26474324 0.2756287 -0.13228032 0.3082249 0.7006243 0.4256111 0.59523 0.7166666 -0.6492111 -0.9155267 -0.21692468 0.22983597 -0.26838428 0.24694046 0.36022493 0.23851232 -1.0072218 -0.5167102 -0.53188235 -0.09277235 0.7349241 -0.59225196 -1.742992 0.06434312 -0.47301942 -0.96777344 0.12065526 -0.18167335 0.36773825 -0.14287628 0.2383372 0.43610004 -0.6290947 0.0802907 0.6983787 0.12899277 -0.31756365 -0.8044911 0.04955613 -0.80300003 0.41499382 -0.52213264 0.3752105 -0.32490656 0.16777506 -0.41451582
224 1.2169945 -0.3111828 0.33580372 0.23442915 -0.10396198 0.7686979 -0.02424913 -0.28428218 -0.4489319 -0.1678474 -0.53880733 0.09125065 -0.19230306 0.5390106 0.2117146 0.7775722 -0.33087823 -0.5260124 -0.090626866 1.0182681 0.4614134 0.027578916 0.11940476 -0.6640609 -0.032621443 0.13560191 0.8207624 0.0777653 -0.57607824 0.033563003 -0.5369792 -1.2038871 0.2770655 0.17322512 -0.67916864 0.33653462 -0.41454288 0.00879705 0.30263755 -0.5537654 -0.6319585 -0.17892553 -0.73315835 0.082548425 -0.2599149 -0.012244344 -0.3346022 -0.22546004 -0.3834953 -0.28520423 -0.35103607 -0.5479622 0.57134706 0.5230813 0.13232578 0.7667634 -0.01814117 -0.24315006 0.2189091 -0.038623426 -0.9819534 -0.04269531 -0.50572026 0.49855518
442 -0.40530598 0.20448652 -0.22532924 1.0109028 0.20905575 -0.31294417 1.0829892 -0.64911425 0.298795 -0.4884581 -0.1421221 0.057593774 -0.78619546 -0.3771487 0.79778606 0.45514405 0.021902135 -0.27955076 0.070735574 0.21115838 0.2245456 -0.028135782 0.40252122 0.29101947 -0.3402228 1.108266 -0.37211806 -0.29195413 -0.32272017 0.8626826 0.17801404 -0.102133974 0.29134324 -0.21701007 -0.23895198 0.62689143 0.56697035 0.48018885 -0.40183458 0.028275961 -0.08853645 0.44586357 0.2576141 -0.094567515 0.08305108 0.10382281 0.29120296 0.575025 -0.21913867 -0.4016976 0.096036784 -0.44746977 0.6396655 0.25208235 0.13208349 -0.1052892 0.46908012 0.29355672 -0.3504581 -0.112997495 -0.42790288 -1.1403303 -0.11969156 0.37951398
245 1.0129384 0.36197776 0.10207188 0.2599279 -0.049116623 0.932305 0.19471776 -0.02361239 0.8082337 0.38774037 0.5766695 0.42969444 -0.4810297 -0.043309417 -0.010926084 -0.43812123 -0.79536414 0.17800431 -0.42672923 0.6433551 0.13953803 -0.20798625 -0.38714156 0.1895556 -0.83471596 0.74082536 -0.30126587 -0.2506186 -0.48986888 1.0435137 -0.58775824 0.4946683 0.8151148 0.49882078 -0.23104084 -0.2997406 0.089744285 0.19772081 -0.03160597 -0.5654893 -0.3855358 0.51379883 0.0017563888 0.26628137 -0.058841385 -0.57831174 -0.33507586 -0.10261535 -0.55555177 -0.88482666 -0.30943182 -0.6874018 -0.6301054 -0.18371625 -0.25958994 0.28662667 1.0856246 -0.26845866 -0.07024911 0.026537124 0.23943172 -0.8311996 0.29893705 0.34328207
334 -0.59799737 0.44790316 0.054358788 0.96967447 0.34810883 0.1987416 0.87462217 -0.46194118 -0.28421986 -0.7086805 -0.5170846 -0.09134698 -1.0091984 0.06769473 0.07745722 0.38043448 -0.17405626 0.44558644 -0.12581971 0.25786787 0.44934088 0.5026242 -0.5196739 -0.12206977 -0.063939184 1.1561887 -0.42187932 -0.23835325 -0.06989209 -0.17014165 -0.02685622 0.28822753 0.17869172 0.56234396 -0.6312307 -0.27668202 0.18114048 0.6720722 0.47349876 -0.3142255 -0.17599095 0.5987822 0.7386801 -0.36400944 0.14604366 -0.56090575 -0.0026635176 0.3477504 0.05770896 -0.3459509 0.33437243 0.7150287 0.59960395 0.67677367 -0.13556054 -0.2283944 0.65113014 0.38503334 -0.208611 -0.44546142 -0.71549094 -0.99961895 -0.4523948 0.3687569
312 -0.14261882 0.4752723 0.1448709 0.091612704 -0.44235724 -0.16852614 -0.3360139 -0.28383255 0.23335102 -0.17423885 -0.16293146 0.1737869 -0.7766413 -0.234467 -0.2738055 0.68963164 -0.78210807 -0.22831704 -0.39332542 -0.32088244 -0.2761617 0.35652015 0.73725295 -0.117822975 -0.22894712 0.051712092 -0.2738072 -0.45710176 -0.5086415 0.38310814 -0.09611617 0.2060129 0.5542892 0.35037354 -0.40524355 0.053897068 -0.17048985 -0.26439425 -0.32523438 0.014928165 -1.2253379 -0.04253452 -0.4024987 -0.9598268 -0.2137976 -0.5583508 -0.13934825 0.30909008 -0.093718864 0.4719124 -0.6034339 0.42712602 -0.15675691 -0.24104871 0.16639085 -0.56155354 0.0326331 0.091972634 -0.066598676 -0.15796919 -0.3422908 0.10107095 -0.23729604 -0.043664828
67 0.82526743 1.2037507 -1.05194 0.93998253 -0.31956702 -0.478369 -0.21975163 1.0997257 0.54351664 -0.2853101 0.6370306 0.15731876 1.1057962 0.1587849 0.056465484 0.14787988 -0.6439426 -1.1242898 0.060203023 0.44137102 -0.12447263 -0.65820354 -0.77220935 0.3434348 0.78639936 -0.26393914 1.362845 -0.41073054 0.19498314 1.0435628 -0.7382595 -0.6095478 0.8568994 0.46629658 -0.18073533 -0.44696736 -0.0045169247 0.5303944 1.2054586 -1.512953 -0.48066527 -0.1101856 0.72517496 0.05079414 -0.4269798 0.6324218 -0.66031855 1.1213981 -0.7272786 -1.5659026 0.095304765 0.6179653 0.7912914 0.12313487 0.62176055 -1.4894227 0.9440317 -0.46543953 -0.5877916 -0.8235974 -1.1503454 -0.6554742 -1.7255073 -1.288731
103 0.79737884 1.2297722 -1.1484376 1.0474416 -0.38632208 -0.42869797 -0.116016954 1.0258784 0.41144168 -0.25925872 0.6094813 0.07746885 1.1496483 0.14839433 -0.0450379 0.056489363 -0.75411934 -1.1669792 0.015123995 0.48195094 -0.07038099 -0.5967259 -0.8024383 0.4240861 0.7331413 -0.24947132 1.305135 -0.49377263 0.2328344 0.95620036 -0.7468505 -0.6290466 0.89331913 0.45855853 -0.091751665 -0.49944338 0.13588212 0.44353053 1.2244055 -1.5109175 -0.401701 -0.27399492 0.8294028 0.16212456 -0.48882106 0.68473613 -0.6671475 1.0192702 -0.7213467 -1.5738977 0.08118555 0.5887224 0.70308995 0.12403385 0.5308534 -1.4036775 0.9501272 -0.6191178 -0.5838826 -0.7807584 -1.2360175 -0.68485254 -1.6168981 -1.2486775
54 0.7358117 -0.21025325 0.05374457 0.72791123 0.1311266 0.64309615 -0.4131939 -0.043858152 -0.21614788 -0.042379215 -0.024728902 -0.61510783 -0.21405144 0.68717587 0.8540434 0.4174161 -0.85301054 -0.026756464 0.40360498 0.74590105 0.0313544 0.32247612 -0.01362552 -0.48275942 -0.64568615 0.4249831 0.39218843 0.037016515 0.3079771 -0.025107067 -0.9932281 -1.5927134 0.69226205 -0.30049482 -0.66219556 0.13668507 0.16301417 0.39482215 0.48183942 -0.7977858 -0.21838762 -0.59881115 -0.49619007 0.09904641 -0.10589156 -0.0042745867 -0.27798992 -0.022352684 -0.21117799 -0.2615328 -0.34015885 -0.00060719764 -0.2189471 0.5988708 0.6198645 0.27002662 0.13273619 -0.0866124 0.49543083 0.09431578 -0.7338571 -0.07698853 0.13887516 -0.7376979
10 0.84547186 0.7460748 -0.38746688 0.8717323 -0.3966272 -0.45920846 -0.5070997 0.7227259 0.35254756 -0.38014677 0.5953108 0.1353205 1.0876131 0.17286192 0.05503899 0.25046307 -0.8959697 -1.2122881 0.1262946 0.6352385 0.14480498 -0.64659446 -0.53485894 0.6652489 0.845329 -0.6116176 1.3008609 -0.00028961143 0.21659847 1.2112195 -0.39959386 -0.2955371 0.90548545 0.52701145 -0.23782606 -0.5574601 0.41592887 0.39982772 1.2626035 -1.7157984 -0.38766316 0.08956746 0.64720243 -0.046842426 -0.708012 0.30862346 -0.77064466 0.9373296 -0.367947 -1.8792604 0.34536472 0.51171875 0.95163244 -0.049103193 0.25779083 -1.3427521 0.9285065 -0.6170439 -0.7876874 -0.75236976 -1.3241386 -0.5555742 -1.1921895 -1.3284297
297 0.8009425 0.68232936 -0.39020222 0.8389337 -0.3782291 -0.42177218 -0.46589005 0.7310302 0.2537365 -0.37520322 0.59655154 0.17842345 1.0735717 0.21841684 0.08759688 0.26446876 -0.87977237 -1.2164277 0.13789362 0.66010875 0.08856591 -0.6451501 -0.47144645 0.66216314 0.84940517 -0.60682535 1.3289839 -0.026494391 0.20916905 1.2486839 -0.35616094 -0.34007016 0.9035428 0.50731725 -0.22134246 -0.6030872 0.42742276 0.38478613 1.199112 -1.6618704 -0.33000648 0.026565988 0.6435873 -0.048141364 -0.72143674 0.30196035 -0.72750497 0.8509767 -0.39244983 -1.803185 0.38470522 0.47199118 0.8944057 -0.062016703 0.18037172 -1.298741 0.90740436 -0.6646073 -0.80114836 -0.7145924 -1.3433645 -0.5429958 -1.1488005 -1.3814853
251 0.0081624575 0.32393458 -0.16172498 0.2951572 0.11622726 -0.63213295 0.33414707 -0.19682944 0.31275827 -0.41141647 -0.84674174 0.014314585 -0.68272555 -0.19941019 0.50470704 0.6056013 -0.6470101 -0.10115178 0.43719164 0.7813181 -0.42688978 -0.13670415 0.5986468 0.33459798 0.6206541 0.6424972 -0.019393932 -0.1109027 0.3359717 0.9910914 0.011546949 -0.4116183 -0.09077558 0.43125626 0.09293238 -0.27663517 0.5102792 0.91116965 0.38294232 0.046829354 -0.03371368 0.6927679 0.96105415 -0.18721424 0.41604277 -0.3361722 -0.17480884 0.36635622 -0.39815435 -0.9041631 0.46375415 0.30489653 0.74829304 0.76549155 0.4685196 -0.20862712 0.46253106 0.03737811 -0.609325 -0.35611764 -0.7608493 -0.35656226 -0.3463183 -0.07834265
126 1.3073626 0.36415154 -0.53559047 -0.06134474 0.28962237 0.64257383 0.20358264 0.42707086 1.0278898 0.60218465 0.44720808 0.10572175 -0.4028437 0.12610595 0.32704356 -0.6004984 0.02158177 -1.0404534 0.09980517 0.458855 -0.58261615 0.37004516 -0.0011866181 0.062966205 -0.48766235 0.544812 -0.26880136 0.07168137 -0.16361415 1.1372873 -0.40217513 0.07593474 -0.16995795 0.96622145 -0.56576693 -1.2680249 0.62509227 0.3428911 0.23493026 -0.3556533 -0.06671476 0.019953199 0.21956739 -0.024955949 0.024104074 -0.918884 -0.500936 -0.27502584 -0.27160498 -1.2603922 -0.11111766 -0.66974574 -1.1021831 0.073457845 0.18107454 0.06665712 0.80093455 -0.2257229 -0.38959423 0.5041069 -0.63235384 -0.17585059 0.107750334 0.25086764
333 -0.109706014 0.21929185 -0.02692086 0.25629228 0.11045209 -0.502321 0.34145993 -0.03201189 0.28062367 -0.33420432 -0.72227645 0.052147347 -0.83764255 -0.20316987 0.5502783 0.69535816 -0.8433868 -0.11845361 0.39061922 0.7102499 -0.39093348 -0.06848296 0.6592177 0.25383538 0.600936 0.51927763 -0.15837021 -0.06428708 0.16241194 0.9491004 0.03717764 -0.3690531 -0.100474074 0.3427711 0.12504293 -0.24661309 0.5230455 0.7757442 0.52297604 -0.023517631 -0.10291461 0.60155016 0.9193184 -0.11009991 0.38728002 -0.19402635 0.04748473 0.39974627 -0.51698035 -1.0186812 0.45209083 0.2855166 0.726805 0.8581526 0.6094218 -0.15568958 0.5548916 -0.05493544 -0.38896248 -0.4605018 -0.7260125 -0.4529721 -0.3365763 -0.012453461
177 0.80777586 0.030820562 -0.12287212 0.38736883 0.29255962 0.7563696 -0.5135418 0.41173813 -0.084246315 0.13230915 -0.31298387 -0.28542027 -0.006868018 0.32199463 0.5790502 0.9780111 -0.21696223 -0.20480153 -0.6716637 0.39885864 0.29383823 0.24847247 -0.07047229 0.43566313 0.71011764 0.30531642 0.51716864 -0.696403 -0.3525908 0.19081557 -0.48038784 -1.22108 0.22311474 0.12124226 -0.6570808 -0.18875432 0.297744 0.1952664 0.40657544 -0.49026313 -0.3499489 -0.16040839 0.029419176 0.42206755 -0.35094783 -0.6047977 -0.20885731 0.8038714 -0.0143653955 -1.086739 -0.24733703 -0.38481644 0.18163633 0.5602469 0.68597674 0.29937306 -0.6017559 -0.5168241 0.42140466 -0.54034454 -0.499827 0.03264637 -0.5038424 -0.13391952
100 1.2254274 0.3376804 -0.46946543 0.03613923 0.31453082 0.5118738 0.26218793 0.368026 1.1267923 0.52857745 0.5002027 0.16747981 -0.2829814 0.20606585 0.36939472 -0.5304856 -0.034141537 -1.0050689 0.13455515 0.5174403 -0.4365611 0.44720548 -0.07600095 -0.010718793 -0.5218686 0.45034868 -0.29568693 0.09304444 -0.16236962 1.0858251 -0.3925379 0.1627174 -0.12809612 0.8461635 -0.48766536 -1.1612537 0.58636326 0.37852284 0.3529767 -0.3200454 -0.16915797 0.09867018 0.042052664 0.091763 0.13213255 -0.69920975 -0.67059755 -0.18476473 -0.39451888 -1.3097976 -0.1253493 -0.82147855 -1.1406645 0.011958244 0.32303342 0.07073158 0.7631139 -0.3536446 -0.37149757 0.4733758 -0.70039076 -0.15388834 0.13223624 0.35510698
406 0.06254248 1.0027872 -0.8872267 -0.18935142 -0.07535328 0.048317052 -0.045502607 -0.11499615 -0.30482873 -0.47674638 0.41788876 -1.1281391 -1.3412281 0.12834139 0.76319003 -0.29692265 -0.86629057 0.2629014 0.50619364 -0.04165301 0.0545405 0.20943238 0.94231325 0.4118996 0.63613135 -0.9803654 0.06678468 -0.21538341 -0.5694251 0.95696753 -1.0625377 0.26292214 -0.07363574 -0.70977265 -0.9348727 -0.72920287 0.16438049 -0.5021704 0.670612 -0.04461083 -0.083458275 0.7045092 0.5955166 -1.0124636 0.39541814 -0.4003497 -0.655601 0.18222348 -0.13026424 0.15980114 0.091266796 -0.0028513132 0.18305323 -0.55726475 0.23390225 0.115736865 0.03404928 -0.22745986 0.073436275 0.6450311 0.0491574 -0.06470548 -0.8734175 0.29705307
395 0.66144127 0.20889837 -0.6147763 0.7702261 -0.091934144 -0.90060824 -0.07526246 0.7496179 -0.544142 0.017506434 0.8138874 -0.33521324 -0.7018354 -0.34567556 -0.20739818 0.75487745 0.124313086 -0.7434767 0.3628148 1.0377458 0.5269461 0.2589965 -0.0291014 0.20398054 -0.71624255 -0.42060116 -0.05056384 -0.13056485 -0.40328515 0.12483815 -0.5550007 -0.20377843 0.18204647 -0.69357896 -0.10127061 -0.35329902 1.4246298 -0.4997095 0.12297825 -0.8176936 -0.21462047 0.33861035 0.5558586 -0.9389627 -0.11288343 0.54588884 -0.4551611 -0.29361686 -0.11757628 -0.5012532 -0.16815831 0.75499016 0.47763827 0.5031347 -0.105373934 -0.521383 0.7646314 -0.14700429 0.5559287 0.070340835 -0.1735636 0.71313167 -0.2726896 -0.26916042
150 0.14695583 0.8533967 0.07287406 0.23653503 -1.1094295 -0.051768497 0.063799165 0.4556802 0.3169396 -0.61658806 0.7058163 -1.4720438 0.76009274 -0.3798668 -0.8168284 -0.19383198 -0.28137487 -0.9003349 0.2361441 0.10551078 -0.03747428 0.47289413 0.61753726 0.5908419 0.81207716 0.96943873 -0.1129473 -0.521939 -0.52833146 0.88421816 -0.033498276 -0.19211794 0.08890076 -0.2417019 -0.5945656 -0.47515982 -0.3108552 -0.3265379 0.33540994 -0.7830479 -1.0680898 -0.23469105 -0.18000168 -0.74174535 -0.52950346 0.41865128 -0.36815113 0.061165024 -0.053761832 -0.24054046 -0.29862523 0.12089487 0.9013354 -0.04385058 -0.114345424 -0.8268032 0.22390872 -0.5275983 0.10746311 -0.2939061 0.2700682 -0.8279569 -0.21622571 -0.6268376
280 -0.24717064 0.99057823 -0.2971398 0.7156747 0.16941318 -0.2445305 0.9740816 -0.374081 -0.54654604 -0.39624402 -0.6400399 -0.10969709 0.034120336 0.16563824 0.14926349 0.0585072 -0.28370047 -0.6670302 0.33599246 0.9826743 0.24816753 -0.10740454 0.2918633 -0.84903765 0.2506377 0.86114913 -0.67687637 -0.29124612 0.4610111 0.72469556 0.09749164 -0.11915601 -0.3512962 1.1205754 -0.002493453 -0.3657343 1.0293922 0.11104041 -0.19121231 0.21620987 -0.82386804 0.43438828 0.9624156 -0.07148723 -0.101719014 0.20479457 -0.06491479 0.058896568 0.18867911 -0.0029449463 0.64980286 0.0012332186 0.35391256 -0.39496085 0.5919672 0.5031196 0.40765643 0.14497697 -0.34555444 -0.48240343 -0.75326824 -1.5780985 0.33364516 -0.09212014
366 0.13933267 0.16793844 -0.3378319 0.09191089 -0.024485493 -0.15890211 0.6883335 -0.6362074 -0.019389184 0.23729527 0.2302229 -0.5767294 0.30816215 -0.3291511 0.17759132 0.9185014 -0.77561367 -0.20962004 0.81448287 0.9175652 0.18392189 0.38217434 -0.035990056 -0.0521483 -0.58001494 1.0885582 0.1869333 -0.06947354 0.11465483 0.03459051 0.46131054 -0.3330409 -0.19359729 0.5805789 -0.7356572 0.35982525 0.40831202 0.66457933 0.16484171 0.3674914 0.17720288 0.5176377 0.37913474 -0.619053 -0.13181295 -0.442335 0.26688352 1.2656682 -0.2565505 0.19644253 0.7397569 0.13509385 0.2598326 -0.07075777 0.87980765 0.30261788 0.99451625 0.44274285 -0.77382046 -0.23477224 -0.20505223 -1.146144 0.13689595 0.4459091
107 0.62102336 1.0500768 -1.2822988 0.10296534 -0.009384885 0.6437323 0.11111921 0.50478435 0.5559696 0.09153363 0.109435536 0.7358462 -0.05374773 0.043336343 -0.16924734 -0.41137254 0.04430768 -0.39053994 -0.7511532 0.5950511 -0.06884754 -0.1239265 -0.26822355 -0.24332707 -0.41150486 0.8514954 -0.16108266 -0.34627044 -0.4122093 1.2544255 -0.6534366 -0.34452587 0.3365625 1.1261065 -0.23423098 -1.3072335 0.12440672 -0.33869842 0.40568212 -0.42293614 0.06142774 0.57954794 -0.619591 -0.33515197 -0.6972712 0.0063013304 -0.017649496 0.27774432 -0.48041394 -0.723094 0.698134 -0.45190823 0.2411704 -0.53536665 0.69900036 0.77766895 0.841926 -0.0002860058 -0.3567982 0.22766303 0.5035253 -0.24293433 0.84872806 -0.47279495
376 0.4323241 0.04191165 -0.6838673 0.16102481 -0.22965431 -0.8719781 -0.38780418 0.09481857 -0.69788074 -0.34773338 0.8543102 0.04281586 0.17960946 0.41559446 0.041139543 0.86378646 1.1171424 -0.16472474 0.0594294 0.7143258 0.38594893 0.18235268 0.051963963 0.64586955 0.07540551 -0.46566898 -0.34524882 -0.31173587 -0.4321425 0.2849265 0.0018182253 -0.31017894 0.67069244 -0.59567744 -1.0228058 -0.54901105 0.7040616 -0.674222 0.0107272705 0.13289998 -0.49424633 0.79643136 1.1056486 -0.45252028 -0.72946054 -0.32230556 -1.2236423 -0.107863456 -0.73060644 0.22139938 -0.20440969 0.0957731 0.22662863 -0.16830772 -0.30255967 0.13093553 1.7324291 -0.55215985 0.46879804 0.4423018 -0.13636291 -0.0059869774 0.17482114 -0.38545275
204 0.06571397 0.53551716 0.45538864 0.62275845 -0.20398456 0.4926212 -0.00869457 -0.13701043 -0.38697138 -0.0957329 0.57375115 -0.4180206 0.046945475 -0.102512464 0.31233415 0.2853006 -0.3293724 -0.7067108 0.607328 0.06785577 0.12668104 -0.29359043 -0.11232567 -0.042391833 -0.137528 -0.54644006 0.28694215 -0.31752616 -0.12387608 0.50858784 0.2593808 -0.27298272 0.4266316 0.20215398 -0.65089506 -0.46674272 0.085601546 -0.63997793 -0.6809006 0.0726234 -0.5514211 0.25151584 -0.37884608 -0.6709991 0.14324947 -0.58242714 -0.057975315 0.93013066 -0.6155307 -0.31952193 0.32471803 0.96447957 0.25675955 -0.49864358 0.106138125 -0.6682277 0.027553659 -0.25291482 0.13605736 -0.093824364 -0.32195663 0.018665044 -0.22872528 -0.7311796
170 0.17831676 0.9001307 0.16770063 0.30838776 -0.93355167 0.16232036 0.00017397662 0.4960053 0.32692307 -0.49211442 0.62693757 -1.644871 0.74683505 -0.37621433 -0.66502833 -0.207685 -0.30120456 -0.86181605 0.23825246 0.15333258 -0.0262441 0.4633082 0.52186495 0.52968514 0.6847961 0.8258493 -0.1259634 -0.5178027 -0.51020503 0.88980913 -0.09399282 -0.116413616 0.078011945 -0.2311178 -0.5060559 -0.37191635 -0.22756943 -0.5946962 0.04501466 -0.7487604 -1.002545 -0.30365747 -0.0007331545 -0.784465 -0.38653424 0.34180403 -0.2756908 0.017265674 0.063864 -0.34897605 -0.09499763 0.23790355 0.87890995 -0.013994766 -0.24962749 -0.7990765 0.13787265 -0.51105076 0.10855461 -0.13391721 0.15804179 -0.82380915 -0.08401947 -0.5383054
56 0.6762512 1.0188229 -1.2108854 0.30639395 0.024373818 0.586027 0.098494545 0.59126246 0.51486397 0.10462346 0.1466151 0.6847321 -0.0027082202 0.13156617 -0.015319557 -0.4440503 0.04260796 -0.34790152 -0.7697407 0.51609516 -0.11343533 -0.14443214 -0.19731839 -0.31244758 -0.3943563 0.9144674 -0.20717122 -0.45258737 -0.3061704 1.2509514 -0.549663 -0.41806364 0.32290268 1.2208356 -0.23259826 -1.2711558 0.005071332 -0.29991183 0.3956116 -0.39672893 0.17483541 0.583965 -0.542856 -0.19525512 -0.7625433 -0.036686055 0.020101462 0.2655581 -0.35573748 -0.6230807 0.84413105 -0.49497315 0.20648053 -0.5967174 0.7145502 0.7843084 0.7983503 -0.057329293 -0.28179896 0.2145177 0.5076442 -0.34648672 0.8795454 -0.40918204
299 -0.54339486 0.24588071 -0.048205554 -0.40001008 0.61035186 0.57686037 0.3469016 -0.6717505 0.44643548 -0.54386675 0.068747945 0.19490108 -0.291719 0.19267464 0.115137406 0.9455047 0.6771618 -0.37804404 0.49260348 0.6351733 0.44397968 -0.10904511 0.36250097 0.17049141 0.640651 1.2800441 -0.15343279 0.09243806 -0.075738385 0.76479656 -0.7219498 -0.43532115 -0.44787157 0.1415466 0.2565935 -0.2284936 0.52391696 0.44375676 -0.44139296 -0.16782904 -0.10090796 0.770733 0.61083955 -1.0524325 0.3704033 -0.8725412 -0.6682305 0.30956104 -0.33129224 -0.088405974 0.3273565 0.047263056 0.8572811 0.5134955 0.10787123 -0.053549975 0.15835 0.80279684 -0.02139431 -0.9477179 -0.5796926 -1.3346353 0.27744988 -0.47251448
401 -0.22692484 0.034527786 0.29664582 -0.16876388 0.33998284 0.38908312 0.45161924 -0.610347 -0.45997325 -0.7639322 0.034136828 0.17894827 -0.50112265 -0.56952715 0.06511101 0.6313985 -0.41896623 -1.105267 0.6742683 0.6849554 0.064139076 0.3181775 -0.1513921 0.273197 0.12404397 0.2840618 -0.30504858 -0.34602046 0.030707166 0.59191316 0.13078184 -0.45116827 0.37282962 0.59018725 -0.32179147 -0.17560501 0.6992743 0.39297467 -0.017202294 -0.15893595 0.28630576 0.2864396 0.27749953 -0.5373938 0.5309484 0.1929108 -0.17452008 0.42571804 0.3855716 -0.5356657 0.30159017 0.32138047 0.9193765 0.745785 0.6286307 -0.051776174 0.7307563 -0.47059587 -0.16024755 -0.5127809 0.40420175 -1.1814648 -0.36147055 -0.37797567
29 0.87200886 0.06505532 -0.25476405 0.18900126 0.27297804 0.68923306 -0.23103485 -0.18674408 -0.24056663 -0.11109975 -0.27246168 -0.40714076 0.029789368 0.565898 0.50946766 0.6176181 -0.5722772 -0.15904845 -0.18358915 0.7138332 0.4747586 -0.06930126 0.022264855 -0.12403801 -0.17769174 0.50580436 0.14946817 -0.5435895 -0.25874466 0.09245387 -0.51522434 -1.0944508 0.30616206 -0.119746864 -0.5350858 0.04863247 -0.16768679 0.23735522 0.28838643 -0.16156608 -0.3795586 -0.33243376 -0.3411904 0.2396383 -0.39660987 -0.06602208 -0.2912064 0.11273594 -0.048146322 -0.3558688 -0.13910422 -0.5204226 -0.024975503 0.5845499 0.097816646 0.38264146 -0.21985516 -0.31703678 0.28980398 -0.33220822 -0.6206516 -0.026681 -0.37058866 0.19800532
418 0.05192491 0.9147146 -0.8740779 -0.25390038 -0.24574326 -0.218998 -0.09594677 -0.091214746 -0.4273635 -0.38142255 0.44435194 -1.05807 -1.4151107 0.1650731 0.66411346 -0.28444353 -0.64593375 0.26368666 0.50788134 0.055292763 0.13006449 0.18620634 0.8434132 0.38936794 0.67827636 -1.0424275 -0.0042687687 -0.31163236 -0.7736953 0.9553302 -1.0877231 0.37217495 -0.13422321 -0.7714291 -0.9900199 -0.7674252 0.17877145 -0.52498555 0.64370507 -0.12660278 -0.19627403 0.4551878 0.61884856 -0.92940944 0.494292 -0.47186902 -0.6557972 0.103353485 -0.124302804 0.07798097 0.23024908 0.0033044247 0.25703928 -0.55951464 0.31363732 0.3129855 0.089942195 -0.22706556 0.008843152 0.56276065 0.0043897447 -0.1631449 -0.8414646 0.17334111
108 1.1350185 0.28693807 -0.412912 0.3353683 0.82216847 0.7216378 -0.32890615 -0.15380688 -0.4569123 -0.44170627 -0.014681731 -0.54928714 0.5701704 1.4814827 1.0106819 0.8355764 -0.52174866 -0.53164953 -0.7824758 0.13832077 0.6775999 0.6442141 0.24808602 0.16064113 0.32908833 -0.09386746 0.26738623 -0.9342112 -0.66049105 -0.11419494 -1.1430913 -0.8817928 0.07531272 0.5601678 -0.4688654 -0.039340615 0.013939937 0.49572322 0.3178213 -0.16909438 -0.31060082 -0.31347218 -0.4150051 0.16792634 -0.22105649 0.015229937 -0.51096135 0.12057047 -0.26436672 -0.624386 0.28144515 -0.11540175 -0.0105839595 0.3016274 -0.025175069 0.20530708 -0.077262364 0.20225106 0.45738882 -0.6789027 -0.059814323 -0.377638 -0.07848383 0.5464018
132 0.8270206 0.050768364 -0.13265404 0.34724912 0.26294482 0.7761956 -0.47571608 0.50104326 -0.11453821 0.07700376 -0.32057315 -0.35078505 0.02783319 0.33921546 0.5094245 1.0540501 -0.13117792 -0.2240572 -0.68760985 0.33589008 0.3793682 0.21104881 0.07765208 0.4724633 0.84244674 0.3786148 0.5650029 -0.7442784 -0.2982328 0.12526496 -0.5771502 -1.187744 0.30393243 0.24864982 -0.5904861 -0.22413619 0.30459082 0.24436712 0.47994906 -0.32491487 -0.25909933 -0.12720363 0.08495069 0.47120115 -0.35135734 -0.58794415 -0.14989115 0.7231896 -0.05604931 -1.0825224 -0.24203739 -0.39114133 0.17790133 0.46074054 0.7050726 0.33713278 -0.59607434 -0.44126195 0.40809134 -0.40328303 -0.69570494 0.09951604 -0.53372943 -0.12010524
21 0.6521482 0.14442284 -0.33104908 0.63127327 0.51523465 0.55551267 -0.7200159 0.11674604 -0.045449708 0.21044448 -0.54080725 -0.19280244 0.21344794 0.123182714 0.62960905 0.61355966 -0.9280956 -0.90958124 -0.70462185 1.1306554 0.45352176 0.06428801 -0.3363184 -0.21205051 -0.34344506 0.42007485 -0.4967168 -0.57083696 -0.19754387 0.24034075 -0.28790337 -0.8638863 -0.18070385 0.029545449 -1.1176203 0.1290376 -0.70507365 0.16843744 0.08376014 0.22731873 0.33225903 -0.6258831 -0.048867445 0.08708671 -0.5572936 0.2867792 -1.1852419 0.06831964 -0.38588005 -0.9198165 -0.46302053 -0.14968385 0.37244794 0.41023406 0.35098782 0.2116242 -0.7239631 -0.45903614 0.07907464 -0.6896331 -0.5221344 0.050554153 -0.4379374 -0.20062406
146 -0.63908684 0.63890773 -0.38044164 0.39172643 -0.0687292 0.09394228 -0.574183 -0.63565665 -0.465393 -0.14686835 -0.16252387 -0.101743 0.06739113 -0.4974969 -0.24721609 -0.18133266 0.36205086 0.053481203 0.68125165 0.074621126 -0.55420715 -0.12920684 0.4310018 -0.3304807 0.83210796 0.5597294 -0.18841067 -0.29621416 -1.1481183 0.30760536 -0.10426148 -0.14420512 0.402195 0.4768501 -1.5540749 0.58687913 0.6639882 -0.10180184 -0.23709036 0.31949604 0.0740899 0.04437918 -0.6584464 -0.3504333 -0.54430455 0.11065602 -1.1228151 0.24373318 -0.9532178 0.10579758 -0.26328367 0.95350844 -0.6421367 0.39850894 -0.54973763 -0.21420333 0.3566027 -0.8727364 -0.30719638 0.15615575 -0.6437605 0.34522372 0.5287082 -0.03923959
353 -0.23427433 0.06013999 -0.2644813 0.24415576 0.05014412 -0.09110537 0.7103608 -0.43606827 0.004346346 -0.5068387 -0.35448158 0.2912976 -0.6134882 0.10080994 0.37520504 0.46661785 -0.17266545 -0.38832718 0.48881686 0.5374561 0.14887133 -0.04005612 0.33715186 0.15448791 0.06886536 0.73079294 -0.5563267 -0.19498786 0.093969434 0.36732903 0.06422982 -0.26556826 -0.14790235 0.2933554 -0.33524483 0.015591409 0.47165528 0.33516514 -0.14626415 -0.19040997 -0.05711429 0.3728766 0.38003772 -0.40295604 0.09994429 -0.13598591 0.17865431 0.25875905 0.046492856 -0.16964862 0.21219485 0.0909436 0.29361188 0.37389383 0.1588391 -0.052965883 0.5168621 0.07444357 -0.3287664 -0.82159066 -0.26625544 -0.8594503 -0.15855348 0.013194782
142 1.17601 0.31508985 -0.68528795 -0.0071337447 0.36439976 0.571953 0.34763667 0.48555395 1.1440446 0.5597444 0.46258953 0.24432062 -0.46862656 0.1988591 0.29425398 -0.53948605 -0.039457984 -1.0546516 0.10560707 0.54258496 -0.49648726 0.40227032 -0.019838467 -0.06117806 -0.45331907 0.43830925 -0.21699212 -0.03468608 -0.13418482 1.0087221 -0.33799252 0.118534565 -0.0023823413 0.9114289 -0.5573992 -1.2536372 0.5699855 0.3972946 0.25877813 -0.44390544 -0.15058754 0.057522275 0.19372144 0.057057243 0.10538902 -0.96498597 -0.57748806 -0.26364145 -0.13115089 -1.3220112 -0.11621237 -0.710227 -1.1284782 0.018938567 0.11803191 0.18283297 0.6783181 -0.23686685 -0.24200875 0.42043972 -0.55790824 -0.13515143 0.12362065 0.32409215
123 0.8368636 0.13681166 -0.68952227 0.14911734 0.044946942 0.80587006 -0.36698774 -0.08773017 0.13677703 -0.67296493 -0.14915952 0.009416821 0.2544946 0.75167596 -0.10154269 0.65995085 -0.6179188 -0.7295149 -0.2685763 1.1985103 0.09879526 -0.37035394 0.14149317 -0.13768642 -0.74216145 0.47381908 0.22740003 -0.3472243 -0.05304285 0.15989625 -0.47936592 -0.96217656 -0.29767954 0.6046401 -1.3694642 1.1861601 -0.73840934 -0.4040952 -0.011543251 -0.59590524 -0.3066412 -0.30411848 -0.30496192 0.90711015 -0.23253001 -0.53052604 -0.2777349 -0.3953511 0.9046497 -0.5913781 -0.5010291 -0.15759978 0.4506223 0.34109664 0.30962518 0.496867 0.028020611 -0.28606513 0.14186867 -0.32152057 -0.9957157 0.54854804 -0.31860113 0.4189748
363 0.5714225 -0.057663746 -0.41043696 -0.18386184 -0.4081289 0.4298184 0.04859151 -0.043888964 0.8195306 0.08182007 -0.13975483 0.18484858 -0.33689997 0.0426047 0.027757635 -0.10115641 -0.2656795 -0.28618264 -0.14651355 0.18786678 0.039931014 -0.07817804 -0.40374273 0.30829865 -0.673498 0.82901657 0.03364315 -0.60258317 -0.15731435 0.70655686 -0.7505146 0.11817572 0.24287729 0.5445206 -0.29036766 -0.654179 0.35793027 0.05570089 0.09071495 -0.6739773 -0.28940427 0.32612708 -0.28417885 0.100328416 0.038124833 -0.21931244 -0.1736179 -0.26668984 -0.79847693 -0.56105196 0.26804668 -0.43423584 -0.29283908 -0.29151952 0.0085468795 0.4059496 0.74567765 -0.1494935 -0.03797489 0.086421505 -0.03067126 -0.09423209 0.2972223 0.26906472
153 1.3570832 -0.24212803 -0.9775363 -0.5092551 -0.497063 -0.1482927 -0.032567415 0.33833075 0.74282014 0.09642564 -0.27108252 0.4730962 -0.09466617 0.2923706 0.24939731 -0.6472673 -0.65754896 -0.14801393 -0.5836166 0.2018116 -0.2746331 -0.34996212 -0.2337451 -0.17060073 -0.335124 0.7510876 0.70332015 -0.50509936 -0.5315592 1.1251585 -0.6875212 0.26355246 -0.045002073 0.33155847 -0.17304143 -0.3233324 0.81097656 0.57246 0.43436876 -0.3805875 0.4584046 -0.07494167 -0.3655665 -0.21553488 0.17820072 -0.2548674 -0.40913182 0.5194721 -0.6143679 -0.50615823 -0.01736658 0.24528457 0.0129208425 -0.32385117 0.13861813 0.40673557 1.1577066 -0.35440412 0.4386421 0.25068292 -0.92866206 -0.6558483 0.3168296 -0.4983296
171 0.8858496 -0.8759887 -0.80945104 0.08160733 -0.8108341 0.53915423 0.56624687 0.31260476 -0.5581527 0.006583085 0.24262309 0.12049638 -0.37923712 -0.45754862 0.24730843 0.22125646 0.34149617 -0.16866744 -0.3607703 1.5662988 -0.34294066 0.75517195 0.12546124 0.6653578 -0.103110194 0.19530024 0.0069387914 0.13773425 -0.14837699 0.9483039 -0.3409422 -0.21230234 -0.008631737 -0.2952113 -0.9837827 -0.57098556 0.24075368 -0.5890337 0.16580512 0.46805373 -0.77901924 0.755257 0.26049966 -0.072367705 0.582968 0.48237777 -0.85749274 0.73689765 0.10745298 0.031022234 0.21054687 0.044986095 0.028409708 0.05494 0.31709018 -0.5372678 -0.19378462 0.40792465 0.041870333 -0.25086346 -0.44873175 0.19938947 1.0106869 0.113740236
284 0.35279214 -0.9019675 -0.5638336 0.24210346 0.45456666 -0.23363422 0.09260376 -0.6760301 -0.012853634 -0.276013 -0.22712222 -0.432747 -0.5635624 -0.16241546 -0.1274622 0.7183532 0.06145806 -0.0028946684 0.035633594 0.28935033 0.2702615 -0.17777175 0.7010591 0.100295246 0.53497344 0.86807996 -0.8965991 -0.09189785 0.29971772 0.23623805 0.75583833 -0.2488686 0.37828442 0.26344395 -1.1538957 -0.07540845 0.75572765 1.1296504 -0.55915666 -0.38280007 0.13404348 1.0272415 0.64850366 -0.50999105 -0.25199085 0.20848043 -0.2186746 -0.5918027 -0.21114098 -0.063051045 0.14079645 0.03358881 0.75407416 -0.010708291 -0.25730056 0.51496124 1.0857651 -0.12014089 -1.034238 -0.51991194 -0.6801435 -0.9736295 0.044128228 -0.40925604
437 0.61371183 -0.13046393 -0.42105386 -0.32847625 -0.33273718 0.45926562 0.12274077 0.13083802 0.7188654 -0.03878899 -0.20311108 0.15313092 -0.31390283 -0.010020945 0.07436392 -0.18567152 -0.21486579 -0.34910995 -0.14216243 0.2880701 0.09313595 -0.17697397 -0.44236442 0.31147274 -0.6510424 0.7886227 0.058752045 -0.54614013 -0.23162606 0.71641976 -0.7762209 0.22403957 0.19108863 0.5739746 -0.33790153 -0.5584334 0.40570673 0.096747674 0.13707633 -0.59212357 -0.23690946 0.25921527 -0.3643108 0.062137425 -0.024537543 -0.22964187 -0.37404042 -0.30729154 -1.0318999 -0.35573682 0.19265917 -0.43046644 -0.32951927 -0.29196092 0.18283132 0.33733734 0.69943655 -0.1588246 -0.0045212805 0.008631663 -0.00507794 -0.04830341 0.28140736 0.092433766
231 1.1325243 -0.24051523 -0.9418081 -0.58555216 -0.321152 -0.26869223 -0.05612243 0.52814347 0.8074463 0.04881213 -0.25747183 0.5356035 -0.124135636 0.22852056 0.19443515 -0.6844043 -0.6472861 -0.13410747 -0.43973556 0.26435205 -0.27438876 -0.4551223 -0.24454814 -0.054536063 -0.45016897 0.83293325 0.73007864 -0.5457775 -0.6201452 1.0636085 -0.61146057 0.09156618 0.056262057 0.2595009 -0.2650826 -0.3747002 0.8652725 0.6426251 0.65361375 -0.29600066 0.44033873 0.029289655 -0.5278263 -0.16785733 0.202369 -0.25409156 -0.45696813 0.4615969 -0.6634532 -0.5499754 -0.030901337 0.21605662 0.06347328 -0.27117655 0.09057591 0.279212 0.9982093 -0.33298826 0.38935468 0.26785743 -0.8855326 -0.75298154 0.35490257 -0.42034718
180 1.2024349 -0.4571257 -1.0987302 -0.53932923 0.36523107 -0.318969 0.7497607 0.24881941 0.25126675 -0.40137082 0.479011 0.17599043 -0.29476085 -0.8289007 1.251049 0.48727506 0.10754015 0.7941428 -0.6528371 1.3713981 0.23822704 0.74394023 -0.37102106 0.6568747 -0.7317363 4.7903883e-05 0.1503419 0.29908222 -0.13463046 0.60337067 -0.3924491 -0.55925316 0.6818946 0.42675552 -0.75518245 -0.36215752 0.8089505 -0.4533446 -0.15086138 0.40295956 -1.3866733 -0.2747763 0.14567304 -0.7912663 0.02107431 0.62486774 0.07228627 -0.29935125 0.4311447 0.027323723 0.60827106 0.7717974 0.31771025 -0.11212106 0.23053965 -1.2956914 0.015757415 -0.48446798 -0.20453937 -0.10525413 -0.74618465 0.13097657 -0.17650574 -0.1466621
157 0.54575545 1.0931221 -1.2307488 0.16016366 -0.03712989 0.60861427 0.16326632 0.43467772 0.6242507 0.11865771 0.07246382 0.626142 0.06160376 0.014137325 0.0008371824 -0.33728567 0.048139248 -0.30052507 -0.85773796 0.5002676 -0.13916992 -0.0077513354 -0.1813497 -0.17901926 -0.44812968 0.7907367 -0.1529307 -0.35017478 -0.35643896 1.2111125 -0.48828825 -0.30982804 0.24271782 1.1580884 -0.21824877 -1.1464856 0.16161922 -0.35147414 0.33402288 -0.5178627 0.11327535 0.49148268 -0.53739285 -0.45432848 -0.7723391 -0.10927759 -0.1776876 0.22833015 -0.55182344 -0.7431239 0.82635283 -0.5207607 0.1282292 -0.31742635 0.6779265 0.6706764 0.8031277 -0.14351419 -0.27655697 0.2894082 0.5805675 -0.19868417 0.91987705 -0.39759374
352 0.08325341 0.20834473 -0.37634832 0.101928584 0.12734212 -0.11969658 0.66145074 -0.45771864 -0.0007923449 0.29850915 0.24172392 -0.5461936 0.19002786 -0.2805042 0.1955958 0.76010895 -0.79485625 -0.1405037 0.67639893 0.84935987 0.27946126 0.35436487 0.022880817 0.03211713 -0.59605056 1.1416956 0.2192558 -0.0340215 0.18190984 -0.095198885 0.36267766 -0.33231017 -0.22684759 0.59949434 -0.6410714 0.41356248 0.5750326 0.6180877 0.11097252 0.3498446 0.1590835 0.73421687 0.46784797 -0.516669 -0.091151126 -0.54416513 0.35744417 1.3704399 -0.20252171 0.13693692 0.6696568 0.120777756 0.3569575 -0.05946295 0.84879 0.3790701 1.0640084 0.28711748 -0.90519667 -0.2494376 -0.17072403 -1.0999829 0.15807968 0.3396689
120 1.288308 -0.15142107 -0.8631759 -0.5894175 -0.43023995 -0.2616853 0.017414162 0.46554843 0.75681186 0.1440617 -0.44615027 0.48662883 -0.11821158 0.3583084 0.22082804 -0.61508185 -0.6626835 -0.23183897 -0.57651204 0.22070415 -0.1633299 -0.3940743 -0.30464578 -0.0732553 -0.32285783 0.81422293 0.60053295 -0.4853468 -0.5646743 1.0492394 -0.6785499 0.30089995 0.1328506 0.24672802 -0.21831305 -0.23792328 0.71661484 0.6838258 0.54796004 -0.31263345 0.3849161 -0.0861686 -0.3725845 -0.23671225 0.18247123 -0.20409566 -0.5217757 0.471088 -0.45490447 -0.59987396 0.0116585875 0.3305598 -0.025719885 -0.38056406 0.14036529 0.28357637 1.163574 -0.2855728 0.37155634 0.18682192 -0.796914 -0.63551223 0.41950753 -0.4752521
212 0.14214478 -0.21255934 -0.27523926 0.9067291 0.004716565 0.605249 -0.07708119 -0.22404267 0.12903267 0.22513413 0.98175806 -0.012947994 0.4516459 -0.3764938 -0.669663 0.50096977 -0.29865152 0.2367921 -0.13870211 0.08139418 -0.14693904 0.058293067 0.7901281 -0.24498242 -0.19268814 -0.6869072 -0.3439702 -1.4259365 -0.56722486 -0.080272615 -1.1811914 -0.09791411 0.06260038 0.2434713 -0.5334701 0.0060331575 0.22554763 0.5779194 -0.11290629 0.33186835 -0.28096023 -0.20299555 -0.7535874 -0.56519395 -0.05392228 -0.17307071 -0.3652787 -0.4180345 -0.051058963 0.26569676 0.8967379 0.999661 0.29655802 -0.4922415 -0.053544402 -0.5442666 0.91603327 -0.019766485 -0.5040293 -0.60579735 -0.5454114 0.39683053 -0.014696809 0.2238983
453 -0.1112668 0.06098528 -0.05388716 0.121366 -0.38213047 -0.0053802636 1.101153 -0.4878602 -0.01589259 0.678952 -0.5081102 0.36432588 -0.10835714 -0.39050385 0.6751603 0.99774647 -0.43216547 -0.3682362 0.58245116 0.7571311 0.21191417 -0.32681254 0.6532512 -0.07903631 -0.32937837 0.55004567 -0.31430644 -0.33313605 -0.021620423 -0.058715567 -0.55302715 -0.19007878 0.37875688 0.83500737 -0.69023544 0.0117270155 -0.14405395 0.2996562 0.27741095 -0.21846402 0.35852835 0.7566381 0.79095715 -0.6343831 0.12256346 0.61088026 0.18638094 0.2183389 -0.0066000666 -0.35757518 0.46089834 0.18832804 0.56203145 0.5812888 -0.25670403 -0.89227515 -0.12127663 -0.0052503385 -0.4171181 -0.35114363 -0.35475627 -1.1120745 -0.4779166 -0.5307031
43 0.25030538 0.47527856 0.39813343 0.5085597 -0.24176766 0.40951833 0.014274486 -0.40016448 -0.520353 -0.08377913 0.5388201 -0.53640854 0.21816683 -0.030425671 0.27616087 0.301479 -0.26800546 -0.68608004 0.5504264 -0.08478559 0.16981842 -0.21084118 -0.017996779 0.08624117 -0.1558903 -0.35768664 0.49139473 -0.23767424 -0.15911043 0.56115586 0.23090863 -0.1391481 0.4142621 0.32092798 -0.6054101 -0.5534452 0.018759238 -0.5952231 -0.71380144 0.16835016 -0.46092588 0.39683563 -0.32772565 -0.5480974 -0.007151757 -0.47492856 -0.12770438 0.8279934 -0.52636087 -0.3255604 0.33598712 1.2359595 0.25971025 -0.5705882 0.2582201 -0.6780113 0.11608879 -0.15915357 0.23994 -0.08375075 -0.3462086 0.11539953 -0.29966888 -0.7253362
459 -0.11130587 0.5471394 0.025089992 0.20832138 -0.2670507 -0.10196859 0.18294662 -0.014564298 -0.2510561 -0.11737335 0.14257915 -0.3192201 -0.34227413 -0.054922998 -0.27950624 0.0984423 -0.261246 -0.21382171 -0.073823065 -0.11367594 0.01566155 -0.20650533 0.4722873 0.019569298 0.01690255 0.056631505 -0.027929774 -0.4704709 -0.3108001 -0.086543925 -0.27592146 -0.16839826 0.26970646 -0.024639996 -0.52519673 -0.08845753 -0.15028861 -0.2879903 -0.67878574 0.27768353 -0.46949732 0.29411975 -0.45222878 -0.3657393 -0.08876692 -0.3266952 -0.20776936 0.2530292 -0.23052175 -0.14409453 0.19192477 0.31606147 -0.06977105 0.021090733 0.14259456 -0.40530637 0.08975251 -0.375598 0.069097266 -0.037516877 -0.47513682 0.076586224 0.1930118 -0.18559387
323 0.17587622 0.16350539 -0.31156668 0.053044975 0.1883165 -0.1444079 0.71015394 -0.4464651 0.11656422 0.11218 0.19772659 -0.46188164 0.34180582 -0.47887552 0.19255993 0.97896624 -0.8453453 0.0058965385 0.8642658 0.9472091 0.16778876 0.2824583 -0.011569314 0.006979624 -0.5884473 1.0400532 0.17520854 -0.06504295 -0.007901774 -0.01786679 0.41428927 -0.4088481 -0.32201618 0.41331568 -0.73554605 0.3014657 0.26825976 0.6092366 0.15683372 0.35768634 0.25801438 0.64182866 0.3964136 -0.621652 -0.11153243 -0.51712143 0.31521162 1.4275551 -0.28367993 0.18892504 0.68539137 0.151836 0.26126078 -0.0021715015 0.920908 0.41847414 1.203852 0.4598294 -0.7174336 -0.21455355 -0.17381503 -1.0753068 0.17779177 0.34980777
361 -0.24590938 0.19835049 0.13196553 -0.12845859 0.29630044 0.47510454 0.5144892 -0.6040111 -0.4105114 -0.6833978 0.105769955 0.2036639 -0.42821234 -0.6872428 0.16770369 0.66318685 -0.32945082 -1.0927972 0.80349225 0.594222 0.2673008 0.15909792 -0.09875524 0.23870091 0.08471052 0.35397318 -0.16003045 -0.4059669 0.018683733 0.5611816 0.2106018 -0.497766 0.117918074 0.60434645 -0.2498078 0.067978896 0.71036434 0.34710026 0.0382377 -0.040398054 0.15901543 0.28437853 0.258952 -0.559448 0.5696967 0.00452945 -0.21808763 0.42528456 0.38414207 -0.6539402 0.2707024 0.27439126 0.7746355 0.652255 0.5221403 -0.14126952 0.65112716 -0.37640023 -0.28924617 -0.5030679 0.36818713 -1.1978035 -0.37869737 -0.38260782
139 0.8454718 -0.042687837 -0.17203884 0.31583795 0.32726377 0.7240592 -0.26270518 -0.013003945 -0.24988158 -0.09196583 -0.3471511 -0.376581 0.050692484 0.64570165 0.47323194 0.74071735 -0.5122197 -0.20626125 -0.26213664 0.52806014 0.47418198 0.18368119 0.085604794 0.017767206 -0.118142255 0.5280484 0.11593324 -0.42887032 -0.28860828 0.09964733 -0.58870167 -0.9896902 0.30987042 -0.05547077 -0.5257604 -0.0867255 -0.24403988 0.21278808 0.21619348 -0.28979576 -0.3306441 -0.33275172 -0.21795747 0.24490945 -0.39026007 -0.1629376 -0.23739123 0.1203598 -0.006265992 -0.34217894 -0.14481498 -0.49293065 0.039391372 0.5849263 0.21752867 0.373031 -0.15814562 -0.24422517 0.31474635 -0.4389773 -0.59449023 -0.01885001 -0.27173766 0.21062608
351 0.49497586 -0.024007207 -0.4465017 -0.31068036 -0.18077157 0.3901719 0.052137017 0.06902763 0.649901 -0.003731922 -0.105979964 0.1792652 -0.2910462 0.018051008 0.09948151 -0.0741404 -0.3194109 -0.22967331 -0.08041822 0.15984654 0.08894535 -0.18744923 -0.33404857 0.34530684 -0.6281947 0.76561844 -0.13636672 -0.46502343 -0.20488623 0.67380464 -0.73013157 0.17214994 0.2580928 0.7021104 -0.313691 -0.70227987 0.29239324 0.058802187 0.11048076 -0.66353977 -0.37290162 0.25475278 -0.32831094 0.093556166 0.021417418 -0.10338876 -0.31297803 -0.17628439 -0.9016367 -0.5304091 0.09780188 -0.52901316 -0.16572335 -0.315146 0.102834046 0.420989 0.8491757 -0.1540765 -0.049437698 0.031732857 0.021041136 -0.047211118 0.37356803 0.2472125
187 0.10422779 -0.062628075 -0.3929875 0.9396534 -0.08887563 0.6193499 -0.06544494 -0.13466325 0.14475158 0.12746786 0.8709904 -0.07000483 0.5139266 -0.25373107 -0.7356569 0.61342156 -0.44064066 0.30351597 -0.050612707 0.18150957 -0.03408449 0.039866813 0.62472177 -0.24047081 -0.21130459 -0.7967518 -0.3894417 -1.4509779 -0.5576215 -0.072957404 -1.0022869 -0.11570868 0.03811376 0.4015171 -0.47695336 0.009242736 0.24619468 0.5713437 -0.17998655 0.40448222 -0.13529395 -0.12360158 -0.7551114 -0.62656844 -0.07883823 0.016095642 -0.41459575 -0.24115217 -0.07619734 0.2039467 0.7478858 0.8107173 0.35730425 -0.5962732 -0.051911023 -0.7400153 0.9733212 -0.20717499 -0.28527057 -0.58976805 -0.5783563 0.44239092 0.07795937 0.39953452
91 1.2289093 -0.37001047 -1.0156435 -0.56344897 0.26069102 -0.34247065 0.5163247 0.17677969 0.20500955 -0.34029028 0.39272413 0.10631706 -0.2166577 -0.957411 1.3080122 0.48043582 0.119926885 0.9334304 -0.6958559 1.2314463 0.118677 0.785139 -0.37742114 0.5717907 -0.64740384 -0.034984548 -0.02422559 0.27120718 -0.25502425 0.5460746 -0.535287 -0.5883153 0.6823049 0.36913833 -0.67554635 -0.29231524 0.8588325 -0.44924048 -0.090105064 0.50704396 -1.3160151 -0.33016568 0.256278 -0.7610354 -0.08971007 0.5858135 -0.011224723 -0.08036454 0.340031 0.03606074 0.5616989 0.78864306 0.26340285 -0.10868731 0.3780882 -1.262631 0.13567363 -0.55982214 -0.27504984 -0.059024345 -0.7384816 -0.0138487145 -0.21473089 -0.1283372
213 0.32071033 0.53126943 0.19907472 0.55502015 -0.67046875 -0.49652255 0.3178816 0.1958675 0.1181396 -0.43087456 0.2809585 -1.3645627 0.81014556 -0.60856456 -0.3794116 -0.3209215 -0.11342988 -0.43371615 0.13605717 0.16018322 -0.0005043928 0.4391263 0.92525035 0.18816666 0.41870144 0.8768354 -0.30002484 -0.42992437 -0.3061469 0.24204022 -0.35504392 0.1896471 0.021833045 -0.114073105 -0.5460371 -0.48737666 -0.52358735 -0.2402763 0.4867884 -0.50778794 -1.0918523 0.14062342 -0.5989617 -0.67482895 -0.26176295 -4.684976e-05 -0.07143874 -0.17176181 -0.0676112 -0.13137789 -0.31779808 -0.037576463 0.63516235 0.07871554 -0.19150606 -0.60300225 0.31730238 -0.9406782 0.12340211 -0.38006055 -0.021510318 -0.2763952 -0.27961293 -0.5381375
464 -0.026464429 0.071005344 0.09635727 -0.022321293 -0.31932414 0.024937961 1.256191 -0.36651576 -0.057094947 0.6762357 -0.2125099 0.41898105 -0.3211236 -0.41324165 0.69000435 1.0030757 -0.35234338 -0.49628037 0.5397889 0.7908599 0.14196652 -0.42013308 0.73072404 -0.019921796 -0.030674623 0.6904701 -0.25104052 -0.45538214 -0.0640244 -0.11787368 -0.5025186 -0.18474129 0.4078869 0.7352134 -0.7708943 0.11923743 -0.08872797 0.3046491 0.36104086 -0.23982899 0.25426742 0.61830574 0.76480365 -0.70290446 0.11459334 0.6976925 0.33771315 0.061656196 -0.16185899 -0.42350382 0.4041609 0.2487426 0.6184873 0.5762788 -0.12312109 -0.83174753 -0.19735907 0.11787547 -0.22684179 -0.3012592 -0.36825752 -1.0967885 -0.37894356 -0.54404265
36 0.34301656 -0.20956962 -0.33414117 0.066666104 -0.3240837 0.27354145 0.9917831 -0.013306446 0.7156822 0.36861858 0.45550907 0.23601544 0.114970386 0.4084532 0.45835695 0.29243547 -0.4821719 -0.41344407 -0.11730371 -0.29178378 0.3016669 0.069909975 -0.65896887 0.31651068 -0.7373395 0.011841198 0.033318818 -0.55446714 -0.6281374 0.36602905 -1.3444774 -0.026357124 0.44610786 1.1138487 -0.47279182 -0.71933156 1.039385 0.9114287 0.41005838 -0.93674934 -0.29760268 0.1743502 -0.8603433 -0.030496826 0.1120524 -0.1714697 -0.9756354 -0.654577 -0.6968075 -0.33688956 0.23472838 -0.06298436 -0.451355 -0.35392916 0.34356877 0.2832753 0.6861453 -0.01691462 0.18153471 -0.6168774 0.2104423 0.11510269 0.6400511 0.24830204
379 0.6990513 0.085177116 -0.5450321 0.9404528 -0.08019411 -0.88505715 -0.23264347 0.6712945 -0.48420748 -0.1677262 0.6750028 -0.39389205 -0.79177225 -0.35933772 -0.27831894 0.851517 0.029615605 -0.7265035 0.3678815 1.0397084 0.42510113 0.32273775 -0.059916645 0.015451786 -0.58887166 -0.34029663 0.06594147 -0.19816455 -0.37764528 0.16920105 -0.57956547 -0.19477308 0.15991215 -0.67148507 0.043186396 -0.46490425 1.4846201 -0.6272586 0.17155431 -0.8604896 -0.08117404 0.41864225 0.49430355 -0.9425453 -0.113506794 0.48517895 -0.4564447 -0.13461614 -0.11481854 -0.3548988 -0.0645597 0.7301699 0.36859354 0.38450065 -0.0060380707 -0.65468735 0.64069104 -0.2446843 0.7341392 0.02405881 -0.18721245 0.8735254 -0.14136973 -0.24628979
276 -0.147997 -0.10592785 -0.33325994 0.328872 0.04094703 -0.21498033 0.7493934 -0.47388884 -0.09116249 -0.31107545 -0.2323056 0.32928213 -0.49044928 0.048760485 0.41452622 0.46215567 -0.24514577 -0.29390064 0.46230206 0.42641473 0.14944382 -0.0465881 0.32038644 0.105780855 0.0079455655 0.7323949 -0.6383144 -0.24425144 -0.0134197585 0.48766845 0.1401655 -0.13349341 -0.17605995 0.3045359 -0.42152178 -0.08314449 0.32755196 0.35814074 -0.17914006 -0.2319818 -0.13225098 0.34232846 0.55843043 -0.44357896 0.10689611 -0.12158065 0.28288275 0.22697392 -0.113701604 -0.19782564 0.09908196 0.03197315 0.32311422 0.5186204 0.14580947 -0.00614489 0.51275337 -0.0059925998 -0.37537685 -0.6648355 -0.38680187 -0.9404219 -0.06157278 0.16232724
192 0.09357081 0.45676583 0.1832753 0.45597562 -0.8497942 -0.40263653 0.30863485 0.28410256 0.016690856 -0.3221157 0.30703822 -1.6029824 0.63967264 -0.48236716 -0.37613586 -0.44370535 -0.25810128 -0.46669564 0.099803105 0.28314787 -0.10683143 0.39916843 1.044378 0.24354517 0.3368281 0.99605405 -0.25572386 -0.34373814 -0.28879315 0.28664887 -0.2475164 0.07161168 0.13168123 -0.15964177 -0.506815 -0.40627146 -0.38188034 -0.3024308 0.45705628 -0.5930805 -1.1422455 0.06609257 -0.59752625 -0.5874491 -0.4017976 -0.035950936 -0.049581874 -0.19920957 0.003183022 -0.14076042 -0.30023274 0.07160231 0.63164496 -0.054767624 -0.40480366 -0.636664 0.42087963 -0.8255776 0.16001955 -0.5483807 0.042099625 -0.45748025 -0.13688229 -0.6796981
207 0.22269292 -0.14307746 -0.41508788 0.9997528 -0.0019136261 0.65467006 -0.05062065 -0.071734376 0.12839226 0.18606776 0.9546687 -0.080991596 0.29121354 -0.20551139 -0.54193485 0.40733877 -0.5037661 0.09566366 -0.16087829 0.018396657 0.013494782 -0.02158466 0.74648196 -0.06294612 -0.05419714 -0.44310755 -0.42915493 -1.4085612 -0.5224749 -0.29911706 -1.0272089 -0.038724568 0.12599976 0.29238957 -0.58497417 0.10860584 0.19500525 0.57532114 -0.18857397 0.41328952 -0.109457724 -0.37963054 -0.79617935 -0.44733766 0.062025566 -0.17004414 -0.41800687 -0.2909065 0.03668297 0.4266294 0.7030859 0.960541 0.42039317 -0.60658586 -0.003631757 -0.80540854 1.0127295 0.04535567 -0.49228474 -0.5629282 -0.5078748 0.49436992 0.109362 0.076981455
196 0.6014852 -0.16037916 -0.36517 -0.3466235 -0.2621981 0.31962556 0.039812468 0.025500778 0.6314369 -0.076327406 -0.12854522 0.12222524 -0.3624261 -0.04596274 0.22081049 -0.119775645 -0.30055755 -0.2995156 -0.17840585 0.20818797 0.1373084 -0.13640517 -0.37361047 0.2957594 -0.5976872 0.9598076 -0.0017788814 -0.44629163 -0.31209582 0.6649284 -0.5952813 0.14372115 0.16745812 0.7545543 -0.34150207 -0.4581761 0.35373294 0.038087774 0.015183846 -0.7205147 -0.30332208 0.20379217 -0.40170112 0.12150135 -0.055524934 -0.19989638 -0.30245548 -0.18947673 -0.8768265 -0.45392027 0.27476633 -0.5615248 -0.23525602 -0.3839373 0.07224836 0.35760385 0.734232 -0.13810785 0.021211447 -0.023255691 0.0878397 0.0690067 0.41003576 0.13104168
137 0.8858312 0.16909157 -0.70120114 0.18159932 -0.124667004 0.7965284 -0.447334 -0.17239143 0.1127705 -0.6999773 -0.27695358 0.02709694 0.33770093 0.6994983 -0.075588726 0.5950913 -0.68277955 -0.7338444 -0.53807634 1.0860319 -0.019591944 -0.34054118 0.029267196 -0.27045462 -0.77285945 0.3063115 0.15119305 -0.32024914 -0.049212843 0.18922788 -0.42316502 -1.0651026 -0.41764316 0.52675086 -1.6776744 1.159686 -0.7230522 -0.288196 -0.10438984 -0.6918142 -0.32994142 -0.2170049 -0.09766373 0.86252975 -0.2953304 -0.49298853 -0.33891562 -0.4088599 0.8895189 -0.6312835 -0.5305846 -0.11998489 0.55064094 0.4136846 0.27925548 0.55654 0.12310238 -0.22639953 0.17574005 -0.30418077 -0.925859 0.6764825 -0.27350715 0.3301976
135 0.17501763 0.5068424 0.22788186 0.53870887 -0.98875844 -0.29948592 0.26736045 0.17233211 -0.06336558 -0.56019235 0.39431554 -1.4753832 0.78403646 -0.41964352 -0.34772733 -0.39838532 -0.071065746 -0.34050176 0.20664111 0.20455524 -0.16810417 0.26945135 0.8381852 0.20475157 0.33981618 0.9605666 -0.40335968 -0.4731128 -0.23636009 0.32369426 -0.2263554 0.1878143 -0.052961104 -0.09940998 -0.64428586 -0.50959784 -0.45154047 -0.2722408 0.46676245 -0.67646873 -0.95992285 0.085752554 -0.51812327 -0.65042484 -0.3118537 0.045046363 -0.022358323 -0.06606271 0.035164498 -0.19296965 -0.36102983 -0.05365399 0.5516722 -0.092198595 -0.19508445 -0.6090289 0.28837964 -0.9683914 0.3130928 -0.47892508 -0.04147221 -0.3511157 -0.20782468 -0.56812155
355 0.55174565 0.012859219 -0.38873795 -0.33237463 -0.27268255 0.3993934 -0.016604459 0.034885943 0.6823298 0.17915441 -0.10069097 0.2957022 -0.28915852 0.07598441 0.2502088 -0.084930696 -0.3919504 -0.33230245 -0.18101244 0.19927603 -0.04779725 -0.14972949 -0.3500777 0.3930905 -0.62515014 0.9819328 0.1360561 -0.47507757 -0.27287972 0.70104575 -0.75915384 0.18548608 0.15207322 0.6105676 -0.34220698 -0.7011654 0.46763417 0.06811203 0.08661249 -0.63958836 -0.3186796 0.19795744 -0.26807174 0.14063817 0.10053785 -0.24560997 -0.23813191 -0.22658822 -0.8290942 -0.38670647 0.24250439 -0.45997235 -0.3048456 -0.31913018 -0.03558757 0.38029054 0.8373624 -0.20299363 0.08858601 -0.002429787 0.015156044 -0.009832425 0.26072899 0.08244972
50 -0.09633866 -0.0442303 0.066236995 0.47872084 -0.21365774 0.88982195 0.28330126 0.441774 0.25377265 0.5560281 0.31188175 -0.32741788 -0.4646348 0.1781226 0.27708715 -0.35208023 -0.2429766 -0.46474248 0.6117647 -0.49288705 -0.38799027 -0.057648335 0.39502585 -0.05526834 -0.02972349 -0.5792101 -0.39359298 -1.1161635 -0.28385854 -0.4873621 -0.9429364 -0.21887122 0.133187 0.85336673 -0.1415785 0.1337919 0.0075927926 -0.11284089 -0.63357407 0.6084312 -1.3173665 0.6957971 -0.386273 -0.5041561 -0.32273495 0.32588112 -0.6093508 0.91032654 0.14450222 0.48496768 -0.06592147 0.41574165 0.83389455 0.078064695 -0.35682586 0.28942966 0.9058335 -0.31177413 0.064411014 -0.031379674 -0.6951299 0.49912956 -0.19584276 -0.26828277
23 0.8146086 -0.05325633 -0.17664193 0.18655129 0.22792527 0.6990397 -0.23832281 -0.068322495 -0.23141664 -0.100638814 -0.31068948 -0.419274 -0.054444633 0.636649 0.49828538 0.7364886 -0.50007653 -0.36191896 -0.29471466 0.58392066 0.589146 0.09890769 0.050838944 -0.058956474 -0.06791551 0.4970693 0.09555925 -0.47747484 -0.4277262 0.026402896 -0.574666 -1.070233 0.39607698 -0.09359494 -0.50595856 -0.118457265 -0.2504993 0.22464597 0.28531024 -0.21236333 -0.23372422 -0.31536376 -0.26554945 0.29174408 -0.37626573 -0.12483045 -0.22136511 0.19890234 -0.0069842357 -0.22720511 -0.17085074 -0.37906078 -0.10510987 0.5277488 0.22714469 0.44229338 -0.27495334 -0.34045988 0.32401893 -0.35283765 -0.5987643 -0.079715535 -0.2690916 0.07337086
28 0.8113907 -0.074724935 -0.26602325 0.18292414 0.2903165 0.7878375 -0.2945963 -0.03738762 -0.33043414 -0.12649752 -0.37630352 -0.38803825 0.042821858 0.6603426 0.4172732 0.57705337 -0.5095257 -0.30719873 -0.3545842 0.640481 0.4492925 0.06897612 0.11769714 -0.03287254 -0.2013286 0.40547237 0.18046808 -0.47249264 -0.30016404 0.027956845 -0.5339125 -1.0412029 0.23897006 -0.011714821 -0.5791523 -0.101454444 -0.21257989 0.2192129 0.17491105 -0.24649483 -0.36218068 -0.29791152 -0.16834107 0.19410002 -0.36737138 -0.1218661 -0.24036497 0.039848138 -0.023713438 -0.34414443 -0.27040294 -0.4203718 -0.019869054 0.5377819 0.20256487 0.44248888 -0.178096 -0.32756698 0.31458482 -0.40912622 -0.520436 -0.1507021 -0.31033304 0.18449715
41 0.022836512 0.49928558 0.128718 0.40815714 -0.16786271 -0.08315746 0.21946365 0.20026217 -0.16981389 -0.06364063 0.06455684 -0.114128396 -0.31671625 -0.16068323 -0.20421596 0.13708763 -0.34785828 -0.29160756 -0.0061837267 -0.03986512 0.063608736 -0.14129035 0.43759564 0.093316846 -0.0050826585 0.0055134697 0.07605206 -0.6107726 -0.30926082 -0.12776025 -0.13286981 -0.15321505 0.08602433 0.1368423 -0.5066148 -0.25922117 -0.026292523 -0.44873634 -0.6968433 0.41800746 -0.57206166 0.43367857 -0.65598863 -0.37987727 -0.024060939 -0.27755517 -0.14254414 0.19607496 -0.23193417 0.03931069 -0.048261337 0.30008194 -0.08375032 -0.114169754 -0.027382107 -0.32299474 0.2378235 -0.26209953 0.15383387 -0.08464198 -0.49814293 0.06367604 -0.0275926 -0.12682576
75 0.21757329 0.565158 0.14532329 0.31056127 -0.17731701 -0.0632791 0.17036843 -0.15370013 -0.10509907 -0.14331898 0.17237985 -0.22577143 -0.21151784 -0.2616871 -0.09572526 0.066168405 -0.34129426 -0.1279529 -0.1306179 -0.23692946 -0.056586735 -0.12415146 0.5047267 0.060095187 -0.042208355 0.03912712 0.039385635 -0.2981559 -0.19283523 0.002522617 -0.47962645 -0.24067879 0.20215295 -0.07809325 -0.32830235 -0.09441812 -0.067562565 -0.29078478 -0.5116964 0.39918393 -0.388334 0.37066016 -0.30798638 -0.534886 -0.07622673 -0.3048275 -0.17548099 0.17434388 -0.20433243 0.035514046 -0.07724695 0.30039132 0.0024782931 -0.098005734 0.04324601 -0.22814925 0.27304196 -0.37018535 -0.07192646 -0.20613994 -0.56379265 0.2750619 0.15379946 -0.011494934
11 -0.06083015 0.5659528 0.053270414 0.34537423 -0.23436156 0.10890934 -0.0033571182 0.06053527 -0.05294238 -0.23374227 0.08622724 -0.17093077 -0.31946853 -0.11175714 -0.07664293 0.15645224 -0.24929725 -0.31219846 -0.04708001 -0.058704544 -0.06447873 -0.26096433 0.5907158 -0.14364706 -0.19488007 -0.054225292 -0.061419364 -0.35713476 -0.40986282 -0.10498006 -0.28807193 0.0065050633 0.11926858 -0.03049806 -0.51124156 -0.14316215 -0.05907759 -0.13862275 -0.5986017 0.29153615 -0.48587424 0.32469788 -0.47926927 -0.4813478 0.013759879 -0.2195315 -0.17622383 0.23639208 -0.32287607 0.09850869 0.16382018 0.22188088 -0.052896045 -0.14299922 -0.0170971 -0.5656994 0.18654996 -0.38172072 0.040435035 -0.15633099 -0.4646521 0.14306012 0.07726296 0.04121304
69 1.1948029 -0.4442237 0.13454342 0.1667937 0.0054924623 0.6780472 0.13942958 -0.5974031 -0.48041812 -0.3534575 -0.5841793 0.1444267 -0.1305062 0.5398283 0.12945643 0.84766674 -0.52535784 -0.8383736 -0.19685455 1.0091953 0.65885246 -0.09662519 0.36601827 -0.5917101 -0.062868066 0.08310406 1.0995033 0.45448214 -0.6402834 0.019324085 -0.42344108 -1.1361444 0.09646252 0.3519363 -0.6232168 0.3358963 -0.6256884 -0.22604069 0.034256075 -0.97474986 -0.7304045 -0.21664096 -0.8984708 0.18234293 -0.42445514 -0.1219068 -0.38904503 -0.1761049 -0.3010622 -0.15771611 -0.22840804 -0.6900934 0.6522239 0.56815904 0.21725807 0.71629924 0.1425279 -0.22924775 0.3897743 0.09225395 -1.0969813 0.24457014 -0.7748733 0.54256046
111 0.7651105 -0.13583034 -0.21255654 0.3221414 0.21098343 0.8126133 -0.14711295 -0.0674245 -0.22341904 -0.13893114 -0.35467595 -0.33601734 -0.024358546 0.7483937 0.33738348 0.6036035 -0.46905306 -0.28350353 -0.31609726 0.6905617 0.5236813 0.09378076 0.115051046 -0.07381522 -0.21004102 0.4902289 0.09947035 -0.52001745 -0.3669933 0.15995862 -0.59800756 -1.1020526 0.3360994 -0.17594211 -0.5516826 0.014530765 -0.32120007 0.24183135 0.13299619 -0.25883695 -0.35619655 -0.31430185 -0.19932634 0.2650768 -0.41477206 -0.029194944 -0.14196277 0.040373866 -0.11214562 -0.29043624 -0.12979652 -0.34213814 -0.18374017 0.4957218 0.17570125 0.52791065 -0.167824 -0.2899895 0.38977715 -0.41393435 -0.6173347 -0.017683107 -0.3998856 -0.07049725
148 0.9108011 -0.8315297 -0.9298728 -0.07639199 -0.8810067 0.628544 0.5090551 0.30253783 -0.7593779 0.094670914 0.35036984 0.10994124 -0.43161473 -0.5392838 0.2250383 0.23321895 0.22290812 -0.28359833 -0.4872057 1.5937854 -0.31262228 0.87682545 0.14706331 0.63216794 0.041590866 0.41271007 0.075871244 0.17104417 -0.13163383 0.8565412 -0.24596664 -0.2161628 -0.01905725 -0.18252778 -0.98634475 -0.55989766 0.23960207 -0.5534115 0.17218861 0.43493333 -0.74776745 0.6895006 0.19169396 0.018282745 0.74873817 0.31862688 -0.81356674 0.77933466 0.07914338 0.08045108 0.28382677 0.07765092 0.030220045 0.050538063 0.20965819 -0.58232427 -0.31293935 0.37779427 -0.05792177 -0.45742983 -0.43431064 0.31907123 0.9599821 0.2884356
357 0.5805735 0.028739437 -0.46926492 -0.3049189 -0.30674142 0.38871765 -0.02996334 -0.025799844 0.7120357 -0.05860755 -0.09027451 0.21448658 -0.25400713 0.15542403 0.12942497 -0.12751412 -0.33391973 -0.18277855 -0.069073945 0.20210314 0.123703405 -0.18703109 -0.30109933 0.3256586 -0.74048054 0.8227907 -0.021032156 -0.53779227 -0.3358549 0.7617767 -0.7817854 0.26578665 0.21955885 0.67646664 -0.298343 -0.5748513 0.4047069 0.044418808 0.23167922 -0.69693506 -0.34042457 0.35810152 -0.28062922 0.06975232 0.03395852 -0.06307598 -0.21263419 -0.14974318 -0.8473087 -0.50975907 0.19197793 -0.33935192 -0.30613908 -0.3708632 0.12169614 0.34640643 0.7571379 -0.13151982 0.017966917 0.08959817 0.008972045 -0.09731266 0.41088232 0.114971645
269 0.0020873812 0.49253482 0.1509288 0.40602386 -0.2013578 -0.007762246 0.060930673 0.036061317 -0.072339654 -0.14121279 0.07405155 -0.13566609 -0.38035944 -0.34883368 -0.09055407 0.09735895 -0.41427568 -0.21485607 0.0018963653 -0.17733915 0.14276636 -0.047412902 0.52868456 0.1647073 -0.017678129 0.17062424 0.022296788 -0.36404583 -0.2544658 -0.16321857 -0.40969732 -0.103304364 0.3211587 0.11134838 -0.3582503 -0.09762249 -0.08364589 -0.37670574 -0.56639385 0.3961685 -0.4853625 0.079419576 -0.39855945 -0.4478147 0.04594681 -0.37118375 -0.23349886 0.23861004 -0.17391597 0.059163075 -0.052766327 0.2991078 0.10492193 -0.20685309 0.048829462 -0.35654518 0.3013612 -0.355555 0.067451485 -0.13994871 -0.49010363 0.19168614 0.24076018 0.021471962
350 -0.14228733 0.111819156 -0.012162887 0.095209345 -0.46832693 0.019745851 1.0950233 -0.6993751 -0.1286607 0.69041055 -0.35104558 0.3048277 -0.23130928 -0.44148538 0.6377386 0.9527569 -0.1734013 -0.5260401 0.53174037 0.70267004 0.13005847 -0.2137023 0.6507313 -0.028457886 -0.22983277 0.5727196 -0.085500896 -0.34020922 -0.09707025 -0.020167232 -0.60218215 -0.1905031 0.4999054 0.8923827 -0.55087703 0.08832103 0.009377796 0.32361567 0.28832337 -0.27881125 0.32343107 0.5990357 0.7201964 -0.73801017 0.21344534 0.54294825 0.2240812 0.12535413 0.07353473 -0.41196978 0.33236977 0.10975882 0.5930985 0.6118436 -0.1573185 -0.92739636 -0.18395689 -0.010465737 -0.45844582 -0.3709164 -0.47952294 -1.0746127 -0.43377405 -0.5358435
433 0.33519697 0.075617164 -1.010763 0.35609198 -0.20950142 -0.71942997 -0.30536485 0.22829148 -0.5765753 -0.16974828 0.76714563 -0.23390804 -0.44910726 -0.19738297 0.08168061 0.4445112 0.49543864 -0.31675035 -0.13268317 0.88165474 0.31908765 -0.11082316 -0.03568066 0.14128162 -0.26578793 -0.034624014 -0.11097031 -0.114265434 -0.3834922 -0.008595879 -0.5402942 0.20413291 0.52463526 -0.4384675 -0.31864896 -0.26636586 0.7655713 -0.60729504 -0.110438034 -0.16275632 -0.5326631 0.2878142 0.5663737 -0.5598629 -0.26258248 0.14232005 -0.74120194 -0.02419326 -0.03484323 -0.09741844 -0.14980167 0.31967163 0.4604109 0.1352337 0.11471648 -0.02661032 0.87439996 -0.14762315 0.1972781 0.07267025 -0.15380123 0.53075415 -0.24228504 0.28251234
283 -0.28431854 -0.009574898 -0.19340576 0.21504915 -0.016359804 -0.06545436 0.6088319 -0.4349766 -0.08809051 -0.4707876 -0.32651117 0.1976339 -0.6512551 0.07625231 0.40017048 0.48213816 -0.25373733 -0.3596956 0.45769212 0.45508662 0.103793524 -0.0887774 0.2784222 0.13308698 0.012894324 0.7434046 -0.5943186 -0.16055743 -0.06377921 0.31641588 0.03840959 -0.08667741 -0.13374756 0.37745258 -0.22615327 -0.074909456 0.3267305 0.39684474 -0.051264 -0.19052842 -0.065103024 0.45827213 0.47257918 -0.4574143 -0.039760828 -0.11222266 0.29232118 0.22936444 0.038395554 -0.2930899 0.2513104 0.04790432 0.34500495 0.43642986 0.28224075 -0.038254146 0.45296073 0.08407074 -0.32769936 -0.7596156 -0.4832528 -0.8010112 0.0073863557 0.08704011
118 0.8171465 -0.08217051 -0.20560393 0.31383088 0.1950431 0.6980805 -0.33526352 0.1103362 -0.24450229 -0.14068396 -0.37183413 -0.39176828 0.015220787 0.6856045 0.5062502 0.7139136 -0.46512732 -0.28454727 -0.2708563 0.6636137 0.31308308 0.058201354 0.004646309 -0.112886235 -0.18062033 0.47122166 0.09321121 -0.4484157 -0.4068836 -0.07904637 -0.48901162 -1.03259 0.34082568 -0.084392086 -0.57960093 -0.02806785 -0.21178639 0.26182264 0.22067624 -0.29277572 -0.3453049 -0.3718031 -0.3485219 0.17491847 -0.40779942 -0.07664922 -0.28832895 0.097610064 -0.04530112 -0.357362 -0.1710444 -0.39063042 -0.13026807 0.55378264 0.25864103 0.52224123 -0.24068159 -0.2620973 0.32478908 -0.42286134 -0.613788 -0.051432494 -0.25088826 -0.00045291506
61 -0.08782948 0.5667069 0.08734539 0.23165621 -0.2794307 -0.022164816 0.1835251 -0.07755507 -0.22444732 -0.2713573 0.07322303 -0.22612107 -0.26020205 -0.20981245 -0.003949586 0.058033265 -0.2849634 -0.25361383 0.05680285 -0.0021498129 0.089928836 -0.02023105 0.49570876 0.09957092 -0.014392499 0.010044912 -0.04749202 -0.58207226 -0.36735946 -0.2627542 -0.3353392 -0.06265846 0.24252734 0.05409241 -0.374512 -0.21210611 -0.0963297 -0.27656966 -0.6040247 0.42636806 -0.40735623 0.34440926 -0.5292268 -0.3986606 -0.058046266 -0.29995972 -0.11518748 0.10655291 -0.23381811 -0.19171119 -0.233074 0.3553603 -0.062223423 -0.18115194 0.094546914 -0.34067154 0.24014807 -0.12228935 -0.067951865 0.016739367 -0.5683902 0.14446747 0.22740658 -0.15181392
79 -0.012660078 0.45440936 0.054074965 0.42562672 -0.14905755 -0.0073362454 0.04884196 0.14372292 -0.16502914 -0.20260032 0.0021934407 -0.20768514 -0.2216597 -0.28578845 -0.1277477 0.2684799 -0.43894947 -0.21982789 0.049888276 -0.1971298 -0.025962478 -0.12912661 0.44773385 0.047421537 -0.13258305 0.048806157 0.0076794717 -0.43165976 -0.23649615 -0.10315695 -0.29738224 -0.11533539 0.34274796 0.07067991 -0.34649733 -0.2387263 -0.14460486 -0.32551807 -0.6623954 0.40039578 -0.47492233 0.3220603 -0.5366644 -0.43238738 -0.036338273 -0.3063609 -0.26301286 0.16941895 -0.13850547 -0.092632286 0.0755605 0.1727453 0.040164623 -0.20745939 -0.03010836 -0.3289366 0.26667976 -0.2852607 0.11959139 -0.024757758 -0.5230684 0.08181206 0.16462566 -0.043789
346 -0.11946505 -0.045914177 -0.19094235 0.23250467 0.06714371 -0.13569866 0.7556584 -0.51168245 -0.109666064 -0.42160666 -0.413349 0.1490086 -0.6315793 -0.0047123446 0.34913182 0.48506987 -0.09626465 -0.35511187 0.47970256 0.3772093 0.062267672 -0.029942619 0.2763325 0.08781033 0.0061221546 0.78010637 -0.5986434 -0.102507204 -0.070471734 0.33651158 0.07899664 -0.29977757 -0.16543452 0.3485292 -0.32163152 0.04458516 0.27932835 0.40100014 -0.104606494 -0.13788351 -0.081569046 0.41671237 0.4710462 -0.5150346 0.036480892 -0.2427474 0.27516642 0.12831871 -0.090322375 -0.32137027 0.3527158 0.03791993 0.23981073 0.3498601 0.315566 -0.070791 0.55304986 0.02517686 -0.424907 -0.67920566 -0.37634453 -0.7956838 -0.14058237 0.07104691
233 0.6465066 -0.03182316 -0.37114444 -0.36294696 -0.2758061 0.26988 0.030808127 0.013285217 0.5523512 0.18742669 -0.14527111 0.20951505 -0.3136468 0.05055349 0.15733513 -0.1900186 -0.27821702 -0.21616866 -0.16759197 0.315181 -0.016658053 -0.2941492 -0.41781414 0.40351292 -0.63828504 0.87067854 0.03188287 -0.44922793 -0.30552256 0.62714845 -0.62574214 0.24693626 0.13231736 0.6335923 -0.3552158 -0.50501984 0.41237977 0.1371194 0.12980455 -0.6565525 -0.34374055 0.31422916 -0.38556033 0.1108507 -0.03568067 -0.29849386 -0.31058833 -0.18818757 -0.84316707 -0.5344612 0.2931952 -0.43941647 -0.14823695 -0.27932638 0.14172287 0.39519006 0.7525772 -0.1679474 0.11794524 -0.03706681 -0.039756704 -0.06646088 0.4423753 -0.015574135
3 0.48827058 -0.06569477 -0.36109227 -0.42188781 -0.2787565 0.43442637 0.041558843 0.18927501 0.64389133 -0.0017603819 -0.15842566 0.18802387 -0.2647674 0.025422823 0.18874684 -0.12273588 -0.35971656 -0.19313955 -0.08286861 0.24419433 0.12934612 -0.12190467 -0.41039315 0.37219205 -0.6602143 0.7981969 -0.0765268 -0.50960535 -0.42347863 0.5944314 -0.65629745 0.13656816 0.20099713 0.6685766 -0.21689278 -0.55374956 0.38031945 0.11313454 0.15409426 -0.63835406 -0.42622656 0.34648588 -0.39632195 0.059351295 -0.02711369 -0.15651734 -0.2631626 -0.23771994 -0.9165855 -0.48398855 0.113070115 -0.51810616 -0.18329744 -0.3736572 0.16979241 0.392421 0.7489472 -0.17869125 -0.11317104 0.10717736 -0.117844954 0.044361502 0.34147128 0.09188866
262 0.107352376 0.94922554 -0.90774876 -0.14096914 -0.1342965 -0.217398 -0.12113338 -0.1979192 -0.5480645 -0.44075707 0.30410457 -1.0669359 -1.346331 0.05632845 0.6657927 -0.3102649 -0.63277084 0.2609722 0.5731926 0.039155506 0.012268783 0.1922556 0.8064944 0.43289927 0.70685863 -0.9641337 0.11497984 -0.36523637 -0.63618994 1.0715443 -0.9822361 0.45384327 -0.19402704 -0.6755246 -0.92283326 -0.5626514 0.17646505 -0.44646782 0.57367265 -0.14106964 -0.2514935 0.60425615 0.5048671 -0.9639305 0.37126455 -0.49347132 -0.7276695 0.07211012 -0.15807317 0.024895072 0.30112213 0.005777774 0.19922855 -0.58308136 0.39784205 0.42083806 -0.049109194 -0.08246487 0.14068174 0.7405863 -0.041896276 -0.10739521 -0.89648944 0.148919
83 0.8613675 -0.8224191 -0.8630887 -0.015044859 -0.75233406 0.47296816 0.53994644 0.33980402 -0.6881234 0.20787376 0.34784138 -0.058651224 -0.50210834 -0.4343952 0.19236049 0.12743117 0.2413782 -0.45412046 -0.36746183 1.6813848 -0.29037958 0.7274456 0.0756875 0.66883796 0.016551215 0.31430188 0.07463193 0.12876189 -0.23615548 0.8961401 -0.114786565 -0.23037498 0.044496577 -0.29183128 -0.97642714 -0.51311535 0.20781428 -0.49199057 -0.024943555 0.25689787 -0.7904827 0.6991512 0.119107194 0.059975248 0.62654847 0.46021584 -0.790924 0.8534061 0.20579201 0.047181554 0.31276146 0.11211333 0.039170112 -0.0054244716 0.14585285 -0.5166907 -0.25999457 0.44975212 -0.03281289 -0.19097133 -0.52803487 0.32549715 1.034415 0.3559654
47 0.6109395 0.054831807 -0.42612922 -0.3336574 -0.3749313 0.31842402 0.043531798 0.002556506 0.6653945 0.05488119 -0.09797356 0.261915 -0.29671314 0.0751184 0.21913648 -0.11803082 -0.19551036 -0.32852978 -0.21445961 0.28123617 0.10178875 -0.1452184 -0.36079818 0.301451 -0.65368515 0.8950965 0.18397002 -0.5481962 -0.29616335 0.48919407 -0.6238103 0.18545619 0.2611585 0.7637274 -0.22560807 -0.6039347 0.32860002 0.043768056 0.19716768 -0.6171317 -0.3377521 0.27613217 -0.37981105 0.1330804 0.1395342 -0.26382577 -0.37022945 -0.26934838 -0.8504235 -0.5199794 0.18363418 -0.3997734 -0.18190293 -0.37440962 0.107496865 0.4602818 0.79124975 -0.19586553 -0.0763225 0.013971884 -0.019284196 -0.022894062 0.39270622 0.13926859
164 0.034124292 0.49193013 0.1408427 0.36354938 -0.27863306 0.031200733 0.039379 -0.01722658 -0.1899288 -0.23331857 0.1562452 -0.17405027 -0.31559128 -0.14104573 -0.1236701 0.13271892 -0.19966054 -0.13444191 -0.05674035 -0.14339845 -0.107920974 0.039417874 0.5090417 0.027786348 -0.10335338 0.053784665 0.003675739 -0.42844358 -0.2889419 -0.16270743 -0.34590665 -0.124452025 0.119646885 0.097132094 -0.4582444 -0.20292962 -0.11806945 -0.32089424 -0.65829325 0.31215695 -0.43426198 0.27308655 -0.39473286 -0.72404724 -0.042895272 -0.29006067 -0.1489305 0.24450317 -0.1778476 -0.08901561 0.051582653 0.19987857 0.04868263 -0.086828314 0.017745772 -0.3893076 0.2216747 -0.37801307 -0.0010873706 0.061296944 -0.49135005 0.04539861 0.096281275 -0.023514992
147 0.27526224 0.3709954 0.13331 0.5654016 -0.8814575 -0.48819062 0.31369233 0.22861618 0.062412582 -0.42471522 0.52229625 -1.4637648 0.74046797 -0.46910343 -0.3475169 -0.3963138 -0.14259297 -0.36738074 0.25648242 0.26055148 -0.080718674 0.45665616 0.95059174 0.33174762 0.43287608 0.92216504 -0.25657088 -0.4853958 -0.3347211 0.23377277 -0.22409098 0.064737834 0.08885469 -0.02698469 -0.36847284 -0.43448475 -0.5857316 -0.19669114 0.22849254 -0.6658632 -1.0312696 0.07411493 -0.7104139 -0.59993035 -0.29995677 0.01089931 0.006372244 -0.26273307 -0.023429891 -0.2276894 -0.34278983 -0.11577369 0.6959412 -0.044294164 -0.35266885 -0.484124 0.3160851 -0.7288217 0.10613269 -0.41893744 -0.11871486 -0.44290915 -0.17851263 -0.5961851
304 -0.06778978 0.46764925 0.15675908 0.322059 -0.14275235 0.04146802 0.17457688 0.07758401 -0.15713097 -0.28983548 0.020961264 -0.16151333 -0.27457651 -0.28849095 -0.13507558 0.1029268 -0.29560524 -0.28603023 0.010163665 0.02039847 0.092928566 -0.1361973 0.532958 0.050499834 -0.22566707 0.05459463 -0.10204513 -0.5058897 -0.39993566 -0.18551262 -0.2795639 -0.10791421 0.16549467 -0.03375705 -0.38590097 -0.19344673 -0.040777393 -0.24549703 -0.64952916 0.11468689 -0.53478634 0.37439927 -0.3245366 -0.50381196 -0.026119871 -0.4273771 -0.18228966 0.29415786 -0.057090502 0.037235074 -0.049851988 0.27059093 -0.0040277923 -0.32899234 0.019634139 -0.3316837 0.19272104 -0.41448036 0.11621767 0.07474385 -0.49227485 0.2657031 0.16220248 -0.10481406
200 0.701754 -0.5387507 -0.8749985 -0.023509454 -0.17768201 -0.4556356 0.2934521 0.24610235 -0.3452474 -0.5694421 0.75246555 -0.1502246 -0.51074106 -0.19287103 0.621109 0.18105413 0.2278173 -0.070823014 -0.6976944 1.1263987 -0.034680054 0.86366904 -0.44741994 0.5821506 -0.25581756 -0.109092854 0.07466966 0.16175525 -0.42193422 0.08130445 -0.57223916 -0.20781995 0.05104555 -0.06329959 -0.32194215 -0.67746246 0.45885468 -0.6398805 -0.2191206 0.115108766 -0.94852465 0.5822689 0.34147328 0.27453086 -0.2763042 0.60742366 -0.70540655 0.28795397 -0.00368395 -0.4032333 0.5797628 0.60047233 0.1176981 0.0048341984 0.07878373 -0.753841 0.06749084 -0.457742 -0.33314264 -0.14211228 -0.564696 -0.3531319 0.08518144 0.18666528
228 0.8176288 -0.1285857 -0.15697247 0.25903338 0.23447824 0.67507976 -0.392955 0.069451146 -0.22635357 -0.21512552 -0.31276906 -0.3835909 0.06560272 0.65950245 0.4969522 0.7249334 -0.45895076 -0.231901 -0.09332541 0.6437361 0.32838473 0.080091655 0.082692064 -0.052767843 -0.18654723 0.61414284 0.026410935 -0.4770366 -0.3938165 -0.07105876 -0.56182337 -1.1845279 0.38179162 -0.042373393 -0.5184007 -0.035579383 -0.26331344 0.15555438 0.21624833 -0.3240792 -0.39353856 -0.39674562 -0.22114101 0.30253598 -0.3386688 -0.22695379 -0.27133587 0.11324731 -0.03537462 -0.36575875 -0.16138144 -0.27813047 -0.026031654 0.4931204 0.1625564 0.48587278 -0.25302517 -0.25320607 0.27548787 -0.18550803 -0.5865659 -0.11769568 -0.13398571 0.08970215
367 0.27481288 0.09955096 -0.98844206 0.47078317 -0.19626722 -0.73018867 -0.35076526 0.28135288 -0.5910618 -0.17219068 0.87039375 -0.040701676 -0.35836053 -0.07083595 0.023529388 0.38452914 0.42257184 -0.18224478 -0.076700024 0.98740923 0.2935963 -0.17487869 0.003430947 0.08743603 -0.18512367 0.123975106 0.00084699824 -0.0032690016 -0.31928208 -0.16784616 -0.5050445 0.011319387 0.66914964 -0.46291998 -0.3018164 -0.29301295 0.73709536 -0.54261756 -0.17262146 -0.08304412 -0.4192328 0.31516093 0.5354408 -0.6548801 -0.18200305 -0.10619388 -0.6075017 -0.22467785 -0.040638387 -0.120358266 -0.053842984 0.3031753 0.47346967 0.036915377 -0.015171219 -0.1736466 0.8227582 -0.22583255 0.15248537 0.07355989 -0.12582177 0.44486025 -0.08224651 0.2253006
84 0.8172665 -0.9612761 -0.826929 0.086795114 -0.8340162 0.42895278 0.47475794 0.3809443 -0.7417041 0.13662778 0.14503932 -0.0032997723 -0.45446628 -0.37187466 0.23334125 0.2519689 0.22939755 -0.34724608 -0.43823302 1.6711859 -0.39081424 0.84304684 0.033432033 0.65005565 -0.06522391 0.36026102 0.15371211 0.11471946 -0.3676434 0.86935383 -0.21386492 -0.10967671 0.13109148 -0.24317847 -0.9186618 -0.6421248 0.28664017 -0.5691472 -0.0028577028 0.35581553 -0.7253988 0.7352394 0.14968075 0.016437495 0.5905953 0.37026104 -0.7854061 0.8542048 0.21312246 0.11492499 0.19223739 0.04455302 0.15464777 0.057564568 0.17455328 -0.45181206 -0.31761277 0.3231784 -0.18982288 -0.20933256 -0.44669768 0.22758032 1.0027908 0.3076405
66 0.7504779 -0.053375848 -0.14650354 0.21651268 0.36074543 0.5717609 -0.241182 0.0068211607 -0.16562635 -0.10696841 -0.3591239 -0.34439218 0.08166031 0.65770775 0.42400128 0.6927856 -0.46832445 -0.25041932 -0.28166747 0.63890135 0.4548497 0.045223948 0.031396877 -0.020876044 -0.13051039 0.5512752 0.0843069 -0.42217082 -0.44909272 0.09922967 -0.521811 -1.1416892 0.42576292 0.0090204505 -0.5310778 0.023075847 -0.31730816 0.32056865 0.12506045 -0.24042441 -0.47519556 -0.3379921 -0.2008313 0.25275028 -0.3705149 -0.13467969 -0.31383663 0.00893224 -0.008187047 -0.28206986 -0.13793431 -0.30723447 -0.10195399 0.43366984 0.19206505 0.53210664 -0.2807508 -0.28046903 0.34208238 -0.3104478 -0.6303924 -0.06423002 -0.31319976 -0.0863325
