468 64
462 0.26065257 0.3164009 0.013798672 0.32221776 -0.27686724 -0.5494273 0.27872977 0.0276127 -0.5598446 0.47932366 -0.23570938 -0.16015255 -0.06915419 -0.16503532 0.2288248 0.12819165 -0.14257948 -0.15958397 -0.036457513 0.09328007 0.07783635 0.41942123 0.14009833 -0.33714566 0.3646138 -0.013300638 -0.6723181 0.33169863 -0.29212496 -0.19730976 -0.07005951 -0.10033666 -0.16720042 -0.51129043 -0.25960314 -0.025789803 0.12411514 0.16201897 -0.24667089 -0.00603819 -0.13105421 0.23398426 0.108350925 -0.10501158 0.24344271 0.19843668 0.044809915 0.39446175 0.008135536 0.20513743 0.30029032 0.32512054 0.2514387 0.17973743 -0.10963608 0.29446205 0.436905 0.06688478 -0.016024448 0.10327634 -0.24254544 -0.07134427 -0.27581096 0.015453324
467 0.3875654 -0.26697284 0.011538418 -0.15534917 -0.470328 0.127685 0.20871672 -0.015431661 -0.18460122 0.047982927 0.08206717 -0.45175725 0.5633764 -0.023958683 0.5509953 0.031215915 0.04473071 -0.21918617 -0.21384925 -0.18440565 -0.22389431 0.51366496 0.012728698 0.17572145 -0.051111013 0.6322851 0.6953472 0.38356858 0.16100833 -0.1932299 0.29953253 0.4039762 -0.10565828 -0.3690745 -0.48829523 0.50908417 -0.3141923 -0.5761705 0.23514208 0.002285373 -0.019204933 0.26419684 0.34697905 0.3468147 -0.07365138 -0.13371761 0.12225886 -0.00856396 0.12083679 0.27800512 0.15039375 0.46214262 0.34301066 0.018425263 -0.38476425 -0.26944265 0.26759863 0.02618625 -0.24923638 -0.5631857 0.32647642 -0.4635188 0.054253183 0.5060666
465 -0.009224986 -0.022824112 0.041436702 -0.15065128 -0.37065983 -0.42332217 -0.24764413 -0.1163512 0.11502866 0.63108915 -0.17943613 -0.055964485 0.34949166 -0.6703996 -0.0023172249 0.15198506 -0.14170441 -0.13225459 0.106124625 -0.38507435 -0.2542527 0.14613116 0.34145626 -0.026828427 0.4051392 0.35021904 0.68481904 0.7004031 -0.03703147 -0.18573146 -0.21691449 0.18953462 -0.29814434 -0.0024831344 -0.21158393 0.50735945 0.3785305 -0.20143816 0.17655078 -0.2624981 0.33661085 0.2832819 -0.095886454 0.041021068 -0.070756435 0.77918667 -0.16790523 -0.5386189 -0.5795446 -0.44567555 0.4139265 0.16686419 0.19056904 0.089493714 -0.18855886 -0.431159 0.49703017 0.008569732 -0.2689909 -0.66729635 -0.3635323 -0.27035427 0.68544567 0.33425364
247 1.031446 -0.4453959 0.19462761 0.09268454 -0.21003047 0.18567911 -0.25436386 0.1747721 0.034443796 -0.23176026 -0.55467296 -0.073624015 0.50581723 0.35831356 0.03010329 0.6450325 -0.32915464 -0.10295702 -0.91863275 0.03298967 0.29647774 0.8721471 -0.13159178 -0.037439466 0.17225924 1.0304471 -0.13034987 0.021251706 -0.10214055 -0.44100067 -0.9316162 -0.5408736 0.4594 0.058066495 0.14562044 0.7694756 -0.28454 0.18065721 0.116960734 -0.2506882 -0.51004964 -0.16766435 -0.36255142 0.028714286 -0.04806394 0.48238719 -0.17759308 -0.06182381 -0.31266716 -0.033061486 -0.016762098 0.68146956 0.08233363 -0.31673905 -0.039728075 -0.5431865 0.14141835 0.14524068 0.3843444 -0.18561271 -0.59556985 0.08977567 -0.34764823 0.29866713
436 -0.13605182 -0.077971116 -0.63724697 -0.13783993 -0.0074848533 -0.41986927 -0.047833387 0.23958597 -0.06814481 0.2898968 -0.107193366 0.10756666 -0.30771327 0.33841655 0.27796108 0.26721624 -0.6723949 -0.73665977 -0.035994418 0.36630508 0.022830479 0.3153088 0.013430219 -0.39711893 0.27868962 -0.008181594 0.025589976 0.27874473 -0.28339002 -0.20147277 -0.30631304 -0.70881563 0.0879286 0.36217156 -0.3421874 0.40758708 0.615993 0.031880055 0.16472578 -0.23942102 -0.51966035 0.21167961 0.6129543 0.03584589 0.42806825 0.16060212 -0.17909338 0.2729188 0.45931363 -0.087356925 -0.024527214 0.34314764 0.4066383 0.3031732 -0.23813507 0.9134871 0.6130663 -0.37175515 -0.17095347 0.2812981 -0.18852107 -0.39849082 -0.07889532 0.106466375
428 0.28483248 -0.48664534 0.42791706 0.7913262 -0.45674148 -0.10100676 0.30907243 -0.90289074 0.3520863 -0.27680978 -0.93708044 -0.5286065 -0.10785627 0.08928391 0.730664 1.445831 0.07616064 -0.9830676 0.2256178 0.9429121 0.03687509 0.1700383 0.8148531 0.038695704 -0.4878783 0.7149354 -0.10197545 0.35801187 -0.013300917 -1.0590177 0.080629215 -1.0803739 -0.12403745 0.2595284 -0.09324916 -0.098712 0.51456255 0.45383662 0.26627094 0.14697514 -0.102466784 -0.20563862 0.79436225 -0.21501729 0.6547207 0.22824024 0.019048681 -0.17217132 -0.21944813 -0.89310366 1.1287314 0.005146801 -0.26531625 -0.77366376 -0.38864192 0.28261226 0.5137803 0.409867 -0.0819849 -0.48113868 0.3078458 0.024681553 0.28130418 0.6694258
216 0.21919706 0.65545154 0.7331664 1.0061481 -0.51099545 -0.49235922 0.26125905 -0.0945515 -0.2696542 0.1307264 -0.23589303 0.5160072 0.3561281 -0.5089326 0.020431368 0.20006031 -0.19821078 -0.25634053 0.022078615 0.37862715 0.4252167 0.84137106 0.3557544 0.47096482 0.19730484 0.29856527 -0.14680476 0.38234606 -0.44403446 -0.3874008 -0.25332066 -0.8584059 0.5692481 0.11013587 -0.5735163 -0.30164996 -0.36876282 -0.76154894 0.2808472 0.5178759 0.42964765 0.6649982 0.3262792 0.077286 -0.1363126 0.292495 0.46652374 0.5839278 -0.79446036 0.42275387 -0.059372667 0.45273837 -0.5006122 0.46937624 0.42330337 0.010979183 0.16886637 -0.65205485 -0.74792534 0.6922417 -0.52678615 -0.7245071 0.07503903 0.16702496
431 -0.13792798 -0.3523988 0.44445464 0.29475513 -0.2725011 -0.2058311 0.15819003 -0.0118265115 0.14462481 -0.36913654 -0.42653966 -0.4159504 -0.36368823 0.2537791 0.8159449 1.0906116 -0.51896054 -0.66336626 0.27909908 0.49099395 0.47083446 0.04587605 0.31792155 -0.694689 -0.60009176 0.3065119 0.74197066 0.43452516 -0.15785024 -0.81048125 -0.28816265 -1.0600404 0.07622469 0.0020879335 -0.2757019 0.34815302 0.4243845 0.1492521 0.10713173 0.38022244 -0.18176976 0.1241496 -0.4278932 0.31563908 0.7168569 0.46398705 0.7306576 0.2015544 0.026714465 0.09253397 0.7470873 0.45925486 0.16136812 -0.59646636 -0.09275725 1.1448884 0.27738637 -0.17541148 0.19838062 -0.3157036 -0.024960762 -0.10365127 0.3618255 0.16013935
466 0.123321176 -0.34004968 -0.10732222 -0.563453 -0.55188626 -0.35007843 -0.43567422 0.06005758 -0.2287928 0.4744124 -0.63699037 -0.086301096 0.6777617 -0.30010363 -0.09836372 0.40512484 -0.40435115 -0.2574289 0.02885342 -0.09395243 -0.25728503 0.32048026 0.24493527 0.7051696 0.113035925 0.2754898 1.2361654 0.86655176 0.206598 -0.24343586 0.27660573 0.14816175 -0.90718234 -0.54080284 -0.108069606 0.37569168 -0.31340048 -0.12147856 0.47440484 0.025597775 -0.25770345 0.43701884 -0.1571484 -0.086334325 0.037811484 0.17567636 -0.15643191 0.3297371 -0.20035276 0.18112008 0.30692115 -0.15694757 0.32645616 -0.3059761 -0.43157527 -0.46841657 0.18236674 0.19141516 -0.11157958 -0.54398215 0.13865173 -0.19074416 0.05486114 -0.26767144
405 0.03819035 -0.35337308 -0.76630056 0.06642505 0.1146013 -0.9441404 -0.39299732 -0.2861646 0.20860076 -0.15080605 0.2216113 0.0704143 0.10419551 0.43575642 0.51060677 0.5257005 -0.47283062 -0.6928791 0.09650227 0.49428877 -0.07526119 -0.38164532 0.33085415 -0.24685533 0.76886654 0.22892176 0.20462546 1.0069871 -0.38191602 0.26526237 0.1711796 -1.060549 0.43162853 -0.053170823 -0.32703578 0.16253594 0.78917706 -0.044040658 0.20794527 -0.39209828 -0.73424613 0.036652908 0.32472104 0.1750262 0.19870481 -0.2561109 -0.6574448 -0.22976881 0.00045913548 0.36259115 0.0934391 0.12954931 0.068426326 -0.08962355 -0.538311 0.92432314 1.0878637 -0.083254665 -0.22527455 0.03905793 -0.6705134 -0.5254155 -0.8335182 -0.17587861
421 0.6054149 0.018886436 0.3447316 0.11976154 -0.5875116 -0.6109752 -0.5660459 0.009733542 0.047412854 -0.7169802 -0.5236606 -0.09282156 -0.47313827 0.510202 0.22309196 1.1012633 -0.5245702 -1.0690285 0.2907945 0.8289381 0.23221378 -0.03133131 0.36194703 -0.36058506 -0.4905715 0.29473647 0.8363027 0.7409618 -0.020046942 -1.3222834 0.30177298 -0.5418556 0.6771997 -0.11505102 0.3525738 0.38306004 0.9018354 0.17892666 0.3972341 0.37318584 0.44670877 0.2103727 -0.44672024 0.6733488 0.7350583 0.15114321 0.6212284 -0.0040446254 -0.84483474 0.52186966 0.31267554 0.113525935 0.41088498 -0.9236498 -0.52828825 1.1707731 0.8105672 0.1784449 0.2997394 -0.016140074 -0.26408783 0.12327135 0.47403088 0.24137908
460 0.39098144 0.13987716 0.38702703 -0.08197546 -1.3938298 -0.98921937 0.40464374 -0.25278977 -0.5913078 0.77668214 -0.11108833 -0.15360685 -0.38339537 -0.14294675 -0.0122539345 0.12718658 -0.601249 0.20949142 -0.23834002 0.18101515 0.2077629 0.19498439 0.58398306 -0.77399814 0.55831385 0.43528435 -0.11316259 0.2950857 0.2335834 0.19351435 -0.46534422 -0.084659025 0.1757272 -0.09206333 -0.9301702 0.215675 0.8059176 0.37460586 -0.16358005 0.57626534 -0.019383093 0.2899546 -0.011301814 -0.27028534 0.07315799 -0.41256708 0.065790676 0.44897068 -0.23036665 0.48884785 0.28445366 0.5327402 -0.30714604 0.47135243 0.5181098 -0.075003944 0.53659594 0.45457515 0.51489586 0.53511035 0.0062197526 -0.30945024 -0.26272053 -0.18525818
434 -0.2646566 0.012824321 -0.20975152 0.31316906 -0.26620045 0.02037203 0.17525956 0.7287306 0.290405 0.6713727 -0.36506945 -0.54710937 -0.8286647 0.25398535 0.13284777 1.0419619 -0.28189814 -0.42896876 -0.18881713 -0.0011072223 -0.24386019 -0.26591575 0.008276748 -0.9235998 -0.543441 0.26869985 0.47003657 0.30061245 -0.6778661 -0.44044653 -0.24441095 -1.0456948 0.47639936 0.20449843 -0.5032648 0.08305444 0.27455834 -0.065656476 0.17779164 0.1950904 -0.66631436 -0.027210321 -0.18559158 0.27092272 0.62490165 0.119040474 0.4626386 0.15313402 0.06026742 0.28414035 0.17261885 0.4268479 0.05521854 0.026164766 -0.10222038 0.848837 0.40606913 0.14292046 -0.2433987 -0.1503407 -0.21339805 -0.80676657 0.36510742 0.19134885
454 0.20493461 0.37663174 -0.58469534 0.12159087 -0.5348688 -0.2414588 0.024950732 0.021846924 -0.11028801 -0.29643995 0.07212082 -0.14718227 -0.34679544 0.2671789 0.56433815 0.28673297 0.469454 -0.63670653 -0.18865976 0.3241678 0.08341468 0.08479213 -0.21109028 0.27172396 0.19707727 0.7802976 1.4964265 0.38446042 0.4353434 -0.26523775 0.42788908 0.42854783 -0.39380446 -0.21093227 -0.83046603 0.31407756 0.11463334 -0.94099367 0.18378562 0.18903299 -0.1755883 -0.024637071 0.40842173 0.30258247 -0.31474704 0.10129285 0.054118562 -0.47219786 -0.15929405 0.24013832 0.66393596 1.0541472 -0.23021911 -0.012111432 -0.46787208 -1.1084132 0.2951073 0.07899171 0.23164518 0.28007916 0.04070796 -0.37661034 -0.778763 1.0654379
234 1.0369254 -0.70618725 -0.54214644 0.6265094 -0.76438284 0.30437088 -0.25284955 -0.11728046 0.70724684 -0.8556516 -0.4037069 0.18434115 0.2965576 0.080861375 -0.1586066 0.7109528 -0.74988425 -0.21325916 -0.8107676 -0.024841351 0.36451825 1.2861043 -0.38998607 -0.16683751 0.06055018 0.68493605 -0.06062148 0.60094184 0.12085526 -0.7382827 -0.91663235 0.081784956 0.8555059 0.0996959 -0.20867191 0.5492359 -0.5022319 0.35233223 -0.20250182 0.159106 -0.6063289 -0.07280685 -0.24485329 0.087565236 -0.41005197 0.9328496 -0.44291964 -0.22573711 -0.28665185 -0.03606942 0.05768443 0.5312237 -0.1996344 -0.30198812 -0.21409993 -0.6157212 0.007004604 -0.12308608 -0.057362 0.006572051 -0.6080704 0.5035018 -0.16031474 0.729639
338 0.713151 0.29459348 -0.1107476 1.3604428 -0.9198883 -1.2707407 1.1020346 -0.8932586 1.2170408 -0.5327548 0.37820217 0.25595006 0.56978863 0.8893355 0.41802543 0.5129502 -0.38721898 -0.49763116 0.23339449 -0.53916043 -0.46453628 0.29719105 -0.5833029 0.2386168 -0.6134365 0.2910183 0.9149037 0.3568845 0.994761 -0.80797833 -0.21258877 -1.0063192 1.9077938 1.012992 -0.61581975 0.5045954 0.7597901 -0.07320554 0.60367817 0.22211085 -0.097985715 0.85338193 -0.5037515 0.28984916 0.22514305 0.14348118 -0.7401095 0.112573706 -1.0177332 1.0480312 1.074928 0.8672976 -0.49024302 -1.1824858 0.5184762 -0.1592814 0.28943142 -1.2898775 -0.25168383 0.83982 -0.37913847 0.098839104 -0.30482122 0.49036825
214 0.2016669 0.5663114 0.86448395 1.2652538 -0.72193325 -0.5227471 0.55179936 -0.36888286 -0.036939103 -0.4259557 -0.16078077 0.43455154 0.4885227 -0.4694556 -0.14659694 0.19377641 0.038081445 -0.15061626 0.35802713 0.21034129 0.3683731 0.8206492 0.21329078 0.5119193 0.26359168 0.16567954 0.022229737 0.39541823 -0.37431177 -0.052868277 -0.39538202 -0.8182883 0.60449684 0.16655222 -0.4114012 -0.07203276 -0.10334169 -1.0984266 0.089665875 0.2834549 -0.15884899 0.5286744 0.119895644 -0.030882983 0.25221568 0.21277751 0.18081938 0.5705697 -1.3270596 0.20775703 -0.046597183 0.7854118 -0.46868882 0.07391263 0.37652385 -0.1608052 0.5088148 -1.032896 -0.90631026 0.72240967 -0.5396796 -0.94253284 -0.16936938 -0.09160021
419 0.31600717 0.3904431 -0.20919584 0.082430065 -0.6510959 -0.2410626 0.2634724 -0.0807893 -0.16402946 0.6249921 -0.050136056 -0.36512947 0.5797562 -0.5296521 -0.26064783 0.45658064 -0.5010631 -0.5604175 0.4677516 -0.21259971 -0.8518381 1.0154511 0.5593795 0.6455119 -0.10970672 -0.11107383 1.1312833 0.7704924 -0.4611822 -0.28713784 -0.41047427 0.143154 0.07430901 0.33295503 -0.44938454 0.45252505 0.46265122 -0.2545305 -0.2599679 -0.7519573 -0.041659214 0.7027369 0.15427278 0.10102942 -0.16280209 0.9708455 -0.31360975 -0.6891745 -0.7637319 -1.009512 0.2887811 0.05611833 0.051764343 -0.095268294 0.10951914 -0.32949996 0.31923348 0.19902486 -0.027118329 -0.6825571 0.19391866 0.57046807 0.635232 -0.22707792
432 0.0300739 -0.6010638 -0.66573334 -0.4065622 0.26043737 -0.59922343 0.25744691 0.6813178 -0.62994266 -0.16680999 -0.22618306 0.21490112 0.06290962 0.4361715 0.35095823 0.24534607 -0.23013178 -0.49655673 -0.06290216 0.009262365 -0.02110276 0.6901606 0.8699782 0.07655436 -0.26262882 0.46692932 0.36560398 0.69957554 -0.46353534 0.210055 -0.6969151 -0.6914553 0.24572234 0.44366312 -0.27990764 -0.22449017 0.93244106 0.50663996 -0.108984604 -0.6239731 -0.9577846 0.5985763 0.9718181 0.15536334 0.82125384 0.7637773 0.0995479 0.1464821 0.5170524 0.5448685 0.48374853 -0.07887145 0.4276005 0.3304436 -0.8044236 0.671815 0.76129836 0.3257895 -0.12907177 0.787573 0.2392292 -0.6958673 -0.1349213 -0.11896316
417 0.47126088 -0.27243146 0.3370503 -0.3636449 -0.3559191 -0.47133762 -0.21084252 0.33841762 -0.0036341914 0.7829153 -0.73810726 -0.33054686 0.8896148 -0.45235577 0.5656083 0.92042434 -0.6607526 -0.14986953 0.020651013 0.29630512 -0.1562373 0.58198667 0.31046104 0.77776504 0.37314513 -0.10745396 1.4934721 0.69789314 0.43995404 0.81881154 0.16313554 0.5243856 -1.140504 -0.3717149 -0.057774022 0.5839126 -0.5115979 -0.2168632 0.9865211 0.15611123 -0.5909303 0.62591594 -0.29860124 0.31373605 0.04205581 0.4299129 0.11405235 -0.038716756 -1.0650579 0.24918123 0.2320097 -0.48199642 0.6887385 0.26375723 -0.85937256 0.059103217 0.4808595 -0.14736524 0.004853335 -0.37529942 0.21743128 0.34199643 -0.1369502 -0.0053723655
240 0.5394647 0.43101045 -0.062336165 0.12762205 -0.14502001 -0.8699334 -0.1289133 0.04922774 -1.2058012 0.32897478 -0.18806322 -0.5676136 -0.1525522 -0.46615615 0.07859264 0.35134834 -1.1628196 -0.035605818 0.63000786 0.7949618 0.21468711 0.5679383 -0.054872 0.034768995 -0.17712322 0.1910321 -0.40325645 0.5850053 -0.035961732 -0.3682961 0.36028486 0.45015913 0.17743401 -0.06797126 -0.395668 -0.2577612 -0.51947445 0.97112983 -0.78054756 -0.37834638 -0.34309942 0.44048262 -0.17027341 -0.4096899 0.28639245 0.5330278 -0.1180516 -0.22932261 0.052223433 0.078096084 -0.13138588 0.7409089 0.27965426 -0.086339466 0.036431942 0.3478091 0.43841502 -0.12030841 0.12828606 0.1754042 -0.60041624 -0.9488895 -0.61066055 -0.021211058
445 1.0208108 -0.40758136 0.2452807 0.22288051 -0.4580553 -0.23480168 0.47331274 0.07727392 -0.2841094 -0.11396931 0.1479276 -0.7602966 0.4574203 0.4374164 0.53137344 -0.3096893 0.2508965 -0.06394768 -0.091603674 -0.7656014 -0.129259 0.36069503 -0.049313065 0.23432726 0.31215888 0.45065996 0.5017944 0.4925834 0.32738292 0.17603858 0.3028721 0.35177103 -0.3689493 -0.23983157 -0.63713545 0.6618658 0.20305869 -1.0806905 0.6270681 0.028766818 -0.34995466 0.40523282 0.21450937 0.09886461 0.033577383 0.11803476 -0.17830989 -0.23523779 -0.3534103 -0.1743882 0.15668087 1.1401514 -0.21039082 -0.2481765 0.10411178 -0.07657575 0.19430761 -0.62443644 -0.1260344 -0.52451766 0.9896768 -0.8412647 -0.072522596 0.2166727
404 0.22278112 0.17293909 0.43077195 -0.055151254 -1.4054126 -0.8721283 0.4004845 -0.8740327 -0.74276036 0.45075342 -0.19058017 -0.40486264 -0.35792217 0.121913575 -0.1908039 -0.3051213 -0.7171683 -0.12908942 -0.83560485 0.36191937 -0.33939007 0.5192134 1.0176578 -1.1246802 0.63000494 0.10934415 0.12722212 0.47129983 0.008784386 0.16564491 -0.22879697 -0.17408022 0.040683024 0.085636325 -0.5911742 0.38595656 0.6609936 0.69518346 -0.12828119 0.1749253 -0.20372547 0.7536707 0.012019681 -0.3930488 0.25826907 -0.10218123 0.29641291 0.3913866 -0.72652566 0.6973717 0.13486946 0.37498596 -0.57685244 0.58335364 0.5929063 -0.56851745 0.31976122 0.57915694 0.8632674 0.7323341 0.4741117 -0.6877003 -0.12107359 -0.3231351
225 1.1838968 -0.1685361 -0.048545506 0.01703234 0.025837593 -0.05281653 -0.35529 0.13535576 -0.087289646 0.4993953 -0.90819025 0.06334396 0.5460016 0.6333771 0.40772882 0.4656599 -0.119917646 -0.45959264 -1.1334456 0.24742442 0.05238986 0.53557926 -0.07619898 -0.14307678 -0.09864477 1.4347379 0.060489535 -0.15622638 0.7908942 -0.3742763 -0.7692618 -0.7333207 0.5584404 0.45573106 0.24903242 0.81550497 0.009518605 0.12667774 -0.08487268 0.08037962 -0.4992327 0.18207717 -0.40751827 -0.30497098 -0.3523706 0.5100034 -0.4307408 0.14919716 -0.3132213 0.24832138 0.07368062 0.35595232 -0.31757945 -0.049150053 0.2539751 -0.66262144 -0.17241423 -0.34775633 0.39869815 -0.01073965 -0.5716548 0.18843924 -0.4873916 0.62881863
242 0.39043918 0.4042876 0.4023812 0.6711549 -0.21882786 -0.64710987 0.15959163 0.12868091 -0.34430838 0.06795898 -0.1834115 0.3577431 0.2548183 -0.17315976 -0.03792493 0.18441682 0.0075820116 -0.2527845 -0.0059885248 0.09612944 -0.2811135 0.2883524 0.25790182 0.044376902 0.0056183934 0.2928671 -0.42700535 0.013554839 -0.13066955 -0.14620824 0.11414763 -0.68784696 0.28649688 0.18235187 -0.5183133 -0.17472342 0.21762727 -0.17349054 -0.104708634 0.4113816 -0.08447276 0.7159681 0.14017117 -0.18273903 -0.196301 0.052708413 0.47275683 0.80946463 -0.363067 0.026180772 0.52573097 0.32191396 0.52140087 0.6308995 -0.044142812 -0.28148755 -0.03583212 -0.44513473 -0.6226119 0.37536517 -0.60783345 -0.2515921 -0.16184552 -0.09724907
151 0.8901798 0.014942204 -0.28003946 1.3952115 -0.9357748 -1.277407 1.1121665 -0.82187563 1.249627 -0.32765383 0.5103324 0.14585765 0.44566637 0.80293363 0.28657883 0.5482369 -0.3986103 -0.39923462 0.2040124 -0.64926094 -0.40010905 0.3072838 -0.6210468 0.25200534 -0.75140905 0.2496497 0.8855246 0.2861686 0.9193625 -0.7584813 -0.016148388 -0.75846624 1.767268 0.8078266 -0.80430305 0.6198041 0.5934281 -0.19717558 0.6055191 0.17373733 -0.15950763 0.82631177 -0.57715166 0.0958153 0.30394128 0.14766909 -0.82678497 0.17896499 -0.86196667 1.0743357 1.0479424 0.84640795 -0.5741094 -1.3105147 0.65343964 -0.00030831466 0.0467115 -1.2029387 -0.20890018 0.63934577 -0.3209452 -0.0047271424 -0.29536262 0.55688685
337 0.6678131 -0.31657833 0.43387383 0.097841695 -0.101413675 -0.1358957 0.49938196 0.011236164 -0.15412669 0.6501545 -0.3667414 -0.43491012 0.2263735 -0.37199008 0.6466093 -0.44661257 0.013288614 -0.7477143 0.18418205 -0.13217872 -0.98197913 0.8032334 -0.075383686 -0.086586475 0.96534646 1.2328503 0.7825671 0.19792491 0.71452785 -0.7596771 0.22431351 -0.07397083 0.6109939 -0.043890033 -0.39316025 0.55275154 -0.44771218 -0.24286489 0.25508362 0.13306423 -0.3774481 0.14382495 0.12867904 0.7045147 -0.30240595 -1.4089943 -0.3012101 -0.41826877 0.6578688 -0.16209368 0.6292942 -0.44158536 0.39006102 -0.36983398 -0.5507599 -1.2744181 0.8132814 -0.8783018 -0.7881534 0.42545837 0.8727982 -0.47581685 -0.045411285 0.6582236
402 -0.2374334 0.3149365 0.2955468 0.41534033 -0.078551725 -1.0967025 0.41836926 0.19027822 -0.2884597 0.64579034 -0.40102693 -0.3322719 0.1301375 0.26231176 0.11613862 -0.13498534 0.34964424 -0.3658672 -0.40909135 0.64948267 0.29150134 0.51367503 -0.12762903 -0.48552635 0.43930572 -0.1546291 -0.5149124 0.2825811 -0.15779907 0.14279184 -0.27580264 -0.041087836 -0.111808054 -0.46953955 -0.084893644 0.027277935 0.6444896 -0.11721927 -0.4926603 0.008296335 -0.44596043 0.22415568 0.25232363 0.110103294 -0.18804152 0.35821602 0.046509936 0.6559643 -0.46115842 -0.23096152 0.18928017 0.3360056 -0.2049427 -0.44934875 0.119467236 0.22696032 0.5762991 0.13901699 -0.03930932 0.1374096 0.03268766 -0.45855936 -0.86773854 0.24381068
109 0.71607506 0.3671121 -0.14357705 1.4238216 -0.86308813 -1.130599 1.1171744 -0.8164334 1.2054701 -0.53482825 0.42220667 0.32359365 0.678364 0.87714356 0.31121144 0.56787616 -0.46319214 -0.1778049 -0.09999663 -0.47289208 -0.4216876 0.22265558 -0.703171 0.25229356 -0.7258879 -0.057725716 0.83082336 0.45063114 1.0973411 -0.86085063 -0.2282513 -1.0664564 1.5022717 0.9169602 -0.6939973 0.64566684 0.99715924 0.013309027 0.66573244 0.17390254 0.081204765 0.84786975 -0.4485912 0.5205723 0.12888597 0.4571102 -0.7506619 0.19629928 -0.8067597 0.92218757 1.2132217 0.7323919 -0.651827 -1.1967535 0.6329934 -0.19108677 0.41683632 -1.199814 -0.3379964 0.82994705 -0.62035894 -0.0588021 -0.3763883 0.31261143
317 0.6079984 0.7400506 -0.041039236 0.8304865 -0.036733925 -0.586791 0.2898964 -0.16179244 -0.31982476 0.81453145 -0.48957258 -0.17358166 -0.090290084 -0.057963084 0.5408826 0.089472115 -0.07050483 -0.12996876 -0.13884623 0.4423496 -0.13493505 0.2962001 0.3266696 -0.21236992 0.4385864 0.08885775 -0.6419247 0.26662257 0.58784044 -0.7131359 -0.16038622 0.09066013 0.10555094 -0.44389144 0.33840477 0.0061589307 0.63608027 0.28167573 0.26450625 -0.09772361 -0.32523084 0.327222 0.37286404 0.10908998 0.2285436 -0.08274244 -0.010963771 0.47378883 -0.15088923 0.5182401 -0.2697943 0.13018796 0.9167779 0.13055883 -0.0785364 -0.03870988 0.36290705 0.06620843 -0.02376822 0.3121867 -0.34394458 -0.3493452 0.2258556 -0.3766418
456 -0.24421398 0.024456246 -0.0351257 -0.16558413 -0.30856004 -0.73743916 0.015485479 0.015199571 0.19397189 0.53381735 0.005670013 -0.11208006 0.69100416 -0.65133893 -0.20118316 -0.04143123 -0.067909256 -0.25569072 0.53512555 -0.273903 -0.504012 0.111409254 0.26822028 -0.25863743 1.2164994 0.59992385 0.35127565 0.6461463 0.3355933 -0.18725426 -0.5076447 0.0034936897 -0.356244 -0.34292385 -0.18820609 0.74350643 0.18513614 -0.46752563 0.00785321 -0.24289516 -0.10648481 0.01688087 -0.20045616 0.25275543 -0.035890087 0.72138697 -0.32646006 -0.8088184 -0.7334087 -0.71143216 0.39800248 0.221826 -0.28366062 -0.4022505 0.009418138 -0.63038105 0.94274163 -0.1288349 -0.20899986 -0.41362652 0.24023035 -0.5786137 0.82528687 0.33531216
443 0.60816056 -0.16055906 0.3442989 0.09741829 -0.2670216 -0.18097985 0.5008875 0.1356362 -0.0323187 0.2774551 -0.26974708 -0.33203107 0.38557974 -0.12996422 0.7427025 -0.2538848 0.028467672 -0.5598151 -0.050759587 -0.08043118 -0.74215865 0.38605112 -0.13250072 0.1890361 0.56881136 1.0879624 0.7842586 0.106007665 0.64280987 -0.35665417 0.24224879 0.1809376 0.2848741 -0.1904481 -0.51368666 0.54694897 -0.30190694 -0.366166 0.14595796 0.071254626 -0.22706194 0.2850601 0.19057892 0.5465791 -0.28707364 -1.0857304 -0.119708076 -0.41040394 0.47175378 0.080514684 0.51791334 -0.21096475 0.5083803 -0.4071998 -0.36392745 -0.9246469 0.6902208 -0.49450576 -0.616739 0.0487482 0.37417224 -0.5761275 0.02882568 0.54851913
281 0.038587265 0.18581049 0.2922859 -0.4775845 -0.82072294 -1.0611117 -0.056914773 -0.24531715 0.2171713 0.3079459 -0.19977261 -0.20745783 -0.054920338 -0.9022208 -0.05813377 0.59675264 0.12488406 -0.121589825 0.31811982 -0.536929 -0.54794234 0.71448576 0.32831883 -0.05294662 0.25350022 0.667671 0.5414707 0.29365754 0.28375864 -0.44539604 0.28658116 0.07099743 -0.53762233 -0.101831906 -0.212092 0.5966494 0.80054486 -0.23988172 0.25754854 -0.25733748 -0.21445839 0.20526521 0.27715948 0.13153824 -0.68219507 1.0567267 0.06852463 -1.206014 -0.21687533 -0.3116712 -0.2029005 -0.062483277 -0.38948914 0.21086916 -0.32194996 -0.19394355 0.2027934 0.1525806 -0.37588 -0.8527895 -0.978606 -0.011823419 0.6526547 0.39407519
415 0.32138047 0.13095747 0.1394562 0.15536048 -0.73143715 -0.7645021 0.42135087 0.15664294 -0.4409147 0.5361301 -0.3869628 -0.20557101 0.48067304 0.096262485 0.017624278 0.6191296 0.49900258 -0.23470604 -0.09949368 0.37425488 0.3769609 -0.11648346 0.47794622 -0.5310544 0.69942164 -0.2892617 -0.91483694 0.17194486 -0.76690537 -0.11232449 0.48284328 0.24992399 -0.11566004 -0.071632415 -0.28389663 -0.016714016 0.36670822 0.1887482 -0.29563692 0.17714167 -0.78989244 -0.43252954 0.38041902 0.16498534 0.04539339 0.19410536 -0.45508847 0.123959385 -0.15057914 0.57194346 0.35971248 0.9454678 0.034261312 0.34614295 0.13282354 -0.21644197 0.7761892 -0.45621243 -0.2998027 -0.093401685 -0.17804895 -0.16111426 -0.21821734 -0.2659394
441 -0.041290086 -0.48347557 -0.025380313 -0.21652669 -0.43435585 0.4694898 0.81005645 -0.28887507 -0.3685466 0.32429275 -0.23715086 -0.59001565 0.75775373 0.6410645 0.7315729 0.143593 -0.27640668 0.13740931 0.18782635 -0.3832388 -0.7461486 0.20966724 0.026597533 0.08859236 -0.11390526 0.66755307 0.45866075 0.40431297 0.68611366 -0.53306675 0.3830905 0.06803012 0.02799417 -0.18647996 -0.6845094 0.23450997 0.018041898 -1.1893235 0.6400141 0.35348165 -0.27671468 0.24768056 0.079697885 0.053393446 -0.23117292 -0.09401603 -0.41545075 -0.117794365 -0.03021188 0.35890636 -0.09201411 0.23472509 0.94141585 0.2263344 -0.46570632 -0.6580805 0.7184466 0.33938488 -0.44008368 -0.42559764 -0.11589128 -0.4919413 -0.3698516 0.29561886
455 -0.12864475 -0.05791847 0.3683833 -0.084465414 -0.3976762 -0.9022277 -0.0063281315 0.9292408 -0.49201033 -0.10450354 0.29131344 -0.345956 0.3799662 -0.2860097 0.92552763 0.3984855 -0.15014598 0.110920794 -0.068867125 -0.21431783 0.28527302 0.3448248 -0.034332804 -0.5755607 0.95697933 -0.2740098 -0.7106587 0.4282022 0.030109953 -0.38491094 0.14196013 -0.5288623 -0.35199875 -0.3868348 -0.15161628 -0.087260716 0.5937036 -0.047843553 -0.7914968 0.36249983 -0.26320398 -0.027698413 0.80460393 -0.07425765 0.5028886 0.20395687 -0.29066464 0.36434337 -0.44427532 0.102218084 0.18726471 0.3666975 0.2586236 -0.29852605 0.15612756 -0.3486647 0.68733007 -0.27582064 0.2648121 0.13900398 -0.38195685 -0.1112776 -0.26993722 -0.22535297
211 0.27555928 -0.6854811 -0.5358266 -0.19713826 -0.2188665 -0.64483863 -0.083253466 1.2669132 -0.9494234 -0.27901947 -0.27750006 -0.07589746 0.2411427 0.8028236 0.67043567 0.5668092 0.312402 -0.4870097 -0.21719284 -0.33103058 -0.13535838 0.25796223 1.1116995 0.84946597 -0.56618226 0.33854625 0.63238347 0.96229553 0.1263114 0.32221308 -0.9165113 -1.0029497 -0.009338186 0.122256696 -0.15405552 0.43008777 0.8812004 0.71904963 -0.55033684 -0.9785404 -0.8818568 0.42890614 0.98263663 0.29422662 1.1924456 0.99269927 0.32007307 0.22878626 0.69820184 0.69081694 0.46964425 -0.252035 0.37290338 0.25980285 -0.50034446 0.98016363 0.8095061 0.96861917 -0.7686529 1.8201047 0.50900203 -0.23971136 0.17129505 0.13806315
444 0.6190884 -0.57633716 0.095418416 -0.15428755 -0.41686198 0.10893475 0.122831404 -0.27309948 -0.031424172 0.4781802 0.448804 -0.13646492 0.48017493 0.2175097 1.0256653 -0.5130309 0.19734132 -0.39548343 -0.006748945 0.32158756 -0.06203665 0.8087986 -0.18005672 0.13482329 -0.27255505 0.36405903 0.5519677 0.38827544 -0.23283729 -0.16321348 0.5987576 0.5643824 0.24355727 -0.37696213 -1.0772178 0.77052146 -0.4949342 -0.51664037 0.19346465 0.03144617 -0.5605759 0.57690316 0.33948985 0.5041207 0.014715024 0.40257493 0.04622797 0.01761188 0.3625737 -0.036801986 0.57961154 0.17830297 0.15743968 -0.10066112 -0.70968956 -0.9447986 0.1962142 0.71114707 0.08197493 -0.26238823 0.22688988 -0.75834656 0.54204065 -0.0737579
313 -0.012677256 -0.4495477 -0.60117733 -0.4422901 0.074275374 -0.47251037 -0.166668 1.0616897 -0.91473454 -0.2495804 -0.19024724 -0.10015852 0.11362469 0.5190926 0.52760315 0.518812 -0.024449311 -0.6098781 -0.09095361 -0.1985273 0.13389407 0.4902767 0.8870679 0.4201575 -0.3515722 0.5601954 0.5524514 0.89256215 -0.096117824 0.18788747 -0.6815111 -0.95492804 0.15163995 0.34960616 -0.08215572 0.25334236 0.9532023 0.6517991 -0.21813367 -0.80204105 -1.0007055 0.37746954 1.085566 0.21340436 0.8210172 0.81691056 0.1555248 0.4085424 0.50456494 0.6579319 0.56272244 -0.025920318 0.48210856 0.4119847 -0.561367 0.7698552 0.71101743 0.6808763 -0.6493984 1.3377403 0.46066996 -0.43198946 0.078812115 0.031276207
224 1.3941782 -1.0093712 -0.2901233 0.20744279 0.16606866 0.41265434 0.20387359 -0.12374272 -0.39931256 -0.056186732 -0.47197965 -0.17237018 0.78922904 0.3198171 -0.11102332 0.36780795 -0.37580612 0.26821795 -1.141243 0.43833157 0.61309546 0.6477743 -0.44138858 -0.41084534 0.25618893 0.9605337 -0.2781111 0.109978214 -0.09847888 -0.49509037 -0.8008226 -0.55388576 -0.08771318 0.73135114 -0.18548483 0.43081236 -0.2030408 0.3994531 0.2940835 -0.39217275 -0.66641766 0.1335181 -0.15322545 -0.014190414 0.047146663 0.46497416 0.26506224 -0.1867939 -0.44127458 0.022470348 0.3227687 0.44907552 -0.093245715 -0.7083603 -0.043193772 -0.67842865 0.27933085 0.2672266 0.47112542 -0.3098365 -0.7446678 0.02237176 0.16880193 0.4489669
370 0.7698369 0.90792847 -0.1824338 -0.26421055 -0.7132458 -0.66341376 0.32475236 0.043048196 -0.13772516 0.1824271 -0.079278596 -0.42400923 -0.2917533 -0.3125891 0.018685676 0.0398057 -0.12779702 0.354614 -0.0693094 0.59100425 -0.21086611 0.455533 0.22799851 0.020531526 0.23560207 0.065690786 -0.69833136 0.85092175 -0.40926453 -0.2044106 -0.39386278 0.0877995 -0.2593528 0.014727019 -0.77385986 -0.15942577 0.2471676 0.16512185 -0.11044096 0.24308878 0.32553297 -0.5857213 0.25652286 -0.4372652 0.49282163 0.3114489 0.38662386 0.49454612 0.3350706 0.1933908 0.23569402 0.24552049 0.6679614 -0.07392641 -0.22705843 0.22643177 0.4236937 0.024020456 -0.060710702 0.6150118 -0.5687234 0.022780646 -0.22420323 0.6477105
43 -0.10118372 0.38862106 0.42715707 0.33756164 -0.27484056 -1.2216848 0.4438489 0.32260272 -0.18461946 0.57054543 -0.70854634 -0.16753146 0.1885354 0.24910216 0.19584635 -0.27019614 0.4176839 -0.40739915 -0.34115088 0.6229493 0.3957014 0.33868992 -0.2902692 -0.5260449 0.6019917 -0.20405392 -0.66368127 0.57081175 -0.093902916 0.20522729 -0.29343334 -0.18698269 0.114843406 -0.45406273 -0.06907369 -0.12431227 0.8770464 -0.16080754 -0.4234793 0.0114296 -0.5700923 0.10958598 0.42434412 0.12736161 -0.21365228 0.33429354 0.1430605 0.41579387 -0.7310915 -0.37478277 0.26410434 0.48216975 -0.10350347 -0.56318533 -0.068067335 0.05938749 0.6399764 0.21684416 -0.03223828 0.17716835 0.07637024 -0.5858471 -1.1244973 0.1762084
67 0.80679286 0.1758426 -0.38609728 1.2179449 -0.93919665 -1.3518363 1.1993833 -0.87263054 1.1419638 -0.18466783 0.5375042 0.26144725 0.5043185 0.9119808 0.35284632 0.511257 -0.35418424 -0.34986332 0.3399536 -0.6282317 -0.41286057 0.2555873 -0.56631786 0.05823914 -0.886259 0.16830298 0.80408275 0.3525702 0.989654 -0.89267725 -0.21846062 -0.69856703 1.5275208 1.0230637 -0.85018915 0.8664664 0.22536716 -0.2078781 0.4776485 0.32744887 -0.21877466 0.977893 -0.531595 0.08409095 0.111602515 0.16442814 -0.7688158 0.1242241 -0.80532795 0.93530923 1.1802632 0.9833875 -0.51114315 -1.4057499 0.47002095 0.14095923 -0.026478969 -1.1332161 -0.13323379 0.60185695 -0.27142128 0.03905559 -0.20982271 0.48484153
284 1.2309428 -0.35410428 0.38578436 0.26074094 -0.15578434 -0.38079315 0.39855084 -0.073496945 -0.4488364 -0.049533322 0.16183236 -0.83871514 0.23573309 0.55512756 0.5557588 -0.40307987 0.28836405 -0.22490647 -0.2521179 -0.92492855 -0.08301178 0.29727858 -0.16352133 0.4715521 0.23610942 0.6325399 0.49815455 0.32429975 0.3513764 0.15791497 0.28349462 0.3094742 -0.506347 -0.3290922 -0.8476369 0.72835094 0.2873664 -1.1976103 0.5563432 0.090883344 -0.3468521 0.3579081 0.17385668 0.0776784 0.1492319 0.27435976 -0.33385745 -0.19201542 -0.41651422 -0.17480367 0.21115722 1.0664734 -0.32449564 -0.21754736 0.17494886 -0.021320667 -0.024310768 -0.782915 -0.09929024 -0.44775602 1.1237769 -0.9456617 -0.10448831 0.17652841
170 0.2954359 0.51718646 0.8918985 1.2365826 -0.6043744 -0.5154897 0.6723665 -0.27625045 0.048098095 -0.4326778 -0.03717737 0.6092829 0.47844473 -0.4890068 -0.33886045 0.19252954 0.19399442 -0.11740692 0.3379957 0.12454597 0.27486265 0.8738183 0.19476901 0.4929461 0.22457658 0.22512768 0.17457509 0.36837 -0.34463942 -0.12605213 -0.3804844 -0.8575063 0.567145 0.1214356 -0.45537254 -0.085589685 0.06133034 -1.0545536 0.0625235 0.27993026 -0.21376345 0.5569012 0.06665823 -0.14056705 0.32465968 0.11424863 0.26254067 0.6199793 -1.3158005 0.1620837 -0.061436318 0.79007494 -0.4990815 0.08636374 0.48822537 -0.09193317 0.5636586 -0.89651525 -0.8801624 0.5270439 -0.5318162 -0.7409099 -0.31425714 -0.14593413
10 0.70538557 0.29797113 -0.17303978 1.3959972 -0.8916714 -1.2337626 1.1826925 -0.922597 1.21803 -0.42565823 0.3998076 0.24108092 0.4459939 0.8687039 0.408604 0.4731891 -0.468103 -0.5493547 0.15598106 -0.5137394 -0.38866565 0.32564056 -0.7158931 0.25398043 -0.7695011 0.32751843 0.8067232 0.4429172 1.054011 -0.87265944 -0.26153782 -1.1149555 1.7728155 0.99557525 -0.5699566 0.76468825 0.6377051 -0.15418608 0.6339304 0.1673809 -0.08756418 0.83154017 -0.4907975 0.46496522 0.32357106 0.16219354 -0.79962605 0.23340212 -0.84957623 1.0211234 1.2254803 1.0317392 -0.68962157 -1.1485808 0.5903698 -0.15671822 0.16081315 -1.3297147 -0.23384252 0.7491147 -0.41707644 0.10649079 -0.35735983 0.46286693
103 0.5341642 0.3413457 -0.28678626 1.3317491 -0.7872188 -1.2182926 1.0522314 -0.94818205 1.1925284 -0.5521411 0.39053112 0.19936414 0.66894805 0.7372298 0.327998 0.62437856 -0.49353606 -0.32396546 0.12148855 -0.47805402 -0.3119142 0.364861 -0.7083155 0.17546226 -0.47531456 -0.042984575 0.7792722 0.45303774 0.9523334 -0.9242179 -0.34322342 -0.989479 1.6816578 0.9562957 -0.5464995 0.5939877 0.9389685 -0.007031308 0.83039075 0.23586777 -0.009898184 0.7980576 -0.3854217 0.4983632 0.10638028 0.38285905 -0.7121511 0.15011987 -1.0133916 0.9112618 1.2140096 0.8177412 -0.68685734 -1.2058818 0.4163848 -0.4558987 0.5020322 -1.3162062 -0.4050644 0.76188993 -0.5757584 0.0767635 -0.3665731 0.5206019
297 0.7262595 0.33150426 -0.24245833 1.530012 -0.7995924 -1.249063 1.0760204 -0.9902382 1.1431789 -0.5305159 0.42231846 0.23036924 0.6392744 0.84293807 0.27003446 0.58967495 -0.41581735 -0.51294816 0.134369 -0.5373227 -0.41895655 0.21599089 -0.56723565 0.17658862 -0.8245229 0.2913781 0.8013261 0.42690906 1.0877755 -0.8853565 -0.3115103 -1.0110848 1.7618123 1.0184262 -0.5799858 0.7151982 0.6045704 -0.12112394 0.68673646 0.29789954 -0.1677454 0.8556447 -0.48568058 0.47607705 0.21806653 0.1641648 -0.7646963 0.151858 -0.83613914 1.0302145 1.2050885 1.1181155 -0.699949 -1.1839395 0.5047615 -0.08505642 0.3166623 -1.1461434 -0.25097567 0.8278459 -0.4339743 0.022670073 -0.25720236 0.51993036
205 0.3596696 0.32616758 0.23627134 0.5363329 -0.090378165 -0.8549105 0.25215554 0.13191786 -0.2119532 0.11495031 -0.12247213 0.19385949 0.18648557 -0.1914871 -0.10336449 0.22251335 0.14486535 -0.16684256 -0.36338967 0.34056124 -0.3402476 0.44624344 0.3202189 -0.024916817 -0.17339751 0.27979833 -0.27816424 -0.035068475 0.063756354 -0.06918729 0.32587838 -0.7275074 0.19982266 0.18450901 -0.50002253 -0.22348444 0.23829205 -0.35455152 -0.6007282 0.43156642 -0.16163988 0.74008805 -0.012258321 -0.03967415 -0.2134207 0.23702681 0.6535043 1.1108325 -0.31336653 -0.10957249 0.52750105 0.12379448 0.327073 0.6272939 0.11887716 -0.26055118 0.027646955 -0.638085 -0.50913024 0.27318636 -0.58358204 -0.329006 -0.15633231 0.051208746
104 1.2596749 -0.13751255 -0.003054729 0.04975848 0.06683963 -0.056921437 -0.37757933 0.073448285 -0.1632366 0.80732465 -0.75887936 0.15725496 0.47399592 0.54640055 0.46878207 0.24413384 -0.024171319 -0.45124185 -1.2993319 0.2613135 -0.115452304 0.4057251 0.050328217 -0.1841514 -0.21983735 1.5378553 0.14222215 -0.20235662 0.83609164 -0.41528553 -0.78426623 -0.8253521 0.449113 0.46260208 0.3508036 0.89680785 -0.010016167 0.04972389 -0.3345892 0.01718518 -0.510852 0.277485 -0.46464926 -0.2087492 -0.19575761 0.71431375 -0.48109767 0.22908661 -0.37560698 0.33965263 0.009705819 0.36484298 -0.49794906 -0.051618382 0.42108873 -0.3943106 -0.27403066 -0.48293552 0.54529864 -0.08525324 -0.35021308 0.1754975 -0.69122034 0.8717134
332 0.6348969 0.28379092 -0.15630932 1.3599293 -0.8281555 -1.2363415 1.1350025 -0.84395224 1.2035713 -0.43344638 0.41517153 0.27986872 0.4787803 0.83586025 0.39820543 0.35104796 -0.45281824 -0.4941956 0.11723229 -0.5024566 -0.46890488 0.22177397 -0.7116353 0.19743837 -0.8260316 0.27227363 0.7935156 0.4266632 0.9773622 -0.70212114 -0.3173122 -1.012521 1.675535 0.93618625 -0.6822434 0.6213822 0.5588704 -0.052066356 0.561701 0.18619514 -0.060256347 0.8202384 -0.5107659 0.4470608 0.40973666 0.36268964 -0.6567057 0.25632656 -0.8219702 1.0194603 1.125215 0.94431466 -0.6459595 -1.2629392 0.6085295 -0.0066756764 0.21885456 -1.2137996 -0.24735035 0.8084983 -0.37961784 -0.039473638 -0.23060587 0.5149891
57 0.91705465 0.970087 -0.16154805 1.1319959 0.017486924 -0.66853803 0.25277275 -0.2752553 -0.4657874 0.62364995 -0.63953143 -0.16925988 -0.15426263 -0.19354913 0.51289386 0.1295108 0.03642616 -0.19392696 -0.35285062 0.52255815 -0.14307119 0.33223328 0.52262044 -0.32166487 0.41927338 -0.2158197 -0.5152983 0.30824736 0.7532228 -0.9106523 -0.26394543 0.22624156 0.12698168 -0.6167046 0.3402226 0.022734832 0.7365086 0.27183533 0.6008391 -0.26016387 -0.36984313 0.24062023 0.514194 0.21037851 0.4866487 -0.097478785 0.087624334 0.2670811 -0.29669395 0.610939 -0.55779463 0.11623199 0.93470585 0.3456755 -0.1605885 -0.05042409 0.29214373 0.056750994 0.011750939 0.35643342 -0.3691405 -0.3603392 0.36808422 -0.53812647
182 0.36708358 -0.6408717 0.48733586 0.9703509 -0.39899054 -0.11269513 0.23209961 -0.86646426 0.38512984 -0.22852442 -0.6638461 -0.59048206 -0.0862441 0.18505184 0.7076179 1.2192601 0.13105245 -0.90050036 -0.015697889 0.97108525 -0.008359628 0.066942066 0.7927934 0.25452086 -0.44500378 0.7351669 -0.14060043 0.23585357 -0.012009072 -1.0184482 0.051146414 -1.0106094 -0.28083074 0.2738083 -0.18365203 -0.07939548 0.42207256 0.5016403 0.19807898 0.16682778 -0.16012079 -0.06510013 0.79639256 -0.25502056 0.73259753 0.23850985 -0.028265871 -0.13870889 -0.13129419 -0.85311055 1.1920892 -0.07466907 -0.31245905 -0.8931905 -0.35202807 0.49874276 0.5493173 0.34391814 -0.0017702233 -0.54949826 0.1334323 0.075201996 0.327258 0.87242174
291 0.38373098 0.05021121 0.58030635 0.053590678 -1.1645356 -1.089668 0.716598 -0.3622827 -0.6389929 0.73929155 0.046469722 -0.13106196 -0.4341073 -0.14522561 -0.17341079 0.17630543 -0.45929867 0.12240832 -0.2845606 0.11382078 0.16123283 0.1532699 0.5156775 -0.7082267 0.3823635 0.6906671 0.00988406 0.30881122 0.14475948 0.21762632 -0.5292946 0.14423414 0.046210796 -0.043724958 -0.95380014 0.34799382 0.79885244 0.35851032 -0.000856086 0.4318789 -0.021318635 0.24963702 -0.10037347 -0.27125338 0.11660031 -0.3732739 -0.034261573 0.47308755 -0.18673646 0.47979057 0.18321195 0.40637282 -0.39832622 0.54925877 0.64557004 0.055282358 0.5490028 0.28408507 0.737567 0.6004763 0.005842892 -0.3154391 -0.3232831 -0.14504851
204 0.6842361 -0.17846999 0.2509606 0.13581449 -0.34853756 -0.85334855 -0.5699519 -0.038669903 0.060443 -0.63834286 -0.4110235 -0.09612766 -0.44201788 0.61014056 -0.045927893 0.8979996 -0.39036402 -1.1217803 0.03797229 0.8521034 0.14278524 -0.007162477 0.36477637 -0.23425671 -0.54883057 0.2940375 0.8132335 0.80354565 0.07935254 -1.2887295 0.35859016 -0.4125333 0.62141633 -0.19432506 0.36438328 0.34813643 0.7903895 0.22946236 0.32682213 0.3539395 0.5492715 0.10677381 -0.5831413 0.72227246 0.7550583 0.23057956 0.58923125 0.18605757 -0.72529733 0.6034095 0.3053061 0.06499 0.35192686 -1.01774 -0.5314823 1.2788563 0.89735085 0.048779614 0.3420149 -0.06994124 -0.29871467 0.2086314 0.4354764 0.10541641
108 0.60879934 -0.41309404 0.45052704 -0.020236999 -0.10614966 -0.16125323 0.41273233 -0.18707226 -0.2274863 0.5754402 -0.35889307 -0.44250113 0.15042284 -0.31820583 0.6592941 -0.3334217 0.03793862 -0.88842344 0.3585846 -0.13091166 -1.0595065 0.8389609 -0.012684301 -0.18727653 0.93189245 1.2236028 0.774195 0.41934118 0.6627199 -0.79918724 0.060388207 0.015607652 0.6496873 -0.10008686 -0.121850885 0.459696 -0.3094127 -0.31215736 0.4166214 0.069236375 -0.56979394 0.061697118 -0.028977586 0.6472523 -0.24951403 -1.68526 -0.3803026 -0.42980474 0.61092675 -0.3082471 0.72367007 -0.51385486 0.3786225 -0.17399774 -0.44219115 -1.4764308 0.94534624 -1.1045532 -0.8676132 0.5732591 0.71698767 -0.50934505 -0.07781 0.75886345
376 0.1526435 0.32356554 -0.6302501 0.19923466 -0.5291993 -0.34760952 0.03223078 -0.14535788 -0.20749336 -0.1668665 0.11378366 -0.22831833 -0.49125707 0.380819 0.5887705 0.12812011 0.68120694 -0.62861305 -0.33920595 0.359915 -0.08240198 0.06606736 -0.22841115 0.40628505 0.123141706 0.64930516 1.6141523 0.3152595 0.41661242 -0.3816247 0.25714725 0.37628713 -0.5703095 -0.15756263 -0.77822304 0.32797462 0.11780397 -0.86226 -0.0549406 0.18109612 -0.19035985 -0.034494385 0.23253651 0.40333655 -0.38556045 0.26419178 -0.0559442 -0.21802893 -0.13770743 0.27240255 0.5389425 1.0767652 -0.3705003 -0.031263027 -0.406833 -1.0079578 0.23983215 0.041061953 0.21508233 0.28443718 0.030541422 -0.41273955 -0.8830092 1.1630155
171 0.40186712 -0.57153416 0.5302349 0.82610023 -0.361016 -0.11257181 0.36006743 -0.8174631 0.39717275 -0.22484921 -0.8421391 -0.5069381 -0.045142435 0.07869648 0.62645066 1.1764308 0.19200526 -0.90916973 -0.016762426 0.9616811 -0.011286093 0.058759797 0.7033306 0.22082227 -0.42476964 0.6218137 -0.21801665 0.38386473 0.07622415 -0.9922493 0.026147127 -1.0317097 -0.21697192 0.3807189 -0.34115067 0.013614328 0.47838482 0.49891928 0.17522626 0.13246578 -0.11316663 -0.22327079 0.8587598 -0.12660886 0.6954413 0.21524614 -0.002267684 -0.09702034 -0.14300121 -0.81302804 1.0584507 0.013682767 -0.3343088 -0.8007273 -0.44221544 0.47873574 0.46356088 0.39276835 0.05649699 -0.5027458 0.15431304 0.13360667 0.32977915 0.8525423
184 0.13883841 -0.37914386 -0.76186496 -0.03826077 0.2745562 -1.1330503 -0.35805973 -0.5460408 0.16426732 -0.23263142 0.29156286 0.19764945 0.28765678 0.57944393 0.42063922 0.37848598 -0.595999 -0.722172 -0.0687701 0.5684763 -0.2536629 -0.5822253 0.52270395 -0.24862622 0.7511753 0.239759 0.22508782 1.0094821 -0.33817783 0.26351643 0.20241284 -1.0510379 0.42821172 -0.27382973 -0.53289837 0.34786484 0.6843968 -0.07249472 -0.0747574 -0.3334294 -0.7056523 -0.056626447 0.1386695 0.11459456 0.36497623 -0.22552213 -0.5849974 -0.047931485 0.08840712 0.35804668 0.13052864 0.008047226 -0.20860232 -0.2903379 -0.5020432 1.0013344 1.2242059 -0.31410432 -0.34234765 -0.08835283 -0.75685024 -0.46426985 -0.9530041 -0.096917965
78 -0.06530954 -0.35182482 -0.5819155 -0.017548451 0.44229636 -1.2808993 -0.20281546 -0.4338307 0.2537743 -0.28925228 0.46837434 0.103099 0.19783454 0.5001475 0.52367336 0.36473408 -0.5571219 -0.75731647 -0.20627959 0.61253345 -0.3081398 -0.46407017 0.4561631 -0.24706805 0.6467113 0.15952411 0.17242463 1.0879035 -0.3054485 0.3608003 0.23003653 -0.92414373 0.5658763 -0.22381353 -0.5097855 0.32201052 0.72193485 -0.12301514 0.067444205 -0.49905613 -0.94188786 -0.015357468 0.22338471 0.07966759 0.27946645 -0.17116827 -0.50913006 -0.061871454 -0.042618122 0.36990267 0.14478675 -0.015734458 -0.005368028 -0.23859438 -0.5982918 0.92881083 1.1796776 -0.21794248 -0.32830614 -0.13787304 -0.74947226 -0.38564017 -0.88390374 -0.07839484
146 0.12310224 -0.3826906 -0.9112893 0.05007511 0.43733567 -1.1532164 -0.34007978 -0.38439667 0.104097985 -0.1751684 0.320486 0.34497106 0.1372568 0.5559597 0.43883023 0.53385127 -0.56842625 -0.6382479 -0.098952405 0.63707286 -0.36453518 -0.45412114 0.20240016 -0.16084209 0.71949154 0.40215155 0.059136573 1.0983872 -0.32725108 0.2646394 0.23166779 -0.91547614 0.3350923 -0.24391177 -0.668235 0.27832732 0.78255785 0.013096142 0.061659306 -0.40063682 -0.69223195 -0.06143592 0.12530635 0.29953384 0.3188773 -0.21990651 -0.6565565 0.0045384336 0.053773914 0.360463 0.12152027 -0.008026066 -0.17220637 -0.23259771 -0.26706013 1.0447544 1.275805 -0.1941355 -0.31304145 -0.092894524 -0.686808 -0.45040292 -0.7643725 -0.15325575
96 0.2828886 0.021678982 0.2172081 0.21382636 -0.65808773 -0.77920794 0.63007927 0.066413425 -0.6428272 0.7125508 -0.40652594 -0.28913754 0.5198477 0.2224325 -0.3330686 0.784226 0.52095777 -0.31928283 -0.13396999 0.61878145 0.2373449 0.07320398 0.49728078 -0.39635456 0.68665403 -0.20812255 -1.0067264 -0.030044226 -1.0508796 -0.14534725 0.6828878 0.36093795 -0.12452639 -0.07664058 -0.0787657 0.24797688 0.5536782 0.14606614 -0.4165509 0.18653472 -0.7846316 -0.7983792 0.4927542 0.388109 0.12221431 0.23247162 -0.5025019 0.29517487 -0.057593085 0.8243935 0.36920148 1.0188013 -0.21756801 0.5118469 0.14161596 -0.4080095 0.9144587 -0.6421787 -0.48896557 -0.36012092 -0.19686207 -0.15503964 -0.083141945 -0.3718058
352 0.15778013 0.25933558 -0.6300566 0.047268007 -0.48939803 -0.34470862 0.22962318 -0.077913344 -0.32007703 -0.28825983 0.1689961 -0.17293961 -0.62265944 0.30417132 0.51413655 0.23289713 0.63741916 -0.52803373 -0.27679464 0.25416186 -0.08952786 -0.06930953 -0.03377241 0.3543101 0.16068467 0.76836747 1.5536903 0.33470362 0.5220023 -0.3994023 0.48396766 0.43043247 -0.56759465 -0.08844587 -0.8127654 0.35232526 0.16160998 -0.96537024 0.007963767 0.16142635 -0.2662193 0.057133142 0.25988433 0.5645697 -0.18483275 0.31566876 -0.08050558 -0.17947009 -0.114028685 0.3138133 0.43676606 1.0179373 -0.40277538 0.08530875 -0.28128365 -1.006569 0.3175883 -0.067825004 0.39324662 0.25789797 -0.11180957 -0.16106245 -0.90671515 1.3005663
175 0.41752508 -0.47764295 0.40284467 0.8611135 -0.37613207 -0.1240487 0.26950085 -0.77716 0.35361958 -0.16730575 -0.7761401 -0.5399765 -0.053959414 0.10769104 0.6115506 1.2487928 0.13288526 -0.85763085 0.16219783 0.9403399 -0.09063991 0.021882728 0.84789187 0.048366506 -0.48239985 0.68880695 -0.1301896 0.38590184 -0.08596376 -1.12014 -0.073378 -0.9856947 -0.30644485 0.3766488 -0.16998763 -0.043970324 0.3621068 0.46275207 0.15864773 0.1502224 -0.048662394 -0.13858785 0.78203505 -0.18306638 0.69228745 0.135839 -0.12550591 -0.07618952 -0.20077057 -0.76803255 1.1274431 -0.056533918 -0.4482905 -0.8188774 -0.46248493 0.4930251 0.53296536 0.4667906 -0.05666276 -0.5278336 0.2056849 0.10182981 0.2619221 0.7958321
107 -0.24449421 -0.5896072 0.05548686 -0.2875539 -0.3509738 0.6811027 1.0534501 -0.3651034 -0.7267519 0.4517064 -0.39511752 -0.66753656 0.80749846 0.67595947 0.63571197 0.06498156 -0.6023561 0.012894944 0.09549974 -0.542508 -0.98245853 0.44584936 -0.09310901 0.021917982 -0.3239787 0.57334757 0.49992502 0.54630953 0.5419816 -0.7436074 0.23176418 0.08294306 -0.09994392 -0.045422178 -0.64032114 0.12962943 0.14640856 -1.5774188 0.65656286 0.7419708 -0.19192338 -0.09871725 -0.038594287 0.027052322 -0.23646232 -0.080226004 -0.66038907 -0.23651032 0.08715074 0.5022993 -0.13318512 0.27828676 0.92614776 0.35282433 -0.40071487 -0.71567744 0.9803098 0.54640406 -0.5866954 -0.5697646 -0.23345599 -0.5009489 -0.38620114 0.15449555
333 1.1604836 -0.39472806 0.10660055 0.24475835 -0.26145867 -0.21949829 0.5187779 -0.02839159 -0.38031945 -0.013220118 0.29739615 -0.8441199 0.051109046 0.6818558 0.5352737 -0.33960733 0.20204759 -0.12921412 -0.19359575 -0.9299954 -0.1882527 0.2483066 -0.027633023 0.43227464 0.1970607 0.5844355 0.5349941 0.4422941 0.29004025 0.26335743 0.23504019 0.36975938 -0.60467535 -0.5478288 -0.7205093 0.7254313 0.27781743 -1.1342301 0.596439 0.21293809 -0.49105904 0.4756401 0.10024806 0.15033917 0.2645162 0.3113752 -0.3586695 -0.1926884 -0.48581952 -0.13557728 0.19989389 1.0438131 -0.37207255 -0.15944488 0.27179512 -0.057650052 0.051522892 -0.83358973 -0.09008801 -0.5736933 1.0692179 -0.9068824 0.05316843 0.27622294
100 -0.22010854 -0.01949678 -0.2120668 -0.11124672 -0.19354916 -0.6310152 0.09935231 -0.055398315 0.069283545 0.69915795 0.14880371 0.059193276 0.65509564 -0.888441 -0.4738966 -0.1557348 -0.051305853 -0.41837388 0.6723195 -0.18329477 -0.85382676 0.41249412 0.3147743 -0.3872803 1.5154973 0.7572864 0.28858253 0.5443172 0.29559195 -0.39045304 -0.5678401 -0.23181584 -0.34763443 -0.4277051 -0.08751196 0.9387928 -0.11422019 -0.4583367 -0.0035921417 -0.10103758 -0.015361428 0.012227428 -0.20533732 0.5313188 -0.028491614 0.90927523 -0.25663215 -0.8224903 -0.48566794 -0.757869 0.6287446 0.07431112 -0.40085593 -0.57895267 0.08672605 -0.72372305 1.0187861 -0.34432122 -0.16543955 -0.3737411 0.49951288 -0.62756616 0.81705576 0.198947
62 0.05440296 -0.36853704 -0.66802114 -0.018227011 0.40914232 -1.0516254 -0.238642 -0.36101878 0.28433394 -0.15740545 0.3080308 0.14417972 0.08342497 0.50079006 0.58899826 0.3708401 -0.7198309 -0.6216992 -0.18737063 0.5843297 -0.24973014 -0.46563128 0.34840158 -0.14721055 0.795826 0.30761525 0.26377314 1.089919 -0.37081674 0.26594636 0.2038517 -0.8912585 0.3707413 -0.15606846 -0.47710636 0.17001276 0.76989555 0.036603123 0.029821381 -0.3612694 -0.7370879 0.058925383 0.33394885 0.17319098 0.37121668 -0.20769405 -0.6085738 0.0099346 0.013954383 0.44193354 0.08806347 0.06336742 -0.18377762 -0.19834417 -0.3481341 1.0980259 1.1627004 -0.19772874 -0.37350005 -0.20343703 -0.76258636 -0.46344092 -0.93215656 -0.08325056
427 0.3855687 0.014217599 0.5745568 0.07486243 -1.3774773 -1.0139612 0.6580745 -0.31302568 -0.64014846 0.76841724 0.0105161555 -0.096652284 -0.5430498 -0.06097773 -0.079293 0.16570301 -0.62686783 0.20166479 -0.3524729 0.22105362 0.17506151 0.12506555 0.5078358 -0.6520673 0.45193124 0.50605345 0.027876977 0.2432594 0.25064063 0.2713017 -0.48257595 0.005682275 0.048791427 -0.121858984 -0.9081919 0.4211728 0.7361963 0.30377865 -0.20227057 0.51914436 0.058544792 0.40170982 -0.06784741 -0.24328025 0.102436766 -0.2616741 -0.23098001 0.53919435 -0.18374339 0.31550792 0.2309739 0.34108523 -0.39975497 0.56464416 0.52122986 0.07017909 0.38400078 0.41440555 0.4859837 0.56888014 -0.0013625516 -0.33970356 -0.3214153 -0.18048634
411 -0.3603975 -0.04701107 0.37405172 -0.41242152 -0.25063953 -0.9251731 0.05337638 1.1456964 -0.62486285 -0.20113048 0.5221027 -0.44785133 0.37263978 -0.4211132 1.2096721 0.6347638 0.020449609 0.20333992 -0.15443218 -0.19639342 0.48859012 0.52214277 -0.23067662 -0.722314 0.92140716 -0.16752657 -0.5195215 0.66807765 0.05496081 -0.51276034 0.19145986 -0.57987875 -0.441013 -0.46959972 0.051942404 0.14142337 0.6705672 0.15329987 -0.91920274 0.46832916 -0.23708944 0.005206085 1.0829724 -0.22608367 0.76201266 0.21830612 -0.6080984 0.6215129 -0.51199865 -0.0069057383 0.15203293 0.45315233 0.26713553 -0.35840255 0.41782853 -0.38829753 0.56018436 -0.4136499 0.117045514 0.1747908 -0.37934756 -0.058505733 -0.1885011 -0.29006365
162 0.84886247 -0.48894066 0.1775326 0.06070202 -0.1330303 0.14485464 -0.08072042 0.25173923 0.04396939 -0.06836714 -0.55281967 0.06850777 0.50941205 0.3404642 0.07554387 0.57988334 -0.22735114 -0.091090284 -0.95908564 0.14096493 0.18972686 0.9682193 -0.13621117 -0.06376075 -0.09657264 0.99026626 -0.18506253 -0.047799647 -0.08343807 -0.44713914 -0.81535053 -0.4641949 0.39600408 -0.014173963 0.048171997 0.8381638 -0.4204937 0.21295734 0.073613934 -0.31515947 -0.42874262 -0.19419871 -0.3370556 0.0145505 -0.0668889 0.54917425 -0.16743016 -0.053173635 -0.34193724 0.064866565 -0.12182755 0.603342 -0.0031374258 -0.37258527 0.03763813 -0.47230786 0.20857272 -0.020338165 0.40918028 -0.08246164 -0.5718667 0.19669111 -0.19620854 0.26843733
7 0.97377646 -0.41573817 0.12357488 0.1247977 -0.09179462 0.2656146 -0.011212689 0.2579408 0.053380873 -0.13656236 -0.5937095 -0.11202083 0.40664238 0.4161951 0.022200705 0.62334603 -0.23861007 -0.046441756 -0.95597243 0.08353524 0.22812058 1.0088952 -0.13551453 -0.084681734 0.04555988 0.97460103 -0.09020448 0.09879249 -0.035809085 -0.32170284 -0.8432531 -0.57492155 0.3515376 0.087351024 0.09618566 0.80261546 -0.36223966 0.29292014 0.081107676 -0.3130212 -0.43282297 -0.1109579 -0.41679022 -0.0866648 -0.03582891 0.5083228 -0.13375977 -0.07637314 -0.28212002 0.09390461 -0.04989198 0.5461215 -0.09359217 -0.38911766 -0.09707409 -0.500993 0.18896927 -0.03181302 0.41733122 -0.20288911 -0.6370728 0.16263442 -0.12872986 0.307959
152 0.43858108 -0.542174 0.47502533 0.9205518 -0.25249347 -0.083375 0.30002877 -0.86121005 0.47793904 -0.17268538 -0.76000905 -0.4771678 -0.036441833 0.0765588 0.7293143 1.33686 0.20681913 -0.8025797 0.03896986 0.954 0.05042854 0.08781368 0.90233785 0.17871068 -0.52656436 0.64029527 -0.14230312 0.27767473 -0.03204568 -0.9475917 -0.11021608 -0.9943051 -0.2159057 0.2719078 -0.24634099 -0.15388982 0.3446889 0.5111001 0.22916931 0.22303657 -0.13612789 -0.12990437 0.76638556 -0.2629644 0.8027883 0.20928995 -0.147298 -0.08886359 -0.10617098 -0.9324401 1.1479604 0.035464685 -0.2700041 -0.87046266 -0.5014139 0.31049055 0.543689 0.41038802 0.05132235 -0.5085421 0.10183536 0.07653309 0.25895247 0.83613914
150 0.26190454 0.50603247 1.0684941 1.3132317 -0.6017786 -0.4847986 0.77482265 -0.22416957 0.15627107 -0.35055006 -0.15759344 0.6865964 0.6521139 -0.59397084 -0.35497022 -0.0063315984 0.0756444 -0.098921105 0.35907805 0.34458032 0.24212123 0.7899611 0.09557375 0.3562891 0.056230262 0.13604496 0.06884227 0.3943547 -0.3448295 -0.052873835 -0.32683176 -0.7309734 0.46242908 0.26936182 -0.44999647 0.079276234 -0.035555027 -1.149549 -0.02599228 0.27414453 -0.31093013 0.62146014 0.07826367 -0.06648092 0.52615094 0.23770216 0.120582454 0.4828296 -1.2431849 0.28389958 -0.11124319 0.825911 -0.5847001 0.1109741 0.42291096 -0.032532413 0.46309903 -0.9198809 -0.7860857 0.59249926 -0.5429735 -0.99849826 -0.12330744 0.021536773
127 0.86249787 -0.4790429 0.048936367 0.13697147 -0.27311993 0.10791334 -0.11196546 0.2667157 0.053500436 -0.11841409 -0.45235455 -0.08463489 0.4922465 0.5412204 0.08274823 0.50974923 -0.31414625 -0.09621213 -0.899612 -0.026047066 0.31135917 0.89500654 -0.118808806 0.09307217 0.15868248 1.1698118 -0.10321012 -0.087312415 -0.0570087 -0.4382768 -0.86298 -0.60986346 0.42203012 0.08174407 0.1556219 0.7741147 -0.38662508 0.3367866 0.11189919 -0.17540236 -0.45706463 -0.13144106 -0.44774914 -0.020963844 -0.06668702 0.50412107 -0.048067935 -0.03275601 -0.3266449 -0.0019809264 -0.088208795 0.53243214 0.038320933 -0.45392123 0.08844809 -0.47931448 0.23097928 0.03589913 0.36216187 -0.21923089 -0.5982099 0.14783232 -0.18975174 0.2831273
169 0.2783721 0.6124096 0.99071854 1.2696704 -0.64811397 -0.5317814 0.7460525 -0.23090348 0.0067410823 -0.38414407 -0.018465914 0.555445 0.512048 -0.31275445 -0.36437762 0.0055577257 0.15512758 -0.07357563 0.31918538 0.1346583 0.22345354 0.78730285 0.13448599 0.49256858 0.108507834 0.1827132 0.24218585 0.31406316 -0.34943503 -0.0412507 -0.33432102 -0.90323263 0.5356762 0.1288224 -0.3330236 -0.0062955134 -0.058644123 -0.951906 -0.07799003 0.29877385 -0.2562005 0.6603986 -0.0011125111 -0.08713825 0.45560798 0.11490738 0.21601546 0.5262041 -1.3859406 0.031259246 -0.08410304 0.8848256 -0.44884834 0.064244956 0.37244755 -0.09416561 0.64690703 -1.0251633 -0.9073952 0.55436826 -0.49683228 -0.87569165 -0.21552229 0.0384853
137 0.92419577 -0.6961323 -0.46424988 0.65544814 -0.71353203 0.3486783 -0.18994132 -0.13794853 0.6663077 -0.85768425 -0.33369833 0.25780267 0.26317647 0.04128823 -0.35458732 0.67182446 -0.6848302 -0.1971552 -0.96920973 -0.059833758 0.13900399 1.2620327 -0.37283388 -0.07659998 0.0594079 0.6026497 -0.2110076 0.6403863 0.038631197 -0.7716588 -0.77384365 0.16739438 0.6489312 0.1735107 -0.2920793 0.7282264 -0.49846178 0.45533144 -0.2131911 0.11100593 -0.64166665 0.028495757 -0.32350743 0.22796194 -0.065794356 1.031995 -0.39766067 -0.07001027 -0.25184095 -0.080685854 0.09123283 0.58139837 -0.18535277 -0.500982 -0.11528842 -0.4808081 -0.18106313 -0.13819449 -0.008256521 0.047187436 -0.6630391 0.3113753 -0.2406919 0.8690819
54 1.267361 -0.2079154 0.061270922 0.089058265 -0.03495046 -0.16719986 -0.36215416 0.10261413 -0.27695957 0.666246 -0.8971658 0.269205 0.30246365 0.66847354 0.4254664 0.21492554 -0.17609735 -0.45047787 -1.357348 0.25885198 -0.12915245 0.33818135 0.1527389 -0.23663756 -0.273164 1.566414 0.15351993 -0.2659046 0.76244664 -0.4218846 -0.69561416 -0.66700894 0.39559087 0.43403003 0.314223 0.92065334 -0.09082975 0.0062658377 -0.24784367 0.040985465 -0.60156125 0.2949309 -0.370532 -0.16542992 -0.21513478 0.70860237 -0.58926284 0.25315535 -0.27204865 0.32189557 -0.05588283 0.31100065 -0.50766224 -0.23932151 0.5419467 -0.4562988 -0.32674822 -0.4141825 0.43205285 -0.11648845 -0.54234767 0.29850796 -0.59507906 0.85247076
355 -0.033186816 0.042952087 0.096006274 -0.19266708 -0.31726447 -0.5276587 -0.1723367 -0.0751571 0.023874616 0.8418675 -0.1172656 0.097103216 0.3831332 -0.47182646 -0.048292376 0.12274703 -0.13429947 -0.20363584 0.102025926 -0.4107443 -0.25541234 0.19754893 0.4024038 -0.18284687 0.42202103 0.37725183 0.60675377 0.65009075 0.13028465 -0.17699033 -0.17696929 0.15267992 -0.2751926 -0.17086752 -0.30723628 0.44291785 0.3704046 -0.24193667 0.18023832 -0.30151877 0.3868138 0.23743759 -0.24840899 0.0820179 0.1225751 0.9236902 -0.25843638 -0.5631815 -0.5527097 -0.4949121 0.36287004 0.08996186 0.108861566 0.11751107 -0.16953643 -0.27362144 0.2928676 0.02778328 -0.1533608 -0.58681256 -0.38437092 -0.26672807 0.7234661 0.590666
111 0.90862626 -0.40746525 0.14514554 0.037341528 -0.23727448 0.09686302 -0.15500453 0.28261355 -0.020499615 -0.23344536 -0.48700836 -0.069078185 0.5000689 0.4496904 -0.03172279 0.585044 -0.32013807 0.03524165 -0.89646286 0.10505421 0.19173361 1.0648671 -0.012975954 -0.0991604 0.0535064 1.0886894 -0.19748293 -0.017258378 -0.03207522 -0.258242 -0.81337726 -0.55926174 0.43397987 -0.017669132 0.054506663 0.77595377 -0.37555975 0.18333223 0.11684619 -0.21120849 -0.49877575 -0.10670143 -0.39023334 -0.020349598 0.07309773 0.51796544 -0.2662376 0.019568423 -0.27096206 -0.058875024 -0.03723268 0.6317877 -0.036511954 -0.4236778 0.058352914 -0.47968823 0.074296266 -0.018089574 0.28658956 -0.20064288 -0.5447604 0.2958683 -0.18064626 0.30154344
154 -0.092842065 -0.059602406 0.17914256 -0.1595645 -0.2115103 -0.49654722 -0.09998805 0.011994903 0.14646482 0.7569431 -0.1144514 0.09015729 0.29633322 -0.45507774 -0.10605626 0.037189648 -0.2971918 -0.16810037 0.023723813 -0.27007723 -0.3868069 0.21697356 0.22142106 -0.021936795 0.279614 0.46093583 0.65854603 0.720347 0.07686298 -0.1540272 -0.31315106 0.2025087 -0.43091407 -0.24117057 -0.2029081 0.34396815 0.35127613 -0.18212974 0.17926742 -0.2340177 0.3217477 0.300093 -0.09573745 0.1647135 0.003138359 0.83471084 -0.21563636 -0.5273318 -0.4916572 -0.42697886 0.4821035 0.14316273 -0.031620193 0.12622277 -0.13011199 -0.34004346 0.42363718 0.0017440037 -0.15493922 -0.7183277 -0.40690976 -0.249745 0.67229384 0.40149832
91 0.6055755 -0.18075983 0.36494935 0.1942064 -0.31989318 -0.7641937 -0.546085 0.03001189 0.2024358 -0.6123733 -0.36331758 -0.013820413 -0.6055516 0.5467323 0.04538109 0.96800685 -0.4215012 -0.94753397 0.059971757 0.91679204 0.20901406 0.040199168 0.46958166 -0.10982741 -0.5541491 0.3997702 0.8164177 0.9002023 0.15434945 -1.3729542 0.35856107 -0.46953037 0.65658164 -0.2531359 0.17897412 0.44701418 0.8887288 0.11888173 0.245775 0.4188915 0.4115731 0.15153126 -0.52887076 0.6604188 0.74397385 0.0480674 0.5434396 0.07689872 -0.70340157 0.5720842 0.20729959 0.04357455 0.2607152 -0.97726005 -0.59097177 1.2849203 0.8962656 0.17381184 0.38687423 -0.12832123 -0.22059134 0.2705579 0.5748746 0.20014365
366 0.25130302 0.41125593 -0.55890685 0.07739126 -0.33312175 -0.2548542 0.1564528 0.024839098 -0.1143576 -0.17742997 0.26069224 -0.13974202 -0.52259135 0.3071526 0.45488223 0.26861164 0.7248776 -0.7864981 -0.32648274 0.47427884 -0.109678954 0.17558202 -0.26380593 0.39042655 0.11703839 0.76269895 1.5170428 0.24913192 0.6156985 -0.2802247 0.41990662 0.40316746 -0.61351466 -0.22024202 -0.94209486 0.27568597 0.14483541 -0.8893328 -0.0716536 0.3326385 -0.25078976 0.056718525 0.2965507 0.49422136 -0.21473885 0.2329427 -0.08743502 -0.1776311 -0.1346474 0.2499746 0.4662691 0.9948231 -0.3491383 -0.014790989 -0.24959412 -1.0278653 0.3249358 0.18376917 0.388108 0.23374072 -0.13688175 -0.36902532 -0.7284826 1.1985241
172 0.2261756 0.61797065 0.70504075 1.0766181 -0.4076681 -0.65646434 0.428192 -0.11565331 -0.30743343 0.09662003 -0.09401704 0.6534007 0.14597988 -0.5236757 -0.08598309 0.18013157 -0.32620123 -0.035061643 0.02166711 0.40405485 0.2688579 0.7673141 0.52148277 0.6145875 0.16499516 0.5398331 -0.14256473 0.41168398 -0.5463494 -0.33657208 -0.26176417 -0.7416508 0.3854861 0.02868398 -0.549116 -0.17694224 -0.34163138 -0.8007423 0.22478555 0.45942822 0.2833483 0.5778107 0.1877562 0.2884707 -0.08972674 0.3900081 0.37783942 0.8378188 -0.76782453 0.5026541 -0.02422108 0.3166985 -0.5322005 0.37143436 0.41058904 0.013241289 -0.0035009563 -0.8477855 -0.71886295 0.6725437 -0.49729383 -0.85389495 0.16819619 0.3565432
136 0.11939183 0.6704904 0.9277916 1.2695292 -0.7406499 -0.51773155 0.7486563 -0.2827553 0.21053655 -0.50497985 -0.051826704 0.57022786 0.5081259 -0.48233137 -0.2628619 -0.024158912 0.08615379 -0.21997583 0.32404816 0.2738974 0.2355146 0.8148226 0.19027546 0.58453023 0.26051146 0.29542887 0.056473274 0.44907477 -0.30820134 -0.037663504 -0.27137306 -0.8367341 0.4829642 0.18840444 -0.5081065 0.12724628 -0.11056348 -0.9828193 -0.01626798 0.26512054 -0.27774525 0.72330284 0.015897807 -0.08908282 0.38127652 0.17673394 0.32466784 0.7714713 -1.3001765 0.20191596 -0.13851215 0.7075227 -0.4906511 -0.0070613753 0.52731377 -0.06556592 0.57427967 -1.1070793 -0.77213335 0.6114594 -0.6115052 -0.8328847 -0.12731382 -0.005047375
77 -0.008840567 -0.32391763 -0.84482145 0.007361508 0.23918967 -1.2966243 -0.2129536 -0.29752177 0.19685908 -0.21652724 0.28873137 0.14171916 0.15729351 0.5358873 0.47778097 0.4539969 -0.5881229 -0.60427564 -0.015132257 0.57173324 -0.2987571 -0.45984006 0.38241127 -0.2334061 0.7744441 0.3036571 0.12184524 1.0861087 -0.26607338 0.2851405 0.26045907 -1.0688068 0.45180425 -0.14209762 -0.59112626 0.3304831 0.6549659 -0.028455662 0.1384224 -0.2550959 -0.6232372 0.028785583 0.107521705 0.2376576 0.3326746 -0.26075947 -0.69600284 -0.12492077 0.097885355 0.33223823 0.039775122 -0.031144073 -0.15931523 -0.22289158 -0.32944953 1.0404402 1.1454895 -0.2610782 -0.27798176 -0.12516205 -0.7077854 -0.41516125 -0.9291496 -0.005072219
194 0.39283234 -0.5520383 0.52949685 1.058208 -0.40811333 -0.1326292 0.3056098 -0.89631104 0.41107982 -0.32199344 -0.7590841 -0.5000548 -0.10806774 0.22697483 0.6749668 1.2737589 0.11455124 -0.7526442 -0.03134034 0.96822876 -0.0006385957 0.04488058 0.87123156 0.04958613 -0.4588005 0.7101216 -0.1300336 0.29522797 -0.03858594 -1.0759381 0.032866035 -0.9033894 -0.29858604 0.19482096 -0.16271059 -0.12496567 0.40715134 0.52030426 0.35788113 0.09936343 -0.20914292 -0.079749405 0.8906038 -0.23255709 0.7308732 0.16926323 -0.119097166 -0.13266414 -0.090260945 -0.8704004 1.1210042 0.013582146 -0.23919871 -0.8651828 -0.24965484 0.4386966 0.54053444 0.4250547 0.13393989 -0.5162383 0.09820357 0.0296248 0.3508307 0.8874284
76 0.07937311 -0.30365586 -0.8050805 -0.064174145 0.30181396 -1.1519383 -0.2616265 -0.34037894 0.24399504 -0.113767006 0.34230414 0.4211812 0.11835652 0.5352947 0.49835655 0.48584995 -0.6212508 -0.6841593 -0.06312441 0.60151 -0.14876838 -0.30530944 0.44998184 -0.112052836 0.67680323 0.2949698 0.12882355 0.9972352 -0.32636717 0.3209524 0.30776957 -0.92184126 0.3838949 -0.31953162 -0.667722 0.32735667 0.6624584 -0.032581903 0.06662487 -0.3560051 -0.80281806 -0.04698903 0.28819352 0.05857043 0.4116373 -0.21517459 -0.7164297 -0.18476886 0.061674394 0.4140958 0.1130201 -0.028616993 -0.05410112 -0.30262804 -0.36650133 1.115382 1.2682186 -0.25683087 -0.16838096 -0.035913326 -0.7629079 -0.49342775 -0.7344255 -0.20254448
135 0.24906372 0.5591879 0.7132109 1.1179931 -0.40402862 -0.5455004 0.4094111 -0.08821855 -0.4050833 0.1277317 -0.1519613 0.59442276 0.11741571 -0.40768063 0.0140548255 0.23407139 -0.2306014 -0.30278143 -0.105047606 0.5085922 0.2318424 0.7996779 0.39675963 0.6379956 0.16089137 0.46896973 -0.17653023 0.5635401 -0.3130647 -0.15414716 -0.2431642 -0.76047283 0.5294172 0.092107154 -0.522366 -0.21217844 -0.31516019 -0.75337 0.2797265 0.40383023 0.3125149 0.6207991 0.15933317 0.10432985 -0.14155705 0.42159554 0.45765668 0.6817758 -0.6467873 0.35927916 -0.14733024 0.50976473 -0.7064603 0.5184394 0.65608525 -0.059467353 0.06376902 -0.7113133 -0.87225324 0.6584403 -0.57748586 -0.7535058 0.28970015 0.30878487
51 -0.06862671 0.11038851 0.09353546 -0.21970153 -0.33576626 -0.48606604 -0.06458326 -0.029216632 0.12843692 0.7803908 -0.08898343 -0.058455467 0.37319 -0.513735 -0.11574261 0.13287762 -0.25804755 -0.14534618 -0.018557293 -0.3741011 -0.32025984 0.31215975 0.341737 0.0018803496 0.3237996 0.45581928 0.6298141 0.5922471 0.12608847 -0.13492675 -0.2636564 0.19626331 -0.38733846 -0.18459259 -0.2519572 0.35235855 0.29082078 -0.31025836 0.11893736 -0.21329176 0.30529752 0.35030538 -0.11677906 0.21930316 0.025060933 0.9583513 -0.15212385 -0.5100197 -0.41411677 -0.46090597 0.43074 0.04234427 0.0752136 0.0018392509 -0.1468082 -0.2722521 0.4063273 0.0049952683 -0.1288104 -0.6747638 -0.23184907 -0.20668134 0.6710089 0.37938654
273 -0.18593547 -0.108545296 -0.4928846 0.03339939 0.10864261 -0.32843843 0.034949508 0.25365344 0.017550847 0.30991983 -0.31347 0.3753333 -0.19229239 0.41452873 0.27520624 0.2829068 -0.7750391 -0.6615162 0.001708589 0.2893109 -0.005145247 0.16373488 -0.04374143 -0.37361324 0.57947564 0.08601481 0.101615734 0.15322563 -0.22570811 -0.25557345 -0.068742216 -0.716311 0.21535164 0.2593816 -0.31500092 0.49777135 0.7386444 0.019593444 0.021547625 -0.12733296 -0.60314244 0.42385316 0.64135003 -0.12564935 0.5419319 0.28341463 -0.04521451 0.14832751 0.58068585 -0.032126788 0.08947173 0.3505899 0.48099697 0.17610234 -0.27371794 0.86333996 0.4445771 -0.28495154 -0.16468039 0.22017856 -0.19038753 -0.31994393 -0.14221828 0.15958342
70 0.9091207 -0.46376115 0.114318244 0.09536569 -0.22345752 0.1296628 -0.017077703 0.2262122 0.08581428 -0.18864223 -0.46998128 -0.077278115 0.45054594 0.42148504 0.12262648 0.54620045 -0.25924274 0.007174454 -0.90428513 0.1351503 0.21587461 0.9757995 -0.18687667 0.02368062 0.11178254 1.0691916 -0.09107079 0.0404486 -0.06477532 -0.4197704 -0.91508853 -0.54055136 0.29269317 0.081702195 0.264402 0.80654234 -0.45421174 0.19374962 0.03268508 -0.24455373 -0.3967425 -0.096104555 -0.46226993 0.11622177 0.0454555 0.5461928 -0.31095 -0.05535877 -0.29726663 0.036572404 -0.037693534 0.6241346 -0.038228504 -0.39755017 0.058113385 -0.4639391 0.18741871 0.10034397 0.3135629 -0.14647858 -0.5852167 0.15276399 -0.2961647 0.23218592
145 0.13947819 0.24813202 -0.1447514 0.42197672 -0.6832841 -0.3203132 0.50306565 0.033718765 0.0029329832 0.6708796 -0.08757767 -0.28093696 0.47929677 -0.37439477 -0.29028955 0.31638095 -0.56076145 -0.39704728 0.35098782 -0.30541974 -0.9808672 1.0027388 0.5519278 0.5874334 -0.21823546 -0.2057421 1.1318848 0.9441217 -0.47120982 -0.12857825 -0.26965904 0.09576272 -0.014899004 0.39761597 -0.49035248 0.5594607 0.33729455 -0.15411407 -0.359726 -0.91197675 -0.04768891 0.87464297 0.0029351553 0.015288515 -0.13463286 0.903778 -0.34409395 -0.57860774 -0.67477995 -1.0455867 0.3411554 0.26399374 -0.026399618 -0.30709687 0.17360681 -0.30618295 0.32352653 0.08746639 -0.04457385 -0.76631963 0.14208366 0.7139853 0.74961466 -0.2647687
90 0.5897561 -0.04929435 0.368734 0.09435684 -0.3719344 -0.5599865 -0.51333463 -0.03919918 0.08672825 -0.4930197 -0.32348767 -0.0021730503 -0.47183225 0.5386711 0.15499614 0.9430358 -0.40045622 -1.0219505 0.09070646 1.0473812 0.24331987 -0.09420315 0.2768858 -0.1840389 -0.49748394 0.2651187 0.8254911 0.91891956 0.008955673 -1.3637406 0.47571158 -0.41312614 0.6754098 -0.16024101 0.31310943 0.42903146 0.90035844 0.15909319 0.20158416 0.49369285 0.36284667 0.3416724 -0.6889548 0.53060657 0.9794671 0.14825432 0.5447053 0.07122728 -0.8309868 0.6171011 0.28588012 0.07244507 0.3963998 -0.976594 -0.54460967 1.1635603 0.86819494 0.123570636 0.39312017 -0.15785028 -0.31703383 0.24121362 0.4856541 0.27511337
63 0.95279396 -0.46329987 0.19677806 -0.036069926 -0.19154218 0.09603822 -0.10023624 0.33013332 0.09462349 -0.25965083 -0.5932026 -0.108530365 0.31326506 0.42363873 -0.025550717 0.54088193 -0.2099103 -0.11779565 -0.99717504 0.09321299 0.25704145 0.9734709 -0.116402686 -0.0134251295 0.05573093 0.9488126 -0.11374658 0.027610393 0.083586656 -0.3869631 -0.88594687 -0.609579 0.31226197 0.114454366 0.091557294 0.78737795 -0.39061242 0.16382256 0.044029087 -0.2821784 -0.4928642 -0.10858075 -0.43636313 0.045794737 0.07661244 0.42840925 -0.21005058 -0.021091202 -0.30186683 -0.09798001 0.06498833 0.62252283 -0.0070338743 -0.29763266 -0.043572973 -0.5767977 0.084736094 -0.06842476 0.25201198 -0.25335833 -0.67842853 0.12844305 -0.20296478 0.131967
50 0.34188297 0.14980778 -0.015616777 0.33757508 0.09562508 -1.1373924 0.09724756 0.02763926 -1.0308372 0.43984988 -0.2033516 -0.79285884 -0.19654281 -0.43765756 -0.06752361 0.2701782 -1.1530182 0.057699434 0.3787241 0.9775697 0.1841541 0.5725275 -0.15526009 0.16581994 -0.27884746 0.4118576 -0.30388457 0.7630607 0.119555354 -0.3975946 0.50533885 0.5111837 0.23074569 -0.02255903 -0.4512454 -0.3225842 -0.5942871 1.1151193 -1.0731262 -0.3728005 -0.40736392 0.39981306 -0.36633343 -0.30775172 0.414109 0.4562216 -0.2138001 -0.320463 -0.055599872 -0.04051024 -0.2345468 0.7408068 0.30551592 -0.04011389 0.09023725 0.5517124 0.16732356 -0.19514266 0.04072668 0.17154351 -0.7341024 -1.0745212 -0.57278204 -0.09059259
93 0.89583635 -0.76629215 -0.45271873 0.599324 -0.7456036 0.38220096 -0.2856552 -0.15563078 0.7796999 -0.7558443 -0.33129656 0.38006705 0.31656995 -0.027111052 -0.2589279 0.76800305 -0.59489787 -0.21575299 -0.958142 -0.11699204 0.14518745 1.2791148 -0.448474 0.027957654 -0.050702658 0.7233081 -0.22416303 0.5943807 0.01552979 -0.8436635 -0.8637496 0.117958106 0.73479176 0.039610464 -0.42721415 0.69880915 -0.39076218 0.36587843 -0.37204987 0.02004416 -0.7137829 0.09113492 -0.3045564 0.24139625 -0.22339506 0.91034603 -0.34303465 -0.1490087 -0.2875881 0.008806771 0.057619028 0.58394784 -0.17577468 -0.45758066 0.018885547 -0.3942803 0.007988897 -0.17444244 0.06431558 0.07673333 -0.65171325 0.61361384 -0.33689237 0.8197245
196 -0.15649958 0.009366966 -0.010483556 -0.22951402 -0.43617228 -0.481282 -0.19938074 -0.08981829 0.17161708 0.85203075 -0.18841115 0.022029705 0.44518104 -0.5260293 0.037147094 -0.042760696 -0.13246566 -0.10380266 0.063086174 -0.33761415 -0.33404952 0.20042096 0.3895701 -0.05607157 0.39170337 0.46707857 0.6419639 0.68951035 0.15506697 -0.25413558 -0.2936469 0.13615157 -0.31519493 -0.0963377 -0.2350523 0.4293765 0.32415372 -0.24727164 0.05536156 -0.20856597 0.33288944 0.38279715 -0.12930515 0.089262456 0.08636628 0.9004798 -0.2815279 -0.41051802 -0.5130371 -0.460965 0.4281835 0.109360814 0.09853924 0.12702248 -0.10098753 -0.24620359 0.34142795 -0.026419288 -0.16480982 -0.81735784 -0.32934913 -0.25673756 0.7492594 0.3923462
85 0.4289615 -0.7489031 0.34617895 0.96583104 -0.35176715 -0.20492913 0.3634308 -0.9033941 0.42841294 -0.14876364 -0.8730023 -0.42897314 -0.09338767 0.14158112 0.65668637 1.2583292 0.22507708 -0.8292557 -0.068655774 0.9743132 0.039763 0.12716144 0.8107895 0.22652656 -0.4877212 0.6237176 -0.17191721 0.28857943 -0.09097557 -0.9438696 -0.04614181 -0.916383 -0.25791794 0.29460758 -0.23274332 -0.14679062 0.4718935 0.5254704 0.1556101 0.06684294 -0.027382957 -0.18300472 0.7519515 -0.13370179 0.7742252 0.14742552 -0.14475617 -0.08311196 -0.113244206 -0.74777734 1.2218573 -0.034958348 -0.31998757 -0.88122606 -0.47537547 0.39869964 0.44059995 0.33836266 0.039151892 -0.5274402 0.21904552 0.066792294 0.2777095 0.8567747
286 0.2971613 -0.30262774 0.00025837246 0.0035445376 -0.3859817 0.08482939 0.37362033 0.080503866 -0.064478956 0.053525418 -0.0143477265 -0.39942008 0.67903364 0.15369898 0.4628455 -0.16344672 0.001607687 -0.2019345 -0.20856376 -0.21591826 -0.3091227 0.62266165 0.014698958 0.08904798 -0.07814689 0.73759574 0.6988394 0.3549091 0.19269785 -0.19313475 0.43294054 0.4023301 -0.32935536 -0.33501968 -0.5102543 0.48135388 -0.29365385 -0.54964244 0.11846436 -0.081365265 0.049497508 0.18563922 0.32495487 0.37270567 -0.011568556 -0.22522616 0.17312883 -0.029962197 0.06845158 0.20618446 0.15646543 0.5455252 0.2890027 -0.08502889 -0.44235444 -0.14540568 0.18281008 -0.093357585 -0.22074308 -0.43050462 0.20004365 -0.4291601 0.03903381 0.49308196
101 -0.051387314 0.31086686 0.44204313 -0.5363058 -0.8533291 -0.91775393 0.029397584 -0.38283846 0.031436447 0.45377603 -0.4402328 -0.009615241 -0.051526736 -0.67019796 0.08271169 0.7547433 0.18274826 -0.21462414 0.35133076 -0.3726549 -0.8029424 0.97955495 0.13997816 -0.029824434 0.23697576 0.84580046 0.36477572 0.3142673 0.15395033 -0.3003639 0.50324166 0.06145912 -0.8236494 -0.07219811 0.013496715 0.84166825 0.9080415 -0.18976788 0.2560009 -0.14590327 -0.04982443 0.117441945 0.19441883 0.39425015 -0.6812538 0.9972789 -0.06495671 -1.3214312 0.07399623 -0.21682991 -0.04451954 0.16003521 -0.8895439 0.29034454 -0.30858067 -0.29001647 0.09569245 0.19586027 -0.47559088 -0.98466873 -1.3010525 0.0388786 0.78463787 -0.0023522112
40 0.23621078 0.23921816 -0.058142614 0.17735234 -0.21743922 -0.6459078 0.31557503 0.10323856 -0.45890975 0.24994268 -0.28359824 -0.22572352 -0.04451894 -0.17138682 0.2474883 0.1816707 -0.18100402 -0.067223035 -0.1345343 0.16851743 0.030406909 0.30045733 0.30012658 -0.3445973 0.31125015 0.024145411 -0.48070166 0.14552814 -0.4805579 -0.2195636 -0.04005982 -0.11264349 -0.08683912 -0.4912245 -0.22390038 0.07981106 0.19769397 0.21281599 -0.44891453 0.12921089 -0.017898528 0.055756334 0.2728556 -0.21136339 0.020799182 0.19131091 0.010464865 0.4660858 -0.07036545 0.29672742 0.23964138 0.2901061 0.17071548 0.14104015 -0.22966567 0.1405321 0.3931066 -0.023684477 -0.12800574 0.21363424 -0.24674527 -0.17409907 -0.12427928 -0.022484671
75 0.30400836 0.09953705 -0.056495443 0.38173094 -0.17188725 -0.5305006 0.36926875 0.019037578 -0.632958 0.46401775 -0.25827646 -0.16367605 -0.16842312 -0.20582306 0.3298479 0.09580062 -0.118278615 -0.16562833 -0.033936493 0.29125693 0.030097099 0.35813054 0.1398018 -0.2876981 0.21758705 0.047092676 -0.41667962 0.2737243 -0.3875894 -0.057210557 -0.002298994 -0.079698764 -0.07366388 -0.53307694 -0.036635123 0.10260186 0.2509239 0.14957964 -0.39363542 0.1872087 -0.077359006 0.18555409 0.23242109 -0.2977947 0.08090381 0.112311535 -0.095958844 0.35257152 -0.045838248 0.23690796 0.15040304 0.34204218 0.1621086 0.22371349 -0.09389122 0.24744606 0.5372977 0.021610744 -0.021228557 0.17042106 -0.3356279 -0.13778007 -0.040930785 -0.0075103347
155 0.040752187 -0.026711332 0.026602674 -0.23613966 -0.2715189 -0.44896483 -0.17905195 -0.14135762 0.12955266 0.69763374 -0.121479616 0.088407226 0.20625603 -0.5522569 -0.030203516 0.0944581 -0.06951474 -0.12412197 0.10635737 -0.20676611 -0.23798765 0.18081021 0.31047884 -0.10697191 0.3789234 0.4754022 0.6635135 0.6000079 0.0720213 -0.19890709 -0.30309135 0.18991308 -0.38592327 -0.05020276 -0.32392767 0.57543546 0.3737639 -0.2034406 0.060889367 -0.5249122 0.4069432 0.3494882 -0.2831855 0.05749826 -0.12192706 0.85547423 -0.19752847 -0.27738532 -0.5359411 -0.4838817 0.43371746 0.10413044 0.08376849 0.035855643 -0.12211416 -0.38641608 0.41411573 -0.0054021627 -0.38329852 -0.7204619 -0.3519197 -0.23787862 0.75744975 0.34533533
177 0.91975456 -0.76664335 -0.45922607 0.6524237 -0.7275945 0.34010985 -0.17799512 -0.049543917 0.8102351 -0.7574008 -0.3827521 0.2129063 0.25642073 0.099542245 -0.34480873 0.75015014 -0.6477826 -0.25743532 -0.81066185 -0.12904234 0.0639371 1.2630596 -0.25959575 -0.015004526 -0.0064495225 0.62515855 -0.2770589 0.72570115 0.04789137 -0.7193398 -0.7876186 0.09520308 0.7864494 0.0523166 -0.32746723 0.83592695 -0.57996154 0.356871 -0.3375867 0.1044489 -0.6200772 0.030340496 -0.3956951 0.31477758 -0.108706854 1.0248649 -0.47950435 -0.04030203 -0.29792622 -0.02788233 -0.034097668 0.5444369 -0.053670064 -0.4184003 -0.013778019 -0.56260085 -0.12210621 -0.07059054 0.07061373 -0.04669725 -0.5841995 0.437605 -0.3030605 0.89127535
401 0.23037122 0.338747 -0.59352934 0.06675198 -0.31779677 -0.40430766 0.026655447 -0.010650601 -0.040542908 -0.1453041 0.060782142 -0.13982409 -0.44884917 0.3173132 0.46234578 0.23856516 0.60518193 -0.5612565 -0.18810251 0.2478564 -0.105274476 0.11261655 -0.16479562 0.28036588 0.23673573 0.78870946 1.6897084 0.36336023 0.4805446 -0.28543106 0.34835607 0.3606779 -0.66439223 -0.13177282 -0.9954863 0.2767419 0.15233853 -0.80528486 0.014414639 0.18968631 -0.20777142 -0.010205202 0.31912225 0.49154755 -0.233595 0.095911026 0.023288986 -0.16736531 -0.20998383 0.3523201 0.5237683 1.012996 -0.3496272 0.042964008 -0.30574864 -0.9895256 0.23676556 8.6263775e-05 0.4677888 0.12682731 -0.037033964 -0.38082317 -0.8598546 1.2937922
381 0.28268582 -0.35963833 0.03077103 -0.07605732 -0.507972 0.15126382 0.25968748 -0.079207286 -0.21742855 0.08501401 0.00038079327 -0.3422903 0.61597824 -0.0009074829 0.40543273 -0.07161078 0.14565048 -0.18781188 -0.212714 -0.208131 -0.3478537 0.51839465 -0.07204836 0.14144285 -0.17944093 0.6941857 0.6623635 0.32056537 0.15322953 -0.17901243 0.396022 0.33990106 -0.19025318 -0.4330533 -0.7119692 0.5799942 -0.3351313 -0.46346772 0.10140558 -0.087946124 0.009543464 0.3226656 0.3082498 0.36363032 0.12716617 -0.17230538 0.05044143 0.01385067 -0.0066320645 0.11707145 0.1092532 0.41790447 0.39327106 0.009538373 -0.52513874 -0.27303043 0.20779026 -0.0039414987 -0.30552506 -0.47656238 0.22949252 -0.5110696 -0.05693714 0.37671408
134 -0.21114907 0.005255876 0.09727655 -0.062389504 -0.3579642 -0.4503003 -0.0864034 -0.10780357 0.102552205 0.6427857 -0.14650127 0.08938145 0.4052944 -0.54407734 -0.015505354 -0.004480414 -0.0812692 -0.13647862 -0.046426583 -0.36625338 -0.31101537 0.10858847 0.31785193 0.075794786 0.4316973 0.45378113 0.7194943 0.5914169 0.035661045 -0.20758678 -0.34748885 0.18283392 -0.30219287 -0.09797535 -0.17778353 0.4881309 0.33350906 -0.18352802 0.012159869 -0.37961861 0.22809795 0.30877298 -0.122291796 0.060654823 -0.09563913 0.9268567 -0.1333461 -0.46603724 -0.49091643 -0.45331028 0.47602704 0.13234593 0.18625367 0.019740332 -0.08682027 -0.3473531 0.47204652 -0.05875401 -0.1772543 -0.5955749 -0.37053418 -0.29033348 0.8147024 0.29476094
106 0.681158 -0.16645516 0.32785589 0.22420669 -0.30028322 -0.6209148 -0.48319468 0.09498022 0.14710584 -0.6596238 -0.4252812 0.013011792 -0.50934225 0.49060583 0.10386001 0.9374623 -0.3763397 -0.9930813 -0.04169911 0.9914873 0.27582467 -0.08290224 0.38855237 -0.14177129 -0.43722665 0.18574867 0.9212328 0.82513326 0.14588448 -1.3792535 0.42883688 -0.4374665 0.58392465 -0.121135354 0.16740693 0.34108606 0.9092566 0.21072163 0.08501846 0.38674873 0.5778498 0.37384722 -0.7769112 0.73645884 0.72231877 0.039005835 0.514826 0.045352478 -0.83956385 0.59353477 0.28590232 0.14446585 0.43891513 -1.0366887 -0.6196151 1.3276203 1.0266458 0.14368668 0.39054954 -0.15956664 -0.2795773 0.3256698 0.45738643 0.28756
323 0.02954047 0.41065845 -0.6478152 0.24608955 -0.5032038 -0.20306759 0.07198358 -0.040245485 -0.0636863 -0.15788071 0.1176181 -0.17020209 -0.44221795 0.3082395 0.4528914 0.16127788 0.7129105 -0.7655838 -0.2934385 0.18889672 0.00833797 0.046691794 -0.076826 0.34322587 0.114527136 0.8972201 1.4924098 0.2583869 0.44072706 -0.30893514 0.40726188 0.3860505 -0.715349 -0.2079519 -0.8067248 0.28245422 0.08480459 -0.7681138 -0.0017242794 0.11702329 -0.1918587 0.16769129 0.14341149 0.53581953 -0.2533044 0.19174866 0.026510837 -0.23410344 -0.042409822 0.3030725 0.51429844 0.9701806 -0.27826667 -0.13514747 -0.30097005 -0.9659766 0.3560692 -0.103711285 0.38704273 0.27690843 -0.08445195 -0.38680542 -0.90029 1.124431
439 0.2398282 0.20955394 -0.07111485 0.327677 -0.2933249 -0.6011748 0.30312598 0.007134028 -0.4372843 0.4697946 -0.20620242 -0.3092442 -0.027296336 -0.26591122 0.12900916 0.04404119 -0.18815272 -0.1501761 -0.21763976 0.23995204 0.15857746 0.35847625 0.072963074 -0.37125263 0.2962592 0.06848456 -0.50468117 0.18556176 -0.3551005 -0.23190427 0.024048423 -0.15355742 -0.26952657 -0.38384914 -0.03553972 0.037342522 0.27414814 0.14907192 -0.4238966 0.1810122 -0.1603107 0.26476282 0.18126613 -0.18439482 0.10282645 0.16874671 -0.021812305 0.3122872 -0.04443959 0.17250913 0.17450255 0.2798874 0.222897 0.15947141 -0.13495724 0.2164023 0.51759505 -0.04103053 -0.1319734 0.27745906 -0.3103496 -0.11347488 -0.23976116 -0.017405044
202 0.41809446 0.47365722 0.67406607 1.1571919 -0.22150546 -0.60617065 0.37279302 0.019677734 -0.42029142 0.20716314 -0.13653706 0.6206114 0.06481586 -0.4949053 0.012820373 0.17310375 -0.24920894 -0.11896309 -0.055660006 0.45669627 0.30066296 0.73801476 0.3811845 0.548316 0.11710465 0.45069247 -0.116179675 0.5109307 -0.38914487 -0.24526355 -0.24831027 -0.88477886 0.351071 0.15253621 -0.49230555 -0.21513702 -0.36714664 -0.8563767 0.33875364 0.28594595 0.43616664 0.7489696 0.17282055 0.23863968 -0.05936105 0.31133446 0.21038243 0.6539844 -0.72948474 0.47837263 -0.024282994 0.53295827 -0.67087686 0.43566278 0.64525104 -0.07964199 0.0960999 -0.65309054 -0.79583186 0.67645305 -0.56414866 -0.72747886 0.16309719 0.14997356
186 0.8231137 0.76015145 0.029633781 -0.19947135 -0.65818065 -0.7904053 0.42537114 0.051379662 0.12356877 0.31154168 -0.066551216 -0.65585715 -0.21592858 -0.12784228 -0.14080025 -0.04986078 -0.038600016 0.5738748 -0.22545412 0.63224095 -0.38321412 0.40983775 0.34995875 0.05117887 0.079768695 0.024545053 -0.7044189 0.92941296 -0.62351006 -0.1754008 -0.4392502 0.39495555 -0.59255934 0.36945555 -0.85310537 0.03542784 0.123535946 0.13574067 -0.1910795 0.16392708 0.36641362 -0.57265306 0.17724603 -0.4274146 0.6088823 0.24191496 0.31300926 0.7810401 0.5044884 0.051363602 0.031033471 0.062853225 0.6581849 -0.3154474 -0.2093249 0.5048587 0.42686206 -0.0542986 0.096668474 0.8540131 -0.9142862 -0.06379504 -0.040829413 1.0313941
280 0.49411362 0.16191524 0.51656455 0.019011829 -1.4079621 -1.1113881 0.61339873 -0.45215854 -0.6048874 0.7378928 0.022909185 -0.21450949 -0.5729341 -0.08153363 -0.09148517 0.105993144 -0.55936146 0.29796594 -0.5089569 0.10494072 0.29144484 0.025769813 0.53831613 -0.5242777 0.53964263 0.627385 0.08343503 0.15893626 0.20998986 0.22537723 -0.47817516 -0.16041628 0.15999638 -0.13506472 -1.0098162 0.3295629 0.7720946 0.43084574 -0.3138546 0.6115297 -0.02157611 0.20929652 -0.062196523 -0.28288168 0.094528034 -0.39647692 -0.13022678 0.58102787 -0.3132085 0.45207664 0.2563989 0.31933355 -0.311969 0.6681508 0.47835863 -0.019025011 0.41006666 0.34970734 0.52405643 0.41989475 0.0773215 -0.40340948 -0.20446308 -0.11788323
68 0.9246974 -0.46528098 0.19908571 0.107254826 -0.22162673 0.05887307 -0.18139614 0.24890159 0.14031693 -0.15258227 -0.61179966 -0.076762155 0.5025603 0.3936104 0.061119657 0.5034946 -0.34997323 -0.006883074 -0.87372744 -0.06359613 0.33290422 0.87134635 -0.09184746 -0.06011315 -0.009217716 0.9867686 -0.0726739 -0.049084403 -0.033473946 -0.4080335 -0.8473985 -0.6321715 0.30296275 0.1352923 0.06832452 0.7226801 -0.43111625 0.11945989 0.0457789 -0.23766254 -0.57042557 -0.11295622 -0.39659986 0.057140276 -0.058286984 0.4757191 -0.2620227 -0.024893396 -0.30300233 0.03747705 -0.110974275 0.66076577 0.041645918 -0.30739388 -0.031240337 -0.532801 0.22232836 0.10123249 0.3769806 -0.2145814 -0.59652466 0.28249 -0.19904521 0.30840594
30 0.9563713 -0.53822196 0.08988935 0.15881975 -0.18006916 0.093757056 -0.05277428 0.22235852 0.08566559 -0.12057658 -0.5727111 0.025650475 0.47053176 0.44035703 0.051160134 0.5832723 -0.2905401 -0.02857507 -0.94129294 0.12141041 0.24702206 0.9531883 -0.11845543 -0.008300514 0.033843406 1.0055838 -0.0876517 -0.04796894 -0.107726954 -0.32255524 -0.86802197 -0.5084789 0.42964858 -0.012903441 0.06878542 0.71700704 -0.43681648 0.2098333 0.13779756 -0.2796721 -0.499326 -0.19580738 -0.33556852 0.010609058 -0.12474883 0.48573843 -0.2578361 -0.05064812 -0.31547347 -0.051129423 -0.049916737 0.6134938 0.021221472 -0.41264158 0.062527575 -0.40523404 0.2203131 0.208963 0.4021274 -0.24786903 -0.59622985 0.07757814 -0.16556142 0.22471792
208 0.3996767 -0.57339126 0.42880997 0.9303341 -0.36662936 -0.18631282 0.35008815 -0.9287762 0.44998014 -0.13447686 -0.76044995 -0.45198122 -0.06366999 0.079367965 0.6006399 1.1761451 0.25554752 -0.7754537 -0.068782784 0.8660034 -0.057352774 0.097388476 0.7935308 0.17313756 -0.3682704 0.6223375 -0.08778481 0.2637894 -0.012818234 -0.98904294 -0.052726835 -1.0527679 -0.19610249 0.34799355 -0.1771327 -0.08690272 0.45704487 0.5733004 0.14761347 0.11595882 -0.18011059 -0.16568565 0.7206381 -0.017071124 0.71304595 0.18944176 0.01712857 -0.10318804 -0.007488887 -0.8713128 1.1626178 0.059345387 -0.3034923 -0.78596824 -0.39605796 0.4815065 0.5073483 0.42357343 0.034782004 -0.5105048 0.2590988 0.048036646 0.18910019 0.84888154
181 0.5876274 0.010304115 0.4046299 0.117928825 -0.29134372 -0.7547007 -0.6150461 -0.018625213 0.23040046 -0.6929304 -0.50047946 -0.019915877 -0.5606146 0.60249674 0.1626495 0.78675693 -0.49144635 -0.86098474 0.12281399 0.90338767 0.3242395 0.05342641 0.40701646 -0.16689269 -0.6007122 0.28167287 0.7817111 0.8094705 -0.0034531744 -1.3944179 0.4996731 -0.566287 0.6441751 -0.119829476 0.20945622 0.4242416 0.94405407 0.19302027 0.2665695 0.46602196 0.2965605 0.3715114 -0.5905082 0.779364 0.7015043 0.23977444 0.509244 0.19143501 -0.83518404 0.74322397 0.21643333 0.22996488 0.38423783 -1.0106717 -0.62988 1.2751023 0.90781724 0.31460363 0.40238592 -0.24471682 -0.20396157 0.19704571 0.48923993 0.22041617
41 0.30247623 0.26913866 0.014815729 0.50321746 -0.2916272 -0.493492 0.24489293 0.11050641 -0.4982963 0.5206249 -0.24471322 -0.26330808 -0.12580483 -0.20093891 0.28217426 0.16560404 -0.038059052 -0.15707171 -0.26962444 0.21639957 0.060649067 0.43388262 0.18938847 -0.3362102 0.35761368 0.07751995 -0.5462855 0.3135871 -0.33335587 0.025324218 0.083194874 -0.06603069 -0.08743542 -0.6285914 -0.19315603 -0.011433556 0.26314622 0.18694262 -0.28241736 0.069915034 -0.09827316 0.19740666 0.10577444 -0.2884583 0.02142748 0.27746108 -0.04504666 0.4473655 0.14337844 0.1676121 0.13952665 0.29185098 0.2209739 0.17146714 -0.23139663 0.24312355 0.5698573 -0.13957192 -0.0023330697 0.30168992 -0.181756 -0.046941705 -0.07196541 0.042916957
157 -0.021249074 0.012369478 0.071856186 -0.28906828 -0.2786403 -0.5497174 -0.047242794 -0.20482622 0.11474626 0.8179695 -0.08322008 -0.03644052 0.27760172 -0.54166394 -0.09947043 0.09436359 -0.16932173 -0.075768374 -0.089536615 -0.4512891 -0.25938228 0.19983019 0.3262764 0.017143806 0.28625524 0.39056304 0.7252152 0.78796947 0.07580619 -0.21430244 -0.24895057 0.13183992 -0.3888537 0.008520219 -0.14638312 0.4371754 0.275896 -0.27236387 0.015093868 -0.3283024 0.28545535 0.21564288 -0.057926644 0.17963038 -0.09116188 0.8608336 -0.20205137 -0.47611067 -0.5288652 -0.4386206 0.51287055 0.095970064 0.13044384 0.009495066 -0.09071728 -0.34480193 0.45070785 -0.0056500905 -0.2774225 -0.6193702 -0.3281846 -0.27829725 0.7399315 0.31737313
148 0.33921367 -0.5260424 0.54026604 0.8798912 -0.39610854 -0.1851957 0.35321468 -0.9368718 0.4244683 -0.1828889 -0.8677746 -0.52703905 -0.080507725 0.18518612 0.7674182 1.2407055 0.17140035 -0.87692696 0.044283185 1.0012801 -0.06162691 0.079841524 0.79690933 0.20950982 -0.62298924 0.63345754 -0.22674182 0.25486395 -0.0628445 -0.99081886 0.030072585 -0.999484 -0.3283528 0.43301743 -0.21637286 -0.09662914 0.34865543 0.52666205 0.23201263 0.13884717 -0.118201524 -0.016276175 0.80598986 0.10662705 0.61394453 0.20852117 -0.20983739 -0.09218572 -0.07371385 -0.80396986 1.0585307 0.03516545 -0.30220935 -0.9103598 -0.40695623 0.4511004 0.5947043 0.4046543 0.10118603 -0.60838896 0.1972566 0.10456656 0.22240418 0.8756911
123 0.85101366 -0.76216 -0.35283703 0.6616228 -0.7089765 0.34915125 -0.16869351 -0.2509943 0.7029541 -0.79578555 -0.4690655 0.14496316 0.20198455 0.05675787 -0.24780554 0.5905873 -0.7551506 -0.17913489 -0.9610384 -0.14843597 0.07258192 1.2723265 -0.42434046 0.09616912 0.026320547 0.64064884 -0.1769369 0.51526505 0.060784046 -0.7882381 -0.84265316 0.18727633 0.75050205 0.057667904 -0.32186905 0.67695385 -0.41798013 0.40523025 -0.1718086 0.08544135 -0.7592778 0.03616238 -0.38779145 0.3744093 -0.25663072 0.941132 -0.49662793 0.009199036 -0.3921664 -0.13420165 0.04138648 0.52545166 -0.095838346 -0.4177224 -0.102796726 -0.37979963 -0.04829987 -0.12690018 0.13379295 -0.13368717 -0.7073651 0.46158198 -0.2572611 0.8671696
222 0.28694424 -0.25432613 0.3831423 -0.4702651 -0.49092016 -0.359693 -0.081798196 0.33523798 -0.17661658 0.6665108 -0.90577507 -0.5439864 0.95362806 -0.3887199 0.70053643 0.84270453 -0.5979295 -0.21801974 -0.005865294 0.31375936 0.0809925 0.6856182 -0.022652833 1.0736789 0.5838059 -0.09889212 1.7378312 0.8456239 0.533929 0.8128154 0.17531495 0.48033506 -1.2468139 -0.45149344 -0.012140197 0.42435423 -0.63614 -0.020270452 1.1286452 0.16694348 -0.655331 0.80517334 -0.27003235 0.3324977 -0.0039008833 0.5816182 0.12507968 -0.027226545 -0.8965096 0.36829478 0.25399897 -0.423988 0.6906209 0.2561463 -0.7523709 0.16290742 0.59335995 -0.31920055 0.072276615 -0.48303026 0.07532649 0.55782914 -0.010485031 -0.0034699293
345 0.33181125 -0.26462224 -0.02562096 -0.10393476 -0.5177305 0.15613975 0.4699284 0.021342887 -0.2247115 0.07062783 0.057482697 -0.2955373 0.5899174 0.029552871 0.45404357 -0.116881035 0.2343127 -0.31118742 -0.25143084 -0.15855198 -0.24456309 0.55238485 -0.060715266 0.16008481 -0.0073916703 0.66974175 0.8420237 0.3562204 0.21386048 -0.20013392 0.32119972 0.4033743 -0.11472616 -0.4169032 -0.5349652 0.6449148 -0.41371995 -0.4323329 0.23047097 -0.020281123 0.1199722 0.2640751 0.2857669 0.33390328 0.08073495 -0.15544523 0.1462601 -0.040817585 0.088017985 0.09143599 0.14449127 0.43964633 0.34170738 -0.09375054 -0.39131394 -0.12731922 0.2954947 -0.006268047 -0.21958286 -0.4883549 0.20121065 -0.44662914 -0.006717209 0.40590206
84 0.39206767 -0.595791 0.40374717 0.83282 -0.30454153 -0.20730624 0.35027876 -0.81449574 0.4822632 -0.18717876 -0.79253536 -0.5286017 -0.1279322 0.055178564 0.70286965 1.2206461 0.18749599 -0.7893821 0.07787259 0.98837924 0.12984225 0.09324529 0.8266311 0.23489271 -0.5303709 0.7559799 -0.18339941 0.19965485 -0.019696986 -1.0180283 0.007819971 -0.9572836 -0.2702115 0.37126952 -0.2803317 -0.062626 0.4589018 0.49220568 0.18525094 0.26157048 -0.217627 -0.06298645 0.7592925 -0.07362188 0.6682297 0.28466192 -0.049764395 -0.0866813 -0.1325547 -0.8075872 1.1241391 0.011540743 -0.25798008 -0.99433005 -0.3085479 0.42562136 0.56749177 0.47684446 0.007848725 -0.6353438 0.19345072 0.11338424 0.25254163 0.82578385
230 0.21070564 0.26342443 -0.27058595 0.24987558 -0.63494945 -0.3024719 0.46972507 -0.03571313 -0.12213926 0.577388 -0.03019828 -0.3306734 0.58336616 -0.374013 -0.37405688 0.43203533 -0.3551222 -0.48785108 0.4763485 -0.38687843 -0.8553104 0.9882115 0.6674377 0.5896933 -0.19505589 0.03659443 1.1285886 0.8037607 -0.4863726 -0.36128673 -0.2988194 0.16682507 0.0141400155 0.41558647 -0.54346365 0.6066636 0.4513966 -0.13974307 -0.3570636 -0.7620249 -0.0838003 0.8763343 0.0051456457 0.024165992 -0.05397247 0.93395704 -0.27058643 -0.5109772 -0.55450785 -1.0814043 0.22212836 0.14517546 0.025878793 -0.32706183 0.3921322 -0.2803946 0.27281764 -0.006598851 -0.03870815 -0.63043237 0.017624965 0.7426466 0.7211368 -0.30385163
149 0.13570613 -0.7154564 -0.37985593 -0.23930438 -0.26209632 -0.5388371 -0.33947924 1.5250535 -0.9557027 -0.28977627 -0.2557901 -0.00456962 0.36975676 0.78537136 0.7126487 0.541805 0.37003815 -0.59938854 -0.09063029 -0.4189851 -0.074613675 0.33489576 0.88327426 0.78982955 -0.5883331 0.6438635 0.6875777 1.0374933 0.3243263 0.33727512 -0.73939687 -1.0860403 -0.21486779 0.06567702 -0.3387629 0.4593764 0.8781503 0.9150878 -0.55012673 -1.006066 -0.69381976 0.23161398 1.0637491 0.2939164 1.2996805 1.1569729 0.15276212 0.47545028 0.9501465 0.7267409 0.5626833 -0.17594677 0.4723809 0.40021417 -0.34737998 1.0324396 0.8852564 1.0123923 -0.8817375 1.7804629 0.48567146 -0.23375826 0.17849806 0.104604885
20 0.24717312 0.08564785 -0.17707267 0.42142966 -0.32558554 -0.5991853 0.3045746 0.09486719 -0.51072043 0.43596777 -0.10294788 -0.34448278 -0.110373825 -0.20425299 0.30085987 0.16583371 -0.09155686 -0.16669554 -0.11567344 0.19305071 0.05543501 0.2634541 0.26174104 -0.2841097 0.29393873 0.06062081 -0.57854956 0.21734674 -0.43419763 -0.2595487 0.022384996 0.01843889 -0.17216927 -0.42464933 0.004353096 0.089718655 0.21711463 0.22345789 -0.15710641 0.15807003 -0.07353809 0.28755438 0.063199654 -0.2161553 0.19951406 0.14781617 -0.03958225 0.41507667 -0.15548895 0.09228517 0.10829341 0.32224166 0.32856172 0.24004854 -0.05453315 0.1569125 0.40835845 -0.063223585 -0.043146756 0.27607936 -0.47848734 -0.18194917 -0.26781678 -0.04607973
46 0.8006384 -0.49853596 0.165316 0.021830402 -0.1560402 0.08295245 -0.04582508 0.27618092 0.0368904 -0.20275657 -0.54436946 -0.121010475 0.36249143 0.5877378 0.030987035 0.5105994 -0.2064712 -0.074804805 -0.9017119 0.12629591 0.3253391 0.99873865 -0.16019636 0.047997195 0.13341723 1.1398655 -0.11111932 -0.09504344 0.12513137 -0.29726955 -0.86853665 -0.5335232 0.4236041 0.06843449 0.09108602 0.6641628 -0.35707292 0.18373255 0.06337008 -0.17934544 -0.504592 -0.060198914 -0.41271555 -0.044283807 0.04101506 0.4664485 -0.14561771 -0.052892026 -0.30026528 -0.02946301 -0.0023202915 0.56441206 -0.022058113 -0.3882777 0.05104676 -0.4830955 0.29770094 0.037426602 0.43029508 -0.20975274 -0.709559 0.15216774 -0.112783894 0.3158267
277 0.1526309 -0.3478538 -0.081149645 -0.49943143 -0.49484777 -0.47845557 -0.45433122 0.10466515 -0.17608263 0.5422808 -0.563633 -0.005558551 0.53360057 -0.39552173 -0.12525126 0.059871357 -0.25274056 -0.28646004 -0.09621782 -0.09820095 -0.25208235 0.3385901 0.4709024 0.6914128 0.085024595 0.5022849 1.2801503 1.1259174 0.079337426 -0.108258724 0.4776546 0.04015959 -0.96411806 -0.52197564 -0.2523313 0.5013304 -0.5266191 -0.08699799 0.21909988 0.23693725 -0.3896182 0.52285266 -0.27552533 -0.096663274 0.15554225 0.1865477 -0.23188362 0.22574687 -0.14520167 0.2590489 0.21988133 -0.23591562 0.15364492 -0.48376092 -0.38419333 -0.37637478 0.11690569 0.15707916 -0.23891807 -0.8453777 0.06961857 0.046975914 0.099441275 -0.29614124
257 0.33707345 -0.36328056 0.07320073 -0.13793726 -0.44318512 0.08144678 0.2343087 -0.014708946 -0.14994407 -0.03755371 0.14599904 -0.41299868 0.52165544 -0.036307465 0.47364298 -0.07510305 0.14764673 -0.16787176 -0.24012075 -0.1546281 -0.26342404 0.6326823 -0.0662377 0.14576489 -0.11820211 0.6624003 0.65102583 0.32857713 0.18020156 -0.08507738 0.2584464 0.36143652 -0.17509519 -0.37674037 -0.66331613 0.5893173 -0.30557054 -0.46131814 0.25064972 0.024107855 0.06853243 0.3162887 0.31508777 0.40909025 -0.045338742 -0.08986871 0.117010415 0.04318828 0.20505014 0.16409583 0.08886794 0.47672755 0.28898564 -0.02847162 -0.4330351 -0.2682666 0.3504644 -0.12309747 -0.2526909 -0.45326173 0.23182715 -0.45061797 0.06671862 0.42928097
262 -0.10297343 -0.3452129 -0.8750949 -0.45395917 0.2958209 -0.66675186 0.09823714 0.6603536 -1.0797762 -0.08433329 0.089428715 0.2812773 0.10362776 0.36354882 0.35220057 0.12641935 -0.17881557 -0.41868448 -0.17321838 0.013467721 0.18936984 0.74937487 0.887598 0.12823807 -0.3270105 0.44611165 0.4574367 0.6158977 -0.5365971 0.3079862 -0.82570523 -0.7325772 0.284683 0.5644104 0.047771357 0.019922497 1.0477284 0.8593916 0.06321665 -0.38922057 -1.1278546 0.6490926 0.90825117 0.43844062 0.77854365 0.5193437 0.05289616 0.27483687 0.48495978 0.33040562 0.865364 0.20538472 0.57325786 0.20448752 -0.7452186 0.69772315 0.69984394 0.33150154 -0.36603856 0.5896922 0.12343202 -0.7089465 -0.18435189 0.049312573
65 0.89746153 -0.5087263 0.17396887 0.13047305 -0.29903474 0.17513926 -0.027487364 0.31172004 0.019973904 -0.11048689 -0.5373175 -0.0025670181 0.4046162 0.6233963 0.021634642 0.5338899 -0.22825055 -0.12616406 -0.84345156 0.1823881 0.20201531 0.91474915 -0.17644699 -0.026501708 0.087521724 1.0222986 -0.08837612 0.0006927664 0.036194943 -0.3717398 -0.898414 -0.5014791 0.40996614 0.09634338 0.06790857 0.7325897 -0.48197094 0.3111088 0.11275136 -0.18321148 -0.45642272 -0.17178144 -0.37481156 -0.017162014 -0.028708767 0.5389959 -0.16260749 -0.011312008 -0.29898873 -0.08913913 -0.05191453 0.6090153 0.09681288 -0.29698867 0.044201262 -0.5115634 0.15769738 0.035239294 0.29789808 -0.28919998 -0.6808956 0.17690448 -0.23053497 0.344726
212 0.12566715 0.5848439 0.8021068 1.1409726 -0.44674784 -0.53610027 0.44260013 -0.14664364 -0.37489948 0.093973935 -0.25404108 0.60709226 0.06777948 -0.33814383 0.08994669 0.09266615 -0.13226467 -0.13248818 0.004479442 0.35983846 0.22990885 0.70813847 0.34819838 0.6115056 0.18983734 0.46714613 -0.10360334 0.51446795 -0.41821072 -0.13389859 -0.32289737 -0.7636965 0.41604152 0.08563989 -0.6281142 -0.23744279 -0.4351353 -0.6475509 0.19840474 0.37744847 0.40876657 0.64550745 0.21175203 0.1244556 -0.14451088 0.4878975 0.23541082 0.8922041 -0.62860477 0.36029166 -0.019218279 0.3685403 -0.45359948 0.44247198 0.44259137 -0.009197204 0.157934 -0.6206303 -0.69322723 0.7523022 -0.6702831 -0.78714263 0.25081143 0.30528226
251 0.33597988 -0.25826383 0.11413743 -0.05558342 -0.3580592 0.2548668 0.48989344 -0.063088484 -0.14867097 0.07629251 0.1445487 -0.3996788 0.54255474 0.034634467 0.40334147 -0.028566577 0.043240465 -0.22518808 -0.23161349 -0.10103881 -0.2447394 0.601056 -0.070815556 0.15504687 -0.084173426 0.64118755 0.80053914 0.31389222 0.19036886 -0.20329908 0.30082473 0.33027083 -0.19120929 -0.49010852 -0.54867697 0.5015651 -0.36706963 -0.4286923 0.12343909 -0.167053 0.041469138 0.24368966 0.3606124 0.3477468 -0.044038646 -0.11903925 -0.003225302 0.012932429 0.14735289 0.3132828 0.20436525 0.43573847 0.39274257 -0.023236234 -0.5041173 -0.17082569 0.17552264 -0.07803956 -0.17948328 -0.43416378 0.1845706 -0.51277936 0.066199124 0.62639546
283 0.44838956 -0.35994375 0.16571777 -0.0298283 -0.40430173 0.19766204 0.3696104 0.119743384 -0.2002176 0.059517123 0.24985594 -0.32650694 0.3993273 0.107964866 0.5089919 -0.094012484 0.17701335 -0.30901358 -0.2364999 -0.15413588 -0.14953388 0.65594244 -0.04888199 0.12914926 -0.1454652 0.5304807 0.65499437 0.4938841 0.21853 -0.15819053 0.3667261 0.4497048 -0.25107318 -0.26376024 -0.5760006 0.6209225 -0.3396274 -0.43196356 0.40640587 -0.13444081 0.052844062 0.29759234 0.3621266 0.38351575 -0.07404267 -0.047425106 0.18092763 0.043273326 0.09507422 0.20308569 0.18020274 0.5023668 0.2520801 -0.11299103 -0.56053656 -0.25948742 0.2940245 0.029093808 -0.31242606 -0.53393644 0.15274347 -0.36219198 -0.1456666 0.40784165
60 0.23437077 0.21528396 -0.037630383 0.4286164 -0.33884972 -0.6137173 0.31695172 0.04883054 -0.5040282 0.5543812 -0.26456898 -0.12890671 -0.17292061 -0.0108168945 0.20943284 0.16913222 -0.23699574 -0.12694229 -0.11122806 0.10686524 0.22464822 0.34339368 0.13723335 -0.39173013 0.10260889 0.16061005 -0.55550736 0.44020894 -0.3751915 0.030507449 0.07008527 -0.24941055 -0.18847293 -0.41787404 -0.19826691 0.046323597 0.16310947 0.3533554 -0.35308516 0.048615683 0.06304249 0.13906488 0.08580419 -0.29605842 -0.025460804 0.1252341 0.0075775003 0.3516866 -0.12775125 0.14837016 0.046722807 0.27499855 0.26399618 0.226033 -0.14965984 0.12673333 0.39532602 -0.09477614 -0.13666843 0.26164103 -0.17021881 -0.0634021 -0.20435748 0.20541094
189 0.008187644 -0.08708236 0.08368403 -0.24438903 -0.26519185 -0.58436817 -0.062309977 -0.15466452 0.15539578 0.7548432 -0.1689543 0.16854583 0.42807424 -0.5133735 -0.077752836 0.14827816 -0.08617554 -0.13574243 0.09899701 -0.27905983 -0.30612725 0.15162158 0.3664993 -0.15873565 0.2500885 0.4483815 0.62934536 0.6427491 0.07080233 -0.2818286 -0.3855251 0.14705533 -0.40338573 -0.14589942 -0.260362 0.5245838 0.42007852 -0.23839237 0.012662848 -0.2892437 0.31001565 0.2818484 -0.11838347 0.058008917 -0.115180135 0.908881 -0.16874498 -0.49047247 -0.5157091 -0.4399626 0.370115 0.0964622 0.101468496 0.057644766 0.003329515 -0.3891088 0.35235918 -0.08318445 -0.34544712 -0.685415 -0.3477603 -0.2784964 0.78771544 0.39012623
