468 64
462 0.15111941 -0.3424851 0.31412432 0.3515341 0.20645413 -0.36977538 0.14481884 0.12653203 -0.3863543 0.21973656 -0.07981245 0.114969514 -0.17561921 -0.23578939 -0.10391327 0.14805849 0.42141744 0.41717595 0.15241839 0.2975198 -0.005484133 0.022526566 0.29227364 0.55034274 0.45086008 -0.13878235 -0.2958657 0.24196574 0.025157554 -0.11416392 -0.0658015 0.463655 0.3160064 0.094390936 -0.21844597 -0.2514721 0.3693053 -0.22919388 0.09099413 0.13239115 -0.73160684 0.26987258 0.056252636 -0.45280674 -0.0034323942 0.20660926 -0.26112133 0.3674759 -0.640759 0.2793154 -0.4237922 0.047107242 -0.031142317 0.087750986 -0.13805313 -0.17287 -0.19999802 -0.14091969 -0.41408855 0.37980062 -0.11404795 -0.09029719 -0.33461547 -0.27294508
467 -0.14188507 -0.18746823 0.22227736 -0.1729051 -0.39971814 -0.26995707 -0.0868447 -0.27498913 0.40692076 0.41351926 0.06381998 -0.23344046 0.23669623 0.34323537 0.01654907 0.1442846 -0.36583835 0.14015423 -0.25579783 0.5804071 -0.28077847 -0.07061509 0.63353103 0.23905072 0.36211768 0.39389834 -0.047006164 -0.08871801 0.18879072 -0.40156153 0.4903176 -0.106165916 -0.22263284 -0.19480981 0.19977899 0.0690359 -0.19512741 -0.19060814 -0.040111467 0.8610121 -0.12266396 0.38857508 -0.024682766 -0.36765257 0.00447971 -0.06958359 0.4944059 0.4182732 -0.46967295 0.12674193 -0.5946577 0.33844468 0.42210284 0.40222412 0.18465778 0.67258716 -0.20138387 -0.12792747 0.13912956 -0.0007029732 0.13200776 0.39575407 -0.069734424 0.6074531
465 0.06521376 -0.031899005 0.3510717 -0.3870198 0.13993333 0.13738795 -0.37505946 -0.40386847 0.6698963 0.022854691 0.6273561 0.10508151 0.10127342 0.18349113 -0.2807242 0.26399598 -0.08554586 0.3447938 0.5873653 0.11604187 -0.37704727 0.12521087 0.45344955 0.19975717 0.27323577 0.15086696 -0.43122777 0.179321 -0.15536366 0.08494343 -0.0027805264 -0.602993 -0.37295496 0.25841373 -0.5022446 -0.43160513 -0.51445293 -0.32049868 -0.04047203 0.49764884 -0.28389165 0.6409 -0.018049782 -0.90900534 0.37908196 0.19006914 0.5575608 -0.0034884014 -0.4163515 0.14788239 -0.2772127 -0.13240556 -0.45769194 0.18277034 0.25617307 0.31756023 -0.13581054 -0.09430822 0.33707815 0.40122807 -0.31421396 0.29733044 0.4880719 -0.15497404
247 0.6124227 -0.5556501 -0.11955101 0.3071871 -0.22164059 0.024117451 0.013042348 0.2593215 0.18143813 0.24492727 0.33153468 -0.7270778 0.5172818 -0.058234423 -0.21447459 0.68018943 0.3401042 -0.014767396 -0.22175415 0.45335343 -0.0882876 0.5650776 0.6988362 0.14416027 0.43105754 0.40391243 -0.17536357 -0.12509024 0.93828636 -0.5293995 -0.2809705 -0.65400475 -0.254424 -0.9171831 -0.35874873 0.1378912 -0.14516628 -0.22868346 -0.54084533 0.07035342 -0.2267877 -0.41303125 0.0128109325 -0.92223555 0.43996716 0.08830386 0.04628241 -0.44895595 0.13555929 0.27858037 -0.008183501 0.01967597 -0.1084226 0.08987575 -0.026359575 -0.25461164 -0.1649048 -0.40957427 -0.0314664 -0.29707322 -0.6231906 0.1026632 -0.57415164 -0.58961755
436 0.38953722 -0.46019688 -0.0881087 -0.11601895 0.46924752 -0.30633658 0.07616284 -0.089974366 -0.41026485 -0.11947225 0.0052535096 -0.51783234 0.14721335 -0.23166882 0.23025426 0.26771393 0.26210815 0.1021467 -0.03069306 -0.028419847 -0.097847946 -0.039253622 0.39809087 -0.07330373 0.43786502 -0.4966228 -0.14051254 -0.5617427 0.027017351 -0.29851693 -0.25490505 0.1929435 0.1984495 0.02413134 -0.53779596 -0.32938987 0.43529016 -0.35438433 -0.09524474 0.63124675 -0.055887114 0.25856063 0.074958906 -0.7785538 -0.927752 0.23957784 -0.2958447 -0.82199055 -0.1643286 0.03272045 -0.19019794 0.35818553 0.41016534 -0.42582878 0.16531903 0.08082551 0.0470272 0.022523329 0.13935857 0.3552512 0.41130656 0.32089216 0.033635728 0.039357394
216 0.58161646 -0.59465414 -0.2284365 0.30496797 -0.6615336 -0.4193569 0.21038345 -0.0097681 -0.08056184 0.18956995 0.8023809 -0.39413372 -0.4974248 -0.19855866 0.04027532 0.7895558 0.41097912 -0.037134856 -0.09659093 0.330935 0.2911279 0.24572325 0.53827834 0.146486 0.04017303 -0.31345478 -0.447736 0.66809595 -0.30328444 -0.8808709 0.6529743 0.49959916 0.22620659 0.85633326 -0.0136535885 -0.1285151 0.5031845 -0.7693762 0.08746202 -0.031627353 -0.31355682 0.0076074204 0.32079574 -0.13281092 0.059608053 -0.7917157 0.37261817 0.23964562 -0.22844645 0.09268234 -0.33930382 0.12186242 0.31881568 0.8761024 1.1189486 -0.33610207 0.4008151 -0.29733264 -0.49516562 0.37830287 -0.6031157 -0.37668827 0.39593008 -0.5426811
431 0.5165145 -1.3036937 -0.02662123 -0.2222752 -0.5320452 -0.09123112 -0.76318645 -0.3859068 -0.7852287 -0.7888496 0.5107097 -0.24512029 0.06262234 -0.028073652 0.22175252 0.47820583 0.179872 0.42449352 0.069362186 -0.08743301 -0.26236403 -0.54202384 0.23521732 -0.43195233 0.4374417 -0.1321839 0.41661033 -0.2403145 -0.4045077 -0.4906604 0.013102401 0.075401105 -0.48155725 0.18763644 -0.5684597 0.040439643 0.7167166 -0.9462083 0.25103542 0.43192536 -0.2691251 0.042040665 0.08682106 -0.13256235 0.25206482 -0.26256785 0.051169895 -0.6083898 -0.084391564 -0.02158055 -0.26052958 -0.13347341 0.40854904 -0.2586984 -0.4524187 0.45973563 -0.31576133 -0.59349024 -0.007821798 0.3800962 0.36423546 0.27380398 -0.35638115 0.31592247
460 0.4492639 -0.2714666 0.14622429 0.5191144 0.4909151 -0.8276859 -0.40706715 -0.16522025 -0.1827883 -0.07008786 0.18851419 0.28664753 0.2853548 -0.47038746 0.12634134 0.09494147 0.55101323 0.44291157 0.10252802 0.032000497 0.09595135 0.14863174 0.20757174 0.019861536 0.15779005 -0.4512433 -0.33888188 -0.2969754 -0.50487643 -0.44402042 0.831482 -0.14125697 0.27604857 0.20559484 0.023489453 -0.29936594 0.47968706 -0.60833097 -0.29103318 0.18188837 -0.2952073 0.3812771 -0.52301735 -0.31634253 -0.74407893 0.45164177 -0.2505998 -0.19591717 -0.26418808 0.06235218 -0.34704828 0.4207361 0.33477902 -0.3232762 -0.3417544 0.13366394 -0.35757026 0.33337423 0.22983593 -0.18909113 -0.075228766 0.09977807 -0.17538181 -0.7923791
428 0.79148763 -1.1741065 0.7817009 -0.57215333 -0.21508518 -0.35423532 -0.93315625 0.3173876 -0.30275273 -0.7557102 0.6195372 -0.12288438 0.40600133 0.14397429 0.32545176 -0.014139701 0.25856268 0.15456071 0.83775747 -0.5125741 0.010000531 -0.42454275 0.61364377 -0.20195535 0.5580933 0.15253203 0.95587987 -0.50429326 0.16598797 -0.6847091 0.7018516 0.628534 -0.8039786 0.35385513 -0.14923301 0.41133186 0.79615074 -0.30851892 -0.20812573 0.33358917 -0.37635648 -0.24262738 -0.6196103 -0.5272115 0.76185113 -0.04043814 -0.38338536 -0.69716924 0.11865077 0.5034158 -0.6945524 -0.4470051 0.12631191 0.2534348 0.47278175 0.26003295 -0.01822194 -0.72794086 -0.21893813 0.3809742 0.26114777 0.39701885 -0.4562023 0.023576403
421 0.8765601 -1.4761082 -0.26689896 -0.27278623 -0.20620991 -0.30402875 -0.93314296 -1.0309674 -0.35607472 -1.0418937 -0.08411193 -0.010099395 -0.22365333 0.30647498 0.8814832 0.23006296 0.26722902 0.18839489 0.02711689 -0.029817577 0.076380834 -0.6307306 0.7213232 -0.2979881 0.91396224 -0.033451535 0.4099542 -0.28845447 -0.32478565 -0.18426767 -0.37072358 -0.27866283 0.18810628 0.6368249 0.0013863386 0.41261253 0.43208784 -0.5726036 -0.082226776 0.53957623 -0.5263824 0.05739276 -0.12921026 0.2736221 0.31914154 0.033508558 -0.2102876 -0.7512605 -0.18635176 -0.28459948 -0.6751505 -0.59709156 0.63402927 0.017146382 0.11150315 1.0974786 -0.285651 -0.83965844 0.28651142 0.6873156 -0.01440334 -0.37487945 -0.2691712 -0.16376531
317 1.1242907 -0.83796257 0.6275182 -0.6164678 0.721139 0.808519 0.14190997 -0.62096375 -0.38173532 -0.09147795 0.13677727 -0.321107 0.3086715 0.16870528 0.27165067 0.054268427 0.5824161 -0.29821303 -1.114821 -0.7799032 -0.17992868 0.8399761 1.5089054 -0.32562563 0.026702885 -0.4686682 -0.74951553 -0.66524273 -0.5987875 -0.4602518 -0.41617745 0.45959094 0.23050599 0.043148503 -0.5264428 -0.18749268 -0.26034448 -0.53368264 -0.4292191 0.67071676 0.065944254 -0.6020683 -0.7611799 -0.18162763 -0.10934427 -0.14965962 -0.11967862 -0.6795471 -1.0008711 0.12541986 -0.8652961 0.078299604 0.94659966 0.075259365 -0.18135801 0.18654862 0.03971413 -0.20391156 0.21820523 -0.019162465 -0.2973282 -0.2731983 0.647426 -0.06457601
466 0.4842243 0.44534034 0.54507184 -0.06230501 -0.15693758 -0.325727 -0.35410058 -0.20815353 0.032350797 0.024886109 0.65405256 -0.5898948 0.32739055 0.8441781 -0.039290056 -0.090844505 -0.42494997 0.5137775 0.109516606 0.1225804 -0.18740375 0.18327187 0.01343485 0.30442876 0.05741535 0.21377547 0.4116825 0.038731284 -0.4694444 -0.041511912 0.36909446 -0.5627628 -0.10388386 -0.25996962 -0.28140715 -0.40247184 -0.20973675 0.24956621 -0.05848775 0.7934767 0.041832626 1.1455859 -0.14898133 -0.84332126 0.2051454 0.32331333 0.4776229 0.65899825 -0.28834882 -0.5540664 -0.78148824 0.2723809 0.0766075 0.2662698 0.13376884 0.62448317 0.087201595 -0.34493294 0.10499626 -0.0888031 -0.5035986 0.22616443 0.20944509 -0.16068307
214 1.1311778 -1.028839 -0.33099398 0.1958781 0.05985647 -0.48951107 0.35758424 0.02396782 -0.269806 -0.02427564 0.6161002 -0.42658156 -0.6571188 -0.42624617 0.40374872 0.5731795 0.28302956 -0.36059183 0.37630016 0.8578065 0.18033949 0.31994757 0.44865274 0.30396798 -0.56525147 0.2709946 -0.8943666 0.3477339 -0.3082193 -0.8216784 0.64279836 0.2863291 0.14744705 0.8236694 -0.30754003 0.35530502 0.25353584 -0.5505294 0.18362336 0.2387982 -0.82413316 -0.23893878 -0.16440032 -0.4008502 -0.09625708 -0.84071 0.4833877 0.11079501 0.41492125 -0.6379686 -0.5309814 0.09818524 0.702765 0.8748746 1.0804172 0.1401448 0.6523292 0.0024199982 -0.24242918 0.09643104 -0.9067825 -0.32753804 0.41465428 -0.21847476
405 -0.08106067 -0.13959692 -0.7519439 0.08520866 0.918478 -0.30083776 -0.22484334 -0.45799905 -0.50356907 -0.08675827 0.50085425 -0.8595885 0.35928258 0.05761046 0.4152492 0.60902077 0.8934356 0.16121611 -0.66363746 -0.15023254 -0.4895341 0.009041515 0.48245293 -0.6126864 0.12812151 -1.3666764 -0.40041178 -0.22017302 0.10077623 -0.0120521225 0.31508628 0.36293235 0.2029282 -0.36408055 -1.0316412 -0.10293351 -0.23593098 -0.27297056 -0.49690583 0.07401958 -0.4621066 -0.32451975 -0.65223527 -0.613177 -0.4225652 0.20169182 -0.0010316749 -0.44717407 -0.5161808 0.19306265 -0.74537814 0.035517707 1.2313607 -0.25523996 0.038853396 0.20282534 -0.13690567 -0.45823514 -0.26492208 0.6736646 0.9568558 0.21684372 0.04223581 -0.6912135
432 0.923896 -0.5727237 0.08197505 -0.074533634 0.35271922 0.43838057 0.3508686 -0.40434426 -0.82045114 -0.011635931 -0.08931299 -0.6198446 0.33077237 0.0013019936 -0.058299128 0.17646264 0.1529524 0.09430545 -0.5927905 -0.17443284 -0.5756123 0.399612 0.984023 -0.83618236 0.12229713 -0.48340958 -0.1724879 -0.5084475 -0.48726004 -0.578668 -0.32525238 0.1773563 0.27608263 -0.00065027154 -0.86184794 -0.5132865 0.20982976 -0.63404536 -0.26710305 0.714396 0.5094422 -0.17264742 -0.43344584 -0.4819441 -0.4686708 0.08291417 -0.33711296 -0.4259392 -0.66659516 0.45623052 -0.7668559 0.24308568 0.6562351 -0.020775713 -0.14236763 0.26729488 0.47063604 0.153041 0.19060315 0.23928878 0.1461239 -0.2505187 0.42561448 -0.21588264
434 0.55785 -0.91224265 0.2910209 0.28286 -0.31829402 -0.43561673 -0.5222613 -0.36676386 -0.891213 -0.1020382 0.12838432 -0.4700328 0.097874135 -0.18891786 0.15715152 0.15422174 0.1067886 0.21518563 0.2434543 -0.1651478 -0.21534115 -0.4089356 0.6010705 -0.3196897 0.3440503 -0.7664719 0.2954464 0.112459354 0.16714285 -0.76792634 -0.40622604 0.19222955 0.083705924 0.38602912 -0.9799809 -0.07950087 -0.2238221 -0.4277373 0.20892265 0.3954885 -0.06716639 0.568845 0.0354555 -0.51455146 -0.13128135 -0.4841164 -0.08140833 -0.7930289 0.10124513 -0.06374629 0.22125737 -0.3821101 0.77640086 -0.48337916 -0.13988778 -0.0073946496 -0.30812028 -0.08509836 0.3690203 0.077242985 0.33734733 0.2888134 -0.33911002 0.6338052
419 0.2907509 0.16527423 -0.09568682 -0.5565987 -0.035251554 0.24902561 -0.12146896 -0.43232524 0.893871 -0.15388191 0.9511368 0.47389963 -0.21186858 -0.60591257 -0.3181478 0.24237256 -0.53698903 0.21837555 0.2512141 -0.20686103 -0.59270585 0.16773161 0.7450733 -0.1484098 0.30376685 0.3425461 -0.5698074 0.27433142 -0.15679725 -0.0719327 0.03964758 -0.7443667 0.3918658 0.36469996 0.14208846 -0.23904178 -1.1478119 -0.40500516 0.48615414 0.011573209 -0.5613846 0.6194986 0.05628151 -0.8677893 0.7340236 0.27730823 -0.14006363 -0.47693193 -0.47044215 0.53130805 -0.51908183 0.090650715 0.2850618 0.37381956 0.09424341 0.1888516 -0.30019104 -0.76292825 0.92444736 0.6395355 -0.4793306 -0.18160112 0.19033879 -0.0063721025
234 0.66513747 -0.5675284 -1.1450032 0.027899312 -0.7291022 0.59095484 0.17861079 -0.14745818 0.25838238 0.58868206 0.19659431 -0.4582597 0.49811348 0.0045850514 -0.07667088 0.6390015 -0.51051193 -0.058421273 -0.08097489 0.014333239 -0.044998877 0.46039075 0.9700299 0.59373546 0.8077822 0.59643424 -0.3420281 0.3566286 0.20420772 -0.7003684 -0.031581976 -0.65301454 0.3475245 -0.6597806 -0.721064 0.28979903 -0.04127059 -0.66830844 -0.47342607 -0.48411256 -0.06848517 -0.65366906 -0.26600873 -0.7129056 0.31368867 0.2224664 -0.24147357 -0.49569044 -0.26829118 -0.09019041 0.36857402 -0.20568393 0.016513137 0.24996997 0.35388002 -0.29303277 -0.16885653 -1.4243788 0.51193625 -0.095667616 -0.5645332 0.039697804 -0.698621 -0.31695652
454 0.2213991 -0.13976768 -0.5508345 -0.30161202 -0.78346485 -0.105406776 0.2957916 -0.22314921 0.34978285 0.6459081 -0.12905459 -0.2301752 -0.23140876 0.35023075 0.11263448 0.33799717 -0.799579 0.7417612 -0.7580153 0.42861828 0.16115376 0.14658894 1.090197 -0.3697595 1.0053031 0.4841938 0.14918706 -0.13145731 -0.0105860345 -0.4027737 0.2814406 -0.011036702 -0.2619515 -0.50462073 0.06261487 -0.12988278 -0.39130315 -0.5259177 -0.07912884 0.5425825 -0.5841485 0.9389288 -0.95535797 -0.46972755 0.2509751 -0.12419027 0.8129699 0.052892815 -0.44165024 0.9581292 0.113651216 -0.20102002 0.6815728 -0.098060586 -0.030017052 0.9116268 -0.31178448 0.5347543 -0.08999919 -0.12634648 0.26346087 0.039938804 0.6722548 0.6634143
240 0.27763432 -0.22026381 -0.21025942 0.4192063 0.38247758 -0.35138443 0.0660218 -0.51605135 -0.44430834 0.3079468 0.056010127 -0.3192252 -0.75164133 -0.048074365 -0.41149914 0.35689336 0.20974545 0.33217373 0.09633568 0.36846521 0.2212732 0.30542302 0.23348056 0.09954516 0.115822636 -0.06794103 -0.25531325 0.39377096 0.1480717 -0.47560734 0.7095804 0.25517523 0.40641123 0.466064 -0.36431432 -0.17855294 0.7964026 -0.38270706 0.13599493 -0.026808793 -0.54585 -0.18342887 -0.004463956 -0.07695429 0.06931516 -0.160877 0.2241216 0.53245324 -0.98978835 0.59095 -0.13182586 0.045956917 0.20382725 0.46474373 0.47521088 -0.73717296 0.17847472 -1.1162938 -0.42336416 0.29765645 -0.45771813 -0.28991374 0.5324208 -0.10773879
404 0.5568258 -0.93422854 0.4284047 0.049757477 0.50501657 -0.5499246 0.49826172 -1.0575019 -0.13791369 -0.79069215 0.032772254 -0.9209507 0.10540497 0.24621896 0.09826953 0.02923196 -0.17499194 -0.16828288 -0.25763 0.043290596 -0.13898462 0.35861692 -0.55373776 -0.3003008 0.57734466 -0.65010715 -0.4077708 -0.107356496 0.09533204 -0.26791883 -0.039170325 0.68679196 0.62710196 -0.31228146 -0.4482504 -0.8371411 0.40090936 -0.0065094586 -0.1387698 0.52088386 -0.061065704 0.5708766 0.120725304 -1.1440564 -0.35492685 0.94755435 -0.43923578 -1.4112327 -0.34819067 0.20212564 -0.63716614 0.32566223 0.22659467 -0.15385972 0.3354901 0.12740481 -0.012276745 -0.0464503 0.20695086 -0.165194 0.5001704 0.10893186 -0.47963807 0.13168779
338 0.9410591 -1.1979278 -1.2547199 0.14962769 1.1615362 -0.06915183 0.23897134 0.056838825 -0.2725544 -2.0152094 0.6489211 -0.6049015 -0.09167938 0.08622588 -0.30396917 0.44864228 -1.1144856 0.83170986 -0.5108613 0.1973553 -0.22864333 0.6148516 1.264797 -0.113781214 0.1285754 0.76789653 0.4981835 0.39196518 -0.0026268049 -0.46062958 -0.11431555 0.13543622 -0.024241725 -0.06723774 -0.9184234 -0.3464769 -0.25880745 0.4202833 0.12750585 -1.8240852 -0.7127918 0.84012485 0.02895401 -0.55545735 0.42304105 0.60236466 -0.3541778 -0.75659055 0.38317865 0.5677457 -0.85337555 0.025145646 1.1162423 0.71955633 0.5464692 1.0459961 0.17981926 -0.7442623 -0.6332394 -0.977082 0.13933288 0.4229766 0.10224772 0.30746204
402 1.0708601 -0.61998427 -0.6346462 -0.06404742 0.18904848 -0.5136927 0.40636232 -0.28510863 -0.36749163 -0.16124138 0.47930127 -0.76454735 -0.09860189 -0.30593175 -0.010210247 0.05017023 0.29276943 -0.09642912 0.12642677 -0.4493655 0.63161343 -0.48374853 0.6236615 -0.027019408 0.5740186 -0.12650992 -0.4886316 -0.6720316 0.5216265 -0.11023843 -0.27574232 0.17119843 0.41442874 -0.07953537 -0.38947853 -0.22636731 -0.030329758 -0.18219449 0.20463687 0.70410156 0.0012888806 0.269448 -0.05185276 -0.22097215 -0.3231694 0.04525485 -0.9021279 -0.9802354 -0.37149382 0.16425493 -0.63471025 1.3940495 0.20989282 -0.3702076 -0.032559883 0.38873935 -0.079578005 -0.13742529 0.78326994 0.5630903 0.58883893 0.23936005 0.3858168 -0.25757927
211 1.4348005 -1.2030216 -0.4695764 -0.07583826 -0.2907566 -0.33490095 0.49111173 -0.10418502 -0.53925824 0.017756172 0.35299847 -0.6542481 -0.4607987 -0.1814932 0.18351772 0.3027061 0.7719071 -0.24028495 0.43285128 1.0644424 0.8778527 0.09329675 0.38926455 0.31791002 -0.96753335 0.14969957 -1.0385807 0.014625226 -0.15181753 -1.1846699 0.8934149 0.20872682 0.0012177884 0.89623415 -0.2691734 0.6070041 -0.24533954 -0.38847572 0.21428838 0.2016439 -0.8290687 0.079041444 -0.3014115 -0.26626816 -0.18417083 -1.0358665 0.6224433 0.3355763 0.0366741 -0.24083315 -0.7688053 0.19835117 0.7268633 0.4481305 1.5516586 0.073953524 0.4953179 -0.15442753 0.07067231 -0.19926172 -1.0044037 -0.22601953 0.5763566 -0.55721885
242 -0.09255822 -0.5851305 -0.20762719 0.5532127 -0.16400522 0.118127406 0.05111117 0.14278863 -0.42032307 -0.120018706 0.6638432 0.8757905 -0.15110849 -0.53253394 0.18078025 0.70947903 0.19508374 0.8144932 -0.27212858 0.33397356 0.53826666 0.24377884 0.6896788 1.1323124 0.1309453 -0.19047517 -0.6139654 0.97390413 -0.010770153 -0.5557847 -0.32239908 0.42378375 0.63071066 -0.12733123 -0.23372278 -0.2925095 0.67654485 -0.5252142 -0.23863247 0.15355185 -0.20488365 0.14433302 -0.045538675 -0.27868143 0.52038777 0.36875984 -1.12852 0.4418943 -0.33971515 0.23310904 -0.8783359 0.074733116 0.23517197 -0.120043755 -0.012624503 0.022112539 -0.87949455 -0.13963495 -0.26902363 0.27799937 -0.07554334 0.084928386 -0.1754772 0.18712793
403 -0.030901868 -0.8501816 0.62814915 -0.08145144 0.89878243 -0.76341164 0.30464154 -0.006220236 -0.42030725 -0.2727786 -0.007112723 -1.0384988 0.27113575 -0.50279516 -0.19904633 -0.061874654 0.18672557 0.26849547 0.11142119 0.13834478 -0.24313352 -0.739976 0.6158806 -0.010317001 0.8974001 -1.047915 0.023259819 -0.49563113 -0.32801414 -0.67834646 -0.45010298 0.00048324524 0.31928447 -0.47560862 -1.0320965 0.27642193 0.33518887 -0.55250573 -0.6451669 0.048599567 0.48233917 0.27605993 0.77593154 -0.44758514 -1.0168378 0.0885003 -0.1864966 -0.61841667 -0.25537628 0.3781423 -0.03286166 0.71554625 0.21369985 0.091441095 -0.33537477 0.4215724 -0.40005484 -0.46646023 0.29179192 0.059727523 0.1585425 0.40568975 0.5951707 0.0057931743
109 0.9560912 -0.9902845 -1.334613 0.47964278 1.2495574 -0.013537355 0.16920643 0.49159732 -0.16909452 -1.7498475 0.6086696 -0.3872045 0.18069139 0.10290286 -0.19219752 0.6158161 -0.84723157 0.67185694 -0.2362819 0.2287 -0.28633612 0.48512474 1.2105358 -0.15355118 -0.0014981158 0.76873964 0.53504384 0.5676937 -0.03437254 -0.58295995 -0.25464445 0.14699848 -0.019273456 -0.16482013 -1.2644194 -0.027861305 -0.28404477 0.5956656 0.16508408 -1.7008773 -0.9077406 0.8081488 -0.2034148 -0.5658269 0.38619006 0.6176218 -0.3561831 -0.5605761 0.3552833 0.36927584 -1.0370667 0.26786375 0.9306011 0.6903527 0.53189766 1.0341959 0.18678193 -0.4909246 -0.5656201 -0.87166756 -0.10095599 0.653814 -0.021663055 0.41456214
224 0.4214666 -0.76153284 -0.13522702 0.39486 0.10430467 0.29837877 -0.19907714 0.1335332 0.20653528 -0.21548618 0.5910211 -0.7809938 0.73150843 0.08939924 -0.3224174 0.40140772 -0.03412665 0.037764825 -0.16917026 0.55726707 0.040468648 0.6891906 0.93193644 0.07893906 0.48675308 0.39970216 -0.06913276 0.05880995 0.86354834 -0.6181777 -0.62661064 -0.5895291 0.013977421 -0.63814676 -0.43251202 0.06416237 -0.15478544 -0.13245554 -0.24275179 -0.5955981 -0.6406033 -0.5560353 0.004168672 -0.80575514 0.40528375 0.023408802 0.2898163 -0.37507707 0.12838398 0.31287038 0.05623276 0.46043143 0.08848701 -0.06647374 0.037152804 -0.45989048 -0.18870397 -0.09702586 0.041796688 -0.57119966 -0.25287366 0.2777222 -0.6063151 -0.6948822
151 0.96194166 -1.1191126 -1.2975945 0.39896014 1.3938375 -0.055429816 0.21363023 0.30090845 -0.120621756 -1.892729 0.50018984 -0.42347312 0.03317113 0.16418564 -0.26171994 0.54551613 -1.0044446 0.6457174 -0.3053265 0.10646098 -0.28653288 0.5809628 1.2678839 -0.13353771 0.08561951 0.7722472 0.6068174 0.42055008 -0.071010895 -0.5605173 -0.07701139 0.02832739 -0.042035352 -0.08005903 -1.0753824 -0.12348778 -0.2298077 0.4836323 0.20772725 -1.7035781 -0.84600806 0.8345628 -0.051521134 -0.5989266 0.35467827 0.6413572 -0.39491653 -0.7328679 0.39611182 0.5028837 -0.96467984 0.14883418 0.984745 0.7477532 0.5893098 1.0886904 0.16669261 -0.6343417 -0.66851753 -0.9524944 -0.043541435 0.64831746 0.0172892 0.36917198
337 0.4399032 -0.22143047 0.2548225 -0.44061798 -0.21589313 -0.3007368 -0.13201974 0.3911383 0.39712337 0.04241054 0.6234444 0.057864554 -0.6313165 0.008626041 0.40678164 0.60151654 -0.61658776 0.1855371 -0.79005456 1.2127736 0.058637727 0.23978664 0.8952109 0.1410454 -0.3505077 0.49753624 -0.34101948 0.81347615 0.09041367 -0.5405583 0.30822623 -0.42464772 -0.15681258 0.10437685 0.72072315 -0.35076475 -0.18557903 0.42675427 -0.39101577 0.78066504 -0.11223906 -0.081010096 0.4595887 -0.21693322 0.71654344 0.39882654 0.060746565 -0.20360292 -0.6810772 0.48417452 -0.54056823 0.55915403 1.1539652 0.7616755 -0.23030147 0.88293874 -1.3366469 0.18030462 0.37057075 0.2129792 0.46769968 0.18719788 0.007990818 0.7336404
225 0.4996522 -0.22429346 -0.098941 0.45138925 -0.10476586 -0.08797297 0.09257164 -0.2830425 -0.04937869 -0.07345076 0.23871186 -0.87367207 0.07139865 -0.060400445 -0.5185915 0.20330128 -0.016196745 0.17830381 -0.46299472 0.9541372 -0.16218577 0.81043994 0.63214874 -0.3025199 -0.26331404 0.5541986 -0.43336743 -0.542019 1.1733029 -0.81694764 -0.14809133 -0.96016693 -0.4607565 -0.97044826 -0.5610132 0.2849663 -0.02597509 0.060395855 -0.34647754 -0.057327483 -0.56894743 -0.6281482 0.3009539 -0.8137126 0.8542452 -0.00073865074 -0.18212245 -0.5569035 0.11120418 0.1728287 -0.54736143 0.15236332 0.14220914 -0.15087123 -0.028526533 -0.3281696 -0.589854 -0.4062759 -0.43613243 0.1691276 -0.84781754 0.34579185 -0.26692563 -0.41478297
442 0.28038192 -0.081839204 0.27815187 -0.24399616 -0.23415148 -0.19709748 0.15195696 -0.014695438 0.4762348 -0.0011014221 0.40396556 0.0011630713 -0.42663065 0.32070476 0.4530309 0.3610057 -0.53172725 0.16015762 -0.52479416 0.98384655 -0.06682583 0.014409583 0.84658474 0.05576008 -0.0963584 0.3989801 -0.20016114 0.44127697 0.2138787 -0.6986535 0.37458867 -0.27484173 -0.17423205 0.068329655 0.49611068 -0.15934733 -0.21173003 0.34727722 -0.24143142 0.57767993 -0.31240425 0.14494546 0.4129815 -0.1861531 0.419806 0.19956338 0.3042117 -0.060171656 -0.49742004 0.36793768 -0.70377606 0.46614018 0.8123181 0.57456803 -0.26795372 0.8781337 -0.97247595 0.09558941 0.17356077 0.15479034 0.17571104 0.19429666 -0.04470915 0.82262796
445 0.055094693 -0.45656776 0.3597491 -0.04893449 -0.63616985 -0.16950193 0.6622067 -0.558691 0.76730704 0.43502665 0.06393417 -0.81720024 0.37126547 0.7691791 0.3420646 -0.23776811 -0.295694 -0.038638927 -0.2220434 0.8766577 -0.044283155 0.2799903 0.36214888 0.26591343 0.71372604 0.5335754 -0.45669082 0.39846 -0.3115801 -0.13476358 0.72977203 -0.2333536 -0.6026847 0.42485327 0.2663745 0.16278899 0.029297922 -0.1834576 -0.014166893 0.8021403 0.03066495 0.25706246 -0.20423949 -0.30928263 0.052942093 0.41359824 -0.038005017 0.34619114 -0.73699194 0.39055267 -0.40733305 -0.041598108 0.57998544 0.4109255 -0.09716043 0.8757899 0.31300995 -0.7992058 0.48214048 0.07120589 0.08480865 0.70174325 -0.24987592 0.70583606
424 0.44304827 -0.17055376 0.2319803 0.082172535 0.7810668 -0.54160994 0.3597646 0.47110164 0.21984231 -0.46196645 0.8882048 0.009388955 -0.05872243 -0.40023324 -0.0073520644 -0.171494 0.16252235 -0.10248672 0.010339461 0.1367199 0.28302276 -0.1792149 0.5966017 -0.35989946 0.42030063 -0.19603428 -0.4413306 -0.46527022 0.07167075 -0.657992 0.042754915 0.442974 0.4849649 0.28930208 -0.9472075 -0.23169789 0.85486084 -0.2006753 -0.02943848 0.9260337 0.6584209 0.12968218 -0.21280482 -0.9704254 -1.0372547 0.40597725 -0.352656 -1.1323946 -0.528326 -0.04931491 -0.012817106 -0.068740316 0.30554947 -0.6355653 0.32943672 0.13256319 -0.30791995 -0.5584069 -0.10818378 0.18585646 0.45082745 -0.103390716 0.13429765 -0.14410627
444 -0.30102244 -0.34298828 0.21086226 -0.41512063 -0.29945195 -0.41109324 -0.36967778 -0.8546283 0.84157616 0.2812625 -0.0844019 -0.6861179 -0.024074348 0.29496688 -0.3401516 -0.09309338 -0.28959996 0.16048996 -0.6659807 0.73340017 -0.37543803 0.24768351 0.8640929 0.37713382 0.44037977 0.26957402 -0.16059774 -0.16073395 0.123191476 -0.7135355 0.1992201 0.07931541 0.15350333 0.25437382 0.5500213 0.15796523 -0.075686276 0.22050047 0.49743834 0.01736771 0.06680625 -0.0065282076 -0.0806845 -0.82745546 0.18130307 0.06260598 0.6798554 -0.0019810325 0.026744979 -0.061297335 -0.920178 0.69936204 0.28028616 0.34407946 -0.16656663 1.0406202 -0.8250747 0.013294216 -0.27316022 0.24928817 0.02207935 0.22455609 0.23605111 0.7797035
456 0.08361465 -0.22824949 0.031442944 -0.3291118 0.09626546 0.10870832 -0.27066308 -0.9610262 0.67973024 0.1226294 0.7330904 -0.20000966 0.15971896 0.2217825 -0.2911888 0.678219 0.35361406 0.08223716 0.47796598 0.30000892 -0.3923357 0.11212831 0.6397264 0.5699141 0.42860943 0.2575086 -0.6691062 0.0678497 -0.34071907 0.3845034 0.13238214 -0.16992974 -0.32535917 1.088544 -0.16372387 -0.32949147 -0.59843695 -0.28564897 -0.01980582 0.231948 0.24453141 0.5161946 0.13634554 -1.0822194 0.37359223 0.54596996 0.40212274 0.20255886 -0.4281017 0.107210256 0.22639757 -0.15115537 -0.5284825 0.5722349 -0.6366195 0.4869863 0.12210303 -0.5530324 0.39722452 0.11491878 -0.5993952 0.72783005 0.6777792 -0.39892924
389 0.16917324 -0.02184015 -0.22130914 -0.468916 -0.56690395 -0.42067373 0.4974187 -0.24455772 0.3746576 0.78940135 0.06962578 0.10840621 0.77567583 0.23419565 0.20314214 0.42363712 -0.014784424 -0.24109106 -0.2737202 0.7151587 -0.4049449 -0.028273595 0.56665397 0.5762435 0.98472095 0.6835238 0.36251336 0.07946512 -0.13689715 -0.33647853 0.67211807 -0.44424742 -0.30913636 0.025153318 0.19359918 0.3802185 -0.21690147 0.00750113 0.2546429 0.47908103 -0.21060419 0.5937885 0.6903853 -0.1040193 0.4904733 -0.32752106 0.7231063 -0.26793894 -0.97181237 -0.20605825 -0.8635302 0.4339036 0.6179452 -0.03544554 0.4030258 0.52021635 -0.24765822 -0.33156213 0.39980465 0.09815611 0.28585008 0.30095708 0.17580755 0.35910448
417 0.3089867 0.4634769 0.053629033 0.16608304 -0.18138516 0.21096858 -0.50410247 -0.40630227 0.27523357 0.0059898156 0.71247995 -0.13490684 0.21698728 0.24425109 -0.24556412 0.42696092 0.21580328 0.17367376 0.636244 0.71013683 -0.72901785 0.5201919 0.31358567 -0.498075 -0.022705898 0.22785763 0.14959982 -0.015998695 0.006408557 0.04126467 0.08297124 -0.17493132 -0.657208 0.7627891 -1.0612143 -0.1682858 -0.91380346 -0.36404192 0.3985938 0.6619004 -0.42972475 0.5642844 0.31016332 -1.0262502 0.485337 0.57439375 0.057340514 0.8075958 -0.74983174 0.12930669 -0.32626128 0.0018159846 -0.6992567 0.40038025 0.36548954 0.356352 -0.66936123 -0.1035803 0.60955477 0.5645089 -0.3100335 0.3182397 0.87180483 -0.40763697
370 0.36056522 -0.3617274 0.59880364 0.00020848548 -0.031209849 -0.6924372 -0.15987983 0.2670395 -0.11963178 0.2996733 -0.035359837 -0.15467346 0.38088053 -0.64519477 -0.20597158 0.39668837 0.45882505 0.2383744 -0.45142987 1.0310968 0.55429894 -0.025758522 0.17938824 0.67911255 -0.039223015 0.121274166 -0.061105125 0.95320654 -0.44716966 -0.15394324 -0.14929001 -0.050354183 0.23730026 0.03279315 -0.36483464 -0.84423614 0.3488805 -0.92462075 -0.6651579 -0.173784 -0.9054838 0.3588625 -0.22127599 -0.2375033 -0.038860083 0.31779006 -0.3847305 0.46448746 -0.6479789 0.48675877 -0.25890002 0.050640546 0.03487313 -0.21163814 -0.4424227 -0.44039413 -0.3820559 -0.101005286 -0.3892895 0.3875001 0.29378942 -0.20767272 0.033562835 -0.11531644
455 -0.07320349 -0.5919861 -0.20287022 0.034043238 0.3046329 -0.8237015 0.17340699 0.5928038 -0.55397105 -0.27289578 -0.016860379 0.22453924 -0.006800123 0.21972027 -0.39515296 -0.19836915 0.46854883 0.4854816 0.12225281 0.39847288 0.038669813 -0.2408164 0.5069708 0.3623498 0.61049646 0.05799639 -0.4289437 -0.047125865 -0.2502708 -0.18301617 -0.040421713 0.534666 0.08862802 0.25354734 -0.43266806 -0.00015931814 -0.21560857 -0.43148017 -0.3013717 -0.2630531 -0.65604097 0.46463722 0.25049257 -0.44720775 -0.21305288 0.48774344 -0.32654026 0.6435914 -0.9147968 0.17800602 -0.34310535 0.33383858 -0.089220755 0.13485481 -0.16694276 -0.37607327 -0.06482087 0.21250159 -0.61229783 0.19700022 -0.39649567 0.17089002 -0.70341957 -0.15282856
297 0.9490665 -1.1366577 -1.1912637 0.20049219 1.201888 -0.06185938 0.24044418 0.0013885294 -0.2800638 -2.0353515 0.6416216 -0.53714746 -0.13165426 0.034751214 -0.2004574 0.414697 -1.0715282 0.6822808 -0.4240631 0.28234804 -0.38878158 0.66285473 1.1185101 -0.014922573 0.18506692 0.7605514 0.5849659 0.43391016 0.0060786926 -0.54307836 -0.20479895 0.08346967 0.048574753 0.03458318 -0.8771278 -0.2073938 -0.31487453 0.55219424 0.047422096 -1.7165923 -0.7792189 0.78583664 -0.09398542 -0.5837756 0.4167456 0.5914859 -0.33356857 -0.786789 0.3587189 0.46381918 -0.7905558 0.0710267 1.1329863 0.71201336 0.4563001 1.1405988 0.13821954 -0.79883087 -0.64391667 -1.0112107 0.09840518 0.36141196 0.09191392 0.2973979
36 0.06111519 -0.65134495 -0.2825492 0.68823785 -0.40983248 0.090657026 -0.019724583 0.1593432 -0.546805 -0.2595649 0.5310905 1.0135331 0.04098946 -0.49260625 -0.06419709 0.7400011 0.1146113 0.7407727 -0.28013054 0.14966558 0.6093335 0.34182438 0.50706303 1.223824 0.07883056 -0.30011195 -0.73710936 1.1496512 0.031246899 -0.5662418 -0.38427415 0.2615299 0.57836527 -0.21691439 -0.32631144 -0.48995668 0.78579247 -0.8344991 -0.49528864 0.2474341 -0.08026235 -0.03980434 -0.0100942915 -0.28702798 0.72576594 0.32138366 -1.0329013 0.7112025 -0.31828526 0.25671405 -1.042101 0.08984568 0.3475218 -0.20941447 0.08904573 0.17138071 -0.9668157 0.028309379 -0.24064456 0.20903851 0.06238405 0.027323121 -0.061875578 0.25947663
54 0.3190352 -0.87090755 -0.13844842 0.36645767 0.16603602 0.418602 -0.22579037 0.13203624 0.31340468 -0.27105996 0.631331 -0.87993383 0.8348841 -0.1628951 -0.35784417 0.42443806 0.04466392 0.12904593 -0.24475364 0.5733601 0.21540684 0.639587 0.929463 0.075304925 0.61490494 0.50610596 0.09671061 0.10840284 0.79492414 -0.45325175 -0.70387334 -0.6764413 -0.19359456 -0.4769564 -0.5266804 0.076304846 -0.1764401 0.038247854 -0.22320351 -0.5782875 -0.61613375 -0.5754186 -0.12965837 -0.87897134 0.30965796 -0.08924935 0.31453785 -0.23816161 0.09405133 0.28343484 -0.050368197 0.47308096 0.16068293 -0.041147977 0.11532671 -0.42969292 -0.055263694 -0.053591415 -0.0035588895 -0.72930145 -0.060382687 0.3005094 -0.65720904 -0.7335999
67 0.95986253 -0.97483116 -1.2698308 0.55260915 1.282342 -0.012901478 0.15499598 0.48318696 -0.27718562 -1.7062273 0.6452273 -0.33561265 0.09706951 0.03690485 -0.30729493 0.5400773 -0.7770163 0.60673076 -0.20907618 0.23762769 -0.35692972 0.5218584 1.2099495 -0.08875282 -0.005989449 0.77769846 0.54464483 0.5044563 -0.024243586 -0.6008284 -0.17248347 0.009358615 -0.08637914 -0.05374987 -1.2182804 -0.12834783 -0.26992217 0.5505317 0.13530497 -1.6497475 -0.8595596 0.78624475 -0.19869736 -0.5263239 0.3453754 0.63582677 -0.3493229 -0.52814645 0.36324754 0.28246883 -1.029535 0.25466564 0.94884706 0.60525715 0.44984472 1.0355859 0.1755955 -0.5646261 -0.55923265 -0.9915341 -0.059691284 0.7395688 -0.02777527 0.2879763
332 0.97648555 -1.1792345 -1.3119432 0.24647868 1.2013006 -0.03248892 0.27503076 -0.017648108 -0.3803227 -2.0284216 0.6595104 -0.5295416 -0.17309165 0.089490116 -0.18192673 0.43004513 -1.1191509 0.7530091 -0.45728981 0.22706805 -0.3175834 0.6864187 1.0987376 -0.08402151 0.19791883 0.73177356 0.56705254 0.49839023 -0.005855078 -0.4800488 -0.20528644 -0.02693569 -0.019960262 -0.021699075 -0.95991015 -0.33290118 -0.30013683 0.4921549 0.06692557 -1.7088671 -0.77197284 0.87925893 -0.06530222 -0.54153895 0.43263227 0.631279 -0.2557085 -0.7632107 0.35730526 0.46106327 -0.8047537 0.08276195 1.1582506 0.65220624 0.5679642 1.1151536 0.15470815 -0.81932116 -0.60923684 -1.0436965 0.0822225 0.3843287 0.07654781 0.22934955
104 0.52384037 -0.16746877 -0.07911898 0.4059882 -0.20337032 -0.045492038 0.057745647 -0.413132 -0.4031577 -0.1111137 0.2011473 -0.9357207 0.05085737 -0.1360244 -0.8293811 0.10750231 0.03596944 0.18677163 -0.5207644 1.1732165 -0.119867176 0.7432726 0.542724 -0.60068923 -0.401397 0.5422565 -0.42877278 -0.6941188 1.2241061 -0.83199555 0.1734707 -1.2538205 -0.4731127 -0.99216235 -0.6548914 0.2650032 -0.026927834 0.1924656 -0.4480701 0.17162727 -0.6350651 -0.7025629 0.31142268 -0.86412877 0.98635834 -0.021102095 -0.23826009 -0.3899633 0.12920338 0.25905684 -0.7066031 0.20122656 0.3424054 -0.1884275 -0.023915447 -0.5286604 -0.61224985 -0.40572134 -0.43123573 0.37475777 -0.93175 0.39778468 -0.11741514 -0.6038912
69 0.38535118 -0.9113115 -0.14930688 0.54063076 -0.0056688767 0.4074289 -0.25331134 0.18432274 0.2620903 -0.40374243 0.60894614 -0.80323976 0.72712326 -0.035711832 -0.3641431 0.40334564 0.05680592 0.12508081 -0.2469625 0.49382663 0.15689744 0.7744919 0.9705836 -0.051749986 0.6377949 0.4636104 0.12615973 0.06199384 0.82709366 -0.50163305 -0.64951956 -0.7657081 -0.10816776 -0.55858773 -0.4820708 0.054167517 -0.24368377 0.027808288 -0.27278012 -0.51775247 -0.57737637 -0.4049505 -0.010189051 -0.8258635 0.31081948 0.08778257 0.22427678 -0.17998129 -0.04392291 0.29596508 -0.041041616 0.62650204 0.16742943 -0.045083094 0.09111834 -0.52529645 0.065014295 0.028798986 0.049915385 -0.7183078 -0.13290903 0.28729096 -0.66064537 -0.75765437
77 1.258946 -0.6347222 -0.8202743 -0.06906063 0.023578338 -0.7320905 0.32956624 -0.31983265 -0.50141096 -0.20835061 0.31371862 -0.9907788 -0.23895802 -0.27305025 -0.2198102 -0.23342639 0.33083653 -0.10820401 0.03476243 -0.45568722 0.6394113 -0.66347677 0.67440796 -0.13945033 0.60818934 -0.16370046 -0.5052431 -0.57572424 0.5387263 -0.14095113 -0.27578995 0.21160005 0.3069599 -0.16774672 -0.37607393 -0.2793911 -0.0073266537 -0.104532436 0.13393511 0.9314524 0.07690892 0.42167324 -0.2247264 -0.12071747 -0.20792319 0.044881552 -0.8046608 -1.0225446 -0.37708548 0.4127937 -0.7289884 1.4238487 0.053252228 -0.2785578 0.05970104 0.18652897 -0.12316422 -0.010387379 0.8805593 0.58275104 0.6425944 0.12496941 0.4863942 -0.51691717
231 0.31381914 0.2268684 -0.11184946 -0.62153053 0.11317149 0.18046033 -0.22183642 -0.3813499 0.7618479 -0.122214876 1.1466756 0.58721584 -0.26411036 -0.48743805 -0.3370847 0.34851083 -0.6908281 0.13064246 0.16673863 -0.13885044 -0.723377 0.2195654 0.7116157 -0.09718867 0.4057822 0.33985484 -0.6368482 0.19916403 -0.24128273 -0.1516623 -0.15740582 -0.7098411 0.27491292 0.36669177 0.1577027 -0.13928838 -1.1550592 -0.38810015 0.6145906 -0.038125735 -0.75081915 0.6614963 0.02252025 -0.7800039 0.71638817 0.18261573 -0.12127779 -0.48137406 -0.54281414 0.68938345 -0.3625301 0.13253006 0.29704934 0.2594354 0.14340428 0.11367718 -0.30249384 -0.8867708 0.8773282 0.44144833 -0.40782586 -0.24295244 0.23501302 0.08886756
62 1.0115005 -0.8441678 0.62646097 -0.6922841 0.58027595 0.77560914 0.1733389 -0.6963226 -0.4286482 -0.20482986 0.18955036 -0.43135414 0.36334595 0.13024907 0.29223108 0.076380275 0.53379047 -0.4338177 -1.1690605 -0.7856945 -0.18947613 0.88732576 1.3868191 -0.37218687 0.056179885 -0.42178518 -0.70100164 -0.5685531 -0.6659653 -0.4499573 -0.4232907 0.44701228 0.128234 -0.001557388 -0.39263594 -0.3494043 -0.36839974 -0.76443267 -0.51822 0.7909901 0.07579483 -0.66594577 -0.8819145 -0.17647687 -0.116957776 -0.17755793 -0.038045157 -0.6406362 -1.0077807 0.21410528 -0.807441 -0.008669228 0.9594491 0.034711715 -0.1434642 0.12023029 -0.25689498 -0.24074903 0.14885502 -0.10953811 -0.41210285 -0.3225017 0.7118025 -0.15961641
299 -0.30283728 -0.5611303 0.17907187 -0.38127837 -0.33624333 -0.52440214 -0.36496598 -0.7975663 0.89165294 0.37548646 -0.14118238 -0.66751623 -0.120721266 0.0639749 -0.2836581 -0.03760749 -0.16115114 0.0782574 -0.57671577 0.80054575 -0.38198638 0.23362377 0.8846079 0.4336598 0.6839145 -0.04910285 -0.09058814 -0.1251895 0.11755211 -0.64308596 0.33685258 0.07569191 0.31205672 0.35938093 0.5727731 0.1294737 -0.027800357 0.41007608 0.5667491 -0.08432854 0.3492618 -0.2600024 -0.020351583 -1.1340514 0.29226378 0.4012324 1.1758614 0.11426013 0.17887257 0.07060254 -1.0701075 0.73793876 0.22259039 0.3282879 -0.3215723 1.3268043 -0.8351003 0.014564381 -0.28226733 0.023923667 -0.026532752 -0.027372012 0.39569762 0.76465464
262 0.47046033 -1.4392662 -0.03098588 -0.37158132 -0.49220583 -0.023156414 -0.7007582 -0.41540095 -0.860033 -0.7678744 0.61996585 -0.14629672 0.10157043 -0.024338095 0.26799873 0.46028778 0.08474695 0.4087702 0.08456842 -0.0299407 -0.20113972 -0.7029037 0.21550201 -0.35008165 0.40119448 -0.068734095 0.3853175 -0.26563433 -0.28514326 -0.39896563 0.08609171 0.14946653 -0.46250957 0.13722174 -0.60781753 0.025185518 0.623297 -0.71049297 0.2570734 0.41249755 -0.14829163 0.052007977 0.1337774 -0.24713157 0.16670346 -0.20320995 -0.021472428 -0.51997447 -0.20564936 -0.08090385 -0.28962645 -0.22422355 0.3950245 -0.17059977 -0.47169527 0.4806165 -0.27217722 -0.43413067 -0.0510201 0.37504873 0.4413551 0.36034587 -0.3651696 0.08602515
205 0.10097898 -0.567688 -0.4353105 0.6574013 -0.39834157 0.03729096 -0.06354091 0.09066378 -0.45695564 -0.22329868 0.79825115 0.99710363 -0.11127649 -0.5329187 -0.014509639 0.64094156 0.10003606 0.6788175 -0.27665243 0.3031346 0.48969367 0.26743227 0.5569746 1.3549482 0.10928371 -0.43475023 -0.522309 0.9661022 -0.0017889647 -0.5109357 -0.4377483 0.3097238 0.55487585 -0.24941231 -0.25529683 -0.43684644 0.7880866 -0.7681434 -0.37021506 0.2899876 -0.046305846 -0.078260094 -0.11245064 -0.22657359 0.7297442 0.37961257 -1.0767329 0.67535824 -0.41574034 0.35766134 -1.0537345 0.08013271 0.28545558 -0.06858522 0.063070126 -0.008914665 -0.93557703 0.09839609 -0.30669445 0.1513651 0.116039746 0.069306105 -0.13014558 0.21468449
103 1.0009153 -1.0282816 -1.2744821 0.43047076 1.18995 -0.05355765 0.19220969 0.49701175 -0.3060821 -1.6806535 0.69885 -0.32492232 0.12189879 0.07230667 -0.28875256 0.5445977 -0.82789403 0.65880525 -0.11925931 0.22947752 -0.39262187 0.5491131 1.1356132 -0.10109219 0.102397166 0.6851006 0.52277666 0.55171746 0.023638116 -0.50776714 -0.23298523 0.14267729 -0.07596883 -0.052948173 -1.2029896 -0.14872758 -0.3000575 0.5105953 0.10010539 -1.6154108 -0.8573447 0.7807252 -0.213942 -0.540004 0.31823078 0.66919225 -0.33465767 -0.43880212 0.45818916 0.2994981 -1.1249895 0.22293277 0.9907199 0.611878 0.6087766 1.0479834 0.12387102 -0.5733607 -0.50875765 -0.9836405 -0.075785264 0.7402876 -0.006802918 0.25332424
136 1.1033685 -1.127497 -0.32108602 0.1909587 0.15730745 -0.29857454 0.4191204 0.12134687 -0.30907658 -0.05120097 0.674562 -0.42446756 -0.61150753 -0.2869068 0.31299892 0.6007229 0.24879283 -0.35616842 0.49909207 0.844773 0.24494071 0.18333325 0.3755697 0.21479502 -0.61199707 0.3746989 -0.8137277 0.2797945 -0.19109395 -0.9325054 0.53698313 0.13616616 -0.07572673 0.86484474 -0.30740246 0.40592593 0.22139893 -0.61904633 0.2330359 0.1554193 -0.7792495 -0.12506351 -0.2441559 -0.29331914 -0.18879817 -0.61880946 0.30067697 0.35648745 0.30895263 -0.5829734 -0.5666397 0.1747012 0.72246015 0.82463807 1.0878781 0.07926313 0.77582175 0.10170811 -0.20349136 -0.04227242 -0.8113115 -0.29746863 0.3877526 -0.17995942
10 0.9800193 -1.1760166 -1.2679609 0.19815536 1.2120239 -0.03428344 0.28094044 0.014178385 -0.3711937 -2.03009 0.66298777 -0.55157274 -0.10831239 0.08213793 -0.23609462 0.40715274 -1.0772122 0.7578855 -0.37269548 0.22028536 -0.3979907 0.76803935 1.0879169 -0.053067006 0.27125397 0.7224727 0.6379459 0.41975778 0.024145735 -0.5126163 -0.15273795 0.032691956 0.062168494 -0.014110769 -0.91178757 -0.2199886 -0.24042772 0.5155915 0.03659792 -1.805058 -0.820678 0.80499715 -0.15598229 -0.5832294 0.41373736 0.64551765 -0.31674787 -0.73570436 0.3468618 0.4413622 -0.8881647 0.114285894 1.1826472 0.6892889 0.5296966 1.1512461 0.18255346 -0.9052537 -0.6783791 -1.1025287 0.083158284 0.3883341 0.12260431 0.25333294
32 0.7577293 -1.4580057 -0.27540034 -0.3105049 -0.25777203 -0.30337173 -0.89719546 -0.97749555 -0.36560053 -1.182167 -0.0839762 0.02508068 -0.31995443 0.492857 0.90051335 0.27271083 0.19009347 0.12636739 -0.047786076 0.14931907 0.092073865 -0.536585 0.7214612 -0.21027623 0.8776802 0.0019036623 0.4089907 -0.40482664 -0.4664108 -0.1571398 -0.4554248 -0.18101978 0.12342598 0.65759045 -0.0857724 0.3893086 0.5183001 -0.44520882 0.004660353 0.49147707 -0.5633295 0.07329097 -0.11435341 0.24526107 0.3926514 -0.032800958 -0.14233468 -0.71684736 -0.106166884 -0.18916717 -0.78610945 -0.6345641 0.6823137 0.0034352378 0.19835453 1.0527143 -0.38659537 -0.7131085 0.35614023 0.71184736 -0.046214134 -0.55437994 -0.29432312 -0.22473566
333 0.049181994 -0.61286646 0.45793056 0.10464687 -0.64569664 -0.31782708 0.87646884 -0.5365352 1.1473414 0.57581073 0.16467074 -0.8018972 0.20612031 0.8588735 0.23816283 -0.44230792 -0.3750694 -0.14960499 -0.3553444 0.8171111 0.06047825 0.520158 0.40343425 -0.04392573 0.98907447 0.22657527 -0.5331568 0.7874711 -0.3293818 -0.26759553 0.8876836 -0.18406755 -0.8332665 0.41590375 0.1735654 0.32857296 0.24276622 -0.17104642 0.04772317 0.8046398 -0.2733683 -0.001242895 -0.28462175 -0.35518405 -0.049018007 0.72043294 0.07097054 0.45042473 -0.58985615 0.39157376 -0.63868874 0.023458451 0.42701676 0.14885268 -0.12107805 1.0681013 0.3854853 -0.91011405 0.6296497 0.09302257 0.16579503 0.6306547 -0.33581766 0.95477194
170 1.09123 -1.0626222 -0.29021755 0.22311428 0.21365081 -0.2674887 0.22146645 0.077957615 -0.26012528 -0.13607214 0.6234077 -0.37617588 -0.54069805 -0.19275126 0.31354108 0.6710822 0.35997054 -0.3025676 0.48230663 0.86047786 0.29334155 0.20845301 0.4718221 0.32259586 -0.5866684 0.33260956 -0.7405591 0.35748225 -0.32023463 -1.0261273 0.5572153 0.14611416 -0.06362238 0.82012963 -0.32435066 0.447563 0.22437765 -0.58604026 0.28914255 0.08406574 -0.80583626 -0.1832564 -0.035034407 -0.3743416 -0.32810816 -0.70257336 0.51669407 0.22913517 0.31475553 -0.64173156 -0.55040294 0.18310186 0.7338694 0.8379649 1.1391859 0.034964424 0.64869267 0.10334376 -0.1706987 -0.097232446 -0.8059159 -0.41352212 0.5044285 -0.20803739
100 0.029128633 -0.47924727 -0.14178622 -0.44547576 0.06352638 -0.18798728 -0.27440125 -1.1393934 0.79196846 0.14848736 0.8566059 -0.22068025 -0.015090247 0.15313792 -0.3963032 0.8893235 0.4787925 0.048336186 0.30922484 0.19086686 -0.6017767 0.08400977 0.6828184 0.6677883 0.55000776 -0.008205811 -0.69742614 0.015190744 -0.3062166 0.4224986 0.24687855 -0.062067557 -0.33911443 1.2249188 -0.0994025 -0.22809117 -0.5200075 -0.1019468 0.14875762 0.31050763 0.29089445 0.26830402 0.13579306 -1.5000951 0.3804678 0.9004799 0.70047 0.31138787 -0.13631961 0.07885417 0.25427556 -0.097641714 -0.80165905 0.51052356 -0.9888789 0.5229448 0.15199748 -0.5459718 0.34428793 -0.05719893 -0.6317771 0.49878827 0.80684817 -0.34292126
185 1.2173532 -0.8639328 0.5225178 -0.7340264 0.54068017 0.64788866 0.13240314 -0.654187 -0.4289622 -0.06683669 0.05028179 -0.31459835 0.34636885 0.17296776 0.06668744 0.06731939 0.32120687 -0.21966758 -1.1371338 -0.7702591 -0.12909184 0.78782994 1.4225935 -0.4458502 0.063854866 -0.6651232 -0.5620415 -0.47886783 -0.535045 -0.32377586 -0.4789029 0.35886914 0.12780666 0.013210063 -0.41108057 -0.11182378 -0.18187226 -0.81810844 -0.40534073 0.6723588 -0.0015924216 -0.78895134 -0.73989356 -0.31846425 0.10094125 -0.18333907 0.0049739373 -0.61329246 -0.99555165 0.07767436 -0.974582 0.07838866 0.88666385 -0.014968702 -0.028625911 0.16728671 -0.15807214 -0.11912209 0.2542357 -0.20078368 -0.20474161 -0.38601524 0.65624267 -0.015019871
149 1.334513 -1.199189 -0.5038226 -0.0915229 -0.12384204 -0.080740005 0.28586987 -0.15615332 -0.6585149 0.044227563 0.27995464 -0.76365644 -0.3810248 -0.12515 0.15132305 -0.011478187 0.771615 -0.2121414 0.5408903 1.302861 0.86627936 0.24987295 0.39924917 0.32349575 -1.065584 0.17070855 -1.0550389 0.06425501 -0.09838839 -1.1934093 0.87083215 0.08784421 -0.090883754 0.8069833 -0.12579447 0.6445016 -0.2711505 -0.48697752 0.34478858 0.29462597 -0.8703488 0.16194549 -0.2695326 -0.26888222 -0.29382527 -1.0378894 0.8284393 0.28999594 0.10007753 -0.1770378 -1.0150205 0.060410608 0.8928773 0.33912712 1.5167352 -0.21170789 0.40358016 -0.20525843 0.24127024 -0.26209262 -1.0400648 -0.22233804 0.640878 -0.5839292
57 0.52265036 -0.4948258 -0.24749626 0.4825455 -0.6091921 -0.43263617 0.14949743 -0.24069637 0.018682407 0.18314755 0.949831 -0.45510432 -0.5318026 -0.08298253 0.26111415 0.6079868 0.30908749 -0.21465358 -0.044178028 0.3142588 0.39271024 0.21450895 0.57265586 0.22467387 0.106584705 -0.24555065 -0.41328105 0.68169594 -0.22734934 -0.8439894 0.6178462 0.47957152 0.24341244 0.80904096 -0.14892127 0.23199704 0.6467059 -0.8967321 -0.013990848 -0.024766203 -0.25267646 0.08129198 0.38302356 -0.13164756 -0.020012036 -0.8074481 0.41315353 0.30181804 -0.24375492 0.10600896 -0.37765676 0.04444023 0.47871095 0.97072524 0.92545396 -0.44206756 0.36130086 -0.110717155 -0.4741485 0.30461842 -0.64798 -0.18962729 0.4841945 -0.6163882
93 0.6262816 -0.5909828 -1.160292 0.0053939987 -0.5882906 0.6241598 0.24860793 -0.16117737 0.32637268 0.6753349 0.20093004 -0.51623774 0.3942452 0.19939403 0.08236514 0.795638 -0.59969246 0.14945312 -0.20760466 -0.17805693 -0.18990485 0.29800192 1.0775101 0.644285 0.6953913 0.6338326 -0.33106437 0.34394133 0.17261326 -0.9155112 -0.04589131 -0.6339897 0.3561776 -0.60344106 -0.66674304 0.36655077 -0.069346115 -0.67256796 -0.44690552 -0.7187192 -0.118430436 -0.6487615 -0.36739376 -0.8048377 0.23159438 0.18640557 -0.12178597 -0.51884794 -0.33553267 0.0065371697 0.46792367 -0.21039242 -0.18653178 0.09662249 0.43991724 -0.32227707 -0.18496875 -1.2850221 0.5171814 -0.040890947 -0.47812164 -0.039694566 -0.8091928 -0.29252583
137 0.60265636 -0.57198167 -1.1916686 0.08057432 -0.74088025 0.6354706 0.25094458 -0.28031063 0.38215178 0.40110025 0.1228377 -0.4478102 0.41275796 0.2138106 -0.03273519 0.87383384 -0.5311825 0.06473983 -0.17929474 0.021117903 -0.1161395 0.21803989 1.1166205 0.6138535 0.7674006 0.46038586 -0.24010125 0.34983242 0.034626983 -0.8614649 -0.13523918 -0.6767033 0.27621883 -0.57194847 -0.7387192 0.38840127 -0.08120922 -0.48210594 -0.48413143 -0.68522555 -0.09908286 -0.7145311 -0.34354758 -0.88045716 0.25157824 0.31792146 -0.1523989 -0.40726453 -0.31284338 -0.05357808 0.418232 -0.063796826 -0.02974216 0.116407186 0.553657 -0.5854312 -0.11880798 -1.3874288 0.62451667 -0.0005657147 -0.59928817 -0.01379425 -0.83302116 -0.22364287
153 0.32750645 0.21595033 -0.04846238 -0.63172853 0.10500132 0.10935123 -0.22966851 -0.37875536 0.87448937 -0.15547006 1.0888162 0.5030148 -0.09745904 -0.45692977 -0.23644038 0.20385876 -0.84525 0.20077012 0.12264594 -0.29451934 -0.68001384 0.15784918 0.80130976 -0.07215068 0.36333516 0.2367422 -0.7767785 0.11408259 -0.22901116 -0.23248523 -0.08210673 -0.75751346 0.38553336 0.37737557 0.21453422 -0.19726111 -1.1467999 -0.37324 0.59085274 -0.2735142 -0.71515685 0.54000956 0.08295464 -0.8928394 0.7838154 0.21393622 -0.15284248 -0.35632637 -0.4898653 0.6555948 -0.41452035 0.24465676 0.34401023 0.18379645 0.28174838 0.059061237 -0.262188 -0.85009605 0.89804405 0.6818608 -0.44403943 -0.23633625 0.20129554 0.12994426
217 0.048414804 0.044408705 0.30649337 -0.36505592 0.25340962 0.22361428 -0.4030943 -0.41652766 0.630631 -0.1026847 0.60503995 0.012238137 0.10914913 0.1873246 -0.2680823 0.41945076 -0.0680015 0.26768628 0.58931994 0.06620272 -0.30733842 0.008059154 0.543108 0.19633548 0.38907358 0.15204972 -0.44254753 0.12628281 -0.25453386 0.13051628 0.013564483 -0.57898 -0.43505654 0.310625 -0.4413897 -0.38260606 -0.5316329 -0.37555563 -0.039119408 0.37641668 -0.26959494 0.5457803 0.05173059 -0.99062073 0.3653771 0.1466657 0.4659799 0.1474235 -0.38702062 0.149825 -0.29662654 -0.10209411 -0.5160463 0.2272129 0.27993312 0.2709835 -0.10528505 0.030931171 0.4517654 0.31701857 -0.3514319 0.3131599 0.32091147 -0.08258387
184 1.2928462 -0.73568994 -0.96944755 0.009890129 0.14976294 -0.6084098 0.18434799 -0.30948526 -0.45855236 -0.24867642 0.3560339 -0.88342744 -0.21005227 -0.20978685 -0.117106974 0.008775137 0.29145977 -0.2231953 0.104287975 -0.34438494 0.8662364 -0.6130137 0.6320395 -0.078292176 0.61705476 -0.26653114 -0.56638736 -0.7024765 0.5953525 -0.15421747 -0.38249183 0.22789279 0.27128932 -0.15703955 -0.28039235 -0.36952868 -0.016349558 -0.10565528 0.32144374 0.9332066 0.0087266145 0.31686324 -0.23249902 -0.24464826 -0.18079479 -0.054100614 -0.8132945 -0.9066956 -0.4293192 0.36636317 -0.7644324 1.41978 0.02998167 -0.40309218 -0.015436925 0.30228987 -0.06563976 -0.051334605 0.9660324 0.43924534 0.55214053 0.111816525 0.471108 -0.35098454
179 0.7773625 -1.4725877 -0.2715614 -0.1934001 -0.19297752 -0.28359777 -0.8761238 -1.088608 -0.18823501 -1.129326 -0.2289011 0.09481631 -0.20182289 0.39068863 0.9076379 0.27611706 0.23997754 0.22385372 -0.13682732 0.11428329 0.15644686 -0.48766842 0.79087836 -0.36319995 0.8634228 -0.047511086 0.36082482 -0.4086562 -0.36116812 -0.27393726 -0.42326233 -0.23711717 0.15554485 0.7291264 -0.11941 0.31630635 0.46546754 -0.35419896 -0.05801332 0.44924575 -0.4969918 0.11960233 -0.15894167 0.35047713 0.48270002 0.12708819 -0.15938173 -0.78462327 -0.10507669 -0.18816201 -0.73089576 -0.6569471 0.57042044 0.07284704 0.1921326 1.1290854 -0.3850365 -0.6919086 0.4471275 0.7862695 -0.012833601 -0.5222371 -0.36918518 -0.14947721
147 0.605214 -0.41770095 -1.0557055 0.024599291 -0.67634934 0.5065905 0.1333585 -0.25227544 0.36864093 0.45629916 0.12922417 -0.55156004 0.42153433 0.14012815 0.029392742 0.81713 -0.57412535 0.15866488 -0.12026887 -0.0875473 -0.15525453 0.33437523 1.05155 0.5946601 0.7547861 0.47901702 -0.21637212 0.39844805 0.15521719 -0.84278 -0.24786653 -0.64954776 0.2504438 -0.6168095 -0.60953045 0.1948106 -0.03041881 -0.5476872 -0.55183023 -0.75577396 -0.13112393 -0.7152935 -0.34515083 -0.7329562 0.15550011 0.20242985 -0.17661078 -0.4300459 -0.31440997 0.023080098 0.4193864 -0.0728436 -0.05262446 0.11721671 0.50113165 -0.45145953 -0.16487427 -1.4017669 0.61989313 0.0046328823 -0.6483905 -0.06871542 -0.7963419 -0.09370138
87 0.77344173 -1.4777759 -0.19441102 -0.3388442 -0.2224032 -0.30553165 -0.94110507 -1.0394192 -0.21934341 -1.1959087 -0.12131451 -0.018537216 -0.3027241 0.41883427 0.91341805 0.13319525 0.23267132 0.17708999 -0.12898895 0.11027939 0.09421299 -0.55693024 0.7139755 -0.3093185 0.87903 -0.019429602 0.33600175 -0.4223176 -0.5068004 -0.2552774 -0.61168164 -0.321207 0.44479638 0.7179964 -0.052729126 0.2859554 0.4387875 -0.518706 -0.028186554 0.4821662 -0.516697 0.17361094 -0.07717745 0.35548112 0.3111238 0.04735408 -0.19278656 -0.71341616 -0.21282248 -0.19693562 -0.7854947 -0.56000817 0.6876499 0.050127096 0.13976218 0.9964456 -0.33706778 -0.67795235 0.36477056 0.7272756 -0.058870018 -0.5746371 -0.37590292 -0.16896395
284 0.5145584 0.2920006 -0.10549095 -0.53775674 -0.55727816 -0.43027282 0.6751028 -0.26122496 0.38053146 0.86988056 0.20696424 0.12365348 1.0236131 0.048635 0.19247161 0.84473455 -0.04310721 -0.18807189 -0.27422184 0.8357259 -0.51361597 0.044476368 0.5175113 0.5426621 1.2218776 0.71899915 0.45551914 -0.028654765 -0.3610186 -0.4448383 0.56432754 -0.19142075 -0.48047468 0.13441633 0.318352 0.48880774 -0.20038295 0.31474444 0.23085076 0.42108732 -0.35702646 0.71247506 1.0013807 0.013213913 0.5210636 -0.5534053 1.0078994 -0.48107684 -0.92200947 -0.41591817 -1.0469728 0.4727299 0.36419737 -0.28998917 0.49728292 0.31678548 -0.5284726 -0.39137936 0.24647352 0.17498365 0.22222649 0.5846527 0.12668832 0.4652712
108 0.46154466 -0.34047085 0.27613902 -0.3714969 -0.20493098 -0.10601843 -0.08421172 0.4103793 0.4072956 -0.12448756 0.68639356 0.13736618 -0.8967091 0.11995401 0.525897 0.6854922 -0.6912364 0.13886458 -1.0569364 1.1787443 0.113033295 0.23663554 0.86081105 0.18539429 -0.39573267 0.4628115 -0.33315322 0.8765432 0.0032334344 -0.6804738 0.31128326 -0.37935793 -0.09079655 0.05522567 0.6592693 -0.15713033 -0.28861997 0.5051997 -0.285031 0.5913592 -0.27648717 -0.1886109 0.5881606 -0.3572779 0.8080086 0.45349964 0.005763742 -0.2572359 -0.66738546 0.5499159 -0.51870483 0.6991655 0.99463135 0.6484666 -0.2459806 0.7840238 -1.4850307 0.3054198 0.35921395 0.17208317 0.5528095 0.10442574 -0.0024513127 0.747229
120 0.2911174 0.19611748 -0.12280142 -0.5319448 0.12891398 0.17241418 -0.28377724 -0.4345078 0.84755135 -0.15465789 0.89826113 0.46130723 -0.16472778 -0.42376494 -0.19660547 0.31663567 -0.78349096 0.23453236 0.15758911 -0.17548014 -0.870983 0.15913366 0.70768267 -0.06983977 0.40595627 0.21558174 -0.72853637 0.1702211 -0.3011168 -0.22755668 -0.018079704 -0.5899563 0.2543822 0.3052986 0.15243082 -0.076628424 -1.187104 -0.38535365 0.55275655 -0.15645379 -0.5565242 0.5327134 0.06233446 -0.735325 0.8057326 0.185826 -0.17092171 -0.49552935 -0.477531 0.78295726 -0.3528946 0.17950992 0.34160003 0.15369649 0.19567361 0.13398845 -0.42319736 -0.85662425 0.8909591 0.6741136 -0.55005646 -0.22036658 0.23264538 0.060854394
78 1.1844864 -0.7766165 -0.9311953 -0.061221115 0.120484374 -0.6484596 0.19525275 -0.2816648 -0.48820794 -0.13852905 0.19601779 -0.865258 -0.16051638 -0.13429026 -0.27240646 -0.10615667 0.4350518 -0.17132302 0.06418571 -0.5131752 0.77056545 -0.6696594 0.6238216 0.03151539 0.5229906 -0.21854204 -0.517366 -0.6962498 0.6286084 -0.14322338 -0.28018594 0.24569274 0.28255883 -0.13592581 -0.30773866 -0.36172754 -0.08810203 -0.09617015 0.26919305 0.78472143 0.008284222 0.2893115 -0.19302197 -0.1857804 -0.23988335 -0.057813644 -0.89193374 -0.98171085 -0.48740765 0.368674 -0.7371825 1.4856312 0.099806316 -0.38380733 0.08783226 0.33301473 -0.20301113 0.055969246 1.0129037 0.5574264 0.42713436 0.24121076 0.48679402 -0.27583727
384 0.048419602 -0.0949316 0.28091925 -0.1693698 -0.27170107 -0.253031 0.0025010712 -0.41224858 0.29020476 0.35088038 0.10056236 -0.15018009 0.16925584 0.38566276 -0.016222311 0.21542378 -0.34170666 0.089006335 -0.21268046 0.57152057 -0.0992796 -0.06446405 0.5893308 0.2787486 0.47345436 0.4363152 0.0010504973 -0.014658405 0.25493085 -0.31147623 0.5608778 -0.12521453 -0.18174224 -0.18463431 0.2199179 0.09564649 -0.22769807 -0.20982826 0.009732623 0.81235194 0.02509465 0.3488877 -0.10902635 -0.38115782 0.004525631 0.0845881 0.5785189 0.42284158 -0.40686893 0.03441413 -0.62745273 0.26948845 0.37134382 0.38930386 0.19490802 0.5761808 -0.29869986 -0.1179046 0.06676262 0.120273724 0.03293082 0.30720076 -0.00775287 0.6237719
399 0.013691059 -0.100835435 0.25451252 -0.24177723 0.29584628 0.09409345 -0.36366245 -0.39189 0.7634353 0.016748235 0.49240556 0.053448632 0.05105384 0.108206086 -0.24508211 0.37347066 -0.12953797 0.20917106 0.6218584 0.1154124 -0.38610408 0.07731195 0.45885324 0.1705865 0.21493101 0.06316858 -0.31850353 -0.008726623 -0.2565693 0.1832051 -0.04586434 -0.4988752 -0.49545848 0.35401148 -0.46484494 -0.39332578 -0.63950765 -0.47258395 -0.12073613 0.45678118 -0.37399304 0.6293477 0.00063922163 -0.98002225 0.51248145 0.1145038 0.4209159 0.10168383 -0.45893785 0.09227684 -0.2078463 -0.122605205 -0.50741005 0.22610545 0.24438874 0.18968864 -0.20893502 -0.17445867 0.34569442 0.24133477 -0.31721595 0.37681398 0.34320313 -0.17858613
59 0.2954206 -0.27146676 0.3191177 0.3208646 0.043035448 -0.54388505 0.13740182 0.023401236 -0.26338047 0.050131943 -0.18877257 -0.0056300787 -0.03286945 -0.117886335 -0.09159236 0.08154912 0.48628518 0.5322066 0.15293579 0.30883342 0.10475571 0.07956785 0.2921204 0.7588075 0.36112866 -0.16476014 -0.3497031 0.05192888 -0.07463645 -0.16697113 -0.077054724 0.4429146 0.32768235 0.0012832383 -0.2550368 -0.26312482 0.3337508 -0.23783886 0.21070892 -0.08603037 -0.83441734 0.13249585 0.13088095 -0.4723967 -0.082516775 0.06746664 -0.20342515 0.33986053 -0.68362516 0.2917711 -0.36235344 -0.02806297 0.019604404 0.05433116 -0.21100928 -0.124940805 -0.09040613 -0.004714484 -0.28337222 0.4725247 -0.10163077 -0.13707572 -0.3650719 -0.06967792
160 0.55552477 -0.5251682 -0.07860615 0.37375826 -0.21465868 -0.10777269 -0.12953743 0.19052568 0.047029193 0.30537957 0.28401974 -0.7726598 0.46996945 0.035499565 -0.23969299 0.66727847 0.12780064 -0.110127114 -0.18279439 0.51757395 -0.024146972 0.55255467 0.6995614 0.31231925 0.33512077 0.5136145 -0.19936754 -0.29844028 0.7389052 -0.5734174 -0.23113322 -0.60451525 -0.41686824 -0.904649 -0.40876606 0.11849063 -0.28540978 -0.2820565 -0.45026022 -0.0031336546 -0.19380975 -0.44781947 0.0029120005 -0.87389237 0.35552233 0.1683268 0.011168169 -0.35299963 0.09993955 0.34249482 0.010695211 -0.16387579 -0.22135234 -0.03244186 0.082813054 -0.18616028 -0.16243464 -0.28335842 -0.12003095 -0.32048172 -0.49249956 0.09992733 -0.46150875 -0.590942
186 -0.091963224 -0.5399097 -0.31553715 0.63934153 -0.36065373 0.16137761 -0.22635584 0.15360777 -0.46030536 -0.22394614 0.5288974 0.9242273 -0.094311796 -0.5530044 0.037770707 0.63647884 0.1044671 0.80379385 -0.18937993 0.49173176 0.73107153 0.34325364 0.5261181 1.2226499 0.062970705 -0.39385644 -0.59001607 0.9539443 -0.10083228 -0.66159475 -0.46508652 0.3475571 0.5519529 -0.27790898 -0.18862553 -0.4768098 0.7673157 -0.81622916 -0.42224607 0.21140783 -0.22835886 -0.041625626 -0.01716519 -0.37467304 0.5933536 0.19491464 -1.0573521 0.65732276 -0.289122 0.33753517 -1.0439658 0.08403597 0.2596752 -0.12357551 0.069920786 0.04717239 -0.9802065 0.0027565414 -0.13777849 0.08464076 0.20340359 0.19815104 -0.10814016 0.2169114
138 0.5889843 -0.65473646 -0.2021219 0.32204244 -0.65962964 -0.39109206 0.03633831 -0.19593278 0.187756 0.16832237 0.8081888 -0.44642273 -0.5005653 -0.1410881 0.1610692 0.6172179 0.37383413 -0.16316302 -0.125857 0.29708064 0.40342647 0.15968104 0.52881825 0.23851839 0.058294475 -0.09001654 -0.42962223 0.6645049 -0.2813179 -0.84512043 0.63665026 0.54617125 0.2399313 0.8400839 -0.20077555 0.028184973 0.55438507 -0.76880115 0.08310421 -0.032749485 -0.364295 -0.0064766766 0.26491043 -0.074401915 0.048335083 -0.8088735 0.34432787 0.25587615 -0.32794008 -0.02885033 -0.48127297 0.08216568 0.46292013 0.70889324 1.1206677 -0.58262897 0.45997497 -0.15873985 -0.48355907 0.37872162 -0.5152309 -0.23158674 0.3620236 -0.59702766
378 0.41575146 -1.2574204 0.012982131 -0.27589133 -0.4995708 -0.000763626 -0.88831556 -0.26106045 -0.75565517 -0.86741936 0.49666548 -0.15809105 0.12082928 0.05552349 0.25393686 0.30763116 0.15781267 0.428462 0.0044514644 0.08525164 -0.29361182 -0.72126335 0.19680515 -0.37983233 0.4189719 0.042777598 0.41193166 -0.2597642 -0.44402003 -0.528513 0.15823524 0.26934275 -0.4534813 0.03587114 -0.6265988 0.0013841583 0.6246703 -1.0224822 0.42117193 0.29767478 -0.16086166 0.05488703 0.1264767 -0.16728011 0.31530604 -0.25888383 0.06429875 -0.53450704 -0.1962384 0.0065559703 -0.258542 -0.1758822 0.33866453 -0.21222425 -0.33367288 0.46841407 -0.26068377 -0.4025564 0.09111054 0.43401623 0.35163155 0.29057574 -0.37399235 0.03613786
22 0.42348468 0.23343146 -0.105012365 -0.6272981 0.06630485 0.11418729 -0.16562386 -0.49436647 0.8619192 -0.15364094 1.0370357 0.5645758 -0.18463244 -0.37563244 -0.16586016 0.36909902 -0.79757154 0.31315503 0.1322547 -0.17627569 -0.6290098 0.17478533 0.78552544 -0.05783934 0.3711225 0.37438267 -0.69592154 0.18894619 -0.19649825 -0.21569762 -0.017156774 -0.6433855 0.28951475 0.49795434 0.25969234 -0.23250632 -1.2102233 -0.40920627 0.55800796 -0.25377876 -0.5569355 0.545889 0.06142422 -0.77836156 0.7327668 0.3286221 -0.18511204 -0.46712625 -0.46716002 0.7064965 -0.4870155 0.14400904 0.268216 0.05219558 0.15735026 0.03298043 -0.11736289 -0.732008 0.9310859 0.5846731 -0.51513755 -0.15499751 0.22292869 0.073663324
351 0.017390097 0.024601823 0.2965173 -0.17113626 0.17234603 0.13115035 -0.35096666 -0.38097903 0.65473163 -0.047535382 0.5971012 0.10172717 0.11870404 0.18336867 -0.32232463 0.2856092 -0.08556667 0.29085836 0.5641 0.17271343 -0.20617573 0.0066020885 0.47950798 0.2794008 0.26167288 0.14505535 -0.25563937 0.06725471 -0.3471865 0.07910414 -0.1720182 -0.560469 -0.49333677 0.28778204 -0.44245782 -0.40845293 -0.64448535 -0.3145369 -0.19776073 0.50794566 -0.3323028 0.5888045 -0.028665714 -1.099269 0.4080105 0.16906258 0.46169114 0.11315224 -0.3381151 0.111880094 -0.3387848 -0.05988521 -0.4418964 0.14874537 0.27918914 0.34854493 0.019739568 -0.19037785 0.3632976 0.38463616 -0.25135115 0.3468681 0.45845273 -0.08107164
182 0.7151908 -1.5186602 -0.25486764 -0.34048042 -0.22097458 -0.24874645 -0.9574687 -1.1369643 -0.35910976 -1.0996056 -0.101214625 -0.02537455 -0.22531575 0.45806605 0.95922786 0.17204218 0.13941984 0.17011389 -0.0015954364 0.08297731 0.12452403 -0.5547918 0.6621979 -0.17145222 0.9398817 -0.050718408 0.46980888 -0.25629103 -0.363155 -0.24030715 -0.40703627 -0.22081994 0.11282629 0.60279113 -0.18879692 0.29418978 0.3580809 -0.50234735 -0.08615845 0.3943897 -0.59668195 0.07842843 0.0003993753 0.32978415 0.35516474 -0.049173675 -0.35963747 -0.8415435 -0.13750796 -0.11446777 -0.72951275 -0.763553 0.78169096 -0.03714802 0.13504103 1.0075958 -0.43565914 -0.7578153 0.36900252 0.75459653 -0.08608663 -0.46455154 -0.28228834 -0.18168655
282 0.040923968 -0.27109855 0.19410253 -0.26243213 -0.42072815 -0.13761 -0.0068928017 -0.32679635 0.2547687 0.5590093 0.09731181 -0.16128308 0.29533374 0.36658856 0.15317538 0.080028675 -0.48102304 0.08404447 -0.14399217 0.5336822 -0.09217789 -0.06733045 0.5892148 0.21148078 0.33558604 0.4505595 -0.086695455 -0.07029587 0.14371794 -0.2572724 0.50729066 -0.07126622 -0.2026046 -0.12950249 0.18423648 0.052989922 -0.21910591 -0.17090683 -0.100428745 0.7133499 -0.12628323 0.3969935 0.08455377 -0.32700533 -0.09581695 0.12438139 0.68908757 0.3472106 -0.44685113 0.060283143 -0.57228184 0.24349159 0.4549294 0.32734886 0.20666277 0.6248001 -0.42985168 -0.09639477 -0.029602326 0.03967474 0.1030079 0.39525208 -0.116205014 0.4641446
407 0.261178 -0.29807428 0.18262006 0.37401524 0.61964667 -0.7600846 -0.37604696 -0.20286718 -0.2516234 -0.07512562 0.097183794 0.16504145 0.22611214 -0.46007156 -0.029733669 0.22006764 0.53720313 0.41642162 0.07745334 0.0405124 0.24703059 0.12214416 0.3069605 0.15121958 0.12665406 -0.50569105 -0.4046857 -0.42190552 -0.56944793 -0.38672918 0.82651633 -0.18160863 -0.007381388 0.3318649 -0.12380495 -0.030174498 0.4092673 -0.6072263 -0.2197827 0.052092467 -0.22971019 0.45535117 -0.42528233 -0.31846258 -0.6380802 0.41863295 -0.34236956 -0.11354761 -0.25407293 0.0220305 -0.45065928 0.45799726 0.32766512 -0.39412454 -0.27665958 0.18118328 -0.40276474 0.41310596 0.13301848 -0.23851854 0.13722102 0.012984234 -0.34261402 -0.75865823
1 0.3370441 -0.29291308 0.26113507 0.32529345 0.18957028 -0.46592295 0.09491084 0.17150214 -0.218822 0.17029949 -0.14231731 0.10881553 -0.2923665 -0.15828723 0.05871052 0.17643557 0.4299179 0.31421235 0.19318442 0.30458322 -0.0022753847 0.036557127 0.27806628 0.5836824 0.40015876 -0.18797742 -0.2771653 0.2623988 0.0053416966 -0.09909123 0.0015814438 0.47551537 0.37843654 -0.088645905 -0.30346686 -0.06708926 0.32525423 -0.3105582 0.07694879 -0.10845228 -0.6431378 0.23730561 0.05940215 -0.48786595 -0.009703396 0.09150066 -0.19902092 0.28968656 -0.7055045 0.2005401 -0.51527596 0.029976536 -0.007997742 0.037709344 -0.23618078 -0.24084727 -0.13980654 -0.07793015 -0.42172748 0.43087304 -0.084978335 -0.08615525 -0.19577263 -0.1209544
9 0.058760922 0.06657562 0.36675093 -0.2519731 0.27126542 0.13090067 -0.35563782 -0.26149526 0.6752863 -0.11183018 0.6039091 0.007248455 -0.041633733 0.15198739 -0.1748598 0.31804734 -0.016577998 0.12707737 0.61698526 0.12235911 -0.30084354 0.20385388 0.5300937 0.2757871 0.2617858 0.12554298 -0.38973394 0.10419773 -0.35722807 0.14911279 -0.05544757 -0.6237117 -0.4011397 0.28204644 -0.51776546 -0.49998483 -0.5291746 -0.45993346 -0.13348094 0.358315 -0.30158234 0.65045905 0.07041824 -0.93894506 0.470209 0.11766507 0.67308486 0.090248495 -0.4417877 0.22741085 -0.3104322 -0.07885977 -0.41227722 0.23407423 0.19384073 0.50987256 -0.10187847 -0.13170607 0.48416623 0.28738174 -0.30741954 0.40356454 0.31443718 -0.14824589
187 0.47177148 -0.4883777 -0.29975006 0.488796 -0.6804262 -0.35856077 0.27821755 -0.10829403 0.018564245 0.21661654 0.9123945 -0.47060898 -0.51368606 -0.24257536 0.11041519 0.7504102 0.3643723 -0.4603454 -0.076680236 0.36150664 0.38106003 0.22087596 0.54235464 0.14283589 0.13908406 -0.122857206 -0.3120259 0.56407046 -0.4322742 -0.86532533 0.6477912 0.5089655 0.15177837 0.78908944 -0.12439989 0.0982437 0.5616256 -0.8525119 0.0656721 -0.16766702 -0.4415873 0.13164333 0.33344665 -0.14474446 -0.042501435 -0.8619083 0.24306472 0.27731764 -0.43608823 0.011884589 -0.402614 0.00652709 0.5258746 0.86654645 0.888529 -0.4623108 0.36034557 -0.13871141 -0.40127876 0.4764783 -0.61903846 -0.16377172 0.41849 -0.55494297
201 0.6672248 -1.1851699 0.7437603 -0.5774918 -0.0768977 -0.31090406 -0.92827487 0.46528015 -0.21371728 -0.7673361 0.6026035 0.0074835764 0.32916385 0.2947325 0.3664822 0.08483219 0.26561576 -0.09168784 0.92520326 -0.4961607 0.1206685 -0.51925087 0.70139253 -0.093574226 0.4620392 0.1425941 1.0256888 -0.57860315 0.14874792 -0.7093476 0.74551135 0.61164707 -0.7949257 0.34483823 -0.20896743 0.35332954 0.7680832 -0.26951382 -0.2172118 0.2075492 -0.39608717 -0.117898315 -0.5376852 -0.5197083 0.7497044 -0.08435081 -0.31223312 -0.6974125 0.12507275 0.6862472 -0.76156384 -0.44904724 0.03975273 0.357246 0.3698522 0.23831432 0.022672176 -0.7235459 -0.1564501 0.23458649 0.26158252 0.39352906 -0.47357357 -0.05071728
86 0.81204736 -1.523737 -0.3734239 -0.32590726 -0.12134393 -0.24674012 -0.92458504 -0.94795024 -0.25710866 -1.1163504 -0.16114087 -0.012364738 -0.376438 0.45473424 0.83412635 0.1691523 0.30659896 -0.01589692 -0.013538148 0.023210099 0.10495525 -0.3600314 0.6133197 -0.26384076 0.98231083 -0.03232787 0.33434054 -0.35196316 -0.4627284 -0.30122724 -0.35012072 -0.20687072 0.1618005 0.7087067 -0.11974011 0.18377554 0.294111 -0.41117644 0.0111408485 0.5044181 -0.5250174 0.06947827 -0.046601348 0.27895573 0.3065848 0.020844368 -0.26721227 -0.65046775 -0.14232564 -0.23538145 -0.7406296 -0.64401144 0.6613792 0.03212422 0.11206148 1.117262 -0.39645046 -0.66052324 0.41241312 0.6870744 0.04344285 -0.4819953 -0.38606453 -0.24637897
412 -0.05100273 -0.017449617 0.2950778 -0.377765 0.2166184 0.13441373 -0.40126207 -0.36739492 0.67209977 0.021096962 0.62566996 0.015967889 0.0708081 0.2594529 -0.17381087 0.24052125 0.007675872 0.25517213 0.4540184 0.1938659 -0.21063226 0.15119857 0.47229287 0.22987229 0.18470998 0.13614476 -0.25856274 -0.048737187 -0.18184659 -0.031822417 -0.011518613 -0.6073377 -0.39591396 0.2820731 -0.5077267 -0.4992932 -0.54101855 -0.3667102 0.08322466 0.31491038 -0.26107356 0.6095089 0.07030441 -0.9403061 0.4387489 0.14310595 0.42004338 0.13097057 -0.33318096 0.09276091 -0.36180267 -0.14342919 -0.50171685 0.26683402 0.06705931 0.3427183 -0.054442093 -0.06770476 0.36762896 0.3590514 -0.30413407 0.33423424 0.42260373 -0.1036876
169 0.8996963 -1.1254516 -0.25480115 0.37501636 0.22335882 -0.41207016 0.3597667 0.008611735 -0.15631016 -0.08857067 0.65415514 -0.4441108 -0.6515358 -0.19914268 0.25980303 0.6742139 0.42970031 -0.46815464 0.4149612 0.8523439 0.2650137 0.23896092 0.5164434 0.39737672 -0.49872592 0.31367123 -0.81389767 0.36890084 -0.39012858 -1.0166801 0.6019358 0.2860141 -0.2521399 0.8462152 -0.36981255 0.41189134 0.13071455 -0.71598303 0.26537925 -0.06959821 -0.74287456 -0.15898646 -0.049828686 -0.29395863 -0.15975888 -0.69596195 0.3068408 0.28931662 0.41122743 -0.6056612 -0.56016344 0.15490995 0.8485881 0.8367885 1.0495657 0.13473243 0.69343764 0.099910334 -0.2004634 0.010918949 -0.73158383 -0.36756548 0.45210192 -0.2651199
61 0.9248027 -0.85408205 0.52744585 -0.634531 0.737194 0.68717897 0.070196554 -0.6687814 -0.36297104 -0.05594232 0.11873907 -0.31426564 0.373444 0.19208422 0.20563503 0.11471174 0.45818332 -0.30345255 -1.2462353 -0.7584896 -0.08358145 0.8921242 1.3985617 -0.37883773 0.07740056 -0.4306652 -0.6740361 -0.53566605 -0.6246614 -0.41628164 -0.50228304 0.46626082 0.03435143 0.13361932 -0.47641256 -0.27072296 -0.3480968 -0.7795706 -0.43850484 0.7598016 -0.10319854 -0.67744684 -0.82846236 -0.083980754 -0.05378625 -0.21957272 -0.13642284 -0.5367479 -1.0081695 0.04028984 -0.8653722 0.13879815 0.97713333 0.033580635 -0.15516418 0.117276125 -0.106687896 -0.046870224 0.105795406 -0.25600842 -0.2515665 -0.38802278 0.78085876 -0.31131178
188 -0.08132571 -0.009098331 0.35598627 -0.3527891 0.18138248 0.0052843685 -0.33138573 -0.30779868 0.5774907 -0.055077847 0.56459457 -0.018968843 0.01781755 0.24700098 -0.09914084 0.24643296 0.0023563872 0.21805167 0.59807855 0.10214424 -0.29749593 0.10936672 0.558181 0.22792174 0.2838592 0.1468627 -0.35426608 0.17385903 -0.2221423 0.059037086 -0.09475447 -0.6367637 -0.51680654 0.20612828 -0.42480108 -0.39042297 -0.60618824 -0.40032277 0.06277286 0.34642226 -0.31954777 0.63077563 -0.048383396 -1.0210822 0.4700835 0.3011127 0.49969867 0.18138099 -0.3705887 0.06836899 -0.3068207 -0.029450756 -0.49158338 0.25894946 0.35111526 0.18922101 -0.093811594 -0.045965157 0.3776973 0.31962773 -0.24274272 0.31979704 0.45092413 -0.13878141
171 0.84640104 -1.2262433 0.74407774 -0.5397621 -0.13782701 -0.24497868 -0.91795874 0.431455 -0.359558 -0.7717919 0.52258795 -0.0053476496 0.38373742 0.2053119 0.11117589 0.037039407 0.37138972 0.10444596 0.8603471 -0.48686615 -0.019269802 -0.36780998 0.55234504 -0.19341923 0.6022191 0.12298906 0.92872745 -0.4801272 0.031274527 -0.78620714 0.7002548 0.53953063 -0.7281761 0.40730965 -0.14535089 0.44747618 0.8417634 -0.32142437 -0.31153408 0.1944788 -0.27105018 -0.1150994 -0.5260581 -0.55186105 0.8067182 -0.088770986 -0.23406848 -0.6766586 0.13548514 0.4824137 -0.7151291 -0.2583695 0.019288313 0.3077421 0.5097702 0.28687942 0.14917436 -0.6922997 -0.22663012 0.31186852 0.42833394 0.37718713 -0.5888257 0.050421726
135 0.49581838 -0.61897224 -0.21806929 0.4540715 -0.6592943 -0.47602 0.3009723 -0.13767493 0.08153875 0.122639835 0.8200187 -0.35497516 -0.45275325 -0.058147795 0.21059816 0.6964474 0.34359372 -0.14890319 -0.009670371 0.38255227 0.33259997 0.20626754 0.4891787 0.16968177 0.08994246 -0.13998413 -0.40050915 0.7141265 -0.3393395 -0.83546084 0.6763925 0.37225282 0.22809638 0.8864715 -0.17110415 -0.08727076 0.54420286 -0.89917165 0.0028069557 0.023471022 -0.28621534 0.06637039 0.32570985 -0.13493472 0.0757885 -0.94158435 0.26786247 0.2552435 -0.27439776 0.09183899 -0.4512864 0.10689499 0.48637268 0.9102235 0.9891605 -0.5739406 0.47448647 -0.25135335 -0.42217717 0.33256468 -0.5289019 -0.44548354 0.33024377 -0.6133972
14 0.23350824 -0.26923528 0.2756993 0.3662906 0.81711733 -0.8361467 0.34051123 0.6770433 0.6780686 -0.5575919 1.0129969 0.08998868 -0.1943834 -0.33080915 -0.11809782 -0.2285991 0.06799556 -0.13498181 -0.22959435 0.09674529 0.3667745 -0.048823636 0.595508 -0.39874655 0.5025021 -0.30139953 -0.39297616 -0.39167768 0.0054797474 -0.82609206 -0.012074607 0.39943063 0.4642515 0.36362365 -1.124567 -0.050414752 0.9745475 0.05652215 0.2840418 1.1814915 0.62951 -0.21997878 -0.3926496 -1.2930062 -1.1333505 0.44242704 -0.07572516 -1.2466228 -0.795162 -0.016313942 0.001185503 -0.1505508 0.13004403 -0.86984193 0.31510547 0.14483453 -0.14963293 -0.57769656 -0.050389893 0.026144134 0.64118856 -0.3212722 0.07865386 -0.19688845
210 0.50897574 -0.61031467 -0.32409307 0.4541129 -0.5773903 -0.35011122 0.14615688 -0.19864216 0.09943707 0.13925496 0.6794491 -0.52512455 -0.59119815 -0.17913474 0.23550723 0.6639847 0.35195702 -0.17375623 -0.126403 0.32658875 0.2531181 0.24056157 0.56342685 0.27862218 0.14512898 -0.17298786 -0.29670638 0.72579193 -0.21666728 -0.84706396 0.7589838 0.48715046 0.19787575 0.88786536 0.015043024 -0.023125429 0.5774165 -0.9901692 0.047222935 -0.03965625 -0.20233211 0.17555752 0.3093269 -0.17336133 0.12892687 -0.82358074 0.33528358 0.21035331 -0.22787844 0.113971785 -0.4459234 0.08974544 0.40187502 0.9015914 0.9601978 -0.45447418 0.4947841 -0.16991599 -0.46970913 0.47131538 -0.61510074 -0.35303506 0.497305 -0.6655182
15 0.8008093 -1.1470428 0.7268897 -0.5381833 -0.19158576 -0.19047414 -0.94820386 0.4127833 -0.23388313 -0.79057574 0.6580454 -0.041718338 0.29728395 0.30494455 0.31570467 0.09561196 0.25995848 0.035213947 0.94643664 -0.611685 -0.006807468 -0.41094124 0.6045127 -0.10076277 0.47293484 0.24768771 0.9538651 -0.45479208 0.1005199 -0.67698985 0.68963754 0.6260081 -0.82274425 0.28877613 -0.21524991 0.42398888 0.87619513 -0.41510892 -0.08836276 0.2701209 -0.3764652 -0.2132215 -0.56947225 -0.5639868 0.70277405 -0.050568115 -0.34199035 -0.69110817 0.0469518 0.44568023 -0.7443822 -0.26148218 0.075902626 0.16713491 0.3622967 0.20403215 0.101968944 -0.6433756 -0.34499556 0.29088175 0.26822075 0.37576482 -0.5054897 0.18928538
148 0.8019559 -1.2634155 0.7307881 -0.5246435 -0.11543016 -0.21725564 -0.9356057 0.398501 -0.21826725 -0.7596995 0.48656178 0.04223409 0.30827704 0.33771926 0.30817032 0.16134173 0.2700485 0.2091248 0.83510053 -0.550078 0.08807496 -0.49451837 0.63573796 -0.22438613 0.5741614 -0.00036646274 1.0944506 -0.53778297 0.17648453 -0.7266493 0.8233491 0.53726137 -0.77285486 0.3787865 -0.16400991 0.44251934 0.7501469 -0.37210685 -0.19475494 0.20956223 -0.35357633 -0.18737072 -0.45787698 -0.7029748 0.8334727 -0.097944275 -0.39096913 -0.61989635 0.071624644 0.5353969 -0.5912088 -0.35632485 0.045798734 0.2501158 0.5128382 0.2806121 0.026853267 -0.7141528 -0.14191164 0.33284247 0.34096646 0.46168733 -0.55755556 0.15649487
154 0.01038165 -0.043149382 0.3325666 -0.31752574 0.3117889 0.14340484 -0.2654309 -0.24389227 0.6874937 -0.12380751 0.5321484 0.13491535 -0.0073088543 0.21045241 -0.232663 0.48573488 -0.02074859 0.24265826 0.54481053 0.12895694 -0.23423152 0.082609005 0.5242813 0.15281618 0.28569275 0.06507311 -0.3246753 0.12322736 -0.2771101 0.09448516 0.060933106 -0.62119037 -0.44295394 0.2861006 -0.49938217 -0.3061771 -0.5945587 -0.29881123 -0.117995046 0.53161913 -0.25351226 0.66976476 -0.0035531432 -0.9866583 0.49528003 0.21528731 0.5165832 0.0501346 -0.40409806 0.079196334 -0.29064304 -0.07984741 -0.49644384 0.24374405 0.17308775 0.27661088 0.00040569814 -0.100736305 0.42165333 0.42145297 -0.37760547 0.42745546 0.38433138 -0.11875113
292 0.31825814 -0.49244297 0.30307677 0.35768235 0.62943846 -0.65519696 -0.48000866 -0.19950141 -0.2826426 -0.030598665 0.1398481 0.17370929 0.20261179 -0.38931483 0.28432626 0.20540427 0.52325636 0.5529469 0.06378401 -0.02476132 0.24900708 0.14399974 0.19315535 0.057770938 -0.009675967 -0.33945322 -0.3457713 -0.436709 -0.5129935 -0.54414177 0.8683967 -0.18559758 0.22168238 0.29682058 0.11812293 -0.2680731 0.46065572 -0.68993396 -0.25933823 -0.045538828 -0.24313998 0.4738111 -0.23795141 -0.4138834 -0.7105192 0.3832252 -0.1584616 -0.1411978 -0.44287953 0.08886335 -0.2941921 0.5845937 0.24475594 -0.49934158 -0.32348636 0.18650793 -0.2609878 0.54154205 0.09477134 -0.22753024 0.024524653 0.19064756 -0.29184285 -0.954859
448 -0.05414586 -0.14182843 0.26091924 -0.21795303 -0.36078948 -0.2502994 0.09573563 -0.3661169 0.32642013 0.465722 0.2788021 -0.122958675 0.36379066 0.37128884 0.19015528 -0.015584576 -0.3326396 0.121836245 -0.13688688 0.6604066 -0.15313126 -0.077371925 0.5777776 0.15463465 0.36366302 0.40588513 -0.08452125 -0.049976774 0.23104024 -0.44507962 0.43417764 -0.1086903 -0.30429935 -0.21228413 0.22029956 0.08606545 -0.25615385 -0.26215297 -0.078151554 0.7393973 -0.020418398 0.3699653 -0.11510641 -0.2969245 -0.17234494 0.11888743 0.578073 0.3054884 -0.45668915 0.041130546 -0.6014757 0.17285576 0.34207746 0.35744363 0.09460859 0.5868963 -0.28018615 -0.17175362 0.018095495 0.11362506 0.023605201 0.24468906 0.0010464741 0.6069723
35 0.564389 -0.55527645 -0.114402264 0.3232371 -0.11916602 0.13180451 0.0018650523 0.16353056 0.22503589 0.23994802 0.31428716 -0.7375437 0.6336852 0.042153057 -0.23033504 0.6272809 0.09891568 0.015230686 -0.16511074 0.43027845 -0.043300055 0.50214356 0.69288623 0.13065466 0.478352 0.41519865 -0.27521497 -0.22483826 0.8105437 -0.6017204 -0.16786027 -0.59487975 -0.24873975 -0.9352198 -0.3875217 0.20597179 -0.17625262 -0.4002987 -0.40323645 -0.051036455 -0.23033078 -0.44171396 0.008537494 -0.84807277 0.37092707 0.105241165 0.008473132 -0.32824364 0.22675975 0.1931476 -0.05535054 -0.054289658 -0.22198257 0.072775796 -0.08640265 -0.20313758 -0.029646413 -0.25523394 0.06934826 -0.16322066 -0.48643953 0.048021846 -0.6454256 -0.54380673
176 1.3221911 -1.2382646 -0.42279062 -0.18837385 -0.17019078 -0.05157238 0.42223185 -0.08626915 -0.62239456 -0.0772657 0.4649843 -0.62964255 -0.38236454 -0.0007138315 0.25252616 0.1400129 0.85616434 -0.17133503 0.4648718 1.2435842 1.0747287 0.10086674 0.2889008 0.25571665 -1.1276908 0.0016029853 -1.125332 0.03548043 -0.021509403 -1.1464005 0.83926076 0.14354083 0.002498159 0.69215894 -0.13380526 0.82561606 -0.35462937 -0.41603994 0.3076906 0.34089088 -0.8849897 0.0463805 -0.20096204 -0.39722532 -0.2115837 -1.0079921 0.7140718 0.41047242 0.16152143 -0.27823526 -0.90616256 0.21698312 0.84395087 0.4114346 1.4458007 -0.12052219 0.4223221 -0.24170095 0.22380628 -0.09499417 -1.1003975 -0.15132067 0.58171123 -0.6281159
394 0.4500021 -0.7424521 0.22408026 0.20431872 -0.39760208 -0.32428783 -0.6274632 -0.22016867 -0.81330293 -0.22508423 0.2693064 -0.41869065 -0.11333332 -0.16297233 0.14004222 0.16394423 0.26318887 0.32244855 0.29617962 -0.13622302 -0.30981454 -0.33388808 0.80992764 -0.5845813 0.5515617 -0.8241312 0.25689206 0.20314993 0.083842434 -0.93732697 -0.45054027 0.26284343 0.027438749 0.13021941 -0.9013082 -0.31210548 -0.08098021 -0.44855908 0.20261613 0.16966173 -0.1540983 0.720538 -0.04307227 -0.3354951 -0.24453898 -0.44012818 -0.005144478 -0.6066879 0.116539605 -0.3152105 0.12000393 -0.37176326 0.8498639 -0.54985446 -0.09070279 -0.1934176 -0.29607585 -0.16040637 0.539858 0.12826228 0.37044165 0.22953501 -0.27240524 0.86251485
140 1.3805966 -1.1278884 -0.50258744 0.023758665 -0.13449456 -0.046118814 0.46509725 -0.14105129 -0.6366722 -0.011630903 0.36288124 -0.65727806 -0.41670963 -0.17337556 0.23421831 0.16590272 0.7972107 -0.18761158 0.55659366 1.1828561 0.95640224 0.11884677 0.42352143 0.2817446 -1.1750574 0.16224404 -1.0751133 0.095732726 -0.15724432 -1.1353556 0.8850389 0.10326794 -0.07631651 0.798099 -0.25447813 0.6334001 -0.20958327 -0.3875378 0.3100692 0.37820062 -0.8656597 0.11008253 -0.37331676 -0.40468714 -0.28772813 -1.1525021 0.6796569 0.36445034 0.109814435 -0.31025794 -0.9300556 0.20637615 0.8297792 0.28958815 1.4109192 -0.14317451 0.47550142 -0.2685454 0.27058312 -0.15114436 -1.0475534 -0.18831208 0.6165518 -0.5047532
177 0.61460537 -0.54313886 -0.20079304 0.29291248 -0.61804426 -0.44383025 0.30804867 -0.1883273 -0.01495622 0.26280895 0.9871669 -0.3109498 -0.57408404 -0.20061336 0.15807179 0.72024983 0.3446089 -0.18098745 -0.04603398 0.23781042 0.45051777 0.19677389 0.43274087 0.20822358 0.12691624 -0.2201099 -0.45385757 0.6254882 -0.22661829 -0.6399631 0.5532079 0.43310156 0.29331076 0.7601136 -0.06933538 0.14373699 0.6091187 -0.8698629 0.06313116 -0.09508433 -0.22339219 0.07658343 0.31517982 -0.2282524 0.0018813425 -0.81833655 0.513813 0.21450582 -0.38010946 0.024888257 -0.36804482 0.0077360985 0.45228535 0.9544843 0.89429635 -0.39205915 0.3371043 -0.2429504 -0.49458903 0.41823155 -0.5641093 -0.2643421 0.3884191 -0.6394517
425 0.29165187 -0.3326562 0.24617386 0.50663805 0.6000353 -0.8774063 -0.28829828 -0.01976825 -0.37169465 -0.059113592 0.21169953 0.4483442 0.255682 -0.34408385 0.15591393 0.3022885 0.46970716 0.39973268 0.08331226 0.031462535 0.23829758 0.040030602 0.46391362 0.06970864 0.13001287 -0.62503916 -0.53175676 -0.37186694 -0.6268422 -0.44418877 0.78904325 -0.19122712 0.04132464 0.21104959 -0.122408405 -0.1200477 0.49186537 -0.59913886 -0.060745645 0.022705633 -0.16535774 0.54196906 -0.5107815 -0.30863407 -0.7079148 0.5529587 -0.3934799 -0.11954781 -0.21201725 0.077229805 -0.41602623 0.47815245 0.21089241 -0.2554024 -0.17261264 0.14843336 -0.3542774 0.27923694 0.23680511 -0.2627087 0.11102159 0.09629571 -0.327023 -0.8280055
33 0.50349796 -0.5481987 -0.09477062 0.32413155 -0.19537793 0.08863181 -0.09442468 0.2947385 0.17386982 0.39536068 0.42510504 -0.8580509 0.49103117 0.06017012 -0.1125612 0.6764318 0.13923591 0.036710937 -0.24420463 0.37840328 -0.0033880742 0.52719986 0.6470837 0.086630784 0.44490066 0.3412737 -0.29295728 -0.1525852 0.7822742 -0.53315365 -0.27553305 -0.63952225 -0.31404886 -0.896213 -0.31496176 0.23773643 -0.112246975 -0.30935407 -0.39593685 -0.04109802 -0.20877533 -0.3603899 0.14787869 -0.9034866 0.45862278 0.09378429 -0.024245273 -0.42234787 0.038475577 0.19062643 0.023479996 -0.08201635 -0.11019275 0.028704396 0.11793087 -0.20336764 -0.13734022 -0.281137 -0.016599683 -0.24901327 -0.5475932 0.102395706 -0.570491 -0.6136084
208 0.69193864 -1.2522326 0.7479472 -0.6478448 -0.016756231 -0.21449177 -0.89486367 0.55422926 -0.2686672 -0.82244784 0.81278104 -0.06085571 0.30198097 0.20413463 0.40672508 0.23905507 0.3260488 0.13778451 0.91006684 -0.5078148 0.025287561 -0.38319615 0.7364243 -0.1910907 0.6155047 0.23242693 0.8971131 -0.40651888 0.188924 -0.6286924 0.72195816 0.6405761 -0.9373412 0.32751423 -0.29109633 0.40557393 0.88860714 -0.38917214 -0.17141882 0.29951763 -0.38413078 -0.2293367 -0.5196221 -0.30707356 0.6508541 0.07726032 -0.36457202 -0.62268907 0.19412747 0.24999915 -0.69874054 -0.32626346 0.057119887 0.38213477 0.2684598 0.23550151 -0.07113848 -0.70216185 -0.14829837 0.2115691 0.28563973 0.44921392 -0.50818753 0.14609437
98 0.22498482 -0.34367433 0.22941975 0.24483152 0.12583497 -0.37743032 0.08646948 0.23116876 -0.31396043 0.25244287 -0.011476806 0.033396795 -0.15163773 -0.21782993 0.05645053 0.13783474 0.5085942 0.5046644 0.13364418 0.28343466 0.017906133 0.07371795 0.2679384 0.41495696 0.46892935 -0.014546266 -0.4400803 0.37351772 0.054478597 -0.14696264 -0.10561721 0.42129236 0.2586032 0.09263657 -0.24740165 -0.17836432 0.35502452 -0.24507019 0.06788714 0.04906831 -0.7605368 0.26602775 0.2055923 -0.32395247 -0.13433096 0.33723408 -0.05216109 0.3347113 -0.65361863 0.24138542 -0.4745015 0.123032466 0.07704459 0.009003154 -0.30580318 -0.33421186 -0.047979455 -0.054241516 -0.35321745 0.42499322 -0.1355752 -0.09071295 -0.25315255 -0.10847419
6 0.04330992 0.031341244 0.26188898 -0.40899342 0.2023408 0.09010443 -0.36870614 -0.29762268 0.68151456 0.009963444 0.6424795 0.1299144 -0.017430589 0.1171363 -0.1326235 0.3369805 -0.20134963 0.23311155 0.5351864 0.14118703 -0.28487363 0.12712654 0.4736787 0.117077544 0.26325834 0.15297776 -0.34366798 0.0917243 -0.22755271 0.059140667 -0.07066627 -0.53835046 -0.2952695 0.28969616 -0.4425137 -0.41914463 -0.6334543 -0.33577448 -0.039864797 0.36984074 -0.40105748 0.6004354 0.059213523 -1.0794387 0.48555553 0.0730722 0.39979428 0.18893637 -0.4607974 0.094098724 -0.4566338 -0.20785682 -0.5459132 0.12363129 0.2610807 0.3591861 -0.06650831 -0.100402154 0.4399522 0.20727392 -0.18127576 0.28760892 0.44422704 -0.031311024
359 0.02559153 -0.08139503 0.22754085 -0.34747115 -0.2927948 -0.20614967 0.11516572 -0.3425399 0.32623294 0.48172247 0.3589671 -0.17512624 0.20759815 0.37190747 -0.07074003 0.12458506 -0.46493104 0.08170343 -0.121026754 0.63825566 -0.24730538 -0.14114496 0.66268873 0.1836773 0.5225289 0.33160233 0.025297161 -0.098908335 0.3544458 -0.3141457 0.44003287 -0.075568765 -0.14865214 -0.12813485 0.29953575 0.024299165 -0.23422378 -0.31495512 -0.047705326 0.77043307 -0.2217424 0.335737 -0.1276837 -0.19787659 -0.07826133 -0.027917806 0.55348116 0.4134858 -0.52983105 -0.060404524 -0.62984544 0.2960677 0.3775695 0.28464627 0.10322089 0.7274124 -0.27464402 -0.07673019 0.027348092 -0.023555364 0.13012321 0.31433845 -0.10560034 0.5173986
202 0.61422104 -0.51585567 -0.18090422 0.45313647 -0.6906038 -0.4266129 0.27384678 -0.14298874 0.086154394 0.16740358 0.8584414 -0.30907136 -0.36475766 -0.12173646 0.3357177 0.6717714 0.3518032 -0.05913111 -0.04333571 0.33664322 0.37008122 0.2568514 0.5045126 0.10701597 0.12213764 -0.24115169 -0.3869229 0.60467064 -0.24149396 -0.8322814 0.61834764 0.43798292 0.31692976 0.87663454 0.015745172 0.03488188 0.6219504 -0.8633903 -0.031187553 -0.15770455 -0.33447468 0.005955186 0.45193407 -0.26608565 0.08383507 -0.9495912 0.38836092 0.31730536 -0.21448696 0.035538573 -0.3736837 0.07537451 0.5206244 1.0299063 1.0616727 -0.39608186 0.50509304 -0.23649968 -0.35521522 0.387545 -0.5347556 -0.33509365 0.40410542 -0.58502483
143 0.56513953 -0.5932023 -0.23636368 0.26987877 -0.08307452 -0.08966119 -0.06306371 0.2622191 0.30624598 0.3340243 0.22459908 -0.8754232 0.45376006 0.05826619 -0.3139547 0.6200615 0.17407846 -0.0059682983 -0.18905099 0.4910197 -0.14715482 0.6355019 0.57444394 0.08389615 0.38325468 0.33887404 -0.19427583 -0.12925103 0.73771226 -0.48587635 -0.28126734 -0.485074 -0.3263737 -0.7847532 -0.3935202 0.16726667 -0.23531763 -0.4012614 -0.67838717 0.037764903 -0.2788139 -0.4849642 0.05759418 -0.846918 0.44877848 0.02308132 0.034241084 -0.49047375 0.038820747 0.095094636 -0.012192538 -0.011472162 -0.26893827 -0.054371182 0.06188415 -0.1457709 -0.17034729 -0.34812382 -0.07291065 -0.29097158 -0.61773986 0.1551036 -0.5859849 -0.5735788
56 0.07876926 0.027029926 0.29860133 -0.3182724 0.30160517 0.17241824 -0.311946 -0.24133068 0.5616111 -0.072416686 0.58755654 0.07740212 0.05952191 0.13734819 -0.06504396 0.29365525 -0.094359644 0.337727 0.53278935 0.23136295 -0.32308987 0.078466624 0.45657057 0.14585517 0.25169128 0.2811218 -0.39631042 0.12641463 -0.27651393 0.09104297 0.0022055628 -0.58573467 -0.344829 0.35034847 -0.40897036 -0.45789316 -0.5370717 -0.39776453 -0.057233438 0.43059587 -0.30503067 0.6561335 0.053161193 -1.0475543 0.49306297 0.15503904 0.60397595 0.20310163 -0.39149997 0.11902277 -0.32355645 -0.06780108 -0.50062597 0.19919029 0.13345219 0.25455812 -0.031475738 -0.19534546 0.468337 0.2978369 -0.27492726 0.3538677 0.4161147 -0.15768139
43 1.0194271 -0.88111836 0.5447746 -0.6801551 0.7153656 0.7424564 0.25321504 -0.59793216 -0.46860018 -0.14706928 0.1914349 -0.27518666 0.23623352 0.23153792 0.247545 0.11053242 0.48484334 -0.19741203 -1.2096268 -0.6558797 -0.13824101 0.79225624 1.5061828 -0.39396054 0.055821884 -0.511229 -0.7300908 -0.4470297 -0.49006173 -0.4029236 -0.5138553 0.47019312 0.029300286 0.062374543 -0.45582107 -0.21706909 -0.24211673 -0.82258415 -0.4981065 0.7564313 0.06925436 -0.74072325 -0.9045903 -0.08954876 -0.09751368 -0.2514487 -0.030838381 -0.7074335 -0.9705278 0.11843685 -1.0107915 0.09092347 0.94817144 0.059793815 -0.20861028 0.012113136 -0.06728996 -0.20777658 0.18790863 -0.21311776 -0.26574266 -0.37633547 0.72630167 -0.20954658
366 0.25599423 -0.22721277 -0.40800574 -0.2698157 -0.5951063 0.1048844 0.23183078 -0.40092954 0.35620028 0.7381657 -0.13207868 -0.18256733 -0.21114023 0.46311247 0.329839 0.45062053 -0.99350095 0.8350628 -0.7250472 0.5076728 0.24499363 0.113093466 1.2252233 -0.4351868 0.9360343 0.45907557 -0.01383177 -0.06369877 0.050711423 -0.3041775 0.22151163 0.09390254 -0.23100594 -0.5621425 0.2229038 -0.040982977 -0.17575109 -0.6042394 0.085193865 0.045883987 -0.58949804 0.971756 -1.0951871 -0.70130473 0.079319015 -0.29890522 0.8341249 0.16644391 -0.45080894 0.84219956 0.20029363 -0.1520253 0.7203001 -0.19296442 -0.009328215 0.8722964 -0.3200746 0.5762508 -0.10696474 0.051369336 0.29468414 0.10148392 0.6120505 0.77732056
401 0.40097705 -0.5428511 -0.106245615 -0.09350673 0.7764146 -0.28665435 0.12646103 -0.026599586 -0.4393741 -0.14499374 0.017084004 -0.51979536 0.2755176 0.006672821 0.11738873 0.5021305 0.16466159 0.12202721 -0.10831366 -0.012528421 0.0705201 -0.10595991 0.32955837 -0.07608476 0.4076064 -0.505087 -0.14755754 -0.75266945 0.1360302 -0.15659319 -0.19230741 0.299698 0.3163587 0.23113798 -0.6437678 -0.50209653 0.5065708 -0.4847297 0.07637793 0.5873565 -0.043779656 0.15628132 0.17832524 -0.6284237 -0.7560568 0.13263944 -0.25112823 -0.7088436 -0.06657075 0.087108955 -0.10904317 0.3120343 0.43696845 -0.3238581 0.17389064 0.3461847 0.00026310133 -0.13734753 0.28552985 0.38100085 0.3833734 0.32812613 -0.09335531 0.006145107
139 0.4229391 -0.5602076 -0.0094235325 0.19956435 -0.2649507 0.028864963 0.0332275 0.13354073 0.15809844 0.3701448 0.35304195 -0.72916704 0.58039093 0.07532289 -0.20657915 0.7529129 0.14301004 -0.07270751 -0.21633899 0.43008956 -0.08827017 0.5048211 0.6151568 0.070398234 0.47813487 0.4626596 -0.26098612 -0.16093943 0.7968785 -0.543448 -0.2701827 -0.5373867 -0.30097893 -0.82137024 -0.4433773 0.14536048 -0.20996799 -0.29928255 -0.44624636 -0.10425905 -0.26062673 -0.41773826 0.07832139 -0.7732197 0.4124613 0.19862814 -0.0151582705 -0.36782464 0.10579781 0.15157694 -0.01940176 -0.10110301 -0.050540507 -0.013525001 0.12925532 -0.14751637 -0.21573973 -0.31598166 -0.085946605 -0.26588562 -0.56321734 0.13299023 -0.5858535 -0.6870291
395 0.97435087 -0.56518 0.0783708 -0.22107291 0.519418 0.3382442 0.2783861 -0.30923867 -0.9052662 0.037510246 -0.025672574 -0.58943605 0.31492102 0.03816989 0.038380638 0.18345724 -0.22948693 0.027942402 -0.47526124 -0.12762058 -0.44254768 0.4496196 1.0716939 -0.8458344 -0.00040031862 -0.5273314 -0.35164472 -0.7336388 -0.42641354 -0.5439066 -0.5944196 0.2660751 0.33706066 -0.009748926 -0.9534247 -0.40262032 0.34491208 -0.70386976 -0.1874199 0.44343555 0.53744733 -0.06954159 -0.43564275 -0.5084426 -0.3620349 0.055905033 -0.14675969 -0.3257405 -0.6835705 0.4622349 -0.8555225 0.17742094 0.68400407 0.03291233 -0.22338521 0.12948503 0.4984628 0.11916302 0.35956883 0.2565334 0.22893406 -0.059066188 0.30542085 -0.119457126
377 0.49694872 -1.3265114 0.023824515 -0.3115905 -0.48060724 -0.053541042 -0.76677316 -0.32915613 -0.8458382 -0.8149764 0.41355926 -0.26443833 0.098312765 0.021487681 0.28218934 0.375653 0.026710778 0.48304096 0.0959608 -0.064466566 -0.19914407 -0.6597597 0.24710348 -0.35677347 0.35766205 -0.079680406 0.3802332 -0.28082147 -0.26885647 -0.4487147 0.10705528 0.12653019 -0.5767695 0.21185549 -0.4861928 0.034200687 0.57350284 -0.98235255 0.25738862 0.32827258 -0.19219823 0.115989976 0.18513721 -0.23539215 0.30859822 -0.32294556 -0.04327319 -0.5902777 -0.30230272 -0.14040849 -0.25822085 -0.20786121 0.44950783 -0.23011984 -0.36386716 0.47688293 -0.19605681 -0.5865695 -0.007416503 0.31032372 0.4631493 0.21614859 -0.40208694 0.22335345
157 -0.07925288 -0.08953431 0.38593653 -0.35043466 0.35635725 0.13889909 -0.3016473 -0.33897007 0.83544534 -0.071357094 0.54280746 0.10273138 0.0175885 0.1489878 -0.16948655 0.3916792 -0.078869484 0.09733702 0.53615665 0.18633103 -0.28843066 0.043138403 0.48321903 0.061210908 0.23202977 0.097842626 -0.2728835 0.14244334 -0.20517395 0.09768073 -0.088570766 -0.5872099 -0.40909678 0.34089026 -0.51246345 -0.40976584 -0.56982064 -0.4844191 -0.04429353 0.4190196 -0.37061787 0.6386427 -0.026719013 -0.9056435 0.6041038 0.24923319 0.47002822 0.0779937 -0.44908467 0.0521267 -0.3304732 -0.050948605 -0.34460914 0.18166997 0.1906125 0.30731896 -0.065718845 -0.004512606 0.4786743 0.4622143 -0.46972024 0.40960416 0.2772334 -0.09182895
415 0.19639449 -0.31425837 0.2905366 0.3487677 0.080544785 -0.48177665 -0.03876112 0.17107072 -0.26214322 0.2146522 -0.11438 0.14285459 -0.016259853 -0.17389946 -0.019748144 0.21823059 0.40193516 0.31492615 0.07390504 0.25111938 -0.014263002 0.02566515 0.32717636 0.6583273 0.37342006 -0.08527438 -0.32981125 0.18824159 0.008374522 -0.106646255 -0.021136425 0.38159233 0.37177196 -0.018491002 -0.31887752 -0.19194868 0.40121698 -0.18099009 0.05824347 -0.12298355 -0.9321116 0.1688895 0.16351677 -0.45112944 -0.16605093 0.22025591 -0.21364221 0.30582774 -0.7423467 0.17977239 -0.45924374 0.17633559 0.051603407 -0.052457053 -0.21710321 -0.14751302 -0.12411835 -0.10355907 -0.418058 0.45479035 -0.12393772 -0.12567966 -0.21233132 -0.07929562
178 0.7683347 -1.4917353 -0.29686844 -0.2651627 -0.24980444 -0.27502894 -0.87529784 -0.9995017 -0.18055803 -1.1471066 -0.0754113 -0.016379079 -0.1925208 0.43041712 0.9760936 0.3143426 0.24224743 0.13473089 0.09495863 -0.045523424 0.12421146 -0.4695755 0.682367 -0.27395526 0.8485884 0.034520693 0.34102383 -0.39325804 -0.45686293 -0.27962628 -0.41640466 -0.23222534 0.24311149 0.68369013 -0.029895747 0.37699586 0.4492254 -0.32665762 -0.072069235 0.48620498 -0.54731333 0.10672216 -0.11449724 0.25013474 0.3938051 -0.076453626 -0.21060595 -0.84760016 -0.12423734 -0.20680097 -0.6573759 -0.63117707 0.6488375 0.1082889 0.004512897 1.0886766 -0.3099373 -0.7165005 0.24043944 0.7651031 -0.03816413 -0.3757389 -0.40242574 -0.12478795
291 0.09303941 -0.290425 0.3036058 0.2889641 0.5209679 -0.59958297 -0.34755385 -0.09416984 -0.24120785 -0.012962277 0.069869794 0.19312957 0.2919929 -0.3864965 0.3333292 0.2359871 0.47497103 0.7426559 0.06842085 0.03752335 0.29827845 -0.009713717 0.16758329 0.08490575 0.20061205 -0.52609354 -0.32919702 -0.42309353 -0.448886 -0.637868 0.9600123 -0.119677804 0.19444774 0.34355134 -0.113283016 -0.24381563 0.2991282 -0.77374685 -0.13077612 -0.08836748 -0.32214397 0.3271164 -0.3313318 -0.4240452 -0.7451384 0.4417962 -0.39644992 -0.3526899 -0.3251284 -0.035294842 -0.48796582 0.513073 0.2044639 -0.38804436 -0.2989563 0.22228226 -0.33705154 0.3918412 0.20299706 -0.2123359 -0.060441356 -0.0034621444 -0.14333534 -0.85410815
235 0.15816246 -0.3590942 0.1961003 0.33836356 0.072656125 -0.50299865 0.27258152 0.17473868 -0.2415278 0.12704661 -0.21162187 0.18414909 -0.06908523 -0.004797961 0.005369119 0.16262347 0.34154406 0.5214198 0.24774286 0.4448935 -0.09475922 0.032347463 0.33167976 0.6354361 0.37757748 -0.36827677 -0.24919635 0.21781099 0.11732323 -0.18732493 0.017401908 0.37231404 0.24612322 0.08649655 -0.2907319 -0.36945698 0.34634927 -0.24398856 0.026030373 0.010596734 -0.76990837 0.1394928 0.05698877 -0.39474362 -0.01992735 0.2149158 -0.17945221 0.17016597 -0.59963644 0.14342129 -0.4896912 0.102384664 0.02893783 0.09304511 -0.2093863 -0.19246669 -0.025204182 -0.0816603 -0.49813628 0.44759068 -0.18966244 -0.17179985 -0.19957615 -0.19836587
372 0.05625023 -0.24029812 0.21476644 -0.23682685 -0.40419912 -0.27379966 0.10631843 -0.37284338 0.32845294 0.47687352 0.1919558 -0.1244864 0.17288655 0.32371044 -0.100367025 0.10497997 -0.41501877 0.059587892 -0.23659064 0.56384075 -0.042808127 -0.06643607 0.700006 0.124546185 0.41278103 0.28540972 -0.012226598 -0.098866545 0.29618466 -0.3849676 0.5440577 -0.10971041 -0.18745092 -0.10112048 0.28916287 -0.06508318 -0.28052077 -0.13881211 -0.0894441 0.8079709 -0.08570273 0.36461335 -0.12182097 -0.2391335 0.09030718 0.14984883 0.52318054 0.43385327 -0.45711955 -0.0023271814 -0.6315714 0.25342527 0.48512718 0.48672336 0.08697068 0.6329607 -0.23891808 -0.07255188 -0.033939514 0.16515459 0.096574344 0.38927662 -0.1373501 0.62662905
106 1.031626 -0.8235265 0.72889584 -0.63211524 0.6824124 0.80795723 0.20704342 -0.5709625 -0.38382223 -0.06658811 0.046208486 -0.36310425 0.45519128 0.20291649 0.33545634 0.35095194 0.49187645 -0.27040705 -1.0299172 -0.7386079 -0.05207574 0.85825324 1.4968146 -0.3609808 0.09006115 -0.51513433 -0.7669139 -0.53801453 -0.48510528 -0.4116112 -0.49392843 0.49542135 -0.009995544 0.1290948 -0.37497842 -0.22974874 -0.27702236 -0.700031 -0.5879227 0.65786874 0.059136517 -0.70136815 -0.9163862 -0.17526834 -0.0713603 -0.1651658 -0.21816206 -0.6892416 -1.0305839 -0.056698818 -0.9648768 0.10982268 1.1330427 0.11169151 -0.25755912 0.20082106 -0.044644766 -0.17547163 0.10791997 -0.1402522 -0.3431278 -0.31162694 0.7793376 -0.177412
464 0.4143135 0.4038094 0.5601929 -0.2886381 0.04034592 -0.37753657 -0.36403868 -0.36140493 0.07827129 0.16544668 0.74826777 -0.7085418 0.3263698 0.933246 -0.0034018212 -0.008611748 -0.4728414 0.791889 0.25689685 0.15035354 -0.17004043 0.1651898 0.10201457 0.17092144 0.013585866 0.32541907 0.41607592 0.100489125 -0.31651306 -0.096758716 0.3674007 -0.48253536 -0.25651303 -0.26108426 -0.4270017 -0.42880413 -0.2763722 0.21459556 0.055407654 0.48207802 0.10002599 1.068473 -0.05809527 -0.6350803 0.14879662 0.17576006 0.2905176 0.57383573 -0.554042 -0.5859854 -0.7829824 0.32001376 -0.1328319 0.04851344 0.34800416 0.9404994 0.07866979 -0.23082508 -0.054889534 -0.2717701 -0.43848637 0.12509073 0.28427958 -0.14517389
255 -0.049741987 -0.20114519 0.25225213 -0.26481304 -0.4130256 -0.1750073 0.053405963 -0.35840598 0.23041147 0.4847639 0.1869291 -0.14077929 0.2616974 0.30746174 0.16602148 0.15825099 -0.3683262 0.123365246 -0.1966608 0.5314064 -0.2022144 -0.16850002 0.53901327 0.16262172 0.49634662 0.4487696 -0.08600719 0.015222443 0.28086612 -0.419447 0.42494652 -0.15429151 -0.2970397 -0.08349471 0.2424727 0.1144299 -0.2650414 -0.17728172 -0.0062721446 0.81512034 -0.0014788692 0.44460842 -0.051689293 -0.37367392 -0.15523824 -0.038322523 0.48501712 0.41112614 -0.5471634 0.15160277 -0.5919144 0.20212193 0.3706249 0.36126247 0.19222891 0.6218969 -0.3133969 -0.11671085 -0.06879947 -0.009536595 0.048808776 0.18300608 -0.011275321 0.58735454
418 1.0949496 -0.62454885 0.04458461 -0.018933387 0.33438876 0.47900745 0.2532006 -0.39825255 -0.7990585 0.034163855 -0.053635955 -0.5953384 0.37693807 0.014131289 0.12267887 0.34625453 -0.2540373 -0.07572661 -0.57274026 -0.18441719 -0.5266043 0.5601639 1.0410569 -0.830189 0.06722447 -0.6873508 -0.339777 -0.71297294 -0.5676018 -0.5256114 -0.482177 0.3366318 0.28957984 0.08168601 -0.9719575 -0.4896689 0.18486771 -0.45659733 -0.17826879 0.45265293 0.48910272 -0.00017544354 -0.61414737 -0.4654413 -0.38493577 0.019803002 -0.32691637 -0.29491296 -0.75170356 0.57577986 -0.774126 0.1631646 0.6562114 -0.09381337 -0.12797907 0.28464544 0.40342394 0.11063039 0.18121383 0.25993997 0.1553228 -0.18251114 0.27791128 -0.16315818
329 0.43051162 0.28812626 0.5748547 -0.15559216 0.09958744 -0.24432908 -0.50911367 -0.23140429 0.08073484 0.06978614 0.7520915 -0.6232895 0.48733547 1.0749501 -0.07819081 -0.00816532 -0.5436553 0.72498786 0.19986787 0.17953575 -0.032522146 0.089959666 -0.10611042 0.30262473 0.046099488 0.29707938 0.5139546 0.013943793 -0.3389664 -0.07696979 0.45122534 -0.49577403 -0.17555782 -0.14103624 -0.4727747 -0.27097967 -0.381009 0.2121529 0.06661075 0.55546916 0.26244828 1.1843418 -0.18243983 -0.7992494 0.13692355 0.27607474 0.38455656 0.55105054 -0.5868425 -0.6720146 -0.7855136 0.27831867 0.13120984 0.32878825 0.21540688 0.7024774 0.11980032 -0.043477435 0.03899322 -0.07743687 -0.55168134 0.15988633 0.0094773825 -0.08055047
213 0.53980213 -0.5464985 -0.10788609 0.48717242 -0.6869785 -0.39355025 0.20232388 -0.09507611 0.1103591 0.01013124 0.9154229 -0.48938835 -0.47956967 -0.13214457 0.17398615 0.8020211 0.30891976 -0.15294662 -0.0479854 0.33039653 0.38079086 0.13254449 0.6789894 0.29363352 0.13207294 -0.15045561 -0.44201165 0.51920086 -0.24844192 -0.824948 0.6066005 0.5657855 0.20273188 0.907455 -0.079777546 0.09388039 0.5958444 -0.9050358 0.12759283 -0.08130544 -0.24703388 -0.05917908 0.3877274 -0.041916553 0.006042831 -0.8314571 0.29455268 0.29309288 -0.15498294 -0.099592425 -0.28253633 0.11104479 0.4932025 1.0102445 0.96473944 -0.36794186 0.3431827 -0.15112354 -0.4743917 0.5374016 -0.7308013 -0.14508866 0.50188357 -0.6464862
