468 64
462 0.22134255 0.002652854 -0.39979407 0.16586363 -0.03697945 -0.021515785 0.029946508 0.19617887 -0.56066513 -0.41980687 -0.24840617 -0.040106952 0.24247229 -0.30750138 0.38731954 -0.51458967 0.03194081 -0.54530334 -0.2902269 -0.24112922 -0.089691915 0.18954118 -0.122736074 0.037405536 -0.35301736 -0.07905854 0.13910991 0.3714961 -0.30002564 0.2168295 -0.36953336 0.29683393 -0.2944008 -0.09147109 -0.022890743 0.2815308 -0.41747794 0.054184392 -0.002097564 -0.38055515 -0.033627845 -0.06221777 -0.072413884 -0.22286978 0.23374166 -0.15675914 -0.02925803 -0.09592625 0.19547905 0.17981444 -0.33680272 0.15133335 -0.21782449 -0.35182902 -0.039653417 -0.13056768 0.31171462 -0.28273964 0.056331962 0.041994978 0.06646818 0.22092298 0.18552369 -0.27977893
467 -0.4275454 0.24612777 -0.43498424 0.13155581 -0.09320063 0.00515724 0.7753003 0.32190776 -0.6082945 0.006926701 0.2297866 -0.31295177 0.18755968 -0.19415659 0.036396924 -0.19299407 -0.17388724 -0.4201801 0.041701365 0.2823594 -0.25228113 0.13770282 -0.011192281 -0.03192475 0.10716141 0.44514158 0.24858151 -0.09341444 0.14214103 -0.079195544 0.18843652 0.031961236 -0.3712525 -0.09938984 -0.5094986 0.42142746 -0.0970717 0.25498164 -0.039485678 -0.037342686 0.42526034 0.118653245 0.33314478 0.5076773 0.050868455 -0.2533819 -0.17466816 -0.23695411 0.25331295 0.44160572 0.5580453 -0.3883586 0.7478824 0.5248722 -0.3785755 -0.37130988 0.3069192 -0.29690978 -0.27120724 -0.2755979 0.052917235 -0.1645167 0.42731124 0.10595023
465 -0.034673836 0.41532427 0.014103101 0.24821794 0.47478947 -0.4757089 0.5171841 0.10308443 -0.19012792 0.1668504 0.3115534 -0.37450942 0.12669355 -0.3150184 0.32688543 0.07101193 -0.2568811 -0.73275864 0.29949313 0.8036031 -0.090333626 0.1261244 -0.13539284 -0.36933738 -0.5608836 0.20687836 -0.059623435 0.25980878 0.32051775 0.105335474 -0.39956683 0.3348122 -0.27664277 0.49405724 -0.4613329 0.039016828 0.2963708 0.3882939 0.017118944 -0.06793614 0.6935046 0.25060806 0.23036784 0.23068747 -0.073724575 -0.5548388 -0.14357352 0.08349949 0.2259728 0.0795476 0.58487546 -0.012410606 -0.06772682 -0.3977419 -0.1670464 0.0090764975 0.3509518 -0.05251574 -0.4158549 -0.44930273 -0.37995806 -0.12189967 -0.68668306 -0.31559914
247 0.47997555 -0.64445376 -0.466624 0.41791016 0.32256 -0.035121616 -0.20607136 0.6978008 -0.03952304 0.42916554 -0.27727047 -0.9628138 0.5372356 0.054092854 0.28327352 0.1677019 -0.28049204 -0.5554292 -0.271655 -0.12746589 0.022845648 -0.108871914 -0.38035187 0.03358326 -0.18724225 0.5226565 -0.18148865 0.63871133 0.4342172 -0.36224657 -0.7845693 0.25297195 0.6149586 -0.07414561 0.11991798 0.16965923 -0.022883043 -0.43711594 -0.35322863 -0.6904062 0.40810704 0.3767955 -0.4588749 0.60341305 0.39552513 -0.18984604 -0.3839309 -0.25005096 0.1949716 0.38822895 0.8676105 0.2805144 0.85008395 0.0018134001 0.39812943 0.2159096 0.09209578 -0.21111004 -0.17264512 0.32626146 -0.456485 -0.36031845 0.45804718 0.274808
431 0.032583095 0.40486652 -1.1873094 0.5485073 -0.29705003 -0.1822399 0.18565227 0.6077775 0.12470465 0.84274846 -0.20071407 -0.034700833 0.06649927 0.33019125 1.0518256 -0.025257284 0.6725978 0.095871225 -0.52618736 0.37167498 0.081772074 -0.07647878 -0.6865098 0.18444823 -0.15185657 -0.36973932 0.44090495 1.2434418 0.8676209 0.040306207 -0.6484269 -0.6789454 -0.5748607 0.54165775 -0.25887284 0.15030383 -0.103406854 0.55040956 0.019916054 -0.12371974 -0.41588482 -0.03232728 0.63994557 0.47825706 -0.049948674 0.00061165146 -0.21722743 0.14378548 0.2382807 -0.5812115 -0.044867206 -0.16307403 0.42849243 -0.45161492 0.527182 -0.7391959 0.43198967 0.3573339 0.24597898 0.61162806 -0.21459632 0.46104035 0.30475497 0.4027963
436 -0.2246267 0.10980808 -0.511411 0.42351598 -0.042432975 -0.0056877797 0.17819606 -0.22091277 -0.049399663 -0.09374878 0.1523937 -0.42354846 0.15609854 0.22742818 0.9585633 0.2570751 0.72709113 -0.4332292 -0.70697314 0.2842243 -0.56539077 -0.041368138 -0.73659724 -0.16908275 -0.8084298 -0.19781202 -0.5255737 0.54831284 -0.415539 -0.19802621 -0.10320237 -0.18942188 -0.35838205 0.14783345 0.041225888 0.40767494 -0.15579471 0.24586862 -0.38574493 -0.11388994 -0.4353601 0.20570007 0.29194734 0.19695237 0.2434759 -0.17875458 0.36475608 0.02784901 -0.30052584 -0.23160844 -0.12182926 -1.0254228 -0.0108670695 -1.0845236 -0.004678948 0.4952477 -0.27323475 -0.19665307 -0.5205418 0.6949471 -0.20946974 0.26440075 0.71492046 -0.3233016
428 -0.16893135 -0.07498486 -0.79800284 0.7537859 0.3422425 -0.043999854 0.27542266 0.32994622 -0.122283906 0.66305524 0.074572235 -0.2544008 -0.2187882 -0.038446326 0.7595607 -0.32605463 0.90314597 -0.27302665 -0.004605823 -0.1145468 0.18731062 -0.3760629 -0.7936868 -0.24328595 -0.8192113 0.06757079 0.78774816 1.271946 0.4740767 -0.18040347 -0.789955 0.12893015 0.25751942 0.33504415 0.52725625 0.63257545 -0.8998746 0.3537673 0.42476436 0.86397344 -0.03978488 0.14312977 0.2861586 0.5175856 -0.9597937 0.52008957 -0.07675128 0.7489828 0.91076607 -1.0969044 0.71426624 -0.30229872 0.30156782 -0.070327796 0.2471434 -0.8760697 0.3062416 -0.17540476 -0.051033907 0.82920516 -0.058160435 0.25081867 0.33765513 0.06461013
216 0.74874735 -0.011375519 -0.08109484 0.54401994 -0.7895858 -0.23049615 0.19505405 0.15688196 -0.2363305 -0.16288297 0.19735041 -0.48813412 0.7577174 0.3119697 0.98413026 -0.24369672 0.007576874 0.017743219 0.30485302 -0.01688663 0.055067718 -0.19453388 -0.86682975 -0.0713184 -0.8049565 -0.4449287 0.61064047 0.08870745 -0.54328936 0.37019184 -0.0467361 0.34325427 -0.25315464 -0.8908129 -0.17815661 -0.156861 -0.24390641 -0.39589694 -0.69446975 -0.19219139 0.037307452 -0.43160477 0.081312016 0.760842 -0.21372737 0.490169 -0.45307103 -0.03919388 1.2697995 0.20647956 -0.028164478 -0.45854297 -0.8288262 -0.17775676 0.5055201 -0.30295393 0.14780436 -0.6854219 0.13839976 -0.3136761 0.039905112 -0.17861998 0.034202136 -0.28040293
234 -0.39008623 -0.5337798 -0.686889 0.19707783 0.6646844 0.14464019 0.1542323 0.38526854 0.28122017 0.3937728 0.31488416 -0.823028 0.33125433 -0.22418506 -0.12557966 -0.36130986 -0.1928455 -0.42912808 -0.24114679 -0.46941063 0.27998453 -0.2747639 -0.20860046 -0.5020797 -0.18255356 -0.28058288 0.08814982 1.1302503 -0.057336163 -0.004922673 -0.6133089 -0.018586578 0.95797074 -0.626328 0.038092896 0.9940747 0.054670494 -0.6157717 -0.5395657 -1.5427908 0.07530144 1.2861401 -0.5097649 0.32040536 -0.020326363 -0.6451092 -0.50421745 0.014766667 0.6382592 0.06294349 1.1072798 -0.10388402 0.8882756 -0.3895347 0.24332528 0.055764154 -0.16932043 0.41459543 -0.19748722 0.17558458 -0.720442 -0.52183664 0.5423712 -0.17329326
466 -0.064877525 0.30508578 -0.04352383 0.705526 -0.01863512 0.4127944 0.9004498 -0.3573591 0.028869731 -0.016457506 0.23665397 -0.2739158 -0.15807244 -0.37389946 0.04230652 0.41387302 -0.274836 -0.40632102 0.24563031 0.322107 -0.05411378 0.12673873 0.14512335 -0.108119294 -0.07349054 1.05695 0.56596416 0.04684225 0.5345444 0.16391023 -0.29123965 -0.19806197 0.039973866 0.014297104 -0.23255189 0.8030847 -0.06385559 0.65188015 -0.3902131 0.2866113 0.38115698 -0.058711544 -0.1101585 0.34920096 0.18126582 -0.35244122 0.21950732 -0.30903348 0.24215376 0.45894346 0.6767723 -0.42589852 0.048861515 -0.1236083 0.098453015 -0.23930658 0.2400125 -0.18998922 -0.5494616 -0.56626695 -0.3035367 0.027102346 -0.22176936 0.07785507
460 0.29262352 -0.31266895 -0.35290352 0.38687718 -0.306541 -0.03734644 0.3462807 -0.13987295 -0.34317002 -0.0003300985 -0.21304362 -0.29734558 0.1401314 0.30856416 0.6030686 -0.088636264 1.1375937 -0.48401755 -0.3705125 -0.313889 -0.08097566 0.5759056 -0.38294268 -0.565809 -0.69330883 0.29481688 -0.15651183 0.33907133 -0.8183607 0.0047984286 0.08109128 -0.06693967 -0.45482993 -0.10972669 -0.014299665 0.6029052 0.29365513 0.16353704 0.11002493 -0.40289792 -0.2927144 -0.023953777 0.11264988 -0.12486606 0.17095554 0.124428615 0.5115896 0.13461463 0.04964025 -0.23827319 -0.057538286 -0.16277349 -0.37094152 -0.38791153 0.5942619 0.13758004 0.29688686 -0.30111483 -0.71045893 0.10925454 -0.25239727 -0.10928122 0.4114726 -0.5296226
454 -1.1046623 -0.17508104 -0.7663631 0.5758116 0.47445372 0.74780184 0.5819408 0.17562498 -0.63585955 0.5439962 -0.9733423 -0.51382214 -0.18220782 0.8177388 -0.31996292 -0.32953012 -0.0064575593 -0.9148906 0.29152647 -1.4604021 -1.5790179 0.38979718 -0.35672978 0.010887742 -0.98410165 0.16169833 0.21043515 -0.10742626 0.38619807 1.0743722 -0.6902187 -1.3984218 -0.44873717 0.14878751 -0.60085684 -0.923979 0.818034 0.5590845 -0.5721968 -1.2038082 0.5773837 -1.6464493 -0.6238328 1.3151209 0.22867131 0.5688567 -1.642881 0.5383017 1.9163283 -0.27564582 -0.108803555 -0.8481169 -0.51514316 0.19248721 1.0632337 0.024976788 1.201324 0.26124123 -0.063724294 0.35826713 -0.8397321 -0.020407895 -0.9211975 0.48782513
434 0.16870736 -0.02375072 -0.9525486 0.17790508 -0.5419932 -0.005613153 0.019182581 -0.024949195 -0.05386667 0.45823237 -0.36626273 -0.39833754 -0.023438118 0.10846681 0.80050933 0.29448184 0.58195066 -0.5470336 -0.7784222 0.32477242 -0.5077888 -0.54587394 -0.19462658 -0.11373936 -0.32439667 -0.36078686 -0.029459232 0.81011426 0.28878236 0.07971943 -0.39150965 -0.6286505 -0.73215854 0.39161304 -0.31075582 -0.20129386 0.106975906 -0.026426353 -0.03844173 0.23419225 -0.5642638 0.043734685 0.85156 0.49673188 0.44556913 -0.25739822 -0.09649482 0.48617715 -0.16364679 -0.3148864 0.10075001 -0.79147774 0.33845413 -0.9992654 0.51423895 -0.67299277 0.106493555 -0.0075119543 -0.41320157 1.0376426 -0.19930892 -0.16674952 0.2293628 -0.23431714
338 -0.5955025 0.77126825 -0.8155157 1.8570502 0.94297206 0.73018867 0.49441057 0.26212746 -0.19780886 1.370765 0.1148198 -0.28310588 0.39243543 0.63141197 0.16824593 -0.41480738 -0.2627129 0.9573893 0.026561502 -0.32985237 -0.21207705 -0.5380918 -0.67173594 -1.256264 -0.37956423 0.21843524 1.1907701 0.35852164 0.52950615 0.57387686 -0.36061954 0.07006069 -0.28441313 -0.23631978 -1.2598006 0.79234594 -0.29597247 -0.33468944 -0.97633857 -0.1528633 -1.6563842 -0.5588037 0.122160785 0.6423864 -0.22792298 -0.011032013 -1.3610392 0.936453 0.5645138 1.2395087 0.54033375 -0.32807055 0.3133578 -0.4649761 -0.27582863 -0.49746546 -0.1818057 0.60459715 0.285627 0.25516748 -1.213684 -0.26816696 -0.9081961 0.27922013
417 0.07829196 0.49839595 -0.1893192 1.2230593 0.52234465 0.8052889 1.0242445 -0.285487 0.055868555 -0.46348432 -0.19048488 -0.93928635 -0.38681856 -0.18448624 0.11331182 0.327044 -0.36001533 0.11901759 0.20726007 0.08657705 0.1173235 0.004041121 0.057673976 -0.04638906 -0.026769869 0.85140306 0.4912007 -0.53749317 0.15965988 0.013938643 -0.65778273 -0.387922 -0.4828736 0.32718566 -0.5438927 1.3396024 0.15708125 0.51223224 -0.7873619 0.41596323 0.42284086 0.24833255 -0.27462304 0.8047722 0.046155278 -0.38827538 -0.3085774 -0.12930621 0.19231936 -0.017459363 0.49341595 -0.24020925 0.23391862 -0.47214058 0.1876847 -0.25148436 -0.3435784 -0.31943133 -0.4851028 -0.72433174 -0.47948888 -0.42239004 -0.20754135 -0.011213238
242 0.42355707 -0.11676348 -0.117310494 0.8200436 -0.6895472 0.13141422 0.19753532 -0.08789515 -0.55426866 -0.37420985 -0.08252545 -0.4035499 0.6309753 0.06600961 0.5246019 -0.64806473 0.17640817 -0.016604306 -0.2195381 -0.025182636 0.16844386 0.08174889 -0.38518712 0.37869588 -0.8310977 -0.17526715 0.6509525 -0.03909738 -0.34802544 0.48629373 0.08928962 0.13615431 -0.098774314 -0.20277716 0.13442934 0.085429676 -0.36072454 -0.42274877 -0.5807475 -0.025273839 -0.21824448 -0.20296644 0.29654214 0.18456699 -0.15741695 -0.2464754 -0.2862482 0.068407 0.7055392 0.3746377 -0.38448694 0.084328555 -0.30375314 -0.42827874 0.22179301 0.09386534 0.43310696 -0.40093485 0.57096535 0.06997855 -0.48331758 -0.6396348 -0.21684048 -0.03739758
419 -0.092671625 0.4232061 0.58368194 1.0991446 -0.06936147 -0.41139132 0.7677296 0.8353259 0.5520642 0.11105836 -0.06406476 -0.5739263 0.09981056 -0.6091153 0.29436454 0.092651926 0.026227485 -0.6116605 0.2610292 1.2653123 -0.15014337 0.038164616 0.21109869 -0.6402598 -0.818483 0.33941638 0.039459627 0.3963866 -0.71105397 0.00016059798 -0.3450227 0.7207477 -0.90971583 -0.10868057 -0.80236673 -0.28027385 0.51077956 0.3057608 0.1287104 -0.4686941 0.11562924 0.26623523 0.53541213 0.54553986 -0.12774357 -0.27456337 -0.81765497 0.54451936 0.5631938 0.3209894 0.48928112 0.7292575 0.09018561 -0.4866377 -0.2687347 0.27238098 0.0581779 0.06554471 -0.26092514 -0.4620877 -0.58599246 -0.013203487 -0.636709 0.36997694
214 0.48858273 0.39374056 0.1848371 0.6513974 -0.5353011 -0.72519064 0.24242595 -0.4111472 -0.5553978 0.0153864315 -0.010490549 -0.68645746 0.66734797 1.3162436 0.8769772 0.38064525 -0.5195059 -0.4173207 -0.027004985 -0.19196631 -0.25733903 -0.08769321 -0.45934147 -0.15459034 -0.6137613 -0.4494036 0.6668062 0.46793893 -0.40851462 0.0021939967 -0.20705336 0.08080602 -0.45008495 -0.3799373 -0.59949416 0.4131612 -0.7189425 -0.3015068 -1.0525423 -0.39378357 -0.05840491 0.08852876 -0.30972266 1.4124874 -0.37881485 0.45507333 -0.21041572 -0.2464886 1.1586466 0.1489305 -0.1900381 -0.59068596 -1.3083844 -0.07789643 0.09038818 0.118347675 0.7323193 -0.30754924 0.5463411 0.15653235 0.5200317 0.048017547 -0.1430547 -0.17804411
421 0.3053349 -0.015393544 -1.4757574 0.026990779 -0.29924065 0.046668563 0.9080638 1.0893103 0.035760835 0.73361903 -0.30693272 0.31181276 -0.51550967 0.7223731 0.5738572 -0.2610551 0.09531513 -0.05070439 -0.5434418 0.62081784 -0.13252324 -0.044015557 -1.6661828 0.81276655 -0.06024911 0.1521392 0.6447115 1.3612945 0.50937265 0.36804757 -0.7459297 0.26307487 -0.50418174 0.39948225 -0.06855977 0.053836755 0.18599857 0.5645129 -0.90431416 0.20761964 -0.5234183 -0.31766534 1.1149108 0.44783828 0.6196013 0.27192163 -0.29703107 0.35015285 0.4487161 -0.7200973 -0.007169082 0.055647705 0.6419978 -0.048169445 0.47020012 -0.49217725 0.4328444 0.91553384 0.0433671 0.7043299 -0.22927949 0.6159403 -0.0037971917 0.3869226
240 0.31647682 0.044927754 -0.75269574 0.62089664 -0.15508115 -0.11693598 -0.20418525 -0.1860802 -0.5030441 -0.459312 0.25244603 0.07863974 0.22244574 -0.2981213 0.5920022 -1.0574691 -0.54179746 -0.57614857 0.26011938 -0.06548278 0.71941614 0.37681782 -0.5008443 -0.38765842 -0.10286486 0.3380989 0.3154453 0.6390089 -0.948291 -0.11781663 -0.7349596 0.45371315 0.18658525 0.2994441 0.080331795 0.16873594 0.15179928 -0.102466464 -0.3472563 -0.4026291 -0.6678429 0.13041607 0.4456236 -0.6045626 0.25853032 -0.16037858 -0.5366638 -0.26752368 -0.5053339 0.35318953 -0.4576852 -0.71601707 0.06526101 -0.5217596 0.15912013 -0.8564129 0.25386956 -0.0807052 0.12485221 0.007885406 -0.17518091 0.04515139 0.35382724 -0.39350587
317 0.38771698 -0.121202715 -0.02060376 0.052244127 -0.27714562 -0.3487477 0.33168975 -0.2515622 -0.7015293 -0.64546055 -0.2531304 -0.52073157 0.8038591 -0.83129495 -0.22123265 -0.4932114 0.58047044 -0.5141177 -0.39806172 -0.034057397 0.28552374 0.050761674 0.23666981 -0.42130217 -0.08198099 0.06495365 0.45349804 0.3829393 -0.12804197 0.45140126 -0.8305306 -0.09622979 -0.33943012 0.08108666 -0.46024498 0.55114377 -1.0143762 -0.64649343 -0.6688777 -0.37905496 -0.1311094 0.5283231 0.41664842 0.2826269 0.34529746 -0.70025414 -0.19200009 0.1095741 -0.24983098 0.048404563 -0.53677285 -0.01536403 -0.537796 -0.19900256 0.31257617 0.02919452 0.143456 -0.20418762 0.3705531 0.23539439 -0.5758406 0.3511566 0.87488496 -0.46265903
432 0.23480397 -0.64146715 -0.22894722 0.39971942 -0.25477308 -0.27051532 0.2076626 0.016008658 -0.7644838 0.048255093 -0.16206576 -0.6364422 0.30420792 0.0769087 0.096815914 0.19341904 1.4695802 -0.32434672 -0.13286771 -0.5120365 -0.045175437 0.7150169 -0.2233055 -0.5703708 -0.6177591 0.36107966 -0.27342507 0.2818945 -0.7816041 0.35328126 -0.08932826 -0.10215841 -0.2691959 -0.25200623 -0.29755253 0.54499924 0.15662043 0.3481093 0.07185935 -0.5098638 -0.73865616 0.38122037 0.60192376 0.15778463 0.10550661 0.40757847 0.7809443 0.114338845 0.23231177 -0.3560608 -0.20536245 -0.61901486 -0.33804628 -0.84081626 0.7714504 0.14308988 0.9966876 -0.6118529 -0.4528593 0.15912521 -0.64379436 -0.24307944 0.34017268 -0.04312016
211 0.59956616 0.2619697 0.37676442 0.61828864 -0.2073085 -0.5643119 0.06878941 -0.56944305 -0.91420424 0.16389515 0.1860441 -0.506144 0.5385081 1.6934632 1.0674398 0.46339372 -0.5203715 -0.29138634 -0.0046152137 -0.29857737 -0.4213191 0.19350058 -0.19689132 -0.32586342 -0.5704907 -0.74254817 0.853468 0.51253337 -0.19067088 -0.24510808 -0.20566125 0.28541932 -0.5260362 -0.22720395 -0.7758506 0.78921014 -0.5137674 -0.26694563 -1.3463194 -0.1522393 -0.10945789 0.090969324 -0.2343974 1.4881737 -0.23760946 0.23332265 -0.48909903 0.007368739 1.1797428 0.25978678 -0.003496828 -0.89457154 -1.4936023 -0.32707104 0.30434135 -0.24202098 0.9150826 -0.14478199 0.23345117 -0.15288906 0.8478806 -0.058242224 -0.24625428 0.15615804
370 0.09700382 0.03656175 -0.5292579 0.61621034 -0.065208115 0.17375936 -0.69872355 0.28454557 -0.74076056 -0.4252725 -0.20180044 0.15470986 0.48340738 -0.052155096 -0.12839153 -0.75703984 0.58526736 -0.48225033 0.19567169 -0.40657136 -0.32892874 -0.020349016 -0.45155644 -0.73996896 -0.50977105 0.315881 0.17303927 0.466609 0.13169135 0.4856394 -0.5106826 -0.004204937 -0.30213532 -0.42873335 -0.62989587 0.7051143 0.00084784726 -0.28233635 -0.14318562 -0.50166225 -0.0567774 -0.10891666 0.13244545 -0.71600497 0.5689103 0.17450102 0.06286657 -0.026508387 0.05668066 0.4048549 0.2295115 -0.11729534 -0.72994965 -0.6999362 -0.44563398 -0.027683603 0.13056505 -0.07123769 -0.11703804 0.27391273 0.2830263 -0.18333676 -0.03561166 0.15683809
225 0.31176293 -0.72948074 -0.33588016 0.547463 0.34304887 0.25518227 -0.6222225 0.5957656 -0.20853783 0.2702215 -0.1160008 -1.4420276 0.066605315 -0.30241913 0.4571819 -0.082255624 -0.32330036 -0.21034057 -0.11906753 -0.3078074 0.075167716 0.17002575 -0.23225193 0.38677818 -0.6221446 0.2068007 0.006386869 0.4778053 0.82812005 -0.13543957 -0.8318152 0.3579951 0.46763387 -0.17333506 -0.024630029 0.5849729 0.6272203 -0.6672538 -0.6244885 -0.70896596 0.3271832 0.38510838 -0.50459427 0.60643125 0.508297 -0.31237334 -0.29441932 -0.1410293 -0.20334598 0.14453462 1.0239127 -0.64943737 0.25656042 -0.12097703 0.7825177 -0.018264683 0.0328904 -0.3657382 -0.3118033 0.05649966 -0.51055783 -0.3695468 0.36514014 0.76134753
151 -0.63743204 0.7740288 -0.96853536 1.8882996 1.0333923 0.63522774 0.3322201 0.35775283 -0.17059608 1.4581703 -0.03840376 -0.18202345 0.46818092 0.71826226 -0.07085928 -0.42963484 -0.44476596 1.0937858 0.079623215 -0.29989275 -0.2048831 -0.51394236 -0.7889436 -1.0912945 -0.43189147 0.12201549 1.3598859 0.34129742 0.31070772 0.74453455 -0.21535443 -0.07113716 -0.49645805 -0.36586854 -1.1245067 0.7010949 -0.49718222 -0.40843764 -1.0457262 -0.35063675 -1.5928235 -0.47650087 0.027366927 0.6981426 -0.02469964 0.017650403 -1.3222865 0.9837064 0.8133215 1.2106639 0.62667733 -0.38801205 0.25262967 -0.5121406 -0.13412035 -0.39171025 -0.16174053 0.56772673 0.32768458 0.29936263 -1.3098173 -0.3013478 -0.7922591 0.04730759
109 -0.5941571 0.87578976 -0.70740485 1.8391995 0.96968746 0.59694564 0.58691174 0.12897828 -0.34789324 1.349775 0.03252249 -0.19362593 0.5201309 0.5630901 0.1407397 -0.27440527 -0.2204579 0.98562443 -0.08257688 -0.14274661 -0.34635758 -0.5881692 -0.48909304 -1.3791112 -0.15411696 0.22401652 1.0065898 0.29882407 0.5202514 0.6447814 -0.32539773 0.37990078 -0.31501976 -0.24366398 -1.100568 0.83726186 -0.1952331 -0.3741429 -0.9735618 -0.12165973 -1.6058218 -0.33599415 0.0798747 0.5829329 -0.21598786 -0.001001959 -1.2394186 0.9425239 0.54895544 1.2071769 0.5288212 -0.20899905 0.19157282 -0.5018834 -0.07644704 -0.6346247 -0.08067878 0.59112895 0.26256132 0.47725534 -1.2907909 -0.19824892 -0.91042227 0.15304488
281 0.044290647 0.47858545 -0.40393624 0.36432934 0.2697281 -0.19603196 0.5465044 0.1607881 0.4155663 0.0050156047 0.37442562 -0.49522483 0.40060455 -0.42766356 0.17176072 0.20100941 -0.38435972 -0.87329644 -0.08824941 0.58661026 0.30326807 0.02812897 -0.31544805 -0.4614322 -0.4384822 0.14539559 -0.10627741 -0.2979093 0.14500374 0.28186098 -0.6451477 0.23673269 -0.23764588 0.5139649 -0.95447916 0.19866528 0.515551 -0.067317 0.011637717 0.012621597 0.6139117 0.29434916 0.3950126 -0.007451496 -0.6852632 0.031417448 0.1449068 0.5335246 -0.00017170297 0.28764173 1.0858272 0.11208597 -0.18861614 -0.64375657 -0.1757178 -0.25236925 0.5482246 -0.38198268 -0.24228424 -0.5130041 -0.72576046 -0.20975775 -0.6441151 -0.32361102
444 -0.6550291 0.3398401 -0.38474265 0.17029288 0.038036495 -0.34959045 0.5534713 0.6799045 -0.5531924 -0.13088755 0.1937481 -0.33470234 0.2843465 -0.013835328 -0.60932785 -0.14750394 0.1480852 -0.53044355 -0.46627748 0.3667612 0.021052225 0.2142625 0.055465307 -0.040854048 -0.41211665 0.7761846 0.44520772 -0.33761576 0.23017411 -0.08223521 0.055704188 0.015782466 -0.18327084 -0.509058 -0.9675198 0.47466624 -0.09025716 0.28839216 -0.32493007 0.050451458 -0.11788331 0.37616682 0.81261873 0.43261224 -0.33272097 -0.13824892 -0.2099994 -0.018658575 0.22697128 0.60879064 0.55877024 -0.28026333 0.8238219 0.43971407 -0.20002162 -0.43429005 0.46080098 -0.56082433 0.31495926 -0.31346914 -0.06791296 -0.72216755 0.5019641 -0.113551125
447 -0.6520476 0.39369047 -0.47254074 0.3287764 -0.25875676 -0.17674121 0.6707307 0.37240335 -0.51460654 -0.45798197 0.22808523 -0.4926057 0.5270016 -0.25638968 0.20858356 -0.26307115 0.005572083 -0.43008128 0.084613636 0.14707172 0.34781745 0.16562612 -0.29519865 -0.30644277 0.14890182 -0.03635562 0.1269415 -0.13085456 0.030365191 0.14585944 0.1779925 -0.5239323 -0.37149614 -0.25847298 -0.86082107 0.92612964 -0.40880203 0.23040403 -0.3636561 0.09469088 0.6526718 0.079188645 0.17497244 0.47391528 0.21900374 0.44862762 -0.24143456 -0.20109136 -0.12856032 0.5345207 0.4092772 -0.27231485 1.7870622 0.18626529 -0.27299282 -0.3007606 0.08184882 -0.08446165 -0.18305455 -0.31914917 -0.21772932 -0.35291618 -0.48960432 0.29222858
337 -0.73436266 0.42507157 -0.62493145 0.4859695 -0.42075694 0.16359395 -0.12589268 -0.15684088 -1.2288568 -0.3267534 0.23852696 -1.1613466 0.915005 -0.090986855 -0.48571712 -0.36680397 -0.32802695 -0.11306582 -0.11922134 0.7869569 -0.88019526 0.8071804 -0.42804658 0.44487846 0.1580825 0.50529957 -0.72379225 0.24097425 -0.5639792 0.38027078 -0.1533407 -0.21225992 -0.8548151 -0.014929337 -0.10356605 0.93579274 -0.51315665 0.2153752 0.5357924 0.013014883 0.8763689 -0.34624323 0.6571706 0.39565796 -0.6548161 -0.7427655 -0.97760165 -0.9738317 0.31186047 0.10860395 1.3071926 0.21273814 1.4714353 0.44201016 0.21567273 -0.48580408 0.53005904 -0.29720414 -0.53184426 -0.74937433 0.34096995 0.114649385 0.060994517 0.13702752
441 -0.56353945 0.077214874 -0.3194198 0.5380364 -0.27005017 0.0011197213 0.9036808 0.21725242 -0.5529776 -0.63367224 0.44174826 -0.4047199 0.3405572 -0.37314805 0.18113013 0.035957586 -0.21386743 -0.6471964 -0.11325032 0.3753127 0.19423544 0.44417343 -0.19720267 0.18934691 0.600958 0.41502982 0.511096 0.040827036 0.07020322 0.7643294 -0.12206447 0.10486773 -0.2845661 0.033408053 -0.78729093 0.75225973 0.14473104 0.36235574 0.34952858 -0.007935559 0.046720635 0.20492725 0.26506066 0.04622791 0.13227625 0.196346 -0.4039428 0.083289854 0.6655068 0.6514197 1.0342205 -0.43731973 0.7919547 0.6341617 -0.61844003 -0.32221523 -0.5758689 -0.27617615 -0.42842695 0.29504135 -0.016453404 -1.0496287 0.19507837 0.076130114
403 0.44904315 -0.4819668 -0.6443558 -0.14036241 0.560218 0.48033884 -0.24281666 0.35413933 -0.72373396 -0.3953883 0.27681774 -0.20060931 0.17366222 -0.3233931 1.2098284 -0.5947935 0.28773004 -0.3891109 -0.27904955 0.2890412 -0.6500932 0.34439906 0.030105105 0.15472901 -0.26917186 0.14860035 -0.006208948 0.10636328 -0.14699014 -0.124623604 -0.29622224 0.37123936 -0.51300263 0.048032187 0.2763461 0.546733 -0.61269575 -0.16084553 -0.21272944 -0.15355927 -0.15308094 0.26568484 -0.077319264 -0.028046543 0.4494072 0.2099109 -0.117827095 0.9168797 0.047670487 0.10118053 -0.37603024 0.123991266 -0.42387787 -0.28962493 0.14517808 -0.3887862 0.07188528 -0.68941224 0.34427184 -0.8550885 0.44019896 -0.106679 -0.052162305 -0.42280555
404 0.14246373 -0.230651 -1.3601705 -0.021346634 0.19851589 0.14242937 0.5813561 -0.24149743 -0.1550907 -0.13459414 0.45108047 -0.27271348 0.10222392 0.3669869 1.0851628 0.44604555 0.8645795 -0.034445632 -0.6121861 0.5662305 -0.4395896 -0.22753713 -0.66655487 -0.05446341 -0.9146752 0.05102843 -0.29721013 0.10112182 -0.59574145 -0.34719315 -0.23474371 -0.052532263 -0.3751648 0.38746035 0.27602983 -0.054383747 -0.09929192 -0.23642385 -0.40354988 -0.103528835 -0.37127927 -0.010354299 0.33360186 0.08087248 0.026507916 -0.18971069 0.77374494 -0.04854568 0.037772063 0.26164317 0.21434087 -1.0223111 -0.16987474 -1.2171491 0.1362394 0.36723465 -0.047305755 -0.19061641 -0.93089455 0.7370619 -0.174811 0.32921544 0.83788025 -0.6091182
456 0.106329076 0.7896861 -0.23171571 0.28808367 0.25659347 -0.44996375 0.09213927 0.3016827 -0.37293544 0.49212846 0.68191344 -1.1665603 -0.21442369 -0.3020341 0.80474406 0.12490448 0.14721587 -0.6267585 0.592024 0.39797017 -0.06244752 0.45600602 0.16396883 0.17520726 -0.34266752 -0.37849116 0.2886773 -0.26759362 0.45982552 0.019752175 -0.6630321 0.7406956 -0.22431216 0.677056 -0.591758 0.1246194 0.30216298 0.8443043 -0.22797985 0.07882636 0.34824198 0.41002262 0.36370906 0.5052326 0.05015721 -0.7588744 -0.42748818 0.69930995 -0.2353858 -0.009949963 0.80062926 0.25996104 -0.23453563 -0.3710714 -0.61452895 0.5279837 0.57001156 -0.23291902 -0.48854277 -0.46456212 -0.17929657 -0.21589528 -0.6148957 -0.22768147
445 -0.34457433 0.7852482 -1.2562797 -0.025968563 -0.22189258 0.415673 0.817683 -0.17745486 -0.49782443 0.17672421 0.13174933 -0.52384657 -0.18661961 0.2494428 0.13795127 0.66662306 0.38801402 -0.6388201 -0.008620209 0.018387368 0.21708125 0.124619365 -0.18151884 0.19659726 0.058433402 0.12938917 0.050721806 -0.5437696 0.477397 0.10005194 -0.03534535 0.62512076 -0.3319795 0.44134846 -0.2962575 0.64555985 -0.37051076 -0.17400931 -0.009172459 -0.52144945 0.42662144 -0.054471396 0.72620046 0.5478765 0.0691341 -0.10914179 -0.063919805 -0.08853206 0.12148394 1.1272894 0.82548606 -0.08109003 0.62219733 0.9504875 -0.7780105 -0.49984762 0.4646407 -0.53576356 -0.17425981 -0.55220383 -0.3630936 0.215264 0.42832494 0.049808323
455 0.59481215 0.018911885 -0.58661723 0.46055058 0.08418915 0.6187387 0.3931338 0.11565233 -0.39086246 -0.8741687 -0.42596775 0.5257487 -0.08306974 -0.29458708 0.6545793 -0.26285803 0.4451404 -0.41741046 -0.1246059 -0.31260747 -0.5433762 0.17141414 -0.07981858 -0.07135628 0.04215082 0.2516645 -0.102785505 0.69653183 -0.54303956 0.05397121 -0.25306544 0.26477602 0.14471863 -0.13907464 -0.8568722 0.24518125 -0.76478875 -0.1736448 0.07272114 -0.3911235 0.3024918 0.5164719 0.057753913 0.2414054 0.039575998 -0.3347907 -0.8581163 -0.31029433 -0.22660491 -0.14334811 -0.4903825 0.10338133 -0.3916747 -0.3374116 -0.0620647 -0.13371132 0.5602077 -0.22663331 0.22427335 0.34463775 -0.115197174 -0.112734415 -0.031581476 -0.845378
443 -0.48670933 0.32831913 -0.69920844 0.33600906 -0.30164552 -0.27692124 0.24447365 -0.039539948 -0.83204865 -0.42193547 0.38023716 -1.0134434 0.47688746 -0.24444441 -0.4061354 -0.3134827 -0.17835332 0.049265333 -0.21893875 0.5408393 -0.80884206 0.56235176 -0.37564397 0.3629811 0.10756256 0.46995273 -0.4236952 0.29955378 -0.3887064 0.12637098 0.19500995 -0.2819361 -0.54811215 0.035946403 -0.27144834 0.80486006 -0.5520809 0.03876157 0.30237472 0.08401916 0.6679766 -0.1633416 0.3108488 0.4810693 -0.2911465 -0.59707206 -0.6348279 -0.80387926 0.24431859 0.26925942 0.9932226 -0.034452986 1.0457585 0.53560144 -0.16496742 -0.6023894 0.4594844 -0.082658984 -0.54658353 -0.7128665 0.10996066 -0.106017955 -0.06479898 0.23881146
366 -1.0681885 -0.19858377 -0.7352276 0.5444313 0.40824452 0.7245197 0.6364084 0.1119783 -0.650121 0.43210566 -0.9758707 -0.6216762 -0.14679326 0.7634242 -0.32121313 -0.36149648 0.13015641 -0.80375206 0.35906544 -1.4752101 -1.5723985 0.2822878 -0.50041854 0.091107056 -0.97259593 0.21328805 0.25300387 0.09893983 0.4388619 0.86218476 -0.5885823 -1.394931 -0.3695038 0.13281778 -0.6506478 -0.95284736 0.7960202 0.6306315 -0.5677029 -1.1218923 0.56573945 -1.5652288 -0.5629018 1.2863905 0.2614463 0.43081424 -1.5004356 0.4565383 1.8944318 -0.30810526 -0.058893953 -0.8214884 -0.58333254 0.17749563 1.0799297 0.070379294 1.0920721 0.21395862 -0.2353838 0.32988557 -0.66508013 -0.052499417 -0.9216811 0.5107628
352 -0.98654103 -0.2522179 -0.6897668 0.5441731 0.40503845 0.84991693 0.66379255 0.18618117 -0.63546896 0.47891825 -0.93830675 -0.51716584 -0.20761389 0.7422198 -0.33499214 -0.28115913 0.034150213 -0.96070933 0.3141188 -1.4680165 -1.5880712 0.32216984 -0.5407323 0.03009062 -0.9985336 0.07108422 0.26798758 -0.017917503 0.36144295 0.87760323 -0.60690445 -1.3527032 -0.40318456 0.08269168 -0.58597827 -0.88001543 0.78933585 0.6052018 -0.53253776 -1.1127887 0.6124891 -1.6384476 -0.5271793 1.220582 0.29470646 0.5149506 -1.4808975 0.5052434 1.844753 -0.21794094 -0.061532717 -0.95690024 -0.5628446 0.14750528 0.9806871 -0.021757968 1.051319 0.14052126 -0.13706265 0.44162107 -0.7102432 -0.0050609484 -1.0010217 0.6116868
67 -0.56760514 0.57970685 -1.0907007 1.9367852 0.9361094 0.5751496 0.37098104 0.53249884 -0.055467073 1.4840924 -0.008101968 -0.3676182 0.60410565 0.97895396 -0.0013904306 -0.5042454 -0.3240912 1.0296803 0.022180103 -0.34966436 -0.08484053 -0.534999 -0.87374705 -1.116379 -0.6511002 0.14501876 1.3539716 0.4924812 0.35773453 0.7749137 -0.16321823 -0.23485567 -0.23095128 -0.4140384 -1.3819523 0.7260975 -0.46552327 -0.3907893 -0.92625433 -0.25058967 -1.7638829 -0.6529391 -0.03815958 0.66657263 -0.12894613 0.02053429 -1.2350746 1.0160854 0.5885926 1.2689432 0.5730604 -0.37518415 0.3649468 -0.4964821 -0.34903026 -0.46728542 -0.16167797 0.512074 0.36424723 0.042890403 -1.3400093 -0.28292888 -0.6663183 -0.14118497
332 -0.65069914 0.8343034 -0.89913034 1.9405268 1.0165493 0.7118049 0.5801281 0.4018694 -0.18959367 1.4416419 -0.044296794 -0.25815225 0.4496663 0.6952311 0.11759681 -0.35116145 -0.33206838 0.9607451 0.039082732 -0.32320887 -0.20373747 -0.61460894 -0.743954 -1.1099741 -0.38459405 0.33991978 1.1195147 0.3660812 0.51452374 0.6868688 -0.15970497 -0.017644867 -0.3727366 -0.2591696 -1.0380074 0.7101443 -0.3589808 -0.24802929 -0.9221868 -0.13750143 -1.5830237 -0.41105264 0.025202505 0.5997188 -0.16374752 -0.018614609 -1.3098425 0.9650313 0.59326655 1.245593 0.35215163 -0.22947066 0.25106886 -0.46889266 -0.27269801 -0.64650804 -0.19601084 0.4946758 0.20820247 0.25994238 -1.3496909 -0.2613844 -0.92515045 0.013870517
10 -0.6055337 0.80202943 -0.8028273 1.9267763 0.9281902 0.6497956 0.47156626 0.30876777 -0.18249977 1.4823655 -0.05706759 -0.3509103 0.43993095 0.7301812 0.09618844 -0.4044141 -0.37994576 0.8817582 0.04261445 -0.42432952 -0.15282592 -0.53739595 -0.64998484 -1.1467396 -0.36666766 0.25723544 1.1095295 0.3550823 0.54167485 0.69472414 -0.26840407 -0.10606231 -0.32243365 -0.24108766 -1.1677774 0.74903566 -0.33767852 -0.2172913 -0.87906396 -0.09332901 -1.55288 -0.4719835 -0.0031805567 0.6420779 -0.19302653 0.0055760993 -1.2919413 0.9308779 0.5113344 1.3299447 0.36676282 -0.2197694 0.32461312 -0.5533525 -0.35156456 -0.584195 -0.067964755 0.5569958 0.27254927 0.22797053 -1.2777954 -0.2798024 -0.90075505 0.11769444
323 -1.0719792 -0.20619795 -0.6526454 0.4960096 0.39884874 0.68923056 0.6136031 0.06953043 -0.63332367 0.4260474 -0.9080734 -0.5609695 -0.15933035 0.75813484 -0.37935188 -0.35524502 0.04068267 -0.89622116 0.25706246 -1.4136465 -1.448776 0.29021907 -0.55704296 0.05474636 -1.0612843 0.13319665 0.22809052 0.0037070543 0.41890478 0.8481971 -0.6399314 -1.4122186 -0.40531042 0.024110187 -0.5947486 -0.8594209 0.7738729 0.5442728 -0.5351368 -1.0763028 0.60728526 -1.5580052 -0.50227976 1.2484058 0.31041217 0.48600078 -1.5211089 0.5208535 1.9057821 -0.26335877 -0.14611146 -0.8204804 -0.5130264 0.12094367 1.046492 0.041458286 1.1095843 0.18843746 -0.13836251 0.33840442 -0.65857416 -0.0152210025 -0.9423889 0.5800999
401 -0.9541572 -0.2944332 -0.6186698 0.4455372 0.46295506 0.7346444 0.6210902 0.14730401 -0.60189384 0.45199636 -0.9423533 -0.6351003 -0.096825436 0.77315307 -0.31965593 -0.3281895 0.20631634 -0.8404987 0.3416089 -1.5155754 -1.5906926 0.27145416 -0.60105574 0.017827244 -0.98918754 0.17893876 0.3337187 0.039532393 0.44104743 0.8595118 -0.60914695 -1.3703079 -0.47227243 0.014317249 -0.7312724 -0.8895002 0.6810773 0.6618351 -0.5528285 -1.1052071 0.5451302 -1.6452743 -0.5307961 1.2521019 0.24478765 0.48986775 -1.4673151 0.45953974 1.9178549 -0.23730733 -0.035864864 -0.88826096 -0.55945814 0.25458407 1.0402381 -0.042291652 1.0913689 0.2219338 -0.1886583 0.36427382 -0.63249886 -0.08237106 -1.0871426 0.49156874
376 -1.0521929 -0.16964337 -0.704732 0.53629017 0.28956595 0.73167276 0.7071998 0.2204575 -0.61309284 0.5378073 -0.9919878 -0.53207576 -0.098881476 0.77012664 -0.39651325 -0.34016645 0.052183732 -0.9475178 0.3869315 -1.5555388 -1.6207951 0.25396386 -0.5191865 0.050167277 -0.930855 0.087612085 0.30263782 0.05087639 0.3834525 0.82708323 -0.56456006 -1.3243419 -0.30927557 0.112693965 -0.63931805 -0.9210206 0.7923404 0.57211477 -0.5707917 -1.089244 0.58209884 -1.6000208 -0.5458061 1.2761693 0.26597935 0.47366837 -1.4670211 0.4996981 1.797183 -0.21906327 -0.07346318 -0.83883405 -0.60889864 0.06629586 1.0293834 0.0066846446 1.1023622 0.06323887 -0.16608305 0.28776246 -0.6644638 0.028614508 -0.95619965 0.5574415
103 -0.6531817 0.8277509 -0.79101855 1.7045512 0.9989319 0.5510471 0.5452701 0.18218218 -0.25252894 1.2604223 0.16399793 -0.07649773 0.5850885 0.57213104 0.20722751 -0.19407025 -0.2608114 1.0335785 -0.044580296 -0.04537579 -0.35408542 -0.50917834 -0.510639 -1.3788254 -0.23993772 0.31796986 1.1210515 0.43098807 0.5749467 0.5390351 -0.35757926 0.14648987 -0.16637915 -0.21255612 -1.0873275 0.89340925 -0.2639602 -0.26006004 -1.0412434 -0.0777932 -1.5942088 -0.43503228 -0.016440185 0.59875983 -0.16183408 -0.08442403 -1.2151463 0.84663445 0.6363275 1.2511462 0.49370918 -0.18537973 0.07457784 -0.5088681 -0.2510538 -0.6870379 -0.09718791 0.5633523 0.22546516 0.32059857 -1.1397932 -0.03335578 -0.8862315 -0.012609973
101 0.2319372 0.27703762 -0.6639791 0.19708931 0.29419145 -0.095322944 0.71111727 0.17382607 0.63467616 0.14342973 0.47991347 -0.5323357 0.44253686 -0.6100168 0.29678077 0.3456117 -0.36774704 -0.6472265 -0.2407765 0.4615804 0.3651249 -0.10892603 -0.3379658 -0.6511931 -0.46731898 0.22311868 -0.011144922 -0.612655 0.2579127 0.11067074 -0.5634267 0.48187336 -0.3790219 0.667734 -0.9837215 0.299 0.46374896 -0.2778938 0.033923306 -0.10482215 0.52004194 0.08081807 0.52043265 0.11237078 -0.8427143 -0.038221136 0.3265676 0.5556847 0.078548454 0.29697564 1.3535199 0.16902316 -0.26755613 -0.74916834 -0.25978747 -0.3329491 0.80745417 -0.47050127 -0.2169133 -0.6390388 -0.685521 -0.075095065 -0.7048941 -0.36609966
23 -0.231274 0.3411 0.68709624 1.2080044 -0.10325744 -0.40350482 0.6484527 0.9056372 0.6725958 0.1849175 -0.14038225 -0.5716605 0.080387294 -0.56265634 0.21066995 0.07862776 -0.010278984 -0.5867272 0.173998 1.339273 -0.33763227 0.0874005 0.37016863 -0.5873875 -0.7848352 0.3444361 -0.036088992 0.2649006 -0.6665868 0.03440934 -0.26720998 0.72594655 -0.88528514 -0.056297153 -0.7710103 -0.15070443 0.5118061 0.12399065 0.13220231 -0.5842733 0.2299275 0.07272783 0.51989657 0.6553228 -0.13433558 -0.37319353 -0.7767258 0.49770442 0.76769876 0.27311373 0.14999403 0.72642285 -0.03405274 -0.32263312 -0.26030877 0.0660593 0.030699687 0.17062093 -0.31694692 -0.4472935 -0.724807 0.08557456 -0.6278571 0.2505103
299 -0.50664407 0.2649127 -0.39451563 -0.057341117 0.25753635 -0.6419395 0.55504316 0.66437083 -0.5087441 -0.10775665 0.19691634 -0.45088294 0.10643021 -0.17680115 -0.580899 0.08739939 0.14791153 -0.18623868 -0.36010092 0.1728782 -0.085133284 0.37849873 0.10900874 -0.15053408 -0.4976895 0.8898035 0.63251555 -0.36538076 0.25073552 0.00055992394 0.13390519 0.09353317 -0.22951429 -0.59927547 -0.8761094 0.2862917 -0.46548945 0.32273608 -0.2512995 -0.029878784 -0.4729007 0.43500334 1.122168 0.7803189 -0.27256903 -0.23614167 -0.23047061 -0.05519909 0.21681719 0.6077192 0.5434191 -0.19849858 1.0884719 0.375372 -0.14670081 -0.38160837 0.671411 -0.9802787 0.35659185 -0.45307183 -0.07683527 -0.8293004 0.4673699 -0.20359358
36 0.04099252 -0.091618 -0.49559486 0.65749145 -0.122508734 0.14946832 -0.74622923 0.3147081 -0.6625392 -0.22278789 -0.22804666 0.21913931 0.50136524 -0.05494106 0.047887668 -0.8532976 0.4044029 -0.2406385 0.25179824 -0.61866486 -0.6025 -0.014208006 -0.48220146 -0.740503 -0.37571123 0.4051673 0.108099766 0.36914793 0.13031098 0.7164323 -0.67409813 0.012090163 -0.5808923 -0.24402247 -0.53288096 0.6679251 0.075234614 -0.27443892 -0.13126254 -0.6215921 0.26387388 0.21203753 0.21010269 -0.74500966 0.7927548 0.33826113 0.065244004 -0.16825967 0.10139237 0.3307727 0.28853393 -0.3954059 -0.7797506 -0.7068283 -0.51876575 -0.024429677 0.184115 -0.14605886 0.0018445821 0.23550138 0.33385852 -0.17374572 0.029293371 0.18667094
147 -0.6650031 -0.42279357 -0.5970533 0.059998628 0.71008956 0.0894337 -0.016606541 0.40016237 0.2874052 0.5070768 0.40890405 -0.92128736 0.2543432 -0.30019376 -0.108678736 -0.54109526 -0.32724053 -0.33323184 -0.16263305 -0.4196089 0.18539254 -0.28933966 -0.023668295 -0.5991737 -0.14996813 -0.47445565 0.008178993 1.0800612 0.003411861 0.20301895 -0.77164096 -0.0104588615 0.9966429 -0.6693731 0.1802731 1.1439741 0.12859587 -0.3622561 -0.6150628 -1.7127792 0.24702305 1.3999326 -0.6528634 0.4496091 0.04024589 -0.63245136 -0.4413065 0.097153194 0.77265286 0.07257284 0.889426 -0.15528932 0.90582067 -0.28816122 0.2677945 0.044566065 -0.044427875 0.36667708 -0.26738644 0.11905873 -0.725553 -0.5139284 0.5915433 -0.3142282
65 0.041180477 0.5360274 -0.13983831 1.2575527 0.6142468 0.80939126 0.963288 -0.09458684 0.09908528 -0.34522608 -0.25923574 -0.93435854 -0.51960385 0.0028701683 0.26786828 0.40543157 -0.5192418 0.1010441 0.19815035 -0.035012275 0.030288057 0.18908614 0.13629276 -0.029716859 0.015479454 0.78303015 0.5983961 -0.6292232 -0.03954351 0.22497897 -0.76284176 -0.391717 -0.5747563 0.2747195 -0.4569136 1.3981184 0.16801798 0.37795982 -0.6590157 0.53940254 0.52771497 0.3104654 -0.22584906 0.8308792 -0.054545008 -0.34795046 -0.44553187 -0.13695943 0.21783446 -0.08837122 0.4071806 -0.25657636 0.19215743 -0.37845114 0.1781397 -0.16261911 -0.34896344 -0.25516236 -0.6112249 -0.7009842 -0.64789695 -0.31281757 -0.25318417 -0.019100072
93 -0.6113969 -0.4138687 -0.6298467 0.22658242 0.84797865 0.027220763 0.140226 0.34089726 0.40751365 0.44992134 0.4056289 -0.85321003 0.24955046 -0.29121017 0.109841354 -0.32744145 -0.45262384 -0.44828555 -0.2283412 -0.59430987 0.1605835 -0.20896827 -0.104041144 -0.4723412 -0.117937446 -0.41553196 -0.049913254 1.0088568 0.018052068 0.1014715 -0.72115433 -0.021820059 0.9012996 -0.6374587 0.051133994 1.0140138 0.117160805 -0.6429584 -0.6035799 -1.6114751 0.21458362 1.2484777 -0.6431091 0.1613837 -0.0756023 -0.6478889 -0.37672058 0.11552237 0.7663078 -0.013995858 0.95127594 -0.1202538 0.8994767 -0.28849486 0.3279332 0.0053214445 -0.00580894 0.40392116 -0.20339824 0.12489115 -0.7810485 -0.36442542 0.71380675 -0.27960992
297 -0.6292049 0.8757831 -0.8023019 1.9584742 0.96641964 0.6730667 0.5063506 0.34503868 -0.13999926 1.4522499 -0.073201485 -0.32717904 0.4512961 0.73671466 0.09959678 -0.4038946 -0.38832963 0.8358546 -0.023887802 -0.4249686 -0.23730914 -0.5120872 -0.5969829 -1.1546383 -0.38098094 0.26206693 1.0818037 0.30026403 0.5096048 0.7240678 -0.18149534 -0.115257464 -0.3340012 -0.19909489 -1.1255467 0.68987846 -0.2693077 -0.21986058 -0.87660354 -0.11173687 -1.4823669 -0.4842183 0.048984937 0.62949884 -0.2307273 -0.028812813 -1.3379189 0.9281644 0.51306564 1.2989733 0.31821108 -0.31941852 0.30740264 -0.50165266 -0.24640425 -0.48697045 -0.11192714 0.59373564 0.24961159 0.23694837 -1.2945473 -0.23314686 -0.8206436 0.13013175
361 -0.5178996 0.37517726 -0.38816127 0.3677291 -0.19963224 -0.5899551 0.52348965 0.6532305 -0.26347288 -0.6563633 0.25230715 -0.6786972 0.410521 -0.22422959 0.34853375 -0.4698444 0.19908167 -0.4041018 -0.046916727 -0.08239896 0.3669913 0.049455836 -0.43916947 -0.050383203 0.18480653 0.0655207 0.22770387 -0.09355288 0.085721105 0.11452745 0.53389627 -0.58526415 -0.66750807 -0.21663265 -1.1781956 1.2842326 -0.64035535 0.08874864 -0.3676492 0.23080175 0.8970641 0.08295516 0.004280994 0.28092274 0.063334264 0.5154786 -0.30356333 -0.40496302 -0.1446396 0.6185723 0.32048658 -0.4436536 2.1784465 0.18704766 -0.11882562 -0.115289256 0.13668132 0.15476656 -0.23382951 -0.2779845 -0.35328078 -0.048289683 -0.8467872 0.24954115
107 -0.536532 -0.09042222 -0.21998648 0.6926236 -0.3748132 -0.3112188 1.0237265 0.29043788 -0.42097926 -0.6115172 0.2795617 -0.14484254 0.24905238 -0.48490736 0.119327925 0.18724036 -0.4437846 -0.71666586 -0.19023077 0.28962654 0.040480554 0.59327126 -0.25953007 0.48434523 0.59569705 0.5423935 0.8318818 0.2916214 -0.109464906 0.7951965 0.026373176 0.27392694 -0.30539262 0.03724173 -0.8846149 1.1625718 0.1761886 0.54330087 0.43083715 0.20853704 0.19008411 0.07413814 0.24994682 0.08165262 0.13636428 0.24139434 -0.40802678 0.25160888 0.6169942 0.8200904 1.1999832 -0.11652901 0.64194685 0.5494461 -0.5401706 -0.4076377 -0.79818034 -0.21693793 -0.7575891 0.2819878 -0.02743271 -1.3076026 0.27261904 0.11817472
30 0.33199176 -0.6625408 -0.4365341 0.34978747 0.36959922 -0.10971171 -0.18659133 0.71008885 -0.06416085 0.5077492 -0.20853275 -0.89037377 0.5582488 0.17312026 0.2812419 0.025457423 -0.31009123 -0.4962605 -0.34492567 -0.15171178 -0.027562365 -0.053532526 -0.18319859 0.1675005 -0.1794587 0.5629595 -0.23227677 0.5985754 0.35755274 -0.30327034 -0.7123736 0.2725642 0.5275474 -0.03803189 0.17480746 0.14189382 -0.15077701 -0.30251995 -0.39253116 -0.6884879 0.5592048 0.28111893 -0.49981722 0.66143423 0.3080349 -0.27404362 -0.42398727 -0.06696596 0.16478948 0.3912967 0.77013814 0.30377167 0.7110944 -0.07081582 0.43073413 0.17767788 -0.066481866 -0.1907612 -0.1357209 0.2787855 -0.54744315 -0.26487982 0.5005288 0.326078
132 -0.7287378 -0.44519317 -0.5836001 0.2455664 0.80682063 0.05988432 0.21576165 0.4089614 0.27972728 0.4446019 0.26123598 -0.7869615 0.32515457 -0.21151762 0.053532097 -0.50034773 -0.38664582 -0.39400387 -0.23494399 -0.5803907 0.16573228 -0.29074293 0.042049687 -0.5244281 -0.0021109562 -0.41345268 0.123043604 0.9889067 0.0005136807 0.08851432 -0.6619918 0.040030118 0.9730189 -0.69490653 0.30017295 1.0127999 -0.009303813 -0.6010284 -0.54816693 -1.751096 0.22006369 1.362557 -0.4651018 0.26478192 -0.15621276 -0.57364416 -0.28937042 0.0620907 0.68239105 -0.06743752 0.9778171 -0.14227399 0.9716376 -0.36333343 0.4125902 0.028736677 -0.03301212 0.42097044 -0.35582462 0.12564984 -0.8026189 -0.5562052 0.52170277 -0.30328047
123 -0.5123989 -0.45811135 -0.6543981 0.060504213 0.81847256 0.09055721 0.15812689 0.34100085 0.3267558 0.44248584 0.31433538 -0.7943896 0.16966267 -0.18418382 -0.05315391 -0.29222956 -0.31838736 -0.43440354 -0.11685274 -0.49656123 0.20631072 -0.13170642 -0.07779763 -0.46388984 -0.13097847 -0.42172098 0.0625915 1.1141803 -0.04541443 0.17924872 -0.68041897 -0.10914631 0.96546245 -0.6673927 0.15216741 1.0380102 0.123698995 -0.6208975 -0.55246854 -1.6480868 0.18908314 1.3245243 -0.49285522 0.21291956 -0.1730139 -0.64763635 -0.47413522 0.12268894 0.75502217 0.10130715 0.9422297 -0.06239522 0.99785435 -0.35880014 0.29873377 -0.013048322 0.02422594 0.45569175 -0.22052273 0.14924353 -0.6955149 -0.4405454 0.66074723 -0.29264268
365 0.15442832 0.016762605 -0.9514801 0.11775463 -0.5259386 -0.09166959 -0.0257238 0.0070712697 0.12818962 0.4334769 -0.39814055 -0.38489217 -0.035116497 0.10561287 0.7592563 0.3257012 0.521439 -0.5125869 -0.6584079 0.16102596 -0.73650056 -0.4444799 -0.11957396 -0.08641846 -0.3317597 -0.27749228 0.10961302 0.7827243 0.37890854 0.020417152 -0.45453304 -0.73636985 -0.995239 0.3434982 -0.03446121 -0.22119328 0.07166781 0.12115662 -0.14118966 0.09150469 -0.5331116 0.048784148 0.88092387 0.42664364 0.47010747 -0.18201612 -0.20830595 0.30148083 -0.24458271 -0.4510039 0.101212665 -0.90735114 0.34983194 -0.88630104 0.47655734 -0.6403631 0.25177532 -0.038494643 -0.3145069 1.0173041 -0.455767 -0.24219567 0.18199328 -0.4059808
422 -0.26816475 -0.15117747 -0.6193642 0.3787118 -0.06927518 -0.2797375 0.15008153 -0.11934794 0.15210168 -0.17626032 0.029729396 -0.38559026 0.20935802 0.3416426 0.8783015 0.23081693 0.66455257 -0.4204733 -0.5949261 0.20177358 -0.76838595 -0.16013288 -0.8503049 -0.23712479 -0.80265266 -0.09236149 -0.33256578 0.4835996 -0.40400064 -0.34921575 -0.057434186 -0.16402899 -0.3396225 0.23516539 -0.077179246 0.3168385 -0.25092322 0.31097946 -0.3924755 -0.048333295 -0.4318204 0.28939003 0.34935787 0.18356885 0.3335 -0.33357957 0.5056841 0.11839136 -0.12780051 -0.20965743 -0.32123795 -0.9729952 -0.023621414 -1.1936809 -0.098851494 0.3939508 -0.3789243 -0.28688422 -0.7171949 0.5570471 -0.3828235 0.23306404 0.6460009 -0.3406277
106 0.2889258 -0.22433832 0.105781116 -0.1626464 -0.3555501 -0.47514465 0.25777543 -0.19335082 -0.6302638 -0.5639138 -0.19489853 -0.5060352 1.0877349 -0.8560162 -0.28723702 -0.5751096 0.47678202 -0.5058597 -0.4299886 0.07099624 0.25899246 -0.011539063 0.14215375 -0.3595866 -0.042810656 0.12055767 0.6079242 0.43246835 -0.1181244 0.5501554 -0.8810443 -0.21750763 -0.31668916 0.29799366 -0.6429953 0.6318059 -1.0140715 -0.7395245 -0.5461231 -0.5440538 0.0010702795 0.5752264 0.3473664 0.38633102 0.4982101 -0.70813215 -0.28718626 0.22703475 -0.41991934 0.028035482 -0.6217904 -0.1307482 -0.65372133 -0.16829222 -0.0039629466 -0.057068355 0.19404997 -0.40987486 0.26162302 0.3260847 -0.66402674 0.40823656 0.99371314 -0.55316466
418 0.24647522 -0.687172 -0.16819087 0.5041942 -0.14608851 -0.42631128 0.2316488 0.1363028 -0.80153424 0.09027383 -0.46281734 -0.53577924 0.19340856 0.14988934 0.1339629 0.13226211 1.4156597 -0.25499162 -0.010752662 -0.6222992 -0.16330476 0.7025234 -0.1970912 -0.5409465 -0.34360552 0.379803 -0.3120616 0.20654966 -0.6766405 0.64423805 -0.1660619 -0.19973491 -0.41912168 -0.28039634 -0.19629273 0.5387703 0.086696796 0.36667666 0.118228175 -0.5561723 -0.584447 0.42237714 0.63773763 0.27312598 0.14730927 0.5047661 0.856697 0.12113457 0.26908964 -0.35757273 -0.30809468 -0.8325989 -0.3845663 -0.9447681 0.68120563 0.18522033 1.1565481 -0.65493286 -0.57861847 0.09288216 -0.67297626 -0.32950184 0.35738552 -0.02563035
212 0.4174214 -0.06256108 -0.18280108 1.0059139 -0.64702964 0.13091943 0.17384976 0.11619301 -0.41382417 -0.24360925 0.030475613 -0.54026127 0.68889725 0.026171584 0.6881809 -0.61225456 0.03716838 0.27512327 -0.10211533 -0.014528612 0.24754436 0.24423112 0.009656627 0.45377922 -0.81613684 -0.13979506 0.5453271 -0.16740574 -0.47244105 0.97624665 0.10087897 0.055699017 -0.2095109 0.09074787 0.37722516 -0.007915448 -0.33242792 -0.37824574 -0.662429 -0.10435729 -0.093886375 -0.20051074 0.35067505 0.3189131 -0.05960539 -0.26443928 -0.2627212 0.07471963 0.93307716 0.38689685 -0.63448006 -0.055587262 -0.15910773 -0.29177818 0.22985543 0.19650763 0.36783615 -0.30752653 0.5783104 0.27575076 -0.562005 -0.5482783 -0.045232926 -0.21451549
213 0.74868673 0.13949303 -0.043889683 0.47381163 -0.78227586 -0.31571162 0.29646203 0.077500604 -0.15034023 -0.04234832 0.18228056 -0.5528997 0.8843896 0.3039041 1.0250983 -0.24426481 -0.044844083 0.0060099424 0.38511965 -0.03676251 -0.082133636 -0.24301498 -0.8268465 -0.13500774 -0.7779732 -0.43071106 0.62157476 -0.02628077 -0.5115271 0.37868932 0.021751534 0.42113426 -0.3007534 -0.735204 -0.08346986 -0.17307252 -0.14853951 -0.13623251 -0.59362245 -0.25160122 0.07497636 -0.4985261 -0.019595155 0.92409015 -0.20088412 0.6329354 -0.3950023 -0.108300686 1.2943299 0.17324015 -0.11190398 -0.51563185 -0.82639563 -0.30186784 0.56514215 -0.30729327 0.19071685 -0.54529184 0.3608242 -0.30162755 -0.05699203 -0.44091967 0.26573354 -0.4510944
176 -0.33650678 -0.060401242 -0.71477246 0.64340293 0.4582589 -0.07623781 0.21964847 0.33338872 -0.12794909 0.67536604 0.05613972 -0.34981874 -0.2158741 -0.07002598 0.8076899 -0.328234 0.9684101 -0.27885467 0.09275005 -0.18222947 0.1037998 -0.33807024 -0.7149555 -0.14433491 -0.7777206 -0.032163054 0.7596398 1.1856878 0.39818633 0.037399482 -0.78750044 0.14316045 0.34323096 0.3539586 0.51451707 0.59789056 -0.7901504 0.4380307 0.39263645 0.76867604 0.036392674 0.10794214 0.33634657 0.5935661 -0.9039579 0.5876822 -0.06859953 0.7265532 0.7881056 -1.1089536 0.55997753 -0.42948714 0.38306507 0.026879968 0.2310284 -1.0159203 0.2948627 -0.12453176 -0.0070388257 0.75481826 -0.17669229 0.37323186 0.31358552 -0.08473143
205 0.24798529 -0.121271916 -0.12864095 0.91192603 -0.5352723 0.20115307 -0.006475581 0.16676116 -0.5191178 -0.11153482 -0.12587416 -0.31277627 0.7363141 0.12159762 0.6076922 -0.58562136 0.024023833 0.065975554 -0.10056414 0.043451943 0.25967607 0.20964713 -0.15766758 0.49614894 -0.93698746 -0.1185058 0.6421 -0.06879937 -0.41593856 0.84332967 0.29291382 0.051801503 -0.13653798 -0.1369841 0.24075434 0.040440556 -0.44914788 -0.31974208 -0.68693435 -0.09527108 -0.104245126 -0.25865883 0.3042145 0.459424 0.108102314 -0.27839658 -0.1718133 0.10176867 0.77068365 0.25239146 -0.5750761 0.1323107 -0.3160487 -0.28560427 0.15655223 0.048934534 0.24435914 -0.39341202 0.4328181 0.16134678 -0.6330975 -0.60485303 -0.3626173 -0.30284
222 0.14136983 0.43557072 -0.3409146 1.1892126 0.6916501 0.7540089 0.9116866 -0.21444166 0.093528636 -0.22092375 -0.29243067 -0.91058505 -0.4492246 -0.05777804 0.17111543 0.24714829 -0.50201714 0.11904005 0.28007546 0.014435799 0.031404406 0.08628869 0.21185987 0.019434355 0.024309946 0.85684997 0.45920253 -0.7401953 -0.111858316 0.10767106 -0.7528376 -0.47281662 -0.5445456 0.3069783 -0.5467155 1.4759041 0.24330112 0.5715196 -0.8005579 0.5367 0.54980636 0.31632897 -0.22617193 1.0793205 -0.099470176 -0.37813857 -0.31951854 -0.07249265 0.40950283 -0.06541574 0.29674837 -0.2001961 0.24475239 -0.44087082 0.037463702 -0.21218197 -0.41701978 -0.23841114 -0.55770034 -0.52567804 -0.62559855 -0.3068622 -0.18315238 0.00415122
364 -0.26437026 0.18921925 -0.74905217 0.41118068 -0.13781674 -0.13882424 0.1348844 -0.11154776 0.17639343 -0.30132705 0.09310501 -0.4515623 0.277307 0.3378747 0.9819036 0.18591014 0.7709249 -0.48775172 -0.5782578 0.2964719 -0.8790958 -0.09378543 -0.85790825 -0.11294107 -0.8637218 -0.09762269 -0.533201 0.46418512 -0.29544035 -0.29009777 -0.055565525 -0.14654247 -0.25583175 0.06991188 -0.062203303 0.41457757 -0.20352313 0.29247007 -0.37581864 0.029442234 -0.4587012 0.38626224 0.4081813 0.3714475 0.3401257 -0.2631329 0.47625577 0.14703396 -0.2512506 -0.27954572 -0.3195415 -1.0778543 -0.06381993 -1.0653334 0.013833828 0.26977012 -0.30435923 -0.070892535 -0.69639933 0.7558812 -0.26512128 0.3232306 0.6284561 -0.403238
50 0.24921907 -0.08234048 -0.897287 0.5275722 -0.2892408 -0.3306798 -0.31156814 -0.09153389 -0.4484873 -0.461238 0.37265882 0.08506086 0.30230996 -0.20420861 0.5599577 -1.1295463 -0.6695366 -0.63212174 0.36019084 -0.034430526 0.574684 0.32731786 -0.8516962 -0.36547783 -0.020393495 0.5691122 0.36551008 0.5297951 -1.055272 -0.051567484 -0.74740785 0.5803859 0.31028277 0.33237848 0.09520197 0.25210637 0.21001437 -0.014290356 -0.31794488 -0.47999007 -0.63741416 0.26506662 0.32627356 -0.61132973 0.5090345 -0.016759165 -0.7799903 -0.10597303 -0.5382069 0.37243518 -0.73530024 -0.7350748 0.12857498 -0.6811266 -0.04628517 -1.0736834 0.30371523 -0.098370165 0.07043097 0.07193597 -0.1782654 0.29366142 0.36950013 -0.6225264
54 0.3061075 -0.794191 -0.35778385 0.58203846 0.38331068 0.081096366 -0.7747257 0.6166431 -0.1304188 0.27701682 -0.01751793 -1.3631177 -0.013722991 -0.356721 0.37419364 0.0680985 -0.37936172 -0.21852846 0.03413438 -0.4479607 -0.07476202 0.34446096 -0.27317864 0.3782923 -0.55986404 0.25200185 0.044484835 0.28105098 0.98861504 0.029876176 -0.86319464 0.31360534 0.15457843 -0.07358761 0.071110964 0.64161545 0.7216552 -0.53327376 -0.6934677 -0.9469004 0.4604376 0.37200302 -0.56628585 0.6529463 0.5774694 -0.2859014 -0.22067456 -0.14059661 -0.26828808 0.057918224 0.9375891 -0.82159716 0.19421723 -0.039503288 0.9522756 -0.18450809 0.119061984 -0.48370963 -0.31271237 0.21366958 -0.5450406 -0.34429678 0.4555246 0.76590395
137 -0.6048248 -0.4868902 -0.64915955 0.046848748 0.8344976 0.02911589 0.18372354 0.38513568 0.392036 0.34703675 0.2575342 -0.85917056 0.2663092 -0.22025903 -0.07385235 -0.43654618 -0.40968108 -0.3629399 -0.17519273 -0.50825506 0.15736075 -0.30476132 -0.14584042 -0.48939097 -0.1503349 -0.45070848 0.10312384 1.0571725 -0.03771254 0.17505778 -0.8155205 -0.016552296 0.86456585 -0.7152018 0.116211146 1.0782851 0.15545133 -0.61828935 -0.55013627 -1.8042228 0.112201296 1.4116467 -0.49270803 0.21518026 -0.1825464 -0.57068485 -0.34702063 0.06630091 0.70174325 -0.034605995 0.9667096 -0.19636968 1.0440617 -0.2724869 0.30339858 -0.008897617 -0.09547086 0.50485647 -0.34826776 0.17253587 -0.64555347 -0.5345863 0.58306324 -0.40533793
199 -0.38669884 0.034708105 -0.73413426 0.77250564 0.5378929 -0.06709651 0.21502374 0.47791675 -0.08692473 0.6942773 -0.006273003 -0.17507066 -0.06536368 -0.05431167 0.74286425 -0.24580795 0.862038 -0.26403904 -0.0004473692 -0.12582132 0.13538922 -0.3742522 -0.76885223 -0.1821532 -0.81329376 -0.08873705 0.69662 1.04896 0.29389554 -0.0020518515 -0.8118466 0.18524994 0.2710088 0.26714456 0.67406654 0.6688272 -0.76362693 0.44773212 0.38707125 0.7192806 0.12520866 0.16104782 0.22966866 0.55623347 -0.86136615 0.596989 0.02476414 0.7641932 0.9266915 -1.1181796 0.5279055 -0.4207387 0.35378274 -0.06981257 0.1197333 -0.91948265 0.4047901 -0.1397813 0.027293937 0.8238727 -0.086242706 0.3828161 0.40973264 0.015918987
377 0.13792 0.4275881 -1.1544107 0.51668495 -0.1624634 -0.09197066 0.10258818 0.574157 -0.0054527223 0.79963297 -0.12595357 0.055218313 0.017564386 0.27706438 0.85305536 0.015590875 0.58603907 0.17127231 -0.5105873 0.56414086 0.08427044 0.0160005 -0.76076674 0.1828889 -0.24386013 -0.5227973 0.6525128 1.203127 0.9158739 -0.046062823 -0.66782516 -0.6215378 -0.54062206 0.49212748 -0.19380988 0.1134926 -0.12214534 0.4788525 0.05822228 -0.03959713 -0.49386513 -0.05431379 0.67629194 0.45132786 0.11814873 0.08704309 -0.26219532 0.10836333 0.35550195 -0.52027583 -0.043549433 -0.16633013 0.49222502 -0.3177846 0.45332974 -0.69068044 0.45709383 0.52612334 0.022733003 0.5256049 -0.18087146 0.34025136 0.38678876 0.26211753
207 0.3058062 -0.08260794 -1.0809754 0.5027257 -0.25718725 -0.3597798 -0.27633828 -0.107151434 -0.3769085 -0.3064425 0.39633197 0.046423562 0.26746178 -0.37151533 0.553017 -1.2048775 -0.7613897 -0.72378105 0.32968962 0.0040134396 0.74926865 0.35824946 -0.59267306 -0.5106438 -0.0985492 0.7299509 0.24069333 0.52352333 -1.0089695 -0.06647026 -0.740646 0.31494704 0.30060753 0.19710915 0.1812845 0.3403511 0.17005567 -0.103503704 -0.20949629 -0.37316412 -0.5744532 0.10190812 0.48906264 -0.5520194 0.56620264 -0.21482097 -0.5682322 -0.2564587 -0.42827258 0.278487 -0.75091755 -0.8008225 -0.13433802 -0.64293045 -0.02936168 -1.1558855 0.17261301 -0.15474625 0.10194757 0.037617967 -0.21938553 0.19559908 0.29107547 -0.5830542
146 0.019597813 0.021651981 -0.6224642 0.7366144 -0.077400446 -0.051409878 -0.80296874 0.47517172 -0.6612032 -0.3085573 -0.25538915 0.25987035 0.464532 0.053942595 -0.24650364 -0.7388617 0.47519013 -0.39013442 0.40286434 -0.5495079 -0.51263505 0.06664327 -0.37418908 -0.676384 -0.41494614 0.31799468 0.18768947 0.22929709 0.05976026 0.6813267 -0.6378411 -0.14003623 -0.51697546 -0.2847211 -0.40640852 0.80832976 0.12659277 -0.19756742 -0.07639556 -0.73559874 0.12221371 0.14334524 0.2035765 -0.6970214 0.72360986 0.32525286 0.18214218 -0.08567573 0.0009716826 0.34274414 0.24255611 -0.25056148 -0.8359371 -0.7276174 -0.50091386 -0.15324819 0.18635349 -0.18824846 -0.16941541 0.33887026 0.1984758 -0.24033998 0.13529429 0.14269824
171 -0.4242851 -0.054998845 -0.7188617 0.7793353 0.45208132 -0.07648071 0.06984168 0.37342605 -0.111002035 0.5529917 0.03244163 -0.3343925 -0.1779303 -0.164695 0.8366413 -0.14304832 0.8209123 -0.26512218 0.09730551 -0.3032864 0.19544283 -0.35445163 -0.65619975 -0.24172008 -0.78790456 -0.087698214 0.7542025 1.3064737 0.3244025 -0.014362316 -0.88130593 0.07339151 0.35633034 0.27569997 0.6361396 0.6301523 -0.7518805 0.53805363 0.42852744 0.7934377 0.060781687 0.14442685 0.28128105 0.61945254 -0.8006547 0.6215105 0.046074953 0.71875954 1.0021394 -1.1158328 0.64594 -0.3184384 0.30210686 -0.03577278 0.14724134 -1.0509809 0.388617 -0.1716127 -0.008999264 0.87763494 -0.11904507 0.2993119 0.32077464 -0.13043325
335 -0.3322019 -0.077438734 -0.63612133 0.40961868 -0.15542835 -0.13356628 0.12229452 -0.25019437 0.17870277 -0.21327616 0.0044537894 -0.34028363 0.19416869 0.40196738 1.0358108 0.1904957 0.6004807 -0.46307534 -0.5152574 0.33770478 -0.7819285 0.026075963 -0.7847078 -0.16495484 -0.82921016 -0.11496512 -0.46064344 0.4220697 -0.53805614 -0.29511398 -0.068466425 -0.2575229 -0.36220163 0.18538544 -0.06466447 0.45671543 -0.19179955 0.25062618 -0.35684404 -0.039486635 -0.46438423 0.31553543 0.29297242 0.26151928 0.37014657 -0.23407564 0.5108842 0.19773434 -0.18131995 -0.12917116 -0.32227817 -0.82499105 0.054613862 -1.0919176 0.0030000927 0.46475732 -0.24614985 -0.22868556 -0.6017396 0.6795209 -0.40415862 0.3164369 0.71862656 -0.49476355
120 -0.031091549 0.38852352 -0.13823862 0.2849122 0.32254377 -0.56238616 0.48030376 0.13733573 -0.12945445 0.1030601 0.25448322 -0.3731598 0.0886702 -0.34086987 0.33948994 0.05174129 -0.38096428 -0.85445946 0.32745293 0.6630939 -0.144786 0.24778137 -0.18054263 -0.42917848 -0.5810863 0.22953731 -0.12537026 0.1483961 0.3867418 0.03711951 -0.25272998 0.2722661 -0.22258371 0.54286385 -0.5130521 -0.0022119097 0.2583253 0.41797945 -0.0023367319 -0.02907 0.61832595 0.3704556 0.170455 0.11347451 -0.030617148 -0.5111392 -0.14238164 0.22309037 0.23314826 -0.017808212 0.6452143 -0.08999303 -0.1604986 -0.3471463 -0.09541621 0.10441279 0.41584778 -0.0013299959 -0.37858766 -0.46416616 -0.32275134 -0.025083117 -0.6118597 -0.20372033
360 0.09179438 0.37658787 -0.08917517 0.22783741 0.28730828 -0.48636883 0.5033611 0.21114478 -0.24292056 0.13949452 0.308366 -0.27886596 0.036355846 -0.4253088 0.2839518 0.013315759 -0.3432598 -0.73844606 0.2875683 0.6858062 -0.2608594 0.18127762 -0.1795315 -0.3655211 -0.46836397 0.107356705 -0.06460658 0.1515924 0.37663552 0.016669331 -0.39836034 0.2722577 -0.27223283 0.5200293 -0.49517536 0.038400322 0.28756237 0.3597726 0.18285604 -0.08865973 0.80091923 0.32998967 0.121268086 0.12655492 -0.1660203 -0.3691969 -0.32230598 0.2985466 0.18805473 0.19974813 0.6031419 -0.12601005 -0.17130849 -0.45480978 -0.101435736 0.18772559 0.40758204 -0.01654964 -0.4160865 -0.40230432 -0.441526 0.007025325 -0.6226958 -0.21643442
343 -0.16232792 0.3895519 0.19639076 0.68031245 0.08554119 0.39749193 0.8959535 -0.3639145 0.09423105 -0.15455864 0.28504148 -0.18259569 -0.10399002 -0.21946858 0.039593536 0.4223685 -0.26617026 -0.34521177 0.34796154 0.11351727 -0.09023846 0.16849296 0.19020168 -0.11745598 -0.17323393 1.016295 0.54642296 0.11327119 0.5722209 0.30523798 -0.48561653 -0.17359619 -0.033562038 0.19480346 -0.2356714 0.78499055 0.05073079 0.8911453 -0.40319517 0.27953398 0.3979648 -0.26432437 -0.09526151 0.4806287 0.46566647 -0.21460055 0.21278308 -0.28471312 0.2480282 0.4516959 0.66671556 -0.4355764 0.2646516 -0.24563836 0.112321585 -0.24400607 0.3790073 -0.3227196 -0.5668734 -0.708634 -0.46856695 -0.07307123 -0.12947254 -0.101863846
88 0.09989165 0.1802601 -0.43235368 -0.036266346 -0.06847034 0.037117306 0.053907275 0.21737643 -0.5122079 -0.21869226 -0.23815067 -0.18934028 0.27698344 -0.4406886 0.61958176 -0.50034124 0.098473065 -0.4492816 -0.41457483 -0.36767018 -0.12329282 0.14964163 -0.16786696 -0.08209699 -0.13197729 0.18285984 0.2168609 0.30267796 -0.34135616 0.37500846 -0.3976043 0.38006508 -0.37056053 -0.085342616 0.04732807 0.2877259 -0.4642971 -0.052628186 -0.0062495777 -0.3846812 0.026650677 0.1219199 -0.089133315 -0.22537875 0.22800253 0.051140036 -0.14844635 -0.16279425 0.04679173 0.06319624 -0.3668693 0.17845939 -0.27732515 -0.42279392 -0.11409759 -0.09201071 0.3530529 -0.30972016 0.13059938 -0.03542389 0.009279061 0.20895004 0.15146269 -0.2735995
396 0.08420955 0.4537941 -1.3711451 0.6236599 -0.22285599 -0.10778242 0.021431265 0.48011723 -0.005342625 0.7066071 -0.06255867 0.16162644 -0.01713874 0.33674216 0.8966757 0.010613857 0.51654303 0.19820464 -0.587531 0.45478556 0.16165611 0.05623622 -0.7581384 0.0063321674 -0.29668045 -0.4685589 0.59211046 1.2920954 0.8750343 -0.017219929 -0.6822296 -0.6184987 -0.5514587 0.53419304 -0.3306146 0.034927078 -0.19343613 0.3857531 0.17945027 -0.0750491 -0.4031924 -0.06440945 0.6325628 0.52364665 0.17759733 0.05784358 -0.18412271 0.09622773 0.41654932 -0.5989802 0.013080645 -0.046316624 0.4239425 -0.30843502 0.48492908 -0.65891504 0.3203329 0.39667654 0.1889315 0.5727607 -0.31845257 0.37997943 0.28961566 0.3161334
170 0.43056703 0.24563628 0.5199968 0.5339774 -0.16902201 -0.59615326 -0.095053434 -0.47579855 -0.8117564 0.07636241 0.13857824 -0.34116563 0.5241912 1.6943731 1.1147838 0.6219002 -0.5885013 -0.26826936 0.032001104 -0.3100757 -0.60791093 0.3195126 -0.15662536 -0.47031707 -0.5405105 -0.7808573 0.8538563 0.35064906 -0.14888136 -0.11371565 -0.3668842 0.23724282 -0.62464267 -0.24483886 -0.77730566 0.915128 -0.38200265 -0.2056588 -1.3552513 -0.1856544 0.11900808 0.07318924 -0.10618366 1.5453056 -0.15068612 0.21091384 -0.451646 0.10298176 1.2531375 0.31209013 0.024227332 -0.91977507 -1.3911475 -0.35166457 0.41150722 -0.26639843 1.175307 -0.4142625 0.24979997 0.042634267 0.87435055 -0.03741107 -0.21205679 0.21544337
339 -0.46586418 0.3670532 -0.4451809 0.18045385 -0.07886738 -0.0069803656 0.7010354 0.36397737 -0.56247133 -0.01849526 0.25640535 -0.48350564 0.2610754 -0.13044252 0.029963598 -0.137475 -0.1989982 -0.4582331 -0.100462005 0.16184463 -0.2732821 0.2107351 -0.13725092 0.16432661 0.11689264 0.42271474 0.2858773 -0.24199715 0.12211764 -0.0178652 0.14357585 0.030128501 -0.48551902 -0.048712406 -0.46102574 0.2596146 0.038302634 0.33050323 -0.048921373 0.09528926 0.5148383 0.2969363 0.2131596 0.5391968 -0.02060235 -0.2057864 -0.22469094 -0.119633496 0.30996838 0.34828198 0.3256326 -0.30491006 0.89562094 0.565972 -0.36032465 -0.52325153 0.19631733 -0.3004389 -0.17050071 -0.2780624 -0.062305134 0.03655305 0.46509162 -0.061106563
187 0.34564754 -0.10683351 -0.872704 0.62021935 -0.21083023 -0.22924505 -0.15678953 -0.13078408 -0.31428912 -0.3714403 0.2626795 -0.1042332 0.21060482 -0.1616811 0.55312943 -1.2425153 -0.6886435 -0.66531926 0.357451 -0.04140947 0.6255522 0.4035485 -0.7962518 -0.4259043 0.091338135 0.52973336 0.3766721 0.58780026 -0.91705704 -0.06650421 -0.56251687 0.28860378 0.34136245 0.30638933 0.14748143 0.1432139 0.22295241 0.016273092 -0.47507975 -0.38423422 -0.48727348 0.2609136 0.5824107 -0.7160187 0.28910768 -0.019528532 -0.60370344 -0.21557443 -0.46047476 0.6978473 -0.78753227 -0.5671376 -0.03719771 -0.69895655 0.030356389 -1.0279014 0.36677745 -0.112083524 0.13835846 0.054952417 -0.18510161 0.23523852 0.4076401 -0.57776755
133 -0.022670656 0.27194867 -0.0883577 0.3493 0.33693013 -0.56330925 0.50021887 0.10193278 -0.02363515 0.1574556 0.26819274 -0.53437734 0.17519759 -0.3563355 0.3035867 0.078629196 -0.32717308 -0.7094336 0.35789907 0.6467766 -0.17048775 0.15837808 -0.2202992 -0.38296643 -0.43950015 0.097412586 0.07536073 0.027514394 0.40874416 0.08742488 -0.33617106 0.1658983 -0.39247605 0.5779258 -0.3834521 0.047460407 0.28137904 0.45854092 0.045371193 -0.048497282 0.74519217 0.37596965 0.24388507 0.12959433 -0.052434254 -0.53434896 -0.24111779 0.11571645 0.1968811 0.007028158 0.6338607 0.03489529 -0.18272866 -0.37234604 -0.15410909 0.01725782 0.4095734 -0.09455506 -0.39219895 -0.36412826 -0.39991638 -0.124942444 -0.644876 -0.25732684
79 0.19524366 -0.04687139 -0.52588534 0.10532002 -0.04206845 -0.0772925 0.23812532 0.2608326 -0.38913754 -0.22078001 -0.20308581 -0.03796769 0.4007555 -0.34803066 0.3808503 -0.6719505 0.09093968 -0.35802916 -0.36479 -0.24476056 -0.02041244 0.33856764 -0.0032717697 0.029824726 -0.21015485 -0.118602246 0.13305461 0.40248844 -0.29809278 0.2956456 -0.41592592 0.36616066 -0.32208595 -0.18817815 0.05747945 0.2183155 -0.56107277 -0.039676834 0.028057953 -0.39018768 0.028230196 -0.04024244 -0.09238871 -0.12731238 0.21254514 -0.13644922 0.016218906 -0.18648605 0.18538271 0.32989785 -0.41053313 0.1366917 -0.3452648 -0.27415496 -0.04986057 -0.20852274 0.39361367 -0.20655195 -0.10826552 0.1484244 -0.014158955 0.08927412 0.028230403 -0.2982607
263 -0.4834116 0.25041375 -0.48847055 0.17759672 -0.07649428 -0.12184194 0.88668865 0.3312497 -0.5961088 0.0008050543 0.30355048 -0.3043996 0.3319709 -0.08646637 -0.0685163 -0.13022608 -0.21162142 -0.4706286 0.0005636872 0.06384149 -0.22532547 0.22112195 -0.023660269 0.057079528 0.022898586 0.4483429 0.20769978 -0.20288776 0.30055344 -0.12085569 0.18084247 -0.030922864 -0.43835172 -0.2733583 -0.37102994 0.31772685 -0.12572688 0.30362043 -0.04853661 -0.0040778667 0.53373414 0.070025995 0.34445748 0.4738269 0.12191783 -0.20734647 -0.28945807 -0.12731959 0.2604733 0.41844356 0.4178829 -0.30102572 0.78904307 0.47297442 -0.5123215 -0.50648123 0.17230642 -0.17473817 -0.36999127 -0.18587732 -0.17341246 -0.08874165 0.30421272 -0.075565815
138 0.56672996 0.05088508 -0.10454494 0.6261953 -0.7885665 -0.2647368 0.13970539 0.15574397 -0.077275224 -0.12815312 0.016195353 -0.61306775 0.7626185 0.37637153 1.0282365 -0.2923857 -0.011076487 -0.16365997 0.48592874 -0.18214904 0.04314708 -0.33215994 -0.8108843 -0.044251192 -0.9350073 -0.3346549 0.62899595 -0.08756179 -0.42196533 0.42675552 -0.07981459 0.39638102 -0.40370083 -0.849292 -0.06370914 -0.2603486 -0.22593533 -0.22185193 -0.6192459 -0.20615101 0.07221804 -0.3917332 0.088338085 0.6349952 -0.30131537 0.756839 -0.52169436 -0.043750267 1.2147615 0.29388535 -0.036391318 -0.64848745 -0.91834164 -0.18726432 0.51524687 -0.22851135 0.14516304 -0.43666494 0.3121978 -0.34277537 -0.0060693813 -0.31185547 0.3774282 -0.4645183
173 0.110922776 0.47533154 -0.15888046 0.20628482 0.4496275 -0.531899 0.45657364 0.1557668 -0.11070043 0.22765307 0.25872496 -0.4413121 0.1699879 -0.39119634 0.32680896 0.11636684 -0.2953993 -0.8468484 0.39804783 0.7850064 -0.20751703 0.10684102 -0.13416725 -0.32133266 -0.57476985 0.2566986 0.0097566685 0.17668965 0.21460639 0.03470275 -0.32239008 0.27466616 -0.31348354 0.4268467 -0.46207413 0.12424514 0.47156972 0.4361045 0.0751347 -0.06610608 0.8791717 0.3045575 0.14724304 0.21904336 -0.22837043 -0.4958925 -0.37050006 0.23985252 0.0832793 0.07298294 0.5103834 -0.11454052 -0.09562113 -0.40668395 -0.1790965 0.05687445 0.43511495 0.014941807 -0.41073623 -0.31227106 -0.38438544 -0.009743077 -0.69229907 -0.20864005
217 0.02132393 0.49479654 -0.14811268 0.17378068 0.35748193 -0.5198102 0.47828707 0.16761756 -0.1903928 0.18062729 0.27764344 -0.3698062 0.017369024 -0.3559777 0.30829808 -0.09847026 -0.355234 -0.7652756 0.36880088 0.7324646 -0.21231426 0.22758462 -0.22545442 -0.304228 -0.4197436 0.19974723 -0.07034043 0.1275459 0.2851917 0.119261034 -0.48527145 0.18221398 -0.34376675 0.39941803 -0.56112653 -0.029921927 0.2418964 0.3403908 0.04074316 -0.078806765 0.75872624 0.38018373 0.21410775 0.15239799 -0.18122882 -0.42671433 -0.10043019 0.2790402 0.16698837 0.087177746 0.6665074 0.032295547 -0.12811053 -0.37213066 -0.10443855 0.20309813 0.37759566 0.03170574 -0.45960882 -0.35123312 -0.4482052 -0.0406526 -0.6835443 -0.19719787
69 0.123951375 -0.7684158 -0.31628734 0.7193447 0.32181305 0.11377902 -0.8099792 0.76520205 -0.1531314 0.22089487 -0.05309244 -1.2388195 0.023130732 -0.3848421 0.39120626 -0.13815033 -0.39674583 -0.23460448 -0.0068775113 -0.3134278 -0.045725632 0.12033174 -0.24090578 0.5124785 -0.59733146 0.28929487 0.02546113 0.3741792 0.9683407 -0.046306223 -0.83493197 0.2176717 0.30040705 -0.18514004 0.017996624 0.69186926 0.7376919 -0.5246292 -0.6756772 -0.95332915 0.6212111 0.3398968 -0.52333647 0.71906614 0.4877996 -0.15393704 -0.25106263 -0.20015918 -0.29614627 0.12892619 0.92064005 -0.7124364 0.07202243 -0.1770833 0.8815601 0.07862636 0.14858747 -0.37457123 -0.31343004 0.21147054 -0.6811644 -0.31543306 0.54199004 0.83981395
140 -0.4237251 0.020587344 -0.6066653 0.68463624 0.47939333 -0.0058607548 0.11186155 0.35610086 -0.14130227 0.6636669 -0.0725062 -0.22601597 -0.15193982 0.0065003154 0.8138566 -0.3047855 0.84535754 -0.3871249 0.08332987 -0.12397517 0.14087522 -0.2867728 -0.8070301 -0.19481842 -0.8809356 0.028370026 0.68184566 1.215418 0.29303688 0.03512945 -0.9262565 0.14583118 0.35451612 0.32689264 0.568736 0.69290704 -0.82137257 0.42818177 0.5398077 0.7521902 0.07259934 0.17376222 0.26352012 0.50498396 -0.93410474 0.65133566 0.022623377 0.7651534 1.0290757 -1.1003366 0.644716 -0.45403478 0.28477246 0.04230959 0.24449427 -0.98020923 0.3366264 -0.18373947 0.07384811 0.84023523 -0.23982602 0.29769498 0.3658249 -0.12827133
158 -0.054217666 0.4586327 -0.2549591 1.0341938 0.5874695 0.84270144 1.0284903 -0.22613531 0.081847385 -0.3218795 -0.3241498 -1.0248715 -0.38457164 -0.06534728 0.21272266 0.28813604 -0.61155075 0.12828009 0.1345839 0.05767278 0.041450605 0.11204998 0.13011286 0.029117366 0.15764965 0.78709525 0.4856859 -0.619282 -0.08152025 0.25942287 -0.7350068 -0.33777338 -0.6542222 0.3597252 -0.41774526 1.4406793 0.2910589 0.5226843 -0.6638957 0.44272068 0.5229816 0.30860946 -0.22914438 0.8520431 -0.032862946 -0.3776158 -0.32326835 -0.082174465 0.33150464 -0.02079973 0.36074924 -0.34864146 0.27500173 -0.42022526 0.1086803 -0.36674258 -0.5249218 -0.3512214 -0.4757372 -0.5898173 -0.69217086 -0.30282164 -0.22940402 0.033915196
149 0.5295308 0.28022116 0.56532717 0.63100874 -0.071334936 -0.6346577 -0.054399043 -0.50869846 -0.8782665 0.06288556 0.01941406 -0.24735583 0.5208477 1.7785112 1.0863299 0.5258997 -0.57771534 -0.40058246 0.007436133 -0.34180534 -0.5626678 0.324977 -0.20741461 -0.38535687 -0.5625623 -0.71285874 0.84138334 0.36366844 -0.14870785 -0.19313897 -0.28106382 0.11361161 -0.5567538 -0.25457454 -0.86890566 0.9484063 -0.36644205 -0.1982512 -1.4859238 -0.15665546 0.019426985 0.053126704 -0.12684126 1.4778436 -0.14827631 0.20191026 -0.29127398 0.04770879 1.220272 0.3210055 0.0460722 -0.87320906 -1.3567257 -0.38878146 0.39577776 -0.30078095 1.159524 -0.2299102 0.2353206 0.032842595 0.82626265 -0.19298925 -0.22534764 0.15638167
100 -0.012388882 0.95970595 -0.3658869 0.36498472 0.076869205 -0.49754024 -0.15113032 0.13233817 -0.2673402 0.45275816 0.70507914 -1.242453 -0.053820625 -0.13492054 0.76626074 -0.01501862 0.19880523 -0.8477907 0.50625175 0.30966917 0.2358493 0.44096366 -0.012725046 0.52905357 -0.21256278 -0.46898654 0.45384717 0.025948027 0.5331329 -0.045910463 -0.8113532 0.7549804 -0.12437445 0.6987905 -0.54613227 0.06774814 0.3691985 1.1721516 -0.19923571 0.04819394 0.44859672 0.43928772 0.4375372 0.63810235 0.15534201 -0.7517156 -0.4436339 0.89144504 -0.5622734 0.13923436 0.6999019 0.29255605 -0.52916896 -0.12319247 -0.9576403 0.9474074 0.60395724 -0.20460704 -0.7154704 -0.51376003 -0.24873525 -0.24126591 -0.51462793 -0.30318204
127 0.54662913 -0.59510607 -0.37786806 0.34920835 0.46853247 -0.16763224 -0.21351847 0.692804 0.076360375 0.42741862 -0.3320484 -0.87496406 0.55640113 0.205532 0.21281716 0.17982504 -0.36599502 -0.6394862 -0.36540028 -0.035877053 -0.06886294 0.027551373 -0.29724488 0.13952038 -0.16563302 0.5362728 -0.14012755 0.5152567 0.2769871 -0.1936929 -0.6756636 0.23197554 0.58748335 -0.020149058 0.13603732 0.24742232 -0.0938716 -0.4085452 -0.32714736 -0.58652467 0.4543877 0.24037232 -0.5345829 0.61606574 0.28028283 -0.05310223 -0.46085748 -0.16880769 0.07278181 0.4297036 0.7267975 0.24065974 0.75190014 0.051300645 0.39284456 0.058621854 0.048791815 -0.11117548 -0.22960465 0.24716027 -0.49497864 -0.32646516 0.46392775 0.28647184
435 -0.3409693 0.15599456 -0.57141894 0.26024303 -0.08272335 -0.21734874 0.23521495 -0.30028117 0.077905975 -0.14422233 0.026685532 -0.29513144 0.2778194 0.3293831 1.0244894 0.24231197 0.6560993 -0.4832996 -0.58934057 0.24247201 -0.6703213 0.04667328 -0.8956563 -0.065427266 -0.7831131 -0.114661366 -0.5582968 0.43605238 -0.36819237 -0.24460062 -0.08003698 -0.13795732 -0.19598153 0.099807784 -0.07305633 0.4181421 -0.19503912 0.26962715 -0.34480327 0.088353805 -0.43369377 0.29593128 0.371762 0.21738389 0.31571904 -0.100928955 0.39751765 0.07133944 -0.26522374 -0.13456726 -0.2322709 -0.9253943 0.054226574 -1.0895795 0.09758774 0.38971496 -0.30241513 -0.21412632 -0.68450576 0.65830046 -0.40882888 0.21659951 0.744644 -0.35504213
91 0.42678005 -0.6485394 -0.87819123 -0.2557039 0.55047596 0.37586632 -0.28034937 0.31919724 -0.5175515 -0.2708874 0.50064653 -0.1847622 0.4760885 -0.37919658 1.2310718 -0.8357544 0.29741383 -0.5978138 -0.11415018 0.59266174 -0.9178428 0.15002964 -0.19850715 0.38278505 -0.22440754 0.37398693 -0.0062541193 0.19620834 -0.10559792 -0.32475907 -0.4017641 0.3483616 -0.4375588 0.048084166 0.3620894 0.6393547 -0.5923863 -0.12265632 -0.2015058 -0.045101248 -0.00598836 0.41657054 -0.18026918 0.034420118 0.4456398 0.43898445 -0.25145385 1.2625017 0.097868145 0.32524982 -0.95898795 0.07608919 -0.4906626 -0.15991424 0.16006722 -0.40488368 0.033397887 -0.7986296 0.33295673 -0.9078167 0.65715253 -0.21305946 -0.122693546 -0.53006923
155 0.023307577 0.41306666 0.022406999 0.29007798 0.3967356 -0.49426046 0.48913395 0.22987744 -0.119399495 0.23450834 0.2550295 -0.4481023 0.03801107 -0.25642243 0.2413325 0.067317635 -0.17887951 -0.8435137 0.37580585 0.6753002 -0.209421 0.11573086 -0.20383899 -0.36356765 -0.4210457 0.11088021 -0.025137814 0.15403883 0.29586226 0.11752899 -0.4010483 0.32218397 -0.40876663 0.46437192 -0.45272785 0.015545646 0.3319101 0.4225719 -0.007905344 0.023539485 0.7554406 0.38431573 0.2592419 0.22529703 -0.1606275 -0.5359563 -0.26305768 0.11724502 0.16346823 0.11255633 0.5442912 0.042960618 -0.10462107 -0.42121458 -0.119858086 0.13384019 0.4071497 -0.0891361 -0.45587274 -0.2968981 -0.35843936 -0.06698744 -0.70597607 -0.1456328
84 -0.41739675 0.111982755 -0.68464524 0.8280598 0.49125603 0.0049138297 0.1591568 0.4289974 -0.11325556 0.6781909 -0.014602468 -0.38781425 -0.19318758 0.056068238 0.8267386 -0.38315383 0.792465 -0.24433783 -0.055864442 -0.22473921 0.2699889 -0.3368567 -0.73059875 -0.11365623 -0.8720416 -0.062851384 0.66031164 1.2160587 0.30387902 0.04285736 -0.9104076 0.13443153 0.38239768 0.30230585 0.57001966 0.62352055 -0.7821931 0.4968896 0.45027065 0.7785927 0.08554597 0.1315759 0.3004398 0.5005575 -1.0235583 0.61428285 0.05379684 0.6806444 0.9750526 -1.0842475 0.5397837 -0.38774395 0.37047157 -0.008593305 0.15855119 -0.9183712 0.42387328 -0.05773234 0.072456904 0.89298177 -0.14140642 0.40719286 0.37546316 -0.09539029
301 -0.48974612 0.28210074 -0.4280374 0.20860235 -0.139078 -0.09569427 0.7939524 0.31440908 -0.5864802 -0.0397841 0.27227828 -0.31322098 0.1341572 -0.017057208 -0.14159852 -0.14436437 -0.18576886 -0.49733257 -0.054511186 0.19949253 -0.26104096 0.15453543 -0.14305371 -0.027879287 0.116705365 0.4459419 0.15429878 -0.08461486 0.20465988 0.060246788 0.15957515 -0.036847297 -0.42365828 -0.14690429 -0.4967796 0.41198766 -0.09885584 0.04693139 0.06749012 -0.009405874 0.53978664 -0.01021194 0.2821448 0.60422325 0.018135134 -0.22180857 -0.18655679 -0.1724051 0.3163371 0.48616338 0.4996585 -0.26933601 0.78811866 0.42793292 -0.44330058 -0.45893544 0.27900296 -0.29743573 -0.3856044 -0.31064814 -0.032582924 -0.07131689 0.34894198 0.041561723
270 0.08578329 0.013380986 -0.4920607 0.085741945 -0.080046035 0.10351692 0.09017441 0.17094354 -0.5199121 -0.31239882 -0.13371742 -0.10749808 0.27142292 -0.43456534 0.43110624 -0.46895057 0.13113117 -0.5257737 -0.20320225 -0.28726116 -0.12302941 0.21503314 -0.12798311 0.09282809 -0.33286127 -0.04820206 0.25390387 0.3189474 -0.2665322 0.2552461 -0.46918678 0.36247498 -0.36344287 -0.09654392 -0.1488012 0.24039778 -0.4768632 -0.07548077 -0.028906828 -0.42539704 -0.088586256 0.12548277 0.007886982 -0.25869635 0.16905837 -0.082749136 -0.037506137 -0.26151842 0.07191035 0.26258257 -0.33698848 0.2967866 -0.32257715 -0.31658328 0.07432199 -0.17506132 0.27565187 -0.21009341 -0.01439106 0.16839817 0.16775759 0.06141815 0.14263198 -0.29119113
139 0.41443923 -0.62456757 -0.37355983 0.4198075 0.44253248 -0.07864162 -0.1764427 0.68334544 -0.0073794983 0.50681204 -0.24408415 -1.0173893 0.5059917 0.08013464 0.32219365 0.05357907 -0.3908383 -0.6120141 -0.34050074 -0.15868968 0.056968823 -0.06663614 -0.30192742 0.038969226 -0.12160996 0.45484978 -0.3419911 0.60670614 0.38949177 -0.09623153 -0.6192329 0.23150316 0.48356822 0.0021590292 0.18047865 0.23608914 -0.032406233 -0.39882627 -0.35046947 -0.5865419 0.45263705 0.26274675 -0.54427797 0.5915318 0.2575508 -0.17211692 -0.44489008 -0.21687695 0.28440896 0.38921696 0.6622159 0.23904462 0.8370937 0.03809735 0.25777775 0.2167479 -0.050524525 -0.10903755 -0.19435322 0.31974792 -0.5974764 -0.3022712 0.48541188 0.33524096
130 0.44278073 -0.5350158 -0.44483614 0.46061176 0.3082228 -0.05659352 -0.2746359 0.7259194 -0.10412956 0.49724084 -0.31259358 -1.0763232 0.42299455 0.09725423 0.12813354 0.028652513 -0.47617403 -0.58376217 -0.3975329 -0.12682542 -0.072202675 -0.070077784 -0.30252302 0.01878138 -0.12428061 0.37608024 -0.19312926 0.5765501 0.35494685 -0.144134 -0.6876425 0.12934393 0.6018075 -0.10348808 0.2510399 0.1698443 -0.09061721 -0.27167252 -0.3117152 -0.45515022 0.41254225 0.52573943 -0.45035416 0.65029496 0.38346067 -0.07300825 -0.36946163 -0.19611222 0.23025867 0.46483266 0.7280031 0.26788342 0.6689644 0.028598787 0.4075461 0.17945118 -0.0070190635 -0.15401348 -0.3332407 0.28147715 -0.6068396 -0.2785985 0.4881967 0.31958577
284 -0.5042415 1.0080533 -1.299464 -0.060432646 -0.36085856 0.42122924 0.7200831 -0.30969998 -0.53302765 0.37422508 0.22613437 -0.59991294 -0.489499 0.64217883 -0.017337408 0.86603284 0.48902085 -1.026367 0.064766414 0.060264178 0.5799378 0.08159331 -0.5699627 0.5751456 0.027478801 -0.10293776 0.018122528 -0.389527 0.3726491 0.10929899 -0.25259405 0.5880225 -0.4292835 0.5710152 -0.23723236 0.77114576 -0.6691874 -0.20290765 0.12659675 -0.6264929 0.48842 0.121386014 0.83897173 0.5910649 0.39705396 -0.17256911 -0.095043965 0.1075917 0.059942067 1.5122752 0.71551365 0.0011033443 0.42519152 1.1844239 -1.0868301 -0.37130815 0.5075956 -0.61546797 -0.18318763 -0.51951 -0.38724437 0.058769036 0.48665264 0.075766355
179 0.19412448 0.09726945 -0.51868266 0.15999618 -0.018108211 -0.042915333 0.10710496 0.09180437 -0.47587824 -0.41572315 -0.20495535 -0.048998166 0.36277494 -0.48962274 0.35260934 -0.4574785 0.10612286 -0.54424465 -0.20354328 -0.31135362 -0.0056930524 0.21097314 -0.12573017 -0.104131326 -0.27506572 -0.07877614 0.28977782 0.34964702 -0.2645688 0.27731934 -0.24015182 0.35255417 -0.17129749 0.022907704 0.06301408 0.15906852 -0.4440293 -0.017562058 -0.15756804 -0.42703322 -0.05686241 -0.04110625 -0.040811308 -0.12705028 0.1833621 -0.098846875 -0.039394923 -0.20408799 0.041712254 0.27147043 -0.32318276 0.3174466 -0.23225808 -0.4282488 -0.033694245 -0.2287691 0.36377525 -0.31370825 -0.18159942 0.18111561 0.16715707 0.19392245 0.20846517 -0.16994911
201 -0.37986907 -0.0024291978 -0.69962156 0.74853635 0.5149928 -0.038184248 0.14288276 0.37842685 -0.11266807 0.6741726 -0.042477045 -0.36233833 -0.2381302 0.0033742345 0.77118576 -0.29858768 0.81865543 -0.38472402 -0.017106902 -0.11894479 0.1763985 -0.32281134 -0.6413348 -0.23051512 -0.84724224 -0.070620455 0.6820082 1.163549 0.37233981 0.0377325 -0.73571664 0.2317553 0.4297767 0.29671788 0.5423173 0.68817955 -0.8202166 0.49525592 0.44348294 0.823749 0.1611723 0.12236675 0.34976652 0.51206577 -0.8887093 0.5649366 0.0063029067 0.7407184 1.0355136 -1.0860505 0.4959822 -0.45737773 0.3674149 0.0031334076 0.28913918 -0.99339294 0.31678015 -0.052016523 0.12523337 0.8317799 -0.11345687 0.19796965 0.3550322 -0.008533265
277 -0.088489436 0.44091415 0.0075477315 0.7965621 0.04259789 0.3606635 0.8203042 -0.43766192 0.066502504 -0.17480701 0.3820801 -0.45350918 -0.1568585 -0.13217361 0.098016575 0.32254726 -0.31436598 -0.27294838 0.3717954 0.18192306 -0.26212218 0.059256837 0.14689393 -0.01566963 0.052930534 1.0530643 0.47828585 0.15984192 0.74466586 0.33558956 -0.4658465 -0.22015059 -0.1273522 0.100857556 -0.11544654 0.77481246 0.16159189 0.85642546 -0.3710575 0.20781943 0.3585865 -0.03444278 -0.19932003 0.3491482 0.36592653 -0.15823236 0.36877766 -0.29745114 0.32214808 0.30961 0.74061275 -0.32504436 0.031978555 -0.14396146 -0.11098091 -0.36792308 0.38978213 -0.20493613 -0.5626261 -0.5119408 -0.4700489 -0.124716826 -0.09901661 -0.045323722
193 -0.035758846 0.44824103 -0.027202064 0.18950178 0.31728712 -0.48191312 0.50462973 0.09996592 -0.15504436 0.1425194 0.21960449 -0.351044 0.13909143 -0.3640374 0.35464323 0.05730612 -0.48556548 -0.7432947 0.36705777 0.65984917 -0.16544403 0.29134047 -0.25897437 -0.39015633 -0.4481953 0.24337724 -0.024559285 0.13131566 0.3943667 0.113663934 -0.28367817 0.2124654 -0.27659836 0.40281352 -0.46950912 0.007720605 0.2479023 0.39937824 0.008813014 -0.21076956 0.7592129 0.37687543 0.2918042 0.19421591 -0.16103756 -0.46906146 -0.1450699 0.30167708 0.24016127 0.00880377 0.6746201 -0.034776572 -0.06154623 -0.45788223 -0.10911284 0.11692889 0.30502728 -0.07126222 -0.50743264 -0.34709007 -0.350071 -0.010902734 -0.64658374 -0.16210347
90 0.030977532 -0.49487752 -1.3396553 -0.09208447 0.06081581 0.04289496 0.5683118 -0.1623788 -0.3681364 0.02881144 0.6047813 -0.10340323 0.0070243403 0.35208282 0.7848562 0.34683976 0.7832884 -0.10256075 -0.71286047 0.8419193 -0.40979397 -0.37395555 -0.9840557 0.10909694 -0.87087566 0.09953511 -0.17232743 0.024254126 -0.78774107 -0.384912 -0.44698757 -0.15444182 -0.37392315 0.38868412 0.40841717 -0.059253186 0.15887302 -0.1431313 -0.58770514 0.0322381 -0.19883941 0.077051446 0.15394714 0.28990185 0.14210626 -0.20113657 0.79929817 0.090307966 0.016727936 0.47165048 0.13649672 -0.9484002 -0.10237328 -1.5098163 0.16171263 0.39928278 -0.03412713 -0.36317942 -0.99305207 0.9733972 0.040389784 0.51615286 0.83610374 -0.67101353
210 0.71669596 -0.015597861 0.070228636 0.58498275 -0.7041303 -0.260284 0.22226048 0.21650434 -0.16083157 -0.20030093 0.12460309 -0.5789033 0.6960744 0.24718517 0.9854501 -0.468512 -0.0038505206 -0.13315704 0.4024635 -0.0563762 -0.014701617 -0.110676914 -1.0562638 0.12192657 -0.83550394 -0.48993728 0.6771585 -0.07208262 -0.35993284 0.46490368 -0.0038424276 0.3336192 -0.19718662 -0.8558975 -0.14226884 -0.1448149 -0.13223027 -0.22545928 -0.4997506 -0.23953392 -0.05718722 -0.4531731 0.024925958 0.7981355 -0.1965505 0.7524031 -0.36890417 -0.065496966 1.2531751 0.21617386 -0.07896263 -0.5783475 -0.763375 -0.29550743 0.5273996 -0.1769699 0.11848307 -0.5483554 0.28851187 -0.34139067 -0.04537958 -0.38073748 0.212514 -0.45704597
425 0.22766116 -0.06329169 -0.41340512 0.43954766 -0.23503165 0.014803903 0.18488586 0.0127337035 -0.28802863 0.068673946 -0.08236314 -0.29765278 0.3139346 0.28239468 0.48230836 -0.0016762567 0.9937247 -0.34535825 -0.21134338 -0.37508875 -0.25161892 0.46941975 -0.29460037 -0.50930613 -0.7851244 0.37488887 -0.12532263 0.34564686 -0.923947 0.08735102 0.12282767 -0.16552277 -0.51367915 0.27511564 0.085493155 0.5124361 0.3502139 0.32993552 0.21087696 -0.6181036 -0.16637187 0.15609482 0.08365135 -0.022921655 0.4113262 0.32394242 0.58063376 0.19999276 -0.012767134 -0.32428187 -0.12387531 -0.24316497 -0.32611337 -0.3316976 0.5881703 0.081428096 0.38461897 -0.20189065 -0.58565533 0.348639 -0.22814879 -0.11653369 0.38273376 -0.70642674
25 0.4103891 -0.53689903 -0.5198106 0.4207535 0.40126652 -0.1375343 -0.20045626 0.74486536 0.016933182 0.37661353 -0.21667595 -0.9821872 0.5164498 0.19431995 0.1352644 0.13537475 -0.511045 -0.63287705 -0.46588677 -0.11125453 0.02007693 -0.09337941 -0.31022075 0.102422655 -0.073352754 0.45385575 -0.2058171 0.5922939 0.34844622 -0.22746913 -0.62134826 0.196494 0.4787218 -0.16623755 0.27892512 0.18699215 -0.09409462 -0.34918103 -0.29641458 -0.5863362 0.36742073 0.33575565 -0.40705088 0.63212955 0.33999866 -0.15527028 -0.42868268 -0.13181107 0.23915735 0.33788192 0.7721192 0.3320183 0.67780435 0.017794903 0.4142862 0.16630363 0.05864556 -0.08461934 -0.317283 0.3024007 -0.47592133 -0.27036822 0.4214009 0.29111066
363 0.0190877 0.5491013 -0.16072176 0.25910047 0.3544042 -0.45390937 0.53660935 0.13372618 -0.24180047 0.15728739 0.23663375 -0.31888285 0.21322432 -0.2925477 0.30135372 0.096110225 -0.32558122 -0.840041 0.38775057 0.65296024 -0.15625054 0.15285373 -0.08934452 -0.30746925 -0.52740705 0.07485414 -0.20965089 0.2025533 0.38140455 0.21249588 -0.38320324 0.29065895 -0.3510517 0.44667062 -0.40296707 0.12064729 0.5145663 0.46919116 -0.061956406 0.074662775 0.6960928 0.46025896 0.15002991 0.1977298 -0.057941493 -0.58018714 -0.10536644 0.093128555 0.15783575 0.042060595 0.62203306 -0.0804754 -0.1884706 -0.287313 -0.03146719 0.011578098 0.2924977 -0.07571362 -0.39934614 -0.3123899 -0.33484352 -0.027299775 -0.6432713 -0.19087127
85 -0.38517737 0.08263953 -0.6559727 0.7465225 0.4418934 -0.0663992 0.047411297 0.30899116 -0.18499747 0.7199594 -0.06230026 -0.40452287 -0.21554212 -0.051508788 0.701227 -0.32052314 0.84587044 -0.34711826 0.016913764 -0.09339798 0.16258706 -0.3250622 -0.80449986 -0.124658585 -0.88347846 -0.025020067 0.6339049 1.1220101 0.27494222 0.07788431 -0.6955716 0.25347042 0.32777306 0.25999042 0.6196423 0.6606686 -0.783034 0.48920557 0.42730403 0.74981874 0.097009905 0.24448842 0.2434674 0.543904 -0.9750237 0.52024263 0.06793837 0.7209661 0.8784532 -1.1140889 0.5305531 -0.46744865 0.33627516 0.057140462 0.15725863 -0.9935739 0.37098652 -0.15621741 0.068133734 0.7729267 -0.20158967 0.3059258 0.3616857 0.010025307
282 -0.44592878 0.3257726 -0.44895437 0.17211886 -0.14037934 0.016175253 0.744105 0.33634514 -0.66502494 -0.009619941 0.15309303 -0.43018737 0.19541152 -0.09906644 -0.14872986 -0.15439622 -0.26343665 -0.55573034 -0.10444497 0.25548127 -0.34721413 0.23645186 -0.07099862 -0.0032209244 0.08565463 0.401224 0.24714081 -0.08570592 0.18612626 -0.08380897 0.22602367 -0.01790026 -0.26659977 -0.1408006 -0.5453051 0.39344695 0.06121011 0.25057065 0.06876548 0.06807767 0.4309192 0.18342179 0.08284543 0.4331746 0.10001603 -0.16234408 -0.17808603 -0.076975696 0.28489855 0.30594167 0.34422967 -0.3958749 0.75190324 0.54990745 -0.42018148 -0.42515036 0.2703873 -0.21342623 -0.28380266 -0.33166537 -0.18570067 -0.10785831 0.4728557 0.0030846237
382 -0.4641644 0.29600918 -0.43765453 0.14088874 -0.060339242 -0.11577531 0.86392194 0.28949988 -0.6202842 -0.05640501 0.21666159 -0.17803162 0.13867006 -0.03041604 -0.10601663 -0.13299641 -0.16230513 -0.60109943 -0.045190614 0.22607589 -0.2969765 0.0804297 0.034085315 0.028574321 0.019604769 0.46431 0.13122007 0.04299599 0.19313896 -0.028313605 0.10531882 -0.029230895 -0.50087315 -0.08973245 -0.297994 0.466768 -0.053666804 0.28780603 -0.0659413 -0.028184865 0.5029604 0.0015564015 0.22558269 0.43926615 -0.099037625 -0.26884738 -0.24934192 -0.21581405 0.19494022 0.5679621 0.39226633 -0.2865083 0.73751956 0.5179672 -0.39675465 -0.4285749 0.20015404 -0.37350157 -0.28326175 -0.24155648 0.042958356 -0.09858451 0.40331692 0.16393973
48 0.33525097 0.043602023 -0.48329183 0.05785468 -0.009509281 0.0140220225 0.123684704 0.109786786 -0.47725776 -0.19323777 -0.17570019 -0.050263382 0.33476517 -0.47218105 0.39550984 -0.63027626 0.04720646 -0.52185374 -0.3911094 -0.37604848 -0.102189794 0.249753 -0.041285526 -0.01359948 -0.4248698 0.053033132 0.12505981 0.280807 -0.36423898 0.21343464 -0.49223387 0.4032099 -0.19096632 0.11083284 0.038063996 0.24579328 -0.44303158 -0.03459663 -0.06402136 -0.3746188 -0.11387257 0.009502053 -0.019011658 -0.08554909 0.10313816 0.061338797 0.037593335 -0.24146993 0.23868525 0.06815387 -0.44870922 0.09560343 -0.16867581 -0.3112831 -0.10354918 -0.20670691 0.26212037 -0.24452397 -0.015321921 -0.019494219 0.16392533 0.0518634 0.07892607 -0.15565743
326 0.27307975 0.02188957 -0.2790064 0.20906171 -0.037062924 0.18771271 0.053277783 0.20925875 -0.33962074 -0.3093892 -0.1089617 -0.17703214 0.3229311 -0.330303 0.38037533 -0.6332135 0.089691825 -0.55516326 -0.3303424 -0.2237778 -0.23546332 0.23904036 -0.18760157 0.055669807 -0.331581 -0.026546704 0.3376119 0.27505788 -0.2817943 0.12854531 -0.44624436 0.30966815 -0.19936608 -0.106312 -0.12576966 0.2332636 -0.5102046 -0.038812656 0.013826596 -0.4281879 0.014969013 0.10844579 0.050783258 -0.28616694 0.18256769 -0.054775335 0.0008135693 -0.11135383 0.17740273 0.29044473 -0.4116639 0.19357735 -0.3332645 -0.18322873 0.032017697 -0.16787045 0.34983757 -0.15039577 -0.068296194 0.2520122 0.121519186 0.18998998 0.041598145 -0.20049337
143 0.36299047 -0.6036648 -0.49838662 0.49919155 0.3997627 -0.16122754 -0.28018093 0.6414638 0.11144826 0.4284759 -0.2509343 -1.0052562 0.4516605 0.06609314 0.2423614 0.11103953 -0.5232719 -0.57414967 -0.4106118 -0.08417717 -0.05776626 -0.09321566 -0.2865837 -0.0039395913 -0.106905185 0.41592562 -0.14687912 0.5171095 0.37553 -0.3334524 -0.6208683 0.278218 0.49043608 -0.07687233 0.24089251 0.27023923 -0.09797898 -0.34201622 -0.29901522 -0.6689463 0.46241698 0.29969907 -0.4880745 0.5612183 0.3352873 -0.18094651 -0.39169243 -0.16261533 0.3160543 0.43231395 0.7769415 0.30729645 0.68503225 0.002436776 0.42651328 0.22798997 0.07806689 -0.0018088256 -0.13840741 0.3110543 -0.52214503 -0.19273801 0.5367286 0.17351627
150 0.42726257 0.31775847 0.2754015 0.6858652 -0.43042248 -0.6924144 0.26743343 -0.3487561 -0.61939603 -0.027949402 -0.12836419 -0.5556686 0.79369986 1.5422217 0.9342656 0.19441353 -0.45348114 -0.4553746 -0.1032841 -0.14566875 -0.44305226 -0.21425967 -0.3155949 -0.08875389 -0.4995702 -0.5105174 0.59124964 0.26016995 -0.3874624 0.1049901 -0.24627884 0.15487301 -0.36508605 -0.3082675 -0.6380814 0.37966898 -0.479193 -0.19297862 -1.0256788 -0.37088767 0.055020183 0.1064675 -0.3217283 1.3810221 -0.40941414 0.51109827 -0.25094485 -0.110754095 1.250718 0.264536 -0.26257902 -0.5601138 -1.2618538 -0.05333975 0.27931002 0.005575518 0.6290126 -0.122217365 0.44592607 0.15165831 0.28755042 0.25880158 -0.12205143 -0.09924512
175 -0.39615068 0.14107712 -0.74089676 0.77967376 0.35189298 -0.027186513 -0.04367392 0.3336458 -0.07839826 0.726226 -0.048920494 -0.23450655 -0.18331322 -0.025278224 0.79007566 -0.43125644 0.9249977 -0.4131259 0.088968515 -0.14947242 0.16640274 -0.20772174 -0.5815492 -0.1778165 -0.821589 -0.16589867 0.8012836 1.1828454 0.25407466 -0.015928056 -0.74254 0.14699271 0.3840483 0.3709529 0.62409365 0.8260863 -0.6973513 0.6332216 0.49771506 0.78038895 0.14827186 0.19437571 0.21472697 0.61530536 -0.93709373 0.6556479 0.06357936 0.82166433 0.9444121 -0.9753696 0.63537073 -0.4372707 0.255974 -0.07002386 0.21970785 -1.0152732 0.3745579 -0.087759845 0.022006027 0.8766582 -0.114632 0.22483991 0.5051137 -0.068924256
117 0.3961949 -0.69929004 -0.38889048 0.43838766 0.49064887 0.034646858 -0.2232741 0.5932938 -0.021830993 0.511127 -0.27952492 -0.90580356 0.5755926 0.1180989 0.2258975 0.20663917 -0.31154925 -0.67243975 -0.40061742 -0.08268651 0.043623645 -0.12390609 -0.36046115 0.01902064 -0.19604383 0.34947875 -0.18702203 0.55977684 0.37032 -0.24423577 -0.6220474 0.30780864 0.45599148 -0.13588016 0.25478998 0.19898662 0.0029918589 -0.35532898 -0.37137443 -0.50402737 0.4232297 0.27346772 -0.5925307 0.538231 0.28576154 -0.15529639 -0.49255216 -0.18995124 0.34376848 0.5345144 0.7463247 0.39687118 0.80822283 0.020207645 0.3895165 0.15879166 0.107253425 0.004739453 -0.19893767 0.33727962 -0.41542968 -0.23293416 0.5479669 0.1222426
148 -0.42474234 0.015439759 -0.69928294 0.75846744 0.51064616 -0.05055112 0.2791693 0.44627175 -0.14286625 0.6005523 -0.077107124 -0.20323753 -0.15628846 -0.026708677 0.8221245 -0.39488286 0.8989166 -0.23255934 -0.025129791 -0.017298192 0.19190505 -0.2891717 -0.743344 -0.09636713 -0.8026278 -0.029843414 0.7493542 1.1366439 0.28797796 0.029946933 -0.75290835 0.19877228 0.36562812 0.39778054 0.6722547 0.746365 -0.7259742 0.41728747 0.4424485 0.88205135 0.15482998 0.1498625 0.1923702 0.5131902 -0.9303208 0.6167838 -0.071717665 0.8212097 0.89809585 -1.1006777 0.5743183 -0.4264909 0.32777402 -0.0125707835 0.2557844 -0.981436 0.44977096 -0.008195689 0.0019884151 0.8276571 -0.19042923 0.3311656 0.38434485 -0.068543755
369 0.16808204 0.4420204 -1.3154393 0.5548216 -0.24760991 -0.09486053 0.011913951 0.5248022 0.04394419 0.79883397 -0.11948762 -0.03859194 -0.004616735 0.39155293 0.8032767 -0.0016434661 0.6907509 0.09412286 -0.49833894 0.5473547 0.086113416 0.046713483 -0.6005129 0.11130508 -0.24549115 -0.47629288 0.5347596 1.2919235 0.76450515 -0.013640289 -0.5802858 -0.6590642 -0.57796514 0.41762224 -0.4543201 0.2783735 -0.11481715 0.44550997 0.26262668 -0.12492562 -0.38586128 -0.12936652 0.6162595 0.39772737 0.17745264 0.031063063 -0.23092072 0.17272516 0.2815452 -0.5917699 -0.07555363 -0.17691687 0.3756328 -0.39325088 0.5414372 -0.65912926 0.36877567 0.56295955 0.12338761 0.4985976 -0.28579038 0.34714776 0.2788908 0.33709574
283 -0.44575098 0.30662468 -0.44967383 0.14359729 -0.12956734 -0.05972667 0.74106836 0.36782795 -0.6282786 -0.03782359 0.26945972 -0.32093787 0.1914721 -0.14775065 -0.08047652 -0.14054288 0.020678649 -0.54247093 -0.00018870678 0.28170317 -0.24772806 0.15185118 -0.12666452 0.057591658 0.10518035 0.5256587 0.1281051 -0.2033285 0.14611992 -0.024375964 0.12424418 0.016957948 -0.3165022 0.0045593283 -0.50145936 0.39685628 0.032557774 0.28465885 -0.021257157 0.043162715 0.4296536 0.03333521 0.19198315 0.4425709 0.08727256 -0.28503376 -0.33747172 -0.19062866 0.293845 0.34072486 0.37722203 -0.3797396 0.79437333 0.46481773 -0.37976655 -0.28912064 0.19436055 -0.21621081 -0.16825098 -0.28243098 -0.10791276 0.004295367 0.37497076 0.012607466
43 0.32738808 -0.015123205 0.17019749 0.013604644 -0.453077 -0.2821246 0.2589437 -0.2104119 -0.50203425 -0.5660398 -0.20274232 -0.4010275 1.1620663 -0.5842735 -0.27617946 -0.5842694 0.59653056 -0.5132871 -0.48246792 0.019735035 0.23691775 -0.07537861 0.16588183 -0.2598292 0.08023476 0.17192934 0.6894099 0.47663233 -0.20777516 0.5598574 -1.0375416 -0.22459678 -0.2543933 0.3111223 -0.6210049 0.4941225 -1.1271898 -0.8141273 -0.54083157 -0.39774615 0.046197314 0.39826372 0.27557096 0.34809235 0.6150582 -0.72182053 -0.13806616 0.32649302 -0.33425045 0.11278779 -0.5365221 -0.10992028 -0.663457 -0.10989438 0.11368462 0.029165154 0.18828648 -0.2596584 0.076188534 0.16875516 -0.7874202 0.38235995 0.9802436 -0.72521824
406 0.16899383 -0.59321743 -0.22119328 0.5930763 -0.26574454 -0.45518482 0.18880641 0.18990496 -0.8091394 0.17760395 -0.32150954 -0.65466356 0.23607951 0.20653163 0.00583578 0.108279906 1.4207757 -0.20739962 0.08124439 -0.60634345 -0.17569958 0.702448 -0.07912949 -0.45649385 -0.484738 0.16991167 -0.35219437 0.34731558 -0.9114542 0.66976506 -0.22620836 -0.089374535 -0.33120054 -0.2786103 -0.18578261 0.50829655 0.2604389 0.322811 0.045239054 -0.57400537 -0.583295 0.36632103 0.5200463 0.31194246 0.206859 0.61542684 0.9492523 0.14309335 0.1606412 -0.26404762 -0.19304943 -0.8235351 -0.32915473 -0.89235616 0.732458 0.015188166 1.047706 -0.57992256 -0.6559712 0.087915614 -0.68269694 -0.21059246 0.34257942 -0.20120302
202 0.6178099 0.17412108 -0.026497168 0.54867893 -0.66407704 -0.27318817 0.20336345 0.14031033 -0.09660204 -0.1489705 0.067448914 -0.55223215 0.826606 0.2396701 0.9353626 -0.3737147 0.0899001 -0.050102614 0.38356832 0.054351702 0.05117919 -0.3144918 -0.8397716 0.003789791 -0.952725 -0.44331595 0.66946256 -0.02500999 -0.41244155 0.39852238 -0.088678956 0.24705793 -0.2659589 -0.7898086 -0.08444197 -0.19681746 -0.12602964 -0.20302516 -0.6647591 -0.31129616 0.12534532 -0.4378841 -0.116247326 0.7969221 -0.17301941 0.7084715 -0.45675045 -0.041150123 1.2176659 0.21924336 -0.070882455 -0.46905848 -0.8788274 -0.23149653 0.47480947 -0.2696544 0.11024725 -0.54236364 0.27765766 -0.27185664 0.015404424 -0.34871638 0.31433022 -0.506954
57 0.35054472 -0.0011394041 -0.24904583 0.92297333 -0.7199214 0.1420336 0.1484178 0.17518172 -0.5584887 -0.110106334 -0.21273315 -0.27366054 0.70147073 0.09301405 0.51902 -0.55849475 0.027220378 -0.050242513 -0.10711511 0.03517778 0.16782115 0.13941345 -0.059845317 0.5420533 -0.7979672 -0.08425807 0.4917544 -0.1769278 -0.4328628 0.81082183 0.18742384 0.08541668 -0.19898236 -0.16720325 0.2793649 0.16541849 -0.4221462 -0.53251964 -0.7118276 0.053630777 -0.15354759 -0.106888324 0.25247487 0.35239252 -0.080691546 -0.20041896 -0.21761227 0.097271815 0.7612348 0.49814102 -0.6565566 -0.014749703 -0.3525629 -0.34590006 0.2819167 0.02888358 0.43011037 -0.34634265 0.47452268 0.17198326 -0.6272148 -0.58681506 -0.331806 -0.1776317
291 0.202997 0.045132276 -0.343048 0.058970217 0.03260329 0.07359207 0.03271801 -0.048159517 -0.437121 -0.30072594 -0.16001049 -0.043704838 0.40507957 -0.322778 0.37265927 -0.50932777 0.056862216 -0.478282 -0.2557366 -0.3646599 0.005110747 0.3185926 -0.105966546 0.0806668 -0.3403867 0.019538796 0.11132042 0.52929616 -0.29433727 0.26366842 -0.3583865 0.30031553 -0.28029886 -0.08294776 -0.1901832 0.25131115 -0.3784981 -0.06319622 0.0012673372 -0.29848844 0.04424712 -0.026526844 0.050436735 -0.06216864 0.24318229 -0.0160052 -0.14514874 -0.2395458 0.25410888 0.19083717 -0.41613173 0.22451773 -0.37459478 -0.33350813 -0.1115386 -0.091563985 0.30229178 -0.19228227 -0.15906015 0.1425383 0.06845227 0.11865746 0.17776546 -0.26089495
31 0.35856873 -0.55814624 -0.41798 0.5047194 0.44973424 -0.23983353 -0.10660408 0.7788258 0.09645957 0.51546884 -0.29670662 -0.8109797 0.6021994 0.21681254 0.23415087 0.008412599 -0.4611427 -0.5919867 -0.44213367 -0.1172595 -0.05239725 0.053612 -0.24552786 0.1969079 -0.15546061 0.52051747 -0.21780343 0.6473446 0.31885466 -0.21705294 -0.6543059 0.20452079 0.61135733 0.0086341975 0.2474513 0.2355752 -0.07186623 -0.43507048 -0.43265754 -0.59564793 0.47244504 0.33753195 -0.45823643 0.6517552 0.2839042 -0.12205986 -0.3633904 -0.14734542 0.27503857 0.38472223 0.7317676 0.38177258 0.7041628 0.019471616 0.3682087 0.15463428 -0.0139144035 -0.17625125 -0.23210798 0.25298503 -0.5595434 -0.37252408 0.43655658 0.34532094
47 -0.025783442 0.33656725 -0.09461094 0.19597234 0.3209819 -0.46676722 0.5404076 0.14523338 -0.08238921 0.14453883 0.24228562 -0.43817222 0.01762631 -0.23606472 0.33828422 -0.041725107 -0.27980402 -0.7435896 0.35808924 0.8411112 -0.2838657 0.0915936 -0.18834421 -0.46067125 -0.5233013 0.09264922 0.037467495 0.11071456 0.26740724 0.047150802 -0.38251933 0.26216352 -0.31985915 0.5309518 -0.42402118 0.13892795 0.42864648 0.50517803 0.058275696 -0.054376923 0.7726135 0.38993773 0.08868309 0.16067497 -0.080760345 -0.44190022 -0.15422009 0.17828275 0.10474585 0.21219352 0.5928338 0.032495443 -0.049163 -0.39983287 -0.11197843 0.052310668 0.49422124 -0.03570566 -0.36050543 -0.43133277 -0.4072996 0.004232368 -0.6638165 -0.17980704
379 0.06755855 0.06935175 -0.97059196 0.089363754 -0.5860497 0.009082849 -0.18032818 0.017804073 0.05733502 0.39170817 -0.36240548 -0.28422645 0.06564259 0.16061662 0.60747176 0.2919881 0.615482 -0.62237155 -0.866593 0.14565183 -0.75335747 -0.33548337 -0.122147635 -0.07742263 -0.3425324 -0.45997193 0.10153833 0.7362933 0.41912553 0.017781558 -0.57115555 -0.7797769 -0.96485937 0.35657936 -0.031034106 -0.059846625 0.23526295 0.19312839 -0.09507625 0.15102232 -0.36013016 0.15204325 0.88653773 0.36275005 0.40834627 -0.115887746 -0.28415573 0.47132605 -0.13036995 -0.29493293 0.081489645 -1.0109183 0.31951883 -1.0852987 0.507507 -0.5603039 0.20171024 -0.0039341394 -0.3446902 1.0574884 -0.4889779 -0.1303079 0.24528612 -0.35750145
