468 64
462 -0.36687362 -0.1236227 -0.3631702 -0.10445676 -0.30008525 -0.25176653 0.053178605 0.2633822 0.07289684 0.3758612 0.3635779 -0.111905985 0.23487449 -0.009401233 0.04638082 -0.016696306 -0.062022276 -0.080470115 -0.07376386 -0.32538933 0.07548136 0.30819017 0.07749761 -0.03362202 -0.14431353 0.42621663 -0.46209538 0.05820029 -0.069294 -0.51912636 -0.008665969 0.35980445 -0.22934517 -0.3521382 -0.19806004 0.15357128 -0.01808514 -0.10409771 0.228914 -0.14042053 -0.3128696 0.38114226 -0.1056118 -0.20679978 -0.022689452 0.31005213 -0.052320212 0.35265407 -0.119397834 0.17671809 -0.34691125 0.17427178 0.23728655 0.053637654 -0.17370561 0.34085986 0.42898232 -0.21340455 -0.11823971 0.5795415 0.3918121 0.11742237 -0.117855825 0.003582045
467 0.10287178 -0.32963496 0.15571593 -0.57319415 0.18364885 0.061966497 0.08788944 -0.3858881 -0.28269282 -0.5410338 0.24524258 -0.43189675 0.10149988 0.06272542 0.07140803 0.18858282 -0.3790604 0.14497818 0.41261798 -0.00940286 0.1510243 0.4436747 -0.05075641 0.30105188 0.17477149 0.40345994 -0.19629025 0.1914678 0.12419537 -0.0569019 0.8191494 0.13706285 -0.13700193 -0.6277605 0.06880861 0.2918625 -0.4056358 0.49308392 -0.39260808 -0.011584292 -0.23340009 -0.1429662 -0.058600448 0.04568156 -0.2952851 -0.00020039603 0.076799355 -0.32068107 0.3822197 0.184294 -0.34654456 0.012015288 -0.41639066 0.26101252 -0.38450742 -0.007852539 -0.19137524 -0.27395675 -0.529709 -0.20208077 0.14108554 0.18339634 -0.3004118 0.17794064
247 0.6037784 -0.4279409 -0.14876162 -0.5634258 -0.042718157 -0.43317583 0.26548064 0.050414532 -0.6003987 -0.28530818 0.051368218 -0.042560324 0.0075934604 0.5540723 0.10927884 0.95252746 -0.1283227 -0.13819855 0.46348035 0.42677864 0.20666791 0.2101474 0.36484253 -0.68799293 0.61020654 0.015139932 -0.9721948 -0.26559687 -0.118175186 0.23097205 0.30935553 0.5470218 -0.4203736 -0.57652116 -0.19863471 -0.84066355 -0.5592216 -0.2863215 -0.46467686 -0.10949968 -0.017703855 0.511969 0.06724687 0.25150672 -0.26781487 0.3093055 0.59088254 0.7393513 -0.16367976 -0.0398203 -0.27246925 -0.09727071 -0.051941577 -0.47984987 -0.02803114 0.30753678 0.48428822 0.37585747 0.20520094 0.0119579015 -0.25864744 -0.70221996 -0.2808677 0.45454904
465 0.07687543 -0.29102132 -0.286734 -0.42325243 0.13759133 -0.71794087 -0.26496425 -0.43294182 -0.22023979 -0.122547865 -0.7190297 -0.26553893 0.009219594 0.2900066 0.01926607 0.14246923 0.049473476 0.27097145 0.46062693 -0.1338978 0.024906581 0.42810938 -0.15293704 -0.30163175 0.004444246 0.3959181 -0.68978906 0.30496803 -0.0902831 -0.73008996 0.9161222 -0.42833507 -0.04443774 -0.6270834 0.10218708 0.30414808 -0.37227806 -0.05471937 -0.50286764 0.3917756 0.07401421 -0.3082145 -0.12830466 0.17609778 0.51672643 0.3300577 0.15591832 -0.106748834 -0.033457372 -0.021804342 -0.24988188 -0.36923304 -0.22264688 0.16772173 -0.11523931 0.03829652 -0.32243472 0.3197846 -0.39108518 -0.2076045 -0.16580027 0.36104816 -0.849507 -0.029538764
436 0.1757564 -0.51300883 -0.5017415 -0.31748837 -0.3703325 -0.06312969 0.20542319 0.046456292 -0.19116507 0.087543346 0.88217884 -0.100695096 -0.039413515 0.40771216 0.08402586 0.19907366 -0.015581643 0.22929712 0.006570881 -0.1814359 1.168376 0.497989 0.18946968 -0.47198033 -0.69366866 -0.08879932 -0.5073809 -0.3174785 -0.41653726 -0.55377406 -0.3919324 -0.482363 -0.31186628 0.05393542 -0.6265592 0.028793313 0.33562034 -0.41220704 0.35085514 -0.25331688 -0.24730814 0.19160907 -0.1324704 -0.70195013 -0.16177942 0.47264093 -0.57651323 0.1053815 0.43465823 0.011131888 -0.42432517 -0.19899279 -0.19827388 -0.31561548 -0.058978938 0.46794945 0.0034092842 -0.2710187 -0.28080526 0.17915659 0.21176548 -0.26738757 -0.6815132 0.25055885
431 0.54765797 -0.3431171 -0.20642444 0.8734474 0.038200352 -0.05607347 0.12273832 -0.48499933 -0.4309497 0.47561654 -0.11152282 0.18962267 0.15495947 -0.067875214 0.24381845 0.48527095 -1.0389038 -0.6170686 0.6687475 0.117508836 0.79616374 0.7521263 0.3070926 -0.8801179 0.22917438 0.21669501 -0.3501409 -0.0038452824 -0.5476463 -0.27836925 -0.33903483 -0.24587017 0.18508598 -0.6102501 -0.70841587 0.4493154 0.58995897 0.03548603 0.31970447 -0.87435585 -0.4529041 0.19285518 0.11556867 -0.29889902 -0.2378207 0.15764546 0.09696808 -0.37898096 -0.12046711 -0.022006785 -0.7280211 0.14750762 -0.35047343 -0.51104844 0.97654194 -0.18446805 0.50021887 -0.4074458 -0.5685587 0.13809362 0.21279094 0.24097343 -0.9470251 0.58614755
216 -0.34933978 -0.07944432 -0.9296874 -0.064411 -0.19083506 0.42141795 0.10504364 0.5996277 -0.018138366 0.13906872 -0.3222925 -0.5915384 -0.07747602 -0.08591085 0.8971535 -0.23866881 0.10522594 0.2393755 0.28210592 -0.66465634 0.08414675 0.42088062 0.2897095 -0.6342731 -0.4966008 0.19872925 -0.560023 0.45016086 0.21217132 -1.0134907 0.074218735 1.177591 -0.5665603 -0.038416896 -0.49810728 -0.07624387 -0.6031983 0.10179685 0.09399271 -0.9456517 0.41161045 0.101908684 0.18223907 0.35242212 -0.5393751 -0.14579304 0.107051246 -0.041291513 -0.6807304 0.24998318 -0.29272854 -0.16449308 0.23232405 0.33714923 0.5974282 0.19206475 -0.122801974 -0.03004987 -0.4113209 -0.51318645 0.8519931 -0.56508625 -0.58803207 -0.08990717
428 -0.12240019 -0.11231489 0.14360107 1.0726613 -0.06615469 -0.31712577 0.59011954 -0.15394266 -0.41180733 0.19237617 -0.041021567 0.45134005 0.29663906 -0.42375872 0.7910185 0.54868174 -0.4201932 0.083830304 0.31930014 0.4305579 1.0551652 0.51788133 0.29399335 -0.7702882 0.59233373 0.07495274 -0.013522035 0.26492253 -0.5546844 -0.119316734 -0.22903268 -0.26408985 -0.18342488 -0.82499063 -0.8739722 0.36027566 0.387829 -0.12538001 0.20430604 -1.0593196 -1.148123 -0.03863566 -0.23762576 -0.52443564 0.2929694 0.2239743 0.7983671 -0.5586441 -0.36583602 0.48016483 -0.8205413 -0.5695107 -0.58015454 -0.27625948 0.7549066 -0.41623983 0.019428393 -0.42171776 -0.44125038 0.123682424 -0.0053443657 -0.10926094 -1.7385107 0.70955783
466 0.48873985 -0.5550654 0.07836944 -1.0539 -0.239055 -0.6678978 0.67805547 -0.506902 0.75279033 -0.56707513 0.6993805 -0.16200075 -0.08409511 0.048151 0.44794777 0.15038766 -0.0140802665 -0.3535613 0.8538401 -0.46943238 -0.21403265 0.028072098 -0.37816605 0.3955045 0.22852121 0.25741482 -0.09588882 -0.24514644 0.2473836 -0.019275088 1.0041027 0.06880068 -0.24399896 -0.7739729 0.2940681 0.8278202 -0.0806372 0.8336896 -0.7196371 -0.36270374 0.2858957 0.6502147 -0.50297916 0.29874653 0.29677144 0.17462109 0.6217515 -0.63796645 0.5191142 -0.05068278 -0.77068126 -0.3809938 0.17967585 0.39052945 0.14740674 -0.1192068 -0.47203147 -0.2044409 -0.37643215 0.106546216 0.5070787 0.504208 -0.6045168 0.64903665
434 0.7044607 -0.6747829 -0.40874445 0.6507685 0.14067769 0.007132162 -0.23207003 -0.34037405 -0.1235295 0.03572061 0.45541263 0.028948797 0.39452314 0.59508234 0.31131142 0.22472194 -0.46007466 -0.28796133 0.5911509 0.1450375 0.71715844 0.44283074 -0.19100499 -0.39418018 -0.32327357 0.0382243 -0.06832201 -0.15160897 -0.118065424 -0.9384403 -0.71512985 0.40331256 -0.112341255 -0.28382012 -0.32233995 0.72195256 0.4984825 -0.33388668 0.4610943 -0.6919281 0.036757983 0.15731299 0.386475 -1.0366 0.14329137 0.8693869 -0.17609264 -0.32740116 0.2727094 -0.012394546 -0.61456156 -0.07703023 0.1295252 -0.6212595 0.33913168 0.387387 0.41876626 0.20427115 -0.5616156 0.010101479 0.13475204 -0.14355266 -0.630257 0.8925454
405 0.064806454 -0.9025956 -0.82290566 -0.67212373 -0.024548145 -0.47201565 0.99799466 -0.030266482 -0.45473757 0.4484924 0.32514763 -0.018511826 0.12954336 0.4850132 0.40927756 -0.265956 0.23732817 0.7916946 0.572931 0.50789744 1.4113672 0.29100764 0.013986214 -0.42421797 -0.95544994 0.016395668 -0.8398025 -0.38585716 0.12160153 -0.5825666 -0.7010477 -0.15325297 0.4596476 0.057460513 -1.0117972 -0.087639764 0.4699072 -0.89698243 -0.06571396 -0.03422276 -0.07208694 -0.17331873 -0.5478984 -0.3851866 -0.7531011 -0.28484067 -0.09050785 -0.4523564 0.51564604 -0.082727164 -0.5465393 0.3459758 -0.5205037 -0.23276216 0.31996742 0.10842288 0.5951881 -0.59055007 -0.57884336 0.43079028 0.22717494 -0.36706793 -0.5821606 -0.09787065
460 -0.53779095 0.20387712 -0.24560826 0.22228478 -0.53597283 0.14289975 -0.0971772 -0.25559366 0.48577097 0.9411324 0.08048613 -0.39509648 0.35111302 0.34455132 0.6640021 -0.012124006 0.17757 -0.038076412 -0.3469963 0.32058173 0.08433284 0.08541329 -0.10356633 0.22556505 0.23190579 0.3609269 -0.8171975 0.09128731 -0.038893268 -0.6871031 0.1600489 0.10871786 -0.16455704 -0.12943411 -0.40236855 -0.08179576 -0.33868518 -0.29410526 0.30183527 -0.8242391 0.32688197 0.12113549 -1.3047019 -0.43482462 0.30237478 0.17943928 0.46131104 0.45620057 0.41688433 0.07175828 -0.3779986 0.4606463 -0.3570773 0.1966774 -0.18595092 0.23672047 0.30991822 -0.4838828 -0.19840614 0.8138831 0.38068017 -0.12408633 -0.6327322 0.2716676
214 0.079408966 -0.038367484 -1.0901845 -0.20133342 -0.89762646 0.74868083 0.084443554 0.111732766 0.009422944 0.076707184 -0.6130733 -0.27342916 0.041361522 -0.20784275 1.0518327 -0.13653672 0.12570363 0.26602432 0.22814514 -0.040888418 0.1561201 0.768661 0.2197122 -0.40519217 -0.73373747 -0.025118308 -0.29555136 0.7830593 -0.15092894 -0.7375164 0.09048463 0.856975 -0.14323284 0.06438557 -1.0672832 -0.35241354 -1.1136234 -0.08426417 -0.012945847 -0.6033687 -0.005414094 0.44242305 0.4276827 0.8840297 -0.26532668 -0.009304519 -0.14446776 0.24292909 -0.39549607 -0.11161961 -0.44642758 -0.3280359 -0.13834536 0.55149394 0.62865037 -0.15980789 -0.13436444 0.5681372 -0.58502686 -0.61999196 1.6666777 -0.24118052 -0.5251828 0.48193496
415 -0.43126497 -0.4850564 -0.24725498 0.48666403 -0.7293768 0.14862622 0.10043325 -0.30729333 0.28931215 0.68983763 0.080849424 0.1470145 0.29033878 -0.19300176 0.11835645 0.22136505 -0.037889455 0.13838333 -0.6283651 -0.08212226 0.22375278 -0.5900671 0.35705826 -0.052727982 -0.1714068 0.5511523 -0.62016827 -0.33672732 -0.84639764 -0.449289 0.69219464 0.43621898 -0.02113568 -0.42593968 0.25917307 0.40618932 -0.17264447 -0.53695023 -0.44634685 -0.8790914 -0.5646279 0.28354582 -0.30623636 0.16315079 0.15762101 0.5011536 0.21269457 0.40900972 0.071432255 0.24322513 -0.089055546 0.44039184 0.33931985 -0.14150505 -0.22082624 0.3036444 0.30502713 0.22862491 -0.34300715 0.34229064 1.1675953 0.3159763 -0.13769707 -0.106164135
419 -0.09834923 0.2526092 -0.0145284 -0.86294794 -0.06863974 -0.32745102 -0.7515841 0.04086504 -0.33227602 -0.082736686 -1.3550111 -0.56054676 0.2141436 -0.01904287 0.14051521 0.3968896 0.094109796 0.4678329 0.1179337 0.764304 0.38423717 -0.40719414 0.024010047 -0.47476518 -0.09633043 0.8862934 -0.55262834 -0.058809053 0.09961198 -0.84761846 1.0984579 -0.56705844 -0.06821049 -0.39375886 0.018660706 0.2628216 -0.31817216 0.3807548 0.09237246 0.2821382 -0.24330477 -0.01716924 -0.43872505 -0.17727649 1.0320868 0.7584182 0.5080576 -0.23011523 0.15820317 0.036851708 -0.43860647 -0.45167738 -0.29863733 0.12326026 0.043115508 0.5945518 -0.4378247 -0.4450441 -0.7782157 -0.5167247 -0.05640823 0.053282734 -0.66260684 -0.06218085
454 -0.14327298 0.19796425 -0.18585373 -0.41218138 0.08761745 -0.21003127 0.24803674 -0.7122666 -0.19817214 -0.59081507 0.15578432 0.26663598 0.7013986 -0.35999033 0.29253185 0.6262478 -0.15646043 0.07308594 0.36848584 0.48965532 0.01898168 0.3061027 -0.028029175 0.81266636 0.084150046 0.664417 -0.10313164 -0.23486058 -0.14082938 -0.21782099 1.0615455 0.5230989 -0.20886604 -0.30367923 0.2066686 0.8045295 -0.26691937 0.2666094 -0.33506396 -0.015904142 -0.74654794 0.06238483 -0.4321618 0.16898324 -0.5850475 0.17087917 0.27848387 -0.049875293 0.22092032 0.6540876 0.18550353 0.2582164 -0.81977457 0.2403641 0.20713942 -0.12700395 -0.92582273 -0.40119502 -0.44750965 -0.46402007 0.4477936 0.055141393 -0.93965864 -0.019661568
240 -0.7769046 -0.26797983 -0.55742794 0.1060369 -0.22245608 -0.18289451 -0.15461622 0.23424168 0.091998875 0.4928256 0.4428619 -0.40470517 0.056742787 -0.36714363 0.26245055 0.017600141 0.27266878 0.05897838 0.310607 -0.25130308 0.17825201 -0.08222588 0.13378386 -0.4802355 -0.55991966 0.067202054 -0.6604489 0.5927372 0.1878077 -0.526278 0.057679426 1.1417487 -0.22185576 -0.4896358 -0.6273529 0.312574 -0.39323068 0.011423772 -0.30104923 -0.82206905 0.07018774 -0.022312092 0.499316 -0.4368434 0.07981283 -0.18220422 0.0869296 0.14427471 -0.24993384 -0.07477007 -0.30552512 -0.12295348 0.36076382 0.683074 0.22343169 0.2682647 0.119125865 -0.08631383 -0.049130227 0.234719 0.20983855 -0.69800186 -0.031137202 -0.19631076
338 -0.15997379 0.49360853 -0.3777048 0.11080875 -0.8933288 0.7018585 0.43773842 -1.209731 -0.11971427 -0.45562792 -0.016583122 -0.5157073 1.0675538 0.06811193 1.2693886 -0.11715472 0.94645286 -0.35011268 0.67797554 0.710625 1.5879339 -1.7961694 -0.37093633 -0.041374072 0.4931661 0.71107453 -1.762868 0.46426657 0.06351967 0.91224086 0.97640276 0.6232019 0.093303435 -0.96053 -0.3365389 0.26143682 -1.6556166 0.7574804 0.10358247 -1.0503204 -0.87221485 1.1211393 -0.5445983 -1.6862996 -0.24793473 -0.6425614 1.4135953 0.3417357 -0.72147673 -0.27381563 -0.45166725 -0.63261664 -0.83500487 -0.5305252 1.0552213 0.11490352 0.17187004 -0.5485367 0.5262055 -1.2834995 1.1114016 0.7322068 -1.3769243 -0.24038377
432 -0.05959898 0.37122568 -0.31724557 0.44351587 -0.6916052 0.0442382 0.1297304 -0.57828045 0.27851743 1.0662333 -0.14477551 -0.7499677 0.4292528 0.4471081 1.279515 -0.28991002 -0.008856184 -0.39486098 -0.5837313 0.5466955 0.22853364 -0.11131012 -0.02639437 0.25631845 -0.026088404 0.533758 -0.95132875 -0.03810148 -0.46965638 -0.6158715 0.35902694 0.16934282 -0.25296384 -0.24590507 -0.35809273 -0.12577038 -0.25879836 -0.35211682 0.04670859 -0.9553446 0.40309298 0.24065502 -1.6362046 -0.5043907 0.6182236 0.1620566 0.26626137 0.39787135 0.20945026 0.11303967 -0.1739315 0.30443022 -0.6119419 0.58596677 -0.12180132 -0.13112602 0.42494693 -0.42178816 -0.08973734 1.1882641 0.42961782 -0.09292983 -0.6095643 0.31184873
403 -0.29426828 0.053941656 -0.15599532 -0.08302617 -0.34526792 -0.37022132 -0.15310259 -0.44240716 -0.51056653 0.2961721 0.12051333 0.12924784 0.4423509 -0.5359605 -0.11090944 -0.22410719 0.059218753 0.66131276 -0.19610958 -0.54796296 0.38055238 -0.09273538 -0.3183394 0.38355434 -0.09076395 0.009692151 -0.6065406 0.11783356 0.2121051 0.20192514 -0.19709118 1.4575231 -0.26758483 -1.1911485 -0.54151106 0.39259776 -0.06947365 0.01086878 -0.09565927 -0.052410185 -0.026066141 0.23550133 -0.7085287 -0.18481003 0.43621328 0.36595774 -0.6839087 0.0769327 -0.7219024 0.50655913 -0.5567741 -0.16084442 0.72065955 -0.3155904 0.3567225 0.6815388 0.058688458 -0.26206356 -0.017931981 0.53856593 0.4516706 -0.050512806 -0.49399677 0.28439808
317 -0.48633346 -0.013027781 -0.14383273 0.08661229 -0.5797346 0.10760893 0.5488181 0.38864002 -0.34629893 0.19305383 -0.09248339 -0.11902082 0.48479775 0.6330947 0.16008042 0.10883501 0.24060832 -0.4244031 -0.26305443 0.14370808 0.014262177 0.64703953 -0.42167717 -0.038753383 -0.12102693 0.058364965 -1.3531061 -0.23155461 -0.3413318 -0.048462592 0.026305983 0.5092122 -0.2912239 0.1776286 0.2570279 0.9946072 0.23387903 -0.011748115 -0.6787445 0.02693432 -0.6759626 0.29270488 -0.20938708 0.2573424 -0.27354473 0.6895659 -0.23468596 0.3798202 -0.052381963 0.26397905 -0.3726344 -0.27281144 0.7434728 0.77321184 0.42217758 0.39166436 1.1125923 -0.63590515 0.060144827 0.6127606 0.8008791 0.4608158 -0.4657735 -0.4154337
234 0.2682601 -0.65577626 -0.25710255 0.7511289 1.4440184 -0.7730406 -0.93765515 -1.0045443 -0.35889933 -0.520672 0.22223997 -0.44526574 0.3637056 -1.669149 0.51488936 -0.81633294 0.18889003 -0.4157864 0.7757772 1.9806296 1.5574744 -0.19875492 0.83731264 1.7211878 -0.37715852 0.6124239 -1.154347 -0.4855374 -1.3419496 -1.4434328 2.0379543 0.16599208 -0.2609993 0.40256724 -0.12597762 1.072033 0.06590058 -0.09310688 1.7894354 -0.27424186 0.13906161 1.600013 0.13720919 0.058374196 0.59404075 0.12632446 1.9226054 1.8063388 0.19215325 -1.4037558 -1.1618148 -0.46250993 0.2166448 0.27041584 -0.41117653 1.7321835 0.89291006 0.5839396 -0.9011983 -1.4624834 1.019012 0.2962999 -0.32132617 1.6015131
242 -0.7191538 0.33829778 -0.61544263 -0.095856324 -0.65587693 -0.29042244 -0.2985543 0.22367626 -0.20727837 -0.048357137 0.21255268 0.22513582 0.12115121 -0.084564485 1.2815378 0.41208547 -0.22885102 -0.20586309 0.18605606 -0.83174545 0.16727746 -0.13942409 0.31792542 0.2377645 0.18802686 0.19750372 -0.88074446 -0.31030077 0.07289262 -0.36526716 -0.07406448 0.8251318 0.38172343 -0.14441478 -0.6921249 0.039596263 0.7265815 -0.30750868 0.02719979 -0.24988516 -0.43081343 0.33577254 0.20929343 0.31909937 0.09417187 -0.011913995 0.08651302 0.29344708 0.16639918 1.027398 -0.22117154 -0.03369657 0.28686854 -0.53282875 -0.63037646 0.45925012 0.3382177 0.015650723 -0.30608374 0.63639665 -0.03439509 0.5639726 -0.7563401 -0.20187545
109 -0.048795566 0.43533096 -0.2335823 -0.107718065 -0.90773886 1.1339034 0.3696553 -0.9828005 -0.2950757 -0.50438744 -0.35220745 -0.36459452 0.98528695 0.005288723 1.3087933 -0.25245124 0.49244863 -0.4278324 0.58685434 0.69837123 1.3581799 -1.3451291 -0.382362 -0.2867236 0.4521721 0.45801064 -1.5290087 0.46733716 -0.27216643 0.96999156 0.8335745 0.33057192 0.110659644 -0.7771947 -0.24011083 0.1188547 -1.2060935 0.8314729 -0.14354506 -1.1330786 -0.7167801 1.1310453 -0.33700308 -1.4887469 -0.2931816 -0.47594616 1.3596407 0.39317626 -0.6702521 -0.26889303 -0.3493111 -0.21692972 -0.9129873 -0.40294835 0.8350675 0.015665237 0.33244747 -0.39489034 0.29285017 -1.0888973 1.0935497 0.43454072 -1.1669662 -0.110305734
404 -0.02353801 -0.08359873 -0.08350663 0.25908658 -0.38688332 -0.88633287 -0.013807953 0.45294726 0.06830172 0.4533445 0.19423231 -0.39872053 0.22731267 -0.024025729 0.06434182 -0.12944269 0.2814927 -0.049166303 0.17530005 -0.43657467 0.34219268 -0.3402288 -0.040442325 0.28813604 -0.39365214 0.48794076 -0.88306254 0.06770256 0.2680163 -0.47888607 0.5433385 0.6761981 0.095496334 0.16278741 -0.33003166 -0.24964182 -0.07344586 -0.09405557 0.21074261 -0.3643098 -0.72694665 0.4183321 -0.03166858 -0.3844809 -0.20567591 0.6241321 0.26044723 -0.033846278 -0.090908065 0.36369744 -0.3150186 0.23211055 -0.2606536 -0.33880353 0.293816 0.86675763 0.6791792 -0.5047121 0.120004155 -0.0033419982 0.85982996 0.48654568 0.21134861 -0.22521262
445 0.30334938 -0.27167282 0.50551325 -0.6234172 0.3749204 0.19260453 0.29066023 -0.58704364 0.11554746 -0.65533197 -0.07825113 -0.59289736 0.2345038 0.32573336 -0.4072552 0.053686384 -0.29627135 0.019281732 0.46796054 0.04872495 -0.03183594 -0.12860715 0.23613787 0.42621082 -0.6801009 0.9558294 -0.6095254 0.69817185 -0.12310865 0.53985727 0.90569633 0.23211649 -0.42669278 -0.2965886 -0.07475249 0.15545516 0.23391138 0.22432823 -0.7623178 -0.49424818 -0.24874935 -0.065723516 0.189514 -0.23103975 -0.27538675 0.18821162 0.45021203 -0.13805111 0.38871053 0.31927064 0.008400414 -0.12803085 -0.74792266 -0.01666679 -0.2701802 0.36006385 -0.015296566 -0.4985874 -0.4820994 -0.48457748 0.7036286 0.3935971 -0.34219804 -0.1385324
211 -0.0043604164 -0.19522764 -1.1793748 -0.03465659 -1.2411798 0.940384 0.17676687 0.07040147 -0.38782316 0.13318089 -0.44806108 -0.06844287 0.23155256 -0.68130785 1.2738866 -0.20064424 0.02380494 0.41719973 0.37625244 -0.091673866 0.24452993 0.49659565 -0.121693805 -0.060024094 -0.8183942 0.13641277 -0.2938269 1.0666839 -0.07594354 -0.4563351 0.2704559 0.6386054 0.030471113 -0.098800674 -1.1145763 -0.62416875 -1.108342 -0.31974632 -0.22161783 -0.6450094 0.34559983 0.57286 0.38757622 1.2877687 -0.22330754 0.34161004 0.18594965 0.13318552 -0.49358907 -0.29232863 -0.6351051 -0.29621014 -0.16898493 0.24517363 0.56994265 -0.23839775 -0.43988305 0.1543754 -0.587957 -0.5184628 1.4738274 -0.056463286 -0.6732461 0.42112222
227 0.62922454 -0.2348638 0.33097488 -0.4790226 -0.17768906 -0.16812281 0.26325718 0.18027245 -0.6837611 -0.7467806 -0.30123043 -0.30730832 -0.031046366 0.018543843 -0.11162795 0.4190299 0.20564684 -0.04861993 0.00017173462 0.7617702 0.23948391 -0.33419812 0.5440067 -0.9530749 0.18182853 0.5596085 -1.1828495 -0.25338906 -0.33505845 0.2002786 0.32751733 0.870616 -0.19522166 -0.4108755 -0.14284799 -0.54883236 -0.42286375 -0.29991108 -0.49182302 -0.06905077 -0.034126833 0.6245693 0.25225705 0.07615159 -0.054054853 0.29077932 1.0761685 0.9374042 -0.12796474 -0.1839755 -0.21558999 0.10690799 -0.74970156 -0.359161 0.13019511 0.377603 0.6133709 0.067760274 0.20555179 -0.046827737 0.13959391 -0.77742755 -0.29950836 0.410422
421 0.6948195 -0.42636722 -0.11170812 1.1728575 -0.1382472 -0.12511544 0.3207536 -0.59383166 -0.90397096 0.84443223 -0.079236604 0.20863777 0.19768769 -0.44949585 0.4830947 0.6177619 -1.4470047 -0.20590645 0.5888966 -0.09577259 0.96451026 0.3949015 0.0030278983 -0.7734564 -0.22304069 0.2993369 -0.45676962 0.20156625 -0.3189134 0.14036183 -0.4691309 -0.27305606 0.36960247 -0.6941078 -0.74290144 0.21727642 0.47945508 0.084264174 -0.0031395277 -0.9775658 -0.37357387 0.37055063 0.14686185 0.10770877 -0.115811616 0.63663656 0.7048835 -0.25918064 -0.30263573 -0.25718588 -0.6882252 0.38356635 -0.19637641 -0.7523717 0.78206146 -0.4229996 0.4827622 -0.6841875 -0.61722994 -0.15829997 0.3329342 0.6890564 -1.01206 0.8815079
402 -0.42888102 -0.054150272 -0.087591656 -0.21125785 -0.047253266 -0.3390056 0.36707538 0.4674889 0.7227376 0.6353359 -0.06714669 0.48914447 0.48199722 -0.33540142 0.18835206 -0.5680063 -0.03392475 0.51527405 -0.20915622 -0.23942238 0.08991034 0.25921884 0.053444587 0.34989986 0.021035118 0.32688153 -0.58089745 -0.7123803 -0.31080654 -0.5017577 -0.0979922 0.5262939 0.36160186 -0.72940147 -0.5453141 0.14125663 -0.12738013 -0.4747572 -0.009355903 -0.29171517 -0.09724807 0.20307955 0.20890953 -0.039042402 -0.032858588 0.028072644 -0.09655105 0.38088137 -0.10946936 0.15943798 -0.6501396 0.23350395 -0.40621847 0.51806885 -0.40783218 0.27047703 0.57826537 -0.21676788 -0.8428497 0.49994186 0.43618527 -0.52189445 -0.7700854 0.30324355
151 -0.13975841 0.40857133 -0.31576216 0.039340112 -0.92385244 1.044175 0.2839282 -1.0017518 -0.3954155 -0.55230784 -0.16536136 -0.41715607 0.942291 -0.032973617 1.3255849 -0.25484964 0.6009425 -0.3380835 0.6695295 0.6250402 1.4614486 -1.5903536 -0.47699788 -0.100321524 0.45332223 0.72988605 -1.6364176 0.53910846 -0.14236957 0.86733764 0.8807798 0.46172482 0.065825395 -0.95757127 -0.33106136 0.13801187 -1.60995 0.7958793 0.06137229 -1.1108329 -0.8335255 1.1335158 -0.3848307 -1.6632253 -0.2230223 -0.5074531 1.4483907 0.48231912 -0.6692572 -0.2348422 -0.29524603 -0.40670335 -0.94095045 -0.5316305 0.9792376 0.021079825 0.2613587 -0.545799 0.42968747 -1.2772897 1.1076084 0.5961211 -1.2206274 -0.11668438
313 0.14101881 0.5680852 -0.2809823 0.5607246 -0.7979136 0.017064625 0.36144653 -0.9503921 0.08326924 1.379427 -0.20305823 -0.9654455 0.39547256 0.6778948 1.4057368 -0.4392418 -0.02098583 -0.24938247 -0.4628967 0.53269225 0.12670587 -0.18208078 0.03505008 0.27210882 0.119588256 0.76872987 -0.9593129 -0.08249261 -0.4860086 -0.3703557 0.48934844 0.3854123 -0.42806178 -0.00864942 -0.49832493 -0.15144452 -0.51173466 -0.3270662 0.10409628 -0.8439836 0.5102717 0.5518439 -1.5337712 -0.6539024 0.74012655 -0.1772822 0.48573202 0.2271785 0.2253158 0.20736498 -0.08781438 0.13852467 -0.5445652 0.48274252 -0.16371779 -0.41790828 0.3294132 -0.3796406 -0.2699712 1.4257783 0.5685429 -0.19373518 -0.79608023 -0.046695855
337 0.77582276 -0.8953514 0.17082253 -0.7410634 0.5302169 -0.2762743 -0.10732404 -0.65572125 0.40301988 -0.35239047 0.12773535 -0.84176093 -0.034187812 -0.7014529 1.493039 0.8793271 0.117821194 -0.22974499 0.6687678 0.4417806 -0.26827538 0.6605999 -0.14917918 0.6663999 -0.34374365 -0.17333613 -0.90895104 -0.041213363 -0.07719288 0.9212275 0.5985872 -0.099764176 0.21017484 -1.2286747 0.23868816 0.1179787 -0.7632842 0.41772395 0.03521674 -0.28368348 -0.030598447 0.06450187 -0.28282142 -0.14850537 -0.46505994 -0.011980154 -0.3997802 -0.3154502 0.47324523 0.2920017 -0.550645 0.44909376 0.09629935 0.45221418 -1.3731661 -0.3028526 -0.24144965 0.12841156 -0.53380305 -0.38965428 0.6647226 0.17138226 -0.9347049 -0.39090472
447 0.2670239 -0.06280247 -0.07247288 -0.86185414 0.13805003 -0.31461635 0.20580074 -0.3722947 -0.30800277 -0.17422943 0.04459807 -1.0615824 0.23290552 0.41632763 -0.26362228 0.05964362 -0.3175894 -0.3654602 0.12364394 -0.06606345 0.26969445 0.5228597 0.5224396 0.41517082 0.31510884 0.65860397 -0.16508627 -0.2540015 0.3860294 0.45186526 1.1666938 0.3973485 0.22082974 -0.35926318 0.40267935 0.3111389 -0.511382 0.35254142 -0.17624621 -0.32022703 -0.5759415 -0.18771307 -0.18342923 -0.2022976 -0.17078997 0.26786578 0.23566966 -0.701318 0.015263092 0.16555816 0.17500256 0.1609867 -0.40408096 0.14438377 -0.20748773 0.48490873 -0.67112446 -0.48601404 -0.9197923 -0.25236255 0.2668688 -0.030066308 -0.39268732 -0.10881563
215 -0.10109827 -0.17009847 -0.8970533 -0.1886112 -0.68191427 0.49787366 0.4786061 0.93961996 0.15523721 0.00061265327 -0.44721472 -0.16861084 -0.0037465037 0.16189489 0.9449011 -0.04396583 0.15558034 -0.00029160694 0.052726604 -0.64903367 0.15844034 0.37360698 0.31431082 -0.47494704 -0.56302094 -0.26282308 -0.64053875 0.78007823 0.042906065 -1.0453959 -0.069717996 1.4051774 -0.7602104 -0.13438107 -0.3211049 -0.04292826 -0.45445353 0.26462814 -0.10770741 -0.7095124 0.24224773 0.35667083 0.00051135715 0.35164046 -0.3892153 -0.5345009 -0.05742415 0.098128356 -0.5346025 0.3395712 -0.10147918 0.004629242 0.29693687 0.58534586 0.9508944 0.18065766 0.030525494 0.07382905 -0.43189943 -0.9623444 0.50081414 0.011630655 -0.9259795 -0.051640954
441 0.7081734 -0.8166637 0.46974578 -0.33599153 0.11716946 -0.012080534 0.08943238 -0.60335404 -0.13422117 -0.7833794 -0.5002225 -0.8858674 0.3549705 -0.001599472 -0.06929584 0.1820068 -0.0032531156 0.35505667 0.20036285 -0.2386936 0.5257064 0.2223704 -0.14119786 -0.12483511 0.13446523 0.04195916 0.09210655 -0.07380821 0.014403424 -0.39786994 0.88507843 0.915009 -0.1598221 -0.35368246 0.078551464 0.20169781 -0.49142483 0.93951595 -0.28998318 -0.045331404 -0.4521856 0.13903864 0.110433534 -0.081087425 -0.30979902 -0.51094615 -0.038582057 0.33588463 0.26959273 0.26287788 -0.39092943 -0.16861127 -0.5605748 0.33923185 -0.40828925 0.5534642 -0.75965405 -0.89713067 -0.79209673 -0.10278811 0.1917528 0.65604055 -0.2715419 -0.025676588
455 -0.031845856 0.037661638 -0.21323632 0.023888381 -0.92823803 -0.27077514 0.51209545 0.010877499 0.5651076 0.031363294 0.26192677 0.36690596 0.8042523 -0.14372729 0.5077582 0.7003231 -0.116935834 -0.03587474 -0.032755304 -0.6722786 0.5636256 0.60304815 0.59202754 0.18257625 -0.013267753 -0.07337291 -0.50267386 0.04792904 0.44345748 -0.6981909 -0.094752714 0.75419915 -0.26476407 0.10298818 0.32428977 -0.08854114 0.15745404 -0.11784385 -0.24439605 0.14060977 -0.47765687 0.35931444 -0.3571703 -0.6485718 0.10281722 0.23937584 -0.42965567 0.36677238 -0.25840634 0.40485466 -0.6509802 0.2224851 0.35674644 0.3383224 0.04825953 0.30616176 0.6349455 -0.015443244 -0.23683186 0.1811463 0.42002693 0.46011272 -0.1855561 0.08892017
351 0.5826108 -0.6623787 -0.12610127 -1.360401 -0.35334527 -1.1176898 1.358646 -0.61511344 0.4537558 -0.68977153 0.20375603 -0.47198036 0.025645198 0.19899775 0.42014283 -0.029671201 -0.19709782 -0.6279785 1.027377 -0.7746234 -0.22779849 -0.11783696 -0.31788698 0.35410255 0.09327343 0.27095345 0.18508004 -0.12931009 0.18604702 -0.11697442 0.68088126 -0.029551718 -0.4765296 -0.6868256 0.35886827 0.89677674 -0.14502072 1.1532059 -0.3870456 -0.30674878 0.5793672 0.9330391 -0.83636415 0.27034763 0.70553774 -0.17810327 0.6253599 -0.5849192 0.7294303 0.1256105 -0.84741473 -0.37966534 0.25881705 0.48359904 0.1564129 -0.098556645 -0.33930203 -0.22304602 -0.20897803 0.2308115 0.558128 0.2677731 -0.80548733 0.55043745
444 0.26254073 0.23318686 0.070649594 -0.79292804 0.15995763 0.14209197 0.49167058 -0.07587147 -0.1457637 -0.7031254 0.13325596 -0.5642324 0.65105885 -0.122669615 0.18611652 0.53666323 -0.40169424 0.011115076 0.74124885 0.43127266 -0.052117135 0.32286254 0.43032837 0.33228403 0.32815164 -0.05904918 -0.11739777 0.22837538 -0.09683294 0.007804806 0.68616456 0.24839342 -0.054706644 -0.8446476 -0.14902544 0.41632134 -0.55696297 0.56476116 -0.737649 -0.11385392 -0.66841453 -0.41170222 -0.32935068 0.037562463 -0.43998715 -0.1779634 0.012367681 -0.2238314 0.61938286 0.43708012 -0.18630642 -0.06661389 -0.14947136 0.37547255 0.041312296 0.33562258 -0.0052622864 -0.004573464 -0.36327678 -0.2938648 0.038042482 1.0833877 -0.43086857 0.46238127
162 0.44981867 -0.36346847 -0.39722085 -0.110446215 -0.029863322 -0.48270005 0.715811 -0.48205537 -0.9116524 -0.122759245 -0.22986083 -0.19584505 -0.10067509 0.42771518 0.39128953 1.2942125 -0.15453291 -0.14719054 0.29133293 0.32777137 0.417653 0.056685936 0.48353738 -0.39296463 0.8851122 -0.08914957 -1.1868472 -0.69215494 -0.18742491 0.3889369 0.27056506 0.48926878 -0.9265557 -0.7013226 -0.011995444 -0.98839355 -0.2142479 -0.36034408 -0.37694994 -0.06885435 0.10594828 0.658525 -0.01845195 0.3436901 -0.0586818 0.46965477 0.6531711 0.8496463 -0.11216164 -0.3349567 -0.5344219 0.05840084 0.12408994 -0.40643093 -0.043411035 0.63629746 0.35348463 0.78911227 -0.24318455 -0.17046739 -0.1586989 -0.36355314 -0.10427976 0.63951796
443 0.5629982 -0.5683474 0.08826323 -0.50251496 0.4386354 -0.011210485 -0.06747492 -0.43362114 0.13641497 -0.2898691 0.097764954 -0.645807 0.029710753 -0.454129 0.95769423 0.54827094 0.27653334 -0.16732703 0.8154201 0.15456344 0.061414264 0.5021825 -0.16866347 0.51671714 -0.21814622 0.040543202 -0.57173806 -0.0060822535 -0.12572828 0.62877566 0.6670752 0.03620292 0.003691793 -1.1376354 0.28285939 -0.04035473 -0.5360761 0.20557301 -0.2948192 -0.09778927 -0.029744146 -0.20177878 -0.16797484 -0.06294852 -0.4320707 0.060184404 -0.08488117 -0.26912585 0.64599085 0.54198074 -0.44140244 0.35475403 -0.2005425 0.42964306 -1.0704883 -0.17560457 -0.33978283 -0.30011857 -0.63415754 -0.37973085 0.39212 0.11077918 -0.61979944 -0.07473143
225 0.5084469 -0.23107068 -0.373096 -0.4788186 -0.11828582 -0.7288734 0.39002255 -0.071239255 -0.33532682 -0.21153526 -0.12856838 -0.059068333 -0.3040281 -0.21274199 0.6095922 1.435979 -0.10997274 -0.53796935 0.53821737 0.23932414 -0.17099318 0.049319074 0.099719726 -0.5104602 0.06946581 0.08495305 -0.8592014 -0.21638425 -0.33928853 0.61640596 0.24129882 0.44109452 -0.5589632 -0.66684484 -0.2490347 -0.34578913 -0.82091457 -0.49993196 -0.73171127 0.36961532 0.13384709 0.2713907 0.06494361 0.16883864 -0.33007485 -0.003246794 0.64479256 1.1564034 -0.23727863 -0.22983503 -0.1937195 -0.1220839 0.15719105 -0.9924992 -0.5114662 0.36918712 0.60368 -0.18711431 -0.34914905 -0.05610708 -0.45043674 -1.2842479 -0.45263922 0.4858818
235 -0.19112799 -0.005522882 -0.7680305 -0.30398214 -0.24799526 -0.5821439 -0.2634624 -0.049506985 0.28516075 0.95332533 0.4004093 -0.07723361 0.27771327 -0.3140356 0.70029664 -0.15287407 0.44424865 -0.23760796 -0.006525727 -0.32391852 0.15238833 0.40179014 0.38602975 0.16559143 0.15881765 0.24264446 -0.24520409 0.24285623 -0.4519834 -0.30792043 -0.59218574 0.51095563 -0.25696525 -0.3887957 0.09897877 0.37778446 0.019036418 -0.32313725 -0.3769094 0.19488287 0.13099793 -0.19392124 -0.23223546 0.032696374 -0.14308755 0.0886568 0.14541103 0.66586083 0.15685718 0.48214036 -0.8677701 0.2182958 0.14020237 -0.48284528 -0.73478496 0.43910325 0.41529045 -0.7526074 -0.14832333 0.19055113 0.3361293 -0.25580254 -0.6285361 -0.040461347
377 0.32760128 -0.42347914 0.10108621 1.1149029 0.2298576 -0.0035055908 -0.09635632 -0.1053807 -0.5935787 0.47758502 -0.005407568 0.003933367 0.0073884516 -0.2277307 0.20919167 0.42093283 -1.2554213 -0.4880609 0.5424778 0.02371287 1.0575777 1.4207431 -0.07198055 -1.0303214 0.1626522 0.2189474 -0.9205079 -0.27377087 -0.86813587 0.012609535 -0.16637918 -0.5415126 0.5227042 -0.1847943 -0.5677397 0.4079024 0.9107381 0.86798877 0.049977813 -0.82629776 -0.104607254 0.3234233 0.022511415 -0.09989337 -0.4888658 0.19720711 0.6199432 -0.22754917 -0.19647235 0.53415656 -0.6902272 -0.017319238 -0.07231576 -0.51221275 0.8532722 -0.22192167 0.5514481 -0.21494284 -0.48636827 0.3266617 0.38030642 0.030058792 -0.97620636 0.8417421
246 0.8656249 -0.6490151 -0.59181106 -0.45903757 -0.21277612 -0.34853557 -0.029104289 0.08622024 -0.67088264 -0.21020013 0.07552633 0.16752812 0.50700945 0.58025396 -0.28129238 1.1758664 -0.20274577 0.30545175 0.47437957 0.59623283 0.07907618 0.26324227 0.09073587 -0.99133563 0.33201668 -0.29920304 -0.63255894 -0.64612764 0.230389 0.2979997 0.27931872 0.73428184 -0.92199683 -0.61441 -0.68023425 -0.5622777 -0.5942426 -0.43030772 -0.37645507 0.37809741 0.30411214 0.3732838 -0.20121352 0.045808315 -0.5795547 0.4672118 1.3253193 0.5639924 -0.29682046 0.12534441 -0.40833917 0.079716 -0.28673223 -0.06477223 -0.13226326 0.14464468 0.98005074 0.4294561 -0.124220595 0.1458955 -0.4180577 -0.08479802 0.09092666 -0.366082
224 0.4235736 -0.5373838 0.07825127 -0.53516763 -0.49183062 0.022716986 0.28529587 0.18439797 -0.42440066 -0.44331858 -0.2140454 -0.055564437 -0.13589671 0.69005024 0.059430275 1.1277957 -0.20864628 -0.11089066 0.6669037 0.30496618 0.23652264 0.32659748 0.34758088 -0.7766461 0.37221915 0.5559682 -0.8805355 -0.032646567 -0.27217525 0.07115289 0.16273475 1.3255427 -0.0917698 0.15594432 0.21297817 -0.8348359 -0.7881014 -0.6024358 -0.33940125 -0.18857542 -0.20107536 0.7620879 0.05308508 0.2576141 0.0853362 0.04667431 0.39904675 0.60766125 -0.038124107 0.12266071 -0.91090703 -0.07022481 -0.37964198 -0.59881645 -0.34064403 0.53921825 0.33521038 0.6539511 -0.0069614206 -0.08899307 -1.0052972 -0.41286787 -0.2252524 0.52899164
137 0.26384568 -0.6160362 -0.22466794 0.7448918 1.4898841 -0.60387236 -0.59430176 -0.95896953 -0.33212775 -0.33437437 0.34936765 -0.5169837 0.4159786 -1.5850036 0.39825422 -0.77722734 0.23008724 -0.44147837 0.8081478 2.0525985 1.6224924 -0.14405872 0.84132344 1.5754316 -0.36264944 0.62092435 -1.2489895 -0.3066651 -1.3147547 -1.4547852 2.1261508 0.18872736 -0.12710762 0.3826454 -0.12079242 1.1602124 0.06693613 0.012424674 1.8334148 -0.16368894 0.12217709 1.6025956 0.14807071 0.17808484 0.6251456 0.09670622 1.7864447 1.7108827 0.10466147 -1.3378117 -1.3371711 -0.5563283 0.24929959 0.22853746 -0.5047273 1.7195239 0.8188719 0.6792143 -0.95266604 -1.3747203 0.917886 0.2460877 -0.26987192 1.6277679
123 0.42650726 -0.49450517 -0.26870874 0.74041104 1.4567953 -0.75709057 -0.80914754 -0.9814325 -0.26962805 -0.36762434 0.3274497 -0.51051384 0.36142564 -1.5470895 0.3330709 -0.90526104 0.19787742 -0.29640654 0.8740921 1.9674766 1.5290352 -0.1320461 0.9192166 1.4907696 -0.32580897 0.4918696 -1.1406214 -0.4901122 -1.2032057 -1.2817355 2.0099902 0.16058083 -0.35033712 0.41929162 -0.070443414 1.2481382 0.11176613 -0.13837583 1.6797991 -0.20063035 0.07572762 1.5918275 0.18651076 0.18713896 0.5337693 0.10453776 1.7645862 1.6968346 0.09834163 -1.3647064 -1.3146205 -0.502284 0.22925104 0.38179225 -0.47731146 1.6899818 0.926725 0.6420163 -0.9725045 -1.2975507 1.0257013 0.24366058 -0.36537302 1.5026835
93 0.3106221 -0.6193331 -0.17598753 0.7373625 1.4471762 -0.6222845 -0.77779967 -0.92026895 -0.21759048 -0.4093446 0.37802422 -0.4478533 0.40448916 -1.5316879 0.35638 -0.8314354 0.1725315 -0.31741965 0.8292023 1.9661201 1.4715683 -0.124668285 0.8049493 1.5420532 -0.36656114 0.5883093 -1.1261244 -0.46965304 -1.2252203 -1.3535299 1.9998775 0.116949804 -0.26899803 0.36685804 -0.10500382 1.1188598 0.10391731 -0.048870616 1.680917 -0.23765409 0.11268427 1.6038126 0.13246973 0.16883653 0.6019341 0.13790505 1.7815481 1.7114416 0.1326414 -1.3116119 -1.2669083 -0.4750851 0.2358595 0.33163998 -0.41336483 1.6885413 0.8473014 0.73269534 -0.88498056 -1.3287458 0.9562558 0.3054715 -0.265192 1.5998083
77 0.013015201 -0.23174588 0.012123107 0.27996612 -0.44102892 -1.0574393 -0.06709817 0.687942 -0.15586174 0.5094658 0.249858 -0.15402003 0.07169178 -0.15479708 0.03582798 -0.2644798 0.21659376 -0.19160903 0.19203803 -0.4876724 0.1564943 -0.30059758 -0.17404883 0.57833594 -0.62165153 0.5383825 -0.99860007 -0.035128996 0.27436045 -0.5745109 0.49497035 0.59189254 -0.037990104 0.046964087 -0.31445897 -0.3877117 -0.15601537 -0.09131959 0.15889463 -0.5059628 -0.753057 0.3870047 0.034994353 -0.46470043 -0.1942813 0.47709358 0.34821683 0.0333089 0.09670208 0.38198414 -0.21542063 0.22869687 -0.41253036 -0.53627455 0.48106673 0.856311 0.7014718 -0.4293842 0.14017071 -0.22146347 0.9215437 0.5029066 0.30035555 -0.35750562
297 -0.26287952 0.4740211 -0.3968896 0.12327822 -0.8592934 0.6648852 0.4260912 -1.2470621 -0.22838563 -0.4748733 0.08982973 -0.477998 0.95755273 0.07395288 1.084986 -0.13854326 0.84733516 -0.32124946 0.71127975 0.5512213 1.464015 -1.6553257 -0.4857358 0.018961227 0.6133136 0.8281766 -1.7436997 0.636978 0.10892386 0.8839236 0.9034172 0.65845853 0.18393104 -0.9673633 -0.29993343 0.3847813 -1.8892499 0.8473828 0.4205286 -0.8592825 -0.7859248 0.97387844 -0.67214435 -1.6229999 -0.09506941 -0.5452436 1.4273528 0.47390285 -0.5525379 -0.27306315 -0.3599417 -0.70262 -0.67744935 -0.6199426 1.1531187 0.0047148494 0.30552047 -0.5342055 0.47581273 -1.2939663 1.1316679 0.5908229 -1.328113 -0.22661139
10 -0.15708396 0.53832644 -0.37615138 0.11110336 -0.96175236 0.6784956 0.43936905 -1.1894337 -0.10913789 -0.47094083 0.17053853 -0.607393 0.8627847 0.06649862 1.174004 -0.052311026 0.80858165 -0.26701114 0.58621573 0.5670521 1.6290406 -1.5309776 -0.37249625 0.12480557 0.575822 0.84115 -1.6061888 0.56059897 0.08093458 0.8934822 0.935356 0.6494183 0.120734215 -1.0417571 -0.33275086 0.34332398 -1.8609803 0.8636508 0.15725584 -0.8174168 -0.7605849 1.0415492 -0.5360598 -1.669009 -0.15589115 -0.59524465 1.5358082 0.4188061 -0.8500032 -0.36433336 -0.47981688 -0.64631903 -0.74525625 -0.65586203 1.1475545 0.13083434 0.22362857 -0.5068062 0.51739997 -1.1643391 1.1769792 0.62426984 -1.2758563 -0.42745712
62 -0.26007655 0.054479502 -0.1934959 -0.03368763 -0.41381356 -0.33234444 -0.1870664 -0.40466347 -0.31837106 0.43822443 0.3108773 0.11391228 0.42464274 -0.39403346 -0.29967272 -0.3447698 -0.040457502 0.864495 -0.061092302 -0.4304926 0.34802684 0.07517526 -0.34409928 0.42339763 -0.12954913 0.087368265 -0.8117016 0.14863203 0.3031452 0.30253536 -0.123261295 1.7414496 -0.23818107 -1.3181286 -0.5364763 0.5276165 -0.108842 0.11704164 0.0025551717 -0.16969183 0.05451564 -0.01653821 -0.61706614 -0.18052419 0.56202066 0.3168243 -0.87729305 0.2586248 -0.78833616 0.6214577 -0.54662776 -0.29695994 0.63043296 -0.28413063 0.6068845 0.5911224 0.15812406 0.009464456 4.2241605e-05 0.5408806 0.28535777 -0.2510427 -0.53838974 0.11495951
107 0.9402403 -1.0447115 0.69464797 -0.39362743 -0.109448425 -0.04822736 0.074549384 -0.5277743 0.092163794 -0.59662735 -0.4962929 -0.8111113 0.30731374 0.3559819 -0.29907918 0.2512941 0.1354876 0.47417685 0.28824827 -0.22185837 0.57910335 0.23109372 -0.2542381 -0.22871788 0.07807084 0.04442519 0.2381447 0.14725824 -0.10196761 -0.44106436 0.7460878 1.0989108 -0.1743937 -0.47923738 0.106456116 0.22528115 -0.54352933 1.1496298 -0.0017623435 0.064213514 -0.5937815 0.297292 0.15120399 0.048950773 -0.37795034 -0.7139895 -0.021129122 0.5132259 0.24447829 0.20665535 -0.35248774 -0.18854085 -0.6123764 0.48512664 -0.38132355 0.5488626 -0.8441873 -0.783516 -1.1308976 -0.057610616 0.01170633 0.7757785 -0.44165942 -0.055248905
100 -0.120372 0.20345905 -0.07434604 -0.88895947 -0.1727263 -0.34288034 -0.91479653 0.22495426 -0.45314604 -0.107933275 -1.2659465 -0.3625201 0.032936312 -0.14017268 0.17336029 0.31546935 -0.12035625 0.48288664 0.13032565 0.8023628 0.41609064 -0.32634008 0.04917242 -0.45766118 -0.09023406 1.0228243 -0.7238075 0.013637936 0.15086775 -0.94814813 0.99102217 -0.628815 -0.08015739 -0.54474765 -0.052911587 0.3589117 -0.3682836 0.3342131 0.34793705 0.35382748 -0.31986564 0.17881005 -0.4829211 -0.15807794 1.2883203 0.5363456 0.68501383 -0.11559011 0.37372494 0.1281806 -0.14084484 -0.5094534 -0.38035926 0.11073078 0.13382028 0.34049386 -0.37908253 -0.26651675 -0.882727 -0.53336143 -0.030946184 0.011178036 -0.5228355 -0.20984869
177 0.7052665 -0.28193608 0.45695323 -0.6394047 -0.25405484 0.028450605 0.1744796 0.37853742 -0.7645861 -0.9086704 -0.20799464 -0.22562152 -0.11939294 -0.1755891 -0.06997948 0.23385754 -0.030548228 -0.09180918 -0.043635488 0.7819312 0.22555125 -0.2625055 0.40571928 -0.88560915 0.08347202 0.61030036 -1.2652148 -0.24665588 -0.23586416 0.11834783 0.19029973 0.76944166 -0.18788181 -0.49862042 -0.05991998 -0.54258955 -0.42859867 -0.31363103 -0.5060636 -0.20540641 -0.15135975 0.5660776 0.20644076 0.061358772 0.20593359 0.30178365 1.1883821 1.1075132 -0.13753416 -0.15034898 -0.052941028 0.21684799 -0.94620407 -0.30167845 0.29411095 0.33874395 0.63348424 0.26933238 0.19273603 -0.09321561 0.12032633 -0.76246727 -0.3174956 0.3266054
90 -0.46755487 -0.668264 -0.31296894 0.47633147 -0.764277 0.12850824 0.047304135 -0.19231571 0.3484094 0.5947724 0.061558597 0.1882956 0.16859461 -0.37452793 0.27089122 0.21232417 -0.1929876 0.11610604 -0.61986965 -0.06800765 0.26117668 -0.6274667 0.39079794 0.015176643 -0.2253627 0.7495913 -0.5672086 -0.4906049 -0.8723849 -0.45174298 0.5963851 0.46087655 -0.14795658 -0.46439958 0.3233364 0.33048564 -0.26578727 -0.4827383 -0.43599817 -0.8840258 -0.66008466 0.19828255 -0.22208193 0.103140205 0.40013242 0.43439272 0.33902267 0.4552395 0.24743249 0.35944536 0.02718482 0.43525636 0.2512532 -0.056298234 -0.025773719 0.32959467 0.42055243 0.33424583 -0.23035328 0.09444459 1.1602833 0.3569484 0.045155823 -0.16881259
321 -0.44101664 0.06093602 -0.24809249 0.2261504 -0.52466965 0.21889856 -0.2622899 -0.02957317 0.4061492 0.851622 0.14171089 -0.39275792 0.3033199 0.23970999 0.6511677 -0.09042731 -0.056042798 -0.053718403 -0.4105907 0.25578558 0.2213504 0.18885438 -0.1700143 0.41655752 0.14473118 0.35948065 -0.7280102 0.09818038 -0.047990452 -0.8245898 0.06753484 0.16953085 -0.12204414 -0.108894475 -0.3687151 -0.0069398647 -0.47697905 -0.30427676 0.3061168 -0.8478946 0.14078534 0.0905042 -1.4095914 -0.39221182 0.41888273 0.17779338 0.68595994 0.6635621 0.57580537 0.067459814 -0.13505794 0.4512187 -0.41921818 0.21100578 -0.1692602 0.1769961 0.23588745 -0.37000215 -0.12207514 0.71489483 0.30698085 -0.16628267 -0.6701481 0.14650983
323 -0.11399735 0.13397288 -0.2627819 -0.51735365 0.028120326 -0.009656463 0.15793437 -0.52270305 -0.3665191 -0.6069457 0.12575746 0.2956123 0.6122998 -0.47956458 0.2408887 0.8932035 -0.24645612 0.013542397 0.24454339 0.4102298 -0.015403091 0.2772363 -0.026030248 0.98861897 -0.08291966 0.9350922 -0.20170191 -0.22901516 -0.18762617 -0.23410305 0.9085676 0.45478594 -0.24847412 -0.3459163 0.18926288 1.0598314 -0.25590855 0.25767872 -0.15433376 0.001094426 -0.64034826 0.026244387 -0.38991532 0.16049156 -0.6747954 0.02749554 0.27932003 0.0020386346 0.30587772 0.60461617 0.13643733 0.16860586 -1.0827935 0.23878981 0.3964051 -0.13849224 -0.9254937 -0.23562369 -0.38425183 -0.49270368 0.34314147 0.043178786 -0.82856125 -0.08622882
332 -0.22985722 0.42548802 -0.37739232 0.15161717 -0.83271515 0.6222218 0.564283 -1.2919762 -0.22554722 -0.5054929 0.112797774 -0.52395785 0.93443197 0.029458234 1.1028268 -0.13595212 0.855291 -0.29289043 0.6827485 0.57399833 1.5007924 -1.6559831 -0.45383275 0.08801932 0.5707201 0.7715682 -1.5953556 0.5710216 0.09091261 0.79558074 0.88754094 0.66074973 0.15754832 -1.0080642 -0.29364628 0.3555294 -1.8619455 0.83537424 0.24373129 -0.8549723 -0.8084676 0.9501655 -0.6218063 -1.6419457 -0.1379751 -0.61856586 1.4909654 0.39466748 -0.7636543 -0.3502194 -0.39066228 -0.6965062 -0.6505627 -0.65608853 1.1244186 0.08404046 0.30913374 -0.5079232 0.4715882 -1.1316098 1.1733834 0.60727125 -1.2516458 -0.28443494
333 0.31373042 -0.438883 0.5239446 -0.73065853 0.24320331 0.28189477 0.16074696 -0.37846226 0.047611978 -0.6480283 -0.11409605 -0.5596547 0.15890925 0.3415186 -0.40782455 0.02517605 -0.46155855 0.14345695 0.558423 0.013403146 -0.042139176 -0.16272731 0.19047453 0.6641085 -0.72596455 1.2787886 -0.70603734 0.9578928 -0.19928922 0.57741284 0.7881178 0.17576963 -0.57211787 -0.3174421 -0.10737407 0.18148829 0.24704933 0.19166325 -0.5355079 -0.52831876 -0.33698043 0.028082412 0.22751631 -0.31133476 -0.3284931 0.0048725666 0.67968756 -0.049046032 0.5440213 0.4306709 0.08084494 -0.23231412 -0.9565592 -0.071345635 -0.0941877 0.24865392 0.052858796 -0.36266142 -0.46915612 -0.5784972 0.5545579 0.4022315 -0.21730448 -0.20046383
120 -0.07641876 0.21603708 0.022951348 -0.88463795 -0.058163017 -0.36775574 -0.9097394 0.26084974 -0.51033163 -0.119180016 -1.3269426 -0.40948898 -0.04363666 -0.2538046 0.20703405 0.3013503 -0.19637483 0.4454205 0.01282777 0.67126524 0.5241094 -0.4529137 -0.16213518 -0.39255092 -0.017241085 0.9694501 -0.64630574 -0.005357807 0.1240631 -0.90691525 1.0557741 -0.6473479 -0.09771117 -0.41996735 0.0021049753 0.33729145 -0.41663906 0.28498274 0.21141078 0.2992908 -0.2314405 0.022534203 -0.54874724 -0.23845439 1.0620366 0.60758346 0.6106846 -0.009620955 0.21514666 0.12466199 -0.27511653 -0.4956967 -0.40688846 0.23724833 0.07595003 0.4739433 -0.32253966 -0.34477404 -0.75599754 -0.5966673 0.06566652 0.0051999493 -0.7332222 -0.13302279
184 0.10717233 -0.22525743 0.010550803 0.25362486 -0.59159887 -0.96304846 -0.022920685 0.46646374 0.042751115 0.49114227 0.30560192 -0.3760201 0.21142589 -0.14524305 0.21330325 -0.43247747 0.19626467 -0.13548484 0.33012143 -0.48950353 0.4094762 -0.21702312 -0.16397183 0.36272743 -0.47831866 0.6288245 -0.79535216 0.061317813 0.23882599 -0.55850226 0.52571636 0.56620264 -0.01720717 0.1921215 -0.4524471 -0.3964282 -0.17981794 -0.15889543 0.15475735 -0.39410213 -0.88446885 0.4305271 -0.051977128 -0.46192673 -0.07910549 0.6451394 0.56454086 0.1319811 0.17551535 0.5461654 -0.14795429 0.38106465 -0.25383735 -0.42809504 0.36723208 0.9258539 0.6770534 -0.41125098 0.24743062 -0.2747933 0.85450894 0.5316121 0.4506376 -0.31057402
361 0.29288217 0.047239747 -0.26649988 -1.1243039 0.12833959 -0.086066075 0.4356901 -0.4275157 -0.550356 0.19837888 0.026851395 -1.1598228 0.30525798 0.4966921 -0.36345103 0.006061299 -0.19770575 -0.53400016 0.10560608 -0.1613172 0.42612073 0.5311106 0.5637458 0.33557916 0.31342712 0.65097713 -0.048749577 -0.26681885 0.43464276 0.48951373 1.1731488 0.37490898 0.45847717 -0.3329161 0.6747143 0.35567108 -0.6437755 0.38057882 -0.044420894 -0.44661537 -0.593521 -0.07527315 -0.23823388 -0.20992307 -0.0069518513 0.35142255 0.43727916 -0.7938472 -0.05200726 0.37718946 0.34305868 0.06330958 -0.3982552 0.20166753 -0.20424096 0.48927054 -0.6970878 -0.5292241 -1.0550569 -0.2931888 0.024337126 -0.32740647 -0.528879 -0.042641725
103 -0.019653654 0.3782673 -0.31169125 -0.053275544 -0.8687916 1.159419 0.31085962 -0.8729388 -0.3607088 -0.6511165 -0.12514535 -0.2824297 0.9071134 0.01928594 1.2440621 -0.2636261 0.28712556 -0.3942553 0.6042994 0.61428684 1.2916574 -1.3216941 -0.48695114 -0.16002905 0.36928067 0.70637786 -1.3877069 0.43093812 -0.27214172 0.8176972 0.7328398 0.26877984 0.0069292365 -0.8560369 -0.33596578 -0.009105624 -1.4440571 0.77225125 -0.05387709 -1.1012558 -0.79787314 1.157752 -0.32382253 -1.4701215 -0.23091142 -0.4976722 1.4079313 0.48241022 -0.60077465 -0.20008107 -0.17345513 -0.116583884 -0.8624032 -0.47030455 0.90441877 -0.044123504 0.38377473 -0.3433387 0.3719161 -1.1428828 1.0697353 0.5187814 -1.0829203 -0.10258293
204 0.394755 0.6253449 -0.31433037 0.79241693 -0.9666102 -0.026134752 0.4767282 -0.83869225 0.0037247248 1.3947624 -0.07851139 -1.0470512 0.29532465 0.7067171 1.4409434 -0.33522713 -0.03369967 -0.15649042 -0.33174542 0.6770528 0.13638273 -0.17919996 -0.06515875 0.4276383 0.17777179 0.7029413 -1.0044677 -0.14831741 -0.33809546 -0.27827168 0.5410223 0.46768105 -0.43442735 -0.201715 -0.55704594 -0.101958156 -0.60921514 -0.0283215 0.24980564 -0.63232833 0.6000793 0.66810125 -1.519802 -0.7090027 0.9173974 -0.17675833 0.26300633 0.22638951 0.24159375 0.37048382 0.15903333 0.17238373 -0.7107625 0.5302156 -0.13545686 -0.4609353 0.3530187 -0.29263303 -0.3567232 1.5561417 0.6478619 -0.19605443 -0.7945131 -0.13984402
284 0.3056056 -0.3909063 0.47345996 -0.6950474 0.32589948 0.27868772 0.07934956 -0.42296252 0.04437705 -0.5936603 0.02589334 -0.5162124 0.23206975 0.38365066 -0.45119548 0.1293055 -0.3570658 -0.020191252 0.4524621 -0.19055603 -0.12871891 -0.22745731 -0.004863252 0.6114242 -0.7854122 1.2418598 -0.6624312 0.7281072 -0.35736224 0.58247083 0.67969304 0.03178555 -0.50858116 -0.33783823 -0.18310682 0.10352574 0.19882427 0.267709 -0.64154166 -0.52422094 -0.20320347 -0.03254861 0.20404314 -0.32968783 -0.3108681 0.069090456 0.6543878 -0.14693119 0.53789836 0.25284484 0.06929304 -0.24822448 -0.9231143 0.0152040925 -0.13360079 0.34690595 0.1159933 -0.4219055 -0.65817606 -0.57754034 0.77858937 0.401826 -0.24460994 -0.1891205
42 -0.37817234 -0.74322104 -0.25762162 0.40675443 -0.7267355 0.17875542 0.033653412 -0.1271111 0.33062038 0.5712236 0.26595995 0.11307819 0.09259026 -0.48504305 0.2569264 0.31745583 -0.16932242 0.12809034 -0.7529204 0.08454535 0.21200778 -0.64554054 0.17887971 -0.08577042 -0.265425 0.6456771 -0.40055132 -0.34627098 -1.0377196 -0.40736613 0.7081606 0.38676897 -0.049754575 -0.6796167 0.27411893 0.39042264 -0.03246936 -0.6845705 -0.40963086 -0.78935874 -0.43725845 0.15924199 -0.33459872 0.06806154 0.27665117 0.4586624 0.3098654 0.5647736 0.29904416 0.22353157 0.107470825 0.34871265 0.26125067 -0.0694815 0.002322163 0.3897548 0.2856212 0.32935408 -0.41719204 0.29800972 1.2160121 0.38959333 -0.021468332 -0.14756596
106 -0.54024684 -0.18151528 0.011045255 0.05991224 -0.42857793 0.23284525 0.52009815 0.40513518 -0.43626595 0.3012921 -0.031598933 -0.16838644 0.610057 0.78486186 0.072429456 0.2089136 0.459636 -0.5395378 -0.3936975 0.09019286 0.0871062 0.8513007 -0.5569475 0.08903123 -0.23561141 0.15918547 -1.4402156 -0.2970925 -0.31979513 0.059979092 0.06195753 0.5054494 -0.16740091 0.24385402 0.23049225 1.085022 0.09207005 0.09355432 -0.5828974 0.20617987 -0.6003179 0.16708343 -0.15543404 0.43548304 -0.285003 0.6313076 -0.16067751 0.37705353 -0.05881883 0.5259035 -0.5683101 -0.5023697 0.8373269 0.6523241 0.5449185 0.29458657 1.2428524 -0.62910897 0.3255837 0.6257741 0.92087054 0.4758956 -0.5433049 -0.20748693
89 -0.19992447 -0.5837744 -0.23892666 0.43630975 -0.715118 0.1643785 0.054519884 -0.16886176 0.31872448 0.5424473 0.21219671 0.24458471 0.21347055 -0.30658537 0.20384513 0.20079105 -0.19752927 0.055764794 -0.67980057 -0.043151718 0.08948915 -0.67465305 0.22786582 -0.154149 -0.28641212 0.6730023 -0.4525215 -0.38426292 -0.9294988 -0.49851274 0.73945004 0.36869907 -0.08751968 -0.54150355 0.24302317 0.5315596 -0.19182612 -0.77635854 -0.3925597 -0.9417129 -0.61138064 0.28570688 -0.45770523 0.17924468 0.3560642 0.5109579 0.44096562 0.4117505 0.079247154 0.40027338 -0.028127912 0.62684774 0.2698491 -0.13136779 -0.032609265 0.46391737 0.3052319 0.29882497 -0.39654267 0.27045837 1.2105912 0.3646846 0.117516644 -0.15708826
16 0.0311345 0.47219118 -0.43409815 0.5574728 -0.7112308 -0.10330292 0.3690126 -0.6113829 0.072814405 1.1186191 0.14259745 -0.8867864 0.49764168 0.52639693 1.3939736 -0.43625835 -0.062435504 -0.53420323 -0.4271573 0.47279546 0.28734788 -0.17875561 -0.037574865 0.2012967 -0.016438628 0.790222 -0.75163954 -0.19227773 -0.30645496 -0.68748677 0.34561098 0.21925049 -0.21026257 -0.174389 -0.42951757 -0.23185672 -0.53916025 -0.473059 -0.023899669 -0.8546034 0.39457023 0.27541843 -1.8500792 -0.45818028 0.7977714 0.02692652 0.25290874 0.46760124 0.22846581 0.22614086 -0.10975332 0.09072198 -0.77078974 0.6249875 0.01217738 -0.27336332 0.36866158 -0.5789858 -0.16332884 1.139947 0.35469046 -0.15133126 -0.457716 0.102268755
147 0.6438323 -0.33223176 0.38652638 -0.5443086 -0.17197114 -0.08318348 0.23959035 0.48529637 -0.7256309 -0.9319012 -0.23140757 -0.18113345 -0.10868437 -0.17322864 -0.050868098 0.13542888 0.12641317 -0.1760015 -0.077347316 0.8328136 0.3282802 -0.34452236 0.472517 -0.87673706 0.05447685 0.72753006 -1.2627503 -0.31681374 -0.3240636 0.050794132 0.16574556 0.9474772 -0.073745355 -0.5309771 0.014991271 -0.6521329 -0.55502635 -0.19658282 -0.44489923 -0.12619315 -0.12875508 0.5280416 0.1690161 0.050240844 0.23437853 0.281816 1.1520575 1.1519383 -0.054095898 -0.30018148 -0.1916308 0.26873606 -0.9213024 -0.3842102 0.24356125 0.18043913 0.70885503 0.25912514 0.18402633 -0.17997691 0.12433951 -0.6256855 -0.34577885 0.34516868
417 0.45235533 -0.5841804 0.19864564 -1.2318234 -0.19294998 -0.76496285 0.812361 -0.48108113 0.77254546 -0.58159953 0.7540724 -0.04177791 -0.056657106 -0.0031110693 0.60443074 0.28666964 -0.07215356 -0.31333044 0.6409799 -0.4567576 -0.28513926 0.065990925 -0.46383718 0.33779544 0.24199018 0.34895495 -0.17074731 -0.12601125 0.21105863 -0.01572992 0.91336596 -0.096488304 -0.22477998 -0.7318802 0.20734422 0.9570479 -0.24238575 0.9669106 -0.5529066 -0.33045915 0.46263805 0.7469623 -0.44436517 0.24691 0.31268403 0.031682543 0.5152059 -0.46917242 0.37752232 -0.2596897 -0.732522 -0.37881383 0.2682896 0.24522664 0.10788523 -0.11272695 -0.35069475 -0.10635797 -0.3963725 0.016084544 0.4986832 0.62708026 -0.6076331 0.56921643
299 0.1928483 0.43202773 0.30813503 -0.80604935 0.109520756 0.09609369 0.71256787 0.025992189 -0.021235831 -0.6207213 0.31797016 -0.8503853 0.94883233 -0.13355257 -0.0011623731 0.57415134 -0.3861558 0.13152084 1.1003082 0.6980007 -0.2145741 0.33390707 0.5918599 0.041000236 0.1978946 -0.12139298 -0.06098725 0.4173284 -0.24072842 -0.043831684 0.551914 0.263263 0.05099336 -1.1058528 -0.1965039 0.65655756 -0.86675084 0.6639225 -0.6774513 -0.03192286 -0.87718123 -0.43032438 -0.41907835 0.24317415 -0.51110107 -0.4277448 0.026229948 -0.043471754 0.8216968 0.47881413 -0.09619672 0.08720964 -0.09420147 0.37148649 0.25987622 0.49790078 0.02383631 0.21951902 -0.6071413 -0.04069404 -0.09040378 1.3438858 -0.3577537 0.5905758
401 -0.2312662 0.12257317 -0.15481094 -0.51926863 0.04921288 -0.2649876 0.071657136 -0.53927517 -0.33138052 -0.70988154 0.1227468 0.35587028 0.63483566 -0.37687504 0.2944111 0.73932564 -0.24313588 0.116575934 0.29521447 0.37191436 -0.05091528 0.28596428 0.080136076 1.092478 0.0452266 0.861178 -0.05026768 -0.28895107 -0.13361987 -0.33229524 1.024721 0.5112795 -0.14454466 -0.3003398 0.16812804 0.8868874 -0.28875867 0.29507098 -0.1842502 -0.11247537 -0.75035304 0.20380762 -0.38386044 0.07138636 -0.56923234 0.17007208 0.49475864 0.075137824 0.37074533 0.58558047 0.24699038 0.27242866 -0.82910347 0.32112393 0.44872943 -0.3365309 -0.97332466 -0.3716603 -0.4046404 -0.46546075 0.2778828 0.08702251 -0.89896894 0.053231645
352 -0.13497071 0.15749246 -0.14796574 -0.6096568 0.16624431 -0.023520773 0.014560737 -0.3961387 -0.3607041 -0.6331992 0.39859694 0.32573617 0.6951407 -0.39361456 0.2916035 0.6916083 -0.13949428 0.09340337 0.42100507 0.44985723 -0.099446796 0.21695562 -0.0071722963 0.95816004 0.10493892 0.8192789 -0.06766627 -0.23171163 -0.24227422 -0.28161505 0.89424956 0.46500078 -0.15168951 -0.27275094 0.23418753 0.91521114 -0.35515648 0.32465664 -0.3626397 -0.04991398 -0.68169594 0.13912012 -0.59888333 0.04472474 -0.6100073 0.095873386 0.47363013 0.15648395 0.21823934 0.64794815 0.12880231 0.23667616 -0.9177905 0.22275105 0.3389216 -0.29697034 -1.0296223 -0.25219387 -0.66919845 -0.48578134 0.38029507 0.1228195 -0.91844875 -0.07533307
43 -0.33472046 -0.10164828 0.057750437 0.16859898 -0.6128215 0.25798008 0.40528518 0.46431485 -0.29972693 0.28748453 -0.044802528 -0.07400605 0.5320898 0.77267075 0.18490164 0.07579616 0.28837603 -0.4106563 -0.21580595 0.1765231 0.07999195 0.8716817 -0.49542385 -0.046100806 -0.14167613 0.15932873 -1.4732276 -0.31114537 -0.3799198 0.010435167 0.0019291004 0.5815374 -0.19525248 0.33112183 0.35252184 1.1753104 -0.012133929 0.09662007 -0.74070203 0.12420266 -0.69312155 0.20524372 -0.27178657 0.42203605 -0.30690935 0.6990497 -0.15182883 0.34580612 -0.06356868 0.27605325 -0.48692212 -0.67469025 0.9055466 0.7397949 0.3729523 0.46053836 1.2920508 -0.7052584 0.33554316 0.6633035 0.88338274 0.39739963 -0.604812 -0.498073
132 -0.0065030414 -0.38487723 -0.6686786 -0.069895394 -0.8686796 0.57399577 0.45262334 1.1895397 0.29706874 0.07048657 -0.3109318 -0.113771215 0.08784822 0.45776808 0.9288299 -0.120316945 0.030922323 0.14730267 0.13900676 -0.41398916 0.1373953 0.44018635 0.33609152 -0.8101633 -0.7654753 -0.315804 -0.51681274 1.1580395 -0.002035594 -1.009682 -0.074168235 1.5243886 -0.81083286 -0.22537379 -0.15873882 0.09172789 -0.64552504 0.37159187 -0.03629363 -0.48180863 0.12093955 0.585043 -0.037594188 0.5963697 -0.3944683 -0.736662 -0.038322378 0.27102056 -0.5462903 0.21342748 -0.1455307 0.23677158 0.27504382 0.7395916 1.0385246 0.29999778 0.017635655 0.106859796 -0.5239889 -0.90150744 0.19993155 0.033937354 -1.0911752 -0.049473938
146 -0.28564632 0.050363638 -0.11801402 -0.028645525 -0.37575397 -0.3542442 -0.35880134 -0.4704964 -0.31300658 0.3741447 0.3999945 0.16653556 0.41172466 -0.43164203 -0.2002508 -0.44881 -0.010336738 0.8468895 -0.18860552 -0.38992298 0.2163116 0.009430677 -0.38834634 0.3484101 -0.13656975 0.058839757 -0.6672205 0.035137895 0.18328561 0.4081267 -0.16757897 1.6407785 -0.2389479 -1.4447802 -0.6038449 0.45677346 -0.048848167 0.032700974 -0.09867586 -0.1725951 -0.03799387 0.08249423 -0.85187715 -0.06647786 0.39857647 0.43099168 -0.87832594 0.14991389 -0.7331318 0.5573207 -0.7113104 -0.25456852 0.6497808 -0.28615355 0.6419405 0.83529335 0.16269991 -0.05687277 -0.030992499 0.40870288 0.28982326 -0.1996785 -0.56587905 0.20351523
148 -0.010841623 -0.33471018 0.14229743 1.0388732 0.054316428 -0.26381552 0.4924175 0.0109897945 -0.35664284 0.11602771 0.013163384 0.46962187 0.21319209 -0.50319535 0.7033832 0.5235593 -0.5009158 0.08919781 0.28931874 0.4191172 0.86815095 0.36510104 0.3484316 -0.5613197 0.5452424 0.40518343 0.07812929 0.18733844 -0.474905 -0.060803566 -0.30589542 -0.25702703 -0.22825985 -0.74513656 -0.9659421 0.22294372 0.24676646 -0.22614817 0.17497154 -1.1184269 -1.1945738 -0.037441105 -0.35274634 -0.45893863 0.37179402 0.16802846 0.8615894 -0.39344236 -0.3913033 0.37360138 -0.6535568 -0.69273037 -0.6633799 -0.35846564 0.8174162 -0.5655263 -0.14618082 -0.38441452 -0.46524206 0.10935459 0.0032920658 -0.048183966 -1.6661884 0.6374247
36 -0.84021187 0.22034152 -0.51613486 -0.09444394 -0.64395475 -0.10055464 -0.33754724 0.26873747 -0.3477539 -0.06741856 0.14433756 0.25098473 0.107998766 -0.08660551 1.4732363 0.5570783 -0.19662768 -0.29363713 0.30385083 -0.83637494 0.067773044 0.033600256 0.24321572 0.3766922 0.10327066 0.3508259 -0.79811954 -0.3289476 0.16568427 -0.4176528 -0.2740376 0.97310174 0.5050614 -0.15925325 -0.780106 -0.08954355 0.7256642 -0.4179322 0.05810071 -0.2978027 -0.28178787 0.18449348 0.24604183 0.21691097 0.27279803 -0.099336155 0.16861987 0.40100363 0.2688146 1.0089313 -0.12698792 -0.22631429 0.14100903 -0.6952132 -0.66695106 0.78287154 0.26620403 0.1763411 -0.2866515 0.65799797 -0.09947819 0.8914863 -0.7602253 -0.14033048
84 0.03461877 -0.30085143 0.08748012 1.0107913 -0.034030706 -0.25643906 0.3615275 0.053808928 -0.41835684 0.15739408 -0.020309644 0.49101162 0.2006797 -0.49051458 0.65304255 0.5166399 -0.33128348 0.1439899 0.31635308 0.47104982 0.9799592 0.56891316 0.22172368 -0.62915444 0.5152046 0.33285797 -0.02737662 0.120701864 -0.61023045 -0.0030221841 -0.31258312 -0.31088197 -0.33258447 -0.728642 -0.8397789 0.3074545 0.32771435 -0.14240068 0.2156 -1.1521575 -1.11188 -0.022530625 -0.25752038 -0.37521648 0.32087567 0.094560176 0.837141 -0.3132811 -0.49066156 0.5014219 -0.5989925 -0.5707155 -0.7019331 -0.319837 0.83319694 -0.5651865 -0.08880434 -0.37322113 -0.51731366 0.19907615 -0.046832036 -0.10573505 -1.6025094 0.58122206
376 -0.046155494 0.0065320814 0.066773444 0.11141807 -1.2894087 -0.11408313 0.7112176 0.0291221 0.75161475 0.06807174 0.33505997 0.5279323 0.92943287 0.16183472 0.4897923 0.77132034 -0.14279404 0.17339194 0.118476525 -0.68481886 0.63499045 0.75550795 0.67453516 0.02364632 -0.20546104 -0.11322301 -0.32752973 0.2727316 0.44738367 -0.8681923 0.025140204 0.7896833 -0.22973198 -0.023503454 0.6413038 -0.091008015 0.14593387 -0.12175471 -0.10713853 0.34186608 -0.51914865 0.5755336 -0.48559847 -0.666424 -0.015920505 0.041316863 -0.45935258 0.4319532 -0.28968927 0.36549288 -0.97165763 0.38401657 0.30719635 0.4957132 0.1367651 0.4232577 0.8142533 0.2122692 -0.5227567 0.06757338 0.17080128 0.38924304 -0.30535996 -0.053814873
226 0.6041375 -0.440326 -0.06291055 -0.48784417 -0.075908855 -0.3031731 0.15430439 0.27285436 -0.62676436 -0.3582484 0.049372476 -0.0712205 -0.026721848 0.45140743 0.09417439 0.95664084 -0.09420338 0.016783671 0.5339815 0.3108445 0.121541254 0.18314776 0.5332773 -0.5786207 0.49194258 0.1701094 -1.0424489 -0.20730057 -0.23348446 0.23756164 0.13676734 0.47208574 -0.37974006 -0.6517555 -0.15880145 -0.8184014 -0.4732096 -0.2396265 -0.44701067 -0.10887208 0.06282744 0.5971746 0.04459483 0.12572035 -0.23341127 0.2136754 0.65325576 0.64688534 -0.10765745 0.046010833 -0.14829691 -0.26908228 -0.01730043 -0.4124057 0.009561348 0.31228527 0.35742992 0.3658078 0.24349199 0.13203366 -0.24338652 -0.70900726 -0.20356669 0.44351837
118 0.5989548 -0.4248844 -0.2697142 -0.52651924 -0.27598786 -0.42945117 0.22661518 -0.003942236 -0.6318071 -0.26612115 0.015481176 0.069112204 -0.18730639 0.3884105 0.10920314 1.079039 -0.19849059 -0.034267258 0.40274075 0.3596641 0.025698753 0.33259204 0.419296 -0.59460837 0.64916086 0.29230133 -0.98155516 -0.20394129 -0.17565762 0.40188378 0.19261199 0.38743737 -0.4433085 -0.42758626 -0.14332485 -0.9235812 -0.5122403 -0.1900686 -0.37947837 -0.1844778 -0.033698834 0.427375 0.17523716 0.045437068 -0.20852792 0.12453336 0.4969241 0.6542548 -0.064200684 0.020907095 -0.1698402 -0.08619324 0.076166265 -0.39051184 0.11975363 0.5599297 0.42592782 0.30874148 0.14506635 -0.052246425 -0.25814253 -0.615336 -0.2778355 0.49910298
159 0.6281491 -0.3087861 -0.111208186 -0.56674063 -0.15846533 -0.35031855 0.15494004 0.1232994 -0.5282929 -0.30423403 0.0263907 0.093918286 -0.051392723 0.45020407 0.05715594 1.0186763 -0.13701344 -0.027587688 0.5015229 0.451341 0.10768015 0.31198695 0.48546374 -0.60206336 0.53168535 0.17807943 -1.0126415 -0.32095262 -0.1280989 0.22370428 0.17778976 0.47276932 -0.45200014 -0.63538283 -0.23658845 -0.81067085 -0.5017368 -0.2296815 -0.36323127 -0.10502387 0.036370557 0.4402762 0.04838295 0.1427398 -0.3467167 0.2455045 0.5737459 0.7531918 -0.17938167 8.742792e-05 -0.0937849 -0.17411552 0.027167406 -0.43597567 -0.00738682 0.33779666 0.3217797 0.22798568 0.10494767 0.036560148 -0.312781 -0.6988064 -0.23151045 0.4784197
223 0.6100289 -0.4059458 -0.1598918 -0.42057908 -0.10032032 -0.3571709 0.16394874 0.25949007 -0.61229557 -0.32982698 0.01253704 -0.020631446 -0.085190296 0.4874825 0.121404015 0.9343186 -0.0344597 -0.17428307 0.51754194 0.3769698 0.17853044 0.33069846 0.4444039 -0.6208735 0.5150564 0.16096973 -0.98769325 -0.30735323 -0.28705516 0.25476024 0.20078631 0.53667593 -0.56950164 -0.62696534 -0.12150415 -0.7721426 -0.5444845 -0.22989608 -0.44189972 -0.05431237 0.01887531 0.47279745 0.09678104 0.15641357 -0.2718928 0.15294357 0.68183523 0.6477372 -0.11918581 -0.011491798 -0.06002555 -0.20528603 -0.025459323 -0.40384138 -0.06793455 0.3090998 0.4129157 0.37721217 0.22519267 0.12963703 -0.15572047 -0.67722094 -0.20214263 0.4904539
169 0.022093836 -0.012905653 -1.1726211 -0.17831132 -0.9588171 0.783088 -0.087152526 0.28903794 -0.019615747 -0.05325515 -0.57626027 -0.30994686 0.11503882 -0.2924167 0.99802214 -0.16134536 0.09000608 0.24044093 0.19609673 0.018243005 0.11250502 0.80807316 0.22762957 -0.13536623 -0.67566025 0.047582757 -0.2708826 0.72960716 -0.17847389 -0.86162907 0.032992024 0.773567 -0.40474194 -0.09970854 -1.2020121 -0.35819378 -1.1140498 -0.24853961 0.046610396 -0.7005579 -0.026936341 0.48727885 0.39449826 0.9016144 -0.05138186 -0.06821692 -0.0776598 0.24330476 -0.32307085 -0.19770624 -0.5073934 -0.29797748 -0.19271874 0.52226776 0.7206326 -0.12301026 -0.08449631 0.47193128 -0.5849062 -0.672686 1.5289302 -0.17950955 -0.4016751 0.42873892
108 0.85792655 -0.84695697 0.03550929 -0.7877972 0.638684 -0.22494242 -0.0781648 -0.7454408 0.43733463 -0.17951284 0.061555553 -0.9253747 -0.044446472 -0.760313 1.6962011 0.9453172 0.43201447 -0.118642844 0.826551 0.40650097 -0.34274504 0.5389052 -0.3151881 0.7498677 -0.49065566 -0.15466785 -0.8550234 -0.01646373 -0.19784123 1.0019708 0.30590612 -0.13462855 0.43980142 -1.318188 0.33952844 0.11496451 -0.7279372 0.42235202 0.048789624 -0.32723328 -0.040800158 0.13171533 -0.2687528 0.0090668285 -0.5167497 -0.083982036 -0.32172397 -0.11319647 0.4498673 0.24165976 -0.8075045 0.56122285 0.22141278 0.38659343 -1.4039253 -0.2650052 -0.3911794 -0.07413366 -0.51076174 -0.1720702 0.49861133 0.13990398 -1.0932051 -0.44533977
67 -0.062412053 0.37547886 -0.2525303 -0.09122769 -0.8098597 1.107997 0.30471686 -0.8362856 -0.42470858 -0.619824 -0.24767771 -0.22707316 1.005497 -0.06949478 1.2993112 -0.33553556 0.27345663 -0.39634576 0.56023663 0.6470827 1.2106776 -1.2366711 -0.47599748 -0.2152723 0.28435427 0.66477084 -1.3904841 0.48232666 -0.31989062 0.7997269 0.72160816 0.2129114 0.034571484 -0.7572518 -0.25779742 -0.032729708 -1.3400921 0.80614126 -0.19346865 -1.0561002 -0.7939526 1.0752662 -0.32583514 -1.4479164 -0.28645584 -0.4343077 1.4150198 0.49554336 -0.649896 -0.2287331 -0.13868721 -0.09911929 -0.8127619 -0.46777037 0.8211059 -0.10389251 0.4942919 -0.37102884 0.2943322 -1.0453271 1.0573139 0.45687288 -1.106736 -0.08647602
301 0.12886155 -0.4165199 0.173183 -0.6032764 0.17061721 -0.044288553 -0.079391375 -0.29479012 -0.23048489 -0.49695742 0.2998381 -0.42782974 0.23352432 -0.008949461 0.1025907 0.067347825 -0.43459204 0.06980165 0.43960196 -0.017994843 0.1302054 0.58422256 0.005512658 0.2667658 0.03152379 0.39261493 -0.095761575 0.050801065 0.0860354 -0.059261635 0.648446 0.04643174 -0.1684044 -0.66867113 0.046529654 0.35483912 -0.4617876 0.47366804 -0.5446065 -0.1791027 -0.17623326 -0.04512812 -0.24545516 -0.051953316 -0.24388523 -0.14908347 0.21148485 -0.29507065 0.44108948 0.2741289 -0.20815319 -0.05040771 -0.40963212 0.20097819 -0.28000152 0.09079892 -0.31045693 -0.22730573 -0.62726927 -0.3216919 0.14024389 0.16215979 -0.23366591 0.109536834
175 0.39144805 -0.37278658 -0.15439731 0.8696186 0.0480016 -0.030014422 0.10705777 -0.49728248 -0.4466569 0.5113891 -0.07596346 0.38365987 0.108295195 -0.12749214 0.27269605 0.42495543 -1.0182966 -0.6704166 0.6699565 0.051213685 0.8074496 0.8948664 0.29632777 -0.8671189 0.16721717 0.21599089 -0.23735836 -0.07154263 -0.5613676 -0.3425412 -0.46525627 -0.24189588 0.12426554 -0.5160716 -0.65693796 0.35281488 0.42170435 0.13679844 0.26017645 -0.92193717 -0.4742854 0.084987774 0.12640704 -0.4148391 -0.012482815 0.12102286 0.32533628 -0.36798555 -0.021677583 0.015216238 -0.532003 0.23427607 -0.34991512 -0.46126127 1.0027654 0.024659563 0.54265183 -0.4597015 -0.48429376 -0.019045921 0.18996948 0.18946001 -0.993514 0.56724375
181 0.69876915 -0.48437563 0.023461193 1.0944374 -0.03526087 -0.18982027 0.26546353 -0.41820621 -1.1107596 0.8578351 -0.049123555 0.3742754 0.21208219 -0.38827685 0.6041405 0.57230747 -1.3184452 -0.18741196 0.5284597 -0.08728036 0.8894912 0.43689317 -0.027916547 -0.58998233 -0.41901302 0.5276653 -0.39433205 0.12208383 -0.32260403 0.06824707 -0.41090095 -0.32802066 0.26304263 -0.73204696 -0.80572844 0.11940178 0.43274108 0.2044077 0.0741615 -1.0390445 -0.41642317 0.31843498 0.03548324 0.11709011 -0.15677142 0.58559054 0.7153545 -0.09271315 -0.27548614 -0.27485564 -0.3473025 0.48216882 -0.26232964 -0.7466473 0.8390556 -0.4772837 0.53895056 -0.6831521 -0.57139564 -0.46951288 0.36123905 0.6559605 -0.8602678 0.8314795
262 -0.07458866 0.34619123 -0.33318222 0.44333997 -0.7035439 -0.14265627 0.35203508 -0.73769546 0.05809582 0.97765017 -0.119824424 -0.83155066 0.38609713 0.52514476 1.4914865 -0.51600546 0.082865454 -0.5028639 -0.51131475 0.57613355 0.099935204 -0.19599724 -0.036875673 0.15057483 0.039510332 0.7697218 -0.7204212 -0.13361861 -0.45209152 -0.5642805 0.39512014 0.21358351 -0.22859684 -0.07991267 -0.19734034 -0.1569827 -0.3874596 -0.30817834 0.08101571 -0.8524509 0.3625972 0.14304431 -1.8284848 -0.44132045 0.6724115 0.17051469 0.15157881 0.3117229 0.2813365 0.20308058 -0.21973716 0.35108218 -0.77405125 0.6080359 -0.1550008 -0.25204143 0.62074214 -0.31060418 -0.085103616 1.2648842 0.48144192 -0.24775797 -0.732301 0.17582892
88 -0.3825477 -0.5482899 -0.14337577 0.5036612 -0.81032485 0.23586562 -0.19029859 -0.21138217 0.369559 0.5381174 0.185735 0.13124043 0.30872804 -0.30855483 0.18923222 0.082403034 -0.06495647 0.17506886 -0.5516635 -0.1258622 0.3105009 -0.5459745 0.405589 -0.058055207 -0.14677031 0.6940255 -0.4772786 -0.4451968 -0.786269 -0.5235778 0.64980114 0.458488 -0.0608673 -0.4209767 0.34927708 0.37836656 -0.3019496 -0.5777958 -0.49812174 -0.8621975 -0.69108063 0.19554985 -0.3638231 0.22732568 0.2616891 0.3644457 0.50215554 0.49657947 0.20581026 0.23859715 0.07456218 0.49570847 0.22658892 -0.15330811 -0.11525982 0.27842295 0.44576204 0.34106606 -0.29355073 0.25779054 1.2068484 0.3222481 -0.059702538 -0.1453943
54 0.5912819 -0.38981035 -0.5721925 -0.12383177 0.20617512 -0.48940292 0.72021943 -0.523949 -0.94233763 -0.086350344 -0.07234179 -0.3087413 -0.13279802 0.54730666 0.41662022 1.3402519 0.03070674 -0.18782769 0.19868848 0.46646905 0.57337964 0.2904961 0.63625133 -0.17818739 0.9810768 -0.1497918 -1.4127022 -0.52153903 -0.15101534 0.42022228 0.2750408 0.5191023 -0.9993552 -0.903407 0.06525748 -0.8819493 -0.00188089 -0.458854 -0.18549465 -0.13134369 0.1444807 0.69009686 0.061308723 0.5731197 -0.026933216 0.39912975 0.8102129 0.9365024 -0.19591516 -0.5670545 -0.54948807 -0.1668749 0.23753293 -0.34481707 -0.026057636 0.7373437 0.59485966 1.0375473 -0.6366171 -0.2774811 -0.29824027 -0.406973 -0.01866766 0.7654999
140 0.06610267 -0.287918 -1.2153472 0.09598139 -1.2828715 1.0240554 0.17132686 0.15613784 -0.39482298 -0.002650677 -0.3119003 0.031206895 0.3681579 -0.7089143 1.1666968 -0.23596285 -0.06264061 0.42116475 0.5944677 -0.07867568 0.17059393 0.54384977 -0.062108696 0.19465323 -0.96453285 0.29096928 -0.32298517 0.9503423 -0.00852188 -0.4216016 0.2507552 0.5397185 -0.002031424 -0.18617022 -1.1864563 -0.6747121 -1.087621 -0.3510297 -0.119262904 -0.6512656 0.30796453 0.690144 0.41381332 1.3434042 -0.03463603 0.3869596 0.35394257 0.15109214 -0.52446675 -0.23213682 -0.41433883 -0.29651874 -0.32770994 0.30614313 0.53126454 -0.30978414 -0.39147642 0.11994839 -0.5992674 -0.64829266 1.3278313 -0.16305201 -0.4966562 0.43434224
119 0.64901716 -0.25864017 -0.008234404 -0.38718116 -0.082248785 -0.39770284 0.15095522 0.115591675 -0.5118234 -0.38983238 -0.0038150658 -0.005742489 -0.016981773 0.44700813 0.08120888 0.9544272 -0.13536848 -0.05930334 0.5082295 0.36649683 0.14573182 0.26022393 0.3873189 -0.6497922 0.55077624 0.16501972 -0.94007474 -0.24801067 -0.065496765 0.16644971 0.1934146 0.4336699 -0.446087 -0.5804481 -0.22395495 -0.7616238 -0.5194226 -0.30759832 -0.4076068 0.007952276 -0.0021279282 0.53170025 -0.035190508 0.20546083 -0.28598964 0.26268932 0.6922476 0.7346655 -0.17301875 -0.018183958 -0.21472675 -0.01684134 -0.01963843 -0.43614578 -0.015772417 0.48420244 0.41648838 0.32808036 0.22421254 -0.00948219 -0.17918797 -0.6790344 -0.2661432 0.4522681
420 0.12749024 -0.39742076 -0.40864736 -0.36958635 0.113949515 -0.6692932 -0.27802053 -0.33417878 -0.20167127 -0.17665036 -0.6091806 -0.25641578 -0.017519724 0.29927588 0.04063159 0.24799 0.10727854 0.34949642 0.49834445 -0.16028856 -0.107316755 0.5605149 -0.07172075 -0.22246723 0.08400679 0.6082418 -0.6289207 0.2159564 -0.103193015 -0.6257888 0.74928445 -0.43056566 -0.039931543 -0.5603765 0.0040888283 0.23045292 -0.378873 0.054269865 -0.41272876 0.4083583 -0.012241983 -0.3631558 -0.073575266 0.103608295 0.5345551 0.2638897 0.09648895 -0.121686324 -0.056305155 -0.12939739 -0.15123327 -0.15962295 -0.080848806 0.24640381 -0.056069892 0.12012262 -0.37204 0.27605712 -0.39919972 -0.21762958 -0.27450815 0.41220975 -0.8080198 0.023132043
330 0.5480881 -0.5235115 0.14131603 -1.2174981 -0.20825379 -0.7907517 0.7905459 -0.5019923 0.8268386 -0.44730964 0.95462036 -0.1858467 -0.11050147 -0.08454662 0.550772 0.24139296 0.0052821683 -0.34338364 0.84618443 -0.39239925 -0.39598316 0.07713514 -0.40635988 0.39726934 0.23212281 0.43170547 -0.3132291 -0.18474557 0.25995326 0.04157056 0.8405851 -0.16477232 -0.3870607 -0.6396295 0.37321904 1.0041264 -0.19960976 0.9122873 -0.6570085 -0.39064264 0.27084818 0.8025621 -0.6712848 0.23901659 0.21616396 0.050391905 0.47921267 -0.5070177 0.3387648 -0.19456863 -0.7831095 -0.5075024 0.1963622 0.2789342 0.062433515 -0.18072405 -0.4337124 0.03688045 -0.48621392 -0.013629321 0.56076324 0.48740864 -0.58606404 0.61338085
58 -0.37869838 -0.19020008 -0.76560146 -0.18234047 -0.29845908 0.35517538 0.15741526 0.6255619 -0.046620525 0.09432877 -0.33738238 -0.45479894 -0.14216882 -0.22459391 0.97770566 -0.1999806 0.079464085 0.14546075 0.26786226 -0.57530427 -0.009747871 0.47613132 0.06606102 -0.7063535 -0.4278566 0.0915789 -0.4273123 0.4239039 0.14873691 -1.025246 0.086534336 1.0534675 -0.62602204 -0.006477341 -0.7631552 0.035354573 -0.5866273 0.07857605 0.034308523 -0.91615915 0.45799926 -0.0053651785 0.22956535 0.19132762 -0.58463776 -0.27481386 0.23639725 0.035591826 -0.5661992 0.25198284 -0.09413333 -0.20148866 0.23994073 0.31455183 0.7232661 0.38566127 -0.19031645 -0.0075197364 -0.37004447 -0.6166343 0.8846115 -0.48170823 -0.5623126 -0.07001516
180 0.7111511 -0.35403058 0.050210424 1.117807 -0.10277736 -0.1755017 0.2620353 -0.60669184 -1.0861521 0.81853396 -0.053531766 0.2807643 0.18463309 -0.44591445 0.63923705 0.6210829 -1.5022975 -0.17497632 0.62071836 -0.16422313 0.9512507 0.47790593 0.021414043 -0.74863416 -0.42288324 0.45931965 -0.37028283 0.010618811 -0.35539505 0.079897605 -0.54398173 -0.41443974 0.32213807 -0.7162451 -0.8176996 0.107359834 0.4568756 0.23104835 -0.016345816 -1.0912422 -0.5348071 0.40722457 0.10493223 0.15645015 -0.14153285 0.5913564 0.77160835 0.011533347 -0.25441605 -0.32605377 -0.5768077 0.55220664 -0.5083332 -0.59909123 0.8593951 -0.32265887 0.6120932 -0.6458912 -0.57972234 -0.44136214 0.33127487 0.68712634 -0.93840927 0.75535804
327 -0.34540606 -0.2008292 -0.47047475 -0.22383864 -0.10380444 -0.06503757 -0.027517904 0.054249544 0.1478269 0.46654046 0.2661332 0.0022140942 0.14775446 -0.09437365 0.16213423 -0.13887677 -0.059839297 0.013405296 -0.0963963 -0.4209414 -0.09118435 0.3378885 0.21403469 -0.024875956 -0.2832254 0.16366433 -0.53046715 -0.08731847 0.043859966 -0.39729536 0.14551993 0.5235024 -0.24744691 -0.21673584 -0.11027525 0.13359815 -0.15459023 -0.08948163 0.21617158 -0.25077835 -0.3905522 0.28082415 0.0027463306 -0.2683889 0.0471105 0.298495 0.14241262 0.32523513 -0.15235695 0.3588858 -0.3466116 0.07814396 0.35345197 0.020921929 0.013003102 0.30907482 0.50518847 -0.3323107 -0.17722182 0.6426249 0.24044658 0.16877954 -0.24291392 0.048192427
208 -0.089821234 -0.25955606 0.21020994 1.1524906 -0.01632673 -0.4326481 0.4373574 0.024341144 -0.4636189 0.10392681 0.051877704 0.48650426 0.15287761 -0.44927657 0.7294446 0.5241311 -0.5050299 0.1455429 0.29551283 0.4844178 0.92644054 0.46746236 0.32949576 -0.7718639 0.567471 0.2761351 0.08334898 0.11589636 -0.54521745 -0.092211284 -0.29762614 -0.24057095 -0.30175143 -0.85086405 -0.98584884 0.29154697 0.21642046 -0.25706682 0.18495436 -1.1609784 -1.1981956 -0.06381871 -0.29343098 -0.50566316 0.24885279 0.04800102 0.8876107 -0.3876731 -0.34747922 0.45827487 -0.6664368 -0.67908984 -0.7669353 -0.28630513 0.8539477 -0.53092366 -0.06623896 -0.43835166 -0.4468543 0.15167435 0.031408872 -0.0345455 -1.6208472 0.6248754
149 0.16426359 -0.20891288 -1.2143837 0.014452878 -1.3619483 1.0320178 0.16530967 0.2792625 -0.48101723 0.12349823 -0.4484319 -0.025830392 0.29697293 -0.75261813 1.273327 -0.21235576 0.0150351655 0.5067786 0.57162803 -0.08515733 0.15597287 0.59219956 0.019815607 0.092991196 -0.8991882 0.25291398 -0.30570385 0.9430779 -0.07400429 -0.46923453 0.121692345 0.52405745 0.042597327 -0.21794973 -1.2373066 -0.7394319 -1.0917244 -0.22525418 -0.1981056 -0.65584445 0.25072405 0.55618054 0.41501066 1.3588659 -0.08510109 0.48535162 0.28156972 0.2784767 -0.5194741 -0.42633423 -0.42721653 -0.26190174 -0.35214567 0.24712798 0.5907929 -0.42999825 -0.3739529 0.14539406 -0.48652202 -0.741916 1.4498992 0.026509399 -0.531385 0.4984878
245 0.16346951 -0.26932466 -0.35011628 -0.40561092 0.14877875 -0.54877716 -0.4046784 -0.15110746 -0.20663616 -0.20610458 -0.6967775 -0.39321694 -0.06801801 0.2340564 0.026676495 0.3346727 0.12184938 0.23184372 0.46494767 -0.07497549 -0.015816886 0.32443154 -0.045838553 -0.20993684 0.048444442 0.64621294 -0.7425746 0.0597187 -0.17786112 -0.77031267 0.79373986 -0.5582429 -0.11041819 -0.73990613 -0.021840837 0.14422278 -0.3023242 0.023053935 -0.45195252 0.44249263 -0.0051197247 -0.29430878 -0.14388236 0.03638066 0.6114075 0.17026858 0.06273788 -0.28794742 -0.07332788 -0.112594925 -0.25500318 -0.19394082 -0.18001845 0.30800688 -0.15561976 0.112694725 -0.27226597 0.42615706 -0.24792227 -0.19697294 -0.14570303 0.49148658 -0.8927238 -0.08687517
293 0.21623169 -0.38313392 0.19541697 -0.61267275 0.16427407 -0.0017530839 0.15114574 -0.25142986 -0.13122605 -0.58867043 0.19628216 -0.3888208 0.19085588 -0.0070812986 0.19663177 0.14636706 -0.47901586 0.20034577 0.42540833 0.016758084 0.10685142 0.5521955 0.051156584 0.20189376 0.13206884 0.38855696 -0.14844252 0.06838502 0.21449268 -0.1078659 0.7696155 0.055338427 -0.068742715 -0.6311299 0.026401453 0.38937402 -0.4419457 0.5195419 -0.38253644 -0.08199806 -0.24353687 -0.117116086 -0.09407334 0.05328731 -0.24171248 -0.1075071 0.12209024 -0.27067065 0.34975335 0.22907579 -0.086615644 -0.045705214 -0.51594985 0.26580793 -0.3497496 0.1324231 -0.18427952 -0.22886303 -0.4157905 -0.15344368 0.25262687 0.19578788 -0.24373946 0.20664175
78 -0.24185292 -0.11011019 -0.1258833 0.05928993 -0.22610824 -0.30655286 -0.045186028 -0.33555546 -0.21599838 0.44871834 0.18242264 0.09326503 0.3458206 -0.5809273 -0.26167828 -0.28956863 0.024472028 0.81240594 -0.16441154 -0.54064524 0.48229086 -0.089164376 -0.3791313 0.33621743 -0.15251638 0.11981737 -0.8231106 0.045926835 0.233931 0.29657608 -0.23624244 1.580546 -0.30033687 -1.4063277 -0.6955883 0.5827677 -0.18939324 0.116462834 -0.05314859 -0.11155222 -0.097310394 0.1650422 -0.7525613 -0.04714862 0.44710132 0.5855955 -0.8181741 0.123086445 -0.49576053 0.71956146 -0.47683927 -0.36697328 0.684407 -0.4324214 0.5865122 0.7816093 0.15621105 0.12729755 0.11660793 0.46348968 0.2745845 -0.17353079 -0.414426 0.13637629
329 0.4522612 -0.6418218 0.15755549 -1.1200875 -0.26688015 -0.73556185 0.6979699 -0.50368553 0.7804635 -0.6218502 0.7604888 -0.23962219 -0.030410698 0.022850147 0.4833271 0.24657728 0.031072104 -0.30540368 0.74058676 -0.34577945 -0.43202317 0.20356941 -0.30544376 0.52224547 0.24694516 0.5091941 -0.23445575 -0.26320738 0.4120684 -0.08171926 0.8023603 -0.06867261 -0.2491152 -0.7177946 0.2002485 0.9145253 -0.17456007 0.9156728 -0.54451334 -0.42453232 0.32694063 0.58766365 -0.4973696 0.23868266 0.28943777 0.0056732656 0.54337394 -0.44657192 0.440644 -0.19284692 -0.83873713 -0.3691081 0.34680742 0.20581107 0.093015656 -0.30599892 -0.46960986 -0.034708906 -0.41391116 -0.020248605 0.6213336 0.61346817 -0.5923547 0.5340276
266 -0.36004367 -0.25420186 -0.1658101 -0.041520614 -0.30092952 -0.17929442 0.004807134 0.12256351 -0.045283824 0.30356434 0.31078988 0.024252182 0.26130313 -0.02937663 0.24213165 -0.06459942 -0.14442837 -0.1582828 -0.25186455 -0.39327204 -0.12802766 0.33744878 0.21773222 -0.17390089 -0.14203578 0.19160904 -0.4132663 -0.04235546 0.09351264 -0.5572274 -0.039907455 0.3806676 -0.20890619 -0.24387471 -0.2638351 0.11194799 -0.14229022 -0.14160186 0.06329527 -0.124608874 -0.28770617 0.2874187 -0.10847965 -0.39676782 0.013586691 0.49661648 -0.20708275 0.2803296 -0.03370283 0.25436684 -0.45855117 0.06155783 0.25661105 -0.0061371583 -0.060899578 0.40160766 0.37093407 -0.24891937 -0.28944805 0.5478116 0.27664322 0.10384594 -0.20286885 -0.0074065872
342 0.21566935 -0.44299203 0.10787344 -0.64541644 0.10644421 0.034299355 0.06509092 -0.16467741 -0.2318826 -0.47007546 0.2570511 -0.42014715 0.2468466 -0.04695705 -0.017376618 0.06425545 -0.4747604 0.048432678 0.5959516 0.022382641 0.22951083 0.54134196 0.018377611 0.27926755 0.17699468 0.4478073 -0.1626013 0.1093835 0.080563344 -0.026734717 0.7894877 0.1537132 -0.103600666 -0.5864194 0.08803693 0.23332624 -0.46727663 0.43837667 -0.40922058 -0.21950896 -0.2388548 -0.32048485 -0.06883925 0.025250273 -0.27134028 0.047207616 0.06312489 -0.35217375 0.4022587 0.15658648 -0.11019311 0.048314363 -0.36299217 0.37627384 -0.41713038 0.07307136 -0.18130758 -0.2704297 -0.42058173 -0.31153244 0.12770663 0.24619946 -0.40774873 0.107165314
366 -0.17416753 0.19368806 -0.12006921 -0.58443165 0.09343709 -0.1259641 -0.028273782 -0.5380547 -0.17654195 -0.6546926 0.2068371 0.36639735 0.76713616 -0.53836244 0.37897107 0.6631594 -0.19431248 0.0946145 0.35258996 0.45923382 0.050822813 0.30258232 -0.030682217 0.92047733 0.1414964 0.8615676 -0.22173223 -0.2950612 -0.2244609 -0.26802778 1.0139439 0.47229472 -0.22911845 -0.3376698 0.09269512 0.9428204 -0.20150141 0.29537478 -0.33792463 -0.079121314 -0.62894696 -0.06275793 -0.52817464 0.13415253 -0.7349105 0.19296944 0.27133152 0.22444102 0.3903569 0.6118803 0.12591185 0.30807126 -0.72915006 0.20940942 0.40416664 -0.27760413 -1.0248469 -0.21080762 -0.52592444 -0.6324736 0.37075108 -0.010783215 -0.84533995 -0.07093487
152 -0.14684828 -0.24401328 0.22840372 1.0572555 0.045849115 -0.3497856 0.5014529 -0.06132364 -0.45943496 0.09678281 -0.0151120685 0.5474005 0.22714831 -0.45164633 0.710288 0.4941224 -0.5355453 -0.056034602 0.17088057 0.42005533 0.99297976 0.56340563 0.4015365 -0.6050194 0.48268858 0.34681088 0.0044784243 0.13288769 -0.53876776 -0.10607657 -0.20195548 -0.17519505 -0.27299458 -0.8447314 -1.0478154 0.13294281 0.3537956 -0.07337212 0.34053904 -1.140087 -1.1034523 -0.13542196 -0.30125907 -0.48173347 0.3258318 0.10450914 0.7241633 -0.39463365 -0.31866813 0.2557441 -0.59530276 -0.63747096 -0.70173776 -0.28239316 0.7947629 -0.51565105 0.10269053 -0.40968928 -0.55486417 0.072986454 -0.017596425 -0.0065745884 -1.7249457 0.5687782
171 -0.05805544 -0.33367476 0.08932193 1.0680243 -0.05880607 -0.3263726 0.37689334 -0.063509345 -0.5364525 0.026139531 -0.042121757 0.4684879 0.2607065 -0.42941552 0.63239926 0.5371853 -0.5158803 0.042351305 0.16342777 0.31186303 0.8676941 0.53980106 0.30381203 -0.6117122 0.60379523 0.3020695 0.06613573 0.20129335 -0.52948487 -0.13960107 -0.33833107 -0.26386842 -0.3825548 -0.7371941 -0.97897863 0.22673918 0.39385107 -0.23163396 0.25494966 -1.2042899 -1.2326162 -0.0417171 -0.3506567 -0.48800498 0.32764876 0.050215587 0.6985044 -0.33977336 -0.39538378 0.33442885 -0.7078029 -0.6529253 -0.6970306 -0.20457627 0.80215883 -0.58643293 0.17403041 -0.40306276 -0.49215642 0.06512235 0.053242918 -0.059429 -1.7067541 0.5620722
276 0.14983472 -0.42763823 0.2232797 -0.6807372 0.20499742 0.06394488 -0.0030389233 -0.3519277 -0.13844095 -0.5566345 0.16771837 -0.46014622 0.017155595 -0.09218052 0.07796413 0.14799997 -0.34304845 0.12757379 0.53633165 0.044953164 0.17976525 0.57518667 -0.018628595 0.33347252 0.10855501 0.41328704 -0.11228052 0.059888136 0.044092983 -0.14053673 0.7016623 0.09241003 -0.25252956 -0.55124205 -0.022242581 0.2961017 -0.40892592 0.50078005 -0.4971699 -0.16623889 -0.38572797 -0.18426387 -0.0937228 -0.028317774 -0.332276 0.020105936 0.20016156 -0.28253308 0.34785673 0.27662176 -0.12181936 0.0021685765 -0.4274658 0.3573684 -0.29582635 -0.004377628 -0.08673064 -0.24408582 -0.49453732 -0.24190791 0.06591053 0.2690163 -0.3251906 0.19777204
399 0.1413569 -0.2588088 -0.32245076 -0.34918842 -0.029125566 -0.61566126 -0.33424187 -0.3651939 -0.28060445 -0.25992203 -0.63373023 -0.32866883 -0.17685916 0.2215541 -0.039567787 0.3565979 0.017399566 0.23773766 0.4368077 -0.23340222 -0.16324733 0.3989752 -0.2514183 -0.38507023 0.007102719 0.48339733 -0.6865575 0.14267828 -0.15462756 -0.84119403 0.7429691 -0.45031938 -0.13523714 -0.64732 -0.10361565 0.30840442 -0.3011813 0.0054178894 -0.51124907 0.50535285 0.022885818 -0.293139 -0.16086407 0.07856137 0.5830195 0.19332251 0.25740808 -0.27039644 -0.011863442 -0.044909287 -0.18209776 -0.326146 -0.23070526 0.20436206 -0.20651205 0.20177369 -0.34215087 0.22952312 -0.31456894 -0.22999744 -0.07728755 0.262872 -0.7450381 -0.056042016
251 0.119812995 -0.5608879 0.04818885 -0.6498095 0.16812797 0.07716614 0.069507286 -0.2636493 -0.1849965 -0.62888885 0.12321493 -0.3811671 0.22245668 -0.024017451 0.13102354 0.113230355 -0.51134574 0.08211656 0.4381026 0.005028787 0.17009759 0.56088513 0.007969583 0.26251692 0.04888181 0.3830884 -0.09836552 0.17079233 0.07427578 0.071197465 0.6984931 0.13903227 -0.26687676 -0.59221333 0.07869226 0.28433523 -0.39557007 0.57454145 -0.42204243 -0.11541821 -0.23826766 -0.23213643 -0.15103328 0.119682826 -0.17773336 0.020059373 0.07380273 -0.324436 0.38096192 0.07669936 -0.18776469 -0.06045925 -0.50721097 0.2087385 -0.37038922 0.12434747 -0.10064926 -0.23803756 -0.41115567 -0.16897607 0.07279304 0.27743515 -0.24568354 0.18442874
96 0.032511957 -0.9408862 -0.7127597 -0.68323374 -0.082846336 -0.39396206 0.82894164 0.1864125 -0.46571922 0.6285983 0.5401526 0.0950806 0.09618695 0.3728569 0.49340025 -0.2769559 0.057100017 0.8009986 0.6787695 0.78648555 1.493203 0.3548965 0.08641013 -0.46567217 -1.1484156 0.22463177 -0.8725102 -0.4373171 0.3043188 -0.640163 -0.73637545 -0.35878298 0.29829153 0.03155258 -1.079081 -0.23238324 0.5258915 -0.9019061 -0.13151486 -0.112818085 -0.06333682 -0.117613755 -0.61307317 -0.41395694 -0.6145769 -0.35082525 -0.01999854 -0.34436083 0.48517337 -0.17467415 -0.31089076 0.33594045 -0.56338114 -0.16170269 0.27398553 0.24453358 0.6054961 -0.3997946 -0.72374433 0.26587954 0.28598452 -0.2995103 -0.5269751 -0.11199596
280 -0.5023503 0.20968652 -0.20395967 0.17601284 -0.63623464 0.12435144 -0.2807813 -0.16342385 0.52773196 0.9654515 -0.020000413 -0.15281937 0.19093923 0.40726116 0.67417616 -0.155835 0.13982102 0.00049386686 -0.42921856 0.35569435 0.15618968 0.23878059 -0.27612856 0.34532028 0.17483065 0.4456314 -0.9486578 -0.059240762 0.014557567 -0.80089086 0.087937504 0.18051635 -0.35701165 -0.22487085 -0.5197319 -0.12218532 -0.51494265 -0.12076366 0.55367047 -1.0769452 0.14371426 0.05296383 -1.392028 -0.3612999 0.32926223 0.050093967 0.68096906 0.5995543 0.728348 0.22726552 -0.2962154 0.54317516 -0.4569497 0.24268746 -0.12449696 -0.06199772 0.35016364 -0.34879288 -0.1155459 0.6479217 0.37123418 -0.04083742 -0.47976097 0.14085473
185 -0.3932917 -0.2012138 -0.065123275 -0.13945138 -0.08152808 -0.33957955 0.2594379 0.60547036 0.74792767 0.5904594 -0.04725105 0.6815646 0.40334016 -0.42681468 0.41797578 -0.7542947 -0.43289468 0.5063289 -0.1353651 -0.1484223 -0.023924923 0.35912034 -0.10061594 0.5104624 -0.063357085 0.43415233 -0.65036833 -0.66348094 -0.34727782 -0.70349956 -0.18771584 0.50854284 0.50307983 -0.9530222 -0.411087 0.10301261 -0.06258552 -0.6602168 0.030105969 -0.19550899 -0.180212 0.22667938 0.15910153 -0.10915852 0.14528397 -0.20272166 0.037381493 0.48977682 -0.18175375 0.21727327 -0.35774863 0.08397277 -0.6887588 0.59641486 -0.23428555 0.46146894 0.5607289 -0.12482005 -0.7968792 0.38844916 0.43553394 -0.5633275 -0.6918285 0.2917135
32 -0.020371078 -0.2842833 0.16990976 1.1200515 -0.0023933088 -0.30640203 0.51219016 0.034433786 -0.46044594 0.05592873 0.030527782 0.43201697 0.24012044 -0.49769947 0.7284966 0.40591207 -0.47191185 0.13140282 0.13065886 0.4565323 1.0050017 0.5044231 0.24823959 -0.6615304 0.5168427 0.3979072 -0.011906696 0.258045 -0.52363354 -0.11780852 -0.29245535 -0.29929626 -0.22053383 -0.806267 -0.881636 0.12555729 0.32227805 -0.16561146 0.11837863 -1.1802547 -1.1910858 -0.033099093 -0.4152163 -0.46032825 0.31560123 0.10919092 0.79627985 -0.3664212 -0.44456622 0.4147581 -0.67537755 -0.67640877 -0.751379 -0.32178646 0.8514533 -0.5659265 -0.07206288 -0.41165084 -0.47350928 0.12285028 -0.04165473 -0.00070014055 -1.6753618 0.6286493
192 -0.3242117 -0.2256767 -0.7993428 -0.17746533 -0.2909636 0.44359735 0.20371719 0.60398257 -0.15458745 -0.041688334 -0.39404595 -0.42412615 -0.15188006 -0.19066212 0.97014517 -0.23014127 -0.06049299 0.2248776 0.0523603 -0.5348538 0.10807372 0.4743256 0.07384925 -0.71028453 -0.47323895 0.27235937 -0.45743728 0.49886656 0.1839889 -1.0066774 -0.002703638 1.0446969 -0.66530997 -0.099195115 -0.56465197 0.0074964883 -0.62521565 0.08571907 0.058054544 -1.0269078 0.641563 0.067496 0.25672254 0.25082818 -0.5358988 -0.238175 0.17897594 0.14614332 -0.7222049 0.3025185 -0.13873167 -0.14151676 0.27284425 0.3045954 0.68336415 0.27039 -0.12773871 0.03026647 -0.44940862 -0.70117223 0.92210793 -0.5176561 -0.6002759 -0.15716437
1 -0.19389972 -0.093542 -0.38178575 -0.20814121 -0.11700009 -0.11525579 0.010961797 0.16979879 0.046844393 0.45442882 0.31232712 0.051734067 0.051778506 -0.07937596 0.12672663 -0.030927492 -0.1888651 -0.0014895528 -0.21973063 -0.4325705 -0.005404899 0.20835036 0.20832857 -0.07815425 -0.27696845 0.3146849 -0.5388449 -0.062233426 0.0036141232 -0.49609163 -0.04819662 0.5730564 -0.31695157 -0.30894533 -0.06665523 0.2227084 -0.056299288 -0.11223271 0.1272573 -0.16476022 -0.5337731 0.11484355 -0.10046437 -0.16627571 -0.1038009 0.30699712 0.0036171423 0.2729027 -0.042613164 0.08120428 -0.45950294 -0.027202647 0.3273498 -0.105381906 -0.07679233 0.32391855 0.34721583 -0.21660344 0.01658904 0.59222794 0.38095722 0.20942724 -0.21951626 0.034349434
50 -0.09011419 -0.24348643 -0.86980027 -0.45128173 -0.36850923 -0.8721101 -0.1719267 -0.19104187 0.38869873 1.0996995 0.4110502 -0.08786068 0.15626366 -0.36996436 0.91945595 -0.20576186 0.55934733 -0.19667582 -0.41295475 -0.20299043 0.1000557 0.79110163 0.50239986 0.19818258 0.23229174 0.3131531 -0.18100737 0.48641196 -0.57184786 -0.37184602 -0.64226794 0.57454 -0.11629582 -0.41858658 0.22503749 0.69441146 -0.07624267 -0.13049185 -0.32041597 0.26577365 0.262286 -0.27077317 -0.2520197 0.0390243 -0.15166058 0.025838707 0.21104436 0.8238305 0.2973878 0.44145387 -0.9325226 -0.07701608 0.047173355 -0.92399377 -0.75237745 0.54218 0.73283756 -0.69564253 -0.07637983 -0.009363635 0.41861838 -0.18933399 -0.4463848 -0.08834478
104 0.6501199 -0.3643262 -0.42516795 -0.6482641 -0.3310492 -0.89663565 0.43854737 -0.03743175 -0.12874083 -0.22592565 -0.08673802 -0.2523172 -0.48866144 -0.5510971 0.6382156 1.5174788 -0.029396651 -0.5394104 0.438894 0.50375366 -0.38286003 0.24075119 0.013664662 -0.5358158 0.15769641 0.24037215 -0.80627924 -0.18729284 -0.44679022 0.5434213 0.35952818 0.598203 -0.6139154 -0.57151586 -0.4179754 -0.031899273 -0.792807 -0.20028032 -0.51413345 0.516798 0.08472403 0.20120896 0.024870634 0.08865021 -0.37676406 -0.16147542 0.57703644 1.0821482 -0.16927154 -0.45291296 0.034213237 -0.18352976 0.26893902 -1.3950231 -0.66228783 0.33760014 1.0465478 -0.0019680185 -0.36295366 -0.10185098 -0.39273876 -1.4841616 -0.6146988 0.40570787
258 0.23508102 -0.35032237 0.17275387 -0.5516635 0.17057656 0.07282075 0.020135555 -0.19491628 -0.23559165 -0.65547353 0.23027681 -0.41169912 0.07800522 -0.054234687 0.15771703 0.11598812 -0.43429124 0.099769495 0.49921283 0.058321834 0.21140195 0.52947754 -0.03892979 0.21860373 0.10905778 0.41713667 -0.15232308 0.07295595 0.12956005 -0.01449713 0.7465287 0.07829904 -0.23359872 -0.62647563 0.033640433 0.41325924 -0.50643796 0.50961787 -0.46980205 -0.10414738 -0.2063502 -0.13272405 -0.22765556 0.08458325 -0.3917424 0.051307656 0.18882838 -0.38447365 0.38755044 0.21643013 -0.12602681 -0.020754056 -0.4562369 0.31744483 -0.3748275 0.2601956 -0.23146707 -0.367247 -0.5851759 -0.22475904 0.04842479 0.24854232 -0.2607091 0.15799001
371 0.16073053 -0.3246319 -0.37711614 -0.383165 0.04078239 -0.6220565 -0.25016388 -0.27348146 -0.31606397 -0.19365893 -0.69523346 -0.2527657 0.074861266 0.24199104 -0.034623053 0.32321277 0.11965345 0.23315534 0.32617518 -0.11122647 -0.06132232 0.48456055 -0.12923002 -0.26127738 -0.011304279 0.73685807 -0.7290502 0.19203094 -0.1835291 -0.8114193 0.77017504 -0.47944143 -0.106931925 -0.6476333 -0.09483689 0.19726418 -0.27812126 0.1926347 -0.41742027 0.43707523 0.021255502 -0.3081517 -0.121868305 0.095731035 0.5034502 0.29310736 0.13403863 -0.17528988 -0.004921873 -0.0831945 -0.122111015 -0.2736654 -0.086558476 0.21640353 -0.113648444 0.022602158 -0.42027715 0.40074515 -0.39512703 -0.1812329 -0.34621835 0.48055398 -0.86276764 -0.016008306
66 0.5048034 -0.30480915 -0.14329137 -0.44576046 -0.2333519 -0.5073027 0.2505014 0.11621371 -0.5770819 -0.5559781 -0.0755405 -0.12381678 -0.0845834 0.41349483 0.06700144 0.96921235 -0.2306023 -0.1088153 0.47940207 0.30058298 0.10062063 0.31410956 0.532165 -0.6654543 0.45157653 0.14505047 -1.0013655 -0.40483758 -0.26889315 0.23834388 0.17913122 0.45840645 -0.39722416 -0.67570806 -0.07057707 -0.7999231 -0.4972786 -0.16864985 -0.30043158 -0.08296453 0.10297668 0.3211247 -0.016445318 0.14085755 -0.2403584 0.29955146 0.56412035 0.7128083 -0.17275175 -0.002623362 -0.23256193 -0.23443295 -0.098284855 -0.45897827 0.029696774 0.28217328 0.56529623 0.28373706 0.17639126 -0.048368562 -0.22953773 -0.6374192 -0.09563462 0.5124154
186 -0.82844025 0.32119605 -0.637879 0.021624628 -0.56216556 -0.099493966 -0.37081948 0.33071488 -0.33269894 -0.22677338 0.15385287 0.45315027 0.21028037 0.05955401 1.5149935 0.40307617 -0.071458995 -0.36374506 0.30179286 -1.0535746 -0.059956778 -0.057421822 0.2718234 0.21346267 0.021111907 0.3558895 -0.8233128 -0.38473663 0.106862985 -0.2727685 -0.10150889 0.91565704 0.40625936 -0.14966856 -0.6675379 0.064513214 0.6056594 -0.3130549 0.12527743 -0.4171387 -0.5259439 0.277225 0.22526921 0.3415525 0.24296248 -0.0050613177 0.053034976 0.44758993 0.52334887 0.9046565 -0.14932391 -0.1202296 0.05425448 -0.62937725 -0.68917334 0.68758005 0.42679727 0.1741585 -0.3122433 0.6188031 -0.16378562 0.68298614 -0.74113566 -0.16552708
205 -0.71282816 -0.23519522 -0.44555533 0.24020375 -0.19520883 -0.20508355 -0.13977486 0.16479783 0.12779681 0.45355535 0.29789037 -0.57865345 0.21384417 -0.34155858 0.36645144 0.028722545 0.41293153 0.16115461 0.21128704 -0.35026935 0.20936303 -0.23415893 0.24869995 -0.5479536 -0.59037066 -0.1131239 -0.58169824 0.46981695 0.18010333 -0.5099305 0.35709652 1.1848055 -0.25882494 -0.42612535 -0.64903516 0.3122433 -0.34312963 -0.0070033814 -0.29274738 -0.96844447 0.11047788 0.10138264 0.59146935 -0.4977291 0.09908054 -0.05828394 -0.07360871 0.13257784 -0.31531447 -0.11702634 -0.45672762 -0.11431707 0.26787424 0.7359886 0.28713506 0.5054465 0.107475415 -0.2690592 0.072127335 0.4082951 0.1962396 -0.5788376 -0.074713334 -0.21450299
244 0.2564477 -0.21692656 -0.44328436 -0.340213 0.028191205 -0.47987926 -0.25684345 -0.3043543 -0.24109197 -0.293596 -0.65416634 -0.24032614 -0.090218134 0.13569173 -0.04274468 0.2884122 -0.03548023 0.40418836 0.44617945 -0.0019995268 -0.06156768 0.5378138 -0.069587894 -0.3280515 0.06461613 0.4963307 -0.64564687 0.22772959 0.017842414 -0.7547114 0.87039286 -0.38774738 0.07691192 -0.61501217 0.08563659 0.28959402 -0.2636044 -0.013263224 -0.56003606 0.34977177 0.087098874 -0.3111619 -0.10201723 0.07211568 0.61352235 0.3755453 0.15334366 -0.11545904 0.05975284 -0.13510315 -0.17958483 -0.1461646 -0.21873114 0.30002826 -0.040261112 0.212821 -0.37397498 0.1269062 -0.35522488 -0.090256244 -0.32583597 0.416343 -0.902953 0.0025213608
153 0.6437373 -0.8926485 -0.038890928 -1.1337663 -0.5023737 -1.245511 1.5437887 -0.5821303 0.6572729 -0.8809694 0.23348728 -0.32291794 0.14529161 0.47288805 0.24791414 -0.12346685 -0.32987273 -0.5796528 1.1061059 -0.8035452 -0.30867413 -0.25417686 -0.2856321 0.22931072 0.17446175 0.24423952 0.15709022 0.19411948 0.27463183 -0.09101428 0.5182605 -0.15528178 -0.5191645 -0.87695825 0.21296975 0.99890274 -0.26443708 1.2807367 -0.25427207 -0.14073068 0.5262465 1.2615644 -0.8025952 0.54352593 0.8683777 -0.3822885 0.5787216 -0.38845983 1.1560943 0.11874665 -0.9044839 -0.25952658 0.22703458 0.80484056 0.20768006 0.2334544 -0.49747485 -0.06616129 -0.35292482 0.19310531 0.6843187 0.1338225 -0.9341054 0.44979525
18 0.37370384 -0.48036906 -0.048767846 0.8234995 -0.034290493 -0.109775424 -0.026251933 -0.45072562 -0.40269357 0.3436784 -0.13695456 0.31049502 0.011782006 -0.12992734 0.29533774 0.46335685 -1.0504321 -0.6618055 0.56404966 0.06299326 0.7073452 0.94182044 0.31792846 -0.86875755 0.12552595 0.16550559 -0.30041397 0.091077015 -0.60974634 -0.1389501 -0.37016097 -0.35421398 0.18856479 -0.597001 -0.71286744 0.38308573 0.48320824 0.08961838 0.34483635 -1.022837 -0.5514032 0.10215346 0.24708478 -0.45239204 -0.08246334 0.11958288 0.35065055 -0.4352301 -0.12407552 0.008525285 -0.67968845 0.11585765 -0.4445284 -0.43277565 1.0716871 0.092327185 0.52229625 -0.3789179 -0.51311815 0.09836311 0.2821183 0.26932824 -0.93384933 0.58493394
201 -0.063931264 -0.25666493 0.25377694 1.0355006 -0.091731355 -0.27840793 0.37457168 -0.04707811 -0.37424764 0.030925976 0.03097258 0.54128444 0.21951774 -0.58055 0.68772614 0.6417066 -0.46051422 0.04646886 0.24386293 0.52785516 0.89946795 0.47769034 0.21997464 -0.71513104 0.58096254 0.24368393 0.009858573 0.17470518 -0.41908717 -0.11460636 -0.1946463 -0.23228048 -0.26460442 -0.8116739 -1.046713 0.19616182 0.29449978 -0.13036971 0.26927552 -1.1897472 -1.1617299 -0.13695687 -0.32449862 -0.36042994 0.34805873 0.11509761 0.78333634 -0.3164819 -0.3801472 0.4137889 -0.7297308 -0.6078863 -0.7266676 -0.32134926 0.82992345 -0.6971833 0.046488073 -0.49236768 -0.46922964 0.1535985 0.07452991 -0.06478016 -1.7062477 0.4922588
450 0.28674766 -0.410784 0.22266842 -0.6035981 0.11316691 0.03609388 0.032414712 -0.29884002 -0.23227961 -0.42806482 0.30207315 -0.3972731 0.17221834 0.040721834 0.08793702 0.024738783 -0.44643348 0.14711078 0.5269884 -0.08540153 0.14490707 0.4447812 0.0582029 0.2343685 0.13832471 0.40959018 -0.22604997 0.25543347 0.09369363 0.11089727 0.6168145 0.05485418 -0.26658523 -0.50007486 0.10138617 0.47839954 -0.4580895 0.41176352 -0.50836295 -0.14998913 -0.2825417 -0.11822527 -0.12252934 0.15485607 -0.3321257 0.082259074 0.099201605 -0.32760233 0.40817913 0.1684359 -0.25117555 -0.09097751 -0.5169341 0.18467066 -0.46914956 0.19030102 -0.26976472 -0.22271682 -0.6049632 -0.29523596 0.20560579 0.23610616 -0.24224068 0.071790285
191 0.1399053 -1.1164246 -0.8399081 -0.6643097 0.01481755 -0.35381195 0.7183954 0.08528901 -0.32553425 0.43810165 0.343392 -0.03753715 0.072120465 0.4968633 0.39060467 -0.27594712 0.16834998 0.80375814 0.6405497 0.6092489 1.5008453 0.321179 -0.20675372 -0.388495 -1.060479 0.22634488 -0.8004364 -0.3958368 0.24618874 -0.5738396 -0.74557114 -0.12341063 0.42621508 -0.00045166916 -1.0006707 -0.17567684 0.61327326 -0.93249404 -0.21806423 -0.035583284 -0.15287398 -0.060241368 -0.6745033 -0.32058686 -0.7301055 -0.43570536 0.048860464 -0.24226117 0.549996 -0.09666361 -0.24050868 0.4018235 -0.621591 -0.39298326 0.44169024 0.12354808 0.44378382 -0.5347016 -0.5319974 0.31219453 0.35937244 -0.26332283 -0.5249897 0.03498337
154 -0.0599716 -0.16189225 -0.43800193 -0.30272812 0.1992639 -0.56220007 -0.27016294 -0.31399634 -0.22397302 -0.20280531 -0.63992083 -0.29843068 -0.06417736 0.23717411 0.053647693 0.3303926 0.11063567 0.26728034 0.5650733 -0.12809102 -0.117537744 0.5355181 -0.17507336 -0.27287325 -0.011202018 0.4201651 -0.6146324 0.0783455 -0.053237863 -0.6243236 0.84152925 -0.50402105 -0.1075969 -0.63667065 -0.009453718 0.10083202 -0.37373585 0.011408406 -0.40299147 0.38635156 0.17583187 -0.3100361 -0.16516764 0.1506959 0.62418103 0.23496445 0.1277902 -0.112807766 0.022571083 -0.06509469 -0.2553285 -0.19359665 -0.3009962 0.1358711 -0.035765976 0.22478937 -0.39519584 0.23972191 -0.37491322 -0.19618787 -0.111776315 0.4289015 -0.8485949 -0.075677924
