468 64
462 -0.053431135 -0.102115825 0.392499 0.3846276 -0.18538667 -0.35320508 0.3890072 0.041517712 0.16724265 -0.21749194 0.22761872 -0.27343944 -0.46329975 -0.10393766 0.07647661 -0.124989025 0.24220048 0.13005246 -0.72990906 0.27766523 0.37626246 0.59960085 0.03141303 0.36060867 0.3714033 0.18102774 0.06573646 0.3763073 0.058250625 -0.3337979 -0.15142411 -0.11370488 0.14566042 -0.07507278 0.17723441 0.041574106 0.33336893 0.06116139 0.06786999 -0.030762084 -0.45764574 0.1587855 -0.35208532 -0.3248803 -0.27567163 -0.1282486 -0.08178283 0.44306257 0.4426149 0.15813105 -0.33310786 0.42563686 -0.2480313 0.22648296 0.4057089 0.26592168 0.18429117 -0.22999096 -0.29824853 0.4469723 0.05434121 0.057625115 0.48157048 -0.1892996
247 -0.21285357 -0.2537805 1.1187537 0.8890355 -0.5425355 -0.17087996 0.22184366 0.045258604 0.20076235 -0.7541077 0.028262114 -0.13379396 -0.10659455 0.20157929 -0.03767118 0.23544067 0.124424756 -0.11473398 0.34098104 0.6476154 -0.46148044 0.3610636 0.6022853 -0.11593425 -0.5632212 0.2457172 0.028437989 0.18550664 -0.28727642 -0.7965657 0.16492602 -0.10907179 -0.44037905 -0.27400306 0.00058601995 0.39415878 -0.13967079 0.08286607 -0.33223164 0.62406534 0.028711606 -0.06960776 0.33777398 0.091676965 0.09153885 -0.2340715 -0.117375456 -0.4466316 0.046522725 -0.09323168 -0.2948667 -0.054195385 -0.10011015 0.49097314 -0.040728264 0.7547178 0.30287638 -0.34670746 -0.10554138 -0.057307366 0.52551895 0.21307687 -0.46898752 0.15348424
465 -0.13529524 0.21736431 0.66858244 0.15800203 -0.2060005 0.40100202 0.16025627 -0.5929251 0.13665634 0.12638271 0.11943817 0.009115986 -0.25970894 -0.19000982 0.2708906 0.013922829 0.3937657 -0.40389162 -0.0686503 0.23804055 0.021071227 0.54420567 -0.25107142 -0.08578628 -0.2701827 0.6647186 -0.44001833 -0.089729704 0.43204433 -0.61925495 -0.1574697 -0.5160939 0.049154047 0.31436262 0.33544865 -0.80357647 0.7171708 -0.36271024 -0.21177141 0.5817563 0.06169729 -0.4224265 0.2470495 -0.37723622 -0.26473114 -0.14254548 0.28131682 -0.4542099 -0.19830441 -0.043612033 0.3731349 0.16887906 -0.20191507 -0.23098178 -0.2620558 -0.021712998 0.48423675 -0.35923538 -0.1641347 0.40342525 0.2921809 -0.8009032 -0.116910435 0.3007475
467 0.30334827 0.13503121 0.30091587 -0.16875848 -0.41934195 0.008877116 -0.22183622 -0.5688884 0.52098596 -0.13481253 -0.52055067 0.30172542 0.056677535 0.21476582 -0.40942094 -0.053574 -0.43511134 0.38485804 -0.1124795 -0.12222634 -0.2508258 0.80140644 0.10914502 0.57533306 0.0032783397 0.19773568 -0.25130993 0.06742091 0.5529078 -0.13646618 -0.3464525 0.24119093 0.11383435 0.6425397 0.37192154 0.683038 0.4119441 0.48235476 0.027799249 0.4170418 -0.26751482 -0.3686344 -0.14011514 0.008732792 -0.12671329 0.36433032 -0.31031328 -0.29057363 -0.27218014 -0.011531984 -0.44743797 0.6187239 -0.7142577 0.051500056 -0.38039652 0.60995406 0.69769025 -0.055912156 -0.0844443 -0.14150777 0.4588554 0.28796184 0.18409942 0.34379646
436 -0.4208917 -0.39249668 0.47199765 -0.44354016 -1.3355094 -0.4651132 0.24475747 0.27270332 -0.050657917 0.4016324 -0.013337064 -0.06917041 0.018671297 0.15536661 0.3421175 -0.32592297 -0.37518317 -0.5983248 -0.5350501 0.12496907 0.2581631 0.100734696 -0.08326383 0.5666729 0.07334877 0.42103112 0.10900359 0.34762383 0.7870484 -0.46613994 -0.12308772 -0.46373716 -0.07545442 -0.24174927 -0.0447748 0.56448 -0.44525662 -0.08028554 0.65818024 0.41461158 0.29923004 -0.31638324 0.47517174 0.27905115 0.04316821 0.7631547 0.53194416 0.07731265 0.35641852 -0.095940545 -0.2502453 0.50414777 -0.51801693 0.08533548 0.6351081 0.44464117 0.29422188 -0.17105795 0.47392732 -0.16502306 0.92558724 -0.6086348 -0.27101812 0.3605589
317 -0.17440167 -0.42672932 0.50267553 0.64432555 -1.0293287 0.1409188 0.57368034 -0.415308 0.8499561 -0.01693425 -0.14003988 0.07194752 0.93578166 -0.38218373 0.39217559 1.104961 0.19658813 0.3999098 -0.32183546 -0.11479473 0.43247038 -0.024699166 0.17988966 0.76490927 -0.5055941 0.13601446 -0.72523403 0.43074986 0.7324823 -0.72658825 -0.04236936 -0.9714421 -0.9502111 -0.37882128 -0.022600042 1.1464767 0.510173 -0.2834458 0.5181762 0.5143325 0.06647424 -0.18253379 0.34957692 0.030516936 -0.18758483 0.22155556 0.60783887 0.2557291 0.026232403 -0.79325694 0.6372058 0.10107824 -0.47297224 0.54126745 0.08274521 -0.30862135 0.16187203 0.8231475 -0.63302356 0.538319 -0.66246384 -0.4215642 0.2999003 -0.08081272
428 0.051411327 -0.72852856 0.7359247 0.11348339 -0.42060798 -1.2343587 0.0224509 0.013483132 1.2067059 0.13475522 0.17247193 -0.08788584 0.25734428 0.45247862 0.51969844 0.035357572 0.013713566 -0.39257348 -0.707907 -0.5370226 -0.19511916 0.46904334 0.28561363 0.040870216 -0.82450616 0.5836762 0.36988473 0.10027504 0.27470335 -0.076665305 -0.17623125 -1.2265441 -0.73400515 0.46162358 -0.5019577 -0.07838222 -0.26436704 -0.44515628 0.99400634 0.71929276 -0.096607044 -0.771257 -0.3583086 0.5356224 0.48915252 -0.19996512 0.1738636 0.03320801 0.058429845 -0.040260587 0.10051472 0.022269404 -0.34537685 0.57356256 0.17189515 -0.10029951 0.8176571 0.03774159 0.07216098 0.41058445 0.32336077 0.19573212 0.6075018 -0.42673296
460 0.03885867 -0.65158236 0.023266083 0.26013175 0.19957317 -0.20612584 0.6182687 -0.27517128 -0.33193243 -0.4777797 0.3659063 -0.5119939 -0.7082958 -0.1469666 -0.067477815 0.07359595 0.06941276 0.41675195 -0.63146335 0.4475712 -0.373783 1.5721507 -0.6447172 0.1889276 0.36563236 -0.17379293 0.5356157 0.776361 -0.48663893 -0.7365432 0.049346987 -0.36313483 -0.6923361 0.04895388 -0.059452444 0.11464901 -0.09957081 -0.5854894 0.49989995 -0.28291246 -0.88109875 -0.38148847 0.09688775 -0.39612073 -0.046996087 -0.03976349 -0.26568425 0.02278198 0.29480273 0.39218915 0.22105148 0.5563464 -0.88469815 0.40424925 0.43029755 0.0975689 0.2611007 0.0040061953 0.10047555 0.26392183 -0.044686776 -0.14387543 0.3567388 0.3433779
431 -0.027983608 0.00985122 0.501132 0.1919331 -0.38805375 -0.6723163 0.18068336 0.037006304 0.5434019 0.0036247766 0.25917983 0.1786837 0.21916881 -0.17391 0.47715184 -0.27458704 -0.1439762 -0.60556495 -0.64338213 0.015913589 -0.04754297 0.34873214 0.039559953 0.659197 -0.6018081 0.62078065 0.21923882 0.3497219 0.6875562 -0.1736029 -0.4265157 -0.8395532 -0.30038956 -0.51125634 -0.022457097 0.17833751 -0.09980613 -0.09997165 0.7436092 0.3664355 -0.07362001 -0.45728996 0.13773076 0.4693433 0.8532768 0.23378381 0.2579143 -0.42103997 -0.10543 -0.60193336 0.38538215 0.23765735 -0.045786995 0.48876566 0.30902296 0.008207726 0.52728426 0.20239706 0.16684373 -0.113617405 0.015905317 0.22043948 0.31291932 -0.32129186
216 0.19192119 -0.18553622 -0.03961761 -0.032650687 0.090891965 -0.2574249 0.77096033 -0.08346621 0.5086642 -1.1866204 0.30239254 -0.06716545 -0.10618993 -0.6047802 -0.01724998 0.35644874 0.15646602 -0.44964284 -0.44735843 0.38327694 0.85055804 0.7272157 0.41486758 0.32709923 0.5226756 0.57114244 0.14821263 0.46983835 -0.12873578 -0.3937399 0.32442927 -0.14409484 0.2232083 -0.25238422 0.192667 0.04058768 0.5254152 -0.031174183 0.32544285 0.2989831 0.02401846 0.37952504 0.024354696 0.17679404 0.17408288 -0.27324942 0.05421121 0.54532653 -0.18901327 0.94782144 0.030186942 0.08662932 -0.33642253 0.2679829 -0.13068724 0.45237866 0.54781973 0.34149617 -0.48138306 -0.9090298 0.4510723 -0.82756555 0.7010476 -0.49687114
419 -0.40378517 -0.17972687 1.0274559 -0.119082585 0.57503146 0.18332328 0.2571047 -1.2245922 0.31881365 0.3884246 0.40086597 0.3581318 -0.13475929 -0.16982888 0.012410701 0.18033539 0.36999443 -0.47583842 0.028373385 -0.806542 0.42777982 0.19500254 -0.1291771 -0.27407753 -1.0310463 0.21671538 -0.5308455 -0.34229603 0.33617365 -1.0447242 -0.027764875 0.062297456 -0.3268824 0.2316614 -0.122904375 -0.46790016 0.90496564 -0.12688926 -0.15522876 0.18657446 0.4492875 -0.39248154 0.40503708 -0.0120106395 -0.2864422 -0.1872775 0.26420185 -0.41186604 0.29598045 0.53215456 0.025918249 0.091591045 -0.6066603 -0.07501329 0.021472957 -0.07403597 1.2049992 -0.53632796 -0.72797304 0.45715588 0.7113033 -0.69288576 0.010823498 0.669479
466 0.299222 -0.1492509 0.04270953 -0.2788959 -0.18259011 -0.40775093 -0.48604313 -0.6056734 0.73518384 -0.8986968 -0.25231323 0.20640936 0.017819759 0.064048484 -0.17703716 0.37296844 -0.9827359 0.102337055 -0.07287971 -0.5795953 -0.1158225 0.93668973 -0.2530585 0.38450745 -0.14844811 -0.15217753 -0.32689 0.285169 -0.12876298 -0.11870986 -0.49346402 -0.14496802 0.56513447 1.3466196 -0.55134636 1.2848501 0.44510737 0.2791138 -0.3918152 0.14255671 -0.30035746 -0.023631094 0.0081068305 -0.17635296 0.18984252 -0.26224148 0.1344019 -0.59527725 -0.07570602 -0.24862963 0.34435612 0.9491023 -0.86078244 -0.00456559 0.1300591 1.0311476 0.9624011 -0.02618337 0.05821687 0.08784091 0.5069689 -0.0066342927 0.52587026 0.5395002
454 0.7458921 -0.5386505 0.95012325 0.996107 -0.8145618 -0.77756983 0.8985495 -1.0617956 1.0694984 -0.41297713 -0.28639677 -0.54105985 -0.2071115 -0.03606805 -0.9714184 0.9575169 -0.39281866 -0.22223657 0.75418705 -0.8666038 0.89055973 -0.0862288 0.9915645 -0.47546792 -0.8354251 -0.5185263 1.5679971 0.28149125 0.53499126 -1.6153501 0.38374674 -0.30892363 -0.5359045 0.099999905 -0.3555637 -0.5550753 0.7526524 0.23822014 -0.035148706 0.6704194 0.016492942 -0.42004988 -0.83633924 -0.9415272 -0.45810556 0.18176194 1.6698886 -0.0007864791 0.036904167 0.67950374 -0.57341623 -0.69179225 -1.0188491 0.0075062616 0.11369732 -1.0407939 0.36401606 0.14291309 -0.47664458 -0.89413935 0.71361345 0.26344764 1.4920343 -0.2759036
435 0.9801309 0.3026009 1.4564633 0.78380126 -0.93467534 0.47342703 -0.3689421 -1.5948627 0.8477736 -0.5211343 -0.6180684 0.12264911 0.35787046 -0.9719206 0.58620244 -0.7466326 0.02173849 -0.45345563 -1.1668901 -0.10231838 -0.052460916 -0.5614001 0.42152432 0.005100244 -0.99237704 -0.5168376 0.7634248 0.8974084 -0.28090534 -0.56900704 1.2897153 -0.014313153 0.06157786 -0.3585178 -1.1950996 -0.015921274 0.12611173 0.9259553 -0.6333118 0.32476598 -0.092811905 0.58314365 -0.49449366 -1.1195179 -0.99679184 0.18062477 -0.09857073 -0.23378916 -0.39139777 0.40925434 1.1254574 1.8671181 -0.8059887 0.00470925 -0.9231286 0.9496782 1.4400839 0.0084688235 -1.1844269 0.5074942 0.30623263 -0.46054167 1.3726727 0.8784542
211 1.2786958 0.25240976 0.9367773 -0.32484308 0.67820704 -0.3257917 0.4656922 0.3261623 0.17604908 -1.1061656 0.18647891 -0.29042625 0.062780425 -0.49871522 0.09855104 0.48818943 0.4948984 -0.37133935 -0.29329225 0.24166638 0.30447072 0.663524 0.58250564 0.009547614 0.687961 0.86256474 -0.6023911 0.39945823 0.14438233 -0.882196 0.1051627 0.8947911 -0.17228168 -0.58199376 0.0738169 -0.06786658 0.22836655 -0.7021958 0.54516125 0.4118643 -0.424676 -0.49332917 0.8934482 0.21134451 0.55675334 0.2028316 1.1603788 1.0042641 -0.41873756 0.87932223 -0.06320684 0.3775046 -0.24549541 -0.123126335 0.17436035 0.9232766 0.81804556 0.8829941 -0.8774443 -0.16874331 0.78787977 0.44403672 0.9940764 0.3654811
421 -0.27694964 0.21973164 0.810913 0.30924666 -0.6465527 -0.6879669 0.44356862 0.06656198 0.5743585 0.0558281 0.05438503 -0.13575687 0.48963192 -0.8238277 0.42725962 0.7935495 0.050951794 -0.21309985 -0.28064463 -0.11863772 0.11766582 0.114967406 0.18627465 0.69602305 -0.3709057 0.76439327 -0.09411712 0.9143918 0.4198226 -0.33624747 -0.40344328 -1.1240922 -0.49867448 -0.69680077 0.25453123 0.66623944 0.13571817 -0.1463638 0.11063982 0.00084048766 0.17139092 -0.559283 0.21996753 0.5668757 0.4571064 0.53098416 0.00929937 -0.20854762 -0.07363394 -0.71392715 0.5179657 0.16564377 -0.76136446 -0.1451722 0.07465076 -0.41348198 0.03199958 0.60029113 -0.14037241 0.22609188 -0.020636996 0.018835794 0.09895046 -0.060892414
402 -0.32616642 0.67544895 0.01355846 0.72431326 -1.076728 0.36467046 0.35084942 0.40486044 0.35463887 0.080413066 -0.3271324 0.9602321 0.63279074 0.14139253 -0.06661076 0.3236045 -0.72147 -0.20641899 -0.7898463 -0.94303626 0.22548042 0.15345237 0.2656669 -0.15850809 0.6124782 0.73105425 0.21460618 -0.22241457 0.37082908 -1.864951 0.25225225 -0.43925908 0.32072258 -0.2664325 -1.3268352 0.21526669 0.3319599 -0.26087716 0.850072 -0.3141276 -0.24509075 -0.6851452 -0.15933423 -0.48992303 -0.6198863 0.61395526 0.7969085 -0.23501948 0.45039308 -0.3082312 0.49811712 1.0749621 -0.9518916 -0.29784057 0.43176177 0.515453 0.39692676 -0.7544352 0.09834661 -1.0654447 0.37923133 0.078481674 0.13016874 0.58430403
234 -0.41934586 -0.029762778 0.8698671 1.0380003 -0.47947162 -0.13847502 0.8327771 0.33409163 0.42008585 -0.5669309 -0.02923589 0.4070653 0.12716274 0.7929481 0.745307 0.28034425 -0.18250442 0.33391982 0.2361381 0.683262 -0.35073775 0.21455473 0.19469692 0.3515942 0.012766305 0.21272376 -0.04577353 -0.19807269 -0.05335405 -0.16639404 0.48698005 -0.17048359 -0.58205396 -0.1146874 -0.11148948 0.13586749 0.24958277 0.17405778 -0.42189226 0.712379 -0.07535877 -0.13186017 0.095014974 0.46435082 0.1071954 -0.6453921 0.26476043 -0.65886635 0.11639521 -0.05667083 -1.072599 0.26803622 -0.65993077 0.99681795 0.707213 0.7565985 0.7049193 -0.78408194 -0.22029413 -0.60942924 0.08739074 0.06864058 -1.1357735 0.19476488
434 0.04757404 0.29666495 0.4649954 0.01952507 -1.4990882 0.14607552 -0.3805704 0.012882984 -0.48324555 0.24536556 -0.46394056 -0.1432071 0.29852584 0.631306 -0.0038329272 0.06752126 -0.3582418 -0.33974794 -0.9965593 0.15526286 0.3090184 0.17473409 -0.17655587 0.08082752 0.07794055 0.098826945 -0.25452235 0.4808557 0.67380226 -0.96907645 -0.09621751 -0.36556923 -0.0014810535 -0.12817863 -0.85019535 0.23343113 -0.31574157 -0.21267343 0.6014151 0.29667705 -0.14824866 -0.0028286753 0.2841297 0.46714556 -0.14448808 1.4743696 0.55210316 0.12891184 0.4306001 0.19710869 -0.016167575 0.19999644 -0.54522 -0.04989574 0.6250257 0.35495666 0.27027115 -0.22315373 -0.117678426 -0.60213804 1.1126764 -0.6064356 -0.18844932 0.23233455
403 0.10860412 0.4608112 0.80632734 0.26354885 -1.0185372 0.2921426 -0.055238158 0.2477599 -0.59144074 -0.3070633 -0.12104298 0.40284625 0.38051972 0.3737763 -0.16760862 -0.08833921 -1.0493691 -0.036663122 -1.1023227 -0.42026263 0.43733606 0.1980973 -0.052793413 0.23271252 -0.04221651 -0.061579388 -0.28407782 0.52285385 0.16742104 -1.2073383 0.23909035 -0.30733767 0.5293538 0.019057628 -1.6621172 0.54522794 0.38161737 -0.19855577 0.52914613 -0.15113133 -0.16723682 -0.0013836044 -0.14874604 0.14929713 -0.24140732 1.2633798 0.8024629 -0.16742322 0.03140923 -0.10007986 0.39360687 0.7245334 -0.9041407 -0.2119528 0.58598816 0.13910817 0.3256743 -0.5499106 -0.603484 -0.8723355 0.43483186 -0.4213195 -0.45993757 0.6771013
456 0.34795 0.21759588 0.6690673 0.34723833 -0.062234517 0.0747137 0.24901852 -1.2993954 0.09598977 0.584763 0.009950823 -0.20023191 0.23486653 0.2508701 0.6143713 0.18444423 0.24885997 -0.22547154 -0.032242354 -0.05476555 -0.072607964 0.5655051 -0.6338266 -0.27298295 -0.9389692 0.602721 -0.37781727 0.30444995 0.5149902 -0.49077114 0.45566645 -0.38837627 -0.037578907 -0.34749377 0.2122322 -0.9248974 0.68781537 -0.8296348 -0.17459778 1.1929669 0.029775256 0.066632666 0.0520148 -0.7818293 -0.060900077 -0.36232585 -0.35201734 0.4066354 -0.49080613 0.43078443 0.43077773 0.51114297 -0.63166237 -0.4947489 0.1399703 -0.10218079 0.6190987 -0.2575302 0.022696922 0.41593924 0.38186705 -0.5695217 0.26449844 0.7300162
214 0.7777782 -0.03149788 -0.0061920346 0.23089115 0.86770916 -0.5965212 0.49903935 0.12519093 0.3786777 -1.3415459 -0.09275626 -0.11132191 0.1878486 -0.23798175 0.007060843 0.6372306 0.376062 -0.30503803 -0.13323425 0.38742948 0.44789857 0.8972155 0.4112175 -0.055758595 0.72209305 0.351572 -0.18108442 0.54065406 0.18324764 -0.8381498 0.05260603 0.24505508 -0.03241953 -0.4259261 0.17245972 -0.08406969 0.47197688 -0.3908798 0.32510257 0.7214091 -0.0043703797 0.5543096 0.48616716 0.19418055 0.27906105 -0.099611804 0.83305025 0.5620347 -0.22524741 0.85687506 0.081982195 0.30062658 -0.35021055 0.011116727 0.0040721414 0.7677983 0.53757226 0.6411736 -0.31475118 -0.59967035 0.60200626 -0.24013892 1.1869782 0.21433969
240 0.025985163 -0.23954085 0.13709408 0.52514094 -0.30522364 -0.46187288 0.339969 -0.10438842 0.1959672 -0.65792835 0.27537403 -0.058878195 -0.05403635 0.06849022 -0.12606855 0.43949386 -0.11855863 -0.57458526 -0.21766807 0.51138985 0.7635565 0.63178676 -0.19687167 0.31089073 0.4184324 0.25934392 0.27344793 0.56364995 0.06875556 -0.22589257 -0.050930444 0.08326736 0.6147932 -0.6375938 0.072679296 -0.2746066 0.23436102 0.17030646 0.32210323 -0.3641323 -0.21186048 0.00027520556 -0.68263626 0.116949305 -0.18369788 -0.2885138 -0.07748128 0.7698964 0.06985863 0.6239233 -0.00091563805 0.052612644 -0.3574545 0.14574376 -0.322876 0.4012889 0.6832739 0.22951448 -0.7566444 0.4635244 0.18221357 -0.37258038 0.35166234 -0.41029707
338 0.947692 -0.097918846 1.1758589 0.7108294 0.9328173 0.22408786 1.3607925 -0.27961588 0.5577526 -1.3511121 -0.34234795 0.16509515 0.5866624 -0.69827986 0.27512744 0.46189123 0.5762697 -0.7051152 0.0242026 -1.0678732 -0.71910936 0.6362779 0.25211978 -0.29174787 -0.47228464 -0.25590768 0.8975454 0.8708335 1.0045018 -0.3361376 -0.3483639 0.31307963 0.0044214055 -0.7753195 -1.4858383 0.701767 0.64522356 -0.41282582 0.3030705 0.18324253 -0.15347329 -0.51379734 0.38215655 -0.600155 0.30124828 0.56751 1.0499097 0.30534127 -1.1145276 0.5869894 0.29218903 0.5744992 -2.0507221 -0.71780384 -0.4663246 -0.7140721 0.82218546 -0.49012718 -1.0574596 -0.90568966 0.23738855 -0.4925286 -0.98985535 0.2188412
215 0.51243097 -0.41185668 0.2637068 -0.13322188 0.41759437 -0.45539346 1.0663761 0.023524942 0.5382421 -1.2728155 0.5288215 -0.50851226 -0.23016314 -0.9775091 0.25152102 0.64311886 0.16968419 -0.50976145 -0.26283616 0.2534561 0.8193905 0.78850716 0.75866497 0.5459218 0.20664293 0.6569077 -0.4146792 0.8119056 0.06968183 -0.33980945 0.11042135 -0.27308854 0.4673099 -0.03114248 0.03673481 0.36763006 0.5414715 -0.16577843 0.43844295 -0.23672602 -0.32545707 0.6570007 0.28085944 -0.13268955 0.20549703 -0.025682023 -0.16691178 0.45745754 -0.39505693 0.87786794 0.004182475 -0.15255952 -0.19481748 0.32491627 -0.10847215 0.40338507 0.73772764 0.033786498 -0.58630896 -1.1408703 0.38204572 -1.0559863 0.32470882 -0.26848906
424 -0.010076048 0.53827095 0.35129562 0.3043076 -1.2702491 0.19907114 -0.07664744 0.21447282 -0.45608768 -0.060333736 -0.26841652 0.7124598 0.38068882 0.3010621 -0.22783117 0.09861043 -0.64172286 -0.33058548 -1.0721456 -0.3318496 0.40969002 0.237517 -0.052329015 0.045410212 0.20601185 0.31414163 -0.07740008 0.37161624 0.4157285 -1.2227423 0.12162118 -0.26105562 0.15214583 -0.20185067 -1.3890793 0.3162291 0.12550542 -0.24977884 0.61015517 0.0672883 -0.21783474 -0.2396642 0.012342736 0.032809205 -0.46272323 1.1151727 0.6572462 -0.04984454 0.30031362 -0.07840282 0.18334788 0.44292217 -0.60040873 -0.27917522 0.60644203 0.27516353 0.37299082 -0.4593595 -0.17588596 -0.8211756 0.6258566 -0.37905937 -0.24534495 0.7022252
404 -0.13155621 -0.3546499 -0.011795993 0.2404894 -0.43370292 -0.5727455 0.20243976 -0.06386419 0.4689992 -0.23290108 0.15160638 0.20179343 0.4086163 -0.17258726 1.1747032 -0.4091015 0.5708924 -0.29931673 -1.4892195 0.535173 -0.20061302 0.84408724 -0.25390965 0.5932099 -0.69190943 0.37459794 0.34176868 0.6105825 0.47009996 0.02348114 -0.6838778 -1.3482013 -0.29319274 -0.42557558 -0.18838738 -0.05822257 -0.030845352 0.6314662 0.41161746 0.6590456 0.49669415 -0.8266262 0.49459112 0.44580132 0.52835274 0.35579824 0.19288677 -0.5070079 0.07354405 -0.8869453 0.6300845 0.016249174 -0.09687377 0.6233307 0.08758229 0.037932917 1.1364844 -0.060534246 0.25859916 -0.72533804 -0.27009737 0.5452392 0.5576821 0.01707728
432 -0.5714323 -0.315911 0.39866513 -0.08723246 -0.6240305 -0.5477605 0.17881739 0.22546141 0.14164808 0.37209222 0.038227558 0.17141029 0.24273229 0.08587647 0.7263904 -0.43269038 -0.5489623 -0.7593641 -0.8295541 0.30447415 -0.13622792 0.017230999 0.25734594 0.71840394 -0.32752365 0.30172127 0.04412797 0.73011464 0.90190667 -0.2758394 -0.42156598 -0.19106685 -0.38875455 -0.47323567 -0.19401868 0.41758 0.28796473 0.118287794 0.77048904 0.44143736 -0.16548857 -0.27675048 0.34700695 0.49080426 0.2896376 0.19008969 0.33062014 -0.34839883 -0.01127593 -0.3181432 0.037358023 0.14821927 -0.22647642 0.28641105 0.55513936 -0.045585357 0.30884692 0.08711232 0.68104184 0.42644894 0.71139324 -0.21376525 0.054374855 -0.10723608
109 1.0220952 0.12623623 1.4194653 1.1647974 0.72930914 -0.015596266 1.4566045 -0.01945799 0.60705227 -1.0057414 -0.27781367 0.30581003 0.45848167 -0.5089627 0.42654756 0.15748699 0.47312972 -0.5836548 0.1486113 -0.8413244 -0.49727866 0.5849481 -0.13935412 -0.32478395 -0.787593 -0.17420115 1.125584 0.8249838 0.98193103 -0.12293435 -0.40678215 0.3832227 0.42275247 -0.73730904 -1.1795114 0.35574734 0.6303953 -0.22060288 0.58683974 0.14390916 -0.3890838 -0.40110078 0.35639983 -0.4525934 0.13765879 0.38070434 0.978307 0.49048132 -1.0834074 0.6155244 -0.017292721 0.54902333 -2.0013402 -0.80315405 -0.5616758 -0.76400214 0.7787759 -0.12117851 -0.85955936 -1.1252424 0.32626873 -0.4738482 -0.805385 -0.06827033
151 1.0247748 -0.046132643 1.3948553 0.9460474 0.7652114 0.14673649 1.2866343 -0.11268788 0.5962523 -1.1246936 -0.29288715 0.24712989 0.5728845 -0.6172034 0.3385396 0.30670285 0.49311098 -0.6842111 0.13920408 -0.9189538 -0.61894554 0.58618206 0.010279641 -0.30214682 -0.5771032 -0.14591718 1.0463746 0.81757903 0.9488264 -0.17320552 -0.46534553 0.360526 0.2117316 -0.6866264 -1.3533168 0.53436553 0.59483266 -0.29848227 0.4284256 0.12302875 -0.24811748 -0.47542745 0.2877982 -0.45390242 0.20413776 0.45703867 0.9667226 0.5694602 -1.0867184 0.4807313 0.17248514 0.58421636 -2.0864215 -0.74050635 -0.62295586 -0.6852782 0.76497525 -0.39154387 -1.0164468 -1.09403 0.29673725 -0.41945547 -0.857361 0.03504662
445 -0.06010025 0.46559313 0.15135968 0.012379812 -0.37527558 0.031884525 -0.3917593 -0.75997937 0.86725587 -0.0036637408 -0.52337396 0.1740498 -0.100430116 -0.041407887 -0.6885351 -0.15856238 0.4172309 0.34042367 0.031582598 -0.52938 -0.17377156 0.9454042 0.36024502 0.417034 0.28326997 -0.17617399 0.0969893 0.6536913 0.49423105 -0.36036968 -0.36350513 0.4862619 0.57643265 0.6035037 0.04156305 0.83761096 0.56681997 0.16077437 -0.048365276 0.6216387 -0.3990796 -0.40593648 -0.066452935 -0.057724405 -0.20169783 0.5197615 0.10898191 -0.084583804 -0.8144997 -0.000575695 -0.5031417 0.593268 -0.5181969 -0.29011863 -0.3599295 0.2884121 1.1405369 -0.049260028 0.3847684 -0.4176628 0.40283737 0.23543446 -0.25866663 0.097448505
242 -0.013115831 -0.3139847 0.8564933 0.50611997 0.22308768 0.009961859 0.39717826 -0.34608337 -0.55687135 -0.24729745 0.4201991 -0.9939739 -0.087072 -0.29492024 -0.38868585 -0.3089914 0.28196287 0.08668173 -0.55130273 0.03372603 0.57020617 1.1155803 0.10226102 0.38294 0.12478994 -0.3075852 -0.13313383 0.7192758 -0.24814102 -0.62556654 -0.107063554 -0.056697384 0.6295193 -0.2327664 -0.119890146 0.7508701 0.68209314 -0.16649924 -0.15005402 0.18595044 -0.40473154 -0.36017382 -0.9019035 0.07423971 0.20719977 -0.09816558 -0.0071386816 0.31818464 0.08828964 0.32695487 -0.14334095 0.5183866 -0.23928143 -0.13123469 0.50287783 -0.17185643 0.027072394 -0.7507726 -0.25238544 -0.07391453 -0.25167325 -0.046978507 -0.070445105 -0.41649207
225 0.056567445 0.055897452 1.4929974 0.78000695 -0.6265863 -0.10046846 0.25663778 0.12837331 0.28469563 -0.44649875 0.37388876 -0.16025425 -0.38626033 -0.25346226 -0.16965416 -0.10320312 0.18773101 0.13589 0.13727662 0.41524 -0.3530317 0.58446074 0.4221736 0.03977651 -0.9314636 0.17533816 -0.094379194 0.084872894 -0.12611145 -0.88315517 0.4449137 -0.047279984 0.21797429 -0.35063505 0.16146024 0.96877664 0.04279438 -0.16163565 -0.15031958 0.5708625 -0.5655618 0.11862936 0.30783278 0.3099446 -0.05276972 -0.3383106 -0.037447535 -0.79540086 -0.39455888 0.04348071 -0.09369355 -1.0032824 -0.5493469 0.21576224 -0.35437754 0.6893578 0.13889565 -0.4883445 0.07019876 -0.46004987 0.19157289 0.62478805 -0.78001255 0.107504465
405 -0.08536817 0.020550478 0.44620278 0.91426134 -0.41602236 -0.5596275 0.19352613 -0.12301065 0.4569641 0.35012844 -0.020756356 -0.17853533 0.28427765 -0.07722166 0.19745478 -0.14482602 -0.4000473 -0.6373355 -0.8506798 0.07191624 0.15418522 1.0737051 -0.29662886 0.6930405 -0.7649603 0.6995405 0.22157726 0.24096616 0.71571124 -0.22963315 -0.04008377 -0.6442005 -0.3196231 -0.5940648 -0.5036606 0.2641773 0.368811 -0.39645347 0.57461804 0.5004157 0.27622944 0.010212055 -0.26149222 0.7303631 1.6790986 0.41197637 0.23323905 -0.39544645 -0.8012491 -0.4843166 0.3073534 0.24631983 -0.00083376956 0.26603508 0.57168823 -0.1156857 0.17383376 0.4895476 0.6197569 -0.010472042 0.5160792 0.053290658 0.20966294 -0.36485854
463 -0.19611754 -0.039045613 -0.014309776 0.17780441 -0.3678971 0.37092102 0.022227429 -1.1268294 0.429471 0.16245964 0.16092369 -0.55642617 -0.42249334 -0.6681581 0.5272059 -0.63343495 0.4702864 -0.4091309 0.48058274 0.033188824 0.17520246 1.0669229 0.4380021 -0.13705543 -0.79183096 0.8150153 -0.052968666 -0.6490421 0.23928748 -0.6069636 -0.43008885 -0.8441106 0.012912072 0.019627163 0.51939034 -0.59655374 1.2585694 -0.08282778 0.29722068 0.3783606 0.27611867 -0.48312545 0.17426164 0.09827416 -0.63083076 -0.13978739 1.0006062 -0.04664886 -0.02992003 -0.3366888 0.3211397 0.27893636 0.07911416 -0.13581301 -0.27082944 0.23546413 0.32351854 -0.83051217 -0.23015088 -0.024791515 0.28438848 -0.3920474 -0.17699076 0.5961008
334 0.059110858 0.9139124 0.30220056 0.10456211 -0.9113113 -0.08583801 -0.05341276 -0.790892 0.58103865 -0.75665253 -0.40743744 0.2594311 0.019252546 0.91215175 -0.54057354 -0.25711232 -0.7213913 0.032480884 -0.17445114 -0.6476918 -0.3089547 0.8543575 -0.517615 0.5564439 0.008465028 0.52129424 -0.71769327 0.08636222 0.19630815 0.19938257 -0.32096687 0.72935355 0.015109116 0.60359734 0.35433534 0.3623892 0.35348752 0.35141918 0.23066507 0.25686416 -0.47352132 -0.6520049 0.065732054 -0.17127128 -0.3293422 0.017910246 -0.4090859 0.16707212 -0.1188233 -0.5724865 -0.59253633 0.9278078 -0.31050676 0.28336614 -0.26632005 0.42457852 0.7383988 -0.22380038 -0.600218 -0.55709165 0.68636847 0.24212308 0.049812004 -0.42410266
312 0.045037787 0.1080161 0.16483872 0.16285299 -0.07918671 -0.15409799 0.16227809 0.085057676 0.44895333 -0.5217054 0.29626915 -0.46334454 -0.8100166 -0.45264024 0.27144244 0.11248304 -0.5542524 0.37991312 -0.48637134 0.21799807 0.39768237 0.43018848 -0.20198634 0.2678058 0.63083977 0.4183031 0.18113802 0.72124887 -0.39746097 -0.9930395 -0.6122905 -0.31800738 0.33303815 -0.5713171 0.05440919 -0.22287779 0.43957368 0.63027024 0.12080248 0.5950799 -0.6598147 -0.16845709 -0.8270891 -0.022506034 0.17817788 -0.19553952 -0.18851836 0.4017331 0.8413631 -0.25216797 -0.7213652 0.69180405 -0.6261912 0.07576299 0.16233057 -0.18222916 -0.53570867 -0.07153257 -0.33920524 0.52491236 0.3992854 -0.21790557 0.21825825 -0.016994435
450 0.30880925 0.5628912 -0.24192494 -0.08978526 -0.24641167 -0.111908 -0.052007437 -0.79180634 0.7129802 -0.088236876 -0.77967596 -0.031089254 -0.20675868 0.4032307 -0.6228783 -0.17165598 -0.23473144 0.49892282 0.20148216 -0.112384185 -0.6316661 0.5103283 -0.09867995 0.39036432 -0.28248718 0.22564591 -0.14017783 0.25381833 0.6264368 -0.41154012 -0.1151577 0.33643734 -0.10878371 0.40737826 0.029741209 0.8033105 0.33259788 0.38422784 -0.07243707 0.9893235 -0.09821435 0.19949774 0.07347696 -0.14620444 -0.040530022 0.49770948 -0.43456253 -0.117089905 -0.18508999 -0.047645856 -0.5190329 0.8897553 -0.981972 -0.19685686 -0.04832802 0.2974029 1.2457135 -0.014374585 -0.05831447 -0.027345253 0.25599006 0.20252557 0.30609882 0.24144785
370 -0.016436664 0.34379846 0.1268672 0.38298672 -0.09502305 -0.80880904 0.8626697 -0.009453434 0.5739713 -0.12656529 -0.00870045 -0.0017352793 -0.38326687 -0.34902433 0.333869 -0.39001954 0.42962033 0.48765814 -0.5714495 0.045297645 0.340675 0.34826767 -0.009971893 -0.05070138 0.5621308 -0.42608872 0.22150914 0.6611293 0.58514667 -0.56112486 0.74082184 0.022019247 0.22898966 0.14797759 -0.1868098 -0.2027581 0.27598575 -0.054744404 -0.031213803 0.31681332 -0.48134914 0.007620731 -0.34489027 -0.18639845 -0.30369812 -0.22654217 0.09743447 0.4992304 0.6079252 -0.30609676 -0.647595 1.0626588 -0.20018193 0.043295242 0.45914817 -0.044500954 0.51284474 -0.4640508 -0.57003486 0.40836388 0.11956493 -0.17240132 0.30547982 -0.41212386
281 -0.20002265 0.022187626 0.9639882 0.23487005 0.06954917 0.4885941 -0.076423936 -1.1318985 0.22601251 -0.18929656 -0.14508954 0.7860657 -0.05135792 -0.25667867 -0.09367157 -0.08676652 0.21243687 -1.10905 0.03464793 0.81395125 -0.22434941 0.35089296 -0.18315354 -0.29187265 -0.096761174 0.27466094 -0.34391484 -0.22789386 0.88453454 -0.49942553 -0.49566752 -0.5000599 -0.1401819 0.08448643 0.41383868 -0.8001878 0.86115277 -0.36133203 0.3955344 0.7000267 0.003532238 -0.3422637 0.14859837 -0.5024406 -0.19920209 -0.37053376 0.48926166 -0.34270266 0.15569533 -0.10135492 0.49569702 -0.02591719 -0.57764584 -0.3011555 -0.11841452 -0.0017863539 0.24388853 -0.6562653 -0.31542546 0.5570541 0.038474873 -0.4489704 -0.25953275 0.23623359
235 0.26770744 -0.06668477 0.27425182 0.27487037 -0.15412597 -0.86686885 0.22686975 0.13451047 0.5810937 0.064083494 -0.06797323 -0.47861445 -0.95345354 -0.19477625 -0.012566201 -0.28068572 0.3573073 0.47370788 -0.5827709 0.31451994 -0.15128821 0.29449686 0.1101666 0.112146944 0.071047574 0.43742472 0.36568975 0.73128194 0.13352777 -0.34116232 -0.112344086 0.65006506 -0.032440256 -0.38472134 0.31574655 0.044614673 0.12460872 0.12542042 0.02869495 0.38979077 -0.93890417 0.23783052 -0.45033625 -0.51969033 -0.070456535 -0.050263245 0.14857344 -0.007295037 0.5555982 0.1921749 -0.34527096 0.3601371 -0.14346184 -0.37232193 0.6781892 0.037063878 0.6183664 -0.10866737 -0.7767235 -0.026061889 -0.50667346 -0.88442236 0.54360473 0.08901601
223 0.6294319 -0.22445792 1.1092749 1.0171636 -0.4761454 -0.6873804 -0.02195232 0.13699639 0.6693365 -0.6745221 -0.12440374 0.23361059 0.17873411 0.12866671 -0.14911993 0.07987802 -0.007306945 -0.56341827 0.29654416 0.7103343 -0.26895422 0.4619812 0.57472444 -0.3303515 -0.3184815 0.2666408 -0.008292661 0.37819365 0.06753913 -0.75683504 0.10696117 -0.10357088 -0.8132398 -0.5918806 0.050762687 0.13974391 -0.2784406 0.015222015 -0.24588905 0.5659586 0.092551924 0.2396209 0.7557144 -0.11526296 -0.59759665 -0.61308104 -0.13931791 -0.63247746 0.21717526 0.0070153563 -0.76026905 0.000255039 -0.12316632 0.45670497 -0.31443492 0.60451543 0.1615139 -0.089156784 -0.34154248 -0.08366881 0.079164565 0.040514316 -0.7421335 0.46212673
443 0.09329473 0.410786 0.4149481 -0.47424966 -0.08652739 -0.2623657 0.1630895 -0.5027629 0.03636542 -0.5662998 -0.44171497 0.541356 0.15203924 0.3537442 -0.16252714 -0.07656315 -0.36857677 0.4869966 -0.26083136 0.026299408 -0.33232853 0.9343683 0.33236048 0.4873015 -0.33965328 0.1885032 -0.36248124 0.3131466 0.2950243 0.10793455 -0.5011164 -0.025470128 0.54179 0.8062099 0.32578006 1.1134604 0.45243245 0.5859482 0.17332166 0.5337532 -0.052171275 -0.23939535 -0.08876813 -0.22423029 -0.04143266 0.8589005 -0.59710073 -0.30839723 -0.021914247 -0.22189154 -0.53418994 0.24593133 -0.79608124 0.013666469 -0.46403965 0.23632845 0.80134785 0.18862098 -0.2924057 -0.23996502 0.5337767 -0.052433934 0.2795694 0.6805454
246 -0.25673056 -0.5458466 1.1541526 0.6885771 -0.66873294 -0.11052085 -0.02233995 0.055584267 -0.07089519 -0.58564514 0.3726686 0.046247896 -0.2327097 0.17642659 -0.28546652 0.40465972 0.5320323 -0.14816183 0.24920475 0.6601156 -0.44959685 0.4298432 0.53323406 -0.39177746 -0.2016018 0.4225783 -0.19195183 0.113861725 -0.18139406 -0.9692252 0.4448252 -0.31949157 -0.6338173 -0.25381473 -0.6881518 0.32142198 0.11703887 0.44545725 -0.3314709 0.5748563 -0.20904495 0.19693209 -0.09274374 0.17353925 0.2183002 0.11196567 -0.53037125 -0.54850644 0.050932728 0.08139099 -0.25010926 -0.3987569 -0.07618881 0.7080433 0.12759294 0.3012101 0.83093876 -0.06717297 -0.2704006 -0.18039224 0.79780656 0.56633407 -0.5380092 0.59013784
315 0.07125747 -0.94452435 1.0457549 0.19559418 -0.060753133 -1.087789 0.092902556 0.16829425 1.1482816 0.077994555 0.09593302 -0.116793156 0.2481963 0.41386017 0.14168043 0.15387924 -0.11983112 -0.59244823 -0.5724275 -0.5175849 -0.3147156 0.39142722 0.024970448 -0.0968273 -0.65640306 0.7503752 0.18193832 -0.28220242 0.003244518 -0.6085811 0.120088145 -1.4949964 -0.49878186 0.598802 -0.7880226 0.22966935 -0.18728757 -0.19414432 1.1994324 0.6569271 -0.3033558 -0.8940265 -0.5845349 0.597954 0.85636705 0.09077289 0.1847459 0.057593025 0.06564102 0.2406053 -0.08953496 0.058008708 -0.088636786 0.50650406 0.1906067 -0.25867346 0.9131471 0.118521206 0.32545707 0.55653095 0.30168122 0.20210908 0.8111311 -0.27332857
444 0.31021893 -0.18399434 0.58433574 0.13071021 -0.10989542 -0.2207779 0.08937979 -0.27942547 0.35297447 -0.37391597 -0.62905496 -0.26196623 0.055176705 0.28491083 -0.6720595 0.007959057 -0.8354292 0.26616874 0.07024636 -0.75355947 -0.5857688 0.6907046 0.103487715 0.69514036 0.19769807 -0.15308876 -0.22134584 0.07798169 0.24555849 -0.35917717 -0.36252144 -0.055755984 0.345431 0.542572 0.47079176 0.74656075 0.69450426 0.7047287 -0.2427382 0.5790216 -0.34221527 -0.52043295 0.17973392 -0.03599146 0.10059692 0.912688 -0.17310588 -0.52512944 0.004813574 0.08775971 -0.56328326 0.6365564 -0.45080256 -0.47503936 -0.57967037 0.6152246 1.1317822 -0.20218024 0.3201684 0.07922958 -0.022323644 0.10576549 0.13094187 0.06683303
441 -0.19719161 -0.21924755 0.855036 0.30599865 -0.18193091 0.024947645 -0.41782814 -0.69149834 0.08525888 0.35490254 -0.07562097 0.6845215 0.10641774 0.29127607 -0.36944154 -0.2079361 0.21446432 -0.40892538 -0.051070802 0.35633934 0.31430027 0.78355885 -0.04954939 -0.23541139 -0.33027595 0.75657314 -0.461577 0.18182409 0.17936058 -0.40269607 -0.044258535 -0.6006587 0.10485977 -0.13394853 0.46835437 -0.9383154 1.1223172 -0.42942852 -0.13860686 0.31776667 0.14381975 -0.25897065 0.31802055 -0.5130119 -0.8229357 0.020422194 0.6679565 -0.8574286 -0.1953089 0.24285148 0.49663937 0.48400617 -0.44249848 -0.123415 -0.4672775 0.1345377 0.16751839 -0.09872443 -0.52882737 0.39320898 -0.090524755 -0.84513855 -0.03591761 0.31616083
336 -0.02996538 0.044094 0.0023560245 0.30793324 -0.5181785 0.2857777 -0.2363132 -1.1225142 0.3939881 -0.1151293 0.4422865 -0.5267334 -0.29988372 -0.6875246 0.5567855 -0.6757505 0.60726583 -0.3976884 0.77577585 0.0047617927 0.29747114 1.1109493 0.4531515 0.18885577 -1.0345452 0.67649627 0.064204946 -0.7949309 -0.032999348 -0.69008636 -0.59527385 -0.90135604 -0.21309538 0.1170758 0.88771355 -0.6463673 1.4218729 0.24304874 0.47699103 0.3311947 0.38900986 -0.569194 0.04579046 0.001517231 -0.62751156 0.012601495 1.3174362 0.03682428 0.008914237 -0.36394852 0.38736245 0.2837778 0.26644698 -0.07583997 -0.14592876 0.10388488 0.37720427 -1.096773 0.02418379 -0.12812719 0.39606956 -0.49191266 -0.058809627 0.47372755
351 -0.4062567 0.5558949 0.83384824 -0.14296132 0.26030156 0.019461365 0.2826256 -0.8435309 -0.13627133 -0.14974281 0.2919147 -0.347163 -0.33336872 -0.1074761 0.30317533 -0.3436889 0.10568103 -0.18355137 -0.12862101 0.237831 0.28563467 0.93875366 0.025473814 0.27691302 -0.45512095 0.27918914 -0.6437841 -0.26119798 0.5550415 -0.15770568 -0.39506215 -1.0668602 -0.08512284 -0.04830767 -0.09110185 -0.5350331 0.7498061 -0.42170882 -0.6458883 0.5499709 -0.009444971 0.1514335 -0.048403215 -0.13080107 -0.017935371 0.1258779 0.5455185 -0.35195762 0.051098805 -0.41205832 0.86764014 0.0674444 0.13552156 -0.46157986 -0.71141297 -0.0009749734 0.72072005 -0.41113594 -0.5131442 0.15775791 0.36753315 -0.8287488 -0.14009322 0.62680495
417 -0.14474986 -0.2343476 0.56480503 -0.0013525878 -0.51245224 0.16520475 -0.1030647 -0.6593146 -0.16305918 0.1719828 0.26533005 0.28596744 -0.64652157 -0.48358852 -0.2691346 -0.18426637 0.4308038 -1.0763535 0.008263305 0.54143876 0.15741639 0.39092743 -0.4810423 0.03681263 -0.58459383 0.67574507 -0.6662164 -0.51087666 -0.26312292 -0.77810776 0.41872936 -0.6184839 -0.07830151 0.46460584 -0.02288381 -0.70799905 0.97193116 -0.3197502 0.123696856 0.36823168 -0.36324632 -0.13448218 0.1821062 -0.2127477 0.2337821 -0.304552 0.32239026 -0.040383723 -0.4092938 -0.1424906 0.39371672 0.60009867 -0.2541303 -0.2625185 -0.06638696 -0.33808416 0.8963521 -0.23092756 -0.05809723 0.30388382 0.30961043 -0.5074267 -0.032491148 0.945143
356 0.55955875 -0.5762763 1.0511621 0.87745756 -0.70381963 -0.5517225 0.79965985 -1.1970402 1.2015018 -0.38547778 -0.27347636 -0.6898275 -0.20982373 -0.16828573 -0.87926865 0.9983941 -0.5485948 -0.13657792 0.65736353 -0.6660407 0.8257122 -0.14958514 0.9740867 -0.6320621 -0.7735599 -0.54607654 1.4055803 0.25847661 0.5130246 -1.5178798 0.33675513 -0.38214874 -0.5224411 0.19595745 -0.37511504 -0.5241584 0.6253654 0.24703208 -0.008056342 0.58150786 -0.14342129 -0.41803807 -0.7097776 -0.89776605 -0.4074369 0.23960896 1.6101024 0.036787298 0.09841339 0.6328113 -0.46941718 -0.70033306 -0.924068 -0.0042552166 0.08411531 -0.80889255 0.3288172 0.16014661 -0.43275705 -0.89223725 0.7643704 0.16078636 1.5812663 -0.48543388
103 1.1385603 0.20975602 1.3035805 1.3393562 0.5276234 0.019202333 1.4399903 0.16018772 0.5145838 -1.0756936 -0.14994918 0.38048813 0.3464853 -0.4672323 0.37851235 0.07947701 0.45627725 -0.63091755 0.14642973 -0.9086574 -0.46145108 0.6060432 -0.124573864 -0.2781195 -0.7050168 -0.12534557 1.150669 0.79572755 0.8218332 -0.23520923 -0.4414868 0.42105252 0.3594964 -0.70051295 -1.1324831 0.35610428 0.63704485 -0.14350244 0.59967524 0.056968957 -0.26060763 -0.30984628 0.33166045 -0.35861635 0.0918892 0.307989 0.9504179 0.4968515 -1.1983345 0.5556021 0.20962282 0.4881962 -2.0028708 -0.7808519 -0.6304779 -0.8818604 0.83388287 -0.09764123 -0.7259721 -1.0785695 0.5237019 -0.50597167 -0.7718188 -0.1558611
92 -0.08789237 0.3328835 0.012445881 0.37041166 -0.1809865 -1.0584985 1.0010171 -0.07046493 0.5094333 0.11760422 -0.15190624 0.18887216 -0.4591314 -0.4964304 0.67777586 -0.36144078 0.36645237 0.6643992 -0.58083975 -0.048658364 0.16024229 0.30204934 0.20526266 -0.28887886 0.68669105 -0.43504032 0.016951116 0.8028693 0.63508654 -0.42796284 0.9759894 0.05050188 0.30247137 0.19973648 -0.0062070508 -0.21144393 0.22723025 -0.21934268 0.040185846 0.3120102 -0.53558207 -0.24687646 -0.4844488 -0.36734045 -0.18840796 -0.36141792 0.25006115 0.5774448 0.68586403 -0.5418029 -0.63841844 1.1623784 -0.21037485 0.19750547 0.49297422 0.08078943 0.7521422 -0.736651 -0.6899331 0.29193234 0.1737544 -0.12061615 0.29835862 -0.5494156
447 0.6025547 -0.50355345 0.91016394 0.9155738 -0.8268959 -0.64038366 0.8281714 -1.0465829 1.1104263 -0.45274356 -0.2800964 -0.6798854 -0.3003566 -0.07751442 -0.8761121 0.94186395 -0.44321844 -0.25393984 0.6636997 -0.81019366 0.9210411 -0.1182264 0.9860038 -0.5106871 -0.714121 -0.49594888 1.4871438 0.12565993 0.5012003 -1.5896335 0.3777101 -0.36755663 -0.61907345 0.012875155 -0.4043674 -0.53514683 0.82867694 0.3370685 -0.085898995 0.602021 -0.03497083 -0.4069006 -0.8264945 -0.85480326 -0.4067469 0.2835258 1.6394114 -0.030489743 0.043703713 0.689659 -0.48634046 -0.6982489 -0.96431065 -0.011990777 0.033352993 -0.9952973 0.34472793 0.11306524 -0.49176192 -0.8872465 0.66452223 0.29882923 1.5013256 -0.3685826
50 0.2494679 -0.16718441 0.1850274 0.055044677 -0.21907546 -1.0864584 0.31958914 0.28916606 0.7090482 0.21539901 -0.08466186 -0.5488098 -1.1690192 -0.2746516 0.1685761 -0.11297121 0.49521154 0.5036648 -0.7132878 0.31784242 -0.5809434 0.2798033 0.175476 0.18603602 -0.1703025 0.5490262 0.3159684 0.66945153 0.1673676 -0.37530586 -0.18757018 0.83902293 -0.053234853 -0.46378547 0.40595102 0.1074515 0.14940034 0.050519887 -0.0373965 0.42653146 -1.176565 0.114154354 -0.33522606 -0.63030404 -0.21831104 -0.0380342 0.11707762 -0.17381671 0.36518288 0.1896972 -0.38591275 0.34421092 -0.12540591 -0.5368145 0.96912944 0.25547984 0.53779596 -0.1823808 -1.0697796 -0.24315554 -0.72949445 -1.1097151 0.6632817 -0.04170034
361 0.8398855 0.39670804 1.350179 0.8741416 -0.9899127 0.5701269 -0.48180938 -1.5152225 0.8663276 -0.5418181 -0.58958536 0.13315918 0.2657304 -0.8722382 0.6700412 -0.691251 -0.009099402 -0.5431249 -1.1761922 -0.16958472 -0.12398621 -0.44143906 0.2846987 -0.028911134 -0.9583561 -0.46897483 0.7291765 0.9153141 -0.22411405 -0.68343085 1.2967916 -0.036141433 0.08054748 -0.35021165 -1.1001228 0.007836786 0.096710615 0.99889 -0.59116846 0.30020213 -0.08548019 0.56697804 -0.44300172 -1.056149 -0.9724312 0.29102236 -0.08967802 -0.25482887 -0.3940579 0.4593768 1.1374333 1.771734 -0.7191074 0.06833297 -0.95202905 0.8605593 1.3087226 -0.015676912 -1.1778101 0.5414141 0.34510064 -0.46462053 1.5404072 0.8179387
10 0.9407233 -0.18085279 1.1008539 0.7802936 0.93590355 0.25936523 1.2906295 -0.4244003 0.69978327 -1.2358924 -0.39528626 0.1950622 0.62719244 -0.6382882 0.17084053 0.52960193 0.43371773 -0.7401256 -0.07780882 -0.94014835 -0.6954419 0.7321702 0.29328266 -0.35099104 -0.4587635 -0.19138552 0.8886471 0.7296718 1.0369333 -0.31498235 -0.505557 0.3549475 -0.11611125 -0.7951676 -1.2791536 0.70612216 0.5763123 -0.39402884 0.22840874 0.07194795 -0.18414058 -0.43659824 0.3976727 -0.5928355 0.2527819 0.5776215 1.0786505 0.3494456 -1.0213732 0.5663552 0.22724138 0.6119831 -1.9639069 -0.68635756 -0.48730528 -0.5192028 0.6514288 -0.48430896 -1.0172989 -0.88302344 0.24255897 -0.52411425 -0.9742493 0.06560693
345 0.53573 -0.4921721 0.9796131 0.8966886 -0.7449192 -0.62673736 0.74738693 -1.1011995 1.1528877 -0.43930838 -0.26958817 -0.65226525 -0.28422153 -0.07186781 -0.8913001 0.9366107 -0.44394127 -0.25093114 0.71585256 -0.7186012 0.902097 -0.14016119 0.90871763 -0.51004356 -0.70560354 -0.54737234 1.4612511 0.26034537 0.5297885 -1.5569832 0.3428977 -0.39095154 -0.5735975 0.114834346 -0.4104858 -0.5796046 0.72056425 0.33696884 0.0021313727 0.59707844 -0.1267069 -0.4002408 -0.74059665 -0.8729299 -0.44173878 0.2158571 1.5829338 0.010546339 0.021799894 0.6777278 -0.5240023 -0.73905605 -0.92698747 0.049088728 -3.906244e-05 -0.9003701 0.3487056 0.15701626 -0.45192242 -0.9077067 0.76583767 0.2716463 1.5497949 -0.36323145
376 0.87920797 0.35081336 1.3834875 0.8468916 -0.99335593 0.5801119 -0.44761693 -1.5305625 0.85531366 -0.5622699 -0.53483725 0.1552815 0.34780878 -0.8754214 0.6900217 -0.63175595 0.05251223 -0.5431604 -1.1517514 -0.22073796 -0.03167945 -0.44768733 0.39048535 0.06349194 -0.8334484 -0.5279846 0.74399257 0.8568909 -0.24261089 -0.72374344 1.2400115 -0.0140512865 0.060633708 -0.41907382 -1.1961763 -0.021381771 0.1849228 1.0714815 -0.6462971 0.3639979 -0.06411817 0.6238186 -0.48893723 -1.1442615 -0.9420198 0.32935145 -0.16362002 -0.24671985 -0.40366864 0.4981286 1.1856707 1.8046215 -0.73816586 0.045657173 -0.9952811 0.82281387 1.3289036 0.005431125 -1.0616271 0.5009265 0.34913883 -0.41382346 1.5095257 0.79997957
121 0.38177177 0.012396052 0.53185636 0.31080619 -0.06254241 0.08049494 0.39176413 -1.428261 0.10836276 0.50556797 -0.22150876 -0.36622548 0.27185974 0.24594916 0.7101196 0.119861014 0.095172666 -0.18346442 -0.027878558 -0.118324235 -0.119790815 0.49391916 -0.4924229 -0.29773095 -0.904052 0.66304404 -0.3766176 0.2372304 0.4348372 -0.51275826 0.54671454 -0.34804267 0.27599758 -0.42840275 0.2700821 -1.1260784 0.60865444 -0.8040475 -0.20961176 1.3361945 -0.08399148 0.1240382 0.11662111 -0.8630337 -0.22506961 -0.37793845 -0.29993823 0.2293094 -0.57324326 0.28415883 0.42593628 0.42246664 -0.69298166 -0.3813624 0.35405225 -0.22752842 0.82919633 -0.039706122 -0.1404032 0.4208829 0.43511096 -0.43795207 0.099507235 0.66743547
367 0.8825608 0.3370226 1.4273155 0.81595945 -0.9737442 0.5670602 -0.42496392 -1.482379 0.8213784 -0.4933379 -0.6034478 0.14779256 0.35488284 -0.8813902 0.7413645 -0.688793 -0.02312877 -0.54905266 -1.166456 -0.11558525 -0.04765579 -0.43918508 0.49655676 0.018692818 -0.9197851 -0.51860887 0.7592386 0.8746152 -0.282089 -0.722572 1.1914108 -0.021761619 0.09883042 -0.30680305 -1.1607362 -0.008346434 0.13764268 1.0473032 -0.6069152 0.39466187 -0.020425191 0.6603668 -0.4483397 -1.1576445 -0.9662114 0.33568665 -0.11876691 -0.16983968 -0.3898466 0.40309057 1.1210947 1.7249042 -0.72947675 0.016060522 -1.0131024 0.8438896 1.3337384 0.029189168 -1.0808889 0.49850464 0.32967865 -0.4730329 1.5440701 0.80006695
337 0.99050164 -0.30008626 1.1691464 0.8104475 0.82139415 0.25298932 1.2787234 -0.28661734 0.60079265 -1.2691578 -0.37603542 0.19895518 0.5942592 -0.6902746 0.23765561 0.54094756 0.49114802 -0.7565001 -0.04517089 -1.0318245 -0.6929705 0.734643 0.23134613 -0.36303404 -0.37649956 -0.19024117 0.9046166 0.8233617 1.0093794 -0.3944837 -0.3690854 0.3529564 0.012275281 -0.7122647 -1.3871226 0.6340791 0.5694529 -0.38164106 0.20289086 0.10091249 -0.176072 -0.50562525 0.43656722 -0.64893836 0.2567978 0.4988925 1.1310321 0.2755799 -1.0960618 0.521724 0.3510433 0.5773045 -2.0823588 -0.71901876 -0.6304124 -0.68620855 0.7470982 -0.5041273 -0.98972756 -0.7917992 0.3143501 -0.4922203 -1.0275439 0.13361926
157 -0.31492722 -0.30292916 0.90831333 -0.11151444 0.56545395 0.14800836 0.22118923 -1.1987597 0.43956023 0.10779655 0.15768504 0.49974245 -0.088273935 -0.2933697 0.009194402 0.084964216 0.44527528 -0.4821805 0.08319608 -0.7587049 0.5822646 0.22433996 -0.19516784 -0.17187552 -1.1373837 0.36472538 -0.47813883 -0.313586 0.13545226 -1.0798076 0.08398272 0.21981567 -0.29100218 0.30960882 0.02293873 -0.40679988 0.73232406 -0.21657872 -0.15066366 0.16826828 0.39225453 -0.33125198 0.33898506 -0.047662772 -0.3343766 0.06769461 0.21324514 -0.4024016 0.5223716 0.49321508 0.094416566 0.06049979 -0.48100683 -0.28749803 0.15801576 -0.17102979 1.1639988 -0.73233205 -0.6219524 0.54388654 0.67082417 -0.65756685 -0.11512561 0.5815273
433 0.84255713 0.31984547 1.3949333 0.8800691 -1.045393 0.56760144 -0.40517145 -1.4686478 0.7611547 -0.55108786 -0.5619588 0.087239146 0.2778675 -0.8262135 0.62562156 -0.7038111 0.019047055 -0.52104324 -1.1560112 -0.20253594 -0.050931886 -0.4314109 0.3703541 -0.05815234 -0.9517955 -0.5152276 0.73121434 0.9220086 -0.26685396 -0.6143148 1.2842314 0.009049143 0.11260675 -0.3630669 -1.1016003 -0.059292812 0.1576187 1.039164 -0.62798864 0.35543382 -0.0453398 0.6024339 -0.47364253 -1.0911765 -0.98887587 0.31538567 -0.121352315 -0.26069355 -0.39406294 0.47529045 1.1296334 1.7554128 -0.76448065 0.065003514 -0.9920565 0.79201394 1.3399132 0.009447259 -1.1492598 0.5038429 0.3504404 -0.47574914 1.4882598 0.80377674
280 0.40719318 0.41304034 -0.2837919 -0.07037778 -0.11657917 0.070304565 0.030717405 -0.93360686 0.6917959 0.01533876 -0.8476974 -0.1923885 -0.16692138 0.6178609 -0.8589501 -0.14013548 -0.33030677 0.57387775 0.21106867 -0.11107582 -0.8003375 0.47282898 -0.26709685 0.2898076 -0.42040044 0.43753898 -0.14092885 0.50787354 0.6173755 -0.5436647 0.055904344 0.25983712 -0.15516932 0.35047123 0.17497073 0.9073461 0.5318549 0.28264838 -0.06357928 0.8228465 0.034320313 0.5644294 -0.08006829 -0.11706574 0.18377343 0.4481965 -0.39342108 0.17167516 -0.15179715 -0.18572487 -0.4061325 0.8823465 -1.0666349 -0.113804795 0.016424479 0.44737166 1.4912974 -0.035649635 -0.014905851 -0.045173496 0.33113515 0.30827102 0.19247867 0.2626849
191 -0.31275344 0.9136364 -0.010208715 0.69519794 -1.0991113 0.3936399 0.3103767 0.36165994 0.4149131 0.11591395 -0.35184976 1.0319213 0.6487692 0.14684847 -0.09455743 0.37120068 -0.6232496 -0.22056852 -0.70890415 -0.8894421 0.16608304 0.33463597 0.21519573 0.011713004 0.7118244 0.7965007 0.4183027 -0.46088114 0.30420926 -1.8423051 0.32400954 -0.49540684 0.32302845 -0.3602188 -1.4488833 0.2064638 0.47106445 -0.25225475 0.8284675 -0.39608845 -0.25190875 -0.65687364 -0.07453671 -0.59398144 -0.5645563 0.5634892 0.6570689 -0.2285126 0.32300508 -0.26141122 0.5464518 0.9961696 -0.98463506 -0.17453206 0.4988185 0.4095168 0.27204475 -0.7434431 0.101512894 -1.0962497 0.35765007 0.2778007 0.11725526 0.47460425
333 -0.18042351 0.6221196 0.033214703 0.14686818 -0.46549794 -0.0025101472 -0.3753431 -0.7187561 0.90783584 0.18486336 -0.40458393 0.33121157 -0.07801668 -0.106389195 -0.7722199 -0.22923726 0.67572564 0.24446301 0.06139184 -0.62862307 -0.2678077 0.9513987 0.40275615 0.6065264 0.25307736 -0.20635751 0.13707887 0.5809612 0.46489295 -0.41893303 -0.46738786 0.4137357 0.7523226 0.44279313 0.030853925 0.94091696 0.52433956 0.18773282 -0.17867047 0.6582779 -0.5012516 -0.40342042 -0.029856438 -0.21494561 -0.2785203 0.5936395 0.1842914 0.15312265 -1.0091263 0.11754749 -0.49785802 0.4464759 -0.4428179 -0.12536028 -0.31660765 0.09033182 1.0838615 0.031296212 0.30330625 -0.4962008 0.56831497 0.42243382 -0.30274832 0.25938666
260 0.2694229 0.09652174 0.11672418 -0.15665492 -0.4414666 -0.0728659 -0.2540037 -0.4678943 0.5436643 -0.28634936 -0.6042344 0.3834608 -0.1221473 0.35697147 -0.36110628 -0.17516714 -0.4113815 0.3234914 -0.09721139 -0.18304902 -0.24380232 0.7247971 -0.002697227 0.5443423 -0.02696022 0.1841319 -0.30543193 0.14062741 0.41476068 -0.27212986 -0.45474225 0.14868346 0.06186448 0.56359106 0.29045135 0.6961831 0.46151805 0.4392632 0.047119252 0.26392242 -0.12466395 -0.26784623 -0.1581815 -0.03464375 -0.09379354 0.35516712 -0.27438313 -0.19966558 -0.39319247 0.14648199 -0.48487312 0.5915743 -0.5831591 -0.008858444 -0.4955357 0.4501432 0.6610719 -0.22322907 -0.11824786 -0.10013294 0.47573623 0.25934833 0.066574514 0.33026937
150 1.259525 0.38249007 0.83705 -0.26553667 0.67573154 -0.47870135 0.37136057 0.32880238 0.039346848 -1.191952 0.24437638 -0.25370207 0.026601098 -0.31057504 0.030853027 0.45298544 0.56893164 -0.46014908 -0.2722639 0.22340336 0.15469934 0.70808953 0.4659806 0.03553712 0.787291 0.91227937 -0.6328443 0.3815884 0.19087973 -0.9225094 0.059130535 0.8351369 -0.15528272 -0.64238644 0.097750366 -0.16542836 0.24366423 -0.6043907 0.4900152 0.3697771 -0.27823603 -0.41353115 0.8903494 0.18310592 0.53796995 0.28739473 1.2184641 0.9648526 -0.5055586 0.8178435 -0.08863391 0.2718678 -0.22517031 -0.029111579 0.2033096 0.74222326 0.89148325 0.9162535 -0.91042435 -0.09953669 0.81747013 0.51718795 0.88579774 0.33155325
401 0.85619676 0.33898163 1.3386478 0.8524671 -0.952516 0.51510644 -0.43581462 -1.5011289 0.85027134 -0.5255414 -0.6035537 0.030264512 0.3361778 -0.8319773 0.681937 -0.6940346 0.014153152 -0.55345726 -1.1196378 -0.18674368 -0.09565179 -0.47352576 0.4298769 0.0019364854 -0.9105497 -0.48528343 0.71108913 0.84778005 -0.23719485 -0.7336743 1.3002763 -0.06717496 0.05112024 -0.36903134 -1.1222452 0.01951608 0.09845551 1.0330536 -0.70288116 0.3672379 -0.030991329 0.6378644 -0.47671515 -1.1192815 -0.97228783 0.32729623 -0.07005262 -0.24413194 -0.35137156 0.47455505 1.1349663 1.7602891 -0.7541254 0.07274282 -0.9449761 0.8160781 1.4021959 -0.06569352 -1.1004623 0.5097376 0.32613888 -0.4693268 1.4833457 0.7690736
323 0.5735626 -0.42751157 0.89901364 0.9357284 -0.77986455 -0.59672236 0.82650816 -1.1166077 1.1230104 -0.45189303 -0.28511468 -0.65257597 -0.26214558 -0.064648174 -0.90439576 0.8920612 -0.4255615 -0.22726521 0.68858033 -0.76355046 0.82882845 -0.12080553 0.97168857 -0.5345157 -0.6982084 -0.5192216 1.4283282 0.22142531 0.51415336 -1.5880072 0.39268976 -0.40972847 -0.59523726 0.04617959 -0.33713883 -0.50549847 0.71059823 0.3138829 -0.024774676 0.6565695 -0.009333267 -0.36394453 -0.784371 -0.8935661 -0.3907423 0.2859451 1.6078339 -0.054007642 0.10209749 0.6847969 -0.51268685 -0.7059644 -0.9415886 0.07381088 0.039004683 -0.9791002 0.33294412 0.13276571 -0.47884127 -0.8177572 0.73286337 0.29891318 1.468925 -0.41335824
232 0.43629974 0.05173526 0.58984673 0.26562527 -0.08144813 0.06198678 0.23420288 -1.4055375 0.118426815 0.3915181 -0.2794343 -0.3544473 0.2501695 0.2737368 0.6500554 0.13718137 0.2670007 -0.20385593 0.023048822 -0.14241123 -0.19097173 0.51952136 -0.5030733 -0.290276 -0.97030455 0.6183416 -0.42237702 0.21631451 0.49483615 -0.5343678 0.50198734 -0.47640494 0.25037518 -0.5223871 0.22198622 -1.0816966 0.7089328 -0.84149975 -0.037966445 1.4312797 -0.053092778 0.12545729 -0.017036296 -0.82991517 -0.15096414 -0.3555738 -0.2681868 0.22126557 -0.5413964 0.3100292 0.44669557 0.3906819 -0.58819574 -0.5891479 0.35539097 -0.18393907 0.8552697 -0.1949217 -0.029808685 0.43711832 0.42432663 -0.6346484 0.17186278 0.7207687
67 1.0981826 0.15764911 1.1428103 1.358558 0.54071623 0.015359525 1.4164257 0.15559982 0.5960626 -0.99595267 -0.21436611 0.35030186 0.31993312 -0.42711157 0.38672817 -0.010896006 0.50198054 -0.64439523 0.11452773 -0.87034297 -0.44868577 0.5495103 -0.17384629 -0.26740828 -0.75461704 -0.116375096 1.1734955 0.7211076 0.9478425 -0.19291396 -0.38130948 0.3810826 0.3438048 -0.74601394 -1.0951343 0.3493196 0.6511335 -0.18779407 0.58590806 0.13426478 -0.28564438 -0.24442302 0.2381548 -0.26269108 0.16729867 0.33607885 0.9424205 0.42636868 -1.1388034 0.54865634 0.022405189 0.52666944 -1.9393544 -0.78416914 -0.6043579 -0.8109536 0.8232043 -0.08918947 -0.6998251 -1.0840404 0.4044216 -0.5349376 -0.7561716 -0.18338725
153 -0.50505394 -0.23645279 0.9736739 -0.16548368 0.70108545 0.1480487 0.16554724 -1.2056003 0.36584663 0.2127442 0.14296287 0.464599 -0.08746169 -0.34629145 -0.03263353 0.10400883 0.36371803 -0.36508507 -0.0120320385 -0.8418567 0.5736378 0.21201077 -0.13302504 -0.19085407 -1.1078032 0.22310215 -0.4673107 -0.3869845 0.37434837 -1.031014 0.14443773 0.01857035 -0.27828237 0.13940264 -0.068678334 -0.3390606 0.6415891 -0.19250159 -0.19171643 0.3023725 0.34937975 -0.37673742 0.35658073 -0.046694033 -0.42107832 0.0143665755 0.23114365 -0.41225216 0.36088535 0.50896406 -0.032992996 0.1150281 -0.45159912 -0.19870724 0.14997508 -0.09559612 1.1730471 -0.5849991 -0.6225683 0.4773866 0.64851785 -0.797467 -0.045748737 0.6224991
47 0.46501097 0.05395983 0.64035547 0.25844935 -0.04869863 -0.032835003 0.22356036 -1.4393725 0.040243097 0.64192 -0.2888876 -0.3098496 0.18385254 0.18310137 0.71936584 0.1020019 0.3647609 -0.2104153 0.11420633 -0.14741452 0.054345038 0.43848118 -0.45214313 -0.26167274 -0.9014104 0.6047036 -0.39706725 0.21435621 0.44237605 -0.6287724 0.5373803 -0.34298247 0.27625445 -0.4794428 0.16585597 -1.0369626 0.66262805 -0.75447106 -0.06634461 1.3376511 -0.10008694 0.16561295 0.015055561 -0.78547716 0.023611212 -0.2940272 -0.38745326 0.2531044 -0.5420221 0.27896234 0.4151139 0.46531916 -0.67120737 -0.2768065 0.28701362 -0.030354744 0.6935401 -0.09580591 0.034510285 0.45378023 0.2710862 -0.5519853 0.1806267 0.61508894
397 0.80777496 0.37784907 1.3827418 0.8579471 -0.9600761 0.58489907 -0.3627802 -1.4860858 0.85659754 -0.57750016 -0.5755897 0.09714374 0.27473876 -0.85607123 0.70296234 -0.7102629 -0.019899217 -0.4839824 -1.1351227 -0.17495094 -0.108896725 -0.45801595 0.3680527 -0.02366658 -0.8984897 -0.4636912 0.6789332 0.7922751 -0.19756357 -0.69610757 1.3109818 0.0006770514 -0.012847206 -0.31731883 -1.1849993 -0.019436292 0.15374604 1.0925734 -0.6456321 0.3630447 -0.060712934 0.66028625 -0.4445562 -1.1198269 -0.8669424 0.3261633 -0.101838954 -0.21328375 -0.3643713 0.4810825 1.1546078 1.7686304 -0.7327689 0.04543175 -0.96964586 0.827305 1.351849 -0.018068925 -1.183084 0.5503898 0.38052773 -0.4167192 1.5989836 0.8200631
148 0.008220517 -0.64713246 0.8068609 0.20483163 -0.32388148 -1.1892556 -0.0018255309 -0.068313524 1.282188 0.118621826 0.04271926 -0.05719715 0.33685082 0.34030342 0.48806977 0.026868895 0.094028965 -0.35296923 -0.6059112 -0.4462878 -0.21154732 0.6297872 0.26556283 -0.019291922 -0.60341096 0.6429589 0.22135636 -0.020584662 0.30275452 0.1208892 -0.2036921 -1.447468 -0.7980025 0.32703137 -0.46651182 0.0061653396 -0.42815098 -0.23565426 0.9588707 0.7143934 -0.17763928 -0.67792326 -0.38700777 0.6071048 0.3202918 -0.005580062 0.26667395 0.034942076 0.024157183 0.069308154 0.102101915 -0.09600403 -0.26969978 0.6293387 0.11627789 -0.16358027 0.8355468 -0.11419752 0.14538966 0.4045285 0.37710366 0.13549945 0.65278435 -0.57363766
288 0.8657969 0.3239105 1.3255448 0.8044813 -0.9511493 0.52417487 -0.40521026 -1.5353264 0.77181846 -0.51177883 -0.5027978 0.14788213 0.25994766 -0.9357051 0.6200745 -0.6890324 0.119282566 -0.5063924 -1.1382143 -0.2379917 -0.03131437 -0.46347693 0.48931536 0.086972624 -0.8765526 -0.5209212 0.72925514 0.89778125 -0.25568908 -0.6967235 1.1739773 0.016952371 0.011343991 -0.40130696 -1.1666192 -0.028509839 0.12873212 1.017256 -0.67885745 0.3544734 -0.07685973 0.6200694 -0.50451493 -1.1331629 -0.901959 0.32351726 -0.10129522 -0.30379334 -0.38737068 0.42208195 1.1462667 1.7503868 -0.7162035 0.086362705 -0.9220115 0.77668196 1.3413733 0.0005277211 -1.0762947 0.52061814 0.3330636 -0.42413196 1.4219313 0.7891208
108 1.0163034 -0.051216487 1.2072331 0.93028843 0.7233909 0.12138702 1.2890688 -0.14473476 0.6824845 -1.1207227 -0.39812514 0.22407795 0.4058862 -0.5878377 0.35107833 0.29856667 0.43731984 -0.75669444 0.041595157 -1.0938528 -0.5724306 0.73524714 0.06904857 -0.3436841 -0.3465728 -0.010555071 1.0825707 0.6784678 0.8882197 -0.25629732 -0.57778376 0.34454376 0.23843212 -0.8568563 -1.2459713 0.48633185 0.6067395 -0.3460893 0.47851652 0.17201342 -0.11808578 -0.45963836 0.28081185 -0.49929374 0.22311078 0.51125884 1.0381957 0.5304384 -1.2698128 0.5347656 0.18133587 0.63593453 -2.1448631 -0.62186676 -0.70909995 -0.72417605 0.51248443 -0.4376543 -0.9993125 -1.0182807 0.42087382 -0.371597 -0.96081436 0.081258774
221 -0.34211147 -0.3938093 0.96005416 -0.03972697 0.66563106 0.11123122 0.036427047 -1.1261122 0.38624093 0.26135075 0.24287657 0.45210627 -0.043242756 -0.33372846 0.10896302 0.22357216 0.4599903 -0.31701505 0.097546645 -0.8664836 0.48862275 0.15120885 -0.1332718 -0.2254797 -1.0166954 0.27755755 -0.47957405 -0.34295347 0.30736375 -1.1395862 0.04849634 0.17668696 -0.35942808 0.2684666 -0.17104946 -0.4084524 0.7499886 -0.18727346 -0.22319146 0.16521865 0.33422163 -0.3229879 0.39599437 -0.061516 -0.37371382 -0.01712437 0.15410584 -0.43208757 0.34119347 0.5061275 0.058871098 0.16649073 -0.5423643 -0.25911275 0.15132928 -0.11975582 1.1620498 -0.6256396 -0.6844634 0.5139808 0.82587904 -0.7106115 -0.08600626 0.525532
264 0.6697999 -0.45396313 0.9008819 0.96093225 -0.8300895 -0.7301773 0.83296126 -1.0611144 1.1311088 -0.41185004 -0.17253639 -0.71183527 -0.19041127 -0.078142755 -0.92578065 0.90052193 -0.41314432 -0.2605775 0.66919523 -0.7859402 0.8822436 -0.13045438 1.0563648 -0.51862293 -0.7123471 -0.47706318 1.4560682 0.19261077 0.51452017 -1.6850135 0.40827546 -0.34559327 -0.51442176 0.054685645 -0.3086571 -0.5115933 0.72417706 0.30527395 0.00060869905 0.63065124 0.0098139765 -0.4426124 -0.8519923 -0.8766385 -0.40197125 0.25143343 1.6436876 -0.0731685 0.061386008 0.70491594 -0.46112645 -0.74515224 -0.973327 0.012999063 0.036028966 -1.0220438 0.38109684 0.09261263 -0.44496286 -0.8583717 0.7542776 0.2770219 1.4773592 -0.38863453
100 -0.54511774 -0.30394447 1.0524335 0.37062907 0.074400306 0.38455075 -0.1685058 -1.3995402 0.1493517 -0.30127367 -0.0008147178 1.1386149 0.07510054 -0.4088581 0.21031561 -0.10632685 0.07253109 -1.2066888 0.15073225 0.83027023 -0.6036939 0.20020863 0.08332159 -0.2302957 0.089409985 0.2520325 -0.49783525 -0.23859946 1.1131742 -0.57653344 -0.5928961 -0.36046344 -0.11290457 0.12745905 0.61159825 -0.9330716 0.9808104 -0.42609984 0.5508518 0.72103316 -0.064006574 -0.12170033 0.21062508 -0.63778186 -0.17368133 -0.24886975 0.4614487 -0.1906542 0.075290754 -0.10595106 0.6049078 -0.009795364 -0.71083784 -0.25655365 0.067099646 -0.074497096 0.3303136 -1.0195813 -0.19412269 0.666358 0.021592991 -0.25268143 -0.16823828 0.17675988
352 0.65567684 -0.5228441 0.9393023 1.0050173 -0.8352941 -0.69234514 0.88622886 -1.0078428 1.183899 -0.42058912 -0.24952897 -0.72306156 -0.28449208 -0.03503175 -0.91232383 0.95048106 -0.43223995 -0.2604638 0.7298915 -0.8726847 0.93057114 -0.08269703 0.97878593 -0.50650775 -0.7049329 -0.44355056 1.467489 0.21506307 0.5863522 -1.6478823 0.43665013 -0.40818992 -0.5345431 0.0946848 -0.37306273 -0.5111691 0.74775773 0.32495773 -0.1445646 0.6598494 0.017807927 -0.37805024 -0.8013613 -0.9192545 -0.39064094 0.2607568 1.659043 -0.0025230057 0.032738663 0.7614444 -0.44886145 -0.77841324 -0.91303396 0.013417313 0.041626725 -0.9977903 0.4111163 0.15459526 -0.50208545 -0.8845974 0.7194317 0.34348717 1.5157763 -0.44145006
231 -0.32718837 -0.37417254 0.97600305 -0.17073457 0.5856457 0.085089736 0.102479525 -1.168033 0.3686509 0.23993519 0.14001323 0.38208064 -0.06524577 -0.31044403 -0.0129540125 0.0038539667 0.4738092 -0.47462857 0.02721693 -0.79328865 0.42397028 0.23134798 -0.16838576 -0.26564366 -1.1667312 0.2792393 -0.5909769 -0.3086111 0.3459531 -1.2023156 0.006572848 0.062335268 -0.35404223 0.27221334 -0.1105458 -0.42197838 0.6440135 -0.19388622 -0.29926112 0.14267385 0.3900192 -0.36145356 0.42499366 -0.08647342 -0.44768822 -0.08823908 0.23049767 -0.36768472 0.36200312 0.486073 0.057726562 0.124957815 -0.45418715 -0.15793999 0.094930716 -0.18720457 1.2189919 -0.6354224 -0.56514704 0.451841 0.75410056 -0.76575667 -0.04896956 0.64396095
9 -0.24334857 -0.25021204 0.91088724 0.0676395 -0.26937583 0.04904478 -0.43040106 -0.7882381 0.34825465 0.2653447 -0.114214145 0.6831435 -0.0071299835 0.4794657 -0.37144703 -0.11736536 0.29761228 -0.4323085 -0.18803258 0.5422179 0.26721287 0.8361808 -0.088424094 -0.47004825 -0.30900803 0.70336837 -0.53847945 -0.017853051 0.08396409 -0.43030703 0.13173766 -0.7156387 0.21867855 -0.31815976 0.5595775 -1.0384057 1.113729 -0.1396541 -0.13912116 0.15088019 0.0653294 -0.21296374 0.3504903 -0.5195924 -0.9100361 0.36425215 0.96004987 -1.0481197 -0.41967294 0.4147101 0.6547109 0.91883403 -0.51051915 0.12946133 -0.59444016 0.110040456 -0.023779875 -0.057461374 -0.49667695 0.53814363 -0.17027657 -0.88220614 -0.16950057 -0.008373878
136 0.9280013 -0.011247105 -0.16700979 0.28493768 0.87570053 -0.5765008 0.5925284 0.13759698 0.45504755 -1.158803 -0.13076083 -0.042067796 0.28518543 -0.26889107 0.078813225 0.5313934 0.46528924 -0.286872 -0.1968773 0.32377213 0.4932503 0.88586235 0.47913754 -0.15683977 0.8538973 0.30380335 -0.12714212 0.6850122 0.20464103 -0.94906324 0.11314589 0.32576 -0.087560676 -0.39862448 0.16109227 -0.11240955 0.47266826 -0.5405541 0.16277075 0.7134921 0.096710876 0.56322527 0.470265 0.23012477 0.2707755 -0.042044055 0.63934994 0.609425 -0.119906865 0.78990954 0.0363081 0.22195973 -0.41402557 0.03277155 -0.027790612 0.76308703 0.69906694 0.6521994 -0.29699907 -0.6436585 0.8528193 -0.21416041 1.1710377 0.25916165
69 1.1105926 -0.44725326 1.024258 0.82276344 -0.5126261 -0.803703 0.077651106 0.28982162 0.72183794 -0.6442644 -0.17621951 0.26273352 0.05017148 -0.12730804 -0.06074345 0.2995203 -0.09198413 -0.64261997 0.08428655 0.74357903 -0.4519307 0.36697552 0.6825466 -0.35956493 -0.5014479 0.4260061 -0.42625117 0.39955616 0.16510041 -0.8770911 0.104206845 -0.05204867 -0.9940656 -0.6642257 0.10647137 0.15784793 -0.27151954 -0.04155802 -0.24707684 0.49809602 0.15606831 0.25928187 0.82210815 -0.27688196 -0.8810661 -0.6813408 -0.25497103 -0.57680035 0.034747757 -0.012916018 -0.7975654 -0.03220424 -0.021284074 0.40881243 -0.18099149 0.63037 0.21269166 -0.2850973 -0.3247623 -0.13824624 0.057174135 0.059417993 -0.90761966 0.3634539
366 0.5576014 -0.54837054 0.95773923 0.8941059 -0.81471545 -0.6526972 0.77752554 -1.0876869 1.1992406 -0.4536904 -0.23575883 -0.7127303 -0.31106183 -0.11605238 -0.92744213 0.9320821 -0.46012938 -0.30832604 0.7099529 -0.7734904 0.88641524 -0.109515764 0.9354324 -0.51792496 -0.7289266 -0.52339923 1.4654478 0.21671891 0.54498655 -1.603866 0.38943622 -0.39597479 -0.57448286 0.0466546 -0.39476672 -0.501642 0.7837265 0.34606332 -0.073594436 0.64094806 -0.020687142 -0.4077079 -0.78487515 -0.8808376 -0.35206506 0.2650359 1.6338878 -0.032322302 0.086052924 0.7225555 -0.5105579 -0.740341 -0.99950624 0.040016107 -0.0029255906 -1.001391 0.3689345 0.16750336 -0.5159554 -0.86010134 0.7423514 0.33271113 1.5204881 -0.47165373
89 -0.30757797 0.88380593 -0.052663945 0.67101943 -1.0903461 0.40492734 0.3726244 0.37537774 0.39468133 0.03661314 -0.30511552 0.98505664 0.73224187 0.10536227 -0.23895891 0.28922075 -0.5002709 -0.26405406 -0.64161927 -0.9270859 0.122102074 0.3113514 0.13723683 -0.092734605 0.60994446 0.8514938 0.34905562 -0.52758473 0.26772785 -1.8320998 0.28573257 -0.53513056 0.41812944 -0.40828443 -1.4013584 0.24416149 0.48195192 -0.19548626 0.7728436 -0.36197236 -0.14312676 -0.55436754 -0.13820858 -0.51308817 -0.7026254 0.5303087 0.687013 -0.19150503 0.4683884 -0.20378134 0.5451779 1.0841204 -0.9675936 -0.252703 0.5917458 0.40254414 0.27235514 -0.6801979 0.16692287 -1.0903289 0.36068475 0.13849683 0.09537929 0.61232066
347 0.29394886 0.19202447 0.13802592 -0.23258851 -0.4680124 0.09746373 -0.20103641 -0.46788922 0.5284938 -0.2567485 -0.47012106 0.2830048 -0.12919915 0.368945 -0.16215469 -0.20696288 -0.4576898 0.32388026 -0.029308997 -0.22186552 -0.3041626 0.86988294 0.1076029 0.47602165 -0.022328986 0.17581743 -0.25045654 -0.004007353 0.46711347 -0.25594553 -0.28402883 0.18043488 0.1575477 0.5584087 0.3658684 0.7749837 0.35024604 0.59826744 0.029874777 0.4505211 -0.19889142 -0.29797494 -0.13454895 -0.028821306 -0.046787314 0.31159586 -0.31693882 -0.19285804 -0.368231 0.10893077 -0.54084843 0.63297105 -0.6396587 0.02067977 -0.46947417 0.3536 0.67185885 -0.07206957 -0.12595072 -0.02477479 0.45765615 0.22571872 0.122462675 0.36865586
62 -0.2794868 -0.35694477 0.6422628 0.74270046 -1.004329 0.16546524 0.55318564 -0.38669392 0.74726814 0.0066549494 -0.1393743 0.12076128 1.0503755 -0.33443078 0.43014103 1.1252929 0.26200253 0.35611737 -0.2815182 -0.10426679 0.4185208 0.11057008 0.19634621 0.64969456 -0.29793835 0.06701245 -0.7498524 0.34472755 0.76347405 -0.6324788 -0.083542116 -1.0102972 -0.9416762 -0.30004823 -0.07350893 1.1442984 0.39260513 -0.11870839 0.50529397 0.5448608 0.0017529402 -0.20748189 0.3770395 0.04888651 -0.23707429 0.23197158 0.49300265 0.14133789 0.106436424 -0.55968356 0.5461701 0.0033457936 -0.43825218 0.45119652 -0.033025555 -0.4580862 0.096140996 0.8411624 -0.60431397 0.6167943 -0.5621017 -0.38748342 0.35328168 -0.087896764
299 -0.054205045 0.37638363 0.3142288 -0.70264155 -0.013433446 -0.45487052 0.31272167 -0.33291346 -0.16369931 -0.5202537 -0.6344618 0.8227367 0.3405073 0.23619527 -0.13845289 -0.1627628 -0.2847534 0.5962746 -0.61597794 -0.009654882 -0.7174777 1.0145383 0.31400228 0.4605441 -0.5438652 0.37012437 -0.38229492 0.45045826 0.24176408 -0.13651656 -0.54233754 -0.10900672 0.7357997 1.0628734 0.4302778 1.1829365 0.41357967 0.7651039 0.054237455 0.715233 0.31364802 -0.27001062 0.02148158 -0.3996311 -0.19118501 0.75676167 -0.6579603 -0.12322465 -0.21423759 -0.16822931 -0.6305382 0.11082538 -0.8795391 0.21325846 -0.3825443 0.3807523 0.6438589 0.21231058 -0.6095646 -0.28039962 0.54626447 -0.18154174 0.43315783 0.64525175
172 0.48994896 -0.610498 0.25393814 -0.2540375 0.56048065 -0.32749563 0.9149701 0.08969327 0.7461349 -1.1940318 0.49660763 -0.70830303 -0.41625836 -1.1613288 0.36985278 0.7644147 0.008321355 -0.6483382 -0.1874378 0.18993407 0.7788967 0.8605377 0.8845453 0.529445 0.10885025 0.768936 -0.5079397 0.77753717 0.22587891 -0.410737 0.06311699 -0.22411671 0.56091547 -0.06085998 0.021465363 0.39801008 0.38423756 -0.088243015 0.6059512 -0.24120976 -0.32976615 0.6770834 0.41442043 -0.20266753 0.042556982 -0.021285381 -0.2672066 0.5126196 -0.634961 0.8809518 -0.030967845 -0.12431479 -0.119652696 0.44639456 0.044746947 0.42559072 0.83612496 -0.07466527 -0.559209 -1.1655148 0.17536867 -1.1583185 0.24593891 -0.39917436
457 0.0010730444 -0.12213565 0.38866216 0.3684772 -0.14915684 -0.23659708 0.33600098 -0.0020367822 0.21634303 -0.26925346 0.063309506 -0.2695414 -0.62583786 -0.075656556 0.042719733 -0.22335131 0.11679545 0.1482784 -0.5358531 0.3210132 0.3600779 0.55170184 0.12588182 0.25618356 0.43179432 0.20552121 0.0023483094 0.44908702 -0.028478758 -0.4274272 -0.24972999 -0.017448377 0.08107477 -0.18989182 0.24455707 0.0230139 0.3076101 0.16279279 0.15025498 0.048281863 -0.49061438 0.089985184 -0.363517 -0.2713399 -0.24902071 -0.04725281 -0.023765523 0.4115884 0.3620709 0.117031336 -0.2241367 0.4391 -0.21556044 0.17339225 0.4227783 0.17880231 0.12078557 -0.32234934 -0.15423186 0.38645527 -0.05611373 -0.026002161 0.51203334 -0.2990161
14 -0.38048807 0.281308 0.5824308 0.37205008 -0.6533281 -0.73166406 0.23342289 0.29730585 0.568743 -0.1604793 -0.078202 -0.075082816 0.49978086 -0.66629815 0.3871906 0.71650004 0.31456625 -0.4051142 -0.25833377 -0.04063548 0.106910385 0.2532059 0.12264776 0.7738595 -0.48243767 0.8852719 -0.07903142 0.82916003 0.43652496 -0.4842045 -0.41959804 -1.2092736 -0.48372638 -0.8730731 0.22547899 0.6587128 0.2664474 -0.07553646 0.08066069 -0.19115107 0.2532993 -0.482727 0.28162113 0.51948 0.40820855 0.48881826 0.06696079 -0.026508609 -0.24190037 -0.6767254 0.54061997 0.18403132 -0.9221593 -0.036729135 -0.009089371 -0.71836287 0.09989997 0.42820063 0.064785205 0.24652049 -0.1461558 0.03483147 0.15192223 -0.02410739
158 -0.59839803 0.50903046 0.8518114 -0.2696688 0.3410164 0.16902581 0.2595085 -0.9200004 -0.015177321 -0.11034389 0.46749514 -0.41012892 -0.3092036 -0.21312554 0.22588946 -0.5510257 -0.08226532 -0.08066954 -0.27651817 0.3821871 0.34713426 1.1732515 0.1331162 0.49016842 -0.45881924 0.08991701 -0.6729609 -0.5782707 0.6132841 -0.21463238 -0.4112688 -1.2643955 -0.34882042 -0.38402802 -0.14598833 -0.6297206 0.51577014 -0.22223248 -0.9571748 0.65846956 -0.11574983 0.19993852 0.09241117 -0.0064059854 -0.04511712 0.12452362 0.7156219 -0.27285704 0.17818774 -0.31311586 1.0581347 0.3416997 0.24419788 -0.7140194 -1.0353059 0.17276163 0.82490593 -0.3787607 -0.5266473 0.06981252 0.4400151 -0.83460057 -0.19738266 0.39168552
96 -0.2854677 -0.46104246 0.54251486 0.6218194 -0.9817576 0.18232276 0.5676893 -0.49524552 0.7211253 -0.0796755 -0.21277586 0.18886127 0.8402444 -0.36445948 0.35630962 1.133643 0.15946238 0.47863948 -0.37012392 -0.1331218 0.42437148 -0.034377035 0.2722879 0.65636414 -0.35841858 0.08728854 -0.77701104 0.3738261 0.8121922 -0.58834726 -0.057485014 -1.0537099 -0.99258095 -0.34966943 -0.12104955 1.0527678 0.44157028 -0.18475914 0.40360135 0.6117515 -0.164174 -0.16218734 0.35818362 0.11473068 -0.1667565 0.22279663 0.47718483 0.18381156 0.0952687 -0.74341667 0.53562987 0.041561995 -0.33958372 0.4570115 0.004477001 -0.4141948 0.15647906 0.8052302 -0.5825781 0.5082964 -0.5514031 -0.49473634 0.38593328 -0.023522435
135 0.5154359 -0.526823 0.28935236 -0.15833071 0.40211445 -0.46330604 0.9070957 0.06553037 0.8046573 -1.2857573 0.55843955 -0.5274644 -0.37190074 -1.2304378 0.39172074 0.710584 0.06357869 -0.5469208 -0.11535679 0.3089425 0.7046994 0.79899645 0.80652064 0.42909265 0.14446044 0.72206664 -0.57834643 0.8015447 0.14794278 -0.31715727 -0.03789294 -0.20858121 0.38438115 -0.0018500347 -0.03383514 0.39206865 0.42096066 0.004397409 0.66423935 -0.27372077 -0.38356552 0.6700739 0.43586457 -0.26482755 -0.009896814 0.034053512 -0.2754303 0.5742932 -0.67006403 1.0256222 -0.030172732 -0.13553059 -0.01831024 0.36902028 0.057966918 0.35039622 0.792515 -0.16289204 -0.59212035 -1.173547 0.26372352 -1.1454704 0.30481014 -0.3319205
88 0.31859672 0.40973043 0.8043873 0.43139574 -1.0305889 0.31981614 -0.15843818 0.46632215 -0.69727767 -0.34165078 0.0015874669 0.52488595 0.22001795 0.4707233 -0.21166079 -0.23514271 -1.2339252 0.020891394 -1.0900334 -0.49837923 0.30885535 0.290235 -0.04184465 0.29029226 -0.15646058 -0.13151456 -0.31448922 0.48507532 -0.009889055 -1.1637666 0.16720265 -0.18371908 0.4272181 -0.05052935 -1.6009216 0.46857294 0.37686667 -0.09986713 0.46233967 -0.063044325 -0.22714435 0.07685726 -0.19259283 0.3652741 -0.24067381 1.1764666 0.9260476 -0.10383592 -0.11025955 -0.2346898 0.46425465 0.71633047 -0.9092666 -0.24198477 0.5819248 -0.0898714 0.32874206 -0.5499737 -0.68271166 -0.7395313 0.47081903 -0.5361078 -0.47007006 0.58244
297 0.9346275 -0.19893007 1.0956441 0.7944447 0.8648305 0.18613395 1.2350986 -0.37955126 0.6545152 -1.2469888 -0.39885628 0.28847402 0.5636867 -0.70950156 0.1639762 0.5446065 0.42473114 -0.8008709 -0.040374026 -0.9117447 -0.69205034 0.7137286 0.2278209 -0.3982834 -0.43559432 -0.18486688 0.9118405 0.7983726 1.0160352 -0.32632798 -0.4807965 0.4164895 -0.046405 -0.7725129 -1.3073624 0.6801112 0.5426397 -0.35035837 0.23421568 0.13232899 -0.2039385 -0.48689035 0.45117465 -0.57219905 0.23678909 0.5277072 1.0820946 0.32586133 -0.97881544 0.52826136 0.2927122 0.6691444 -1.9651895 -0.6692698 -0.48463693 -0.6968786 0.6892659 -0.4824251 -0.95500284 -0.8612571 0.210501 -0.4956726 -0.91023 0.10409857
210 0.5455249 -0.55774987 0.22952388 -0.3138195 0.46744636 -0.3253813 0.94500667 0.10522983 0.77450764 -1.3482867 0.5660376 -0.6597696 -0.3242419 -1.104871 0.4398087 0.80854803 -0.03989857 -0.678736 -0.25704193 0.3959233 0.6646544 0.9306711 0.94453144 0.52999294 0.1841198 0.83097315 -0.44129133 0.7873355 0.22079793 -0.39183107 0.077809595 -0.19025385 0.47877666 0.036701914 0.10611226 0.4383212 0.50750583 -0.0067215725 0.5416375 -0.29902703 -0.39807767 0.6307016 0.36678356 -0.34389374 0.07086226 -0.019294085 -0.16004728 0.56625247 -0.62443846 0.8946979 -0.0021871172 -0.21523155 -0.04078356 0.3610131 0.14043546 0.30906576 0.81187373 -0.045751926 -0.6146557 -1.2424095 0.30104142 -1.1952477 0.3079138 -0.35599855
32 1.2717398 0.3939666 0.7968911 -0.21627237 0.6021315 -0.53992826 0.5056923 0.32906678 -0.043295246 -1.2468898 0.23390451 -0.108760916 -0.032083657 -0.28047553 0.16386008 0.44773838 0.5816947 -0.436465 -0.21517487 0.18950649 0.23779418 0.6989891 0.57679695 0.06023491 0.6930583 0.81398624 -0.5912595 0.4304136 0.18307592 -0.931721 0.17650734 0.9582195 -0.15612337 -0.67002004 0.118714206 -0.10710837 0.27303535 -0.59237105 0.4555519 0.39191622 -0.34104782 -0.47856873 0.8974894 0.21459131 0.6390481 0.2776296 1.2211877 1.0102124 -0.6199518 0.86219543 -0.070432074 0.4323044 -0.17055732 0.057440206 0.1938626 0.7089438 0.7567003 0.8731426 -0.91110736 -0.043718096 0.8687546 0.52748257 0.9598657 0.49539906
36 0.044153444 -0.194026 0.74586153 0.6574544 0.2158135 0.074150234 0.29443732 -0.1910529 -0.5834132 -0.2319498 0.42488253 -0.90681756 0.0043536676 -0.34696308 -0.35625532 -0.43613854 0.3045667 -0.120104335 -0.46411282 0.08033113 0.42299473 1.3817198 0.12650286 0.57753634 0.08051698 -0.25109455 -0.07212855 0.5761798 -0.24884452 -0.7646691 -0.042296406 -0.018027788 0.82955813 -0.21339929 -0.054607864 0.9368434 0.57726836 -0.26105726 -0.29203647 0.38845482 -0.30643788 -0.3373356 -0.98387945 -0.07864295 0.1377996 -0.12724784 0.23036045 0.42615893 0.1423862 0.46776313 -0.11044143 0.4494812 -0.1715342 -0.0038629256 0.44736743 -0.49793577 -0.030158088 -0.738159 -0.1976108 -0.13254964 -0.25777844 0.071545966 -0.015999176 -0.4280755
426 0.007379152 -0.50620747 -0.07797372 0.33806887 0.21962635 -0.21284145 0.50630254 -0.04356894 -0.44202033 -0.46790734 0.51825696 -0.36782062 -0.76950866 -0.13209352 -0.20787208 0.0033166693 0.10452273 0.5157015 -0.54251724 0.2901009 -0.38863075 1.7890956 -0.62426937 0.25412777 0.15602034 -0.25497028 0.34567127 0.7300108 -0.42233923 -0.7378703 0.1135593 -0.4007137 -0.62886417 -0.07737771 -0.07314597 0.074468955 -0.09900859 -0.4159096 0.44668856 -0.2960069 -0.7357762 -0.31560838 0.2829125 -0.40135697 -0.024710454 -0.013653859 -0.16019109 0.016590033 0.1855176 0.40066722 0.21932809 0.51940346 -0.90147203 0.46738088 0.60088944 -0.018495249 0.33937663 -0.10337434 0.16347584 0.37224907 -0.052439734 -0.20383719 0.4555139 0.2529673
180 0.32260555 0.47680598 0.7130057 0.40483743 -1.0471131 0.2795684 -0.16322234 0.46036938 -0.64014405 -0.32157207 0.030719738 0.5554745 0.22790307 0.37955114 -0.1478636 -0.12902154 -1.3074384 0.03720308 -1.0896268 -0.4744111 0.3949071 0.28911304 -0.06699462 0.34149152 -0.16098896 -0.057773583 -0.22015502 0.63749313 0.026642563 -1.2505594 0.18025205 -0.27470887 0.43097356 -0.061941244 -1.4337991 0.49115264 0.2343125 -0.059940077 0.5025091 -0.025915248 -0.0722042 0.037000142 -0.15192166 0.35008815 -0.28325692 1.1844249 0.8121604 -0.08423815 -0.17118505 -0.28578627 0.39015082 0.5340109 -0.93877596 -0.25568387 0.60845596 -0.026168771 0.31837636 -0.5151256 -0.6191832 -0.823481 0.6074604 -0.64446276 -0.5415788 0.6439997
143 -0.15790002 -0.12941557 0.8965265 0.8239473 -0.5834432 -0.16939586 0.19346918 0.124989204 0.17497015 -0.72362393 0.07791871 -0.019682681 -0.09258706 0.28618148 0.09620913 0.34402558 0.10460528 -0.11214589 0.33101743 0.6840294 -0.39497918 0.5147067 0.63884515 -0.10621821 -0.44580537 0.22608562 0.08581582 0.19226293 -0.29670084 -0.6970149 0.22772501 -0.1165571 -0.38670257 -0.34447724 -0.029908776 0.27876988 -0.12616368 0.075260155 -0.3345215 0.63277555 -0.010920299 0.062576964 0.4085961 0.051790625 0.07183527 -0.20913762 -0.02749912 -0.43985045 0.08760541 -0.12300899 -0.3445598 -0.060839005 -0.16224466 0.5983749 -0.017994754 0.57317895 0.37516364 -0.32983837 -0.15183695 0.07018122 0.53985757 0.40124 -0.50069505 0.2733021
80 0.3437111 0.51652694 0.7885426 0.40899047 -1.0623813 0.38225466 -0.22703698 0.54016644 -0.6736411 -0.3896898 -0.08785138 0.61335534 0.222404 0.37414998 -0.084860936 -0.19175816 -1.2354826 0.027066963 -1.0414884 -0.43868595 0.39503765 0.34922832 -0.08196172 0.19761351 -0.2002755 -0.12934835 -0.31973797 0.61979055 -0.021964276 -1.2942587 0.092535615 -0.31500933 0.51362276 0.040728558 -1.674329 0.53002656 0.39861852 -0.19754662 0.40720752 0.03152655 -0.14903763 0.094549805 -0.16368607 0.35580507 -0.3311043 1.2744873 0.9408611 -0.0447453 -0.05966684 -0.20267986 0.39195064 0.7221258 -0.89994764 -0.19934134 0.6327795 -0.11247618 0.3089408 -0.5700405 -0.5372005 -0.86494654 0.5576331 -0.5393241 -0.49438453 0.51493806
154 -0.49575654 -0.18771604 1.0019476 -0.08157797 0.638275 0.0781325 0.07732231 -1.0229875 0.41157472 0.22259535 0.22602136 0.42938456 -0.12615341 -0.24472548 -0.012923743 0.14571504 0.40973607 -0.46846408 0.15630169 -0.69093657 0.48857272 0.13678385 -0.16904144 -0.20648804 -1.176731 0.22740515 -0.53831303 -0.2774289 0.26204494 -1.0843756 -0.10827175 0.2593104 -0.43101856 0.22586422 -0.12026539 -0.35607967 0.74760526 -0.15737523 -0.21374318 0.14209887 0.3591821 -0.32885724 0.40637508 -0.13458842 -0.45470557 -0.086869664 0.2251815 -0.33642915 0.3852515 0.73239666 0.21559209 0.16195317 -0.52844214 -0.15510352 0.22773945 -0.25458208 1.3327652 -0.5282001 -0.42244944 0.552724 0.68999267 -0.65269357 -0.12869571 0.6205224
104 0.05068489 0.10546562 1.4316807 0.90177476 -0.67330456 -0.019345604 0.065684766 0.31026366 0.24202 -0.5478921 0.37771395 -0.15206672 -0.3893024 -0.407587 -0.10225549 -0.2193115 0.42220244 0.24239752 0.39927247 0.28692704 -0.31712356 0.74272466 0.42902878 0.28728864 -1.0113446 0.23396422 -0.14180967 -0.0017319913 -0.22403288 -0.9611311 0.5527836 -0.08516877 0.36715457 -0.23257583 0.15492593 0.9858237 -0.08251806 -0.11626569 0.19441462 0.6533538 -0.7027897 0.25070986 0.39224595 0.22354275 -0.04971442 -0.41904023 0.09595063 -0.7779527 -0.45235208 0.07962173 -0.10809211 -0.9831897 -0.68539256 0.076673284 -0.29301542 0.41868412 0.047994018 -0.47101244 0.105943576 -0.5961182 0.29854798 0.6609816 -0.7658813 -0.014147097
41 0.26222265 0.48271075 0.7265438 0.32505238 -1.0628302 0.3370986 -0.20856614 0.42397296 -0.6381316 -0.319317 -0.030654896 0.55150473 0.28561187 0.419279 -0.090988524 -0.15187842 -1.1763355 -0.025103454 -1.1007918 -0.42698342 0.3511502 0.36003903 -0.00792242 0.23891766 -0.09641396 -0.09492683 -0.14871259 0.5194856 0.020860754 -1.2981758 0.12993275 -0.21465875 0.5339753 -0.050143257 -1.6787573 0.4292271 0.37691692 -0.15843375 0.4113213 -0.04204367 -0.13275336 -0.018412214 -0.22500071 0.35144013 -0.29169425 1.1257013 0.82470345 0.01094102 -0.12851833 -0.28275487 0.46065181 0.6555218 -0.9318094 -0.1823783 0.5248865 -0.11649548 0.23501393 -0.64496744 -0.7615863 -0.833367 0.55383104 -0.5505699 -0.47380024 0.5967076
206 -0.0050696596 -0.18370157 0.68115884 0.66535836 0.27248153 0.09283479 0.23753561 -0.13623227 -0.54857874 -0.20900902 0.37330577 -0.97321445 0.018485233 -0.34939134 -0.4837664 -0.37711048 0.4050851 -0.060472053 -0.3698316 0.011154787 0.61310875 1.2937083 0.15854232 0.63877386 0.056333564 -0.24902825 -0.2542718 0.6968591 -0.13463414 -0.68108946 -0.1297084 -0.0054010153 0.7257764 -0.33467224 -0.03661767 0.9154943 0.5358581 -0.113283165 -0.26359874 0.28571954 -0.39461902 -0.37111056 -1.0929543 -0.088804826 0.21217628 0.029015431 0.22628598 0.45437267 -0.032928213 0.40968895 0.05558391 0.5434725 -0.23069341 0.086458325 0.62241536 -0.36017865 0.011492309 -0.95603585 -0.17901747 -0.088168085 -0.19334489 -0.058151815 -0.11825357 -0.43028727
283 0.36615363 0.02318102 0.19103175 -0.17420602 -0.46073642 0.022019135 -0.29519138 -0.39375982 0.569589 -0.35294884 -0.60740584 0.364358 -0.004040595 0.3624246 -0.27092308 -0.15446784 -0.4218965 0.33772573 -0.05423653 -0.26515794 -0.120186776 0.8820589 -0.00035930332 0.485099 -0.048293114 0.22057469 -0.26569572 0.074759364 0.4404537 -0.13359627 -0.43705785 0.28330958 0.08111504 0.46935934 0.4235702 0.6664142 0.4369359 0.67919594 0.100867316 0.36001262 -0.24719179 -0.36645293 -0.011462701 -0.117114045 -0.041210394 0.50201654 -0.23764676 -0.30521783 -0.34771562 0.08035585 -0.45160833 0.4924405 -0.73739094 -0.0047885217 -0.34771818 0.52272546 0.7567171 -0.17585173 0.06037057 0.0036208285 0.43693033 0.15812895 0.105787426 0.33316663
251 -0.20241974 0.5695628 0.108815156 0.19763733 -0.43387443 -0.028213678 -0.5008458 -0.6440273 0.9160965 0.21166353 -0.50099885 0.46343732 -0.18084462 -0.13925965 -0.8223358 -0.14655067 0.6149567 0.39588934 0.11484207 -0.6736919 -0.10615546 1.0895052 0.4436009 0.5583579 0.23862974 -0.03344571 0.20461744 0.6457241 0.460392 -0.17541066 -0.45436403 0.397552 0.68235946 0.44709724 -0.047487803 0.87926507 0.58435625 0.11927382 -0.24696334 0.6649705 -0.5336391 -0.3340556 0.017227758 -0.15803374 -0.35795197 0.49940422 0.18232343 0.14910595 -0.88489467 0.13771512 -0.38266647 0.517179 -0.4965656 -0.107776284 -0.32451618 0.0955343 1.0906739 -0.040687945 0.52462614 -0.5296185 0.5544537 0.41756836 -0.29629266 0.26063764
122 -0.11577756 0.31388265 0.52116364 0.14226629 -0.23717068 0.28807563 0.051624343 -0.5895848 0.18050997 0.07173219 0.14739157 -0.07852856 -0.24146451 -0.12258174 0.21465385 -0.05986923 0.468167 -0.50276417 0.03146052 0.053563703 0.119814396 0.53875566 -0.24115331 -0.097990766 -0.27324298 0.6380209 -0.48207876 -0.16131614 0.56400675 -0.64178103 -0.089541845 -0.48463625 0.14375229 0.27034298 0.3166569 -0.79036516 0.672402 -0.24244122 -0.08469086 0.64000535 0.033748895 -0.29255924 0.31972387 -0.3620346 -0.23920986 -0.15645151 0.2904043 -0.39019763 -0.20133352 -0.0023905996 0.4419387 0.23397927 -0.22168854 -0.09245111 -0.26063564 -0.1016379 0.33820745 -0.49803868 -0.24637932 0.413202 0.31267545 -0.719714 -0.13351478 0.3574656
346 0.38718027 0.18404356 0.08591481 -0.21684846 -0.38674554 0.0053815553 -0.22111039 -0.42454582 0.5535954 -0.30315953 -0.59519637 0.40170294 -0.057627726 0.39595506 -0.24824375 -0.046587747 -0.46422455 0.27931878 -0.04180089 -0.14332779 -0.2025823 0.90446657 0.05718634 0.50169516 -0.08694335 0.06363603 -0.25960475 0.16839275 0.40385816 -0.16479214 -0.31631756 0.15502058 0.08868099 0.564906 0.41760182 0.74667877 0.47090855 0.50272685 -0.004155597 0.3326894 -0.2028368 -0.29154962 -0.0968619 -0.090934336 -0.18424554 0.37616068 -0.23569392 -0.22827832 -0.29930174 -0.0027145753 -0.5266582 0.5519286 -0.70830655 -0.008401675 -0.36370757 0.47937214 0.6907705 -0.117634125 -0.014154382 -0.09475701 0.44488463 0.22654799 0.154669 0.33888945
296 0.32205418 -0.1652079 0.8712101 0.4494091 0.012315616 -0.22667052 0.20980978 -0.19242269 0.46391863 -0.4334278 -0.5830096 -0.3029922 0.057549097 0.3004602 -0.77686113 0.23965967 -0.861984 0.4405295 0.0473056 -1.1178851 -0.6804338 0.6302464 -0.120341554 0.73140126 0.24197035 -0.14865792 -0.16934012 0.02156139 0.31465593 -0.6056682 -0.28358948 -0.2758711 0.32739997 0.59138405 0.7260125 0.7453836 0.46796435 0.9579501 -0.1810973 0.47062978 -0.36065832 -0.2901977 0.25632402 0.0025835338 0.28440827 0.98765707 -0.06597496 -0.6763383 0.4636856 0.12739846 -0.57867235 0.65997183 -0.23546614 -0.788565 -0.76530695 0.7781365 1.16626 -0.15560742 0.7146003 0.019267278 0.033998877 0.07002241 0.34977657 0.052121118
140 1.3037844 0.4012087 0.905128 -0.260087 0.5306578 -0.53123194 0.49146727 0.31420085 0.020189332 -1.2188475 0.24505915 -0.24230842 0.025872322 -0.3391007 0.05893258 0.49470705 0.5716915 -0.5523317 -0.26422954 0.13276431 0.23423411 0.71168196 0.41898048 0.03555804 0.71973 0.9056935 -0.6224542 0.5252723 0.09927522 -0.98640484 -0.023643179 1.133425 -0.16605681 -0.680275 0.11725028 -0.10211643 0.18568805 -0.5802981 0.4565939 0.31275025 -0.35647884 -0.51520276 0.90507126 0.22776768 0.6176797 0.17537276 1.2820446 1.0824418 -0.57705283 0.720638 -0.16337222 0.36793908 -0.11679494 -0.04994036 0.16565602 0.7967108 0.82729185 0.9183783 -0.8950465 -0.08937607 0.7410365 0.4512362 0.95745736 0.54175603
38 0.056499075 0.03213603 0.42927366 0.4111745 -0.2016058 -0.3640237 0.36398566 -0.040586945 0.24954 -0.20786479 0.20409895 -0.36066714 -0.5689105 0.036175027 0.026983257 -0.054123368 0.20898837 0.11721859 -0.4605646 0.35961366 0.4781673 0.50512874 0.10344117 0.26855 0.4215188 -0.021771919 0.04954242 0.27354103 -0.10101655 -0.35590234 -0.32891124 -0.10160573 0.20729677 -0.19577034 0.21176785 0.085933745 0.39364186 0.22372513 0.24365124 0.017508524 -0.40544254 0.09531971 -0.29799968 -0.14813194 -0.22037916 -0.1783807 -0.097181894 0.43836194 0.31197643 0.09927797 -0.2952364 0.47756255 -0.17290746 0.1772125 0.5531621 0.18419819 0.23406386 -0.2707172 -0.19199166 0.40519992 -0.013886651 -0.13899463 0.54623085 -0.13767081
149 1.3427006 0.44072792 0.88284874 -0.25342327 0.608224 -0.49545315 0.43299448 0.36407843 0.04424373 -1.1579974 0.34163633 -0.20918535 0.024434704 -0.28521526 0.27253628 0.39793772 0.44819954 -0.28714117 -0.2961533 0.15464202 0.17409022 0.7254542 0.46217117 0.07273959 0.788035 0.8235446 -0.5433627 0.41829246 0.19392093 -1.0517172 0.14270368 0.94782853 -0.23054351 -0.6570612 0.0801205 -0.21735442 0.33103365 -0.54589844 0.42208076 0.3020597 -0.23974358 -0.4012814 0.91915613 0.29527605 0.5839218 0.25214335 1.2340256 0.92337906 -0.58669513 0.9401001 -0.004115848 0.31138808 -0.1894696 -0.075733654 0.22448204 0.84321165 0.7758979 0.93349713 -0.9258357 -0.11280327 0.6562394 0.5427605 0.9602571 0.4250208
73 -0.3623756 0.90584075 -0.014411826 0.7059205 -1.0027314 0.28769803 0.31722054 0.32913342 0.38860238 0.13709317 -0.25014037 0.9570674 0.70377004 0.20950794 -0.14472213 0.2663315 -0.60305554 -0.27073535 -0.60193646 -0.8582832 0.162723 0.27792427 0.16134666 -1.1110137e-05 0.6895405 0.78433025 0.33520707 -0.25512466 0.328366 -1.7632346 0.24449164 -0.43710965 0.43521264 -0.3092419 -1.3376533 0.13469164 0.39563006 -0.23955669 0.8681248 -0.32355958 -0.22632417 -0.68940735 -0.021057883 -0.5518956 -0.6279771 0.6121449 0.6581834 -0.30086842 0.4709452 -0.16426592 0.40609306 1.0001527 -0.9049773 -0.24908185 0.40281844 0.42149237 0.24874297 -0.6211993 -0.024434341 -1.0714754 0.3734501 0.06175263 0.14146084 0.61229247
341 0.2111473 -0.10351217 0.16840982 -0.2741666 -0.13001215 -0.46420622 -0.447658 -0.6008242 0.7137004 -0.95289636 -0.2225953 0.22278734 0.17616521 -0.041786138 -0.06455831 0.42073444 -0.9992401 0.22100262 -0.08405494 -0.50796056 -0.0832593 1.020563 -0.282928 0.45485777 -0.20466904 -0.2063334 -0.32748702 0.12842177 -0.1200767 -0.014766709 -0.48042354 -0.089737654 0.5823324 1.2969116 -0.5660227 1.3825921 0.26325846 0.17293556 -0.48915383 0.09345487 -0.27140442 0.043773845 -0.08373567 -0.1742124 0.12259726 -0.25563094 0.25660908 -0.6471027 -0.08431961 -0.2498573 0.33623287 0.8673677 -0.86255085 0.039023396 0.14615029 0.87298036 1.0808791 -0.06473079 -0.045486804 0.15199691 0.571697 -0.15217866 0.58209705 0.5881355
177 0.24091172 -0.064319454 -0.109379604 0.12573634 -0.06292538 -0.22801834 0.6897674 -0.015446533 0.49929807 -1.1953143 0.37372914 0.18652356 -0.12349938 -0.5536238 0.19737649 0.27887398 0.28290895 -0.49600136 -0.37115666 0.21785142 0.8482288 0.9519095 0.5147713 0.3698482 0.43331268 0.48546875 0.18809801 0.45081005 -0.325589 -0.4067338 0.29199484 -0.10330499 0.33910426 -0.22635292 0.2809386 0.08178092 0.49805814 -0.057926703 0.3666888 0.31066057 -0.1123236 0.4571728 0.048296288 0.23533218 0.1380016 -0.20931111 0.12420407 0.6482008 -0.10350966 0.96861315 0.023076747 0.08842582 -0.25313407 0.26058912 -0.07880203 0.21336593 0.46863407 0.42005283 -0.34526864 -0.83266354 0.4202676 -0.86271244 0.67459995 -0.47223157
194 0.053037718 -0.9884799 1.0733165 0.3288103 0.119621076 -1.0858244 0.117176175 0.3034688 1.2509453 0.073399544 0.052694675 -0.19290605 0.16447161 0.4154596 0.25268203 0.40935373 -0.24856387 -0.6028478 -0.48701045 -0.6960061 -0.25641522 0.3920346 -0.0064820163 -0.14653234 -0.60338694 0.7900421 0.2379765 -0.32226056 0.011643053 -0.82115465 0.1703471 -1.8266263 -0.37093025 0.5183048 -0.70633876 0.2731995 -0.2814437 -0.07217032 1.1961164 0.8361372 -0.42469412 -1.047727 -0.55210876 0.61827385 0.90989256 0.20457467 0.18213609 -0.0023872936 0.271664 0.35661393 -0.04413574 0.10957244 0.081305146 0.33076078 0.040873118 -0.047478765 0.84638584 0.05842082 0.49756655 0.7289331 0.29098895 0.19465096 1.0161306 -0.37786898
101 -0.29264224 -0.72475433 1.2583854 0.8823605 -0.82479554 -0.12945846 -0.30375004 -0.04725916 -0.027251292 -0.48143363 0.3882489 0.058636703 -0.2430649 0.09089684 -0.21247959 0.67481697 0.6833018 -0.0311305 0.32452795 0.7558332 -0.47959706 0.6689695 0.39893532 -0.54631275 0.23195921 0.42878097 -0.10939392 0.17913671 0.1266178 -1.0348923 0.39798027 -0.55400574 -0.7774621 -0.16979222 -0.70686865 0.40752932 -0.039234184 0.6889964 -0.50715554 0.7536429 -0.368647 0.2433481 -0.22256482 0.29486462 0.2945926 0.29876137 -0.6284892 -0.7075775 0.19386268 0.4242552 -0.13952856 -0.5925201 0.22764392 0.6602191 0.11805218 0.17173469 0.8128705 -0.15240145 -0.29854566 -0.38638866 0.9438619 0.48924664 -0.503854 0.5746252
127 -0.18260607 -0.2662929 1.0914708 0.8473922 -0.549321 -0.20021987 0.31961972 0.04837267 0.093760535 -0.6783954 0.04655318 -0.050530188 -0.27334467 0.3653706 -0.02426686 0.28856355 0.07934809 -0.19781859 0.41242513 0.594623 -0.39775014 0.59331447 0.6664476 -0.031874683 -0.38682583 0.20417653 0.12482086 0.16043115 -0.30503723 -0.5972281 0.18611148 -0.13953532 -0.34096244 -0.3663124 -0.01312441 0.37938324 -0.16486435 0.009817901 -0.3124302 0.69327897 0.1296494 -0.062167984 0.342765 0.13525577 0.09614045 -0.19923657 -0.048151106 -0.5162705 0.0007917738 -0.08817846 -0.24650626 -0.14310801 -0.15517946 0.54803634 -0.071552694 0.6823881 0.24980718 -0.2912419 -0.23812328 0.060770713 0.4835766 0.41324463 -0.4093948 0.30034286
263 0.3268148 0.13212194 0.18519644 -0.05588813 -0.3885222 0.020099584 -0.19441658 -0.42593116 0.4735998 -0.22991942 -0.5460216 0.3940761 -0.05825086 0.32376865 -0.26276922 -0.16174027 -0.54888964 0.28461102 -0.01144058 -0.27416068 -0.2497905 0.8701434 0.09087498 0.53827465 0.032145888 0.21091084 -0.13162401 0.021820266 0.4629625 -0.26136717 -0.32902297 0.22697534 0.13618426 0.6412275 0.4416586 0.6633877 0.43194288 0.5576683 0.0013345509 0.46216738 -0.19870967 -0.23586965 -0.07699467 0.014661118 -0.11281426 0.43692246 -0.30970067 -0.2116881 -0.32295936 0.028836897 -0.4902664 0.5894078 -0.66036946 -0.06352082 -0.37554023 0.4067816 0.69877726 -0.033454977 -0.116192244 -0.034481402 0.36440378 0.20538375 0.14289199 0.23795249
409 0.059205152 -0.49508968 -0.16109417 0.31102005 0.15923233 -0.21810262 0.5202539 -0.20318362 -0.42626458 -0.46181533 0.39504305 -0.54085946 -0.56740654 -0.05003696 -0.109717846 0.09960952 0.13039201 0.44401476 -0.37545013 0.40120026 -0.4021457 1.7354957 -0.45428932 0.34872824 0.32758322 -0.20866463 0.45847127 0.68828946 -0.46871293 -0.5399847 0.123330094 -0.43019277 -0.5198687 -0.06978145 -0.036781173 -0.046866182 -0.06294313 -0.5122493 0.506836 -0.3295583 -0.7383432 -0.35733134 0.11260629 -0.57319754 -0.20721404 0.027089426 -0.14033085 -0.0150136715 0.25143117 0.3543541 0.112007394 0.45271683 -0.8195236 0.5425387 0.5338339 0.022338785 0.39120314 0.1032932 -0.009734279 0.3245006 0.040568646 -0.112582825 0.34041366 0.2819722
55 -0.1274657 -0.38741437 0.56570876 0.11912666 -0.5685061 0.06882868 -0.21658035 -0.82785994 0.063097686 0.2494597 0.2927152 0.35155815 -0.85754687 -0.60832435 -0.2082027 -0.3412279 0.23100352 -1.2986944 -0.15072465 0.87287 0.3685909 0.31993657 -0.7323779 0.068706274 -0.46291557 0.510273 -0.5241112 -0.8676772 -0.46055192 -0.90352166 0.47775894 -0.6187557 -0.08185854 0.52294594 0.058422063 -0.59866905 0.7721008 -0.26137137 -0.03306864 0.44135782 -0.5979881 -0.21737489 0.48802996 -0.083105326 0.21526965 -0.30329487 0.50840336 -0.1220302 -0.45923972 -0.2582474 0.5211691 0.76564825 -0.27427047 -0.33136085 -0.2721821 -0.33150056 0.89896035 -0.26057854 -0.06318511 0.25942525 0.42083356 -0.55713874 -0.13435717 0.8205175
120 -0.45160937 -0.20601949 0.9093642 0.007712966 0.6763405 0.042478185 0.045013472 -1.1560462 0.38129377 0.25563294 0.23707776 0.37635833 -0.034520462 -0.33031994 -0.0448797 0.12779942 0.4284725 -0.4683337 0.12368138 -0.752208 0.4676846 0.14607956 -0.1668925 -0.22512434 -1.0329565 0.28147048 -0.4900432 -0.3405861 0.28644294 -1.0135725 -0.1135645 0.089215405 -0.29630038 0.25353917 -0.15517975 -0.3681994 0.74462277 -0.14283423 -0.099943794 0.32089606 0.5103224 -0.310997 0.4746306 -0.041786984 -0.43705648 0.046164867 0.1045943 -0.33756822 0.33365786 0.63981557 -0.0022847762 0.15677941 -0.50122017 -0.20952357 0.14869718 -0.12817878 1.2604226 -0.6955475 -0.6775648 0.52674395 0.6656314 -0.7300654 -0.01816394 0.5283889
316 -0.0023490714 0.5625406 0.29023552 0.47318834 -1.278456 0.3262684 -0.23836902 0.22246717 -0.39417773 0.007138337 -0.28914645 0.7218235 0.40447366 0.2549736 -0.14312215 0.03287568 -0.7220994 -0.10755982 -1.1009412 -0.2754216 0.5380678 0.25660932 0.072943 0.025592297 0.315401 0.26176938 -0.11319653 0.35897362 0.17500068 -1.258534 0.2014604 -0.4569804 0.21456584 -0.3717486 -1.3370466 0.41166878 0.012374556 -0.026411079 0.45177454 0.06944678 -0.21552421 -0.36509398 -0.015678793 0.09957648 -0.5291587 1.2816833 0.95215 -0.22633275 0.14954397 0.16210932 0.4492295 0.73593575 -0.59480214 -0.064968616 0.49035436 0.36007932 0.39160874 -0.54822785 -0.16440657 -0.6701724 0.61943537 -0.54163957 -0.22205615 0.5819731
348 0.35249716 -0.08281172 0.29730436 -0.3155796 -0.28209868 -0.53932863 -0.47065586 -0.66724044 0.71108145 -0.9456917 -0.15743917 0.11594124 0.24528775 0.014844243 -0.12849005 0.23649862 -1.1409292 0.21553215 0.053494543 -0.56548923 -0.05230038 0.98575485 -0.34974265 0.4712996 0.039599337 -0.15517429 -0.45292997 0.19511493 -0.12247814 -0.08137248 -0.51316696 -0.16961393 0.63390267 1.2629802 -0.5953508 1.2353194 0.25846037 0.32575685 -0.43373254 0.18927532 -0.21374191 0.033363406 -0.07851458 -0.2212387 0.17073567 -0.31887698 0.058241848 -0.6458823 -0.07022478 -0.22813597 0.40465713 0.715096 -0.9464486 -0.080854036 0.2353971 0.93849397 0.9378266 -0.2788987 -0.03868145 0.09375827 0.38414714 -0.094882146 0.6474397 0.61570156
71 -0.077844314 -0.19964144 0.98522764 0.81705326 -0.5373633 -0.13184482 0.3383865 0.11076702 0.23681495 -0.59310555 0.09945255 -0.06510577 -0.098694615 0.19926372 0.03835263 0.19135009 0.19247599 -0.14929794 0.39347365 0.5888907 -0.45302677 0.4988645 0.5212094 -0.117760345 -0.42940512 0.18860568 0.082846805 0.15545656 -0.29767534 -0.78814185 0.20575176 -0.09560436 -0.3658772 -0.31668246 -0.043109227 0.3296314 -0.114269905 0.19444884 -0.32250077 0.6254117 0.15086117 0.026512967 0.2699333 0.07378434 0.06483589 -0.10896447 -0.09274284 -0.48850337 0.0184542 -0.140034 -0.3643456 -0.14074236 -0.22519104 0.69720423 -0.027778042 0.7404609 0.28283232 -0.3338684 -0.067484066 0.028703475 0.50932306 0.25495195 -0.50194156 0.15495127
26 0.3619303 0.12791495 0.6548085 0.3639684 -0.035467252 0.1833257 0.43639606 -1.3298258 0.10533757 0.38026762 -0.19759601 -0.20499988 0.24333708 0.34536263 0.7509298 0.05085811 0.20377405 -0.20119058 0.08718027 -0.12003108 -0.093155436 0.5474813 -0.48674822 -0.38243943 -0.8755278 0.5932439 -0.3081313 0.33913445 0.5477567 -0.56374186 0.2994759 -0.4203273 0.083994456 -0.39746907 0.16253626 -1.0451325 0.67397887 -0.8064603 -0.20490803 1.3412805 0.05717916 0.23232168 0.020518316 -0.7292206 -0.07305021 -0.36623412 -0.3071211 0.33212668 -0.41059437 0.42191762 0.45460892 0.5219781 -0.524247 -0.55298 0.18077527 -0.22738281 0.8890868 -0.047769915 -0.02006797 0.52349246 0.33899856 -0.5794417 0.017476775 0.67800546
183 -0.26182395 -0.43165296 0.50841194 0.6414197 -0.94477594 0.22810073 0.5744594 -0.46530238 0.7512064 -0.07833165 -0.2409524 0.12857282 0.93361914 -0.34447503 0.4348427 1.0900282 0.1734134 0.39212185 -0.3700469 -0.06721389 0.39808527 0.042028602 0.244473 0.6412177 -0.26272953 0.16253237 -0.8333575 0.45806623 0.77600926 -0.75753593 -0.028355852 -1.0504915 -0.97997075 -0.27492997 -0.1997489 1.2212371 0.3924302 -0.115553826 0.36974987 0.61414987 -0.018941017 -0.19921689 0.38785076 0.084238976 -0.20095699 0.23420592 0.5091266 0.22541016 0.24422193 -0.61013335 0.57156587 -0.025605464 -0.33715588 0.48393568 0.006926934 -0.613257 0.21829268 0.7371436 -0.6920166 0.58489084 -0.60488665 -0.52330065 0.45142207 -0.096546315
161 -0.23281439 -0.21529438 1.0969899 0.839981 -0.6081639 -0.17121755 0.1929143 0.025677007 0.23331635 -0.6947221 0.057558637 -0.07367203 -0.12404135 0.13523307 0.020370986 0.2844688 0.16986462 -0.12577496 0.29499206 0.53546435 -0.4763811 0.5232447 0.48165503 -0.21730281 -0.5161208 0.3134854 0.02645491 0.17501108 -0.2977524 -0.74942565 0.2147909 -0.032185595 -0.34258327 -0.43332022 -0.013506632 0.32417366 -0.23109618 0.08513322 -0.26014662 0.6293064 0.031969473 -0.005487779 0.29502344 0.0722093 0.009993222 -0.13027012 -0.080400795 -0.4097076 -0.07140787 -0.058854125 -0.42376456 -0.06546466 -0.13946548 0.7020839 -0.12848294 0.72264665 0.1800236 -0.286225 -0.07634445 -0.0015407258 0.55575013 0.39747614 -0.4608772 0.16447587
66 -0.07412918 -0.17830011 1.0718818 0.8070898 -0.6093751 -0.17167506 0.26348704 -0.043146826 0.30475172 -0.768557 0.15682146 0.01513086 -0.2715364 0.31471342 -0.0054502585 0.14676924 0.033395488 -0.2565813 0.36615452 0.546487 -0.35829714 0.41863444 0.55735666 -0.24695115 -0.37947693 0.20987739 0.08056009 0.17807782 -0.34068328 -0.6791861 0.13150795 -0.19502977 -0.39879566 -0.43225154 -0.048473738 0.43015274 -0.14895874 0.018432116 -0.40175974 0.76093954 0.07556393 -0.0155634945 0.41430664 0.058287993 0.03577323 -0.103994235 -0.093173444 -0.48672304 -0.040118348 -0.060567573 -0.31045395 -0.08559632 -0.107103616 0.59512174 0.031775467 0.72401553 0.22870019 -0.31743982 -0.16114606 0.043652378 0.4827069 0.3441432 -0.49761683 0.26169398
311 0.034378678 -0.45574567 0.0140918065 0.41656715 0.22479163 -0.20139547 0.4262891 -0.111633815 -0.43585083 -0.38685107 0.28271502 -0.43206528 -0.7795296 -0.12922144 -0.026086051 0.17820683 0.14776807 0.3814591 -0.51693815 0.33506724 -0.36028686 1.7299612 -0.5479352 0.15579052 0.3118719 -0.25593105 0.47601527 0.72719026 -0.4827437 -0.6567962 0.13344422 -0.42868748 -0.59079194 -0.043539405 0.09659751 0.16326316 -0.2081285 -0.362678 0.5464296 -0.32731935 -0.7477785 -0.3289457 -0.0034497692 -0.4735202 -0.11087488 -0.08349723 -0.15853521 0.0495672 0.090577625 0.40304756 0.12901725 0.5998626 -0.7384262 0.40962136 0.48063496 -0.025692264 0.3755358 0.036871165 0.12883258 0.26832077 0.071898244 -0.17665148 0.36358604 0.28536046
144 -0.08872292 -0.15824766 0.97155446 0.82546526 -0.6063254 -0.24830826 0.2784914 0.0022937122 0.262863 -0.6638884 0.16541566 -0.027262174 -0.103736155 0.30297828 0.04667818 0.09634417 0.08984227 -0.19024976 0.42519432 0.5659989 -0.45693305 0.51047677 0.60046965 -0.15351963 -0.3265721 0.23879494 0.074889824 0.21837638 -0.3043983 -0.76011366 0.20748185 -0.1687613 -0.43865213 -0.44036812 -0.10856791 0.33989075 -0.17780146 0.07907912 -0.4308855 0.6092438 0.07045985 -0.0086925095 0.48421365 0.10711141 0.038754743 -0.12958305 -0.12601209 -0.50328654 -0.06366573 -0.016245097 -0.41598833 -0.10093165 -0.17290793 0.66317034 -0.030037425 0.61218405 0.22537337 -0.3654268 -0.21996701 0.08482032 0.4749325 0.3218087 -0.36636353 0.27800158
