468 64
462 -0.12288061 0.08607418 -0.13784036 0.4347778 -0.020207822 0.14801334 0.45146984 -0.04491057 -0.20490982 0.0984472 0.1027175 -0.57765025 -0.71352655 0.3182476 0.40871978 -0.15706693 0.12644598 -0.26279554 -0.26064363 0.25538617 0.32969508 0.64417416 0.015810827 0.17306599 0.13801363 -0.26636058 -0.41084117 0.019193562 -0.12759358 0.10328638 -0.20294239 0.15087512 0.07406293 -0.22106604 -0.029464163 0.30224812 0.36440814 0.13679734 -0.047909655 0.2380748 -0.5536379 -0.008595711 0.34764805 0.2318805 -0.07078005 0.39375028 0.06453247 0.21396703 0.0477587 0.07495777 -0.20252292 0.052548576 0.24833798 -0.15995486 0.18716894 -0.20289172 0.3143623 -0.07276026 -0.015103195 0.041796226 0.115885146 -0.22009502 0.17034778 -0.29527524
467 -0.007688616 -0.040020283 0.14641978 -0.11580851 0.44935134 -0.4962274 0.45209682 0.25163302 -0.1046845 0.38403714 0.04503369 -1.0089139 0.2730544 -0.37680233 0.17314884 0.30035254 0.28886086 -0.2074732 0.22069632 -0.11956057 0.31672916 0.6203963 0.2471289 0.08683481 0.09825641 0.69667584 -0.014238257 0.019814657 -0.009836559 -0.4764022 0.049809854 -0.11658166 -0.31945443 -0.06879975 -0.9380353 -0.118876316 -0.252331 0.41347915 -0.3651143 -0.079723425 0.062140062 -0.57134837 -0.20259252 0.14521049 0.14583547 0.094401486 -0.16509093 -0.19138128 -0.36232978 1.07853 -0.40293872 0.029498184 0.4757418 0.31858683 0.2950944 0.2189481 -0.13709375 -0.97731733 -0.509105 0.07475442 0.10511223 -0.035413932 -0.18499885 -0.070696995
465 -0.15523542 -0.22395657 0.33304244 0.7217086 0.13943294 -0.20618704 -0.51937425 0.004765441 -0.20232548 0.2340579 0.3211669 -0.17068607 -0.011603798 -0.78174424 -0.013375319 -0.4666113 -0.1828676 0.17630295 0.122209996 0.005795161 0.80361176 0.5221034 0.59098214 -0.3071442 -0.41870755 -0.06255384 -0.13582428 0.15130979 0.36799675 -0.36848155 -0.2751815 0.14107506 -0.5335502 0.22927599 -0.38618731 -0.31778562 0.5254748 -0.173817 0.6475381 0.6093202 -0.46696398 -0.24903044 -0.26261312 0.06750605 0.34045908 -0.11878753 -0.18247612 0.37945554 -0.3608755 0.36909193 -0.18767849 0.2233523 -0.16516805 0.7382337 -0.008731984 0.12022071 0.9644994 0.06627926 -0.02684308 -0.24222164 0.6715653 -0.03806756 0.65082806 -0.10544049
247 0.08849469 -0.40575156 -0.26077473 0.6068704 0.688022 0.3931197 -0.3026606 0.08418145 -0.15994117 -0.06044418 -0.16450274 -0.2619429 -0.1877849 0.13924539 -0.043409124 0.6066312 -0.4689693 0.13368753 -0.4163971 0.5056764 0.6343258 0.32882178 0.0318694 -0.8027109 -0.33536693 0.2575304 -0.49754018 -0.7483723 0.0038131918 -0.38431674 -0.67800623 -0.2617834 -0.16311058 0.13368803 0.099325284 0.13542898 -0.38700777 0.4897127 0.05212824 -0.44229326 -0.15915057 -0.5282059 0.30169004 -0.11080227 0.28424194 -0.06864594 0.21291317 -0.33272344 0.06469459 0.16922323 -0.19015178 0.059178554 0.63246906 0.3622522 -0.17337897 0.2913035 0.58764625 0.009092489 -0.21735188 -0.7388126 0.041699342 -0.8970715 0.17959292 -0.6785738
460 0.29123095 0.019934468 -0.20033449 0.42265707 0.5830588 -0.04181872 0.47471136 -0.0923564 -0.91146517 0.34757075 0.02821383 -0.3058276 -0.1996401 0.22644855 -0.09331604 0.2372481 0.3149897 -0.1669377 -0.18472226 0.20019704 0.42433903 0.33185002 -0.014072384 0.25063494 0.0026358196 -0.49869677 -0.3361873 0.38084576 -0.42453766 -0.25182036 -0.21202226 0.17319578 0.34574324 -0.15745531 -0.41513076 -0.14870358 -0.06438512 0.20770152 0.709723 0.47462845 -0.35794052 -0.10836755 0.041849796 0.23312192 -0.6371488 -0.44225028 0.38470313 0.20103607 -0.33472028 0.3456805 -0.027188333 -0.06861443 0.4121521 -1.001264 0.32401216 0.18958268 0.13702519 0.34837833 0.41834122 -0.7545696 0.5319983 0.5090672 -0.0899025 -0.028360771
216 -0.35469395 -0.1682282 0.34943134 0.8039571 -0.062244393 -0.12487293 0.911863 -0.3490287 0.22400574 0.39613906 0.13606365 -0.33018214 -0.9776694 -0.4967814 -0.31652606 0.4701041 0.17821251 -0.062174294 0.22363868 0.62801987 -0.6399813 1.4934273 -0.22228542 -0.13120127 -0.21262449 -0.22713245 -0.5156768 0.030780178 -0.041431315 0.036379185 0.068492286 0.3224317 -0.36624566 -0.4531824 0.5953249 -0.19290772 0.24603334 0.18386213 0.0807027 -0.09279858 -0.7063922 0.033920478 0.794331 0.22712734 0.8461252 -0.37421355 -0.22236688 -0.31137332 -0.61961514 -0.40268442 0.27246833 -0.08791077 0.742201 -0.23764239 -0.021039557 0.03744385 0.45353425 -0.40927023 0.40896195 -0.29653284 0.47185847 -0.23353584 -0.34206918 0.11894991
436 0.85149986 -0.85966176 0.43191695 0.5443742 0.6198113 -0.04773586 0.23837982 -0.2785035 -0.75241137 -0.040048037 -0.36034957 -0.23192939 -0.40320575 -0.12014786 0.55155206 0.25718698 -0.10632601 -0.6513508 -0.67289716 0.17294915 0.38771552 -0.022697376 0.34769595 0.072162285 0.29732713 -0.2420886 -0.6487836 -0.08138163 -0.16598742 0.20832872 -0.03848565 -0.36265013 0.05765221 -0.090430684 0.025533104 -0.435406 0.124866925 -0.06357516 0.09280288 0.7739403 -0.55669916 -0.12046089 -0.03315182 0.05291398 0.012803505 -0.5080761 0.8042705 -0.6039003 -0.48612335 0.36035934 -0.46251455 -0.20389813 0.39052835 -0.5045848 0.5231111 0.1425779 -0.4016665 -0.14328839 -0.011037945 -0.07752625 0.37765267 -0.01625091 -0.15042266 0.2731757
428 0.4789191 -0.6566615 0.30549672 0.7778374 0.42311102 -0.9313561 -0.7016689 -0.042670146 -0.71577317 -0.772068 0.47506863 0.13535759 -0.45057353 -0.6857438 0.55275744 0.4916628 0.05360428 -0.73650956 0.76625574 0.2731271 -0.25143433 0.9594796 0.02713998 0.44172353 -0.0846814 0.3252109 0.09632932 -0.028837511 0.57964265 0.15345724 -0.5529926 0.26175264 -0.1693571 -0.14179079 -0.021059016 -0.81825614 -0.64203715 -0.43327126 0.42857596 0.6619338 -0.3045215 -0.7871063 0.39745963 0.8319429 0.13523465 -0.15357992 -0.11029198 -0.13978797 0.096527174 0.23601322 -1.0676206 -0.59980357 0.22173561 -0.050654195 0.4833565 -0.4427519 -0.3998238 -0.25160262 0.9120354 -1.1122117 -0.26678014 -0.3185603 0.71098286 -0.98062855
431 0.3407775 -0.5828029 0.56657815 0.41238675 0.2242171 -0.7375068 -0.33110416 -0.52031183 -0.8920253 -0.29449087 0.34901926 -0.023934115 -0.62421954 -0.47924128 0.8310411 0.07585432 -0.10075433 -0.28738764 0.30640393 0.33418506 0.12168794 -0.039699927 0.365412 0.020208998 -0.17384323 0.1517598 -0.1011447 0.16957177 0.21954298 0.5905632 -0.18489228 0.015992232 0.0714185 -0.16651791 0.11747185 -0.32989183 -0.29692686 -0.18987173 0.1375138 0.027186934 -1.24358 -0.42277265 -0.49336228 0.4332563 0.23778364 -0.06432101 0.24700367 -0.8201197 -0.021693807 0.8120702 -0.49031198 -0.40363345 0.45472634 -0.41642663 -0.04860405 -0.3482363 -0.63623905 -0.2843742 0.19072324 -0.9132641 -0.14090806 0.16068755 0.30165678 -0.8541547
405 1.3039255 -1.0318178 0.289219 0.7908855 0.31112036 0.032279883 0.15358591 -0.908803 -0.8565142 0.53182465 0.32032427 0.15648851 -0.74416584 -0.33040875 -0.1004472 0.55451715 -0.57951605 -0.8175134 -0.46198085 0.39564323 0.9022991 0.2673856 0.5096506 -0.37027135 0.7087002 0.3327699 -0.39985895 0.23513305 0.47394636 0.3022671 0.84384197 -0.028580977 -0.11787912 0.16992539 -0.72169 0.5461202 0.17768316 0.02827246 -0.12764665 0.5930931 -0.04865121 -0.5750415 0.6099783 -0.083492234 0.013441936 -0.13665918 0.9631063 -0.7920714 -0.7059314 -0.30970213 -0.33922997 -0.68560773 0.29056442 -0.8486153 0.70471746 0.27847934 -0.06663934 -0.46353465 -0.49743065 -0.4436857 -0.27842614 -0.03961229 -0.0055798707 0.26363996
421 0.57830924 -0.13348141 0.55446655 0.59911186 0.111713074 -0.7875726 -0.5075967 -0.54803556 -1.1508087 -0.13213213 0.043627758 -0.0052028736 -0.33726424 -0.5994935 0.58410823 0.13208473 -0.6385485 0.08198261 1.1170479 0.7345365 0.3316476 0.36291412 0.4891593 0.00077979185 0.16210781 0.15505415 -0.05125675 0.5032411 -0.07125751 0.47234857 -0.2724226 -0.06433945 -0.18386264 -0.526532 0.38019493 -0.54654604 0.054402374 0.025572164 -0.030100416 -0.0053489534 -1.5286803 -0.3064063 -0.50755066 0.28459817 -0.26886028 -0.07804964 -0.18199854 -1.3139635 0.29340914 1.1521453 -0.15057147 -0.81439537 0.29904026 -0.3275152 0.20524096 -0.13592471 -0.55064434 -0.28079066 -0.26890394 -0.9825446 -0.5865291 -0.06792488 0.26603058 -0.30212575
466 -0.2532677 0.21984865 -0.30294245 0.625627 0.33523908 -0.29461712 0.509081 0.21907498 -0.215357 0.43312958 0.0061026704 -0.99120504 0.50355583 -0.48825178 -0.12864222 0.3742198 0.15409616 -0.19643933 0.099487804 0.059190944 0.10177806 0.29102865 0.15705194 -0.1748079 -0.4886417 1.2063535 -0.17171684 0.4359697 -0.062763624 -0.6895689 0.13446799 -1.1035186 -1.0095246 -0.7035956 -0.88882786 0.16639973 -0.30189607 0.065068915 0.30490243 0.30953196 -0.6125438 -0.30452085 -0.25157455 0.32838875 -0.024077024 0.15567409 -0.14354573 -0.046224117 -0.015431966 0.54876465 -0.15316463 -0.26426396 0.49316272 0.49918526 0.25329357 0.4461695 -0.36777976 -1.2156057 -0.1741353 0.1599038 -0.11206766 0.34101075 -0.4316378 0.3359754
234 -0.024986548 -0.35292944 -0.2763725 -0.5246403 1.4393038 -0.051435784 0.31593388 0.19760278 0.36522272 -0.042258814 -0.30118355 -0.25278205 -0.826753 0.28375962 -0.82565224 0.79999036 -1.0133883 -0.27023926 0.8014261 1.0987738 0.88311154 -0.15488732 -0.22610006 -1.1350272 -0.12648968 0.20726094 -0.8147469 -0.011563391 -0.5949866 -0.9548661 -0.26903266 0.050779037 -0.44218117 0.2245124 0.23431738 -0.123985484 -0.54753506 0.33218727 0.7782728 -0.22106437 -0.22470176 0.12677903 0.37247384 0.47128162 1.056443 -0.15674174 1.0310202 -0.14500329 0.6831879 0.41902468 -0.58694476 -0.109096125 0.76628745 0.4063911 0.12496842 0.5265001 0.86253583 -0.05308959 -0.20886974 -0.6120333 0.3424357 -0.45693824 0.76098025 -0.8248294
317 -0.26928174 0.28611547 -0.6158873 0.6872934 0.0016963797 0.28074756 0.18680055 0.026323067 -0.6509654 0.12308369 -0.043648135 -0.5637044 -0.96147144 0.29548073 -0.51560533 -0.34648758 -0.2934813 -0.06275757 0.33540946 0.6239679 0.7608082 0.27974305 0.12346737 0.4424786 -0.029949298 -0.58408713 -0.037790563 1.0341471 -0.39739573 -0.24164969 -0.049984645 -0.20025355 0.17468224 -0.62982345 0.37815565 0.13762063 -0.13235258 -0.23149031 -0.36867294 0.21206562 -0.7539222 -0.005834559 0.20490621 -0.27060598 -0.44135854 0.030880371 -0.2853477 -0.04698559 0.22470386 0.32759976 -0.15282479 -0.3447467 0.53050405 0.22796787 0.37694538 -0.47194332 0.74285865 -0.48118415 -0.093425244 -0.26697567 -0.23537056 -0.4979349 0.4628079 0.20176841
419 -0.20314184 -0.45630184 0.57614917 0.585258 0.0149188135 -0.029384522 -0.66619885 0.3578611 -0.648297 0.8562847 0.14292009 0.6856151 -0.026486214 -0.65995973 -0.18319245 -0.5665542 -0.10674327 -0.28788638 0.45285603 0.37503725 1.3821962 0.77031785 0.2954598 -0.34792477 0.034560528 -0.070672475 -0.6358875 0.31825238 0.0795193 -0.12228948 -0.12577254 -0.027551042 -0.9292687 0.16129881 -0.26748958 0.004757324 0.35553977 -0.26226375 0.5464999 0.29015604 -0.5996599 0.43965948 0.34257853 -0.04891187 0.23176557 -0.6028783 -0.46922517 0.569228 -0.02395101 0.5863747 -0.33144653 0.4972602 -0.014898415 1.5203882 -0.08583773 0.0719421 0.44586265 0.012121542 -0.040061373 -0.49267852 0.46391532 0.26109403 0.18254028 -0.21651128
435 0.4234795 0.07586191 -1.390119 0.31220198 0.41959095 -0.15017371 -0.09000226 0.5350031 -0.4594197 0.26115474 0.29238048 0.18522722 -1.0589515 0.10214464 -0.34479353 0.12155042 -0.4308859 -1.3334322 0.9394237 -0.19595198 1.0053984 0.745522 0.079100944 -0.55538994 -0.92658883 0.6317456 0.19992955 1.4181954 0.3030205 1.0465976 0.82130116 0.43935382 -0.571912 0.20185465 0.26847467 -0.41280273 -0.86030734 0.33977136 0.12454199 0.022106657 -1.35382 0.7530072 -1.0764885 0.38430658 0.5089346 -0.27910176 0.3597862 0.14446181 0.20727503 -0.43740726 -0.82098234 -0.18853313 0.97153836 0.9145626 -0.2425661 -0.4177111 0.5993825 -1.0204182 -0.3939323 -2.0451 -1.0674752 0.12291271 0.124800175 0.5525434
214 -0.3393628 -0.42511684 0.07889204 0.8440986 0.62019616 -0.2582546 0.5002999 -0.3259806 -0.22196925 0.5088497 0.29147044 0.0415552 -0.49698606 0.034204353 0.12686732 1.0092357 0.30996794 0.40402547 0.5530737 1.150699 -0.43802425 1.1324257 -0.9442854 -0.23668705 -0.5536293 0.08634989 -0.74883 0.62767154 -0.68936825 0.51330656 -0.3069842 0.19574428 -0.9166385 -0.40452302 0.30054772 -0.44346514 0.23950513 0.24359478 -0.56409705 0.25091708 -1.0669309 -0.1640312 0.770458 -0.2681344 0.7912099 -0.6416773 -0.41589358 0.23610015 -0.342393 -0.36444205 0.4378171 -0.2697995 0.594397 -0.32064644 0.26607135 -0.25559956 0.9002868 -0.4933831 0.14482643 -0.5469697 -0.080525436 -0.110973135 -0.04871646 0.45148477
454 0.47657636 0.13678326 -0.59430945 1.0082984 -0.7156768 -0.24374782 0.4228549 0.41616106 -0.23204544 0.03349016 0.63124734 0.116277024 -0.54223347 0.05983132 0.11698408 0.95849645 -0.23311912 -1.5749171 0.35036123 0.2069323 1.3132291 1.1410204 0.31643698 -0.5497167 -0.88898057 0.6644522 -0.0875767 1.0461093 0.836421 1.311572 0.90618956 0.30052346 -0.876036 -0.44719744 -0.051729422 -0.30026504 -0.3075027 0.17699367 0.33880222 -0.2746245 -1.292498 0.27687922 -0.10894779 -0.21782179 0.18050852 0.098551326 -0.36471516 -0.40462598 1.4463266 -0.49746507 -0.84544766 -1.1405742 1.0261517 1.3956196 -0.8700026 0.37583634 -0.07583965 -0.5962382 -1.0337644 -1.4220989 -1.3523381 0.024971964 -0.12806226 -0.14617313
211 -0.43159536 -0.37702426 -0.08603136 0.6972132 0.7872672 -0.40467235 0.087433435 -0.297911 -0.32653812 0.5175199 0.2912211 -0.08077864 -0.43415493 0.098866336 0.14057362 1.059868 0.18057047 0.65512764 1.0320073 1.3059652 -0.06488555 1.1366872 -0.9917116 -0.31079653 -0.5583353 0.087819844 -1.0636269 0.79414344 -0.7318892 0.6068167 -0.21749401 -0.088960595 -0.8745255 -0.092945054 0.45362645 -0.542792 0.5865701 0.39706013 -0.5149822 0.53519213 -0.9509643 0.012998734 1.0650538 -0.29168528 0.54087687 -0.91612744 -0.76916236 0.15224214 -0.21907489 -0.057261053 0.6168388 -0.8725648 0.71898746 -0.30173612 0.1308308 -0.046134226 0.8328431 -1.0155705 0.07467928 -0.5881585 -0.42801765 0.32435748 -0.15072893 0.45071286
432 1.0912696 -0.8086728 0.33204454 0.93059254 0.50356174 -0.39569858 -0.16742219 0.09118696 -0.53822863 0.40288648 -0.81153965 -0.21973209 -0.20290732 0.03951461 0.2902614 0.27502725 -0.40773842 -0.93008745 -0.4699759 0.80234045 -0.05238381 0.55256647 -0.006707844 0.31587788 0.117916025 -0.09481197 -0.65991586 -0.35790813 -0.42169085 -0.35455048 -0.20502351 -0.6086641 0.08640797 -0.17117186 0.3018583 -0.6324904 0.11704233 -0.4496265 -0.041429244 1.2992033 -0.28316784 0.3943096 -0.39141116 -0.0805502 -0.049995173 -0.31475896 1.0625124 -0.5373522 -1.1373274 0.46749684 -1.0592954 -0.028040064 0.25876862 -0.5582838 0.3323757 0.70726085 -0.4781871 0.0968815 -0.29533094 0.10230658 0.28574058 0.12233109 0.055481102 -0.4090128
403 0.24175075 -0.2541776 0.19164069 0.5104074 -0.040680453 -0.59640455 0.87336564 0.42387083 -0.622062 0.040140085 -0.27584106 -0.73935664 -0.5776409 0.6464762 0.044152185 -0.124529116 0.16732192 -0.25705677 0.12714753 0.6100622 0.9745508 0.70639646 -0.0078015593 0.22449507 0.1386868 -0.028593872 0.14787658 0.7513693 -0.54049855 -0.29479244 -0.1244936 -0.12645781 -0.042489316 -0.20730141 0.61301994 0.36536065 1.0476542 0.67842126 0.103932746 0.13404638 -0.26659143 0.15534674 0.24382876 -0.034751568 -0.08787006 0.5641259 -0.71714324 -0.6288128 0.5376987 0.039505456 -0.58030933 0.041002717 0.35866463 0.036187675 -0.11264036 -0.46433508 0.6327007 0.28179735 0.0022897979 0.23051466 -0.0436298 0.14838038 0.15042917 0.08435875
456 -0.7207686 -1.0366075 0.7183107 0.90046966 -0.075408764 -0.30512986 -0.4517446 0.16294071 -0.80183566 -0.19773678 -0.07482313 -0.19342491 -0.07857649 -0.3852603 0.1743245 -0.49240497 0.32905272 0.47561732 0.48463866 -0.19288428 0.3657318 0.37979516 0.7664928 -0.4053925 -0.26857176 0.12565674 -0.5760766 0.57753956 0.26493576 -0.5712762 0.34266907 0.071142726 -0.513784 0.38334596 -0.41531712 -0.0027825423 0.59473825 -0.46968973 0.33577648 0.83800286 -0.65075594 -0.07519542 -0.591688 -0.73341703 0.4795415 -0.33467263 0.28176242 0.35762376 -0.29415926 0.62400675 0.34567183 0.0050246418 0.9441682 0.59286004 -0.17503023 0.7536422 0.8270439 0.30552557 0.046569392 0.3617295 1.0489639 -0.29610243 0.8141956 -0.11402636
434 0.49999687 -0.94918513 0.7355118 0.37431282 0.5046541 -0.16513103 -0.025600744 -0.3381825 -0.694179 -0.19873808 -0.094231844 -0.3313204 -0.71931094 -0.22517414 0.9577067 0.18209063 -0.30583683 -0.60918117 -0.577194 0.043785334 0.29386815 -0.1321795 0.5713707 -0.09091282 0.18494253 -0.06747197 0.05198269 0.46072617 -0.04789672 0.5660869 -0.3182541 -0.43056923 0.16594113 0.017586557 0.53107363 -0.102957375 -0.18629454 0.19529063 0.5375223 0.6254059 -0.7387917 -0.2940598 -0.45914653 0.5432498 0.6133912 -0.29408446 0.38173753 -0.8185417 -0.28911814 0.7249307 -0.4969026 -0.45497215 0.27439725 -0.31895533 -0.14979276 -0.1389076 -0.42895144 -0.371424 0.31504348 -0.40554142 -0.035759278 0.36217725 -0.1359677 -0.5580886
109 1.0075624 0.13606918 -1.1711339 1.5788074 0.6555718 -0.7153396 -0.60515434 0.7299324 -0.63675183 0.84799856 -0.41669777 -0.58478296 0.03962919 -0.080292955 -0.0046210564 0.82881945 -0.941464 0.84456396 0.42696282 0.47073087 0.11670184 0.52299124 0.8521395 -0.7165159 0.3421118 0.29034105 -0.40097377 0.6328256 -0.45867646 0.10361301 0.19125423 1.2893473 -1.3732893 -0.39733475 -0.4533204 0.12240391 -0.23904693 0.2659057 1.4356813 0.42045596 -1.9307928 1.5402673 -0.28363928 0.47139388 -0.15122603 0.8680046 -0.055523455 0.6160865 -0.17942695 0.59018856 -0.4933431 -0.23232543 1.1353934 0.9671148 -0.2788861 -0.056935634 -1.1665913 -0.2229512 -0.11216508 -1.0634946 -1.0803931 0.6903083 -0.4998718 0.24481587
338 1.3605566 -0.20637113 -1.2820109 1.6175255 0.4993947 -0.51301926 -0.5612955 0.7123366 -0.5824503 1.0303904 -0.25419474 -0.4897699 0.26644182 0.35272565 -0.3220942 0.5935139 -0.7725698 0.8250947 0.4901897 0.2178691 0.52847254 0.4987971 0.7341554 -0.5981071 0.31591696 0.3035752 -0.5885393 0.75853986 -0.25314507 -0.0931778 0.19125588 1.0542308 -1.3755383 -0.21755059 -0.5214866 0.024276447 -0.08188973 0.06029856 1.5999727 -0.12779532 -1.8256652 0.9489102 -0.39572352 0.3605477 -0.528215 0.7678434 -0.056688372 0.68231326 -0.24408104 0.5202409 -0.43987706 -0.09175237 1.002205 0.89856946 -0.18392268 -0.24098681 -1.4975524 -0.6078145 -0.15846899 -0.85144484 -1.0226481 0.6759638 -0.47379175 0.09194861
445 0.06477917 -0.37859616 -0.030932335 0.004932509 0.41951564 -0.6738225 0.5142133 0.43936828 -0.23646988 -0.0027787278 0.31210583 -0.9698597 0.10726845 -0.14491816 0.005793396 0.45120952 0.22234997 -0.67971313 -0.032519877 -0.33940265 0.519305 0.9153268 0.10753085 -0.1475142 -0.3310296 0.74477535 0.019330107 0.34790942 0.16280283 -0.049070876 0.3250732 -0.02421047 -0.15242414 -0.49389696 -0.8033595 -0.18753363 -0.425922 0.19589043 -0.25339434 -0.082352534 0.17542094 -0.18844804 -0.82106405 0.09519691 0.06578406 0.21126351 -0.19311307 0.20596771 0.08844378 1.1505251 -0.37689927 -0.49843252 0.42564204 0.5010512 0.028951846 0.17912762 0.02977175 -0.95615405 -0.89503783 -0.05205808 0.24590638 -0.15087329 -0.7931722 -0.01666459
404 0.054699164 0.20698008 0.14897081 0.52686405 0.3712387 0.3200248 0.35093576 0.5970519 -1.2603648 0.48113933 0.26556185 -0.32835 -0.18702905 0.44594207 -0.33832598 0.71649855 0.12030168 0.20832847 0.04372805 0.11410384 0.7013615 0.30077517 0.14148976 0.3061786 -0.26611057 -0.65093786 -0.2472461 0.628224 -0.73821545 -0.16350925 0.087147266 -0.1593612 0.3387843 -0.46798152 -0.5666547 -0.38607317 0.008839447 0.09653351 0.47302324 0.71597856 -0.059310872 0.041291364 0.16899775 0.24431317 -0.89115155 -0.78160155 0.42384747 0.27900705 -0.15484056 0.11031149 -0.19198269 -0.683448 0.91357064 -0.67079616 -0.028519187 -0.18556236 -0.12663908 0.23494011 -0.07070338 -1.0155063 0.696515 0.53694504 -0.2717596 -0.31851915
464 0.069347 -0.09252106 0.1257202 0.7913718 0.10026407 -0.4507704 -0.6965707 0.30555367 -0.39431116 0.65533346 -0.22774549 -0.12932126 0.43242735 -0.74529743 0.092653915 -0.23303528 -0.35282975 0.4068949 0.57284725 0.17035057 0.8116387 0.25480968 0.75745386 0.06066937 -0.10455678 -0.30466664 0.021964474 0.76388377 -0.10373442 -0.3239093 -0.21059762 0.13928105 -0.0925851 0.025272584 -0.55256265 -0.41389772 0.55804163 -0.38102597 0.4801941 0.7994161 -0.49205416 -0.5829913 -0.07545293 0.06749758 0.23706955 -0.071313895 0.07637505 0.005140582 0.20676804 0.21889223 -0.26118317 0.5010547 -0.08979619 1.1729103 -0.35512203 -0.0026403198 1.2456876 -0.15125342 -0.26697463 -0.93013537 0.8580961 -0.26703647 0.4840198 0.01106651
225 0.45035306 -0.42904207 -0.43879828 0.6549903 0.6169329 -0.054578025 -0.3979812 0.4994409 -0.25405988 -0.17467697 -0.50662154 -0.2539331 0.008525756 -0.13639183 -0.24202594 0.6928488 -0.72709554 -0.20498045 0.046761148 0.49253416 0.6662579 0.44821647 -0.24397832 -0.8483844 -0.36571294 -0.14951684 -0.44693935 -0.47271812 -0.08868109 0.14806613 -0.19219337 -0.4194408 -0.4553412 0.13025 0.41504985 0.29755062 0.23505886 0.7020182 0.11675838 -0.62956494 -0.37874934 -0.73586047 0.34057206 -0.08070179 -0.15339902 0.17065103 -0.16374783 -0.67854816 0.3725678 0.46155617 -0.20178053 0.43114302 0.6597816 0.12603045 -0.3643472 0.6015522 0.6843715 0.17164467 -0.55601174 -0.7655163 -0.2872284 -1.0946025 0.077921115 -0.3585044
242 0.008785695 0.3750495 -0.16815636 1.0033956 0.07853467 0.29736274 0.54510254 -0.4424254 0.16625543 -0.022104204 0.0989981 -0.65913785 -0.7629106 0.31348643 0.3107977 0.30414066 -0.12747519 -0.17090248 -0.6222149 -0.104223244 0.748966 0.14898668 -0.80254656 0.3255481 0.3645773 -0.17397778 -0.45583382 0.2045524 -0.22098699 0.002724248 0.5022475 0.50569916 -0.2483752 -0.5169816 -0.00022860306 0.19955316 0.47203144 -0.14818434 0.3381041 0.54182184 -0.9730824 -0.0032501912 0.22876991 0.5782788 -0.15864967 0.06445395 -0.58905524 -0.23860022 0.05989222 0.24050675 -0.52880037 0.7996296 0.7743173 -0.23678078 0.3404064 -0.21107596 0.12391534 0.3396604 -0.6981576 -0.13685289 -0.42483148 -0.6336297 0.68116057 0.33314303
240 -0.018445496 0.20365514 0.32985958 0.71594244 -0.13519028 0.23087353 0.80382645 0.08621217 0.018887185 0.030973166 0.2889391 -0.736626 -0.89107597 -0.35709372 0.100422375 -0.04692599 -0.09505237 -0.3060977 0.01208214 0.24066237 -0.36320883 1.1005511 0.0996112 0.44580048 0.0033024657 -0.20251434 -0.60886025 -0.17914899 0.027768254 -0.2572573 0.2466315 0.39349332 -0.5334526 -0.12806754 0.10901504 0.30093986 0.36094067 0.1842228 -0.08214533 -0.39166027 -0.6697629 -0.15095331 0.76980996 -0.0956551 0.33698526 -0.45225763 0.15934151 0.31644705 0.07862331 0.026957128 -0.08933944 -0.013775203 0.3278554 -0.5245217 -0.15509506 0.11936552 0.3346427 -0.043409985 0.48220882 -0.23666261 -0.36511752 -0.12334367 0.028204571 0.1046919
447 0.41432816 0.1441033 -0.5154182 0.9324434 -0.6995773 -0.22115439 0.43999636 0.3623656 -0.2746669 0.019404035 0.51805913 0.05899515 -0.7223466 0.037437595 0.15307684 0.7010201 -0.11736298 -1.7112747 0.46023482 0.2871792 1.4472678 1.0664171 0.27967262 -0.6138171 -0.7908015 0.7593044 -0.0274035 1.0729748 0.84501064 1.2976514 0.8397904 0.19845061 -1.0359441 -0.2985577 0.07911615 -0.31962106 -0.38371643 0.2663694 0.16953026 -0.18299176 -1.26948 0.38997734 -0.06742354 -0.21679413 0.019928712 -0.006754612 -0.29264444 -0.42939368 1.3502382 -0.45341617 -0.65630585 -1.1910741 0.9171199 1.2914674 -0.9923929 0.45270133 -0.05853053 -0.620312 -1.0485868 -1.4828684 -1.3661704 0.0064445008 -0.0049279146 -0.19472726
151 1.1529789 -0.05686242 -1.3155394 1.5645571 0.49969438 -0.5601357 -0.6226664 0.7656052 -0.6199071 0.9370939 -0.32656357 -0.5670494 0.13874225 0.18454023 -0.1542618 0.6620516 -0.80457056 0.79472834 0.41585794 0.32000756 0.2740185 0.43228245 0.76698 -0.68160886 0.23022771 0.35379338 -0.492508 0.6473567 -0.36158937 0.007524056 0.18574448 1.1163093 -1.3553977 -0.30777586 -0.44996592 0.006926958 -0.14150749 0.2196567 1.4991735 0.08500637 -1.8525219 1.2090812 -0.4085147 0.46519879 -0.3752176 0.8505313 0.016312858 0.6379647 -0.22861026 0.5695806 -0.49779922 -0.13241968 1.1179289 0.9758785 -0.2628753 -0.07869555 -1.2930374 -0.40953273 -0.06445259 -0.8835076 -1.1253899 0.78297925 -0.44402987 0.18862152
424 0.9426204 -0.9583963 0.42882395 0.5584555 0.7798377 0.046610784 0.4691148 -0.2842222 -0.93950695 -0.005468771 -0.46300322 -0.14213808 -0.93774104 -0.7202555 0.6288586 0.59695035 -0.2829802 -0.6403439 -0.37112537 0.47016406 0.72045493 0.17778227 0.14020109 0.28767672 0.33721414 -0.4232992 -0.82722855 -0.1590549 -0.05356239 0.05334492 0.43786186 -0.33633077 0.15983005 0.2855448 -0.52143174 -0.4215409 -0.5087999 -0.061828766 -0.08919656 0.7111641 -0.68745714 0.073844865 -0.20032074 0.16447403 0.038217902 -0.30566326 1.0104933 -0.7259822 -0.6943134 0.46825653 0.29177338 -0.4873358 -0.15136032 -0.24284269 0.08647012 -0.00054848194 -0.5822538 0.16212837 0.1641948 0.33662805 0.4170617 -0.3839192 0.068799034 0.19063811
235 -0.25833184 0.19322717 -0.17480272 0.39221182 -0.0022545017 0.08449704 0.39607996 -0.095818676 -0.6011695 -0.12633719 0.22058415 -0.5189806 -0.56458384 0.50061494 0.13591567 -0.25829282 0.38246605 -0.6250083 0.08306506 0.88395524 0.82406884 0.649976 -0.43897185 0.1722398 -0.18917066 -0.7246813 0.0010608876 -0.53847116 -0.01688257 0.047260124 0.41171452 -0.13532092 0.19710639 -0.30605432 -0.36766878 0.27574703 0.49347988 -0.18906541 -0.07103038 0.0495233 -0.7110712 0.12593472 0.60841525 0.36961865 0.0011045178 0.26388067 -0.16723369 -0.36661962 -0.31274697 0.5210224 0.18956177 -0.5254766 0.20893368 0.26893398 0.14847204 -0.47985315 0.81133324 0.050882604 -0.26591304 0.3206402 -0.021408712 -0.020722331 -0.609317 -0.4892663
402 -0.2082606 -0.14683872 0.06690135 0.2196768 -0.806892 0.35308087 0.39268196 0.025487877 -0.3949846 0.5181991 -0.007834229 -1.1752661 -0.3588942 0.180066 0.09315887 0.55059665 0.3121405 -0.57216763 0.016326005 -0.011132432 0.60965115 0.39326116 -0.16440912 0.038561866 -0.2617674 -0.75796634 -0.624387 -0.11765684 0.039833415 0.53652585 0.041597974 -0.4282581 -0.02097258 0.053874508 0.030056048 0.24376649 0.45106256 0.7080587 -0.15839846 0.31111076 -0.5715079 0.47838292 0.40241978 0.18275104 -0.2094923 0.23402049 -0.7949427 0.08587444 -0.10218721 0.33372176 -0.20325513 -0.05345043 0.22534192 -0.2966152 0.468079 -0.4416119 0.3896558 0.0040868344 -0.11613106 -0.4480646 0.34526706 -0.31504777 0.3741832 -0.36221826
389 -0.07941499 0.14044438 -0.23381135 -0.0036584113 0.060132556 0.11277981 0.43526062 -0.3368642 -0.43081114 0.5284476 -0.20059605 -0.9414793 0.86979556 0.01817874 -0.208094 0.34769976 0.009839163 -0.54274833 0.24169163 -0.2549896 0.96808934 0.893987 -0.094289616 0.30145925 -0.036154352 0.5049944 0.015266181 0.23280802 -0.1420139 -0.086708255 0.23291437 -0.20583187 -0.63093984 -0.19520698 -0.8239193 -0.43010506 -0.06666377 0.33316347 -0.24901871 -0.32331073 0.5146523 -0.6969471 -0.29492265 -0.007885774 0.32891244 0.20154557 -0.43304858 -0.17410895 -0.34765014 1.0990394 -0.4142322 -0.15177043 0.70783705 0.18626283 -0.13987288 0.16297743 -0.2611667 -1.2871716 -0.17940247 0.02742132 0.4440065 0.3252426 0.16367061 -0.45641208
246 -0.104565926 -0.31271324 -0.34804496 -0.06406177 1.2163092 0.34587687 -0.30873063 0.13750198 0.26798037 -0.15097795 -0.3111788 -0.5154678 -0.45600396 0.1934591 -0.28949302 0.7197012 -0.6419829 0.05386072 0.21136923 0.9234264 0.6845435 0.0049753883 -0.09031456 -0.8028493 -0.32842746 0.2774988 -0.6801877 -0.22135915 -0.16685173 -0.6360432 -0.23322113 -0.09026356 -0.38313743 0.28885818 0.11141295 0.10487124 -0.30594516 0.34032822 0.3374758 -0.4143657 -0.020061582 0.038500786 0.30610096 0.3372344 0.24938145 -0.17314625 0.59805906 -0.43720528 0.28892195 0.16880843 -0.36694396 -0.06886143 0.72235656 0.32382062 -0.18712713 0.3652203 0.71858525 -0.23458542 -0.050015215 -0.87391794 0.18814556 -0.5760135 0.5631455 -0.543657
334 0.1928576 -0.36021072 0.5184611 0.1627821 0.18096419 -0.2526024 0.42090592 -0.11972046 -0.5560031 0.27765322 -0.1994825 -0.6420276 -0.3267878 -0.9542079 0.036624428 0.6498518 0.26234502 -0.0449415 0.48391268 0.24794653 0.052176494 0.8742818 0.048684634 -0.039685365 0.3088504 1.0107671 0.28600794 -0.11212661 -0.1747865 -0.32534662 0.103469044 -0.12378851 -0.36687112 -0.19739066 -1.4291483 0.25664133 -0.22679654 0.60385996 -0.3711242 -0.19523962 0.5506259 -0.1235238 -0.6080151 0.16377285 -0.056627847 0.3710689 0.12765957 0.083305314 0.33864382 1.2984862 -0.25727046 0.1483865 0.87716866 0.34802875 0.44214052 0.276223 -0.09647808 -1.2817707 -0.07906917 0.4802627 0.3250708 -0.5798343 0.21246308 0.21926957
224 0.26916996 -0.61762005 -0.6190209 0.35093442 0.3762643 -0.01706028 -0.46888968 0.4492987 -0.43707994 0.21455249 -0.3643916 -0.2397608 -0.53742886 0.16078046 -0.912572 0.67913306 -0.2804893 0.56506175 -0.8794824 0.85130095 0.3810572 0.30379748 -0.009730923 -0.93389076 -0.058574893 0.17908448 -0.21599053 -0.7781516 -0.41022336 -0.3610457 -0.80982524 -0.029051421 -0.43438175 0.18026958 -0.08388567 0.28505874 -0.5146004 0.08369844 0.40040168 -0.029997202 -0.12801671 -0.7169635 0.562595 -0.013008014 0.042219266 -0.23814096 -0.011299953 -0.27950576 0.13961591 0.20680295 -0.4290521 0.16210301 0.78398204 0.45989826 -0.3425884 -0.2694801 0.44853598 -0.24789813 -0.16579822 -0.63699734 0.20127183 -0.9866751 0.21798728 -0.5546114
370 0.7114577 0.32229647 -0.16903824 0.7715306 0.13173684 0.23583467 0.03823178 0.26122767 -0.15051632 0.62730986 0.16786972 -1.0421131 -1.062798 -0.045649648 0.08738955 -0.28644323 0.11285528 -0.068152204 0.358506 0.5273818 0.19787362 0.20487425 0.10532102 -0.26673904 0.78317356 -0.40106723 -0.020462293 0.032205813 -0.2873314 -0.06743376 -0.043990165 0.015340635 0.21529938 -0.013055597 0.63684475 0.005550563 0.32948166 -0.040687904 -0.13931192 0.25643975 -0.5424816 -0.56891423 0.3278992 0.4433444 -0.28574345 0.8084147 -0.40921026 0.4373538 0.3060551 0.3011979 0.1157884 0.09481346 0.6828987 -0.4253938 0.44193393 -0.30546477 0.33844167 0.12041431 -0.0654068 0.03575915 0.29311872 -0.3515266 0.2490317 -0.17976746
415 -0.31430134 0.14668894 -0.51352257 0.6264431 -0.35602182 -0.026202038 0.59409684 0.18835494 -0.7578322 0.4282572 0.5997132 -0.9653651 -0.4360959 -0.25265598 0.5869917 -0.051216587 -0.3610954 0.17141847 -0.33238745 0.04786617 0.0016699987 0.21844557 -0.47652698 -0.009588857 0.15906176 -0.40216112 -0.73641014 0.32496956 0.30907118 -0.4596097 0.15051158 -0.39356792 0.19416226 -0.08096956 -0.14558971 0.4715847 0.62413484 0.007671104 0.36992586 -0.088476494 -0.45333976 -0.062941134 0.571389 0.02852623 0.3098569 0.56569576 0.43745434 0.20388153 0.1417634 0.1945023 -0.6204788 -0.29455763 0.5367152 -0.24134931 0.62199634 0.02426625 0.41188508 -0.007662541 0.83696234 0.29204324 -0.15959302 -0.56381273 -0.26204732 -0.229504
450 0.63885814 -0.048119415 -0.20528372 -0.13087426 0.65780514 -0.6307697 0.7920343 -0.019241035 -0.28510132 0.36853966 0.40621448 -0.9842369 0.24630214 -1.034839 0.24507545 0.30721042 -0.47087505 -0.26662415 0.13824078 0.22397718 0.2707424 0.23782212 0.26065546 0.49628258 -0.0947954 0.85241055 -0.65770006 0.31034938 -0.31589368 -0.14708579 0.08385214 0.13731483 -0.70603514 -0.15113842 -0.84066135 0.85298353 -0.40533325 0.61990607 -0.7013406 -0.078067124 0.617869 -0.6111751 -0.488907 0.025476526 0.1859472 -0.00733491 -0.19391528 0.043243743 -0.6057797 1.1271396 0.09260315 0.043621015 0.5315984 0.9280895 0.3722394 0.09285041 -0.29334396 -0.3998359 -0.32396755 0.15655948 0.38348812 -0.053735625 0.0024426687 -0.48986685
241 -0.11141953 -0.15013771 -0.031212838 0.19546676 0.24045078 0.02897094 -0.27332738 -0.24640095 -0.52096045 0.47701705 0.34778586 -1.1421282 -0.9802719 0.7179813 0.7730593 -0.25630468 -0.04187394 -0.3481155 -0.3316244 0.18793148 0.12907556 0.3977615 -0.34697327 0.068505146 -0.54974556 -0.6435456 -0.2188972 0.6177148 -0.14239417 0.27293772 -0.47412902 0.17359318 -0.17917308 -0.6007484 -0.59599537 0.020514263 0.31797296 0.012294527 0.06514947 -0.0017699547 -0.35828224 -0.45996588 0.8999784 0.11913913 0.09799042 0.23842902 -0.24028872 0.19685818 -0.0126383 0.2016783 -0.18300614 0.17157501 0.10946058 -0.26546192 -0.04942515 0.08628222 -0.18772057 0.28707644 -0.23923978 0.26871112 0.25825012 -0.5493853 0.10544354 0.2571662
222 -0.16487607 -0.3087223 0.05301365 0.6427638 0.554029 -0.0032720019 -0.4139734 0.24664986 -0.38388124 -0.2314766 -0.5464595 -0.46176907 -0.008712582 0.17844437 0.30039054 0.28061748 -0.9665539 0.08931244 -0.67510897 0.7400091 0.27165562 0.34571818 -0.84676147 -0.7012822 -0.18994598 0.18083248 -0.47913817 -0.29455334 0.14131583 -0.5131551 -0.6064559 -0.58579564 -0.03143163 0.19684035 -0.05663942 0.5320708 -0.23263437 0.44715482 0.2850006 -0.8117015 -0.44852006 -0.9561688 -0.46490502 -0.4001786 0.29423332 -0.5833159 0.29732335 0.13175046 -0.27154002 -0.112877324 0.16869114 0.0135298055 1.1181608 0.41897002 0.041143343 0.27714837 0.13228314 -0.21150143 -0.46557167 -0.900379 0.36961657 -0.98999834 0.14091387 -0.77587885
444 -0.13264607 0.111454114 0.23442452 -0.21826133 1.2078979 -0.32815668 0.35311607 0.34620222 -0.0018004201 0.6203006 -0.23872735 -0.3563637 0.37039676 -0.58458316 0.20489833 0.13922036 0.9555949 -0.20987608 0.19521229 -0.33641753 0.49437955 0.8807963 0.24087045 0.10894095 0.22289675 0.38592875 -0.40436947 0.43622866 0.45126662 -0.38384888 0.20021722 -0.32221252 -0.47590858 -0.16425806 -0.6606048 0.33897722 -0.007213189 -0.081494555 -0.38714233 -0.4979863 -0.13439517 -0.37843665 -0.11891175 0.15602604 0.029605512 0.011386715 -0.10224947 -0.10879028 -0.35797063 1.1842694 -0.9277313 0.041110046 0.54352176 0.11792637 0.40019473 0.27477688 -0.37837616 -1.0182129 -0.7802871 0.17137589 0.68052197 -0.2791657 -0.4527846 -0.24442388
442 -0.31379107 0.28914866 -0.2771951 -0.19828686 0.5601018 -0.6237526 0.45272973 0.025736833 -0.43951342 0.9140974 -0.30949596 -0.71854335 0.14590788 -0.7231402 0.38202423 -0.025809197 0.35736975 -0.73961866 0.4808282 -0.37770715 -0.43359837 0.726679 0.22823107 -0.73638994 -0.4666295 0.2376889 0.18849538 -0.40135294 -0.15058172 -0.571784 -0.15993701 0.0051582716 -0.0051344475 -0.20975418 -0.9301667 -0.031637587 -0.33688182 0.3099203 -0.23198111 0.17154479 -0.053562045 -0.2382466 -0.10871027 0.2796165 -0.1842442 0.29792356 -0.110136956 -0.31853005 -0.6123451 0.7588728 -0.8748325 -0.25052845 0.7205462 0.3652786 0.28844732 0.64293134 -0.18588501 -0.9814683 -0.81984633 0.42549005 0.07163371 0.14259404 0.1938383 -0.29124987
417 0.19754249 -0.44838378 0.24936508 0.984787 0.47508478 -0.55713636 -0.31610096 0.13528517 -0.032321393 0.3455848 0.48375717 -0.25912237 -0.18326293 -0.9297713 0.0028934793 -0.52168447 0.31186938 -0.04870693 -0.084135674 -0.3893392 0.6683041 0.20947583 0.6234227 -0.45711207 -0.7263056 -0.5504567 -0.20445435 -0.17519847 0.6208076 -0.27092135 -0.49060848 0.388271 -0.2504149 0.1255448 -0.41886342 -0.33643585 0.36704868 -0.14458975 0.61186934 0.57071954 -0.63979185 -0.04517013 -0.4810466 -0.2215201 0.39888492 0.14425871 -0.21990006 0.77250236 -0.0022064354 0.18657428 0.03901268 -0.0607235 0.050434023 0.8059771 -0.35529518 0.37871918 0.72145146 -0.5556187 -0.100718506 0.048579246 0.3258965 0.2068706 0.89955246 -0.06461776
366 0.49787316 0.0361562 -0.61105436 0.9368019 -0.6076355 -0.30512843 0.57999927 0.32952017 -0.19166742 0.04977463 0.5237577 0.14960065 -0.64573795 0.07866292 -0.061667364 0.7591468 -0.13287017 -1.788787 0.32548523 0.20987742 1.4074185 1.1559588 0.22842306 -0.6399842 -0.8053073 0.6777091 -0.15003276 1.045405 0.79981357 1.2406063 0.8421561 0.29012567 -0.8812366 -0.386607 0.053607363 -0.34965372 -0.33099866 0.10950838 0.23855157 -0.2673059 -1.3989108 0.21498169 -0.04960353 -0.08868559 0.041886225 0.15960056 -0.47513843 -0.43543768 1.4467641 -0.515916 -0.8297569 -1.01262 0.82146513 1.2766826 -0.9517598 0.4755563 -0.19585346 -0.60993606 -1.0891792 -1.4458746 -1.2755328 -0.049598627 -0.10628502 -0.27210405
103 1.0353099 0.17808399 -1.1895306 1.6529682 0.6615379 -0.65561426 -0.5155826 0.77743375 -0.58858126 0.83539754 -0.30794293 -0.6857453 0.06562225 -0.11525231 -0.06622141 0.6978511 -0.8631989 0.70603627 0.24331333 0.50538296 0.0827278 0.41598332 0.9981384 -0.7259266 0.27677584 0.34660628 -0.32150793 0.63235104 -0.4502073 0.14614005 0.15193065 1.255457 -1.3624922 -0.35531306 -0.48002213 0.08529125 -0.26277485 0.23511843 1.3369325 0.49489126 -1.835212 1.5650821 -0.34862503 0.6095704 -0.14785361 1.033458 -0.09990964 0.6293656 -0.28017837 0.5029137 -0.50830674 -0.24772526 1.0760484 0.881166 -0.38629633 -0.12247784 -1.0107307 -0.29091236 -0.0219249 -1.184095 -1.088021 0.7611836 -0.5039777 0.17841128
397 0.39996967 -0.015079542 -1.3873069 0.27760914 0.490009 -0.16680637 0.026018977 0.44225296 -0.374856 0.29976943 0.24023797 0.24422169 -0.9942654 0.15329605 -0.40300006 0.08474227 -0.38322264 -1.3654217 0.73839813 -0.15551898 1.0315812 0.6885068 0.09319889 -0.46318373 -0.8550856 0.5898172 0.22197089 1.4782398 0.3071323 0.97658294 0.6982566 0.5029099 -0.5533916 0.105684415 0.31588012 -0.45546785 -0.9290906 0.20475532 0.1545089 -0.007833196 -1.4359384 0.68309504 -1.046866 0.37706015 0.5219 -0.40853927 0.2354769 0.1748567 0.27945575 -0.41111717 -0.8547142 -0.13724436 0.9402252 0.9350443 -0.26180926 -0.33621275 0.6626868 -1.0672791 -0.33564916 -2.0752819 -1.0526673 0.23380603 0.19206746 0.3973218
323 0.48268914 0.075134754 -0.56344634 0.937252 -0.6192253 -0.28379896 0.5871162 0.32034189 -0.23493887 0.05639865 0.5152393 0.13436131 -0.6796299 0.035401147 -0.03301019 0.7332987 -0.1555358 -1.751654 0.35490835 0.24913037 1.4055806 1.1119136 0.27427897 -0.5681175 -0.75576276 0.6998198 -0.09742571 1.035426 0.77282786 1.2407532 0.8638652 0.31201994 -0.92260516 -0.3898918 0.060203105 -0.37646124 -0.3424707 0.19219671 0.1516413 -0.20045364 -1.321583 0.26424947 -0.0057597687 -0.10359721 0.034199186 0.089296624 -0.40906078 -0.41107827 1.4381722 -0.49953705 -0.7649695 -1.0600592 0.8217254 1.2719209 -0.9795539 0.47239962 -0.14669718 -0.5930263 -1.0176724 -1.4071653 -1.2947097 -0.018866254 -0.0793337 -0.20606585
297 1.2985291 -0.3059182 -1.2830322 1.4600025 0.42838714 -0.48304805 -0.5842125 0.810418 -0.49805194 1.023852 -0.22684355 -0.5492386 0.26417086 0.4241212 -0.3365938 0.5750634 -0.7007987 0.68582124 0.45692176 0.16871692 0.5051197 0.4365571 0.7642813 -0.5615213 0.29638883 0.33324188 -0.5477406 0.70772713 -0.18776865 -0.08455772 0.19563407 1.0204343 -1.3749033 -0.2622993 -0.4676374 0.051093526 -0.08597774 0.09166369 1.5816469 -0.18683222 -1.9411361 0.8709367 -0.4488641 0.43748865 -0.5236087 0.7819246 -0.061268367 0.7093214 -0.21917568 0.4826223 -0.4749357 -0.059080333 0.82762116 0.8277496 -0.21819478 -0.35304946 -1.4311486 -0.5966443 -0.13368331 -0.7922896 -0.91844696 0.62479955 -0.48296735 0.014498254
401 0.43184274 0.02592469 -1.3790139 0.31536892 0.52336586 -0.17086273 0.099039294 0.4141537 -0.4061509 0.26184666 0.36366296 0.19502048 -0.9788979 0.114552855 -0.3672982 0.1747964 -0.41288844 -1.3596169 0.8872432 -0.19363387 1.0481001 0.76063436 0.08384268 -0.50606793 -0.84826636 0.51428396 0.17658183 1.429075 0.27105504 0.9478157 0.71446687 0.5015776 -0.5399467 0.15335858 0.297581 -0.47906378 -0.91732043 0.24514093 0.079869665 -0.01883299 -1.333056 0.80628264 -1.0560894 0.3408181 0.5650121 -0.24007954 0.2742313 0.20096906 0.2775299 -0.43061683 -0.7801693 -0.15562876 0.85438323 0.8252054 -0.22450632 -0.40299466 0.65308416 -0.9654755 -0.37876195 -2.129599 -0.9791803 0.15396471 0.15013969 0.3835362
84 0.4833204 -0.047854915 0.615468 0.7082532 0.12714201 -1.0319338 -0.28111997 -0.57852453 -0.9969972 -0.025130607 -0.07904684 0.06322835 -0.25380924 -0.6197886 0.55206805 0.10072432 -0.7219253 0.24356718 1.179603 0.63970363 0.4047629 0.22723743 0.60708 0.15598157 0.2419114 0.18651246 -0.37169975 0.4998092 -0.07703547 0.67581266 -0.33245078 0.017278004 -0.15373468 -0.39116293 0.40509254 -0.4591275 -0.058038868 -0.11112406 0.169748 -0.060704127 -1.5261223 -0.28566745 -0.38650632 0.42387676 -0.37185216 -0.3582749 -0.36667237 -1.1814269 0.3745641 1.1886111 -0.12773432 -0.9010124 0.32648528 -0.33007318 0.33107257 -0.2979051 -0.5772809 -0.36500168 -0.34344897 -0.8744062 -0.6371455 -0.29871562 0.3989467 -0.20026143
364 0.42518267 -0.030677559 -1.3754686 0.2988938 0.51565456 -0.2123561 0.051096674 0.41912058 -0.38090116 0.3405983 0.26392633 0.21482685 -1.0097115 0.09155914 -0.34055525 0.10762928 -0.45600617 -1.3317075 0.8243045 -0.12702923 1.0057466 0.7232959 0.11972131 -0.49458197 -0.838999 0.6140252 0.24896035 1.5319202 0.2900727 0.91618663 0.7658188 0.54021853 -0.5290419 0.13628381 0.29559854 -0.391073 -0.9023653 0.25602716 0.08896713 -0.024397027 -1.3777726 0.7072786 -1.0394663 0.32800624 0.6005033 -0.30094746 0.2797182 0.13739361 0.30777663 -0.42741156 -0.85694945 -0.14045492 0.8495234 0.9172898 -0.25387198 -0.3637074 0.66395015 -1.0281011 -0.39397827 -2.1050735 -1.000625 0.16863267 0.18038289 0.42715237
288 0.4513197 0.019290764 -1.4245098 0.2539494 0.5124402 -0.19481507 0.102656364 0.41409236 -0.31766394 0.3568035 0.20523222 0.2039871 -1.0017016 0.19179675 -0.49427608 0.056174126 -0.46272016 -1.3938591 0.7794057 -0.1678183 1.0832438 0.6582453 0.1763232 -0.3903739 -0.82450384 0.56347907 0.23671338 1.523808 0.345835 0.970005 0.7546706 0.556101 -0.5782195 0.1358543 0.29720932 -0.5008837 -0.93227494 0.16197935 0.13515988 -0.050206464 -1.4755346 0.6732454 -1.042943 0.4494835 0.5066176 -0.4450892 0.22807686 0.12736073 0.29615894 -0.46127114 -0.86343014 -0.15969098 0.93772084 0.95755285 -0.30780628 -0.35235968 0.68535477 -1.1274911 -0.40977946 -2.079748 -1.0603843 0.21825244 0.29456568 0.4446294
67 1.0296582 0.13687463 -1.1553003 1.5542144 0.6194103 -0.6981083 -0.6251814 0.76007783 -0.55439675 0.8987535 -0.38823804 -0.6676614 0.002859386 -0.07992259 -0.04682215 0.7147076 -0.85640496 0.66404414 0.20981678 0.48595366 0.090138376 0.33791766 0.98979104 -0.72986495 0.26878098 0.30271935 -0.3838565 0.6823719 -0.38084084 0.1162771 0.17029756 1.3169463 -1.3637296 -0.31288886 -0.4064964 0.040785085 -0.24273515 0.16058852 1.3509372 0.4052441 -1.8873134 1.5481601 -0.27479273 0.6360592 -0.168265 0.87179667 -0.14877382 0.5678352 -0.20521256 0.53547746 -0.4927274 -0.28529546 1.0930607 0.96958524 -0.4325357 -0.11556287 -1.0431837 -0.2556718 -0.08170738 -1.0784919 -1.0703578 0.70815265 -0.47900438 0.17924641
376 0.41059488 0.033322766 -0.6014269 0.80616224 -0.5742386 -0.26020995 0.490368 0.3917881 -0.17623024 0.09977501 0.59231263 0.05918575 -0.6379397 0.11959786 0.0875482 0.68914545 -0.11476494 -1.7878737 0.3428918 0.25444022 1.4300315 1.1110297 0.291439 -0.571496 -0.89154625 0.821272 -0.14642338 1.1501642 0.8374381 1.2003722 0.7001591 0.22094598 -0.8750875 -0.29487896 0.10660708 -0.34932196 -0.30401802 0.04612967 0.30675626 -0.25041506 -1.3919009 0.28492817 -0.09320847 -0.12088495 0.004587107 -0.064590596 -0.53611773 -0.5740544 1.5513033 -0.46086743 -0.6936731 -1.2288926 0.68057436 1.2085633 -0.88067716 0.4925304 0.0076452903 -0.7336401 -1.1153214 -1.4489726 -1.2610811 -0.0786727 -0.06940443 -0.19845963
361 0.45256448 0.021891916 -1.4024805 0.30169514 0.5422182 -0.19636951 0.118114956 0.40736005 -0.37174258 0.31382835 0.28565237 0.19520052 -1.017322 0.13779305 -0.37011588 0.12408067 -0.4316703 -1.4121548 0.835285 -0.11811933 1.0529177 0.72560567 0.16248024 -0.52700967 -0.8833889 0.5667448 0.26320806 1.535023 0.2893901 0.9415316 0.7917438 0.58967966 -0.5582115 0.13508394 0.3189217 -0.44784766 -0.94628334 0.2073728 0.22225326 -0.045598123 -1.4437883 0.7730238 -1.0677108 0.37408826 0.59109914 -0.3089624 0.28415203 0.14796293 0.3428874 -0.4228789 -0.81757015 -0.19770972 0.8656886 0.93041784 -0.2874107 -0.35922313 0.6905129 -1.0294869 -0.36010486 -2.1664584 -1.0234998 0.19262223 0.19772238 0.42373785
352 0.5488513 0.09540977 -0.58870465 0.92995155 -0.54682475 -0.30600291 0.6377777 0.26285908 -0.1390552 0.014717395 0.55944663 0.17861226 -0.65400034 0.10680669 0.034543898 0.7469371 -0.112891845 -1.8413002 0.32059515 0.24419934 1.439399 1.1670495 0.30571234 -0.65752965 -0.8140141 0.774975 -0.13535576 1.1099167 0.80220604 1.2148607 0.8373241 0.31665638 -0.8983874 -0.40739584 0.082369 -0.25967753 -0.38940877 0.19180173 0.26548836 -0.29790288 -1.4278051 0.21577005 -0.040605403 -0.13928586 0.07348762 0.1263469 -0.4323449 -0.44336367 1.4397417 -0.4688132 -0.8661326 -1.0370802 0.7798763 1.285235 -0.9060953 0.46902984 -0.125945 -0.66137403 -1.0830395 -1.4756103 -1.3838491 -0.032818403 -0.074375406 -0.3009917
251 0.2920528 -0.62126493 -0.036561556 0.17131947 0.3285557 -0.6105542 0.54945916 0.5402633 -0.18388514 -0.11941551 0.4489094 -1.0922414 -0.023509767 -0.08114445 -0.010116693 0.44618267 0.20623724 -0.6373442 -0.0011567503 -0.3274546 0.41812235 1.0355545 0.14245552 -0.32183775 -0.5271985 0.7103448 0.08196093 0.28498915 0.17415133 0.0565469 0.3854469 0.060831845 -0.18254846 -0.3666712 -0.77734405 -0.16566205 -0.45442647 0.19192813 -0.21589062 -0.15320055 0.07458338 -0.15676585 -0.88664407 0.12789746 -0.083567224 0.27637327 -0.28342858 0.36999813 0.17869851 1.1214503 -0.4370973 -0.52799004 0.35694927 0.62612927 0.12853444 0.33302087 -0.17282738 -0.9684805 -1.08039 0.14030495 0.2340969 -0.14264414 -0.86976725 -0.017475775
182 0.5015817 0.033401404 0.63294363 0.7365445 0.21242236 -1.0884348 -0.40538898 -0.5843078 -0.94866467 0.027631363 -0.026505906 -0.103034586 -0.21287392 -0.5444193 0.56541693 -0.02422049 -0.80140805 0.2584141 1.0786492 0.6924258 0.4307072 0.2896043 0.54762 0.13884865 0.28220218 0.19915707 -0.29454365 0.5210807 0.015481835 0.5790773 -0.2749845 -0.11002005 -0.13748387 -0.31293836 0.29975742 -0.5440908 0.12649702 0.011662431 0.06011798 -0.02650537 -1.4604658 -0.22683938 -0.6307957 0.33759215 -0.3668936 -0.13769087 -0.28244117 -1.2863369 0.27018133 0.97763276 -0.07784081 -0.9365523 0.34193903 -0.4910989 0.27276075 -0.27919522 -0.5872419 -0.37078544 -0.3300699 -1.0001162 -0.6973049 -0.22465728 0.35068476 -0.2663615
333 0.25035456 -0.5317388 -0.089973494 0.24658161 0.41398248 -0.6693291 0.6423316 0.51071024 -0.10783696 -0.25500464 0.4224347 -0.98998666 0.1318117 -0.090589695 0.092297636 0.22634703 0.3255417 -0.6498312 -0.08304617 -0.36809278 0.4346856 0.90152085 -0.015102071 -0.317081 -0.52563727 0.6522003 0.082226165 0.309463 0.08171555 -0.025808776 0.28302312 -0.0014403373 -0.076013714 -0.3846414 -0.7908459 -0.17459856 -0.3787919 0.36418426 -0.24914446 -0.14764214 -0.02168647 -0.08618282 -0.8157766 0.13991386 0.10810541 0.2338046 -0.14809051 0.32442272 0.13097459 1.1494617 -0.4323939 -0.53499126 0.27282506 0.49512845 0.0649725 0.2125081 -0.17292958 -1.0003018 -0.95555615 -0.013032608 0.22883983 -0.09589082 -0.9257729 -0.02259432
441 -0.32682747 0.08870582 -0.31585366 0.6877812 0.1559895 -0.4748738 0.43154684 0.31697175 -0.06785728 0.41311857 0.045960274 -1.0613885 0.48998734 -0.5341721 -0.023298308 0.3691623 0.2533391 -0.18082692 0.125911 -0.08033778 0.031756092 0.21710049 0.15546273 -0.24683627 -0.3901487 1.1849991 -0.48858902 0.42321298 -0.038055234 -0.5622151 -0.052186813 -1.043962 -0.9415341 -0.713075 -0.8832667 0.19207592 -0.31570926 0.040989757 0.45822918 0.26405716 -0.6587921 -0.30404884 -0.26045963 0.31842467 -0.19285223 0.016271021 -0.11789243 -0.13267013 0.07426596 0.52464986 -0.16467091 -0.3800816 0.4020305 0.51811624 0.2623573 0.45835108 -0.2315297 -1.3525354 -0.34971997 0.27748254 -0.2256927 0.36905473 -0.6006482 0.38027677
149 -0.36186954 -0.42219043 -0.19940911 0.7938657 0.86334354 -0.4144364 -0.022023449 -0.40144277 -0.44190204 0.65145993 0.21423788 -0.07980813 -0.290378 -0.09708637 0.26481736 1.0757403 0.08223373 0.71576035 1.0439649 1.1793662 0.051267665 1.1386976 -1.0562565 -0.23302597 -0.4497034 0.076395616 -1.1623363 0.8198408 -0.6957359 0.44534788 -0.3648589 0.14019012 -0.86642975 -0.09840119 0.56205094 -0.4064148 0.38221052 0.21187061 -0.70710284 0.63630456 -0.9143978 -0.038530815 1.2131242 -0.4351553 0.5134179 -0.9888996 -0.72791046 0.13593899 -0.104166165 0.003643813 0.72286314 -0.9091771 0.6449817 -0.48569995 0.17696826 0.025779435 1.0212663 -1.1008167 0.032971922 -0.53294605 -0.6246566 0.41124463 -0.14273559 0.4605217
349 -0.21346988 0.20867747 -0.31645545 0.9001788 0.30580103 -0.21132275 0.33396652 0.15450753 -0.18274722 0.48371202 0.13403687 -1.0996655 0.4779944 -0.3700037 -0.12202691 0.39053655 0.24757792 -0.24878092 0.18210648 0.06831023 -0.030037662 0.21226151 0.0677069 -0.24389249 -0.40907428 1.2722241 -0.3070921 0.3192165 -0.037348595 -0.6102116 0.25892466 -1.026064 -0.96575576 -0.62107027 -0.8434276 0.13061649 -0.14692429 0.18933876 0.57560426 0.23582849 -0.6110971 -0.32569116 -0.3493509 0.3041568 -0.08396163 0.07126904 -0.11183223 -0.008134047 0.07603265 0.5881539 -0.015548346 -0.3128396 0.39044544 0.50402915 0.27181324 0.38143715 -0.48453137 -1.495087 -0.24430558 0.3739888 -0.121441565 0.29617438 -0.44503364 0.27303097
181 0.38456422 -0.023341876 0.5205451 0.7016194 0.24871263 -1.0195056 -0.31867677 -0.5472887 -1.001385 -0.075910956 -0.097904414 -0.11703852 -0.27519605 -0.478978 0.51765835 0.009533878 -0.85946494 0.2282501 1.1986346 0.6600263 0.48007944 0.31287134 0.57692266 0.08268636 0.21164072 0.1720665 -0.21702656 0.47048572 -0.08332188 0.57050747 -0.39456773 -0.056884754 -0.21474294 -0.4987601 0.3878699 -0.45787027 0.02136062 -0.085810676 0.018087026 -0.105639845 -1.479087 -0.30294713 -0.49799988 0.40579867 -0.32018125 -0.18914272 -0.24445124 -1.3178566 0.2686588 1.0675793 -0.030688163 -0.92719424 0.36338004 -0.3407388 0.27889192 -0.27034622 -0.7320482 -0.26443806 -0.39988065 -0.9462108 -0.64698356 -0.2803141 0.32510936 -0.08056147
85 0.3172577 -0.008308307 0.6003363 0.6830752 0.196956 -1.04719 -0.40788338 -0.5048024 -1.0385836 -0.03120906 0.004186501 0.055667408 -0.1700932 -0.60481805 0.49128976 0.09714965 -0.76305133 0.110922396 1.0727206 0.71130115 0.39340457 0.2690807 0.6908948 0.11210336 0.3725994 0.16966324 -0.3002681 0.426146 0.07112389 0.56266814 -0.42262247 0.007631668 -0.21581453 -0.39868644 0.35109958 -0.43774533 -0.0013440993 -0.08805121 0.09610016 -0.00053861283 -1.5520558 -0.21841851 -0.44307932 0.34165704 -0.31897104 -0.14743587 -0.29227972 -1.2253796 0.37188718 1.0358988 -0.018286452 -0.8681781 0.29624277 -0.4293719 0.31490794 -0.26029843 -0.621951 -0.32927102 -0.45588362 -0.97438157 -0.6424608 -0.27554652 0.34087825 -0.25880617
194 0.5447778 0.10376332 0.5670736 0.6431026 0.110395186 -1.0328435 -0.4139592 -0.44032228 -0.88621515 -0.020679707 -0.15175709 -0.03830456 -0.22869533 -0.5994638 0.51855785 0.013744299 -0.9220093 0.18239464 1.1351851 0.7465765 0.42581397 0.34608543 0.6019608 0.24853878 0.31053516 0.1824161 -0.33058855 0.3991539 -0.16188082 0.7042857 -0.40952542 -0.06675862 -0.25491646 -0.4114757 0.21747681 -0.3971095 0.039811347 0.049965702 0.04921541 0.088110395 -1.4366546 -0.28521994 -0.48519516 0.39420527 -0.2347014 -0.2385728 -0.2221401 -1.2793164 0.18358965 1.1367971 -0.12997991 -1.0282431 0.22850135 -0.4387719 0.27009788 -0.21075103 -0.5808351 -0.19138654 -0.4571695 -0.9184417 -0.7465072 -0.17402457 0.35758194 -0.20209911
10 1.3495591 -0.27346304 -1.2730373 1.5022111 0.4853187 -0.39810693 -0.577556 0.7795892 -0.49022636 1.0747154 -0.22388501 -0.52746 0.20187446 0.40268144 -0.35413954 0.57547164 -0.6857023 0.6806293 0.45384172 0.09009324 0.4768889 0.4639043 0.8279062 -0.59954005 0.31281847 0.38791347 -0.5725707 0.8054697 -0.2286192 -0.09512018 0.14343585 0.99580914 -1.367919 -0.28591296 -0.42197827 0.08788123 -0.07738168 0.066132374 1.7305435 -0.22526821 -1.90852 0.82704127 -0.45568085 0.43405735 -0.55714524 0.7824112 -0.0598242 0.66226923 -0.1672086 0.49327406 -0.4608253 -0.05875285 0.8681598 0.8911739 -0.20698655 -0.3003771 -1.3976418 -0.6239501 -0.13351406 -0.7922559 -0.9568011 0.6384093 -0.53618026 0.043474104
40 0.0121498415 0.297738 0.23808469 0.47403812 0.5058787 0.4890482 0.37294632 0.76198614 -1.2807 0.54516786 0.06245322 -0.3266823 -0.382854 0.4264881 -0.2991676 0.7836458 0.1346341 0.26000944 0.1615347 -0.035220806 0.7187652 0.19008113 0.042139765 0.3514842 -0.29017884 -0.8056114 -0.16595337 0.6847525 -0.75818455 -0.08077823 0.18020266 -0.22780326 0.3887511 -0.5294456 -0.56251884 -0.48603565 0.17702559 0.16265464 0.47782186 0.71524036 -0.00289104 -0.19670583 0.14048606 0.2754436 -0.8037373 -0.8579051 0.5348765 0.4018701 -0.26616183 0.09580351 -0.22695518 -0.74598074 0.9134313 -0.4427273 0.006851034 -0.25427976 -0.07804775 0.19395834 -0.15699047 -1.1656036 0.575156 0.55372363 -0.15765475 -0.36708832
34 -0.05261373 -0.36746395 -0.3117796 0.62009615 0.75644124 0.25848252 -0.24124268 0.13041343 -0.1268026 -0.0052390536 -0.3023253 -0.1654168 -0.3262159 0.086035326 -0.024112318 0.42341498 -0.5999915 0.105295785 -0.4940593 0.3943271 0.5498182 0.13495292 -0.14616552 -0.6138653 -0.31663707 0.2225417 -0.46392548 -0.73649496 -0.07793031 -0.3513652 -0.47041097 -0.1924407 -0.2602448 -0.07357527 -0.016238395 0.06958984 -0.3357229 0.5274222 0.08303432 -0.29208007 -0.12399777 -0.55994576 0.36094806 -0.17634305 0.23958004 -0.20784092 0.21499102 -0.3502242 0.1626668 0.20130934 -0.16776845 -0.0021085844 0.6427791 0.32227227 -0.2249362 0.33281222 0.58752126 -0.15654515 -0.1727227 -0.6943354 0.09324054 -0.9501259 0.12151556 -0.7798122
284 -0.013000425 0.34132868 -0.2154665 0.27603793 0.059574395 0.2921753 0.533641 -0.78431505 -0.38707086 0.6317985 -0.262577 -1.1691443 1.1705354 0.068252616 -0.22997244 0.23735686 0.03235042 -0.5335069 0.12247574 -0.35352924 1.0957727 1.0832336 -0.24658136 0.3290412 0.13698404 0.45227256 -0.050369848 0.19369751 -0.13362232 0.1891083 0.010999777 -0.02748233 -0.8440388 0.0316536 -1.1326351 -0.592161 -0.20311429 0.24310793 -0.21504273 -0.3062479 0.63671786 -0.39658862 -0.19725671 -0.19337891 0.63389087 0.37549132 -0.5597509 -0.35920233 -0.109915055 1.1509756 -0.43450353 -0.15756461 0.5706056 0.12812427 -0.048361853 0.22563246 -0.4221997 -1.2913393 -0.24386682 -0.16064595 0.6962804 0.328588 0.27338603 -0.50067455
185 -0.32064617 0.014724297 -0.68433505 0.73372865 0.06484292 0.40396917 0.18386517 -0.16795944 -0.7368426 0.039661255 -0.12834755 -0.5568354 -0.880837 0.38812077 -0.5243211 -0.46146828 -0.23568138 0.110167176 0.5330073 0.46289626 0.86389685 0.32608137 0.048958164 0.53545713 -0.09407352 -0.61720824 0.0013873292 1.1184043 -0.21449728 -0.30186102 0.030663364 -0.26585567 0.24898593 -0.591143 0.4414927 0.048102025 -0.12275001 -0.06387873 -0.41259402 0.121871755 -0.72768825 -0.015454369 0.18256795 -0.11900956 -0.48884264 0.026643386 -0.11839594 0.09904348 0.21327607 0.25907588 -0.33893892 -0.27287823 0.56584 0.2700806 0.2734546 -0.5241156 0.79629695 -0.6101486 -0.034128368 -0.26997465 -0.23640968 -0.4902586 0.31441435 0.28075227
106 -0.24716526 0.34740198 -0.6893677 0.72595334 -0.041728564 0.1402495 0.14051056 0.02438987 -0.62911415 0.3882507 -0.17675889 -0.49131134 -1.1233722 0.3339229 -0.5377072 -0.33294797 -0.3282165 -0.056502085 0.3431438 0.5370928 0.7999739 0.17146005 -0.01124359 0.54587334 -0.012463213 -0.6997462 -0.09710511 1.0553175 -0.16101097 -0.2536933 -0.005177643 -0.23527664 0.11491287 -0.66346276 0.38473302 0.0635978 -0.1638163 -0.037387006 -0.28286305 0.24252419 -0.66034096 -0.040141135 0.17304203 -0.30883393 -0.5440872 -0.04462954 -0.15754887 -0.020123867 0.20001793 0.32870072 -0.12588358 -0.28472286 0.42316556 0.29348168 0.30577505 -0.6213275 0.8299231 -0.6440929 -0.1365103 -0.28600824 -0.13966681 -0.52985185 0.4621708 0.097539
50 -0.09581381 0.20927441 -0.11463815 0.43163243 0.03551073 -0.007863138 0.52595246 -0.24425223 -0.5208254 0.0044021388 0.13624617 -0.48017892 -0.5586004 0.4969623 0.24076296 -0.22790824 0.4884619 -0.7377608 0.25110793 0.8965083 1.0108835 0.7631251 -0.68244576 0.17675398 -0.322768 -1.0206307 0.09149203 -0.91706425 0.042775348 -0.15769915 0.36812815 0.023902245 0.14868575 -0.31247953 -0.6436381 0.39967903 0.29966965 -0.37046373 -0.045079466 -0.012372851 -0.9666826 0.22730508 0.86309034 0.3172189 0.0017258723 0.13897385 0.10017081 -0.6060467 -0.42837012 0.6309859 0.3920864 -0.55003375 -0.016492981 0.50436616 0.20448345 -0.65690285 0.7512362 0.23589101 -0.45397907 0.33367494 -0.12042634 0.13117099 -0.67898786 -0.3705704
140 -0.404794 -0.39840493 -0.20495826 0.7873741 0.8602806 -0.42490074 0.05869259 -0.38339546 -0.43291238 0.6364195 0.07625562 -0.0966393 -0.44470054 -0.034272827 0.3308573 1.0514514 0.12182967 0.7928925 1.010597 1.1802486 0.12571198 1.1302539 -0.98173034 -0.30213144 -0.36328113 0.13012575 -1.1790988 0.8098979 -0.6651563 0.51281494 -0.38814208 0.2034139 -0.763519 -0.15064242 0.55335957 -0.4053802 0.34558144 0.2314159 -0.60132354 0.7441453 -0.9892895 0.011240305 1.2762785 -0.357389 0.5216876 -0.97928226 -0.9079498 0.21554147 -0.01578688 0.091015 0.8491826 -1.049757 0.50267214 -0.39011973 0.2351884 0.1265647 1.0195453 -1.1232257 -0.0029123889 -0.5647893 -0.6112634 0.37808308 -0.16805792 0.45025492
184 0.38233176 -0.50117695 0.36042085 0.58328587 0.12158807 -0.76215243 1.1555138 0.5488503 -0.52377653 0.11962331 -0.352903 -0.6505566 -0.7696691 0.77730757 -0.048473362 -0.122905456 0.27781627 -0.33200452 0.052206356 0.4716666 1.0656307 0.7406183 0.10656449 0.3656609 0.1927186 0.11477517 0.3186171 0.9168952 -0.6303136 -0.6018249 -0.08592704 -0.122078754 -0.0037736967 -0.04518847 0.7581338 0.3815404 1.0490441 0.80998725 0.11048857 0.21355172 -0.3426754 0.1635687 0.32515922 -0.08614679 -0.08099737 0.6605045 -0.88248754 -0.684882 0.4786552 0.04447537 -0.58065367 0.008541066 0.33500502 0.05382814 -0.21656145 -0.5518527 0.67311037 0.29591894 0.08892378 0.16098386 -0.16556764 0.12159778 0.13325967 0.14539473
76 -0.36453566 0.22183509 -0.7087962 0.61723363 0.003380294 0.29228017 0.096783645 0.05173767 -0.66610813 0.17046718 -0.19323081 -0.6187562 -1.0917332 0.09848118 -0.5959626 -0.3930205 -0.28415886 -0.10212845 0.3486043 0.48985004 0.79146296 0.32362524 0.041277036 0.41370657 -0.104594484 -0.68923515 -0.035583306 1.1122441 -0.42797282 -0.16714397 -0.016974151 -0.080558375 0.1819399 -0.7614945 0.40091705 0.018595528 -0.052978925 -0.2166394 -0.535168 0.25098425 -0.6070889 -0.13167083 0.22108018 -0.1948268 -0.46062735 0.1167245 -0.22663023 0.015987812 0.16084781 0.21668671 -0.11876199 -0.19476616 0.470998 0.2585534 0.36662677 -0.3876717 0.67610335 -0.48431858 -0.07734206 -0.26768678 -0.26992407 -0.5913986 0.45496562 0.12232369
146 -0.015602714 -0.29824743 0.027967094 0.16359621 -1.0159667 0.50463045 0.38897747 -0.3148008 -0.12396466 0.75560695 -0.1442441 -1.4911162 -0.18853895 0.35222065 0.1601719 0.5489404 0.4711109 -0.4697323 0.03814175 -0.16775446 0.68796074 0.28493062 -0.2968098 0.052537933 -0.46035326 -1.1010989 -0.7912175 -0.1370656 0.18507394 0.46547627 0.007328679 -0.3372305 -0.21652608 0.23157305 -0.153275 0.21060869 0.34574223 0.79137343 -0.2818159 0.37594643 -0.6892782 0.72875535 0.34887204 0.11973019 -0.19388911 0.10990819 -1.103491 -0.16429095 -0.071938165 0.33401114 -0.33181393 0.09385 0.08854882 -0.30136338 0.82128614 -0.4492082 0.17867668 -0.065332286 -0.0056966525 -0.9273356 0.52592766 -0.5609282 0.48407474 -0.35229906
54 0.43474767 -0.34467518 -0.5371343 0.6276066 0.57604563 -0.06772872 -0.39149994 0.4172462 -0.21259533 -0.2344029 -0.5612771 -0.20046438 -0.00084739155 -0.1739074 -0.2533499 0.9023327 -0.84656 -0.41623843 0.095482 0.3522845 0.7645127 0.7587308 -0.17182155 -0.9857271 -0.32736725 -0.23780788 -0.45086265 -0.45712644 -0.24539936 0.3421593 -0.13627842 -0.30331528 -0.5847151 0.16318767 0.40396976 0.34190336 0.26112977 0.53787446 0.18052325 -0.6382958 -0.3368422 -0.9305269 0.25738633 -0.095142335 -0.19101848 0.2698579 -0.11423135 -0.6372449 0.40141663 0.47890046 -0.18943182 0.4865024 0.5724716 0.094858974 -0.40319532 0.5519102 0.64200497 0.31266946 -0.46745887 -0.6559024 -0.36858463 -1.0706326 0.059627194 -0.2793167
78 0.34693637 -0.33065084 0.2839451 0.60395783 0.094172046 -0.7793579 1.0976194 0.37378764 -0.49400476 0.008065145 -0.44132516 -0.7294237 -0.82044846 0.7666771 0.092243835 -0.22681546 0.17531611 -0.39785504 0.15804292 0.60355514 1.0785049 0.7915483 0.07455378 0.20972914 0.24913563 0.10567721 0.28371736 0.9705039 -0.66729593 -0.4925617 -0.14460671 -0.08360047 -0.049432043 -0.08506282 0.72024417 0.25417498 1.0246185 0.90136456 0.18227793 0.18810736 -0.1712971 0.11116217 0.20108964 -0.099208 -0.12868457 0.5949094 -0.9086269 -0.63781995 0.5525445 0.13002844 -0.5721213 -0.13551694 0.2195739 0.1234326 -0.2589654 -0.6260819 0.7240419 0.42410076 0.052062638 0.33005977 -0.11086826 -0.08060279 0.15275565 0.115522504
22 -0.25766796 -0.5467191 0.4269319 0.54012746 -0.07439453 -0.074209 -0.61566246 0.3870497 -0.6399347 0.7709601 0.20068559 0.8179448 -0.08935881 -0.50797087 -0.25144675 -0.66735137 -0.13491794 -0.35863358 0.65938294 0.38963377 1.5224358 0.70486736 0.19849658 -0.23813504 0.09036406 -0.07520123 -0.829801 0.35377276 -0.017885847 -0.09005902 -0.17804606 -0.06087462 -0.93843186 0.12461387 -0.29528472 0.055391658 0.23784526 -0.38889036 0.5216498 0.29451394 -0.48395813 0.327161 0.25553164 0.07636393 0.29419205 -0.72652173 -0.36877826 0.6244227 -0.14955637 0.5149559 -0.30909532 0.53629863 0.025760168 1.5517912 -0.24154584 0.15928122 0.41577798 -0.2188626 -0.0118583245 -0.6073222 0.35707477 0.24336123 0.12007941 -0.17354526
77 0.011896735 0.28918916 0.18603517 0.53825796 0.26798588 0.22335881 0.30788282 0.5840814 -1.2605863 0.60889393 0.02344452 -0.36358625 -0.4773649 0.47093046 -0.29654068 0.7707133 0.17429173 0.25642276 0.15467219 -0.033666775 0.7425766 0.21294738 0.10168314 0.15070045 -0.31972197 -0.5790331 -0.16377567 0.73924154 -0.6664173 0.034865636 0.1675643 -0.20259067 0.30761433 -0.5712001 -0.55941635 -0.5204181 -0.007058413 0.24446839 0.5879752 0.65109646 0.025591666 -0.08870493 0.121065654 0.22976337 -0.98844755 -0.8462525 0.62163496 0.25257844 -0.16381373 -0.06328525 -0.19856179 -0.6627217 0.95688283 -0.5286522 -0.124321 -0.15859525 -0.019626355 0.19394173 -0.01586033 -1.0686384 0.6929678 0.5782907 -0.20552707 -0.4178245
324 0.30558157 0.14588542 -0.13644186 0.42697054 0.6215558 -0.17299557 0.37916267 -0.12098508 -0.9876855 0.3893001 -0.21538666 -0.20955618 -0.38509288 0.286607 -0.018637912 0.31969392 0.49960142 -0.01382973 -0.25937778 0.16227123 0.4238231 0.30729893 0.021954758 0.27471498 0.038735762 -0.4770983 -0.28824604 0.35381854 -0.40848696 -0.11059058 -0.104495496 0.07588144 0.43403956 -0.19980921 -0.34156904 -0.004981593 -0.14134061 0.22961256 0.93025154 0.41262254 -0.30964234 -0.09099594 0.20842066 0.20926665 -0.5412949 -0.391308 0.3535594 0.35158437 -0.30494195 0.5319177 0.06357212 -0.17219207 0.39397594 -0.7481367 0.4519701 0.19174215 0.16605113 0.37420076 0.24708839 -0.87835604 0.5788965 0.55297285 0.043315124 0.12221561
157 -0.40442175 -0.5971546 0.36910692 0.49560973 0.072269864 0.057424486 -0.5533116 0.33960253 -0.7110982 0.75617844 0.19732407 0.81903 -0.09472278 -0.6667503 -0.29602212 -0.6523608 -0.0033797463 -0.37836146 0.5846074 0.32627246 1.5345836 0.66940755 0.28002378 -0.20106328 0.08304065 -0.10075882 -0.7998982 0.28473392 -0.049246263 0.08580917 -0.18483588 -0.28969428 -0.97127706 0.21053667 -0.25820082 -0.06559689 0.38929933 -0.20574097 0.5621826 0.20262946 -0.61649096 0.3037672 0.1584521 0.06492841 0.23411825 -0.6455504 -0.31228393 0.6836865 -0.07156421 0.5535459 -0.4250591 0.43195254 0.037926015 1.5449874 -0.17689067 0.123394765 0.43532193 -0.0029684163 0.076777264 -0.5123938 0.35444131 0.30889776 0.1443136 -0.07273804
395 1.2130494 -0.8807696 0.42700148 1.0652263 0.41869453 -0.5583516 -0.26340422 0.14795107 -0.3568971 0.34503916 -0.8823525 -0.14217742 -0.20746577 0.021061217 0.19469716 0.44539878 -0.4024756 -1.0957955 -0.6127885 0.8295506 -0.04783187 0.6236901 -0.0009514837 0.59033424 0.104815856 0.045471203 -0.6962805 -0.29601237 -0.47508413 -0.4534822 -0.1348258 -0.82296306 0.23643756 -0.18261251 0.46698612 -0.83111244 0.24489018 -0.34671357 0.078758866 1.1524328 -0.2730532 0.276873 -0.42611265 -0.30302137 -0.020555018 -0.08691619 1.1218085 -0.4170251 -1.2262286 0.5426152 -1.1988139 -0.018620824 0.30102494 -0.5901031 0.32945815 0.68547595 -0.28007632 0.09715655 -0.24042983 0.09744279 0.25816056 0.15276346 0.11278531 -0.51384735
341 -0.41835785 0.29482573 -0.30727068 0.8094583 0.39604428 -0.37195188 0.5009394 0.3190256 -0.18381421 0.34208345 0.10945883 -0.91247976 0.48573598 -0.402471 -0.14582983 0.32274136 0.1762762 -0.2432267 0.07878231 0.011232244 0.06843185 0.30691722 0.13199727 -0.2004535 -0.5811772 1.0745115 -0.24448611 0.35292375 -0.079091735 -0.6119614 0.07135679 -0.9747449 -1.066304 -0.6903497 -0.8519441 0.037583668 -0.13348009 0.24361555 0.40194222 0.281358 -0.5432794 -0.19296513 -0.44575545 0.42840055 0.016779624 0.271591 -0.07902138 -0.08005698 0.12532873 0.5805284 -0.015143972 -0.4005122 0.48852125 0.45470503 0.2509451 0.32359332 -0.40018755 -1.3840067 -0.15914983 0.2682351 -0.22450002 0.3761407 -0.45400736 0.33705768
336 -0.027922181 0.05248413 0.085043035 0.7318561 -0.025099166 -0.36723152 -0.62915903 0.40086436 -0.5249435 0.6585098 -0.4201499 0.017602377 0.47564268 -0.72806126 -0.06610902 -0.106814355 -0.37143958 0.375183 0.5867371 0.13115217 0.7729417 0.15401164 0.74558294 0.25230363 -0.14349279 -0.2854506 -0.11294236 0.8968704 0.055573788 -0.057572067 -0.19633593 0.19782193 -0.010558754 0.016064208 -0.61411226 -0.53624946 0.7621788 -0.20385504 0.5244497 0.820009 -0.51589054 -0.6829713 -0.12909217 0.31346926 0.31886253 -0.22957702 0.208699 -0.052930176 0.18016842 0.25380677 -0.29525486 0.36120132 -0.016058154 1.2124461 -0.6000202 0.014503125 1.4435648 -0.21292414 -0.29362652 -0.92431056 0.83265585 -0.34556162 0.50749797 -0.036825467
147 -0.16711424 -0.37960625 -0.1649966 -0.5572496 1.5208387 0.0484655 0.26172292 -0.010714157 0.28422716 -0.020347955 -0.33188066 -0.33254844 -0.71476585 0.36554307 -0.85869455 0.824743 -0.9133369 -0.5133066 0.8595597 1.135487 0.8261161 -0.10533985 -0.16834915 -1.3030332 -0.16083866 0.13281596 -0.838519 0.22956418 -0.6224495 -0.971084 -0.11758994 0.11415857 -0.33143067 0.20117085 0.38631645 -0.11765238 -0.4943639 0.24511127 0.759275 -0.5079341 -0.12103016 0.14819974 0.24892637 0.517192 0.9717338 -0.075161316 1.1469398 0.003739319 0.6644297 0.3362592 -0.6294909 -0.07122271 0.92519 0.45886964 0.0020389892 0.41371217 0.85183513 -0.058166 -0.24253955 -0.6041979 0.30832368 -0.349898 0.78347456 -0.85249263
176 -0.35724795 -0.3559715 -0.2255938 0.7316117 0.8978848 -0.30069903 -0.050016463 -0.3931269 -0.46713138 0.63831276 0.12759177 -0.15523304 -0.39217043 -0.059855983 0.36176026 1.0414424 0.20617402 0.7051686 1.0330223 1.2554026 0.09747017 1.1270059 -1.0528891 -0.29239333 -0.3720558 0.15237927 -1.114249 0.86101776 -0.6753955 0.54400116 -0.43678793 0.1902338 -0.8073977 -0.09983413 0.6077898 -0.4304651 0.42027378 0.22897284 -0.681038 0.60175514 -0.9669177 -0.011165012 1.1994144 -0.426352 0.65457577 -1.053871 -0.8191683 0.21016556 -0.00413064 0.06943651 0.7332802 -0.9614799 0.7202385 -0.3807347 0.23106258 0.14011657 0.9326465 -1.0799938 0.015886528 -0.52965575 -0.5376963 0.437954 -0.16150129 0.5072164
413 -0.16223757 -0.30351505 0.43035406 0.7484354 0.17347996 -0.16185288 -0.51414824 0.1492144 -0.22512747 0.37966508 0.3493206 -0.15218903 0.04017014 -0.66837794 0.08170819 -0.60651416 -0.1653045 0.10975543 0.086032584 0.012886764 0.7790535 0.4368336 0.47612426 -0.27696204 -0.53185636 0.17136429 -0.2571448 0.11798207 0.3107647 -0.26060596 -0.16916077 0.20789897 -0.4344649 0.42571548 -0.4145886 -0.42326355 0.5479198 -0.20955881 0.7168084 0.47881466 -0.4372076 -0.24103233 -0.29595223 0.11039611 0.23754168 -0.030582087 -0.23531958 0.19921769 -0.3168988 0.3000934 -0.114736125 0.3484298 0.00064978155 0.72925794 0.075437225 0.107699536 0.8455442 -0.004664874 -0.042600032 -0.21845838 0.51232386 0.015260134 0.647115 -0.019588081
83 0.32349843 -0.5379121 0.20322561 0.733238 0.3990612 -1.0168322 -0.714544 0.06137563 -0.6850302 -0.8084862 0.32039696 0.12808572 -0.43133926 -0.68907076 0.52622867 0.5465615 0.13738783 -0.8399347 0.7757791 0.26759997 -0.17334469 0.9832289 0.0017243868 0.48056757 -0.053485353 0.31491327 0.040726677 0.024981 0.5574764 0.13720787 -0.48079023 0.3990512 -0.09923527 -0.05430661 -0.08115253 -0.9254324 -0.567464 -0.42417917 0.5034745 0.59928286 -0.14835235 -0.95190203 0.34055313 0.7870356 0.197212 -0.07318295 -0.016144233 -0.18330258 0.01666656 0.0630467 -1.0805184 -0.59722996 0.36205056 0.0089677535 0.38791546 -0.49984646 -0.43371955 -0.28933668 1.019364 -1.1911756 -0.27943558 -0.31753772 0.67259824 -1.0245233
153 -0.45680663 -0.500474 0.45464066 0.58413583 -0.16125669 -0.084675506 -0.59804213 0.30400085 -0.69791794 0.89759654 0.09022688 0.8231213 -0.1283653 -0.6827375 -0.2241051 -0.49640664 -0.17400983 -0.364074 0.5355609 0.55831987 1.4869668 0.67452985 0.27436367 -0.37108594 0.01916069 -0.18096897 -0.7451582 0.26499668 0.09441477 -0.08828353 -0.14365968 -0.087045796 -0.7761332 0.122958414 -0.34021834 -0.108572766 0.22804388 -0.2665255 0.5313876 0.2006507 -0.5160009 0.30228537 0.25581318 0.15795109 0.1978272 -0.6676011 -0.46896526 0.71563077 -0.035455253 0.48317748 -0.36060303 0.47969124 0.040831495 1.5729606 -0.2314269 0.15150888 0.42636693 -0.021600755 -0.099862136 -0.5680693 0.30387875 0.35033682 0.1484229 -0.174075
69 0.45868254 -0.69825536 -0.8359747 0.1995283 0.3590472 -0.22740701 -0.6042379 0.42582697 -0.48223436 0.29670447 -0.07846168 -0.2230809 -0.6125929 0.02454795 -1.1996224 0.6089927 -0.15096486 0.66271496 -1.34834 1.0115936 0.32875562 0.48201206 0.10436732 -1.0059137 0.055219922 0.24782898 -0.11085496 -0.9305641 -0.5703308 -0.43569463 -0.83953863 0.018550215 -0.48378527 0.35279372 -0.061546087 0.35220546 -0.27904612 0.05699807 0.4950157 0.037999097 -0.041034304 -0.7642014 0.47699514 0.098029345 -0.034961212 -0.46208882 -0.07062018 -0.268576 0.24050435 0.11227389 -0.58450454 0.016035324 0.94318736 0.19244115 -0.59279907 -0.50142795 0.6320839 -0.5574998 -0.31176704 -0.60308516 0.30712384 -1.3540808 0.1682862 -0.7538712
161 -0.07326635 -0.19505982 -0.3596179 0.61037904 0.5464086 0.19317265 -0.27166376 0.066740476 -0.20058869 -0.079634726 -0.33359566 -0.10347559 -0.30971417 0.1594416 -0.07712753 0.5965135 -0.46081313 -0.0069325864 -0.4643104 0.54504603 0.7186987 0.2087708 0.07108778 -0.8067743 -0.32569507 0.1552591 -0.41174462 -0.63755584 0.0035143932 -0.32530317 -0.57405 -0.30681464 -0.23138733 0.052498404 0.10187165 0.01661057 -0.27708954 0.5497069 0.039267194 -0.4034504 -0.06988203 -0.64744216 0.23096372 -0.10566655 0.35248217 -0.0687707 0.2017418 -0.30861157 0.06429024 0.2108882 -0.16116147 0.049114704 0.69160444 0.32601362 -0.2049485 0.35854837 0.45129168 -0.116280906 -0.12949058 -0.7642939 0.03790178 -0.9403898 0.110495746 -0.6822709
170 -0.3450223 -0.4286189 0.049618144 0.9116568 0.6192745 -0.14723617 0.54839057 -0.39744747 -0.22922675 0.6515356 0.075562835 -0.0020047126 -0.37701482 -0.03419857 0.3174208 0.925739 0.46459758 0.28888398 0.736567 1.1934091 -0.36814293 1.0633655 -0.8764334 -0.13844347 -0.62710464 0.09664053 -0.7641893 0.61930573 -0.7314069 0.6937797 -0.32605338 0.25591588 -0.85190284 -0.403072 0.39366552 -0.5317284 0.31044278 0.27749822 -0.53572893 0.2777219 -0.89423937 -0.3497954 0.71485907 -0.2069186 0.7403849 -0.7639365 -0.14458793 0.37475032 -0.14396313 -0.5049101 0.48477548 -0.32270676 0.6895556 -0.3026281 0.15277398 -0.30388084 1.0255201 -0.6478649 0.12285018 -0.589371 -0.2237669 -0.062814556 0.0026643202 0.37677938
180 0.4001038 -0.08642464 0.5791345 0.6434043 0.10377516 -1.0814689 -0.40686247 -0.42516688 -0.95833135 0.056569856 0.05854773 -0.0064176843 -0.25571296 -0.62107104 0.3802932 0.08013898 -0.8469875 0.26548544 1.1301595 0.84649414 0.39497522 0.33405867 0.53169376 0.20376694 0.25201133 0.036495745 -0.25023922 0.44833362 -0.061931614 0.67586625 -0.38574824 0.010083564 -0.26182386 -0.5137907 0.40168294 -0.56861806 0.056876294 -0.03715409 0.020657033 0.00047001758 -1.523135 -0.3849499 -0.5028589 0.29972094 -0.37251392 -0.21084681 -0.25397858 -1.2346613 0.26005343 1.0989356 -0.31206283 -1.0559903 0.26420146 -0.36190137 0.24709833 -0.18768883 -0.66181046 -0.5203444 -0.29854897 -0.9803206 -0.6534239 -0.2000162 0.39861262 -0.27982116
32 0.45934516 -0.0670822 0.54934156 0.6745636 0.1259557 -1.0114886 -0.33725318 -0.561957 -0.9213061 0.021531355 0.14527676 -0.047614165 -0.15937363 -0.55526435 0.46695557 -0.05815759 -0.7377497 0.18445213 1.3024964 0.7948704 0.3955792 0.30936247 0.56046575 0.120863274 0.2905542 0.19558077 -0.17627653 0.43856385 0.049218677 0.6264976 -0.3364513 -0.05629412 -0.24602026 -0.55914867 0.42051175 -0.5504286 -0.02863978 0.08650026 0.17578392 -0.0958892 -1.5070113 -0.24577494 -0.4975976 0.37010247 -0.36572626 -0.32004702 -0.26473707 -1.0921924 0.25837722 1.0072829 -0.28598043 -0.91366124 0.42353493 -0.4579373 0.22519861 -0.23751433 -0.5920963 -0.39670897 -0.31067395 -0.9366061 -0.68210334 -0.17474547 0.3772064 -0.3082306
62 0.32754573 -0.571121 0.23836732 0.6027637 -0.13560975 -0.7722159 1.0905716 0.43577892 -0.6278589 0.04348973 -0.33321375 -0.8356488 -0.6817111 0.8891764 -0.01993292 -0.08557258 0.27512524 -0.43564096 0.04045289 0.6036137 0.9274275 0.72120965 0.07607028 0.29135588 0.07752454 0.1380155 0.1080935 0.9435581 -0.62632835 -0.48909178 -0.054836974 -0.16763686 -0.022488547 -0.0933661 0.7239715 0.2907091 1.0312849 0.8116731 0.12564345 0.14336815 -0.1994571 0.074917756 0.24289858 0.01123438 -0.035458356 0.58333063 -0.87467 -0.61734045 0.42204946 0.17068097 -0.47312266 -0.04897233 0.27245483 0.02406591 -0.39916253 -0.6738395 0.82950985 0.44811356 0.0628179 0.26232883 -0.2049295 0.11400344 0.10498333 0.00988705
384 -0.038420744 -0.09068901 0.15274803 -0.07136198 0.4064699 -0.59883976 0.33386958 0.06305285 -0.12500557 0.22285637 0.010685897 -0.95800644 0.2070462 -0.31766006 0.20865652 0.22976628 0.14071007 -0.24122536 0.099948935 -0.2055358 0.34963813 0.71346706 0.15047312 0.13275723 0.056943472 0.6677496 0.12436581 0.039057635 -0.10570699 -0.4718986 0.072283484 -0.0968315 -0.3558637 -0.00051556516 -0.84651506 0.019618204 -0.37338957 0.39858842 -0.5100872 0.0077299075 0.07268069 -0.5367457 -0.14294262 0.25585204 0.16001916 0.1198997 -0.13281915 -0.06867128 -0.30867177 1.1258786 -0.2873261 -0.01942126 0.40458608 0.2103783 0.24950416 0.30340943 -0.10568496 -0.9793575 -0.42604643 0.11311522 0.19354244 -0.055749305 -0.20642756 -0.15464807
61 -0.3438367 0.19565745 -0.76881224 0.7216292 -0.19059929 0.15035258 0.25163063 -0.013476939 -0.88294864 0.21522948 -0.23597933 -0.6206406 -0.808882 0.27369738 -0.44950452 -0.54576766 -0.24901552 -0.25318918 0.3433777 0.53010577 0.9082548 0.114601545 0.07110604 0.40496773 -0.15104283 -0.6148346 -0.0012579148 1.0122224 -0.5018618 -0.11884261 0.013545852 -0.09844921 0.25064588 -0.66299444 0.4375616 0.11398752 -0.104269795 -0.23279573 -0.249363 0.08603389 -0.602826 -0.064383626 0.30236024 -0.15432642 -0.36811483 -0.19478975 -0.053769097 0.0809667 0.0688034 0.27676874 -0.13143943 -0.25863484 0.6941157 0.2751602 0.36019552 -0.5765003 0.67370546 -0.5194699 -0.06436337 -0.25037277 -0.3062682 -0.6228294 0.42659637 0.35646334
206 0.77367663 0.21131022 -0.08076906 0.8382027 0.11131146 0.35124642 -0.041442264 0.28494507 -0.053229928 0.8716665 0.3297363 -1.2127417 -1.2767245 -0.23064512 -0.11969246 -0.36363074 0.34709546 -0.2397612 0.3898793 0.72621053 0.22014828 0.105570935 0.20710345 -0.42971718 0.88567287 -0.20651096 -0.000740531 0.007962153 -0.29791048 -0.264692 0.14084576 0.01626321 0.30672687 -0.057500344 1.017695 -0.19219537 0.38470414 -0.06085424 -0.11405675 0.21402131 -0.3997536 -0.7688547 0.25188315 0.764493 -0.1577145 0.9929681 -0.6248484 0.6907497 0.44396105 0.32079342 0.27530497 -0.03172479 0.85602033 -0.618876 0.55816734 -0.276534 0.4397608 0.34595248 -0.034559388 -0.052100677 0.27755493 -0.4974505 0.11831065 -0.31766593
9 0.010725708 0.040066905 0.17462865 0.7890814 0.08739979 -0.5087615 -0.58447313 0.34468713 -0.4680088 0.6630552 -0.30252135 0.024114667 0.46701673 -0.5970519 0.017050104 -0.16014193 -0.33693343 0.2979173 0.64895636 0.2393535 0.8843871 0.13560326 0.8392072 0.20805062 -0.2440567 -0.26358342 -0.08711567 0.8866605 -0.010833847 -0.2488969 -0.16619246 0.19720134 -0.017581346 0.026011959 -0.6275535 -0.53067356 0.54810995 -0.25841665 0.49325064 0.9486277 -0.4878066 -0.7450435 -0.15574011 0.21909752 0.45007536 -0.122037426 0.1628116 0.12585367 0.25676385 0.16779773 -0.2758085 0.3741329 -0.07670925 1.2966638 -0.6833971 -0.12267546 1.3245089 -0.27681437 -0.24059029 -1.0458442 0.84405375 -0.40403563 0.47893995 -0.0073823314
104 0.4883094 -0.2975476 -0.40706715 0.5823625 0.59731734 -0.04227083 -0.449706 0.4190289 -0.15335025 -0.353966 -0.5315227 -0.26459625 -0.047160663 -0.19565803 -0.31369236 0.85861135 -0.6825861 -0.24464975 0.057641152 0.42711955 0.7139365 0.6270743 -0.22973569 -0.8577564 -0.5347768 -0.12115158 -0.49283192 -0.33379492 -0.197026 0.32877567 0.0063110045 -0.5468226 -0.63902813 0.17019337 0.49363878 0.35795283 0.35927874 0.6538494 0.421407 -0.677549 -0.29497516 -0.87235135 0.27651086 -0.12941138 -0.31467628 0.2600075 -0.118044026 -0.69595015 0.28835294 0.53535575 -0.22063756 0.55598694 0.75845385 0.12322963 -0.53582335 0.6607488 0.6337902 0.21567811 -0.56156415 -0.80501527 -0.36788192 -1.0865529 0.070732884 -0.39472398
452 -0.27551094 0.08859293 -0.23764826 0.6654109 0.18088141 -0.38604984 0.40673617 0.3187502 -0.0811858 0.39211175 0.08676645 -1.1168867 0.45052525 -0.5273823 -0.07804972 0.4322328 0.2257072 -0.21002425 0.15608549 -0.1431568 0.09116935 0.28790817 0.071897276 -0.29609317 -0.59679973 1.2923009 -0.29313028 0.3735445 -0.12696986 -0.5498077 0.052864354 -1.0221741 -1.0740005 -0.6871458 -0.86030334 0.23214082 -0.2775102 0.14541455 0.4935392 0.48543787 -0.62002903 -0.36325505 -0.38435224 0.5043226 -0.04548249 0.13917014 0.04070872 -0.08776331 0.16038537 0.5094571 -0.02138291 -0.35100877 0.50395805 0.48565492 0.28994703 0.31325087 -0.36153886 -1.3501455 -0.2557865 0.29772654 -0.15896548 0.18674362 -0.59507465 0.36188054
273 0.81264925 -0.94839334 0.388497 0.59001994 0.6494658 0.041780505 0.062402546 -0.22470854 -0.900025 0.05379533 -0.42942727 -0.3999789 -0.41358918 -0.2858314 0.32706836 0.3285517 -0.019036556 -0.68055695 -0.8292226 0.22180581 0.4099269 0.056762394 0.2054978 0.22752649 0.3391693 -0.08464838 -0.63372564 0.0068418905 -0.07099774 0.14300388 0.19046222 -0.2640997 0.06712287 0.057555452 0.19411957 -0.47099274 -0.005706551 0.034869067 0.07848161 0.7402353 -0.620201 0.0021434121 -0.030344246 0.1150995 0.0023709734 -0.45043454 0.933424 -0.69561595 -0.7241244 0.35189557 -0.30899903 -0.2821482 0.2928903 -0.5424173 0.2642307 0.20270756 -0.44354105 -0.028049909 -0.18253028 0.02057386 0.4173783 -0.070312485 0.087110765 0.1365394
154 -0.16637217 -0.25515142 0.324376 0.58184373 0.21192905 -0.15868077 -0.65220165 0.046066254 -0.2314796 0.24772313 0.37092125 -0.27575666 -0.03591159 -0.6607883 0.03444864 -0.5985239 -0.12328021 0.039065905 0.088044435 0.04791888 0.6754409 0.48687956 0.53978163 -0.28881067 -0.47310534 0.104739144 -0.20468158 0.087384984 0.36050928 -0.23541294 -0.20098323 0.04864741 -0.46626446 0.32752293 -0.47318125 -0.3418393 0.57598126 -0.18523026 0.76994324 0.45440206 -0.46867105 -0.14777383 -0.27538422 0.064387135 0.32959026 -0.0883199 -0.039602943 0.25154838 -0.32520136 0.37398788 -0.052110333 0.26865795 -0.03291272 0.7541574 -0.04950504 0.12313527 0.8136897 0.021312477 0.024028346 -0.2521394 0.6878082 -0.033935595 0.73984903 0.047452327
93 -0.04966295 -0.37079516 -0.21629788 -0.64455014 1.3779001 -0.080783404 0.29991683 0.021784576 0.28317136 -0.13416879 -0.39057404 -0.37783664 -0.7760917 0.29360446 -0.8831928 0.8068026 -0.81992847 -0.30470848 0.8844145 1.166601 0.9559631 -0.14955541 -0.18465756 -1.1637976 -0.24758539 0.18262142 -0.8711379 0.20551607 -0.55531573 -0.916941 -0.19021806 0.14900082 -0.31170422 0.20134342 0.24157609 -0.23581873 -0.64838564 0.2088254 0.7153016 -0.26066524 -0.0940097 0.31674254 0.34793147 0.4644128 0.9761062 -0.012428275 1.1534055 -0.027996996 0.679556 0.38609985 -0.63184166 0.018091297 0.9056953 0.47647506 -0.0005825445 0.3786008 0.94949996 -0.12470829 -0.035254207 -0.72699 0.223747 -0.49308547 0.80071324 -0.9113098
136 -0.51614386 -0.4113147 0.08962022 0.9382736 0.57795304 -0.26076177 0.43868652 -0.406241 -0.36046162 0.6866217 0.06691786 0.015390889 -0.4199833 0.011512793 0.3382403 1.0164614 0.46909 0.3558307 0.5506824 1.0749724 -0.33989435 1.0075732 -0.97597086 -0.26349205 -0.59406686 0.020444404 -0.7136451 0.683193 -0.75442207 0.5863872 -0.37100622 0.3064623 -0.9578538 -0.28060544 0.4963634 -0.45117983 0.1518381 0.24270813 -0.55119765 0.2588496 -0.98178464 -0.2171642 0.68799 -0.2711322 0.7702522 -0.68196213 -0.12241235 0.3320449 -0.30108503 -0.41779685 0.41747952 -0.33054426 0.66501904 -0.36096734 0.1248926 -0.370057 1.1037124 -0.7090973 0.16961482 -0.6112074 -0.2120251 -0.023339884 -0.0677751 0.40423343
43 -0.3666658 0.2535799 -0.75588393 0.6007691 -0.10544509 0.16586946 0.08939702 0.024268446 -0.73089224 0.051315144 -0.022976924 -0.5310438 -0.8731783 0.26484096 -0.5581402 -0.3594805 -0.19396222 -0.17493558 0.49322432 0.5540402 0.88772506 0.3013493 0.1077802 0.3716061 -0.031471327 -0.69909 -0.09064274 1.0778704 -0.35638043 -0.16158251 0.002514663 -0.21927492 0.27400786 -0.74233305 0.46250376 0.03464187 0.046677932 0.008925957 -0.2887566 0.19289678 -0.6091175 -0.108500525 0.17097135 -0.22589675 -0.46708226 -0.060014877 0.027324336 -0.05728836 0.015498208 0.33361468 -0.1537855 -0.1945137 0.62344533 0.2815294 0.2535381 -0.62678313 0.7103549 -0.6432704 0.09110633 -0.27956054 -0.37848988 -0.60219485 0.48137414 0.31282276
68 -0.016604565 -0.34431964 -0.24266548 0.62402433 0.5763987 0.26653624 -0.2939471 0.12769376 -0.12467108 -0.10414974 -0.17578602 -0.09530315 -0.2545323 0.17925647 -0.054891367 0.4988898 -0.5145402 0.05391101 -0.43153217 0.5120615 0.6614912 0.24216212 0.036069047 -0.6714376 -0.4461465 0.19451557 -0.4418109 -0.7566699 -0.0686415 -0.32369503 -0.5459144 -0.1795819 -0.21501398 0.13361467 0.08740641 0.06674015 -0.34043065 0.62183774 0.053488877 -0.41098893 -0.13354911 -0.5559775 0.30471095 -0.20261326 0.17463799 -0.1420788 0.24903412 -0.28233695 0.06988205 0.2162468 -0.19873488 0.09481032 0.78828394 0.28322202 -0.23682036 0.29585823 0.5817855 -0.15497154 -0.25782144 -0.6935287 0.08825545 -0.91512376 0.07684148 -0.7326981
186 0.06167428 0.4365036 -0.06507501 0.9690661 0.12266662 0.33555987 0.31257835 -0.43548623 0.22333439 -0.08112492 -0.11110988 -0.60252213 -0.6689237 0.32609758 0.2681993 0.32877788 -0.11528784 -0.30125463 -0.63391024 -0.16155224 0.8867428 0.2732619 -0.83950776 0.33767256 0.281045 -0.21085182 -0.41190794 0.25890684 -0.17399855 0.23421073 0.79806316 0.5612336 -0.17196485 -0.637454 0.029929386 0.058780003 0.68946403 -0.06195005 0.52585965 0.496806 -0.7875067 -0.031882156 0.39530373 0.6658199 -0.1241969 -0.027817704 -0.5349552 -0.194629 0.026397042 0.24288033 -0.42958152 0.7505822 1.0576596 -0.27798584 0.26292732 -0.17783627 0.12955321 0.15119916 -0.755226 0.0016256344 -0.5832466 -0.68602663 0.62599456 0.1674572
271 -0.029708162 0.13062519 -0.18739358 0.31883812 -0.14758869 0.26911756 0.3376756 -0.039574746 -0.19905402 0.13753363 0.07928126 -0.5935575 -0.80533594 0.29038504 0.21000095 -0.22580099 0.20280123 -0.27327245 -0.1941912 0.23792149 0.17277735 0.5732858 -0.016980192 0.29919383 0.06764276 -0.2804835 -0.5592456 0.017783688 -0.08756848 0.06987401 -0.32560384 0.108995445 -0.010564688 -0.0078022503 -0.13313322 0.1838726 0.38835233 0.15871629 -0.067441635 0.13038225 -0.47736043 0.0348294 0.17298192 0.34395114 -0.20801008 0.3545205 0.03946421 0.038683783 -0.14599101 0.15997595 -0.13245772 -0.11328489 0.4271926 -0.04684946 0.2044215 -0.3095627 0.40303075 -0.012192025 0.00065268844 0.085722394 0.13847408 -0.17138687 0.19244449 -0.3442128
298 -0.03711071 -0.0857313 0.13746147 -0.124964684 0.30308515 -0.49004212 0.46999884 0.030178634 -0.12088671 0.43527982 -0.11951114 -0.9673666 0.24556623 -0.3422161 0.16284983 0.3822062 0.18687497 -0.29160738 0.15314923 -0.055913985 0.26793087 0.6970546 0.20499493 -0.028836941 0.17693105 0.6809462 0.0835781 0.14225355 0.059198074 -0.41485935 0.027743781 -0.17865153 -0.38819185 -0.1444511 -0.9298513 -0.016796459 -0.40385798 0.424238 -0.32927415 0.011442536 0.15500726 -0.6419731 -0.2198691 0.30499938 0.18773022 0.15906556 -0.26866147 -0.078667894 -0.32225472 1.1192139 -0.34284666 0.11664703 0.38832068 0.20437354 0.21176513 0.2778317 0.015318239 -0.7860905 -0.41917372 0.097992435 0.07606976 0.016370371 -0.1488305 -0.21124268
191 1.194588 -0.91726124 0.35358152 0.84151083 0.32466823 0.073059045 0.14427839 -0.85144114 -0.8812481 0.31396574 0.2086758 0.23921351 -0.7423294 -0.2595652 -0.18427551 0.4986769 -0.62837744 -0.87225693 -0.453701 0.31932327 1.0086588 0.2951213 0.41729984 -0.28417474 0.63576335 0.32897964 -0.4588059 0.22568266 0.41465813 0.4714176 1.0208445 0.014358003 -0.24723345 0.39409268 -0.69725525 0.47931415 0.283232 0.03888712 -0.051035933 0.58228844 0.104340374 -0.6127298 0.42285523 -0.07444653 0.30498236 0.017533312 0.8358969 -0.651902 -0.88510066 -0.45140314 -0.49132127 -0.5900414 0.46188188 -0.8805312 0.67554605 0.24514762 -0.103898376 -0.4364633 -0.5295982 -0.46193588 -0.5244925 -0.016933955 -0.10318721 0.15670012
344 0.08024891 0.10349132 -0.106234506 0.32472414 -0.310947 0.17080499 0.42985103 -0.0152453985 -0.2575981 0.01152807 0.2206391 -0.60385203 -0.68862456 0.37330824 0.3025161 -0.21718912 0.18269801 -0.28701612 -0.2450402 0.23788945 0.29502624 0.4484133 0.0078053083 0.19119398 -0.054585196 -0.3770092 -0.53738713 0.14593711 -0.10958465 0.043836143 -0.1908859 0.057812545 0.097774915 -0.09260272 -0.12126535 0.15817131 0.23899102 0.27253908 0.019544203 0.12557645 -0.6170627 -0.15132295 0.41746828 0.26587656 -0.049348906 0.40587077 -0.039923932 0.17555209 -0.172977 0.12783471 -0.25240752 0.055746946 0.4639155 -0.09525404 0.2632778 -0.2369705 0.3472607 -0.03924949 -0.03980133 0.121522136 -0.05925117 -0.27212104 0.17763123 -0.17085384
280 0.709116 -0.13138667 -0.16313913 0.005945162 0.88709015 -0.6365055 0.93923455 0.1018062 -0.23326224 0.32924655 0.74084806 -1.1230855 0.37702617 -1.02117 0.22032137 0.30559534 -0.45600945 -0.2991057 0.15297255 0.28037673 0.05535869 0.11866651 0.6917379 0.78420526 -0.08944154 0.93857986 -0.59322226 0.5209311 -0.1726418 0.086501844 -0.10286262 0.1510407 -0.6783068 -0.28416833 -0.6445159 1.0916501 -0.37208417 0.5930841 -0.59216034 -0.13490494 0.9424135 -0.4901342 -0.4918337 0.07492416 0.15131243 -0.09575962 -0.22817993 0.07692047 -0.8420523 1.1216605 0.3549013 0.13368686 0.75923485 0.95006335 0.3094364 0.1581261 -0.09488322 -0.41209477 -0.83158684 0.21586585 0.3445639 -0.28481314 0.20247911 -0.7681065
221 -0.20331521 -0.24651179 0.24418947 0.7482447 0.11714725 -0.10069729 -0.6310398 0.0959559 -0.30802375 0.25056034 0.4459537 -0.11074094 0.0942884 -0.71513635 0.121891506 -0.55543715 -0.20471397 0.021889193 0.118539795 0.100314066 0.67084324 0.49303564 0.53509736 -0.46112192 -0.45050302 0.098327 -0.19048655 0.09209525 0.33224165 -0.38226533 -0.21403182 0.24048243 -0.3778576 0.32369527 -0.3295135 -0.39148194 0.5601942 -0.1955952 0.73353785 0.39710906 -0.45854405 -0.22539541 -0.25655636 0.12803338 0.35663795 0.010306237 -0.20422705 0.23775995 -0.41195935 0.40089875 -0.15977982 0.32402402 -0.079616815 0.7006746 -0.06948583 0.08062021 0.85307336 -0.050131913 -0.112360194 -0.2037186 0.63351506 0.08642995 0.6004123 -0.07215558
16 0.9326341 -0.97888464 0.41489235 0.573845 0.8726005 -0.08236646 0.606721 -0.32393527 -0.95646346 0.038116828 -0.5467896 -0.14501947 -0.9996411 -0.71177524 0.6594482 0.5407604 -0.22722135 -0.60255396 -0.19658992 0.50616026 0.9427909 0.3496695 0.18238822 0.39768046 0.19479983 -0.5003099 -0.72541624 -0.46066457 0.19184875 -0.023404323 0.41614056 -0.33120614 0.27060312 0.24795176 -0.6687326 -0.5637061 -0.70864993 -0.292631 -0.11646441 0.45098695 -0.86751914 0.19229336 -0.04541113 0.43913788 0.1186557 -0.42690587 1.0272268 -0.8711822 -1.0057753 0.29938862 0.4910272 -0.48736268 -0.36768135 -0.16589075 -0.0989938 -0.19333681 -0.56976104 0.29338193 -0.046157684 0.38191923 0.37505743 -0.32626492 -0.034513753 0.18623947
113 0.061200097 -0.3414482 -0.28630927 0.5768051 0.7063262 0.25682557 -0.21426068 0.081493944 -0.078919165 0.016970221 -0.32577735 -0.1542168 -0.14978711 0.31487024 -0.0672327 0.5384131 -0.39538252 0.10241402 -0.41266793 0.54496324 0.74947274 0.20892756 -0.001983569 -0.79401684 -0.33679202 0.15902132 -0.33271566 -0.65524966 0.042041577 -0.25993657 -0.56907266 -0.18200016 -0.15906273 0.12182973 -0.0118184965 -0.0041148383 -0.24981417 0.5169862 0.12711994 -0.48457626 -0.056918893 -0.52614033 0.29836208 -0.11182581 0.22191605 -0.14195877 0.28873894 -0.28593346 0.04099401 0.2575681 -0.3171467 -0.02978066 0.80279016 0.29239857 -0.28454155 0.2692218 0.5958206 -0.07719203 -0.12372808 -0.6891885 0.020528935 -0.99778175 0.122919925 -0.59121335
88 1.3073438 -0.9664208 0.45028 0.7858089 0.2522427 0.13849631 0.19232483 -0.7825542 -1.0131371 0.3820884 0.1831559 0.18699118 -0.7835743 -0.24363224 -0.20475042 0.48630592 -0.47248 -0.82236356 -0.38352877 0.27960122 0.89597464 0.31136993 0.36409146 -0.4051145 0.5889871 0.25062674 -0.3374456 0.26820642 0.53520435 0.35284132 0.953537 -0.021868631 -0.2578424 0.33973643 -0.48012468 0.44642338 0.19962236 0.14841677 -0.05738217 0.46926644 0.075895965 -0.66799736 0.5997361 -0.023612566 -0.012396011 -0.14338242 0.85831213 -0.7728556 -0.7639 -0.37482774 -0.36849272 -0.47209454 0.4129112 -0.7992066 0.7302446 0.24839735 -0.045105737 -0.5329371 -0.60554487 -0.3802243 -0.5145148 -0.038583875 -0.07447904 0.295576
122 -0.105582714 -0.18746929 0.3466463 0.67680913 0.09000033 -0.18260482 -0.6493683 0.24470288 -0.1737635 0.33794442 0.37303248 -0.22397521 -0.04734566 -0.58352023 0.14093085 -0.5227789 -0.10177962 0.051650282 0.12627612 0.054982617 0.7026891 0.46242538 0.5769593 -0.32130075 -0.4588494 0.13967964 -0.30094752 0.1415991 0.3620205 -0.25630614 -0.19320826 0.22507961 -0.40476573 0.4174324 -0.28237325 -0.40812692 0.41398227 -0.15757458 0.7152448 0.56645393 -0.4436295 -0.24590512 -0.19160746 0.07656142 0.34270966 -0.17461663 -0.18958549 0.2498524 -0.3979849 0.4398213 -0.054074276 0.2137144 -0.17676665 0.8197118 0.006178002 0.08480614 0.93692356 -0.031389665 -0.043330744 -0.2789 0.57213396 -0.06882545 0.64226043 0.04237153
231 -0.4436249 -0.5413381 0.41627157 0.5161609 0.01905644 -0.1061071 -0.56724733 0.47717592 -0.73291767 0.8391908 0.109432615 0.7439085 -0.0922209 -0.669527 -0.27818963 -0.6803893 -0.17701936 -0.40174878 0.5021885 0.30659503 1.6084418 0.63129467 0.20613155 -0.19531311 -0.0044622314 -0.19818804 -0.78919643 0.31647232 -0.025212493 0.061194472 -0.17015162 -0.029417116 -0.9192259 0.10728576 -0.23075631 -0.15771449 0.37337667 -0.22699296 0.5413458 0.11333624 -0.51113474 0.40825826 0.29059494 0.13378052 0.24530357 -0.71181357 -0.3003137 0.5685668 -0.08491792 0.44316658 -0.29210547 0.53163594 -0.0001174027 1.5201584 -0.10006851 0.106645174 0.4247444 -0.11786794 -0.034376442 -0.5331443 0.33811152 0.29285687 0.17406963 -0.08641452
105 0.025770256 -0.35586095 -0.19515784 0.5073388 0.53486603 0.3154919 -0.2841812 0.22912677 -0.032542955 -0.07615856 -0.35092095 -0.12968382 -0.37730375 0.11372978 -0.026672503 0.44264382 -0.522277 0.02113453 -0.339732 0.46529973 0.6092018 0.2566547 -0.083929874 -0.6989844 -0.37817332 0.18089467 -0.44058537 -0.6732865 -0.10521931 -0.31666717 -0.5963668 -0.31865594 -0.20345777 0.18874979 -0.099287026 0.13033882 -0.45739165 0.55656415 0.118519515 -0.32579595 -0.15256624 -0.6377872 0.23369975 -0.17249723 0.39714026 -0.20560956 0.21254511 -0.33250833 -0.0031056511 0.14654443 -0.09599012 0.025461974 0.6835956 0.24947858 -0.09351052 0.34890455 0.5972062 -0.13778853 -0.20734596 -0.7153418 0.039639052 -0.8796249 0.12766373 -0.6768094
236 -0.13712366 -0.3750742 0.39300323 0.63685733 0.081300445 -0.0741905 -0.55843997 0.27084625 -0.23694201 0.3178402 0.3252035 -0.23944375 0.15376545 -0.6848925 0.10490277 -0.5682728 -0.18794157 0.15847073 0.102387816 0.008739675 0.7762475 0.49797893 0.48429194 -0.35454404 -0.42464975 0.011050775 -0.277039 0.18139388 0.3018681 -0.19834976 -0.10442116 0.21572945 -0.3767906 0.20554072 -0.2787375 -0.43284553 0.43217364 -0.18418777 0.67543274 0.4508427 -0.40160936 -0.35983762 -0.1718222 0.1784569 0.2836526 -0.15145552 -0.19774364 0.3252208 -0.41355798 0.37292874 -0.14869775 0.260548 -0.017342903 0.80386287 -0.04179421 0.07694438 1.1097741 0.0072673466 -0.12850282 -0.10375888 0.5430538 0.08034308 0.7318193 -0.07860558
388 0.017145101 -0.1354917 0.02227685 -0.15655534 0.47039056 -0.55483633 0.502632 0.056886043 -0.123529635 0.27802497 -0.01293671 -1.0095882 0.2826378 -0.43572497 0.15551822 0.21548268 0.23512727 -0.21314514 0.1773414 -0.16008218 0.3906701 0.7132764 0.31822082 0.09608706 0.14720161 0.68100494 -0.10024764 -0.008706572 -0.11867503 -0.38550246 0.1350376 -0.1789043 -0.39702803 -0.12507577 -0.79369587 0.0646727 -0.29112947 0.27245918 -0.5054928 -0.18422356 0.16300936 -0.54853654 -0.28446686 0.32987157 0.08195672 0.19587506 -0.25566837 -0.053485997 -0.5041364 0.9342064 -0.39658457 -0.09604015 0.4122484 0.28973213 0.14686896 0.34723058 -0.044883087 -0.92901117 -0.4529883 -0.02356235 0.2315194 -0.072851226 -0.12844494 -0.12273993
123 -0.11770524 -0.41454947 -0.12913866 -0.5339546 1.4540572 -0.010809478 0.31319952 0.06525386 0.2724712 0.089196675 -0.3790245 -0.32298827 -0.8796812 0.24974284 -0.8939314 0.84357256 -0.95556134 -0.35749525 0.7648612 1.1364652 0.8393252 -0.16960585 -0.14905973 -1.1832341 -0.2535073 0.20894955 -0.80793226 0.033232376 -0.64018697 -1.0847951 -0.111299165 0.1375249 -0.3703964 0.24592037 0.31642136 -0.2486646 -0.68475056 0.15695731 0.7194308 -0.23038653 -0.17098854 0.27939782 0.37360024 0.5307434 0.8301357 -0.028032346 1.0352296 -0.1122663 0.7629416 0.3460591 -0.61283654 -0.08139815 0.72763366 0.38056794 -0.07546059 0.40848365 1.0986546 -0.16273022 -0.13788117 -0.635495 0.18540195 -0.31759828 0.80072725 -0.9628116
350 -0.24050009 -0.2953702 0.29882467 0.70771253 0.16862436 -0.09115805 -0.5785819 0.0649024 -0.20630607 0.31836018 0.41665787 -0.2179736 0.100283 -0.6815874 0.08711883 -0.5212112 -0.063242614 0.07774617 0.12906736 -0.07048213 0.8384779 0.42115715 0.5400866 -0.27585357 -0.460267 0.0075717405 -0.2643712 0.13002212 0.30186698 -0.28834468 -0.13539024 0.24581613 -0.40098605 0.22589819 -0.2206229 -0.40107048 0.49389026 -0.2291034 0.6669128 0.53742033 -0.482947 -0.30852732 -0.23890977 -0.0031275563 0.30369055 -0.13898516 -0.16545726 0.23951265 -0.41375557 0.43662542 -0.23031917 0.11076508 0.019976184 0.86757594 -0.1001223 0.013401313 0.8962776 0.085440636 0.009357526 -0.14992356 0.5612325 0.032480124 0.6375738 0.0040271804
223 0.08341293 -0.43395957 -0.2508538 0.5600451 0.5600566 0.32172218 -0.18089047 0.11659113 -0.008523691 -0.04516919 -0.2690726 -0.17780794 -0.2560192 0.148492 -0.053865116 0.48684213 -0.53930813 -0.026040241 -0.3599074 0.48688003 0.7326741 0.15267773 0.076849736 -0.6916947 -0.3921788 0.16219606 -0.6328466 -0.7792099 0.03374318 -0.36942664 -0.6127612 -0.2903614 -0.14654256 -0.10510951 -0.02107684 0.060824715 -0.3522403 0.5765162 0.0699923 -0.38600966 -0.06459223 -0.66865623 0.2731103 -0.17845124 0.24541856 -0.2533646 0.13120969 -0.3185912 0.0822734 0.15798979 -0.14078781 0.07354488 0.76637733 0.30241948 -0.2548734 0.3727005 0.58449286 -0.13954069 -0.12029749 -0.7215127 -0.012789665 -0.9100853 0.23027472 -0.66693604
332 0.45369783 -0.5824773 0.5294269 0.28549775 0.24680218 -0.2513899 0.451035 -0.15939535 -0.49768975 0.32699016 -0.08197349 -0.56130123 -0.49343485 -0.9554998 -0.08166099 0.53336346 0.50245804 -0.19348164 0.415945 0.33791786 -0.073756985 1.0332173 0.13423769 -0.18140478 0.45589668 1.3183084 0.41748112 -0.14357206 -0.23027201 -0.28107166 -0.017749565 -0.062357757 -0.3067364 -0.15776497 -1.4845645 0.41252795 -0.12511314 0.5120699 -0.1685298 -0.4414887 0.87451124 -0.042515215 -0.66351676 0.47609168 -0.3346537 0.08655165 -0.08802068 0.15519415 0.40657118 1.33533 -0.24872145 0.17501388 0.9855275 0.07464741 0.23051871 0.104139686 0.06406502 -1.6422514 0.017494544 0.46849015 0.4353115 -0.8192926 0.38203996 0.34674817
294 -0.07129457 0.0548067 -0.16408658 0.42565167 -0.2318666 0.14642148 0.26484314 0.07120761 -0.34972963 0.082248904 0.18871047 -0.6059106 -0.84306616 0.24857354 0.42747134 -0.11421301 0.23459749 -0.15781762 -0.24857527 0.2561603 0.26159033 0.46999177 0.03435106 0.171184 0.09469074 -0.18736456 -0.3588849 0.048422247 -0.07773189 0.07759219 -0.24618556 0.1535367 0.24395892 -0.22682732 -0.043616172 0.38562247 0.26167613 0.18443963 0.07167172 0.18867795 -0.4596548 0.101335414 0.40434802 0.28580806 0.05314277 0.45637053 0.0029655488 0.047034446 -0.17061962 0.19885746 -0.32359096 -0.010429165 0.29546374 -0.14735954 0.1814224 -0.15995021 0.33972695 0.022097077 -0.08794335 0.04804942 0.08552554 -0.17727341 0.11880066 -0.13510132
120 -0.8024143 -1.0565085 0.8216813 0.8417562 -0.12139537 -0.41630566 -0.64430904 0.1898935 -0.7242977 -0.07781911 0.02706411 -0.37420884 -0.15691322 -0.31106955 0.098309845 -0.5600151 0.474616 0.44688907 0.3224037 -0.21717562 0.3090022 0.62326604 0.76401466 -0.32964534 -0.042506386 0.25802186 -0.66789657 0.7702518 0.38055015 -0.44276187 0.28708866 -0.030858712 -0.51716745 0.4435332 -0.3219056 0.2123342 0.27353913 -0.6030508 0.5451103 0.95126575 -0.49758953 -0.10992135 -0.6732642 -0.63799524 0.3524523 -0.3036663 0.2893849 0.26236823 -0.38917816 0.58994 0.38694 -0.027065914 0.8561116 0.43101236 -0.4632345 0.876157 0.8293442 0.29683703 -0.11693783 0.33610183 1.0600705 -0.43191418 0.93673134 -0.17661145
374 -0.16662163 -0.15540095 0.16127671 -0.01879166 0.53481066 -0.48383275 0.36660165 0.15172264 -0.14407681 0.52998734 -0.10968411 -0.95214576 0.21481346 -0.46756876 0.13788342 0.28928265 0.417999 -0.18170594 0.024244955 -0.17004773 0.25736597 0.6455838 0.14529088 0.11248488 0.1494737 0.7339749 0.150554 0.054704484 -0.12155842 -0.49487123 0.09921774 -0.09849734 -0.3325272 -0.21074383 -0.923017 -0.037696693 -0.3282074 0.39869985 -0.3808449 -0.09913753 0.04046647 -0.5610034 -0.2087013 0.35917938 0.13036294 0.16477911 -0.09493214 -0.16250159 -0.2775576 0.95820254 -0.3346096 -0.0057715825 0.33913794 0.3326895 0.20942561 0.28537706 -0.041105185 -0.9624841 -0.37933722 0.05243786 0.06024373 -0.05956714 -0.14542682 -0.15492828
378 0.41227964 -0.6219664 0.46456012 0.34853628 0.20926936 -0.7821614 -0.4606303 -0.47869864 -0.8147572 -0.19393986 0.26991922 -0.01029127 -0.5371296 -0.38559887 0.96969354 0.086983904 -0.18356347 -0.30547208 0.21799055 0.41477838 0.009265266 0.22854422 0.40565267 -0.09260001 -0.21311349 0.16622013 -0.03416607 0.27253845 0.44479713 0.57260025 0.13614893 0.05570705 0.094441414 -0.19428527 0.123294994 -0.3076848 -0.21831664 -0.12694675 0.22818516 -0.042099603 -1.2300977 -0.49336398 -0.4239573 0.41248193 0.23214068 -0.06713101 0.16786402 -0.9958885 0.04776908 0.738389 -0.56882185 -0.2868113 0.51504254 -0.4570892 -0.12183329 -0.28910053 -0.515826 -0.23931254 0.15041783 -0.8440824 -0.16511193 0.4184348 0.3549026 -0.95334905
363 -0.15267116 -0.39288253 0.2086742 0.7090401 0.12825648 -0.17160906 -0.62380695 0.19894391 -0.26385394 0.2601204 0.42060968 -0.14499131 0.025164017 -0.6227567 0.26984325 -0.5604362 -0.16974266 0.19811696 0.12537834 0.09062336 0.6917104 0.47155824 0.6199433 -0.27812424 -0.38133034 -0.05554257 -0.18924202 0.058119383 0.31519365 -0.3060574 -0.10958602 0.2568568 -0.4245131 0.2345542 -0.39097342 -0.4575351 0.41070354 -0.1160246 0.72992265 0.52272415 -0.22433789 -0.26836526 -0.27781847 0.12856252 0.26801342 -0.15173608 -0.16471837 0.15331542 -0.43431732 0.40352258 -0.07298802 0.31179 -0.00045894235 0.83504367 -0.086592 0.08409866 0.9108923 -0.13511495 -0.10566651 -0.2757298 0.5255526 0.0058257533 0.72873604 -0.060882613
201 0.3434397 -0.70185816 0.1968347 0.60844654 0.30196068 -0.9501038 -0.7918387 0.04329339 -0.7625924 -0.7068617 0.42167276 0.093531355 -0.6644533 -0.7457958 0.44889674 0.5627426 0.17964217 -0.66910636 0.7053297 0.228282 -0.19009206 0.7812015 0.0039006881 0.46520683 -0.086811334 0.18774697 0.051420674 -0.073578954 0.53433335 0.3365426 -0.53249025 0.17594194 -0.07186934 -0.07461259 -0.05079993 -0.8521671 -0.4804547 -0.47828344 0.4610612 0.6706842 -0.22077271 -0.8444674 0.43606752 0.7394563 0.23062322 -0.20093428 0.0694661 -0.26475728 -0.05020409 0.24102359 -1.1094643 -0.5273371 0.3607009 -0.12592605 0.46293488 -0.48552546 -0.3144346 -0.41820812 0.84921867 -1.1482081 -0.34803712 -0.12825778 0.5821959 -0.96642506
